~o
<STREAMINFO> 1 39
<VECSIZE> 39<NULLD><MFCC_D_A_0><DIAGC>
~s "silst"
<MEAN> 39
 -2.217021e+00 3.994019e+00 -2.537060e+00 4.868787e+00 -2.769818e+00 2.535309e+00 -3.236173e+00 1.861850e+00 -2.706347e+00 -1.646117e+00 -2.224973e+00 -1.114932e+00 5.016686e+01 -6.426488e-02 2.251925e-02 2.365341e-02 2.772102e-02 6.870320e-02 2.060686e-02 2.677752e-02 -2.302393e-02 -1.532882e-02 1.764068e-02 3.080431e-02 1.581583e-03 -4.227632e-02 1.680639e-02 -4.502985e-02 4.979359e-02 -5.935386e-02 4.977537e-04 -3.943559e-02 -3.483386e-02 -3.602893e-02 -3.215026e-02 8.890316e-03 -2.758382e-03 -4.235598e-02 1.003785e-01
<VARIANCE> 39
 1.013813e+01 1.909443e+01 1.574641e+01 1.607911e+01 2.197718e+01 2.427706e+01 2.143252e+01 2.559832e+01 2.162213e+01 2.203865e+01 2.076680e+01 1.923027e+01 1.101618e+01 3.975034e-01 8.621823e-01 1.018197e+00 1.185007e+00 1.504847e+00 1.617707e+00 1.703865e+00 1.957334e+00 1.839161e+00 1.816439e+00 1.707780e+00 1.561040e+00 3.572135e-01 7.843106e-02 1.605643e-01 1.997550e-01 2.432192e-01 3.055684e-01 3.196691e-01 3.438936e-01 3.845322e-01 3.704493e-01 3.662918e-01 3.379129e-01 3.075787e-01 7.700481e-02
<GCONST> 9.341466e+01
~h "@"
<BEGINHMM>
<NUMSTATES> 5
<STATE> 2
<MEAN> 39
 1.125065e+00 -3.716596e+00 1.779805e+00 -2.041044e+00 -6.099231e+00 -5.371378e+00 -9.873330e+00 -1.245239e-02 -1.827312e+00 1.442536e+00 4.793853e-01 -7.630395e+00 6.450459e+01 8.372635e-01 -1.044528e+00 4.055414e-01 -5.460352e-01 -9.605463e-01 -2.873606e-01 -6.600193e-01 6.545328e-01 2.445554e-01 2.771113e-01 2.883463e-01 -6.443686e-01 1.138592e+00 -1.066291e-01 4.539783e-01 2.436776e-02 3.954496e-01 1.094305e-01 4.609849e-01 3.353591e-01 -1.497689e-01 -2.500585e-01 -1.718872e-01 -2.181430e-01 2.290485e-01 -5.245903e-01
<VARIANCE> 39
 2.123325e+01 4.384342e+01 4.980436e+01 4.778089e+01 6.529736e+01 7.261611e+01 7.314074e+01 7.672649e+01 6.352552e+01 4.921741e+01 4.602771e+01 5.129885e+01 3.324178e+01 2.630779e+00 3.344666e+00 3.536826e+00 4.482428e+00 4.415741e+00 5.822120e+00 5.268321e+00 7.447524e+00 6.131734e+00 4.625019e+00 4.678109e+00 3.910146e+00 3.479055e+00 3.854331e-01 5.082036e-01 5.165936e-01 6.956575e-01 7.678398e-01 7.931465e-01 8.995038e-01 9.431428e-01 8.203911e-01 7.446925e-01 6.751659e-01 5.896752e-01 5.108769e-01
<GCONST> 1.366566e+02
<STATE> 3
<MEAN> 39
 1.913999e+00 -5.133137e+00 2.390196e+00 -2.795058e+00 -7.371619e+00 -5.001630e+00 -1.078870e+01 1.116279e+00 -1.360727e+00 1.195299e+00 1.097472e+00 -8.466866e+00 6.591139e+01 4.620345e-01 4.669392e-02 3.056024e-01 3.825960e-01 -4.090564e-01 4.740537e-01 -5.278848e-02 -6.662993e-02 -2.019632e-01 1.579269e-02 -9.393956e-02 4.060683e-02 -1.151158e-01 -2.561745e-01 5.662696e-01 -4.276594e-02 4.849243e-01 3.367333e-01 3.218110e-01 4.245600e-01 -3.787970e-01 -2.875462e-01 -1.592879e-01 -2.987829e-01 3.480444e-01 -6.443400e-01
<VARIANCE> 39
 1.605345e+01 4.774543e+01 5.002887e+01 5.477772e+01 6.663194e+01 7.258559e+01 7.214059e+01 9.542146e+01 7.531822e+01 5.754515e+01 5.199646e+01 5.741107e+01 3.043743e+01 1.571174e+00 2.154589e+00 2.285299e+00 3.308179e+00 3.112012e+00 3.951483e+00 4.220046e+00 4.406302e+00 4.164096e+00 3.291464e+00 3.704295e+00 2.826779e+00 1.996601e+00 3.563493e-01 4.558139e-01 5.580665e-01 7.020353e-01 7.512751e-01 7.455088e-01 8.851256e-01 1.224021e+00 9.612380e-01 8.668858e-01 7.717780e-01 6.991255e-01 4.345752e-01
<GCONST> 1.327927e+02
<STATE> 4
<MEAN> 39
 1.893182e+00 -4.458644e+00 3.328992e+00 -1.446509e+00 -7.824545e+00 -5.006441e+00 -1.026761e+01 1.637426e+00 -2.424622e+00 7.731344e-01 3.887025e-01 -7.635783e+00 6.446246e+01 1.059152e-01 8.117678e-01 -8.395620e-03 9.590229e-01 1.773034e-01 6.786267e-01 4.579955e-01 -6.548300e-01 -4.190129e-01 -1.106480e-01 -5.116733e-01 3.852097e-01 -1.005184e+00 -1.765345e-01 1.596319e-01 -8.278913e-02 1.060719e-01 1.523997e-01 4.872719e-02 1.783422e-01 -9.420630e-02 -5.459199e-02 -8.904493e-02 -1.034454e-01 7.901191e-02 -1.869008e-01
<VARIANCE> 39
 1.469572e+01 5.058629e+01 4.807460e+01 5.105140e+01 6.571340e+01 6.676241e+01 6.235771e+01 9.221794e+01 6.741102e+01 5.157334e+01 4.870007e+01 5.448133e+01 3.154457e+01 1.073348e+00 2.093505e+00 2.109572e+00 2.683885e+00 2.890684e+00 2.975275e+00 3.537811e+00 3.599682e+00 3.289376e+00 2.966164e+00 2.797673e+00 2.356620e+00 1.934981e+00 2.449643e-01 3.468114e-01 3.937938e-01 5.001553e-01 5.244730e-01 5.353528e-01 6.443863e-01 8.062422e-01 6.878625e-01 5.849370e-01 6.525182e-01 4.807337e-01 3.158291e-01
<GCONST> 1.254522e+02
<TRANSP> 5
 0.000000e+00 1.000000e+00 0.000000e+00 0.000000e+00 0.000000e+00
 0.000000e+00 1.185637e-01 8.814363e-01 0.000000e+00 0.000000e+00
 0.000000e+00 0.000000e+00 1.459590e-01 8.540410e-01 0.000000e+00
 0.000000e+00 0.000000e+00 0.000000e+00 3.736939e-01 6.263061e-01
 0.000000e+00 0.000000e+00 0.000000e+00 0.000000e+00 0.000000e+00
<ENDHMM>
~h "a"
<BEGINHMM>
<NUMSTATES> 5
<STATE> 2
<MEAN> 39
 2.163716e+00 -1.025205e+01 -8.997463e-01 -7.587406e+00 -4.295901e+00 -1.226279e+00 -9.782839e+00 5.536088e+00 -6.665066e-01 3.451125e-01 -2.126292e+00 -1.194039e+01 6.899622e+01 1.511356e-01 -1.022689e+00 -1.901465e-01 -5.887275e-01 3.669114e-01 3.557155e-01 9.124074e-02 8.541282e-01 9.770600e-02 -2.102907e-01 -5.456247e-01 -6.777877e-01 7.901111e-01 -1.155386e-01 7.659512e-01 1.988010e-01 6.460215e-01 -2.310023e-03 -7.010771e-02 1.730363e-01 -5.673157e-01 -3.555883e-01 -1.387184e-03 1.135409e-01 5.620152e-01 -6.756400e-01
<VARIANCE> 39
 9.897241e+00 2.663088e+01 4.242197e+01 4.307588e+01 5.809340e+01 7.941273e+01 6.038446e+01 6.133071e+01 6.988486e+01 6.780882e+01 4.712983e+01 5.219418e+01 2.111894e+01 1.001181e+00 2.542993e+00 2.453974e+00 3.098150e+00 3.330672e+00 3.972766e+00 3.575638e+00 4.895883e+00 3.513250e+00 3.640540e+00 3.350583e+00 3.304428e+00 2.020322e+00 1.919306e-01 3.664602e-01 3.563870e-01 4.894974e-01 5.602617e-01 6.119709e-01 6.180439e-01 7.904621e-01 6.907028e-01 7.068179e-01 5.879993e-01 5.504219e-01 2.847018e-01
<GCONST> 1.255133e+02
<STATE> 3
<MEAN> 39
 2.170950e+00 -1.052722e+01 -3.206625e-01 -7.670101e+00 -4.081189e+00 -1.651024e+00 -9.690712e+00 6.277151e+00 -1.342821e+00 1.870247e-01 -2.473588e+00 -1.170731e+01 6.927607e+01 1.652454e-01 9.884202e-01 1.395426e-01 9.805965e-01 -2.154407e-02 -7.337049e-02 2.356705e-01 -6.247528e-01 -5.179614e-01 2.226313e-01 1.886684e-02 6.358460e-01 -9.292474e-01 -1.038244e-03 5.337330e-01 9.257406e-02 4.296336e-01 -1.276381e-01 4.409644e-02 8.859751e-02 -4.282401e-01 -1.206807e-01 3.126016e-02 7.313418e-02 2.406516e-01 -4.813787e-01
<VARIANCE> 39
 8.751929e+00 2.596855e+01 4.263004e+01 4.033822e+01 5.371690e+01 7.796403e+01 5.835525e+01 6.410190e+01 7.301965e+01 6.943269e+01 4.895786e+01 5.298022e+01 1.632662e+01 4.826529e-01 1.558038e+00 1.532395e+00 1.851191e+00 2.169532e+00 2.936612e+00 2.556324e+00 3.178787e+00 2.454953e+00 2.640269e+00 2.418683e+00 2.138428e+00 1.091017e+00 1.186699e-01 2.236631e-01 3.228879e-01 3.194545e-01 4.240142e-01 5.408213e-01 5.404234e-01 6.755250e-01 5.104324e-01 5.648801e-01 5.273075e-01 4.347094e-01 1.380622e-01
<GCONST> 1.155312e+02
<STATE> 4
<MEAN> 39
 2.848466e+00 -4.337375e+00 -1.820374e+00 -1.982295e+00 -3.505500e+00 -4.367163e-01 -7.262864e+00 3.009712e+00 -2.941345e+00 7.411029e-01 -3.376862e+00 -8.079436e+00 6.221176e+01 2.556678e-03 1.243920e+00 -4.015837e-02 1.202719e+00 -1.523449e-01 3.502941e-01 4.971466e-01 -7.235438e-01 -2.725579e-01 -1.119151e-01 -1.536398e-01 5.435315e-01 -1.370822e+00 -8.878732e-02 -6.506795e-02 4.795203e-02 -1.135606e-01 -3.450157e-02 -8.121520e-03 -8.544996e-03 -4.417595e-03 3.571269e-02 -4.937977e-02 6.499514e-03 -4.977829e-02 9.726108e-02
<VARIANCE> 39
 9.394265e+00 3.047941e+01 4.469317e+01 4.270322e+01 4.257965e+01 5.771554e+01 5.005079e+01 4.880109e+01 5.163634e+01 4.944467e+01 4.231829e+01 4.367870e+01 3.164905e+01 5.736450e-01 1.290925e+00 1.615545e+00 1.970799e+00 2.116465e+00 2.455206e+00 2.456776e+00 3.115484e+00 2.617709e+00 2.557609e+00 2.300394e+00 2.064110e+00 1.013142e+00 1.087023e-01 2.053032e-01 2.337165e-01 3.033314e-01 3.249410e-01 4.090420e-01 4.189604e-01 5.256004e-01 4.197914e-01 4.165882e-01 4.100563e-01 3.661529e-01 1.420273e-01
<GCONST> 1.117594e+02
<TRANSP> 5
 0.000000e+00 1.000000e+00 0.000000e+00 0.000000e+00 0.000000e+00
 0.000000e+00 4.825235e-01 5.174764e-01 0.000000e+00 0.000000e+00
 0.000000e+00 0.000000e+00 5.470265e-01 4.529735e-01 0.000000e+00
 0.000000e+00 0.000000e+00 0.000000e+00 6.241835e-01 3.758165e-01
 0.000000e+00 0.000000e+00 0.000000e+00 0.000000e+00 0.000000e+00
<ENDHMM>
~h "b"
<BEGINHMM>
<NUMSTATES> 5
<STATE> 2
<MEAN> 39
 5.215514e+00 7.354778e+00 1.894256e+00 5.043015e+00 -3.982168e+00 2.377096e+00 -6.926334e+00 -3.766787e+00 -7.947622e+00 -2.305250e+00 -2.277465e+00 -4.937393e+00 5.570275e+01 2.908389e-01 -2.618286e-01 -3.797390e-01 -9.359948e-01 6.542542e-02 -3.317004e-01 -7.798717e-01 -4.290164e-01 9.121072e-02 2.460218e-01 6.985804e-01 2.713840e-01 6.254765e-01 -1.216939e-01 -7.910976e-01 5.906614e-02 -9.138281e-01 -2.846040e-01 -2.769213e-01 -6.959770e-01 3.997249e-02 2.643250e-01 5.378016e-01 5.077418e-01 -1.842166e-01 6.977600e-01
<VARIANCE> 39
 6.779968e+00 2.178391e+01 1.886712e+01 2.368530e+01 2.763442e+01 2.962521e+01 3.135388e+01 2.777761e+01 2.624654e+01 2.301182e+01 2.349795e+01 2.501715e+01 1.196399e+01 7.309805e-01 2.881900e+00 1.701199e+00 5.757474e+00 2.651030e+00 3.123389e+00 4.595141e+00 3.273487e+00 3.661264e+00 3.659904e+00 3.748419e+00 2.398793e+00 2.248098e+00 1.280406e-01 4.071209e-01 3.641967e-01 5.642854e-01 4.803680e-01 6.135537e-01 5.837827e-01 6.873050e-01 7.709699e-01 6.759282e-01 6.168888e-01 5.885760e-01 2.181529e-01
<GCONST> 1.151084e+02
<STATE> 3
<MEAN> 39
 5.950189e+00 2.067014e+00 3.317635e-01 -4.528060e+00 -5.104569e+00 1.193381e+00 -1.371823e+01 -7.040405e+00 -7.438356e+00 2.706676e+00 4.184961e+00 -4.395681e+00 6.174157e+01 -2.410918e-01 -2.643529e+00 9.645869e-02 -2.844299e+00 -7.143920e-01 -7.210025e-01 -2.576585e+00 5.642125e-01 1.668863e+00 2.245599e+00 1.446590e+00 -1.519516e+00 2.432452e+00 -3.060700e-01 -1.524785e-01 3.427957e-01 5.182962e-01 -1.390929e-01 -1.271020e-01 3.486511e-01 7.637413e-01 3.905090e-01 -2.506538e-01 -6.622344e-01 -4.705087e-01 -5.036654e-02
<VARIANCE> 39
 6.794867e+00 3.479233e+01 2.233753e+01 8.301429e+01 4.636567e+01 5.030601e+01 5.246194e+01 3.449004e+01 5.217728e+01 5.776909e+01 5.134350e+01 3.384277e+01 2.187930e+01 9.177148e-01 3.990926e+00 3.143244e+00 7.061717e+00 3.854928e+00 5.988036e+00 4.658976e+00 5.486885e+00 7.423369e+00 6.949888e+00 5.816685e+00 5.465234e+00 1.908655e+00 1.290266e-01 4.185233e-01 3.828136e-01 1.131004e+00 6.941317e-01 6.918472e-01 8.756794e-01 7.861914e-01 1.077639e+00 1.094025e+00 1.082421e+00 6.976212e-01 3.159847e-01
<GCONST> 1.311767e+02
<STATE> 4
<MEAN> 39
 4.645252e+00 -3.148237e+00 1.728097e+00 -5.877771e+00 -6.254908e+00 -1.269804e+00 -1.682353e+01 -1.757744e+00 -1.791126e+00 5.199574e+00 2.665984e+00 -9.847240e+00 6.511364e+01 -7.050027e-01 -1.746276e+00 8.740358e-01 -6.142229e-01 -8.377408e-01 -1.197037e+00 -6.174926e-01 1.930111e+00 1.348884e+00 -7.722539e-02 -5.319301e-01 -1.106410e+00 1.430260e+00 -1.299645e-01 6.931829e-01 1.501696e-01 8.296977e-01 1.054618e-01 1.400264e-01 9.108885e-01 -8.347765e-03 -5.279062e-01 -7.813835e-01 -4.776778e-01 5.193133e-01 -6.170839e-01
<VARIANCE> 39
 6.958977e+00 4.878874e+01 3.302005e+01 9.513825e+01 5.604071e+01 6.759946e+01 6.173335e+01 4.935471e+01 7.016699e+01 7.768106e+01 7.204152e+01 6.489947e+01 2.604105e+01 9.336671e-01 2.694703e+00 3.830616e+00 5.544477e+00 3.707394e+00 4.823519e+00 4.576116e+00 6.031503e+00 6.599584e+00 5.429324e+00 6.564565e+00 4.971591e+00 1.750020e+00 1.231556e-01 5.079843e-01 3.734064e-01 1.192247e+00 7.364923e-01 7.568664e-01 8.641738e-01 7.520522e-01 9.532057e-01 1.245233e+00 1.226889e+00 8.761954e-01 3.119974e-01
<GCONST> 1.344187e+02
<TRANSP> 5
 0.000000e+00 1.000000e+00 0.000000e+00 0.000000e+00 0.000000e+00
 0.000000e+00 6.850701e-01 3.149300e-01 0.000000e+00 0.000000e+00
 0.000000e+00 0.000000e+00 3.610971e-01 6.389030e-01 0.000000e+00
 0.000000e+00 0.000000e+00 0.000000e+00 2.413445e-01 7.586555e-01
 0.000000e+00 0.000000e+00 0.000000e+00 0.000000e+00 0.000000e+00
<ENDHMM>
~h "c"
<BEGINHMM>
<NUMSTATES> 5
<STATE> 2
<MEAN> 39
 -2.521828e+00 3.899510e+00 -1.514843e-02 8.528871e-01 -2.838448e+00 -2.733209e+00 -5.352060e+00 2.606402e-02 -2.887349e+00 -1.339918e+00 -1.940023e+00 -2.960938e+00 5.563296e+01 -2.818750e+00 3.058394e-01 5.122615e-01 -1.410524e+00 1.310950e+00 -8.908470e-01 8.266919e-01 -3.410501e-01 2.727314e-01 -2.467569e-01 5.475215e-01 2.481354e-01 1.307103e+00 -3.747701e-01 -2.585703e-01 5.618218e-01 -3.376081e-01 -1.223495e-01 -5.506619e-01 -2.093904e-01 -2.011052e-02 2.094915e-01 -1.204475e-01 1.793643e-01 4.578219e-02 8.486846e-01
<VARIANCE> 39
 2.601984e+01 2.089178e+01 2.857635e+01 2.750401e+01 3.811047e+01 5.288865e+01 3.418946e+01 4.317375e+01 3.114972e+01 2.467045e+01 2.801833e+01 2.465592e+01 2.178848e+01 3.250665e+00 2.607460e+00 2.896261e+00 3.409523e+00 3.422606e+00 4.043022e+00 2.671615e+00 3.369522e+00 2.763781e+00 2.629952e+00 2.646823e+00 2.078789e+00 2.793492e+00 9.283585e-01 4.012127e-01 4.067491e-01 6.163172e-01 7.590672e-01 6.500506e-01 5.663796e-01 6.724093e-01 5.945225e-01 5.493266e-01 4.705665e-01 4.187604e-01 3.022333e-01
<GCONST> 1.217971e+02
<STATE> 3
<MEAN> 39
 -1.386689e+01 4.555310e+00 5.139557e+00 -4.541159e+00 -1.007322e-01 -7.469445e+00 -3.121058e+00 -9.258365e-01 -6.665263e-01 -3.933465e+00 6.636032e-01 -1.401537e+00 6.305204e+01 7.829580e-01 -1.435233e+00 1.312024e+00 -2.466468e-01 -1.432448e+00 -1.413617e+00 -1.329794e+00 3.899946e-01 6.564012e-01 -3.519611e-01 2.906889e-01 1.357119e-01 1.969288e+00 1.901002e+00 -6.775840e-01 -3.287023e-01 4.209478e-01 -8.200563e-01 4.698904e-01 -7.783149e-01 2.024494e-01 -1.826692e-01 3.109270e-01 -7.650132e-02 -3.216577e-01 -2.756276e-01
<VARIANCE> 39
 1.878041e+01 2.847828e+01 2.836000e+01 2.855720e+01 4.114434e+01 4.882671e+01 3.469489e+01 3.627610e+01 2.916868e+01 2.784599e+01 2.462767e+01 1.860096e+01 1.577134e+01 9.619533e+00 3.670751e+00 3.423282e+00 3.730826e+00 4.932538e+00 4.092866e+00 4.558480e+00 4.340121e+00 3.719429e+00 3.338558e+00 2.539321e+00 2.403637e+00 2.112785e+00 6.053225e-01 7.160571e-01 6.001478e-01 8.642750e-01 8.899665e-01 7.346463e-01 6.400763e-01 7.783319e-01 9.044511e-01 6.109695e-01 6.862406e-01 5.503147e-01 2.712187e-01
<GCONST> 1.266757e+02
<STATE> 4
<MEAN> 39
 -1.249250e+00 -4.733324e+00 5.887350e+00 -3.348495e+00 -7.845139e+00 -9.679053e+00 -1.217360e+01 1.989624e+00 1.060792e+00 -2.572885e+00 2.418104e-01 -3.344214e+00 6.811388e+01 3.458470e+00 -2.404299e+00 -6.549683e-01 -5.087397e-01 -1.483855e+00 8.779600e-01 -1.901539e+00 4.029593e-01 -1.941939e-01 9.760106e-01 6.934788e-01 -1.377869e+00 1.149042e+00 -4.103093e-01 6.949473e-01 -5.010417e-01 -2.271491e-02 6.342864e-01 8.827231e-01 7.867694e-01 -3.294138e-01 -4.987694e-01 1.056155e-01 4.289264e-02 -1.434249e-01 -7.708143e-01
<VARIANCE> 39
 1.383410e+01 3.390560e+01 4.656249e+01 2.816316e+01 2.796690e+01 3.778934e+01 5.725751e+01 7.137566e+01 4.217081e+01 4.169060e+01 2.090417e+01 1.854106e+01 1.939096e+01 2.565556e+00 4.074034e+00 3.445771e+00 2.924929e+00 4.219220e+00 3.526940e+00 3.993792e+00 6.026329e+00 5.301503e+00 3.680873e+00 3.662563e+00 3.376065e+00 1.345379e+00 7.868527e-01 5.303833e-01 5.093501e-01 5.323696e-01 6.341593e-01 6.251296e-01 7.947014e-01 6.730878e-01 6.782361e-01 7.297603e-01 4.955704e-01 5.916089e-01 2.780996e-01
<GCONST> 1.260631e+02
<TRANSP> 5
 0.000000e+00 1.000000e+00 0.000000e+00 0.000000e+00 0.000000e+00
 0.000000e+00 6.806467e-01 3.193533e-01 0.000000e+00 0.000000e+00
 0.000000e+00 0.000000e+00 6.406475e-01 3.593525e-01 0.000000e+00
 0.000000e+00 0.000000e+00 0.000000e+00 4.543880e-01 5.456120e-01
 0.000000e+00 0.000000e+00 0.000000e+00 0.000000e+00 0.000000e+00
<ENDHMM>
~h "d"
<BEGINHMM>
<NUMSTATES> 5
<STATE> 2
<MEAN> 39
 4.030253e+00 5.219604e+00 5.093863e+00 7.638224e+00 -7.063064e+00 -2.001643e+00 -7.734403e+00 7.264593e-01 -4.426102e+00 -2.576150e+00 -4.332171e+00 -5.249799e+00 5.602201e+01 -8.188074e-02 -3.595006e-01 3.644500e-01 -3.711034e-03 -3.198892e-02 -3.634190e-01 -3.090528e-01 8.166164e-03 7.404670e-02 -3.933990e-01 3.343639e-01 3.820181e-01 3.272476e-01 -3.572553e-01 -9.570260e-01 5.535360e-01 -9.090778e-01 -5.362985e-01 -5.687075e-01 -6.669697e-01 9.950452e-02 1.846935e-02 7.949203e-02 7.694654e-01 4.267902e-02 9.659086e-01
<VARIANCE> 39
 7.160275e+00 3.047956e+01 3.085456e+01 2.142015e+01 3.702795e+01 2.743530e+01 3.659752e+01 5.015688e+01 3.142449e+01 2.781179e+01 3.614828e+01 2.909329e+01 1.460049e+01 9.117270e-01 3.422998e+00 2.986997e+00 2.819936e+00 3.254067e+00 3.716895e+00 4.333988e+00 4.387209e+00 3.417825e+00 2.557731e+00 3.555708e+00 2.455997e+00 2.425750e+00 1.504520e-01 3.225843e-01 5.732783e-01 4.367311e-01 5.984582e-01 6.514094e-01 7.732690e-01 1.134358e+00 7.183219e-01 5.750271e-01 6.208392e-01 5.227440e-01 2.149525e-01
<GCONST> 1.193054e+02
<STATE> 3
<MEAN> 39
 2.458117e+00 -5.304766e-01 7.123977e+00 5.081512e+00 -7.620032e+00 -4.630318e+00 -1.052762e+01 -1.745005e-01 -3.746034e+00 -3.642032e+00 -1.483231e+00 -2.612726e+00 6.037196e+01 -8.321127e-01 -2.597366e+00 1.980311e+00 -2.498649e+00 -1.786701e+00 -1.944748e+00 -2.364957e+00 7.907302e-01 1.121084e-01 1.016819e-01 2.424392e+00 -4.755116e-02 2.872108e+00 -1.048538e-01 -5.552046e-03 1.030362e-01 -6.193889e-01 -3.056727e-01 4.189938e-03 -2.086737e-01 3.104150e-01 -1.211001e-01 3.830014e-01 2.701888e-01 -5.978557e-01 3.303174e-01
<VARIANCE> 39
 9.847753e+00 3.324787e+01 3.782594e+01 3.456775e+01 4.042216e+01 5.178412e+01 6.412656e+01 6.876443e+01 4.708062e+01 3.521575e+01 3.117003e+01 3.504887e+01 2.162410e+01 1.169218e+00 2.692048e+00 5.492875e+00 3.478917e+00 3.660570e+00 4.590545e+00 5.243285e+00 1.071090e+01 6.719662e+00 4.813214e+00 5.295212e+00 3.507167e+00 1.457331e+00 1.434396e-01 4.549645e-01 5.296003e-01 5.431581e-01 8.556260e-01 9.285690e-01 9.640018e-01 9.972943e-01 7.627204e-01 7.489769e-01 7.454479e-01 6.098553e-01 2.929741e-01
<GCONST> 1.290663e+02
<STATE> 4
<MEAN> 39
 1.191308e+00 -5.157812e+00 1.092982e+01 -1.653353e+00 -1.262313e+01 -8.850451e+00 -1.634787e+01 4.615290e+00 -3.433313e+00 -1.725393e+00 3.883307e+00 -5.790715e+00 6.649831e+01 -6.369327e-01 -1.317063e+00 8.948871e-01 -2.374649e+00 -1.224425e+00 -7.852556e-01 -1.271852e+00 1.069861e+00 1.877379e-02 7.575923e-01 1.465012e+00 -1.315897e+00 2.024963e+00 1.459730e-01 7.466201e-01 -5.745459e-01 4.683616e-01 5.149474e-01 6.484387e-01 7.333977e-01 -3.498287e-01 -1.533612e-01 8.746805e-02 -6.533732e-01 -1.497378e-01 -6.809047e-01
<VARIANCE> 39
 1.022481e+01 3.363275e+01 5.442976e+01 4.030150e+01 4.200720e+01 5.263760e+01 8.290072e+01 1.162934e+02 8.121699e+01 5.704194e+01 4.851526e+01 5.398065e+01 1.915818e+01 1.076321e+00 2.377398e+00 5.934307e+00 3.614182e+00 4.357820e+00 5.117640e+00 5.183642e+00 7.908958e+00 5.679272e+00 5.321479e+00 6.147086e+00 3.747018e+00 1.964558e+00 1.141101e-01 3.523693e-01 4.684328e-01 5.646307e-01 7.518850e-01 8.051955e-01 1.052132e+00 1.238972e+00 8.965094e-01 6.421798e-01 7.321073e-01 6.684038e-01 2.528616e-01
<GCONST> 1.319720e+02
<TRANSP> 5
 0.000000e+00 1.000000e+00 0.000000e+00 0.000000e+00 0.000000e+00
 0.000000e+00 6.228493e-01 3.771507e-01 0.000000e+00 0.000000e+00
 0.000000e+00 0.000000e+00 2.001367e-01 7.998633e-01 0.000000e+00
 0.000000e+00 0.000000e+00 0.000000e+00 3.579562e-01 6.420438e-01
 0.000000e+00 0.000000e+00 0.000000e+00 0.000000e+00 0.000000e+00
<ENDHMM>
~h "e"
<BEGINHMM>
<NUMSTATES> 5
<STATE> 2
<MEAN> 39
 8.716428e-02 -6.239085e+00 6.858064e+00 -1.754161e+00 -1.028339e+01 -8.535579e+00 -6.348060e+00 5.667048e+00 -4.752313e+00 -6.437637e-01 1.581886e+00 -6.268976e+00 6.565400e+01 1.377752e-01 -1.283478e+00 1.341799e+00 -1.063086e+00 -1.282860e+00 -7.062774e-01 -1.477181e-01 1.506557e+00 -2.386363e-01 -1.718539e-01 6.574390e-01 -3.497530e-01 1.413534e+00 -1.111843e-01 4.630801e-01 -3.301267e-01 2.394481e-01 4.042361e-01 3.391853e-01 2.413067e-01 -4.136134e-01 -3.127603e-02 8.244453e-02 -2.151016e-01 2.015131e-01 -4.515701e-01
<VARIANCE> 39
 1.382489e+01 3.701458e+01 5.655701e+01 3.416989e+01 4.597203e+01 7.195660e+01 9.347241e+01 5.876371e+01 8.180595e+01 8.014441e+01 4.921401e+01 3.898825e+01 3.765940e+01 1.372210e+00 2.285173e+00 4.013566e+00 2.401455e+00 4.101805e+00 3.976977e+00 5.210084e+00 5.041959e+00 4.158977e+00 4.564643e+00 3.964968e+00 2.740138e+00 2.193561e+00 2.639632e-01 5.578433e-01 7.937295e-01 4.686950e-01 7.369024e-01 7.059184e-01 9.325160e-01 9.539287e-01 8.171494e-01 8.400861e-01 6.697448e-01 5.000404e-01 4.376499e-01
<GCONST> 1.317852e+02
<STATE> 3
<MEAN> 39
 2.661523e-01 -8.754968e+00 7.735921e+00 -4.038099e+00 -1.214972e+01 -9.534385e+00 -7.858476e+00 7.890359e+00 -4.324871e+00 -1.442646e+00 2.696528e+00 -8.025204e+00 6.846343e+01 1.496074e-01 7.185596e-01 -3.930216e-01 6.901352e-01 4.110788e-01 4.276234e-01 3.350527e-01 -5.171683e-01 -6.172878e-02 4.771549e-02 -4.712490e-01 2.197134e-01 -7.405472e-01 -1.219902e-02 4.590511e-01 -2.398626e-01 4.091641e-01 2.974078e-01 2.177138e-01 1.532414e-01 -4.466032e-01 -2.684737e-03 2.583816e-02 -1.571310e-01 1.247843e-01 -4.094698e-01
<VARIANCE> 39
 7.730330e+00 2.602560e+01 4.267839e+01 3.267725e+01 4.032315e+01 8.507504e+01 7.114410e+01 7.338744e+01 7.373579e+01 6.465393e+01 5.739091e+01 4.125412e+01 1.785200e+01 5.256434e-01 1.620714e+00 1.527293e+00 2.191401e+00 2.155330e+00 2.117493e+00 2.931744e+00 2.710992e+00 2.462104e+00 2.641897e+00 2.012338e+00 1.686096e+00 1.390997e+00 1.412544e-01 2.973907e-01 3.325063e-01 3.493069e-01 4.117906e-01 4.159791e-01 5.844307e-01 6.311170e-01 5.080156e-01 5.787798e-01 4.391358e-01 3.450891e-01 1.916516e-01
<GCONST> 1.152595e+02
<STATE> 4
<MEAN> 39
 -2.462870e-01 -2.740479e+00 8.583221e+00 -1.016666e+00 -1.055769e+01 -7.020617e+00 -4.328983e+00 3.866852e+00 -7.619142e+00 2.727053e+00 1.792529e+00 -4.181983e+00 6.186790e+01 7.190092e-03 6.303754e-01 -4.570614e-01 6.040207e-01 3.548310e-01 4.957240e-01 3.420573e-01 -3.915443e-01 9.930639e-02 -1.224575e-01 -2.990097e-01 1.787432e-01 -7.344024e-01 -4.457588e-02 3.686031e-03 -5.124748e-03 -6.701483e-02 3.351020e-02 2.046318e-02 -2.030581e-02 -3.137083e-02 1.925316e-02 -1.950263e-02 1.790792e-02 -7.396064e-03 3.790198e-02
<VARIANCE> 39
 8.534897e+00 2.438290e+01 7.649001e+01 5.262561e+01 4.436233e+01 5.539338e+01 4.633409e+01 4.816238e+01 4.832166e+01 5.680286e+01 6.718326e+01 2.886927e+01 3.508819e+01 4.299920e-01 1.267887e+00 1.337787e+00 1.470670e+00 1.683666e+00 1.605311e+00 2.047344e+00 2.310835e+00 1.992016e+00 2.026596e+00 1.823929e+00 1.565212e+00 6.798299e-01 8.718482e-02 1.572801e-01 2.064676e-01 2.302893e-01 2.843046e-01 2.630217e-01 3.471270e-01 3.715312e-01 3.525722e-01 3.390339e-01 2.901201e-01 2.764509e-01 9.088112e-02
<GCONST> 1.055332e+02
<TRANSP> 5
 0.000000e+00 1.000000e+00 0.000000e+00 0.000000e+00 0.000000e+00
 0.000000e+00 5.794448e-01 4.205553e-01 0.000000e+00 0.000000e+00
 0.000000e+00 0.000000e+00 6.909287e-01 3.090713e-01 0.000000e+00
 0.000000e+00 0.000000e+00 0.000000e+00 7.747225e-01 2.252775e-01
 0.000000e+00 0.000000e+00 0.000000e+00 0.000000e+00 0.000000e+00
<ENDHMM>
~h "f"
<BEGINHMM>
<NUMSTATES> 5
<STATE> 2
<MEAN> 39
 -6.938463e+00 1.122770e+00 1.702297e+00 6.875687e-01 -3.649322e+00 -4.234910e+00 -2.837354e+00 -2.180658e+00 -8.983912e-01 -1.652162e+00 -1.438127e+00 -4.297623e+00 6.000017e+01 -1.273876e+00 1.024478e-01 -2.249275e-02 2.557659e-01 4.145747e-01 -5.221031e-01 2.448501e-01 5.563309e-02 6.693343e-01 -2.176831e-01 -3.221278e-01 3.143861e-01 -9.912781e-02 3.907898e-01 -3.514480e-01 2.486096e-01 7.276504e-02 -3.217592e-01 -6.180553e-02 -3.253055e-01 1.061390e-01 -1.049898e-01 -3.078055e-02 1.886794e-01 -5.833578e-02 2.567039e-01
<VARIANCE> 39
 1.960691e+01 1.154017e+01 3.658090e+01 2.395863e+01 2.739561e+01 4.663770e+01 2.825980e+01 3.133305e+01 3.517753e+01 2.889281e+01 2.147402e+01 2.160583e+01 1.089363e+01 1.816553e+00 1.459561e+00 1.597912e+00 1.840257e+00 2.043008e+00 2.825332e+00 2.224480e+00 2.759968e+00 2.633295e+00 2.362616e+00 1.885409e+00 1.825316e+00 6.549731e-01 3.460303e-01 2.142614e-01 3.242695e-01 3.324298e-01 5.315320e-01 5.515557e-01 5.696810e-01 5.261441e-01 6.240957e-01 4.345573e-01 4.465552e-01 3.794087e-01 1.324588e-01
<GCONST> 1.091650e+02
<STATE> 3
<MEAN> 39
 -9.350176e+00 -8.426911e-01 3.229003e+00 4.133334e+00 -2.001911e+00 -7.302781e+00 -3.745029e+00 -1.566291e+00 1.710727e+00 -1.630004e+00 -2.340819e+00 -2.965596e+00 6.043362e+01 1.944886e+00 -1.075626e+00 1.910464e+00 3.677844e-01 -1.649605e+00 -1.454461e+00 -2.174307e+00 9.836581e-02 -8.645375e-01 -6.375237e-01 1.190178e+00 1.467434e-01 8.722017e-01 8.436832e-01 -1.552537e-01 6.959388e-01 -4.836911e-01 -1.147377e+00 1.959944e-02 -7.734205e-01 1.327740e-01 -7.111877e-01 -2.683147e-01 8.519881e-01 -2.944182e-01 4.232110e-01
<VARIANCE> 39
 1.895789e+01 9.626770e+00 3.674917e+01 2.252315e+01 2.097458e+01 3.993449e+01 2.609891e+01 2.093543e+01 3.637455e+01 1.805957e+01 1.890110e+01 1.978492e+01 8.686983e+00 2.120418e+00 1.221499e+00 3.864753e+00 1.783875e+00 3.322923e+00 3.361747e+00 3.999982e+00 2.715829e+00 3.802861e+00 3.298194e+00 2.919677e+00 2.221054e+00 1.044060e+00 3.055002e-01 3.223270e-01 5.861700e-01 3.411722e-01 4.736783e-01 5.244199e-01 6.366097e-01 5.219637e-01 7.111688e-01 6.265191e-01 4.843601e-01 4.228886e-01 1.172205e-01
<GCONST> 1.123732e+02
<STATE> 4
<MEAN> 39
 -1.501536e+00 -2.002473e+00 8.419175e+00 3.712918e+00 -8.542089e+00 -9.929433e+00 -1.010318e+01 -1.096406e+00 -3.434806e+00 -4.862544e+00 2.050693e+00 -3.690134e+00 6.245875e+01 2.548035e+00 -1.397699e+00 2.527348e+00 -9.401154e-01 -3.565475e+00 -7.204673e-01 -2.870684e+00 6.050463e-01 -1.437313e+00 -1.000992e+00 2.651838e+00 -7.501740e-01 1.835992e+00 -4.080049e-01 -2.129147e-02 -8.987209e-02 -5.069856e-01 -7.944440e-02 4.203485e-01 2.059036e-01 1.397471e-01 1.971813e-01 2.039347e-01 1.293706e-01 -3.950751e-01 1.742270e-01
<VARIANCE> 39
 1.367421e+01 1.314927e+01 8.278053e+01 3.095910e+01 3.719690e+01 4.722240e+01 5.133104e+01 2.265653e+01 2.852960e+01 3.983980e+01 2.803424e+01 2.154568e+01 1.294561e+01 1.413466e+00 2.314145e+00 7.799963e+00 2.265558e+00 3.769334e+00 4.245611e+00 5.376816e+00 3.761404e+00 6.214803e+00 4.942729e+00 3.993721e+00 2.908081e+00 1.434131e+00 2.769209e-01 1.621802e-01 4.218532e-01 3.158728e-01 5.950019e-01 5.425781e-01 4.819437e-01 3.649080e-01 5.120543e-01 4.043418e-01 6.053321e-01 3.337722e-01 1.363573e-01
<GCONST> 1.181685e+02
<TRANSP> 5
 0.000000e+00 1.000000e+00 0.000000e+00 0.000000e+00 0.000000e+00
 0.000000e+00 8.164561e-01 1.835439e-01 0.000000e+00 0.000000e+00
 0.000000e+00 0.000000e+00 4.765738e-01 5.234262e-01 0.000000e+00
 0.000000e+00 0.000000e+00 0.000000e+00 2.149104e-01 7.850896e-01
 0.000000e+00 0.000000e+00 0.000000e+00 0.000000e+00 0.000000e+00
<ENDHMM>
~h "g"
<BEGINHMM>
<NUMSTATES> 5
<STATE> 2
<MEAN> 39
 3.244987e+00 4.712694e+00 4.148840e+00 3.472469e+00 -5.041855e+00 -5.659171e-01 -9.466284e+00 -2.119798e+00 -8.145587e+00 9.776512e-02 -9.734663e-01 -6.948618e+00 5.736723e+01 -6.137610e-01 -9.065706e-01 3.838989e-01 -1.043569e+00 6.678529e-01 -1.257422e+00 -1.249767e+00 2.502489e-01 2.633893e-01 3.282339e-01 6.592951e-01 -3.402658e-01 1.145474e+00 -2.558102e-01 -5.356085e-01 5.479866e-01 -7.376933e-01 -5.560025e-01 -3.736175e-01 -5.015735e-01 1.619318e-01 2.087610e-01 7.456732e-02 6.413525e-01 -3.091185e-01 7.713526e-01
<VARIANCE> 39
 9.268500e+00 3.055996e+01 3.685131e+01 3.513622e+01 6.586055e+01 4.550966e+01 5.208284e+01 4.331822e+01 3.830951e+01 3.758432e+01 4.564649e+01 3.169701e+01 1.784410e+01 1.023001e+00 2.935306e+00 4.067043e+00 3.811649e+00 5.751842e+00 4.912154e+00 5.436299e+00 4.439091e+00 4.515674e+00 3.756443e+00 5.187932e+00 3.185288e+00 2.333688e+00 2.166223e-01 4.534207e-01 6.543258e-01 5.733678e-01 1.170937e+00 6.969498e-01 8.179425e-01 8.479128e-01 7.962221e-01 6.705555e-01 9.028175e-01 5.032852e-01 2.701909e-01
<GCONST> 1.279012e+02
<STATE> 3
<MEAN> 39
 8.620212e-01 -1.229414e-01 7.813173e+00 -1.997335e+00 -7.969168e+00 -6.555364e+00 -1.541878e+01 -5.713469e-01 -5.949650e+00 1.273927e+00 5.615127e+00 -1.003269e+01 6.419032e+01 -6.464148e-01 -1.556900e+00 1.095004e+00 -2.188963e+00 -1.842134e+00 -1.174149e+00 -1.149855e+00 1.128909e+00 1.459982e+00 3.623085e-01 1.633560e+00 -1.080047e+00 2.291576e+00 1.416622e-01 1.399757e-02 -2.429166e-01 1.057075e-01 -1.875141e-01 5.763618e-01 6.127374e-01 1.425002e-01 7.636536e-02 -5.469210e-02 -5.306851e-01 9.853005e-02 -1.749540e-01
<VARIANCE> 39
 9.881861e+00 3.212943e+01 4.176133e+01 3.402354e+01 5.642862e+01 6.226351e+01 7.129437e+01 4.821311e+01 5.395264e+01 5.567482e+01 9.158327e+01 4.737130e+01 2.443761e+01 1.471270e+00 2.385975e+00 5.418779e+00 3.204036e+00 6.782293e+00 3.940318e+00 4.559272e+00 6.796313e+00 5.839136e+00 4.766338e+00 6.015116e+00 3.515863e+00 1.513760e+00 1.399546e-01 2.935518e-01 6.491295e-01 4.676661e-01 1.164078e+00 9.430608e-01 1.035974e+00 8.495852e-01 8.202531e-01 6.519856e-01 1.472464e+00 6.207675e-01 2.875438e-01
<GCONST> 1.318233e+02
<STATE> 4
<MEAN> 39
 5.860418e-02 -2.574444e+00 7.939612e+00 -5.393779e+00 -1.022975e+01 -6.094661e+00 -1.441671e+01 2.197970e+00 -3.303727e+00 2.526810e+00 4.676172e+00 -1.137226e+01 6.707239e+01 -4.211812e-01 -1.085016e+00 3.621732e-01 -1.318692e+00 -5.729247e-01 5.817406e-02 3.098996e-01 8.449433e-01 6.047819e-01 -1.846928e-02 -3.272875e-01 -3.702486e-01 1.200171e+00 2.010436e-01 2.336476e-01 -2.157516e-01 5.670434e-01 2.981301e-01 2.849042e-01 2.678550e-01 -2.705180e-01 -4.460176e-01 -2.150141e-01 -3.723177e-01 3.205903e-01 -4.652948e-01
<VARIANCE> 39
 1.252726e+01 4.377442e+01 4.967056e+01 3.199367e+01 6.297673e+01 4.974641e+01 7.818124e+01 6.297894e+01 7.978997e+01 6.336077e+01 7.708608e+01 6.121908e+01 2.840029e+01 1.256818e+00 1.605842e+00 6.202741e+00 2.809669e+00 3.592252e+00 3.660519e+00 3.793777e+00 5.438622e+00 4.462840e+00 3.356952e+00 6.113269e+00 2.804737e+00 1.230217e+00 1.574304e-01 2.837830e-01 4.961553e-01 4.177174e-01 1.100739e+00 6.289394e-01 9.299256e-01 7.882668e-01 7.522522e-01 6.403139e-01 1.116048e+00 5.951921e-01 2.276244e-01
<GCONST> 1.291799e+02
<TRANSP> 5
 0.000000e+00 1.000000e+00 0.000000e+00 0.000000e+00 0.000000e+00
 0.000000e+00 6.114972e-01 3.885027e-01 0.000000e+00 0.000000e+00
 0.000000e+00 0.000000e+00 3.675069e-01 6.324931e-01 0.000000e+00
 0.000000e+00 0.000000e+00 0.000000e+00 2.820610e-01 7.179390e-01
 0.000000e+00 0.000000e+00 0.000000e+00 0.000000e+00 0.000000e+00
<ENDHMM>
~h "h"
<BEGINHMM>
<NUMSTATES> 5
<STATE> 2
<MEAN> 39
 -2.065547e-01 -6.410964e+00 1.746442e+00 -4.348352e+00 -2.078333e+00 -2.413622e+00 -4.173972e+00 3.934804e+00 -2.844513e+00 -1.316252e+00 -4.765472e+00 -6.501422e+00 6.663163e+01 -2.347156e-01 1.647419e-01 -1.152004e-01 5.274764e-01 4.538904e-01 1.495837e-01 5.880809e-01 -1.622811e-01 8.127259e-02 -2.047045e-01 -2.526244e-01 3.130017e-01 -4.349307e-01 5.895948e-02 -4.609712e-03 -1.793733e-02 -3.450249e-02 -1.852285e-01 -2.080785e-02 -1.830136e-01 -5.166563e-02 -7.857891e-03 2.867498e-02 1.580523e-01 -5.812758e-02 -4.853046e-02
<VARIANCE> 39
 1.299635e+01 3.968978e+01 4.882660e+01 5.134854e+01 6.814774e+01 8.330175e+01 6.665327e+01 6.431421e+01 7.267377e+01 4.849781e+01 5.964335e+01 4.001009e+01 3.145094e+01 6.686792e-01 1.444467e+00 1.655751e+00 1.762630e+00 2.118388e+00 2.134274e+00 2.095533e+00 2.342357e+00 2.174495e+00 1.625552e+00 1.837521e+00 1.570277e+00 8.895686e-01 8.743978e-02 2.632372e-01 2.345192e-01 3.136149e-01 3.696148e-01 3.702910e-01 3.945501e-01 3.995807e-01 3.729866e-01 2.998773e-01 3.334711e-01 2.993872e-01 1.119369e-01
<GCONST> 1.115901e+02
<STATE> 3
<MEAN> 39
 -9.424627e-01 -4.998634e+00 -1.750666e-02 -4.263362e-01 -3.138130e-01 -2.248208e+00 -1.624151e+00 1.455361e+00 -1.975530e+00 -1.677486e+00 -5.121293e+00 -4.884232e+00 6.319265e+01 1.312978e-01 3.154511e-01 -2.010305e-01 3.732794e-01 -2.397996e-01 7.750899e-02 -7.515340e-02 -1.139780e-01 -7.421014e-02 6.352378e-02 1.061795e-01 6.312325e-02 -6.659989e-01 7.376008e-02 1.676065e-02 -9.147911e-04 -6.906588e-02 -1.621085e-01 -1.595544e-02 -1.356765e-01 2.588711e-02 -4.472467e-02 8.013898e-03 6.950697e-02 -6.387324e-02 3.321737e-02
<VARIANCE> 39
 1.858077e+01 3.126133e+01 4.547908e+01 2.979196e+01 5.317277e+01 5.411273e+01 6.759991e+01 5.246631e+01 7.176827e+01 4.575999e+01 4.979440e+01 3.116060e+01 2.611631e+01 5.755844e-01 1.034240e+00 1.390133e+00 1.424777e+00 1.730189e+00 2.109268e+00 1.973221e+00 2.220603e+00 2.055434e+00 1.965196e+00 1.730004e+00 1.599284e+00 7.948744e-01 8.987117e-02 1.819396e-01 2.158987e-01 2.473847e-01 3.272870e-01 3.576139e-01 3.778288e-01 4.055109e-01 3.947164e-01 3.532675e-01 3.545866e-01 3.092195e-01 7.507084e-02
<GCONST> 1.073847e+02
<STATE> 4
<MEAN> 39
 -5.956118e-01 1.228616e+00 -1.708334e+00 3.333477e+00 -3.802022e+00 1.435075e-01 -3.576340e+00 1.339499e+00 -4.432925e+00 -1.163691e+00 -2.254108e+00 -2.188962e+00 5.418064e+01 5.319397e-03 2.585720e-01 -1.993204e-01 1.789673e-01 -9.148249e-02 8.711801e-02 -5.185383e-02 4.242485e-03 2.808567e-02 -7.877164e-02 1.221601e-01 5.591963e-02 -3.270429e-01 -1.772246e-02 -4.169863e-02 5.941635e-02 -7.622557e-02 2.892155e-03 -2.256984e-02 -2.475024e-02 7.602524e-03 6.247539e-03 1.386863e-02 3.039721e-02 -3.418596e-02 9.316316e-02
<VARIANCE> 39
 9.794302e+00 2.737770e+01 3.547993e+01 2.473795e+01 3.549014e+01 3.860097e+01 3.402434e+01 3.390517e+01 3.652090e+01 2.985970e+01 2.835467e+01 2.540804e+01 3.026633e+01 3.980631e-01 7.846018e-01 1.143326e+00 1.246214e+00 1.503477e+00 1.768703e+00 1.916502e+00 2.048825e+00 2.034273e+00 1.837126e+00 1.836655e+00 1.655112e+00 4.448287e-01 6.174383e-02 1.187177e-01 1.811454e-01 2.207373e-01 2.577533e-01 3.104809e-01 3.651992e-01 3.894135e-01 3.904482e-01 3.511292e-01 3.411645e-01 3.060175e-01 6.395757e-02
<GCONST> 9.885281e+01
<TRANSP> 5
 0.000000e+00 1.000000e+00 0.000000e+00 0.000000e+00 0.000000e+00
 0.000000e+00 5.989002e-01 4.010998e-01 0.000000e+00 0.000000e+00
 0.000000e+00 0.000000e+00 6.639009e-01 3.360991e-01 0.000000e+00
 0.000000e+00 0.000000e+00 0.000000e+00 7.852369e-01 2.147631e-01
 0.000000e+00 0.000000e+00 0.000000e+00 0.000000e+00 0.000000e+00
<ENDHMM>
~h "i"
<BEGINHMM>
<NUMSTATES> 5
<STATE> 2
<MEAN> 39
 -1.889431e+00 -7.074192e-01 1.642324e+01 -1.399497e+00 -1.451056e+01 -8.182352e+00 -1.100629e+01 -1.393044e+00 -1.021439e+01 -3.293450e+00 5.747851e+00 -6.463793e+00 6.487857e+01 -1.457574e-01 -5.099543e-01 2.718055e+00 -1.091095e+00 -2.303115e+00 -4.273865e-01 -1.491470e+00 4.451406e-01 -1.191764e+00 -3.331458e-01 1.926191e+00 -6.075945e-01 1.234645e+00 4.756681e-02 2.771330e-01 -8.688010e-01 1.604495e-01 5.771992e-01 4.740722e-01 3.267643e-01 5.668289e-02 3.370017e-01 2.682917e-01 -4.884627e-01 2.238882e-02 -4.245749e-01
<VARIANCE> 39
 1.247725e+01 3.221988e+01 4.957421e+01 4.205431e+01 4.977514e+01 5.419301e+01 5.900820e+01 6.109350e+01 5.550597e+01 5.643066e+01 4.810110e+01 3.289944e+01 1.729106e+01 2.189015e+00 2.034238e+00 4.944027e+00 3.844296e+00 4.073743e+00 4.204000e+00 5.167778e+00 5.133084e+00 5.308177e+00 4.658350e+00 3.990032e+00 2.902513e+00 1.473127e+00 3.271706e-01 3.424621e-01 9.609204e-01 6.771626e-01 9.230291e-01 7.327117e-01 8.930873e-01 8.679453e-01 8.217408e-01 6.828970e-01 7.574760e-01 5.333910e-01 2.833652e-01
<GCONST> 1.302651e+02
<STATE> 3
<MEAN> 39
 -2.744063e+00 -1.344513e+00 1.996457e+01 -3.374973e+00 -1.820344e+01 -7.880516e+00 -1.367756e+01 4.758897e-01 -1.144262e+01 -3.851467e+00 9.114211e+00 -8.427359e+00 6.668646e+01 2.101658e-01 1.951857e-01 -6.590112e-01 1.640715e-01 4.679113e-01 1.358398e-01 2.863062e-01 1.661829e-01 1.499684e-01 3.936644e-01 -4.991526e-01 6.766427e-02 -3.331648e-01 1.452903e-01 1.934513e-01 -8.298323e-01 4.021758e-01 7.037058e-01 1.956898e-01 4.615993e-01 -1.392824e-01 2.813201e-01 1.093669e-01 -6.427360e-01 1.674275e-01 -4.507158e-01
<VARIANCE> 39
 7.995292e+00 2.957362e+01 3.540883e+01 3.890002e+01 3.943147e+01 5.232500e+01 5.703420e+01 6.790437e+01 5.815543e+01 6.605233e+01 4.683817e+01 3.514003e+01 1.157629e+01 8.259205e-01 1.631490e+00 2.895920e+00 2.445599e+00 2.593873e+00 2.961563e+00 2.910807e+00 3.442732e+00 2.817072e+00 2.278575e+00 2.397210e+00 2.036298e+00 1.114798e+00 1.623018e-01 2.550891e-01 5.584354e-01 4.263046e-01 5.545886e-01 6.012582e-01 6.525290e-01 7.144277e-01 6.586539e-01 5.565010e-01 5.508786e-01 4.186852e-01 1.827009e-01
<GCONST> 1.178745e+02
<STATE> 4
<MEAN> 39
 -9.385768e-01 2.476447e+00 1.362226e+01 -1.013530e+00 -1.181333e+01 -3.896633e+00 -9.631817e+00 -2.192005e+00 -1.076499e+01 -3.048260e-01 2.196825e+00 -5.542652e+00 6.021322e+01 2.690131e-01 4.542087e-01 -1.484451e+00 7.874371e-01 9.184493e-01 6.234924e-01 7.373338e-01 -1.132819e-01 3.790971e-01 1.443321e-01 -8.528905e-01 2.864519e-01 -1.031089e+00 -8.884709e-02 -5.722829e-02 -2.994512e-02 -4.064169e-02 -1.162664e-02 2.366010e-02 7.687229e-03 -3.948861e-02 6.965989e-02 -5.647898e-02 4.684428e-02 -1.640738e-02 6.694534e-02
<VARIANCE> 39
 9.733253e+00 2.931046e+01 4.747646e+01 4.565080e+01 4.144478e+01 5.591475e+01 4.437386e+01 5.445062e+01 4.863293e+01 4.867386e+01 4.436750e+01 3.290876e+01 2.712748e+01 7.366622e-01 1.318757e+00 2.334480e+00 2.092393e+00 2.511841e+00 2.662483e+00 2.811987e+00 2.886587e+00 2.872809e+00 2.495641e+00 2.547898e+00 2.011693e+00 1.108025e+00 1.084179e-01 1.916363e-01 3.808131e-01 3.475213e-01 4.360578e-01 4.973801e-01 4.654091e-01 4.926840e-01 4.632656e-01 4.112927e-01 3.840038e-01 3.303443e-01 1.526722e-01
<GCONST> 1.136649e+02
<TRANSP> 5
 0.000000e+00 1.000000e+00 0.000000e+00 0.000000e+00 0.000000e+00
 0.000000e+00 4.966967e-01 5.033033e-01 0.000000e+00 0.000000e+00
 0.000000e+00 0.000000e+00 6.487545e-01 3.512454e-01 0.000000e+00
 0.000000e+00 0.000000e+00 0.000000e+00 7.229092e-01 2.770908e-01
 0.000000e+00 0.000000e+00 0.000000e+00 0.000000e+00 0.000000e+00
<ENDHMM>
~h "j"
<BEGINHMM>
<NUMSTATES> 5
<STATE> 2
<MEAN> 39
 1.095366e+00 6.132710e+00 6.379518e+00 3.886512e+00 -3.943671e+00 -2.035772e+00 -6.202275e+00 3.518280e-01 -4.567269e+00 -2.242277e+00 -2.547588e+00 -3.506716e+00 5.710114e+01 -1.296248e+00 4.130726e-01 9.051054e-01 -8.461610e-01 7.708520e-01 -8.044308e-01 1.354248e-01 -6.793699e-01 -1.074078e-02 -4.781805e-01 3.820928e-01 4.770863e-01 5.997916e-01 -3.209627e-01 -4.911776e-01 6.734157e-01 -5.109908e-01 -5.334831e-01 -6.933652e-01 -6.263787e-01 -3.991941e-02 -2.134409e-01 -3.213046e-02 4.935189e-01 1.314413e-01 7.541395e-01
<VARIANCE> 39
 1.798649e+01 2.732713e+01 3.292539e+01 2.861805e+01 4.509667e+01 3.747057e+01 3.740833e+01 4.116270e+01 2.900907e+01 2.633692e+01 2.740646e+01 2.506255e+01 1.885415e+01 2.578624e+00 2.118817e+00 4.172838e+00 3.637040e+00 3.715205e+00 5.487720e+00 3.526431e+00 3.409249e+00 2.815348e+00 2.868273e+00 2.637062e+00 2.187257e+00 2.551861e+00 4.863575e-01 3.654289e-01 5.136310e-01 5.729912e-01 9.482843e-01 7.516609e-01 6.980815e-01 6.335288e-01 5.702828e-01 6.161058e-01 4.933051e-01 4.513341e-01 2.520588e-01
<GCONST> 1.222685e+02
<STATE> 3
<MEAN> 39
 -5.087508e+00 5.196983e+00 1.409493e+01 -7.530142e-01 -5.373805e+00 -8.121135e+00 -9.091902e+00 -3.126386e+00 -6.183149e+00 -5.201241e+00 1.360206e+00 -6.994466e-01 6.286628e+01 -1.647044e-01 -1.790558e+00 2.540317e+00 -8.440860e-01 -2.848298e+00 -2.233644e+00 -2.767278e+00 3.738939e-01 -8.065073e-01 -3.951342e-02 1.904780e+00 2.804751e-01 2.297176e+00 8.658248e-01 -5.017744e-01 -7.491930e-01 2.119954e-01 -4.282748e-01 4.160537e-01 -4.232150e-01 7.083434e-01 9.299454e-02 5.923690e-01 1.415739e-02 -4.633340e-01 -1.348065e-01
<VARIANCE> 39
 1.746725e+01 3.338168e+01 4.101897e+01 2.965787e+01 5.256000e+01 4.702596e+01 6.101141e+01 4.139428e+01 3.193796e+01 3.363127e+01 2.678035e+01 2.375410e+01 1.504570e+01 2.672656e+00 2.465770e+00 3.356084e+00 3.776951e+00 4.034496e+00 3.859106e+00 4.175658e+00 4.849860e+00 3.781648e+00 3.716364e+00 3.099869e+00 2.944974e+00 1.283807e+00 3.381350e-01 5.525465e-01 7.012459e-01 6.332095e-01 1.214201e+00 9.939007e-01 9.484715e-01 7.763687e-01 7.101841e-01 6.366200e-01 7.029908e-01 5.786985e-01 2.112791e-01
<GCONST> 1.263697e+02
<STATE> 4
<MEAN> 39
 -1.573748e+00 -1.973947e+00 1.551987e+01 -2.866276e+00 -1.269946e+01 -1.187186e+01 -1.641295e+01 3.438755e+00 -7.005259e+00 -1.584345e+00 5.208931e+00 -2.062566e+00 6.746565e+01 9.414290e-01 -1.639478e+00 -1.128287e+00 -7.362213e-01 -5.550889e-01 -3.719933e-02 -1.250774e+00 1.590941e+00 5.320680e-01 1.235547e+00 2.551413e-01 -1.070820e+00 8.740788e-01 1.029320e-01 5.091797e-01 -8.956749e-01 1.403348e-01 1.001680e+00 8.415448e-01 8.246300e-01 -2.336355e-01 2.093209e-01 3.126887e-02 -6.362802e-01 -2.876453e-01 -6.486104e-01
<VARIANCE> 39
 9.080223e+00 2.776784e+01 3.557397e+01 3.691045e+01 3.607771e+01 2.857167e+01 6.325937e+01 6.352407e+01 4.747998e+01 6.268838e+01 3.663758e+01 3.123689e+01 1.820775e+01 8.162789e-01 2.252966e+00 3.411722e+00 2.250768e+00 4.571827e+00 3.389249e+00 4.932487e+00 4.085982e+00 3.823084e+00 3.286270e+00 4.283180e+00 2.997948e+00 1.148016e+00 2.197476e-01 2.558548e-01 6.075357e-01 5.695013e-01 5.989373e-01 6.375908e-01 7.401016e-01 7.670614e-01 6.674111e-01 6.209593e-01 6.304696e-01 5.065567e-01 1.746540e-01
<GCONST> 1.219444e+02
<TRANSP> 5
 0.000000e+00 1.000000e+00 0.000000e+00 0.000000e+00 0.000000e+00
 0.000000e+00 6.946030e-01 3.053970e-01 0.000000e+00 0.000000e+00
 0.000000e+00 0.000000e+00 5.335244e-01 4.664756e-01 0.000000e+00
 0.000000e+00 0.000000e+00 0.000000e+00 5.970477e-01 4.029524e-01
 0.000000e+00 0.000000e+00 0.000000e+00 0.000000e+00 0.000000e+00
<ENDHMM>
~h "k"
<BEGINHMM>
<NUMSTATES> 5
<STATE> 2
<MEAN> 39
 5.556313e-01 2.286195e+00 -3.575280e+00 1.661473e+00 -4.399212e+00 1.118675e+00 -4.928452e+00 -3.381416e-01 -4.891952e+00 3.688437e-02 -1.166754e+00 -3.768434e+00 5.403669e+01 -5.963237e-01 -5.107603e-01 -8.660814e-01 -2.951634e-01 1.356020e+00 -5.406191e-01 -2.007371e-01 -4.915700e-02 3.854031e-01 2.112723e-01 -1.444362e-01 1.265668e-01 4.431139e-01 -8.953391e-03 -4.517916e-01 2.160654e-01 -6.182001e-01 2.017199e-01 -3.545300e-01 -2.807460e-01 -2.332694e-02 -4.531498e-02 2.312606e-01 1.080659e-01 -2.317616e-01 8.234344e-01
<VARIANCE> 39
 9.451538e+00 2.277921e+01 3.376274e+01 3.036332e+01 3.762806e+01 4.292096e+01 3.291526e+01 3.436507e+01 3.152116e+01 2.792600e+01 2.735554e+01 2.635731e+01 1.680548e+01 1.322081e+00 3.039009e+00 3.067102e+00 3.466690e+00 5.125199e+00 4.198736e+00 3.652474e+00 3.942922e+00 3.717811e+00 3.346895e+00 2.762993e+00 2.616448e+00 2.523526e+00 2.400968e-01 3.724304e-01 4.858490e-01 5.017862e-01 8.162296e-01 6.508477e-01 5.926516e-01 6.527798e-01 6.484839e-01 5.734535e-01 4.912647e-01 4.949818e-01 2.467412e-01
<GCONST> 1.202878e+02
<STATE> 3
<MEAN> 39
 -2.668735e+00 -1.983474e+00 -5.817955e+00 -1.210709e+00 3.011240e+00 -2.535745e+00 -6.582287e+00 -1.045849e+00 -3.195354e+00 2.377564e+00 -1.430896e+00 -4.158170e+00 5.909980e+01 1.138796e-01 -9.342593e-01 4.534437e-01 -1.723343e+00 1.634675e-01 -9.865122e-01 -6.235576e-01 5.225293e-02 -8.534548e-02 4.844755e-01 2.367881e-01 -7.287329e-01 2.008456e+00 5.786587e-01 1.848660e-02 7.238174e-01 -3.184611e-01 -1.224673e+00 2.840304e-01 -1.080177e-01 2.210184e-01 -3.069615e-01 -1.614888e-01 2.342272e-01 -3.235165e-01 2.316202e-01
<VARIANCE> 39
 2.264548e+01 3.108281e+01 5.532927e+01 4.240472e+01 6.439318e+01 6.878510e+01 6.165403e+01 5.997280e+01 4.630402e+01 4.339533e+01 4.137926e+01 3.395930e+01 2.367274e+01 2.404441e+00 3.568009e+00 4.511953e+00 4.659572e+00 6.594093e+00 5.012596e+00 4.355892e+00 5.052605e+00 4.948793e+00 3.725902e+00 3.340258e+00 3.703223e+00 2.867918e+00 3.894945e-01 6.425850e-01 7.111681e-01 7.609180e-01 1.174230e+00 9.423916e-01 1.136318e+00 1.235954e+00 1.082234e+00 9.144207e-01 8.092403e-01 7.576854e-01 3.538672e-01
<GCONST> 1.357948e+02
<STATE> 4
<MEAN> 39
 5.926110e-01 -1.230754e+00 -2.669625e+00 -4.362615e+00 -2.813828e+00 -2.812700e+00 -6.904540e+00 -6.049690e-02 -5.160877e+00 1.659520e+00 -4.473193e-01 -6.204854e+00 6.117423e+01 1.195270e+00 -7.726949e-01 1.513390e+00 -1.823576e+00 -2.134226e+00 2.552921e-02 -8.719782e-01 4.087641e-01 -5.670048e-01 -5.212669e-02 7.090673e-01 -1.048332e+00 1.904040e+00 1.065226e-01 -3.728885e-02 1.549149e-01 2.275463e-01 -3.284370e-01 3.623181e-01 -6.177757e-02 3.839635e-02 1.887695e-02 -1.424029e-01 7.928910e-02 2.248513e-02 -1.449799e-01
<VARIANCE> 39
 2.354945e+01 3.773040e+01 5.209173e+01 5.676085e+01 4.605851e+01 6.491717e+01 4.823965e+01 4.254140e+01 4.607829e+01 3.809917e+01 3.806564e+01 3.662730e+01 3.181185e+01 2.377998e+00 3.908641e+00 4.503950e+00 5.335365e+00 6.341406e+00 4.889918e+00 5.897653e+00 6.581903e+00 6.284138e+00 4.778160e+00 4.720282e+00 4.634784e+00 2.400650e+00 3.247494e-01 4.690903e-01 5.317367e-01 6.907490e-01 8.054563e-01 7.665725e-01 7.570874e-01 7.545666e-01 7.438161e-01 6.962879e-01 6.027972e-01 5.303150e-01 4.241193e-01
<GCONST> 1.335425e+02
<TRANSP> 5
 0.000000e+00 1.000000e+00 0.000000e+00 0.000000e+00 0.000000e+00
 0.000000e+00 5.611448e-01 4.388552e-01 0.000000e+00 0.000000e+00
 0.000000e+00 0.000000e+00 4.094515e-01 5.905485e-01 0.000000e+00
 0.000000e+00 0.000000e+00 0.000000e+00 1.875483e-01 8.124516e-01
 0.000000e+00 0.000000e+00 0.000000e+00 0.000000e+00 0.000000e+00
<ENDHMM>
~h "l"
<BEGINHMM>
<NUMSTATES> 5
<STATE> 2
<MEAN> 39
 2.951860e+00 -4.158867e+00 3.843132e+00 -6.898859e+00 -6.854246e+00 -2.535639e+00 -1.625646e+01 -5.198986e+00 -5.567030e-01 5.370759e+00 2.612885e+00 -1.025750e+01 6.625628e+01 1.202814e-01 -1.030676e-01 9.013045e-02 -4.305800e-01 -4.248910e-02 2.964577e-01 -7.850790e-01 -3.738237e-01 3.397470e-01 7.302741e-01 2.544174e-01 -5.699602e-01 1.168221e-01 -1.173773e-01 -1.212658e-01 -1.051078e-01 -7.369169e-02 -3.198701e-02 1.298648e-01 4.068585e-01 5.345674e-01 -3.882606e-02 -4.405675e-01 -1.242865e-01 4.267229e-02 7.062130e-02
<VARIANCE> 39
 9.862082e+00 3.650177e+01 7.031790e+01 5.885506e+01 5.375192e+01 5.806641e+01 8.844594e+01 9.653423e+01 8.335709e+01 4.668967e+01 5.710983e+01 6.236540e+01 1.940601e+01 4.618574e-01 1.499734e+00 2.245076e+00 3.032058e+00 2.374629e+00 3.708782e+00 3.799694e+00 4.549577e+00 3.434890e+00 3.083336e+00 3.092177e+00 2.492662e+00 9.843479e-01 9.198891e-02 2.632591e-01 2.938169e-01 4.885503e-01 4.596260e-01 5.668163e-01 7.491197e-01 7.435765e-01 6.085443e-01 5.441993e-01 6.708519e-01 4.723269e-01 1.162417e-01
<GCONST> 1.213641e+02
<STATE> 3
<MEAN> 39
 2.838706e+00 -5.500256e+00 3.542462e+00 -8.972114e+00 -7.343709e+00 -1.444422e+00 -1.674152e+01 -3.249497e+00 5.251880e-01 6.212601e+00 2.967858e+00 -1.244581e+01 6.728400e+01 -1.372060e-01 -5.615828e-01 -2.596814e-01 -4.264370e-01 -1.738625e-03 4.312296e-01 5.119187e-01 1.104236e+00 3.100007e-01 -6.497994e-01 -5.558655e-01 -2.612882e-01 3.710847e-01 -8.424180e-02 -6.506139e-02 -7.712568e-02 1.191214e-01 8.624291e-02 5.627861e-02 4.511954e-01 3.447441e-01 -2.032690e-01 -4.912547e-01 -2.595614e-01 2.459668e-01 1.697410e-03
<VARIANCE> 39
 8.647902e+00 3.498314e+01 6.291724e+01 5.771616e+01 5.338235e+01 5.332737e+01 8.312817e+01 7.629454e+01 8.785222e+01 4.551035e+01 5.612110e+01 6.885151e+01 1.813609e+01 4.236722e-01 1.645890e+00 2.252544e+00 2.463055e+00 1.919187e+00 3.081782e+00 3.559293e+00 4.037873e+00 3.375463e+00 2.799700e+00 3.607345e+00 2.170251e+00 8.641646e-01 6.482625e-02 2.651397e-01 2.564133e-01 4.292478e-01 3.520144e-01 5.177647e-01 5.564084e-01 6.289043e-01 5.912184e-01 4.658779e-01 6.076645e-01 4.096148e-01 1.183761e-01
<GCONST> 1.178636e+02
<STATE> 4
<MEAN> 39
 2.355164e+00 -6.660682e+00 1.706980e+00 -9.055641e+00 -6.819514e+00 3.061037e-01 -1.349987e+01 -8.579997e-01 1.367579e+00 2.276833e+00 8.198444e-01 -1.220450e+01 6.797450e+01 -1.344554e-01 -1.861569e-01 -9.018502e-02 2.661358e-01 2.468177e-01 3.695320e-01 9.548888e-01 8.499776e-01 -7.071210e-01 -1.008688e+00 -5.353780e-01 3.457858e-01 -4.117914e-02 3.874634e-03 2.476424e-01 1.235955e-01 2.361616e-01 9.577180e-03 -1.359968e-01 8.702862e-02 -1.865408e-01 -3.878997e-01 4.729461e-02 1.304018e-01 2.144292e-01 -2.028462e-01
<VARIANCE> 39
 1.022395e+01 4.053333e+01 5.707132e+01 6.178291e+01 4.650451e+01 6.262349e+01 7.390634e+01 8.079813e+01 9.678047e+01 5.619361e+01 5.778323e+01 6.612500e+01 2.233793e+01 4.947800e-01 1.869815e+00 1.877717e+00 2.655359e+00 2.243716e+00 3.480527e+00 3.304624e+00 3.932451e+00 3.900219e+00 2.893980e+00 3.945817e+00 2.161901e+00 1.176468e+00 7.874183e-02 2.307963e-01 3.490969e-01 4.149992e-01 3.911233e-01 5.140861e-01 5.454835e-01 6.913849e-01 6.155962e-01 4.888209e-01 5.757823e-01 3.985118e-01 1.415081e-01
<GCONST> 1.202305e+02
<TRANSP> 5
 0.000000e+00 1.000000e+00 0.000000e+00 0.000000e+00 0.000000e+00
 0.000000e+00 4.235238e-01 5.764763e-01 0.000000e+00 0.000000e+00
 0.000000e+00 0.000000e+00 3.907892e-01 6.092108e-01 0.000000e+00
 0.000000e+00 0.000000e+00 0.000000e+00 4.067928e-01 5.932072e-01
 0.000000e+00 0.000000e+00 0.000000e+00 0.000000e+00 0.000000e+00
<ENDHMM>
~h "m"
<BEGINHMM>
<NUMSTATES> 5
<STATE> 2
<MEAN> 39
 4.703660e+00 -1.746309e+00 3.872739e+00 5.439293e-01 -7.716455e+00 6.413987e+00 -6.238683e+00 -6.690264e+00 -1.195526e+01 5.443559e-01 -2.534731e-01 -8.773480e+00 6.180942e+01 4.167221e-04 3.264214e-01 9.703125e-01 1.107848e+00 -5.106615e-02 9.061784e-01 5.038953e-01 -1.266334e+00 -1.418782e+00 -5.182655e-01 -7.654327e-01 -1.426616e-01 -3.997419e-01 -7.848679e-02 -2.462767e-01 -2.074190e-01 -4.583601e-01 4.158497e-02 -3.176639e-01 -2.738160e-01 4.940847e-01 5.658691e-01 2.242000e-03 9.021794e-02 -4.344347e-02 2.663699e-01
<VARIANCE> 39
 6.611666e+00 2.786910e+01 3.167072e+01 3.563923e+01 5.011570e+01 4.183331e+01 4.413686e+01 3.658160e+01 4.299268e+01 3.364328e+01 4.336773e+01 4.129022e+01 1.720569e+01 4.828086e-01 1.291213e+00 2.016123e+00 1.983764e+00 2.131510e+00 2.374528e+00 2.377388e+00 2.528314e+00 3.977457e+00 2.237999e+00 2.852523e+00 2.026147e+00 9.510703e-01 8.654034e-02 1.509576e-01 2.735165e-01 3.018242e-01 3.664433e-01 3.706688e-01 4.042329e-01 4.130863e-01 5.327060e-01 4.282172e-01 5.254203e-01 3.601999e-01 8.561727e-02
<GCONST> 1.085700e+02
<STATE> 3
<MEAN> 39
 4.237772e+00 -1.945831e+00 6.462243e+00 7.404723e-01 -8.718970e+00 7.737515e+00 -6.394052e+00 -8.260064e+00 -1.409512e+01 -1.244153e+00 -9.444886e-01 -9.371552e+00 6.217156e+01 1.797670e-01 -2.094463e-01 -4.172489e-01 -5.564936e-01 -2.720223e-01 -2.528309e-01 -2.688720e-01 3.661778e-01 6.936454e-01 1.645218e-01 4.058936e-01 -1.989802e-02 2.489671e-01 3.063472e-02 -1.680867e-01 -4.804994e-01 -4.512445e-01 -2.242621e-02 -3.247081e-01 -1.600649e-01 5.892056e-01 7.437537e-01 2.133785e-01 2.094171e-01 -2.615611e-02 1.644343e-01
<VARIANCE> 39
 5.662714e+00 2.610633e+01 3.658849e+01 3.156722e+01 5.096809e+01 4.536293e+01 3.856805e+01 3.938488e+01 5.463813e+01 3.354672e+01 4.466421e+01 4.232769e+01 1.513602e+01 3.627752e-01 1.137463e+00 1.720106e+00 1.880249e+00 1.603385e+00 2.055128e+00 1.865028e+00 1.967418e+00 2.979974e+00 1.839599e+00 2.192898e+00 1.882582e+00 7.766416e-01 7.640289e-02 1.742676e-01 2.694218e-01 2.968171e-01 3.406881e-01 4.107617e-01 3.417295e-01 4.535768e-01 6.609085e-01 4.211203e-01 4.922010e-01 4.036524e-01 8.157346e-02
<GCONST> 1.061427e+02
<STATE> 4
<MEAN> 39
 5.530653e+00 -2.523108e+00 1.129582e+00 -3.362111e+00 -9.158484e+00 6.159694e+00 -7.846087e+00 -3.977225e+00 -7.723185e+00 5.163344e-01 6.459926e-01 -8.883744e+00 6.316808e+01 2.766925e-02 -7.344161e-01 -1.051112e+00 -1.080425e+00 2.738387e-01 -3.879766e-01 -4.178695e-01 1.508671e+00 1.620614e+00 1.129465e-01 1.740245e-01 -3.923895e-01 5.857420e-01 -1.824045e-01 -7.010613e-02 2.135524e-01 1.267312e-01 2.181414e-01 -1.037539e-01 4.862357e-03 1.102510e-01 -9.611062e-02 -1.251305e-01 -1.914314e-01 2.264518e-03 1.708317e-02
<VARIANCE> 39
 6.960346e+00 4.178843e+01 3.794771e+01 4.722190e+01 9.045384e+01 4.595238e+01 4.860859e+01 4.385712e+01 4.187451e+01 3.790464e+01 4.201720e+01 4.763198e+01 2.289990e+01 4.852819e-01 1.982140e+00 2.351526e+00 2.811670e+00 3.231354e+00 2.962045e+00 2.774216e+00 3.084784e+00 5.135708e+00 2.751732e+00 3.006008e+00 2.934182e+00 1.031411e+00 9.098513e-02 1.940680e-01 3.289288e-01 4.393897e-01 5.161698e-01 4.443786e-01 4.247655e-01 4.873629e-01 5.682352e-01 4.239808e-01 5.039594e-01 3.879044e-01 1.047188e-01
<GCONST> 1.157225e+02
<TRANSP> 5
 0.000000e+00 1.000000e+00 0.000000e+00 0.000000e+00 0.000000e+00
 0.000000e+00 5.315377e-01 4.684623e-01 0.000000e+00 0.000000e+00
 0.000000e+00 0.000000e+00 5.875240e-01 4.124760e-01 0.000000e+00
 0.000000e+00 0.000000e+00 0.000000e+00 5.077832e-01 4.922168e-01
 0.000000e+00 0.000000e+00 0.000000e+00 0.000000e+00 0.000000e+00
<ENDHMM>
~h "n"
<BEGINHMM>
<NUMSTATES> 5
<STATE> 2
<MEAN> 39
 3.673312e+00 -3.952071e+00 7.011376e+00 2.655890e+00 -1.004956e+01 -1.808389e+00 -9.861999e+00 -1.644907e+00 -5.951561e+00 2.879042e+00 -4.720904e+00 -1.019639e+01 6.318212e+01 3.526734e-01 1.375817e+00 8.642337e-01 1.353232e+00 -5.477818e-01 8.783707e-01 3.663612e-01 -2.581623e+00 -9.595122e-01 1.002378e+00 -1.075609e+00 5.756751e-01 -1.192198e+00 -1.217254e-01 -1.928820e-01 -2.495357e-01 -4.149994e-01 1.390062e-01 5.805888e-03 9.916486e-02 4.027942e-01 1.504870e-01 -2.849868e-01 2.448018e-01 1.256036e-02 2.133651e-01
<VARIANCE> 39
 5.123674e+00 3.068251e+01 3.308221e+01 2.510148e+01 4.635899e+01 3.747818e+01 4.777187e+01 7.062475e+01 4.916308e+01 4.620889e+01 3.888531e+01 4.508686e+01 1.483292e+01 4.144685e-01 1.301178e+00 2.588849e+00 1.753097e+00 2.173875e+00 2.650895e+00 3.034041e+00 4.897981e+00 2.813614e+00 3.325954e+00 2.993902e+00 2.454687e+00 7.258479e-01 7.323998e-02 2.440038e-01 3.243885e-01 2.938349e-01 3.254149e-01 3.913028e-01 4.174350e-01 8.728590e-01 4.414728e-01 4.802506e-01 4.500543e-01 3.591705e-01 1.231779e-01
<GCONST> 1.112775e+02
<STATE> 3
<MEAN> 39
 4.319712e+00 -1.752158e+00 7.924500e+00 4.916578e+00 -1.172141e+01 2.465607e-01 -8.350598e+00 -6.715066e+00 -7.657086e+00 4.372005e+00 -5.849975e+00 -8.762836e+00 6.133670e+01 5.689538e-02 5.146237e-01 -2.523211e-01 2.644602e-01 1.450434e-01 3.160148e-01 4.012982e-01 -2.912492e-01 -1.479414e-01 -2.200760e-01 -1.170679e-01 2.235538e-01 -4.511401e-01 -1.837752e-01 -3.116069e-01 -3.480390e-01 -4.665251e-01 3.062228e-01 -2.385060e-01 -2.227261e-02 8.969768e-01 2.954348e-01 -5.063336e-01 3.890333e-01 -1.168804e-01 2.746900e-01
<VARIANCE> 39
 4.148876e+00 2.233818e+01 2.701099e+01 2.410251e+01 4.309841e+01 3.723452e+01 3.952173e+01 5.539029e+01 5.071110e+01 4.170866e+01 3.970679e+01 3.659142e+01 1.005904e+01 2.947119e-01 1.444561e+00 1.554233e+00 1.419185e+00 1.743599e+00 1.992291e+00 2.157359e+00 3.317786e+00 2.449245e+00 2.393444e+00 2.093744e+00 1.816472e+00 8.109732e-01 9.178644e-02 2.817269e-01 3.905841e-01 3.626973e-01 3.948494e-01 4.364974e-01 4.686149e-01 8.253897e-01 4.983448e-01 5.405319e-01 5.490473e-01 3.884107e-01 1.473281e-01
<GCONST> 1.079594e+02
<STATE> 4
<MEAN> 39
 3.058196e+00 1.655695e+00 4.032808e+00 5.244189e+00 -6.645576e+00 7.339201e-01 -6.746828e+00 -3.268386e+00 -5.478588e+00 3.139906e-01 -6.296470e+00 -6.411073e+00 5.779118e+01 -3.050892e-01 1.343828e-01 -5.310108e-01 -3.115512e-01 3.958353e-01 3.770339e-02 2.265175e-01 6.881961e-01 1.907276e-01 -6.672876e-01 4.036804e-01 7.385077e-02 -2.513709e-01 -1.336059e-01 -2.351717e-01 2.808256e-02 -3.069544e-01 2.008095e-02 -1.005807e-01 -1.014285e-01 2.653402e-01 7.182450e-02 -5.096515e-02 1.903456e-01 -3.397279e-02 2.098346e-01
<VARIANCE> 39
 7.583552e+00 3.023786e+01 2.964663e+01 2.418161e+01 4.250791e+01 3.252219e+01 4.318654e+01 5.137509e+01 3.947546e+01 3.993883e+01 3.713081e+01 3.246429e+01 1.862301e+01 5.209816e-01 1.788472e+00 1.843836e+00 1.984676e+00 2.254138e+00 2.114230e+00 2.349046e+00 4.266342e+00 2.424949e+00 2.695784e+00 2.589774e+00 2.036623e+00 1.136180e+00 1.232824e-01 2.235107e-01 2.925911e-01 3.507752e-01 3.931909e-01 4.220974e-01 4.312513e-01 6.512106e-01 4.567094e-01 4.625972e-01 4.602666e-01 3.529106e-01 1.190576e-01
<GCONST> 1.103321e+02
<TRANSP> 5
 0.000000e+00 1.000000e+00 0.000000e+00 0.000000e+00 0.000000e+00
 0.000000e+00 3.979914e-01 6.020086e-01 0.000000e+00 0.000000e+00
 0.000000e+00 0.000000e+00 5.374420e-01 4.625580e-01 0.000000e+00
 0.000000e+00 0.000000e+00 0.000000e+00 6.407509e-01 3.592491e-01
 0.000000e+00 0.000000e+00 0.000000e+00 0.000000e+00 0.000000e+00
<ENDHMM>
~h "o"
<BEGINHMM>
<NUMSTATES> 5
<STATE> 2
<MEAN> 39
 4.229488e+00 -1.832890e+00 -3.720447e+00 -1.221669e+01 -7.304808e+00 4.547132e+00 -8.195628e+00 -1.823259e+00 -3.925426e+00 2.458694e+00 2.962635e+00 -5.956546e+00 6.443767e+01 8.749585e-01 -7.594355e-01 -1.506254e-01 -1.974915e+00 -6.099009e-01 1.147224e+00 -4.583287e-01 6.780981e-02 -3.267792e-01 5.165895e-01 7.045693e-01 -4.650837e-01 1.177033e+00 -2.926855e-01 2.277030e-01 2.144620e-01 7.985359e-01 2.133394e-01 -2.135459e-01 1.751804e-01 1.983241e-02 -5.096854e-02 -1.363348e-01 -2.787516e-01 8.366365e-02 -4.419122e-01
<VARIANCE> 39
 1.158487e+01 3.528561e+01 2.734285e+01 7.397499e+01 5.052683e+01 6.928771e+01 6.979533e+01 4.837858e+01 6.122914e+01 4.605719e+01 4.155029e+01 4.335555e+01 3.427662e+01 1.779551e+00 2.488032e+00 2.357302e+00 7.321429e+00 4.014504e+00 5.125635e+00 4.668560e+00 4.281783e+00 4.367974e+00 3.934888e+00 3.383741e+00 2.671537e+00 2.986034e+00 2.984049e-01 3.904142e-01 4.125160e-01 1.063614e+00 6.568591e-01 8.607054e-01 8.919708e-01 6.959759e-01 7.386760e-01 6.850498e-01 6.052092e-01 5.448060e-01 3.945161e-01
<GCONST> 1.303171e+02
<STATE> 3
<MEAN> 39
 5.242525e+00 -4.374706e+00 -3.272445e+00 -1.329925e+01 -9.047820e+00 7.000998e+00 -9.343943e+00 -2.140180e+00 -4.221822e+00 3.030227e+00 5.249151e+00 -8.458219e+00 6.639929e+01 -2.728667e-02 2.951599e-01 2.073875e-02 9.872036e-01 3.392475e-01 -3.191501e-01 2.512554e-01 -7.069185e-02 -8.143017e-02 2.096721e-02 -4.449453e-01 2.230250e-02 -4.758458e-01 -1.673166e-01 2.609868e-01 9.628218e-02 6.601086e-01 1.635475e-01 -3.321712e-01 1.056299e-01 -1.202369e-01 8.036418e-02 -1.190533e-01 -3.140165e-01 1.103280e-01 -3.378024e-01
<VARIANCE> 39
 6.711952e+00 3.115420e+01 2.270839e+01 6.303537e+01 4.846395e+01 6.379739e+01 5.583102e+01 6.093014e+01 6.495853e+01 5.362759e+01 4.788342e+01 4.738186e+01 1.689752e+01 5.033714e-01 1.705314e+00 1.369452e+00 3.527355e+00 2.294528e+00 2.791178e+00 3.038349e+00 2.571878e+00 2.684134e+00 2.754339e+00 2.672956e+00 2.107667e+00 1.257115e+00 1.127439e-01 2.226401e-01 2.991031e-01 4.802755e-01 4.913525e-01 5.825493e-01 5.251971e-01 5.764264e-01 5.732765e-01 5.487094e-01 4.862350e-01 4.187434e-01 1.543642e-01
<GCONST> 1.157708e+02
<STATE> 4
<MEAN> 39
 4.227430e+00 2.732555e+00 -3.782623e+00 -6.130564e+00 -5.904007e+00 3.479909e+00 -6.428714e+00 -8.470670e-01 -5.642748e+00 1.484015e+00 -9.148663e-02 -3.949889e+00 5.845679e+01 -2.785845e-01 4.066709e-01 1.444962e-01 1.451359e+00 2.080125e-01 -2.853701e-01 2.745147e-01 -1.699269e-01 1.555554e-01 -2.846141e-01 -4.683340e-01 1.251008e-01 -7.596968e-01 -3.150593e-02 -6.387998e-02 8.841911e-02 -6.311542e-02 -2.723611e-02 1.304794e-02 -4.088050e-02 -1.387528e-02 -2.400325e-02 3.836850e-03 2.226786e-02 5.423573e-03 7.721813e-02
<VARIANCE> 39
 1.001074e+01 3.960297e+01 2.553226e+01 7.910565e+01 3.761540e+01 4.266571e+01 5.754871e+01 4.038871e+01 5.467594e+01 4.642006e+01 3.679484e+01 4.009238e+01 3.804865e+01 4.390672e-01 9.694641e-01 1.390162e+00 2.533252e+00 1.851050e+00 2.153299e+00 2.209527e+00 2.277763e+00 2.346057e+00 2.515892e+00 2.127359e+00 1.760801e+00 7.662916e-01 8.959982e-02 1.854074e-01 1.973048e-01 3.694391e-01 3.129663e-01 3.673538e-01 4.065590e-01 4.383064e-01 4.148471e-01 4.794917e-01 3.319228e-01 3.214708e-01 9.997981e-02
<GCONST> 1.086507e+02
<TRANSP> 5
 0.000000e+00 1.000000e+00 0.000000e+00 0.000000e+00 0.000000e+00
 0.000000e+00 5.569941e-01 4.430059e-01 0.000000e+00 0.000000e+00
 0.000000e+00 0.000000e+00 6.784039e-01 3.215961e-01 0.000000e+00
 0.000000e+00 0.000000e+00 0.000000e+00 6.917843e-01 3.082157e-01
 0.000000e+00 0.000000e+00 0.000000e+00 0.000000e+00 0.000000e+00
<ENDHMM>
~h "p"
<BEGINHMM>
<NUMSTATES> 5
<STATE> 2
<MEAN> 39
 1.364547e+00 3.297663e+00 -4.136565e+00 2.477411e+00 -3.785191e+00 2.511577e+00 -5.214896e+00 -3.973375e-01 -4.028962e+00 -5.564644e-01 -2.051527e+00 -4.354651e+00 5.321380e+01 -4.050735e-01 -2.755029e-02 -1.455778e-01 1.283010e-01 1.764461e-01 -4.099087e-01 2.745982e-01 -3.322577e-02 4.366471e-01 -8.261960e-02 2.512468e-02 3.216081e-01 -1.451880e-01 9.910003e-02 -5.224352e-01 2.278632e-01 -5.529358e-01 -7.028095e-02 -2.087629e-01 -2.930160e-01 -1.522854e-01 3.976446e-02 1.256342e-01 2.346229e-01 -1.375116e-01 7.631833e-01
<VARIANCE> 39
 9.470353e+00 1.567743e+01 2.332501e+01 1.892504e+01 2.542728e+01 3.561622e+01 2.595513e+01 2.562760e+01 2.832435e+01 2.346182e+01 2.187650e+01 2.348998e+01 9.605641e+00 8.649316e-01 1.445729e+00 1.334268e+00 1.987507e+00 1.875570e+00 2.490306e+00 2.159750e+00 2.423691e+00 2.181406e+00 1.935759e+00 1.956751e+00 1.742321e+00 1.439450e+00 1.646598e-01 2.733143e-01 4.018868e-01 4.861900e-01 4.315686e-01 5.949559e-01 5.176541e-01 5.179687e-01 5.103931e-01 4.800305e-01 4.631010e-01 4.337450e-01 2.443327e-01
<GCONST> 1.066759e+02
<STATE> 3
<MEAN> 39
 -4.134708e-01 1.381118e+00 -2.914114e+00 1.119016e+00 -2.671368e+00 -6.045117e-01 -4.602804e+00 -1.598121e+00 -2.626888e+00 -5.056134e-01 -1.728279e+00 -3.288778e+00 5.550143e+01 5.885338e-01 -1.885071e+00 4.756948e-01 -2.099916e+00 -5.630879e-01 -8.759139e-01 -1.148852e+00 -6.158047e-01 2.543243e-01 4.617354e-01 9.391156e-01 -4.156820e-01 2.677796e+00 3.848351e-01 -4.802346e-01 3.153038e-01 -5.618930e-01 -5.413663e-01 1.234280e-01 -5.799353e-01 1.632916e-01 -2.440282e-01 1.516919e-01 3.025526e-01 -4.653706e-01 7.179029e-01
<VARIANCE> 39
 1.639331e+01 2.064705e+01 2.480985e+01 2.802728e+01 2.638456e+01 4.318246e+01 2.557917e+01 2.985687e+01 3.290684e+01 2.000940e+01 2.127351e+01 2.386200e+01 1.737298e+01 2.423574e+00 3.347696e+00 5.176808e+00 5.999753e+00 4.277873e+00 6.314686e+00 5.139105e+00 4.120004e+00 4.762312e+00 3.886342e+00 3.409006e+00 4.042614e+00 2.438746e+00 2.852834e-01 5.086511e-01 7.406858e-01 7.497447e-01 7.180319e-01 9.054022e-01 6.571184e-01 8.519178e-01 7.921962e-01 5.960394e-01 6.806928e-01 5.736732e-01 3.181023e-01
<GCONST> 1.252432e+02
<STATE> 4
<MEAN> 39
 2.925165e+00 -3.633849e+00 -3.130707e+00 -5.579356e+00 -5.266309e+00 -1.500269e-01 -8.277684e+00 -2.678069e+00 -3.021617e+00 1.272525e+00 1.396675e+00 -5.965629e+00 6.258686e+01 8.610752e-01 -2.240581e+00 8.533143e-01 -2.180169e+00 -1.139690e+00 -3.336512e-01 -1.624683e+00 2.432097e-01 -1.210646e-01 5.643272e-01 1.003753e+00 -1.328130e+00 3.019674e+00 -1.482317e-01 3.408582e-01 3.223686e-01 5.745693e-01 -6.836858e-02 2.567688e-02 2.299105e-02 3.919933e-01 -1.385726e-01 -1.313637e-01 -2.762281e-01 -6.842177e-02 -4.266729e-01
<VARIANCE> 39
 2.174229e+01 3.498347e+01 3.416015e+01 6.875232e+01 3.308049e+01 8.054115e+01 4.708578e+01 3.534010e+01 4.762373e+01 3.476949e+01 3.252973e+01 3.403123e+01 2.855350e+01 2.049898e+00 4.033670e+00 7.179058e+00 6.344306e+00 5.558141e+00 7.524208e+00 5.432334e+00 5.921612e+00 6.024119e+00 4.810167e+00 5.247381e+00 5.084547e+00 2.372628e+00 4.006983e-01 4.963543e-01 5.189257e-01 1.141933e+00 7.313579e-01 9.867846e-01 7.945372e-01 7.421475e-01 7.952860e-01 6.667506e-01 8.138318e-01 6.890652e-01 4.600243e-01
<GCONST> 1.348190e+02
<TRANSP> 5
 0.000000e+00 1.000000e+00 0.000000e+00 0.000000e+00 0.000000e+00
 0.000000e+00 6.601777e-01 3.398223e-01 0.000000e+00 0.000000e+00
 0.000000e+00 0.000000e+00 3.443152e-01 6.556848e-01 0.000000e+00
 0.000000e+00 0.000000e+00 0.000000e+00 2.466271e-01 7.533729e-01
 0.000000e+00 0.000000e+00 0.000000e+00 0.000000e+00 0.000000e+00
<ENDHMM>
~h "r"
<BEGINHMM>
<NUMSTATES> 5
<STATE> 2
<MEAN> 39
 3.327493e+00 -5.211408e+00 -1.447171e+00 2.485319e+00 -6.498520e+00 -4.538128e+00 -1.138859e+01 -8.678589e-01 2.084733e+00 8.846352e-01 3.135784e-01 -7.961488e+00 6.371005e+01 2.701709e-01 2.712683e-01 -1.310342e-01 1.180079e+00 3.370307e-02 -3.594063e-01 -9.546458e-02 -2.526717e-01 1.698860e-02 -3.123421e-01 -2.829084e-01 5.565171e-01 -6.765105e-01 -8.225289e-02 -6.409980e-02 1.435427e-01 -5.395183e-01 -1.100792e-01 1.415949e-01 1.459832e-01 2.238398e-01 -3.917618e-01 4.958205e-02 1.317282e-01 -1.715241e-01 2.275243e-01
<VARIANCE> 39
 1.176278e+01 2.438214e+01 3.928837e+01 3.899178e+01 3.699038e+01 4.652572e+01 6.258697e+01 6.723747e+01 5.147960e+01 4.207838e+01 4.891914e+01 6.103939e+01 2.217379e+01 1.124488e+00 1.883907e+00 2.064247e+00 2.597280e+00 3.310431e+00 3.479493e+00 3.475017e+00 4.140458e+00 3.674468e+00 3.590380e+00 3.760371e+00 3.306526e+00 1.740083e+00 1.825747e-01 3.691764e-01 3.647411e-01 5.752251e-01 6.354886e-01 5.739189e-01 6.556321e-01 7.214332e-01 6.556527e-01 6.699378e-01 7.421761e-01 6.799302e-01 3.748884e-01
<GCONST> 1.239376e+02
<STATE> 3
<MEAN> 39
 3.862462e+00 -4.599774e+00 -1.672569e+00 3.975592e+00 -6.590380e+00 -4.935922e+00 -1.084364e+01 -1.489356e+00 9.465965e-01 6.768039e-01 -7.407391e-02 -6.333773e+00 6.262881e+01 4.523828e-02 1.011360e-02 2.641584e-01 -9.963128e-02 -3.432869e-01 7.817363e-02 3.801754e-01 3.751370e-01 -7.114366e-01 -2.434677e-01 4.404481e-02 -3.554986e-02 -2.391697e-02 -1.722076e-01 -1.152832e-01 2.388105e-01 -6.739743e-01 -1.021894e-01 2.190943e-01 1.557299e-01 2.810481e-01 -3.576517e-01 8.397076e-02 1.759704e-01 -3.053866e-01 3.312703e-01
<VARIANCE> 39
 1.383098e+01 2.635743e+01 4.480351e+01 3.375780e+01 3.689405e+01 4.830845e+01 6.624495e+01 6.686387e+01 5.335303e+01 4.106796e+01 4.422131e+01 4.707185e+01 1.885670e+01 1.155403e+00 2.713443e+00 2.455932e+00 2.406983e+00 3.487474e+00 3.635885e+00 3.598161e+00 4.480157e+00 3.667369e+00 3.252010e+00 3.545949e+00 3.394729e+00 2.047379e+00 1.966693e-01 4.116073e-01 4.371542e-01 4.830619e-01 7.575642e-01 6.249081e-01 7.122812e-01 7.981001e-01 7.034357e-01 7.061843e-01 8.059606e-01 5.975925e-01 3.663941e-01
<GCONST> 1.251561e+02
<STATE> 4
<MEAN> 39
 3.309086e+00 -3.814857e+00 -8.511697e-01 3.202000e+00 -6.738364e+00 -3.828787e+00 -8.944131e+00 -9.114042e-01 -6.079348e-01 5.522605e-01 -7.436453e-01 -6.262263e+00 6.221030e+01 -2.317664e-01 9.850629e-02 5.396085e-01 -6.615367e-01 -2.815131e-01 4.506300e-01 4.220725e-01 5.083430e-01 -8.591625e-01 -7.848506e-02 1.450328e-01 -3.111069e-01 1.170895e-01 -1.006252e-01 -2.708342e-02 1.072571e-01 -2.711970e-01 3.209098e-02 8.753818e-02 -6.312693e-02 3.426648e-02 -9.525895e-02 7.167467e-02 9.728723e-02 -1.015107e-01 1.295165e-01
<VARIANCE> 39
 1.756907e+01 4.020123e+01 4.816246e+01 3.741127e+01 4.173566e+01 5.550577e+01 6.486786e+01 6.957553e+01 5.202657e+01 4.094259e+01 4.368890e+01 4.896144e+01 2.833858e+01 1.234782e+00 3.013422e+00 3.078873e+00 2.495317e+00 3.926651e+00 3.713063e+00 3.622444e+00 4.650844e+00 3.831260e+00 3.345908e+00 3.575517e+00 3.117225e+00 2.232508e+00 2.331083e-01 3.146296e-01 4.019884e-01 4.175470e-01 5.900168e-01 5.768022e-01 6.427323e-01 6.908367e-01 6.443859e-01 5.981847e-01 6.822777e-01 5.020316e-01 2.508024e-01
<GCONST> 1.254998e+02
<TRANSP> 5
 0.000000e+00 1.000000e+00 0.000000e+00 0.000000e+00 0.000000e+00
 0.000000e+00 3.283909e-01 6.716092e-01 0.000000e+00 0.000000e+00
 0.000000e+00 0.000000e+00 1.810353e-01 8.189647e-01 0.000000e+00
 0.000000e+00 0.000000e+00 0.000000e+00 3.383072e-01 6.616928e-01
 0.000000e+00 0.000000e+00 0.000000e+00 0.000000e+00 0.000000e+00
<ENDHMM>
~h "s"
<BEGINHMM>
<NUMSTATES> 5
<STATE> 2
<MEAN> 39
 -8.344776e+00 5.996272e+00 1.502407e+00 -1.399064e+00 2.640969e+00 -8.296184e+00 -1.605765e+00 -7.640266e-01 -1.322230e+00 -2.331167e+00 -1.481160e+00 -3.340505e+00 6.283575e+01 -3.296163e+00 2.234754e+00 -8.262477e-01 -6.388232e-01 1.806076e+00 -9.485881e-01 1.253565e+00 -2.642702e-01 4.892461e-01 -1.046210e+00 2.804125e-01 4.086445e-01 2.158558e-02 2.100775e-01 -4.910275e-01 5.236432e-03 -1.026061e-01 -5.379075e-01 2.795365e-01 -5.200074e-01 1.537179e-01 -1.863053e-01 5.642100e-02 8.269045e-02 -2.560243e-01 1.046200e-01
<VARIANCE> 39
 4.174253e+01 3.521553e+01 4.166438e+01 2.702458e+01 4.242275e+01 5.324216e+01 5.101069e+01 4.725652e+01 4.556132e+01 3.486699e+01 3.179033e+01 2.969805e+01 1.928991e+01 1.848530e+00 2.521578e+00 2.739905e+00 2.489735e+00 3.455822e+00 3.478535e+00 4.621772e+00 4.053538e+00 3.413394e+00 3.189512e+00 2.521327e+00 2.543511e+00 8.970746e-01 8.246490e-01 5.280779e-01 3.919706e-01 5.036072e-01 5.619630e-01 5.777729e-01 6.893816e-01 6.442448e-01 5.476190e-01 6.126248e-01 4.598687e-01 4.862654e-01 1.092433e-01
<GCONST> 1.225064e+02
<STATE> 3
<MEAN> 39
 -1.598429e+01 8.050236e+00 1.763154e-01 -2.454097e+00 3.960455e+00 -8.796816e+00 -1.780341e+00 -4.864714e-02 -6.453341e-01 -4.963537e+00 -5.765423e-01 -2.686059e+00 6.266181e+01 6.827133e-01 -7.633971e-01 2.520510e-01 1.521940e-01 -4.368970e-01 1.204931e-01 -3.909237e-01 3.934103e-02 8.369295e-03 1.423648e-01 -8.656855e-02 -4.010054e-02 -2.014337e-01 9.488153e-01 -4.633112e-01 2.020128e-01 9.762734e-02 -4.398085e-01 1.024744e-01 -2.993212e-01 -8.726868e-02 -8.194622e-02 2.604008e-01 -3.197557e-02 -1.128881e-01 2.454131e-02
<VARIANCE> 39
 1.432108e+01 2.702155e+01 2.671558e+01 2.762788e+01 3.485488e+01 3.515762e+01 3.984073e+01 3.224082e+01 3.064455e+01 2.524826e+01 2.408011e+01 2.263016e+01 1.096189e+01 3.559896e+00 1.745829e+00 1.973856e+00 1.553112e+00 2.186001e+00 2.346725e+00 2.654331e+00 2.368139e+00 2.283472e+00 2.147161e+00 1.920876e+00 1.789189e+00 6.901383e-01 4.020241e-01 3.763507e-01 3.655486e-01 3.563164e-01 4.414622e-01 5.029788e-01 5.816041e-01 5.592212e-01 5.081165e-01 4.858369e-01 4.113281e-01 3.949884e-01 1.443928e-01
<GCONST> 1.110230e+02
<STATE> 4
<MEAN> 39
 -5.088243e+00 2.592297e+00 3.138722e-01 -1.660227e+00 5.384442e-01 -7.718283e+00 -4.862523e+00 -9.694786e-01 -5.071518e-01 -1.709009e+00 -2.140496e+00 -4.120229e+00 6.198366e+01 3.319101e+00 -2.004171e+00 2.315172e-01 -1.761985e-01 -2.077811e+00 7.465439e-01 -1.536022e+00 -2.785182e-01 -3.690681e-01 1.007045e+00 1.386284e-01 -8.054597e-01 7.112827e-01 -3.470484e-01 5.213407e-02 8.702235e-02 -1.827296e-01 -8.985649e-02 2.379873e-01 5.092105e-02 6.618906e-02 -1.619516e-01 -1.138095e-01 2.732333e-01 -9.591709e-02 1.871022e-01
<VARIANCE> 39
 2.902217e+01 3.203603e+01 4.360194e+01 2.341919e+01 4.045450e+01 4.692500e+01 4.886714e+01 3.100677e+01 4.037251e+01 3.173464e+01 2.568185e+01 2.540012e+01 3.133695e+01 2.388305e+00 3.839484e+00 4.539253e+00 3.117587e+00 3.649162e+00 3.747980e+00 4.584889e+00 4.911031e+00 4.562963e+00 3.536039e+00 2.995312e+00 3.097713e+00 2.640661e+00 4.967327e-01 4.093220e-01 3.537357e-01 3.515911e-01 4.314372e-01 5.035406e-01 6.284385e-01 5.747513e-01 5.436527e-01 4.759226e-01 4.095648e-01 4.439617e-01 2.548822e-01
<GCONST> 1.233230e+02
<TRANSP> 5
 0.000000e+00 1.000000e+00 0.000000e+00 0.000000e+00 0.000000e+00
 0.000000e+00 6.991422e-01 3.008579e-01 0.000000e+00 0.000000e+00
 0.000000e+00 0.000000e+00 7.970180e-01 2.029821e-01 0.000000e+00
 0.000000e+00 0.000000e+00 0.000000e+00 4.733244e-01 5.266756e-01
 0.000000e+00 0.000000e+00 0.000000e+00 0.000000e+00 0.000000e+00
<ENDHMM>
~h "t"
<BEGINHMM>
<NUMSTATES> 5
<STATE> 2
<MEAN> 39
 9.467999e-01 2.726406e+00 -1.634658e+00 2.713089e+00 -5.599446e+00 -8.270711e-01 -6.663792e+00 2.100039e-02 -4.434322e+00 5.677428e-01 -1.773147e+00 -4.678576e+00 5.401139e+01 -4.992721e-01 2.510420e-01 -5.945641e-01 9.059240e-02 4.355329e-01 1.152834e-01 6.360721e-01 -7.212275e-02 3.445866e-01 -3.921094e-01 -1.202168e-01 5.319546e-01 -5.810499e-01 -3.060275e-01 -4.260361e-01 3.261690e-01 -6.053873e-01 3.019154e-01 -5.851339e-01 -1.044138e-01 -1.138658e-01 3.310481e-01 -3.386390e-02 1.358477e-01 -1.234720e-01 8.702086e-01
<VARIANCE> 39
 8.007597e+00 1.779582e+01 3.461441e+01 2.109566e+01 2.935603e+01 3.458645e+01 3.114726e+01 3.272410e+01 3.893106e+01 2.614531e+01 3.036488e+01 3.001077e+01 1.331782e+01 8.858425e-01 1.015769e+00 1.486070e+00 1.836560e+00 2.561247e+00 3.113058e+00 2.627292e+00 2.520578e+00 2.639226e+00 2.447780e+00 1.922702e+00 1.847546e+00 1.515413e+00 1.591830e-01 2.277705e-01 3.243506e-01 3.691812e-01 4.733152e-01 5.912393e-01 5.596031e-01 5.689958e-01 5.990579e-01 5.011503e-01 4.357341e-01 4.413595e-01 2.583411e-01
<GCONST> 1.097603e+02
<STATE> 3
<MEAN> 39
 -2.140628e+00 2.598443e+00 -1.652671e+00 1.309665e+00 -2.039022e+00 -2.916014e+00 -4.302927e+00 -1.070531e+00 -2.619823e+00 -9.812728e-01 -2.106644e+00 -3.131815e+00 5.511771e+01 -1.301435e+00 -1.108694e+00 4.010424e-01 -1.823058e+00 1.422832e+00 -1.860657e+00 3.139183e-02 -5.845853e-01 1.521892e+00 -3.723714e-01 2.356806e-01 -2.384771e-01 2.272661e+00 4.156743e-01 -4.929390e-01 3.782836e-01 -5.688106e-01 -4.514892e-01 -1.173617e-02 -8.207659e-01 3.277839e-02 -2.444009e-02 2.855548e-01 2.458836e-01 -5.758882e-01 8.754562e-01
<VARIANCE> 39
 2.010571e+01 1.980727e+01 2.828266e+01 2.557183e+01 3.748935e+01 5.254512e+01 3.706371e+01 3.717148e+01 3.868693e+01 2.891501e+01 2.961276e+01 2.734365e+01 2.199191e+01 1.841288e+00 2.467462e+00 3.152398e+00 3.353256e+00 3.669922e+00 4.599735e+00 4.801086e+00 4.539019e+00 4.820029e+00 3.752041e+00 3.382561e+00 3.348050e+00 2.557701e+00 4.102015e-01 3.721309e-01 5.901982e-01 5.038390e-01 7.522922e-01 1.097926e+00 7.746274e-01 1.026243e+00 9.117721e-01 6.900407e-01 6.399645e-01 5.604871e-01 3.380752e-01
<GCONST> 1.258236e+02
<STATE> 4
<MEAN> 39
 -4.627613e+00 2.663548e-01 -5.543156e-01 -2.181575e+00 -1.992617e-01 -5.883301e+00 -4.522787e+00 -1.844859e+00 6.297984e-01 -1.376395e+00 -1.221538e+00 -4.110571e+00 5.987468e+01 4.232117e-01 -1.296309e+00 8.611683e-01 -1.826077e+00 -3.697436e-01 -6.761911e-01 -1.656306e+00 -2.712158e-01 5.256320e-01 3.663964e-01 6.047944e-01 -1.145966e+00 2.534982e+00 7.038671e-01 -6.938215e-02 1.138686e-01 7.072224e-02 -7.226612e-01 6.354631e-01 -5.728744e-01 1.333361e-01 -5.344426e-01 2.903950e-01 1.534481e-01 -2.622098e-01 -2.981143e-02
<VARIANCE> 39
 2.153440e+01 2.181968e+01 2.625733e+01 2.802076e+01 2.876112e+01 5.199201e+01 4.251892e+01 3.720837e+01 3.821944e+01 3.051228e+01 2.513011e+01 2.718670e+01 2.406399e+01 2.489160e+00 3.546578e+00 4.924663e+00 4.333850e+00 3.675406e+00 5.384958e+00 5.816259e+00 6.294919e+00 5.797174e+00 3.894243e+00 4.016356e+00 4.302218e+00 3.767833e+00 4.133837e-01 4.136997e-01 5.575097e-01 5.230972e-01 6.759135e-01 1.003115e+00 8.420110e-01 8.287486e-01 7.893043e-01 7.396796e-01 6.216869e-01 5.490422e-01 3.602459e-01
<GCONST> 1.286127e+02
<TRANSP> 5
 0.000000e+00 1.000000e+00 0.000000e+00 0.000000e+00 0.000000e+00
 0.000000e+00 5.569557e-01 4.430443e-01 0.000000e+00 0.000000e+00
 0.000000e+00 0.000000e+00 3.599996e-01 6.400004e-01 0.000000e+00
 0.000000e+00 0.000000e+00 0.000000e+00 2.725963e-01 7.274038e-01
 0.000000e+00 0.000000e+00 0.000000e+00 0.000000e+00 0.000000e+00
<ENDHMM>
~h "u"
<BEGINHMM>
<NUMSTATES> 5
<STATE> 2
<MEAN> 39
 4.025125e+00 1.063733e+00 1.693048e+00 -7.660441e+00 -7.813734e+00 6.774817e-01 -1.643105e+01 -6.710712e+00 -6.409950e+00 1.476206e+00 4.658555e+00 -6.342401e+00 6.377713e+01 7.814986e-01 -1.237187e-01 3.620201e-01 -9.287345e-01 -8.792583e-01 1.116490e+00 -1.379305e+00 -7.542603e-01 -6.541942e-01 5.392770e-01 1.166325e+00 -2.589264e-01 5.811545e-01 -2.791128e-01 1.278953e-01 -1.032819e-01 6.532449e-01 2.522665e-01 8.917559e-02 8.262008e-01 3.314143e-01 6.914020e-02 -2.185113e-01 -4.936959e-01 1.950577e-01 -5.226284e-01
<VARIANCE> 39
 1.388295e+01 2.771515e+01 3.809896e+01 6.740803e+01 6.640227e+01 6.237721e+01 7.325851e+01 5.741831e+01 6.562061e+01 5.515893e+01 5.804730e+01 4.714899e+01 1.651836e+01 1.978965e+00 2.625958e+00 3.156502e+00 5.820186e+00 4.951693e+00 5.369544e+00 6.683279e+00 5.163602e+00 5.927158e+00 4.697819e+00 4.821496e+00 3.742916e+00 2.023778e+00 3.094679e-01 4.433171e-01 4.442216e-01 9.231045e-01 9.174672e-01 9.797075e-01 1.102223e+00 9.854070e-01 1.069595e+00 8.949502e-01 8.683563e-01 7.497786e-01 3.005091e-01
<GCONST> 1.347954e+02
<STATE> 3
<MEAN> 39
 4.747448e+00 8.599505e-01 1.962938e+00 -8.342099e+00 -9.527178e+00 4.094455e+00 -1.690841e+01 -7.633287e+00 -7.458452e+00 1.409809e+00 6.521454e+00 -6.509280e+00 6.364102e+01 -2.345161e-02 3.501271e-01 -9.472877e-02 7.461330e-01 3.207422e-01 1.227745e-01 8.790075e-01 3.397501e-01 -7.863481e-02 -2.143600e-01 -7.605292e-01 3.188555e-01 -6.313497e-01 -2.611300e-01 1.088890e-01 -5.262074e-02 5.408749e-01 3.166429e-01 -3.693105e-01 5.564437e-01 2.934548e-01 2.528705e-01 -2.081180e-01 -5.613307e-01 4.416989e-02 -2.886165e-01
<VARIANCE> 39
 8.808435e+00 2.824293e+01 3.450872e+01 7.402774e+01 5.570023e+01 5.937188e+01 6.124848e+01 5.830437e+01 6.102596e+01 5.695536e+01 6.828811e+01 5.091278e+01 1.507663e+01 7.339385e-01 2.211198e+00 1.844141e+00 4.367539e+00 3.014486e+00 3.552173e+00 3.766068e+00 3.466854e+00 4.140748e+00 3.484741e+00 3.272727e+00 3.130993e+00 1.627807e+00 1.956127e-01 3.244891e-01 3.415931e-01 6.350756e-01 5.977669e-01 6.874688e-01 7.470159e-01 7.473078e-01 7.650843e-01 7.114713e-01 7.016935e-01 6.118007e-01 1.691923e-01
<GCONST> 1.243505e+02
<STATE> 4
<MEAN> 39
 4.789802e+00 5.244878e+00 -3.775284e-01 -4.455662e+00 -6.911124e+00 2.605421e+00 -1.130994e+01 -4.467282e+00 -8.153395e+00 -4.684133e-01 1.112577e+00 -3.201782e+00 5.817133e+01 -2.971942e-01 2.358798e-01 -9.316951e-02 1.041199e+00 3.814116e-01 -1.369932e-01 8.170307e-01 3.103615e-01 2.888972e-01 -1.629872e-01 -6.543601e-01 1.603008e-01 -6.735466e-01 -1.051566e-01 -1.175716e-01 3.360365e-02 -5.960416e-02 3.570076e-02 -4.498262e-02 -6.497744e-02 -1.122490e-02 6.726152e-02 1.955317e-02 6.870272e-02 -6.651867e-02 1.083884e-01
<VARIANCE> 39
 1.059139e+01 3.140100e+01 2.713088e+01 7.240615e+01 4.881565e+01 4.732020e+01 4.574515e+01 4.178476e+01 4.209856e+01 4.596564e+01 4.772313e+01 3.735350e+01 2.423629e+01 6.416327e-01 1.315762e+00 1.389645e+00 2.434921e+00 2.283936e+00 2.566564e+00 2.711742e+00 2.684387e+00 2.589018e+00 2.559966e+00 2.532970e+00 2.224267e+00 8.757289e-01 1.139286e-01 2.099760e-01 2.107815e-01 4.241827e-01 3.760113e-01 4.374004e-01 4.907465e-01 4.780183e-01 4.551675e-01 4.620869e-01 4.212221e-01 3.833468e-01 1.286342e-01
<GCONST> 1.120641e+02
<TRANSP> 5
 0.000000e+00 1.000000e+00 0.000000e+00 0.000000e+00 0.000000e+00
 0.000000e+00 4.351589e-01 5.648411e-01 0.000000e+00 0.000000e+00
 0.000000e+00 0.000000e+00 4.586543e-01 5.413457e-01 0.000000e+00
 0.000000e+00 0.000000e+00 0.000000e+00 7.127721e-01 2.872279e-01
 0.000000e+00 0.000000e+00 0.000000e+00 0.000000e+00 0.000000e+00
<ENDHMM>
~h "v"
<BEGINHMM>
<NUMSTATES> 5
<STATE> 2
<MEAN> 39
 7.903662e-04 -6.079456e-01 1.670089e+00 -6.705837e-01 -5.929818e+00 -8.820225e-01 -6.906881e+00 5.931143e-01 -4.574426e+00 -3.940755e-01 -3.854154e-01 -5.847453e+00 5.993814e+01 5.024984e-04 -6.478592e-05 9.522401e-04 -6.048587e-04 -1.305029e-03 -9.148303e-04 -9.999124e-04 -6.995694e-04 3.150678e-04 8.832195e-04 -1.229102e-04 -1.829845e-05 4.304752e-04 -1.024714e-04 5.090495e-05 -4.314321e-05 5.499199e-04 2.475645e-04 2.544455e-04 -3.161734e-04 -1.009587e-04 -7.179174e-05 -5.594532e-04 -1.336834e-04 -6.698545e-06 -3.952787e-04
<VARIANCE> 39
 2.681136e+01 5.325134e+01 6.824250e+01 5.887592e+01 6.062508e+01 6.608533e+01 5.928268e+01 6.068991e+01 5.916120e+01 4.597362e+01 4.705821e+01 4.804106e+01 6.619385e+01 1.372020e+00 2.288023e+00 2.566274e+00 2.987463e+00 3.078158e+00 3.116328e+00 3.250192e+00 3.738113e+00 3.266875e+00 2.829993e+00 2.967949e+00 2.476121e+00 2.021681e+00 2.264445e-01 3.584008e-01 4.122588e-01 5.086471e-01 5.519696e-01 5.562619e-01 5.942494e-01 6.847889e-01 5.904057e-01 5.307208e-01 5.528100e-01 4.553457e-01 3.018115e-01
<GCONST> 1.265182e+02
<STATE> 3
<MEAN> 39
 7.903662e-04 -6.079456e-01 1.670089e+00 -6.705837e-01 -5.929818e+00 -8.820225e-01 -6.906881e+00 5.931143e-01 -4.574426e+00 -3.940755e-01 -3.854154e-01 -5.847453e+00 5.993814e+01 5.024984e-04 -6.478592e-05 9.522401e-04 -6.048587e-04 -1.305029e-03 -9.148303e-04 -9.999124e-04 -6.995694e-04 3.150678e-04 8.832195e-04 -1.229102e-04 -1.829845e-05 4.304752e-04 -1.024714e-04 5.090495e-05 -4.314321e-05 5.499199e-04 2.475645e-04 2.544455e-04 -3.161734e-04 -1.009587e-04 -7.179174e-05 -5.594532e-04 -1.336834e-04 -6.698545e-06 -3.952787e-04
<VARIANCE> 39
 2.681136e+01 5.325134e+01 6.824250e+01 5.887592e+01 6.062508e+01 6.608533e+01 5.928268e+01 6.068991e+01 5.916120e+01 4.597362e+01 4.705821e+01 4.804106e+01 6.619385e+01 1.372020e+00 2.288023e+00 2.566274e+00 2.987463e+00 3.078158e+00 3.116328e+00 3.250192e+00 3.738113e+00 3.266875e+00 2.829993e+00 2.967949e+00 2.476121e+00 2.021681e+00 2.264445e-01 3.584008e-01 4.122588e-01 5.086471e-01 5.519696e-01 5.562619e-01 5.942494e-01 6.847889e-01 5.904057e-01 5.307208e-01 5.528100e-01 4.553457e-01 3.018115e-01
<GCONST> 1.265182e+02
<STATE> 4
<MEAN> 39
 7.903662e-04 -6.079456e-01 1.670089e+00 -6.705837e-01 -5.929818e+00 -8.820225e-01 -6.906881e+00 5.931143e-01 -4.574426e+00 -3.940755e-01 -3.854154e-01 -5.847453e+00 5.993814e+01 5.024984e-04 -6.478592e-05 9.522401e-04 -6.048587e-04 -1.305029e-03 -9.148303e-04 -9.999124e-04 -6.995694e-04 3.150678e-04 8.832195e-04 -1.229102e-04 -1.829845e-05 4.304752e-04 -1.024714e-04 5.090495e-05 -4.314321e-05 5.499199e-04 2.475645e-04 2.544455e-04 -3.161734e-04 -1.009587e-04 -7.179174e-05 -5.594532e-04 -1.336834e-04 -6.698545e-06 -3.952787e-04
<VARIANCE> 39
 2.681136e+01 5.325134e+01 6.824250e+01 5.887592e+01 6.062508e+01 6.608533e+01 5.928268e+01 6.068991e+01 5.916120e+01 4.597362e+01 4.705821e+01 4.804106e+01 6.619385e+01 1.372020e+00 2.288023e+00 2.566274e+00 2.987463e+00 3.078158e+00 3.116328e+00 3.250192e+00 3.738113e+00 3.266875e+00 2.829993e+00 2.967949e+00 2.476121e+00 2.021681e+00 2.264445e-01 3.584008e-01 4.122588e-01 5.086471e-01 5.519696e-01 5.562619e-01 5.942494e-01 6.847889e-01 5.904057e-01 5.307208e-01 5.528100e-01 4.553457e-01 3.018115e-01
<GCONST> 1.265182e+02
<TRANSP> 5
 0.000000e+00 1.000000e+00 0.000000e+00 0.000000e+00 0.000000e+00
 0.000000e+00 6.000000e-01 4.000000e-01 0.000000e+00 0.000000e+00
 0.000000e+00 0.000000e+00 6.000000e-01 4.000000e-01 0.000000e+00
 0.000000e+00 0.000000e+00 0.000000e+00 7.000000e-01 3.000000e-01
 0.000000e+00 0.000000e+00 0.000000e+00 0.000000e+00 0.000000e+00
<ENDHMM>
~h "w"
<BEGINHMM>
<NUMSTATES> 5
<STATE> 2
<MEAN> 39
 -1.404092e+00 2.698570e+00 -2.543840e+00 4.211703e+00 -3.863548e+00 3.381379e+00 -3.643172e+00 8.663335e-01 -3.304285e+00 -7.106251e-01 -1.135988e+00 -1.428073e+00 5.167204e+01 9.578691e-02 1.428863e-01 -8.083559e-02 -7.126357e-02 -1.054302e-01 9.238400e-02 4.146293e-02 -3.588849e-02 -1.691173e-01 -4.650366e-03 1.227460e-01 1.748555e-01 -1.013369e-01 3.711461e-02 -1.805500e-02 9.060398e-03 -9.417111e-02 -1.874063e-02 -1.363125e-02 -4.388689e-02 3.466614e-03 -1.085740e-03 7.539693e-03 1.102557e-02 -1.977591e-02 5.959791e-02
<VARIANCE> 39
 1.495024e+01 3.673618e+01 1.722073e+01 3.987167e+01 2.139680e+01 2.080169e+01 2.804352e+01 2.818179e+01 2.164191e+01 2.618155e+01 2.540341e+01 2.361986e+01 3.721746e+01 3.323698e-01 5.279734e-01 7.671379e-01 1.142755e+00 1.100759e+00 1.256630e+00 1.492300e+00 1.577045e+00 1.810181e+00 1.671131e+00 1.647042e+00 1.445442e+00 2.444663e-01 6.303992e-02 9.392716e-02 1.194628e-01 2.545947e-01 2.024180e-01 2.596542e-01 3.004700e-01 3.093490e-01 3.456916e-01 3.286566e-01 3.080930e-01 2.647165e-01 4.657370e-02
<GCONST> 9.182403e+01
<STATE> 3
<MEAN> 39
 5.871797e+00 1.941850e+00 -4.234638e+00 -8.430681e+00 -8.966964e+00 6.121442e+00 -7.618209e+00 -2.453065e+00 -7.941843e+00 8.216171e-01 4.528073e+00 -3.387464e+00 5.962827e+01 6.452456e-01 -8.285683e-01 -1.831689e-01 -2.410504e+00 -1.288039e-01 9.177206e-01 -9.913049e-01 -1.040047e-01 -3.084967e-02 7.359638e-01 1.068887e+00 -6.534542e-01 1.523907e+00 -2.277075e-01 -4.314758e-01 2.804655e-02 8.709095e-02 3.181318e-01 4.432264e-02 -6.392604e-02 1.821746e-01 4.344083e-01 1.881080e-01 -1.383491e-01 -4.083720e-01 1.881722e-01
<VARIANCE> 39
 1.538196e+01 3.551748e+01 2.456212e+01 8.642536e+01 5.928991e+01 4.584460e+01 4.678671e+01 2.856826e+01 3.428155e+01 3.634407e+01 4.092264e+01 4.553440e+01 3.596537e+01 1.479216e+00 3.201144e+00 1.147036e+00 4.770337e+00 3.060288e+00 2.911843e+00 3.649033e+00 2.364839e+00 3.401947e+00 3.167637e+00 3.146431e+00 4.400021e+00 2.394075e+00 2.269790e-01 3.044511e-01 1.806086e-01 1.013947e+00 4.647895e-01 5.742150e-01 5.567466e-01 4.563515e-01 5.078447e-01 4.946321e-01 7.015455e-01 6.475828e-01 2.399391e-01
<GCONST> 1.218035e+02
<STATE> 4
<MEAN> 39
 5.238062e+00 -4.069894e+00 -3.819711e+00 -1.648220e+01 -5.531468e+00 1.025590e+01 -1.348065e+01 -1.635444e+00 -2.870128e+00 5.425484e+00 5.047936e+00 -9.763610e+00 6.606508e+01 -2.019516e-01 -5.861276e-01 -7.475102e-02 3.879356e-02 4.672913e-01 -9.396564e-02 9.143102e-02 2.515099e-01 5.037969e-01 -5.185376e-02 -4.324024e-01 -6.112829e-01 3.180375e-01 -4.584146e-02 9.274580e-02 3.648323e-02 2.872190e-01 4.032888e-02 -2.134073e-01 1.190493e-01 1.955755e-02 5.258884e-03 -1.479815e-01 -1.590392e-01 6.587772e-02 -1.213766e-01
<VARIANCE> 39
 6.952408e+00 3.653285e+01 1.702925e+01 4.464561e+01 7.735397e+01 5.671198e+01 3.379071e+01 3.258783e+01 3.597097e+01 6.351574e+01 6.509493e+01 5.898112e+01 1.892840e+01 4.185252e-01 1.991941e+00 7.256079e-01 1.656277e+00 1.701349e+00 1.667530e+00 1.516054e+00 1.809337e+00 2.319569e+00 2.008799e+00 2.145518e+00 3.518992e+00 1.023129e+00 5.469216e-02 2.386612e-01 1.244204e-01 3.371531e-01 2.505786e-01 2.897093e-01 2.523288e-01 2.741052e-01 3.282108e-01 3.469186e-01 4.005308e-01 5.033157e-01 1.512988e-01
<GCONST> 1.053366e+02
<TRANSP> 5
 0.000000e+00 1.000000e+00 0.000000e+00 0.000000e+00 0.000000e+00
 0.000000e+00 8.356495e-01 1.643504e-01 0.000000e+00 0.000000e+00
 0.000000e+00 0.000000e+00 7.225982e-01 2.774018e-01 0.000000e+00
 0.000000e+00 0.000000e+00 0.000000e+00 8.304684e-01 1.695316e-01
 0.000000e+00 0.000000e+00 0.000000e+00 0.000000e+00 0.000000e+00
<ENDHMM>
~h "y"
<BEGINHMM>
<NUMSTATES> 5
<STATE> 2
<MEAN> 39
 -2.572729e+00 -2.567946e+00 1.744193e+01 -5.905989e+00 -1.570562e+01 -7.899090e+00 -1.169605e+01 2.638871e+00 -9.016746e+00 -2.591772e+00 6.255033e+00 -5.850819e+00 6.736904e+01 -7.019445e-02 -7.257386e-01 5.879958e-01 -4.351622e-01 -9.863382e-01 -8.611408e-01 -1.219652e-01 9.575793e-01 -6.240012e-02 2.042231e-01 8.555976e-01 2.650312e-01 7.268238e-01 1.392040e-01 -1.601184e-01 -6.635858e-01 1.035084e-01 3.534165e-01 1.052735e-01 1.724443e-01 1.771346e-01 3.459084e-01 8.451700e-02 -3.654058e-01 -1.567504e-01 -5.391607e-02
<VARIANCE> 39
 8.606499e+00 4.366089e+01 5.316383e+01 3.090378e+01 4.178175e+01 4.626708e+01 5.379599e+01 6.617858e+01 6.169110e+01 7.660950e+01 4.571026e+01 3.716495e+01 2.081894e+01 6.654325e-01 2.280069e+00 4.639809e+00 1.765830e+00 2.298076e+00 2.878342e+00 2.959596e+00 4.654220e+00 3.030330e+00 2.716848e+00 2.425062e+00 2.301973e+00 1.348987e+00 7.479782e-02 2.056484e-01 5.227447e-01 2.884278e-01 4.779673e-01 4.999568e-01 4.514522e-01 6.809036e-01 4.844561e-01 4.367255e-01 4.567439e-01 3.620048e-01 1.052178e-01
<GCONST> 1.165665e+02
<STATE> 3
<MEAN> 39
 -1.244764e+00 -8.826854e+00 1.114225e+01 -6.938889e+00 -1.591010e+01 -1.054563e+01 -8.460903e+00 1.120632e+01 -3.648806e+00 -2.425292e+00 5.074206e+00 -7.361800e+00 7.041532e+01 3.591363e-01 -7.355175e-01 -1.582561e+00 5.585957e-02 1.105903e+00 4.120114e-01 5.841566e-01 9.933397e-01 8.923325e-01 -2.513663e-01 -1.415663e+00 -8.083405e-01 1.607279e-01 5.406626e-02 2.081587e-01 -1.175827e-01 1.643848e-01 3.495784e-01 3.229318e-01 -9.619534e-02 -5.151266e-01 -1.113703e-01 6.376085e-02 -2.762603e-01 -9.204214e-02 -2.096673e-01
<VARIANCE> 39
 5.295136e+00 1.887511e+01 2.694228e+01 2.127783e+01 3.774226e+01 3.892372e+01 5.492640e+01 5.145991e+01 4.401966e+01 6.345320e+01 4.645707e+01 3.966026e+01 1.187419e+01 2.667971e-01 1.055395e+00 2.284270e+00 1.082597e+00 1.718167e+00 1.716939e+00 1.733582e+00 3.378471e+00 2.462529e+00 1.817745e+00 2.268566e+00 1.628737e+00 4.703777e-01 5.606604e-02 1.494689e-01 3.105407e-01 1.758817e-01 3.122168e-01 3.264413e-01 3.053858e-01 6.313893e-01 3.125713e-01 3.715536e-01 3.954142e-01 3.242885e-01 8.696585e-02
<GCONST> 1.020715e+02
<STATE> 4
<MEAN> 39
 5.957204e-02 -8.419684e+00 4.208487e+00 -4.724170e+00 -8.232340e+00 -6.404269e+00 -5.740542e+00 8.627907e+00 -1.599620e+00 -2.208102e+00 -2.736839e+00 -7.786221e+00 6.772804e+01 2.808011e-01 1.636952e-02 -8.835173e-01 3.028653e-01 9.804108e-01 7.016493e-01 -5.398814e-02 -5.205593e-01 1.240707e-01 2.023890e-01 -8.021574e-01 -2.659338e-01 -3.402012e-01 -3.511216e-04 2.177874e-01 1.275400e-01 9.934723e-02 -5.348573e-02 5.177011e-02 -5.616816e-02 -3.151892e-01 -1.825784e-01 1.718560e-01 1.829545e-01 1.288446e-01 -1.807066e-01
<VARIANCE> 39
 8.757827e+00 3.021675e+01 3.230004e+01 3.412494e+01 3.737858e+01 5.873080e+01 4.029910e+01 5.400177e+01 4.465569e+01 6.697464e+01 3.867579e+01 4.885783e+01 3.084245e+01 3.151969e-01 7.727184e-01 1.651285e+00 1.121060e+00 1.827633e+00 1.615749e+00 1.591231e+00 2.335814e+00 1.724738e+00 1.847471e+00 1.960156e+00 1.564724e+00 4.144664e-01 5.641834e-02 2.146054e-01 2.424109e-01 2.131663e-01 2.362889e-01 3.549067e-01 2.807873e-01 6.186888e-01 3.459139e-01 3.875426e-01 3.137550e-01 2.629293e-01 1.300873e-01
<GCONST> 1.034647e+02
<TRANSP> 5
 0.000000e+00 1.000000e+00 0.000000e+00 0.000000e+00 0.000000e+00
 0.000000e+00 7.430273e-01 2.569727e-01 0.000000e+00 0.000000e+00
 0.000000e+00 0.000000e+00 7.234228e-01 2.765772e-01 0.000000e+00
 0.000000e+00 0.000000e+00 0.000000e+00 5.914690e-01 4.085311e-01
 0.000000e+00 0.000000e+00 0.000000e+00 0.000000e+00 0.000000e+00
<ENDHMM>
~h "z"
<BEGINHMM>
<NUMSTATES> 5
<STATE> 2
<MEAN> 39
 7.761849e-01 1.028872e+01 1.055547e+01 5.190308e+00 -6.980596e+00 -8.378020e+00 -4.009815e+00 -3.549186e+00 -1.063015e+01 -2.250205e+00 -3.344284e-01 -2.236882e+00 5.720110e+01 2.965043e-01 -1.623738e-01 1.267772e-01 -4.683878e-01 9.466035e-02 7.683430e-01 -9.195225e-01 6.904469e-02 -3.411645e-01 1.825985e-02 5.142835e-01 -4.109336e-01 1.284271e-01 -7.181545e-02 -1.542188e-01 1.675122e-01 -3.694022e-01 -1.207395e-01 3.199618e-01 -1.939886e-02 -1.258129e-02 1.384367e-01 1.271435e-01 -6.817012e-02 -5.997139e-02 8.818907e-02
<VARIANCE> 39
 1.432173e+01 2.284302e+01 3.033819e+01 2.174315e+01 1.426195e+01 2.153022e+01 6.134744e+01 3.194269e+01 2.956608e+01 2.471737e+01 1.547832e+01 2.054819e+01 1.749049e+01 1.012551e+00 3.304874e+00 4.110728e+00 3.991831e+00 1.328187e+00 1.786259e+00 3.246964e+00 2.915338e+00 2.852113e+00 2.025532e+00 2.098254e+00 1.794528e+00 1.167782e+00 1.315445e-01 3.878017e-01 3.618102e-01 1.851082e-01 3.908956e-01 1.979499e-01 2.973768e-01 2.558700e-01 4.184090e-01 1.990303e-01 5.862333e-01 2.635697e-01 6.857435e-02
<GCONST> 1.049902e+02
<STATE> 3
<MEAN> 39
 -4.930074e-01 1.908963e+00 1.769479e+01 -9.917444e+00 -6.912982e+00 -1.240878e-01 -1.980352e+01 -3.926537e+00 -8.091243e+00 7.093029e+00 -6.042064e-02 -6.240549e+00 6.487279e+01 3.042584e-02 -1.212353e+00 6.535562e-01 -1.540167e+00 -4.848448e-01 1.555746e+00 -6.212225e-01 -4.811067e-01 2.170779e-01 2.723765e-01 3.959522e-01 4.996693e-02 8.062240e-01 1.545106e-01 8.602867e-02 -6.790623e-01 2.191588e-01 -1.358584e-02 -9.974197e-03 2.924601e-01 3.966228e-01 3.503791e-02 -2.893448e-02 -5.426304e-02 5.378351e-03 -1.656936e-01
<VARIANCE> 39
 7.256960e+00 5.176253e+00 8.165984e+01 6.062537e+01 1.882787e+01 1.121760e+02 3.738592e+01 1.809934e+01 5.320519e+01 1.511027e+01 7.677419e+00 2.355857e+01 5.558352e+00 1.162216e+00 2.075495e+00 3.225972e+00 1.771499e+00 2.336093e+00 2.708141e+00 3.349738e+00 1.791271e+00 4.234400e+00 3.455192e+00 2.020732e+00 2.266333e+00 6.305002e-01 6.484992e-02 3.785967e-01 1.238447e-01 3.055535e-01 3.459630e-01 6.571953e-01 6.664588e-01 3.526662e-01 3.930210e-01 5.351034e-01 1.788822e-01 1.625067e-01 8.427489e-02
<GCONST> 1.041079e+02
<STATE> 4
<MEAN> 39
 -1.219378e+00 5.623336e+00 8.215143e+00 -4.284461e+00 -5.610525e+00 8.782900e+00 -8.872081e+00 -1.834076e+00 -5.692178e+00 -2.930120e+00 -6.196285e+00 -6.070742e+00 5.493269e+01 1.809864e-01 2.467025e-01 -4.806967e-01 5.910417e-01 -7.122637e-02 -8.963592e-02 2.383066e-01 -5.360328e-02 -2.031840e-02 -2.050183e-01 -2.248827e-02 -9.017305e-02 -3.163838e-01 -9.401420e-03 9.945013e-02 -1.427843e-02 7.261750e-02 2.176134e-02 -4.916503e-02 4.978121e-02 -1.218738e-02 1.005842e-02 -6.826628e-03 1.188106e-03 -1.957033e-03 -6.495254e-02
<VARIANCE> 39
 5.640124e+00 3.222441e+01 6.613785e+01 9.939938e+01 8.295649e+00 5.787806e+01 5.957542e+01 1.600309e+01 2.246531e+01 2.845801e+01 2.139475e+01 2.420172e+01 5.745986e+01 3.254330e-01 1.164868e+00 1.198059e+00 1.275055e+00 7.533105e-01 1.514731e+00 1.716192e+00 1.369322e+00 1.374755e+00 1.266330e+00 1.806441e+00 1.924397e+00 4.746248e-01 4.700328e-02 1.867766e-01 1.762526e-01 1.649910e-01 1.050789e-01 2.269592e-01 3.535041e-01 2.660270e-01 2.486152e-01 2.376678e-01 3.231902e-01 2.001482e-01 5.996029e-02
<GCONST> 9.420694e+01
<TRANSP> 5
 0.000000e+00 1.000000e+00 0.000000e+00 0.000000e+00 0.000000e+00
 0.000000e+00 7.830428e-01 2.169572e-01 0.000000e+00 0.000000e+00
 0.000000e+00 0.000000e+00 7.068082e-01 2.931918e-01 0.000000e+00
 0.000000e+00 0.000000e+00 0.000000e+00 8.844763e-01 1.155237e-01
 0.000000e+00 0.000000e+00 0.000000e+00 0.000000e+00 0.000000e+00
<ENDHMM>
~h "aw"
<BEGINHMM>
<NUMSTATES> 5
<STATE> 2
<MEAN> 39
 1.710155e+00 -2.915593e+00 -3.924964e-01 -1.195422e+01 -4.555315e+00 4.472125e-01 -1.078128e+01 -3.899926e+00 2.985263e-01 3.626470e+00 3.202427e+00 -7.353848e+00 6.624207e+01 1.101985e+00 -6.575623e-01 3.162665e-01 -2.353341e+00 -1.449443e+00 1.612577e+00 -1.933193e+00 3.841455e-01 -1.723342e-01 1.044676e+00 1.774439e+00 -1.093367e+00 1.668621e+00 1.609517e-01 2.214046e-01 -9.299855e-02 5.751198e-01 -2.466080e-01 4.551454e-01 1.367158e-01 1.742263e-01 -3.591112e-01 -1.498878e-01 -2.194351e-01 3.107154e-01 -5.332766e-01
<VARIANCE> 39
 1.968282e+01 2.537179e+01 1.650597e+01 3.701900e+01 7.664776e+01 7.252772e+01 6.874760e+01 3.460225e+01 7.335969e+01 4.985438e+01 2.570091e+01 3.509928e+01 1.949210e+01 2.069053e+00 1.747285e+00 2.958187e+00 4.027186e+00 3.936975e+00 5.438201e+00 6.505019e+00 2.459935e+00 5.897124e+00 3.730431e+00 2.306605e+00 4.442939e+00 2.683183e+00 5.864350e-01 3.262754e-01 4.481602e-01 6.297522e-01 1.105846e+00 1.162192e+00 1.159891e+00 9.428350e-01 7.447467e-01 7.145799e-01 6.902455e-01 5.582733e-01 3.883333e-01
<GCONST> 1.295783e+02
<STATE> 3
<MEAN> 39
 3.337729e+00 -3.789834e+00 1.230094e+00 -1.420307e+01 -9.385594e+00 4.478803e+00 -1.358374e+01 -3.516785e+00 -9.831799e-01 4.671288e+00 4.647284e+00 -7.388930e+00 6.900773e+01 4.023567e-01 5.917487e-01 3.744309e-01 6.753359e-01 -5.237575e-01 6.317973e-01 -1.478859e-01 -5.835565e-01 -7.597966e-01 -5.135652e-01 -2.513078e-01 1.174597e+00 -6.300006e-01 -1.004652e-01 3.583255e-01 -3.642224e-02 6.842011e-01 3.570244e-01 -2.300679e-01 3.290406e-01 -1.311592e-01 6.687637e-02 -3.196608e-01 -5.111511e-01 2.721671e-01 -5.454297e-01
<VARIANCE> 39
 7.150931e+00 2.710378e+01 1.529428e+01 4.001825e+01 4.900587e+01 7.605212e+01 6.919218e+01 5.378646e+01 1.032348e+02 4.055348e+01 3.042184e+01 5.133867e+01 1.039187e+01 7.473075e-01 1.486634e+00 1.565415e+00 3.006996e+00 2.829337e+00 3.186068e+00 3.478195e+00 3.391586e+00 2.508250e+00 3.945507e+00 2.372665e+00 2.605319e+00 1.144763e+00 1.972876e-01 2.187248e-01 2.339697e-01 4.895635e-01 4.236228e-01 5.342541e-01 6.362333e-01 5.977643e-01 8.046007e-01 6.060309e-01 5.550686e-01 6.087488e-01 1.495792e-01
<GCONST> 1.169448e+02
<STATE> 4
<MEAN> 39
 5.233262e+00 7.506988e-01 1.531951e-01 -7.942985e+00 -1.194008e+01 9.395058e+00 -1.006684e+01 -7.439150e+00 -3.636544e+00 1.960482e+00 2.820013e+00 -2.729577e+00 6.146346e+01 -1.974047e-01 7.262309e-01 -3.059353e-01 1.442458e+00 5.817325e-01 -5.348835e-01 5.967115e-01 4.550834e-01 -1.344657e-01 -3.243675e-01 -7.436393e-01 3.167763e-02 -1.269186e+00 -2.194175e-01 -1.682575e-01 2.389443e-02 -7.875837e-02 1.510787e-01 -4.085317e-01 9.204686e-02 2.606668e-01 -1.490342e-02 1.558368e-01 8.606613e-02 -2.507666e-01 2.077043e-01
<VARIANCE> 39
 5.504242e+00 2.704909e+01 2.756383e+01 5.269835e+01 3.526611e+01 7.953886e+01 5.782868e+01 4.402105e+01 5.346819e+01 4.740353e+01 3.563475e+01 2.511814e+01 2.011547e+01 4.259336e-01 1.077097e+00 1.743783e+00 2.612746e+00 2.170964e+00 3.372185e+00 2.107896e+00 3.049294e+00 3.023110e+00 2.276017e+00 2.519521e+00 3.039781e+00 9.798394e-01 1.224907e-01 1.599781e-01 3.353143e-01 3.338005e-01 3.488835e-01 6.525226e-01 4.751855e-01 6.120316e-01 6.172364e-01 4.287679e-01 4.950203e-01 5.850893e-01 1.430696e-01
<GCONST> 1.125616e+02
<TRANSP> 5
 0.000000e+00 1.000000e+00 0.000000e+00 0.000000e+00 0.000000e+00
 0.000000e+00 5.064847e-01 4.935152e-01 0.000000e+00 0.000000e+00
 0.000000e+00 0.000000e+00 7.158830e-01 2.841171e-01 0.000000e+00
 0.000000e+00 0.000000e+00 0.000000e+00 7.645065e-01 2.354935e-01
 0.000000e+00 0.000000e+00 0.000000e+00 0.000000e+00 0.000000e+00
<ENDHMM>
~h "ay"
<BEGINHMM>
<NUMSTATES> 5
<STATE> 2
<MEAN> 39
 4.894446e-01 -1.400465e+01 2.559083e+00 -5.671411e+00 -1.042466e+01 -6.944043e+00 -8.533550e+00 9.996754e+00 2.613804e+00 -4.851233e+00 -8.842193e-01 -1.143903e+01 7.214047e+01 -3.381622e-01 -1.613599e-01 1.355202e+00 1.817377e-01 -1.442788e+00 -1.148691e+00 1.873334e-01 1.415197e+00 -6.171488e-01 -5.534652e-01 7.934200e-01 6.239311e-01 1.491185e-01 -3.126221e-03 4.952802e-01 1.830098e-01 7.268416e-02 -1.912256e-02 1.680266e-01 -1.836928e-02 -4.836770e-01 -4.575194e-01 2.245189e-01 2.970567e-01 2.814709e-01 -3.435009e-01
<VARIANCE> 39
 6.262474e+00 1.949444e+01 4.350657e+01 1.769881e+01 4.184991e+01 5.888879e+01 5.228837e+01 5.352703e+01 5.740187e+01 6.365667e+01 4.491604e+01 3.144599e+01 5.953440e+00 4.009299e-01 1.218193e+00 1.855180e+00 1.188602e+00 2.010806e+00 2.352799e+00 1.847198e+00 2.650346e+00 2.164239e+00 2.026137e+00 3.124506e+00 2.107645e+00 4.239461e-01 9.345799e-02 1.816135e-01 3.061231e-01 2.601606e-01 5.059862e-01 4.335423e-01 3.752927e-01 5.403675e-01 4.660776e-01 3.619256e-01 5.296211e-01 3.778842e-01 1.216056e-01
<GCONST> 1.066228e+02
<STATE> 3
<MEAN> 39
 -1.540018e+00 -8.568954e+00 1.460438e+01 -5.932775e+00 -1.985996e+01 -9.953208e+00 -1.238367e+01 1.078331e+01 -5.124547e+00 -5.965863e+00 8.420347e+00 -7.216038e+00 7.007653e+01 9.844336e-02 9.217319e-01 5.146322e-01 3.420990e-01 4.639518e-02 4.214783e-01 -3.370958e-01 -9.328930e-01 -8.037942e-01 2.218856e-01 5.166622e-02 5.103318e-02 -6.985052e-01 1.782508e-01 8.554196e-02 -5.171267e-01 2.270894e-01 5.712119e-01 2.848891e-01 1.332306e-01 -2.344384e-01 1.134380e-01 1.298641e-01 -5.161476e-01 -2.470296e-01 -2.435702e-01
<VARIANCE> 39
 4.291001e+00 1.796615e+01 3.500048e+01 2.368219e+01 3.449036e+01 3.650069e+01 6.124881e+01 3.975854e+01 5.363918e+01 5.279418e+01 3.856961e+01 2.877547e+01 6.275492e+00 4.622840e-01 1.094671e+00 2.930324e+00 1.275737e+00 2.514511e+00 1.336286e+00 2.268279e+00 2.573542e+00 2.623833e+00 1.990434e+00 2.900238e+00 2.236220e+00 5.771657e-01 6.748374e-02 1.804383e-01 2.529827e-01 1.955716e-01 2.993970e-01 3.115596e-01 4.224022e-01 6.304705e-01 4.124638e-01 3.707819e-01 4.208018e-01 3.401566e-01 1.065169e-01
<GCONST> 1.038913e+02
<STATE> 4
<MEAN> 39
 7.569062e-01 -3.739932e+00 9.929552e+00 -5.082715e-01 -1.327636e+01 -6.239406e+00 -9.089034e+00 5.307085e+00 -6.938766e+00 -3.215105e+00 2.468162e+00 -6.635193e+00 6.368395e+01 5.065501e-01 9.022120e-01 -1.233666e+00 1.027751e+00 1.160545e+00 1.202091e+00 7.421279e-01 -9.025171e-01 -4.595284e-01 4.933853e-01 -8.677495e-01 -4.380088e-02 -1.371439e+00 -1.094025e-01 -6.976954e-02 -9.113743e-02 -1.009146e-01 -4.619367e-02 -1.845887e-02 1.113484e-01 -1.134328e-01 2.284470e-02 -1.393528e-02 4.198517e-02 1.435059e-01 9.521632e-02
<VARIANCE> 39
 8.184519e+00 1.965696e+01 3.773984e+01 3.010093e+01 3.739271e+01 3.902873e+01 5.887975e+01 4.764396e+01 5.491724e+01 4.180861e+01 3.065602e+01 4.404576e+01 1.921778e+01 5.159619e-01 1.003753e+00 1.811159e+00 1.676309e+00 2.236346e+00 2.594594e+00 2.730130e+00 3.791996e+00 2.975465e+00 2.472370e+00 2.625308e+00 2.281126e+00 7.579176e-01 9.668002e-02 1.810137e-01 2.800985e-01 3.155606e-01 3.982168e-01 4.819580e-01 5.015196e-01 5.044104e-01 5.153025e-01 4.357977e-01 3.496799e-01 4.744458e-01 1.155052e-01
<GCONST> 1.100323e+02
<TRANSP> 5
 0.000000e+00 1.000000e+00 0.000000e+00 0.000000e+00 0.000000e+00
 0.000000e+00 7.618051e-01 2.381949e-01 0.000000e+00 0.000000e+00
 0.000000e+00 0.000000e+00 7.517793e-01 2.482207e-01 0.000000e+00
 0.000000e+00 0.000000e+00 0.000000e+00 6.962395e-01 3.037606e-01
