~o
<STREAMINFO> 1 39
<VECSIZE> 39<NULLD><MFCC_D_A_0><DIAGC>
~h "@"
<BEGINHMM>
<NUMSTATES> 5
<STATE> 2
<MEAN> 39
 1.054228e+00 -2.917408e+00 1.473051e+00 -1.272022e+00 -5.829948e+00 -4.723441e+00 -9.460679e+00 -4.377221e-01 -1.733797e+00 1.207689e+00 1.122046e-02 -6.932433e+00 6.337804e+01 6.412247e-01 -8.238955e-01 3.371449e-01 -3.560215e-01 -7.621148e-01 -3.428859e-01 -4.848821e-01 3.962762e-01 2.635327e-01 2.070693e-01 1.738271e-01 -4.943910e-01 9.440856e-01 -8.127283e-02 2.963094e-01 4.693281e-02 2.381259e-01 3.974882e-02 3.564198e-01 2.460633e-01 -6.859343e-02 -2.224865e-01 -1.431565e-01 -1.351536e-01 1.253370e-01 -3.523225e-01
<VARIANCE> 39
 1.990700e+01 4.391461e+01 4.931050e+01 4.722617e+01 6.112013e+01 7.140454e+01 6.918908e+01 7.438086e+01 6.173843e+01 4.453738e+01 4.514765e+01 5.137416e+01 4.052380e+01 2.383765e+00 3.418680e+00 3.450383e+00 4.552973e+00 4.641856e+00 5.820959e+00 5.479352e+00 7.168071e+00 5.759973e+00 4.327911e+00 4.429125e+00 3.977802e+00 3.708461e+00 4.076073e-01 5.696401e-01 5.130264e-01 7.148046e-01 7.723587e-01 8.613799e-01 8.769000e-01 1.036679e+00 8.571189e-01 7.277105e-01 7.160836e-01 6.254002e-01 6.007990e-01
<GCONST> 1.369650e+02
<STATE> 3
<MEAN> 39
 1.767589e+00 -4.313969e+00 2.189413e+00 -1.894637e+00 -6.933681e+00 -5.029560e+00 -1.021677e+01 5.069132e-01 -1.529361e+00 1.230907e+00 4.514849e-01 -7.729496e+00 6.482927e+01 4.112393e-01 -4.113817e-02 3.142812e-01 2.461094e-01 -4.377671e-01 3.594735e-01 -6.215671e-02 -6.967893e-02 -1.789089e-01 2.527192e-02 -4.765018e-02 -6.728122e-02 9.863913e-03 -1.944113e-01 4.291713e-01 -3.945945e-02 3.306169e-01 2.446816e-01 3.380654e-01 3.190821e-01 -2.515503e-01 -2.527750e-01 -1.414955e-01 -1.933174e-01 2.303445e-01 -4.995801e-01
<VARIANCE> 39
 1.568045e+01 4.714077e+01 4.829902e+01 5.470324e+01 6.180950e+01 7.299158e+01 6.892610e+01 8.927325e+01 7.158994e+01 5.169374e+01 4.921667e+01 5.478507e+01 3.504549e+01 1.622740e+00 2.753266e+00 2.599123e+00 3.742878e+00 3.602357e+00 4.305194e+00 4.641043e+00 5.221841e+00 4.393512e+00 3.459218e+00 3.982995e+00 3.204915e+00 2.716422e+00 3.511907e-01 5.047088e-01 5.371388e-01 7.645806e-01 7.537240e-01 7.821839e-01 8.717970e-01 1.185589e+00 9.157481e-01 8.184615e-01 7.610040e-01 6.770700e-01 5.161420e-01
<GCONST> 1.342139e+02
<STATE> 4
<MEAN> 39
 1.931762e+00 -3.442035e+00 2.776467e+00 -7.706800e-01 -7.254707e+00 -4.906698e+00 -9.834137e+00 4.721597e-01 -2.471394e+00 7.544737e-01 -1.622963e-02 -7.050965e+00 6.372330e+01 1.378542e-01 5.827779e-01 6.384213e-02 6.801399e-01 4.165364e-02 7.110837e-01 3.327696e-01 -5.106975e-01 -4.124395e-01 -9.304583e-02 -3.358150e-01 2.218765e-01 -7.164140e-01 -1.630681e-01 1.391628e-01 -6.635068e-02 5.804104e-02 1.569591e-01 7.358062e-02 1.596439e-01 -7.142727e-02 -7.359056e-02 -9.209716e-02 -7.776295e-02 7.999577e-02 -1.544406e-01
<VARIANCE> 39
 1.363700e+01 4.775669e+01 4.504943e+01 5.386630e+01 5.846256e+01 7.167988e+01 6.493021e+01 8.736857e+01 6.642403e+01 4.583863e+01 4.828850e+01 5.301165e+01 3.747137e+01 1.198923e+00 2.460073e+00 2.264510e+00 3.110673e+00 3.124696e+00 3.254364e+00 3.745101e+00 4.132097e+00 3.466402e+00 3.024832e+00 3.078315e+00 2.534618e+00 2.194944e+00 2.613118e-01 4.232955e-01 4.234001e-01 6.418220e-01 5.885326e-01 6.087212e-01 7.155315e-01 9.160707e-01 7.219107e-01 6.382143e-01 7.074257e-01 5.651688e-01 4.114823e-01
<GCONST> 1.281767e+02
<TRANSP> 5
 0.000000e+00 1.000000e+00 0.000000e+00 0.000000e+00 0.000000e+00
 0.000000e+00 1.588021e-01 8.411978e-01 0.000000e+00 0.000000e+00
 0.000000e+00 0.000000e+00 1.503643e-01 8.496357e-01 0.000000e+00
 0.000000e+00 0.000000e+00 0.000000e+00 2.972961e-01 7.027040e-01
 0.000000e+00 0.000000e+00 0.000000e+00 0.000000e+00 0.000000e+00
<ENDHMM>
~h "a"
<BEGINHMM>
<NUMSTATES> 5
<STATE> 2
<MEAN> 39
 2.091653e+00 -9.861270e+00 -7.441463e-01 -7.253962e+00 -4.369876e+00 -1.248297e+00 -9.707685e+00 5.500121e+00 -8.584870e-01 3.897470e-01 -2.060354e+00 -1.165720e+01 6.851912e+01 1.454633e-01 -8.470317e-01 -2.358022e-01 -4.299286e-01 3.621304e-01 3.024310e-01 1.287149e-01 7.182346e-01 1.075283e-01 -1.724725e-01 -5.352275e-01 -5.778908e-01 6.245473e-01 -9.383547e-02 6.929017e-01 1.797844e-01 5.910334e-01 -1.695002e-02 -5.861008e-02 1.466407e-01 -5.240167e-01 -3.197252e-01 -6.879648e-03 1.073812e-01 5.015461e-01 -6.086391e-01
<VARIANCE> 39
 1.041286e+01 3.234232e+01 4.254337e+01 4.589538e+01 5.738713e+01 7.999770e+01 6.090553e+01 6.178114e+01 6.842870e+01 6.566229e+01 4.689470e+01 5.440157e+01 2.795284e+01 9.471665e-01 2.721087e+00 2.367315e+00 3.135996e+00 3.205516e+00 3.859982e+00 3.408204e+00 4.841855e+00 3.418522e+00 3.492699e+00 3.201447e+00 3.355040e+00 2.128282e+00 1.833741e-01 4.046046e-01 3.586925e-01 5.029648e-01 5.537910e-01 5.963297e-01 5.992445e-01 7.850943e-01 6.657197e-01 6.773623e-01 5.743093e-01 5.719416e-01 3.077850e-01
<GCONST> 1.259394e+02
<STATE> 3
<MEAN> 39
 2.322608e+00 -9.730207e+00 -7.080710e-01 -6.941553e+00 -3.992332e+00 -1.352854e+00 -9.431488e+00 5.677506e+00 -1.259694e+00 3.610953e-01 -2.586159e+00 -1.129707e+01 6.835709e+01 1.270022e-01 8.997842e-01 8.780038e-02 9.290478e-01 3.380086e-02 7.496312e-03 2.991505e-01 -5.254735e-01 -4.579438e-01 1.195688e-01 -7.375241e-02 5.759813e-01 -8.818128e-01 -3.334909e-02 5.318343e-01 1.286554e-01 4.167880e-01 -1.355093e-01 9.094758e-03 8.083653e-02 -4.234607e-01 -1.484010e-01 2.188369e-02 1.151119e-01 2.660126e-01 -4.688567e-01
<VARIANCE> 39
 9.077363e+00 3.246339e+01 4.024985e+01 4.448625e+01 5.112636e+01 7.737813e+01 5.876859e+01 6.271597e+01 6.841309e+01 6.645248e+01 4.776742e+01 5.390025e+01 2.480807e+01 5.395593e-01 1.788958e+00 1.604551e+00 2.125355e+00 2.268270e+00 3.139200e+00 2.684860e+00 3.438596e+00 2.535465e+00 2.795887e+00 2.502629e+00 2.309576e+00 1.352064e+00 1.282245e-01 2.935515e-01 3.162096e-01 3.794360e-01 4.432026e-01 5.558869e-01 5.549066e-01 7.169306e-01 5.298523e-01 5.839406e-01 5.225203e-01 4.690270e-01 1.880028e-01
<GCONST> 1.182536e+02
<STATE> 4
<MEAN> 39
 2.269347e+00 -4.320073e+00 -2.243225e+00 -1.837696e+00 -3.430433e+00 -9.743246e-02 -6.854156e+00 3.255731e+00 -2.617027e+00 4.776671e-01 -3.268485e+00 -8.007458e+00 6.172460e+01 -1.452127e-02 1.049760e+00 3.173194e-02 9.866906e-01 -1.552463e-01 2.176909e-01 3.820685e-01 -6.134217e-01 -2.691751e-01 -5.988346e-02 -4.698892e-02 5.107575e-01 -1.121263e+00 -6.592353e-02 -4.663303e-03 6.218227e-02 -5.732953e-02 -3.402790e-02 -1.464347e-02 -1.824754e-02 -5.883642e-02 1.403764e-02 -2.179107e-02 2.405909e-02 -2.229965e-02 4.805930e-02
<VARIANCE> 39
 1.094315e+01 4.048007e+01 3.827882e+01 4.967519e+01 4.022444e+01 5.503983e+01 4.723097e+01 4.800882e+01 5.274503e+01 4.803445e+01 3.837450e+01 4.529395e+01 5.148977e+01 5.344049e-01 1.349063e+00 1.482856e+00 1.931251e+00 2.001021e+00 2.330180e+00 2.345785e+00 2.907678e+00 2.461252e+00 2.360574e+00 2.133366e+00 1.957141e+00 1.074852e+00 1.070746e-01 2.301117e-01 2.313909e-01 3.148969e-01 3.270350e-01 4.105526e-01 4.161099e-01 5.386111e-01 4.148033e-01 4.184277e-01 3.958279e-01 3.566692e-01 1.685567e-01
<GCONST> 1.121194e+02
<TRANSP> 5
 0.000000e+00 1.000000e+00 0.000000e+00 0.000000e+00 0.000000e+00
 0.000000e+00 4.798612e-01 5.201389e-01 0.000000e+00 0.000000e+00
 0.000000e+00 0.000000e+00 4.229785e-01 5.770215e-01 0.000000e+00
 0.000000e+00 0.000000e+00 0.000000e+00 6.568487e-01 3.431512e-01
 0.000000e+00 0.000000e+00 0.000000e+00 0.000000e+00 0.000000e+00
<ENDHMM>
~h "b"
<BEGINHMM>
<NUMSTATES> 5
<STATE> 2
<MEAN> 39
 5.113455e+00 7.041140e+00 1.877370e+00 4.593942e+00 -4.100665e+00 2.416397e+00 -7.036830e+00 -4.110375e+00 -8.138601e+00 -1.980451e+00 -1.882748e+00 -4.868864e+00 5.597523e+01 3.162025e-01 -3.573049e-01 -4.128599e-01 -1.079143e+00 9.624717e-02 -2.928070e-01 -9.261901e-01 -5.069672e-01 1.344098e-01 4.079099e-01 8.205869e-01 2.062161e-01 7.321011e-01 -1.253834e-01 -7.969807e-01 5.179264e-02 -8.746861e-01 -2.754147e-01 -2.706317e-01 -6.775358e-01 1.119038e-01 3.355008e-01 5.421791e-01 4.518028e-01 -2.406420e-01 6.862774e-01
<VARIANCE> 39
 7.919544e+00 2.305438e+01 2.052523e+01 2.856398e+01 2.975835e+01 3.125064e+01 3.379375e+01 2.840672e+01 2.850270e+01 2.436314e+01 2.534458e+01 2.599574e+01 1.392835e+01 7.526962e-01 3.195016e+00 1.789246e+00 6.239758e+00 2.893266e+00 3.304203e+00 5.001475e+00 3.318025e+00 3.962552e+00 4.111184e+00 4.063190e+00 2.638075e+00 2.499876e+00 1.344972e-01 4.298354e-01 3.638411e-01 6.749631e-01 5.000869e-01 6.414612e-01 6.610847e-01 7.141044e-01 7.978570e-01 6.928664e-01 6.918835e-01 6.153552e-01 2.535261e-01
<GCONST> 1.181023e+02
<STATE> 3
<MEAN> 39
 5.748787e+00 1.459729e+00 5.257728e-01 -4.312569e+00 -5.374369e+00 1.300415e+00 -1.398161e+01 -6.790692e+00 -6.615666e+00 3.292528e+00 4.019495e+00 -5.217434e+00 6.202354e+01 -2.493235e-01 -2.555041e+00 7.810837e-02 -2.484663e+00 -6.885921e-01 -8.049930e-01 -2.309367e+00 7.872834e-01 1.801909e+00 1.945643e+00 1.156693e+00 -1.525318e+00 2.290263e+00 -2.845732e-01 -9.610391e-02 3.140877e-01 5.063050e-01 -1.301544e-01 -1.460845e-01 4.092281e-01 7.303789e-01 2.660238e-01 -3.605365e-01 -6.440302e-01 -3.370886e-01 -7.739006e-02
<VARIANCE> 39
 7.056552e+00 3.601862e+01 2.487171e+01 8.990327e+01 4.982303e+01 5.201019e+01 5.869007e+01 3.638097e+01 5.604507e+01 5.899757e+01 5.723053e+01 3.873289e+01 2.393442e+01 8.613468e-01 4.330250e+00 2.776655e+00 7.800092e+00 3.671304e+00 5.770266e+00 5.481780e+00 5.738226e+00 7.066193e+00 7.024661e+00 6.248446e+00 5.581010e+00 2.360325e+00 1.347479e-01 5.373692e-01 4.357674e-01 1.234550e+00 7.347889e-01 7.271261e-01 1.061145e+00 8.523170e-01 1.110906e+00 1.168136e+00 1.221355e+00 7.908899e-01 4.111371e-01
<GCONST> 1.340100e+02
<STATE> 4
<MEAN> 39
 4.486673e+00 -2.883737e+00 1.673460e+00 -5.631158e+00 -5.906744e+00 -1.408023e+00 -1.634211e+01 -1.366382e+00 -1.941052e+00 5.106430e+00 1.831111e+00 -9.254213e+00 6.484610e+01 -6.199867e-01 -1.375340e+00 7.099806e-01 -2.830300e-01 -6.188560e-01 -1.036425e+00 -3.001511e-01 1.733014e+00 1.086999e+00 -3.248092e-01 -5.964630e-01 -7.882429e-01 1.063257e+00 -1.132659e-01 6.028702e-01 1.397133e-01 7.210485e-01 7.163927e-02 1.504164e-01 7.856088e-01 -1.060754e-01 -5.176734e-01 -6.935608e-01 -3.389149e-01 4.623336e-01 -5.462288e-01
<VARIANCE> 39
 6.716358e+00 4.902415e+01 3.072604e+01 9.719266e+01 5.681528e+01 6.183212e+01 6.337014e+01 4.886493e+01 6.766997e+01 7.853327e+01 7.194096e+01 6.448427e+01 2.833612e+01 8.924388e-01 3.137727e+00 3.486022e+00 6.192907e+00 3.812436e+00 4.655506e+00 4.775156e+00 6.086473e+00 6.231957e+00 5.612206e+00 6.160999e+00 4.848407e+00 2.262312e+00 1.284476e-01 5.883630e-01 4.073759e-01 1.226873e+00 7.406516e-01 7.624917e-01 9.021206e-01 8.113146e-01 9.485308e-01 1.217493e+00 1.201648e+00 8.910865e-01 4.062294e-01
<GCONST> 1.353101e+02
<TRANSP> 5
 0.000000e+00 1.000000e+00 0.000000e+00 0.000000e+00 0.000000e+00
 0.000000e+00 6.612570e-01 3.387430e-01 0.000000e+00 0.000000e+00
 0.000000e+00 0.000000e+00 3.825358e-01 6.174642e-01 0.000000e+00
 0.000000e+00 0.000000e+00 0.000000e+00 3.248457e-01 6.751542e-01
 0.000000e+00 0.000000e+00 0.000000e+00 0.000000e+00 0.000000e+00
<ENDHMM>
~h "c"
<BEGINHMM>
<NUMSTATES> 5
<STATE> 2
<MEAN> 39
 -3.593054e+00 4.123661e+00 3.598394e-01 4.844939e-01 -2.422289e+00 -2.805433e+00 -4.724654e+00 -3.643022e-02 -2.951963e+00 -1.369981e+00 -1.601004e+00 -2.591112e+00 5.600166e+01 -2.727204e+00 2.719806e-01 5.810319e-01 -1.402586e+00 1.216341e+00 -9.894193e-01 7.289294e-01 -3.233034e-01 3.289928e-01 -3.167789e-01 5.399784e-01 3.029593e-01 1.358893e+00 -1.580188e-01 -3.081830e-01 5.081464e-01 -2.614912e-01 -2.362514e-01 -4.764757e-01 -2.861242e-01 2.277562e-02 1.864921e-01 -7.543004e-02 1.488714e-01 -3.749035e-03 7.407045e-01
<VARIANCE> 39
 3.543448e+01 2.116959e+01 2.790364e+01 2.950482e+01 4.038724e+01 5.361286e+01 3.579329e+01 4.318671e+01 3.139704e+01 2.516097e+01 2.871586e+01 2.382052e+01 2.455058e+01 3.375273e+00 2.694897e+00 2.996559e+00 3.382462e+00 3.388629e+00 4.129854e+00 2.665747e+00 3.424100e+00 2.815535e+00 2.578347e+00 2.760452e+00 2.147138e+00 2.788922e+00 1.277669e+00 4.621620e-01 4.545817e-01 7.097580e-01 8.537880e-01 6.921062e-01 5.881951e-01 7.169535e-01 6.078207e-01 5.546034e-01 5.032909e-01 4.308415e-01 3.863261e-01
<GCONST> 1.239819e+02
<STATE> 3
<MEAN> 39
 -1.305141e+01 4.046477e+00 5.537314e+00 -4.380676e+00 -8.560638e-01 -7.881817e+00 -3.862657e+00 -7.513235e-01 -6.710750e-01 -3.995765e+00 5.563471e-01 -1.389582e+00 6.324933e+01 1.237381e+00 -1.660429e+00 1.189721e+00 -1.629025e-01 -1.631382e+00 -1.291195e+00 -1.562023e+00 4.246117e-01 6.369444e-01 -2.284633e-01 2.656526e-01 -9.434462e-03 1.952416e+00 1.777833e+00 -6.052409e-01 -4.050904e-01 3.839360e-01 -6.878901e-01 5.523231e-01 -6.736316e-01 1.514876e-01 -1.929894e-01 3.287915e-01 -5.744626e-02 -3.438750e-01 -3.017264e-01
<VARIANCE> 39
 2.547302e+01 2.952566e+01 2.885434e+01 3.023029e+01 4.133270e+01 4.889025e+01 3.561212e+01 3.652893e+01 3.008440e+01 2.834142e+01 2.434718e+01 1.864119e+01 1.737903e+01 9.341520e+00 3.812486e+00 3.663047e+00 3.881310e+00 5.000124e+00 4.017776e+00 4.665925e+00 4.631159e+00 4.148964e+00 3.571003e+00 2.547827e+00 2.440121e+00 2.184274e+00 8.129588e-01 7.607902e-01 5.707324e-01 8.811315e-01 9.168596e-01 7.346624e-01 7.214844e-01 7.653164e-01 9.164243e-01 6.235309e-01 7.011518e-01 5.542012e-01 2.979811e-01
<GCONST> 1.283068e+02
<STATE> 4
<MEAN> 39
 -6.926509e-01 -4.934229e+00 5.254324e+00 -3.752556e+00 -7.951914e+00 -8.888015e+00 -1.274117e+01 1.290081e+00 7.098089e-01 -1.717714e+00 9.606436e-01 -3.897460e+00 6.805896e+01 3.090171e+00 -1.875037e+00 -7.590521e-01 -5.420256e-01 -1.114027e+00 1.195358e+00 -1.428124e+00 1.681717e-01 -4.551813e-01 8.770012e-01 6.864558e-01 -1.178493e+00 7.624533e-01 -5.157077e-01 7.371566e-01 -3.984565e-01 6.436662e-02 6.057190e-01 7.886865e-01 8.685675e-01 -2.708715e-01 -4.461969e-01 -3.906843e-02 -5.535961e-02 -2.132009e-02 -7.902488e-01
<VARIANCE> 39
 1.614856e+01 3.522389e+01 4.926464e+01 2.885202e+01 2.734863e+01 3.902927e+01 6.011898e+01 7.592471e+01 4.981165e+01 4.684023e+01 2.526484e+01 2.154977e+01 1.979241e+01 3.027082e+00 4.753038e+00 3.124880e+00 2.947056e+00 4.252929e+00 3.728829e+00 4.492041e+00 5.730504e+00 5.255767e+00 3.705814e+00 3.647744e+00 3.684297e+00 1.919693e+00 8.113383e-01 5.590923e-01 5.559230e-01 5.772629e-01 6.590681e-01 6.135395e-01 8.357411e-01 7.400402e-01 7.456892e-01 7.873444e-01 5.799215e-01 6.550505e-01 2.846575e-01
<GCONST> 1.287673e+02
<TRANSP> 5
 0.000000e+00 1.000000e+00 0.000000e+00 0.000000e+00 0.000000e+00
 0.000000e+00 7.040107e-01 2.959893e-01 0.000000e+00 0.000000e+00
 0.000000e+00 0.000000e+00 6.166176e-01 3.833824e-01 0.000000e+00
 0.000000e+00 0.000000e+00 0.000000e+00 5.094634e-01 4.905365e-01
 0.000000e+00 0.000000e+00 0.000000e+00 0.000000e+00 0.000000e+00
<ENDHMM>
~h "d"
<BEGINHMM>
<NUMSTATES> 5
<STATE> 2
<MEAN> 39
 3.626033e+00 4.193949e+00 5.275923e+00 7.163765e+00 -7.338229e+00 -2.390284e+00 -8.116559e+00 8.692638e-01 -4.287282e+00 -2.669350e+00 -3.965704e+00 -5.145234e+00 5.663000e+01 -6.144073e-02 -5.900550e-01 4.423853e-01 -1.123982e-01 -1.346619e-01 -5.564692e-01 -4.931307e-01 1.853936e-01 1.416295e-01 -4.116482e-01 4.203683e-01 4.123029e-01 5.198864e-01 -2.985846e-01 -8.505656e-01 4.567932e-01 -8.797812e-01 -4.769017e-01 -4.951434e-01 -5.983700e-01 1.694616e-01 4.379479e-02 1.181108e-01 6.730401e-01 -2.032547e-02 8.848592e-01
<VARIANCE> 39
 8.671338e+00 3.748135e+01 3.372050e+01 2.686203e+01 4.207938e+01 3.219788e+01 4.227161e+01 5.597426e+01 3.360104e+01 2.858762e+01 3.945284e+01 3.195872e+01 2.137778e+01 1.006883e+00 4.276379e+00 3.130702e+00 3.484385e+00 3.794922e+00 4.273806e+00 5.156395e+00 5.242030e+00 3.705749e+00 2.914339e+00 4.094962e+00 2.614495e+00 3.269462e+00 1.780367e-01 5.172158e-01 6.106424e-01 5.462133e-01 7.083292e-01 7.663339e-01 8.794451e-01 1.191819e+00 7.268930e-01 5.926527e-01 7.469268e-01 5.542932e-01 3.623089e-01
<GCONST> 1.254011e+02
<STATE> 3
<MEAN> 39
 2.484421e+00 -1.554837e+00 7.426217e+00 3.893744e+00 -8.409431e+00 -5.804083e+00 -1.184825e+01 1.490718e+00 -3.538777e+00 -3.358697e+00 -7.450951e-01 -3.204921e+00 6.143521e+01 -7.092991e-01 -2.356004e+00 1.628691e+00 -2.484048e+00 -1.561444e+00 -1.705360e+00 -2.089344e+00 9.848211e-01 1.761673e-01 2.536758e-01 2.147513e+00 -2.524205e-01 2.681756e+00 -9.642773e-02 1.221137e-01 2.288696e-02 -4.517453e-01 -1.818401e-01 1.489864e-01 -1.104902e-02 1.055395e-01 -1.575960e-01 3.413555e-01 1.314666e-01 -5.326889e-01 1.714149e-01
<VARIANCE> 39
 9.815065e+00 4.068032e+01 4.036796e+01 4.238994e+01 4.617428e+01 5.536420e+01 8.131396e+01 8.259935e+01 5.265636e+01 4.042007e+01 3.707173e+01 3.966010e+01 2.817489e+01 1.190385e+00 3.276558e+00 4.960517e+00 4.229011e+00 4.124926e+00 4.908084e+00 5.491889e+00 1.053302e+01 6.150415e+00 4.930368e+00 5.676279e+00 3.704219e+00 2.348358e+00 1.646590e-01 6.109963e-01 7.167739e-01 6.913342e-01 9.644418e-01 1.027285e+00 1.201483e+00 1.144278e+00 8.504688e-01 7.551110e-01 8.994156e-01 6.232257e-01 5.273120e-01
<GCONST> 1.344956e+02
<STATE> 4
<MEAN> 39
 1.069039e+00 -4.819710e+00 1.059979e+01 -1.583204e+00 -1.265644e+01 -8.389609e+00 -1.563706e+01 5.108243e+00 -3.597398e+00 -1.908418e+00 4.181938e+00 -6.239200e+00 6.624954e+01 -4.974611e-01 -7.872081e-01 5.749975e-01 -1.822578e+00 -7.414008e-01 -3.764596e-01 -6.833435e-01 5.433063e-01 -2.156752e-01 6.893993e-01 9.848049e-01 -1.033440e+00 1.377949e+00 1.132958e-01 6.404483e-01 -4.225166e-01 4.664266e-01 4.513384e-01 5.035671e-01 6.159885e-01 -3.932550e-01 -1.835980e-01 2.139151e-02 -5.673235e-01 -1.943452e-02 -6.130329e-01
<VARIANCE> 39
 1.008163e+01 3.751404e+01 5.589623e+01 4.284827e+01 4.555079e+01 5.622741e+01 8.238155e+01 1.187790e+02 7.654070e+01 6.055314e+01 5.395534e+01 5.410241e+01 2.449137e+01 1.108803e+00 2.610102e+00 5.924225e+00 4.345943e+00 4.619697e+00 5.044669e+00 5.470175e+00 6.949317e+00 5.289960e+00 4.815775e+00 6.074136e+00 3.658410e+00 2.902536e+00 1.283918e-01 4.354776e-01 6.014020e-01 6.117263e-01 7.948220e-01 8.558884e-01 1.114819e+00 1.225592e+00 8.429853e-01 6.964561e-01 8.601085e-01 7.009554e-01 4.062881e-01
<GCONST> 1.346550e+02
<TRANSP> 5
 0.000000e+00 1.000000e+00 0.000000e+00 0.000000e+00 0.000000e+00
 0.000000e+00 5.963462e-01 4.036538e-01 0.000000e+00 0.000000e+00
 0.000000e+00 0.000000e+00 2.733091e-01 7.266908e-01 0.000000e+00
 0.000000e+00 0.000000e+00 0.000000e+00 3.986428e-01 6.013572e-01
 0.000000e+00 0.000000e+00 0.000000e+00 0.000000e+00 0.000000e+00
<ENDHMM>
~h "e"
<BEGINHMM>
<NUMSTATES> 5
<STATE> 2
<MEAN> 39
 -2.098269e-01 -5.831416e+00 6.455495e+00 -1.591507e+00 -9.557240e+00 -8.461561e+00 -5.695595e+00 5.664698e+00 -5.484876e+00 -4.635004e-01 1.317573e+00 -5.683632e+00 6.488392e+01 9.196946e-02 -9.953531e-01 1.207737e+00 -8.829777e-01 -9.643869e-01 -7.450616e-01 2.274111e-02 1.096337e+00 -3.400868e-01 -2.030299e-02 5.102665e-01 -1.573059e-01 1.186256e+00 -4.477397e-02 4.177877e-01 -3.391253e-01 2.593357e-01 2.953869e-01 3.035897e-01 1.666812e-01 -4.231682e-01 5.378827e-02 6.879598e-02 -1.873575e-01 1.579774e-01 -3.918248e-01
<VARIANCE> 39
 1.391020e+01 4.091562e+01 5.846040e+01 3.566406e+01 5.050426e+01 7.694227e+01 9.474246e+01 6.263216e+01 7.646235e+01 7.328787e+01 4.507330e+01 3.733442e+01 4.626739e+01 1.244724e+00 2.504839e+00 4.051988e+00 2.629216e+00 3.937542e+00 3.951102e+00 5.260057e+00 4.648673e+00 4.041587e+00 3.757664e+00 3.853271e+00 2.639594e+00 2.667628e+00 2.308973e-01 5.876935e-01 8.028500e-01 4.881069e-01 7.358860e-01 7.061698e-01 9.253300e-01 9.966630e-01 7.915137e-01 7.627993e-01 6.322153e-01 4.598964e-01 4.779444e-01
<GCONST> 1.318289e+02
<STATE> 3
<MEAN> 39
 2.130584e-01 -8.099373e+00 7.352602e+00 -3.158361e+00 -1.097270e+01 -1.027500e+01 -7.163271e+00 7.348458e+00 -4.862883e+00 -1.046105e+00 1.640192e+00 -6.826485e+00 6.773689e+01 1.118321e-01 6.171252e-01 -2.548351e-01 5.898397e-01 2.206210e-01 4.219266e-01 2.878727e-01 -4.540368e-01 4.805739e-02 -2.479373e-02 -3.633725e-01 1.789029e-01 -6.041847e-01 -2.514180e-02 4.283806e-01 -2.703966e-01 3.675332e-01 2.923501e-01 2.623166e-01 1.241064e-01 -3.999091e-01 2.855511e-02 1.345729e-02 -1.546108e-01 7.203885e-02 -3.932171e-01
<VARIANCE> 39
 9.246689e+00 3.252441e+01 4.532495e+01 3.679704e+01 4.317117e+01 8.488751e+01 7.244923e+01 7.904271e+01 7.367623e+01 5.904774e+01 5.228490e+01 3.853629e+01 2.644646e+01 6.024384e-01 2.018930e+00 1.734062e+00 2.286003e+00 2.389507e+00 2.339829e+00 3.171426e+00 3.020520e+00 2.565458e+00 2.543376e+00 2.302995e+00 1.805585e+00 1.707070e+00 1.567613e-01 3.403802e-01 3.694693e-01 4.053989e-01 4.680731e-01 4.488964e-01 6.290200e-01 6.758063e-01 5.668833e-01 5.737758e-01 4.676453e-01 3.481561e-01 2.291706e-01
<GCONST> 1.186565e+02
<STATE> 4
<MEAN> 39
 -1.024415e+00 -6.244704e-01 5.063257e+00 5.882470e-01 -8.305700e+00 -4.247216e+00 -4.134944e+00 3.267912e+00 -5.783755e+00 1.087836e+00 6.845146e-01 -3.132943e+00 5.834288e+01 6.955914e-03 3.982676e-01 -3.092142e-01 3.569279e-01 2.657184e-01 3.603387e-01 1.660237e-01 -1.964332e-01 9.668799e-02 -6.773889e-02 -1.831890e-01 1.086164e-01 -4.543867e-01 -1.593281e-02 8.322253e-03 -1.064643e-02 -1.904237e-02 4.214202e-02 8.081219e-03 -1.552853e-02 -3.504892e-02 4.994468e-03 1.157150e-03 2.419077e-03 -8.215799e-03 8.866496e-03
<VARIANCE> 39
 9.579658e+00 3.968410e+01 7.877817e+01 4.791810e+01 4.777671e+01 6.372280e+01 3.523184e+01 4.333588e+01 4.249312e+01 4.701684e+01 5.263025e+01 2.723642e+01 6.397983e+01 3.614177e-01 1.017698e+00 1.210108e+00 1.261076e+00 1.482887e+00 1.529158e+00 1.775417e+00 1.979363e+00 1.804325e+00 1.873263e+00 1.676706e+00 1.398892e+00 5.931197e-01 7.349426e-02 1.538075e-01 1.901309e-01 2.217906e-01 2.514574e-01 2.689306e-01 3.229167e-01 3.547247e-01 3.366954e-01 3.537388e-01 2.931534e-01 2.638011e-01 8.553767e-02
<GCONST> 1.036228e+02
<TRANSP> 5
 0.000000e+00 1.000000e+00 0.000000e+00 0.000000e+00 0.000000e+00
 0.000000e+00 5.422940e-01 4.577061e-01 0.000000e+00 0.000000e+00
 0.000000e+00 0.000000e+00 5.835199e-01 4.164801e-01 0.000000e+00
 0.000000e+00 0.000000e+00 0.000000e+00 8.673878e-01 1.326122e-01
 0.000000e+00 0.000000e+00 0.000000e+00 0.000000e+00 0.000000e+00
<ENDHMM>
~h "f"
<BEGINHMM>
<NUMSTATES> 5
<STATE> 2
<MEAN> 39
 -6.997611e+00 3.126359e-01 2.889243e+00 1.836061e+00 -3.728265e+00 -4.767296e+00 -3.156232e+00 -1.773728e+00 1.925147e-01 -1.924097e+00 -1.312833e+00 -4.303480e+00 6.042470e+01 -4.708610e-01 -2.331728e-01 4.307263e-01 3.915211e-01 -1.000017e-01 -7.460377e-01 -3.021409e-01 4.934391e-02 3.362437e-01 -3.641215e-01 1.953101e-02 3.025347e-01 2.136686e-01 4.441411e-01 -2.598591e-01 3.174438e-01 -3.090464e-02 -4.665322e-01 -5.704698e-02 -4.145237e-01 7.010275e-02 -2.696364e-01 -9.745356e-02 2.819720e-01 -9.179021e-02 2.327527e-01
<VARIANCE> 39
 3.044331e+01 1.863460e+01 3.300662e+01 2.727880e+01 3.557901e+01 4.946069e+01 3.211231e+01 3.389033e+01 3.611237e+01 2.895938e+01 2.437412e+01 2.373529e+01 1.248815e+01 3.925981e+00 1.882154e+00 2.950129e+00 1.804142e+00 4.076502e+00 2.913243e+00 4.509442e+00 2.834146e+00 3.227736e+00 2.739108e+00 2.638988e+00 2.126535e+00 1.113038e+00 4.774517e-01 2.554919e-01 4.809382e-01 3.613732e-01 7.280663e-01 4.957302e-01 8.093114e-01 5.277618e-01 6.669580e-01 5.113484e-01 5.344270e-01 4.454876e-01 1.661743e-01
<GCONST> 1.178007e+02
<STATE> 3
<MEAN> 39
 -4.429776e+00 -1.683318e+00 5.737464e+00 3.709156e+00 -6.422464e+00 -8.430689e+00 -7.356703e+00 -1.773346e+00 -1.215438e+00 -3.901480e+00 -3.627539e-02 -3.214862e+00 6.199749e+01 1.576379e+00 -1.008285e+00 2.008713e+00 -5.493278e-01 -2.313442e+00 -6.993153e-01 -1.958070e+00 3.385997e-01 -1.197167e+00 -9.563592e-01 1.734412e+00 -3.760829e-01 1.210086e+00 1.024999e-01 -5.787472e-02 1.665008e-01 -4.962617e-01 -3.255251e-01 3.075418e-01 -1.076024e-01 1.447930e-01 -2.140409e-01 1.365672e-01 4.212825e-01 -3.269112e-01 1.988258e-01
<VARIANCE> 39
 2.547732e+01 1.676025e+01 6.961532e+01 2.875029e+01 4.330228e+01 5.496381e+01 5.545019e+01 2.536627e+01 4.449351e+01 2.645648e+01 3.688208e+01 1.930141e+01 1.642274e+01 3.060144e+00 1.638074e+00 6.031159e+00 2.063812e+00 5.330126e+00 3.797238e+00 6.218914e+00 3.411257e+00 4.544634e+00 4.030695e+00 4.045780e+00 2.627534e+00 1.446490e+00 6.958655e-01 2.824786e-01 6.052353e-01 2.904449e-01 1.084523e+00 5.801211e-01 7.650981e-01 5.221869e-01 7.283816e-01 5.133787e-01 6.982195e-01 3.805006e-01 1.934780e-01
<GCONST> 1.239356e+02
<STATE> 4
<MEAN> 39
 -2.023646e+00 -2.152437e+00 1.097090e+01 2.031501e-01 -1.265478e+01 -7.537630e+00 -1.146215e+01 6.142033e-01 -3.914947e+00 -6.328228e+00 5.220403e+00 -5.188440e+00 6.445655e+01 1.080218e+00 -7.785770e-01 1.229483e+00 -7.536908e-01 -1.562397e+00 -9.247062e-02 -1.187939e+00 4.166916e-01 -7.178830e-01 -3.097666e-01 1.358767e+00 -5.262479e-01 9.108920e-01 -1.785606e-01 5.528742e-02 -1.729237e-01 -1.103932e-01 2.210891e-01 1.969657e-01 1.751759e-01 2.625231e-03 1.534627e-01 3.228959e-01 -9.767070e-02 -1.654222e-01 -5.080995e-02
<VARIANCE> 39
 1.356604e+01 1.861591e+01 1.029468e+02 5.426963e+01 6.743935e+01 7.010313e+01 6.771338e+01 3.684746e+01 4.185251e+01 3.627100e+01 5.485164e+01 1.690998e+01 1.985738e+01 2.257482e+00 1.925027e+00 6.105207e+00 2.801290e+00 5.776707e+00 3.491607e+00 5.428114e+00 3.146570e+00 4.627862e+00 3.346639e+00 4.780825e+00 2.249278e+00 1.918466e+00 3.539262e-01 2.177113e-01 5.519683e-01 3.842856e-01 7.533138e-01 5.344068e-01 6.330948e-01 4.393915e-01 5.666192e-01 4.011728e-01 6.129992e-01 3.499240e-01 1.842697e-01
<GCONST> 1.241683e+02
<TRANSP> 5
 0.000000e+00 1.000000e+00 0.000000e+00 0.000000e+00 0.000000e+00
 0.000000e+00 8.326111e-01 1.673889e-01 0.000000e+00 0.000000e+00
 0.000000e+00 0.000000e+00 2.284506e-01 7.715495e-01 0.000000e+00
 0.000000e+00 0.000000e+00 0.000000e+00 3.511103e-01 6.488897e-01
 0.000000e+00 0.000000e+00 0.000000e+00 0.000000e+00 0.000000e+00
<ENDHMM>
~h "g"
<BEGINHMM>
<NUMSTATES> 5
<STATE> 2
<MEAN> 39
 2.681337e+00 3.349452e+00 4.688994e+00 2.348276e+00 -5.380510e+00 -1.472113e+00 -1.084704e+01 -1.923959e+00 -8.071998e+00 9.646343e-02 7.084210e-01 -7.449825e+00 5.881628e+01 -5.127704e-01 -1.049556e+00 4.679509e-01 -1.048526e+00 1.988449e-01 -1.493046e+00 -1.568048e+00 4.020459e-01 3.359795e-01 3.466265e-01 1.129974e+00 -6.136454e-01 1.332877e+00 -1.315472e-01 -4.318294e-01 3.377549e-01 -5.660964e-01 -5.705045e-01 -2.157196e-01 -2.990832e-01 2.458491e-01 3.330497e-01 6.024312e-02 4.214735e-01 -2.916248e-01 5.952203e-01
<VARIANCE> 39
 1.054085e+01 3.488586e+01 4.303146e+01 3.828162e+01 7.286926e+01 5.876791e+01 6.226199e+01 4.964828e+01 4.027786e+01 4.327849e+01 6.414468e+01 3.584058e+01 2.523750e+01 9.122013e-01 3.492820e+00 4.160746e+00 4.198208e+00 7.418741e+00 5.189919e+00 5.588162e+00 4.561502e+00 5.080209e+00 4.122417e+00 6.323662e+00 3.343801e+00 2.953050e+00 2.038033e-01 5.120332e-01 7.464635e-01 6.367944e-01 1.285353e+00 8.794774e-01 1.018355e+00 8.275282e-01 7.996438e-01 6.902199e-01 1.211037e+00 5.539129e-01 3.976141e-01
<GCONST> 1.329382e+02
<STATE> 3
<MEAN> 39
 1.293618e+00 -6.154662e-01 7.283463e+00 -2.050349e+00 -9.032726e+00 -6.415829e+00 -1.540398e+01 2.662932e-01 -5.431838e+00 1.537651e+00 6.029127e+00 -1.052567e+01 6.445832e+01 -4.373563e-01 -1.323326e+00 6.837596e-01 -1.771068e+00 -1.414562e+00 -7.408618e-01 -6.930926e-01 1.222437e+00 1.332315e+00 4.432407e-01 9.165689e-01 -9.840584e-01 1.784964e+00 7.657097e-02 2.527169e-02 -2.302151e-01 7.783221e-02 6.311788e-02 5.645756e-01 6.488627e-01 5.653155e-02 8.589326e-04 -6.508072e-02 -6.628461e-01 2.042524e-01 -1.964388e-01
<VARIANCE> 39
 9.568115e+00 3.625755e+01 4.244981e+01 3.888125e+01 6.193525e+01 6.051330e+01 7.002121e+01 5.427879e+01 5.613767e+01 5.756054e+01 9.179017e+01 4.660904e+01 3.212828e+01 1.316439e+00 3.030958e+00 5.053634e+00 3.885275e+00 6.674999e+00 4.398324e+00 4.649114e+00 6.141241e+00 6.133379e+00 4.666107e+00 5.864476e+00 3.576080e+00 2.514844e+00 1.803788e-01 3.133228e-01 7.677196e-01 5.895526e-01 1.167470e+00 8.984078e-01 9.919577e-01 8.564346e-01 8.250589e-01 6.747481e-01 1.447883e+00 5.771394e-01 3.765952e-01
<GCONST> 1.342074e+02
<STATE> 4
<MEAN> 39
 1.032051e+00 -2.456523e+00 7.072707e+00 -4.097338e+00 -1.045871e+01 -5.830035e+00 -1.419302e+01 3.036256e+00 -3.133107e+00 2.379502e+00 4.097764e+00 -1.150285e+01 6.591028e+01 -2.901201e-01 -6.923215e-01 7.513727e-02 -8.650299e-01 -8.348715e-02 2.136997e-01 5.216979e-01 5.693042e-01 5.200473e-01 2.586168e-02 -6.840869e-01 -2.407342e-03 6.557941e-01 3.800561e-02 1.948326e-01 -2.926066e-02 3.325488e-01 2.584811e-01 1.777762e-01 2.340687e-01 -3.052409e-01 -3.744308e-01 -2.211425e-01 -2.370863e-01 3.236392e-01 -3.019626e-01
<VARIANCE> 39
 1.016063e+01 4.295325e+01 3.904823e+01 4.030440e+01 5.695606e+01 4.898429e+01 6.987416e+01 5.942981e+01 6.873369e+01 6.057093e+01 7.385831e+01 5.724554e+01 3.542110e+01 1.401493e+00 2.199334e+00 5.104832e+00 3.623976e+00 3.669626e+00 3.343920e+00 3.499703e+00 4.917827e+00 3.919371e+00 3.195544e+00 5.174421e+00 2.847508e+00 2.095511e+00 1.818875e-01 3.169364e-01 6.048024e-01 6.149307e-01 8.650513e-01 6.184254e-01 8.140221e-01 7.333647e-01 7.357529e-01 5.929658e-01 9.828855e-01 5.364193e-01 3.706788e-01
<GCONST> 1.295412e+02
<TRANSP> 5
 0.000000e+00 1.000000e+00 0.000000e+00 0.000000e+00 0.000000e+00
 0.000000e+00 5.819854e-01 4.180146e-01 0.000000e+00 0.000000e+00
 0.000000e+00 0.000000e+00 3.383759e-01 6.616241e-01 0.000000e+00
 0.000000e+00 0.000000e+00 0.000000e+00 4.018592e-01 5.981408e-01
 0.000000e+00 0.000000e+00 0.000000e+00 0.000000e+00 0.000000e+00
<ENDHMM>
~h "h"
<BEGINHMM>
<NUMSTATES> 5
<STATE> 2
<MEAN> 39
 -5.435676e-01 -5.746420e+00 2.115560e+00 -4.428607e+00 -2.162112e+00 -3.171621e+00 -4.319581e+00 3.680737e+00 -3.486801e+00 -1.075311e+00 -4.716228e+00 -6.031338e+00 6.631540e+01 -1.851469e-01 2.366981e-01 -1.904753e-01 5.670503e-01 3.946999e-01 1.906743e-01 6.152042e-01 -1.318728e-01 8.801094e-02 -1.675576e-01 -3.116614e-01 3.303107e-01 -5.368471e-01 6.550331e-02 -4.880840e-03 -1.828539e-02 -1.267607e-02 -1.773659e-01 -9.628127e-03 -1.662485e-01 -3.801505e-02 -6.288092e-03 2.707154e-02 1.268557e-01 -4.919533e-02 -5.403987e-02
<VARIANCE> 39
 1.531945e+01 4.413829e+01 5.471140e+01 5.265629e+01 7.246008e+01 7.134982e+01 7.218899e+01 6.849281e+01 6.611307e+01 4.876615e+01 5.933905e+01 3.690222e+01 3.402022e+01 6.548341e-01 1.512269e+00 1.634226e+00 1.802102e+00 2.038466e+00 2.086762e+00 2.127861e+00 2.459109e+00 2.182631e+00 1.766230e+00 1.953982e+00 1.657561e+00 8.891919e-01 9.437932e-02 2.612396e-01 2.468446e-01 3.198438e-01 3.543570e-01 3.685741e-01 3.969793e-01 4.300399e-01 3.772970e-01 3.290865e-01 3.501934e-01 2.961726e-01 1.124005e-01
<GCONST> 1.125104e+02
<STATE> 3
<MEAN> 39
 -7.283967e-01 -4.346046e+00 6.084541e-01 -1.151188e+00 -1.300357e+00 -2.348688e+00 -2.141421e+00 1.804129e+00 -2.567427e+00 -1.312993e+00 -5.040358e+00 -5.097497e+00 6.334314e+01 9.782068e-02 3.264983e-01 -2.592838e-01 5.266621e-01 -8.384606e-02 1.445918e-01 1.726292e-02 -1.274027e-01 -1.972738e-02 8.584224e-03 2.517357e-02 1.436850e-01 -7.151222e-01 6.432906e-02 3.368265e-03 -4.707037e-03 -6.727486e-02 -1.549149e-01 -2.008566e-02 -1.600265e-01 1.795399e-02 -2.974207e-02 7.612080e-03 9.506433e-02 -5.847303e-02 2.927632e-02
<VARIANCE> 39
 2.005158e+01 4.211988e+01 5.103967e+01 3.641243e+01 5.304963e+01 5.761780e+01 6.265453e+01 5.431889e+01 6.616202e+01 5.013986e+01 5.178083e+01 3.488880e+01 3.301536e+01 5.870277e-01 1.210922e+00 1.477569e+00 1.565785e+00 1.890707e+00 2.122705e+00 2.080008e+00 2.288626e+00 2.196776e+00 1.982530e+00 1.765992e+00 1.698253e+00 8.941619e-01 9.233989e-02 2.130644e-01 2.385243e-01 2.710356e-01 3.454758e-01 3.669003e-01 3.746224e-01 4.010589e-01 4.085469e-01 3.584612e-01 3.663693e-01 3.166088e-01 9.336847e-02
<GCONST> 1.100348e+02
<STATE> 4
<MEAN> 39
 -1.171611e+00 1.405855e+00 -2.072069e+00 3.574398e+00 -2.881069e+00 1.178908e+00 -3.280242e+00 1.719283e+00 -3.319465e+00 -1.545845e+00 -2.693370e+00 -2.124964e+00 5.355141e+01 2.263524e-04 1.797050e-01 -1.209246e-01 1.493987e-01 -6.839618e-02 6.774636e-02 -1.160612e-02 -1.762062e-04 2.345561e-02 -1.685441e-02 8.928168e-02 5.181446e-02 -2.640063e-01 -2.197624e-03 -2.587118e-02 3.594713e-02 -4.728684e-02 -5.322186e-03 -2.383030e-02 -2.263956e-02 -4.282070e-03 -4.486683e-04 6.942203e-03 1.546235e-02 -2.456782e-02 6.415476e-02
<VARIANCE> 39
 1.081667e+01 3.342030e+01 2.753368e+01 2.467090e+01 3.184838e+01 3.358154e+01 3.211967e+01 3.467652e+01 3.744449e+01 2.753075e+01 3.027810e+01 2.599118e+01 3.789996e+01 3.338135e-01 7.184663e-01 9.677077e-01 1.125787e+00 1.370856e+00 1.537850e+00 1.675935e+00 1.875164e+00 1.796984e+00 1.697907e+00 1.639476e+00 1.492274e+00 3.811213e-01 5.668110e-02 1.178216e-01 1.673511e-01 2.054598e-01 2.455276e-01 2.770533e-01 3.320716e-01 3.567970e-01 3.606382e-01 3.311714e-01 3.163948e-01 2.883254e-01 5.354385e-02
<GCONST> 9.626794e+01
<TRANSP> 5
 0.000000e+00 1.000000e+00 0.000000e+00 0.000000e+00 0.000000e+00
 0.000000e+00 5.904508e-01 4.095492e-01 0.000000e+00 0.000000e+00
 0.000000e+00 0.000000e+00 5.621566e-01 4.378434e-01 0.000000e+00
 0.000000e+00 0.000000e+00 0.000000e+00 8.909196e-01 1.090805e-01
 0.000000e+00 0.000000e+00 0.000000e+00 0.000000e+00 0.000000e+00
<ENDHMM>
~h "i"
<BEGINHMM>
<NUMSTATES> 5
<STATE> 2
<MEAN> 39
 -2.076298e+00 -6.080877e-01 1.601390e+01 -1.213187e+00 -1.413198e+01 -7.736941e+00 -1.071544e+01 -1.330022e+00 -9.955423e+00 -3.432827e+00 5.631651e+00 -6.632657e+00 6.458347e+01 -2.377470e-01 -4.487378e-01 2.581902e+00 -1.032841e+00 -2.056190e+00 -4.874637e-01 -1.359206e+00 3.158467e-01 -1.148092e+00 -3.030355e-01 1.752952e+00 -5.291868e-01 1.179354e+00 1.052227e-01 2.407835e-01 -7.634457e-01 1.593066e-01 4.750600e-01 4.139685e-01 2.486866e-01 6.625409e-02 2.695345e-01 2.564177e-01 -4.416552e-01 3.144214e-02 -3.840570e-01
<VARIANCE> 39
 1.423555e+01 3.165251e+01 5.712535e+01 4.038664e+01 5.735143e+01 5.246634e+01 6.262701e+01 6.056064e+01 5.713058e+01 5.577295e+01 5.274335e+01 3.458187e+01 2.043528e+01 2.061047e+00 2.030334e+00 5.707294e+00 3.743716e+00 4.459727e+00 4.217442e+00 5.120893e+00 5.068896e+00 5.310319e+00 4.483277e+00 4.235801e+00 2.904124e+00 1.695709e+00 3.334297e-01 3.420762e-01 1.093742e+00 6.765164e-01 1.063216e+00 7.271300e-01 9.928737e-01 8.566980e-01 8.750348e-01 7.052646e-01 8.641261e-01 5.439959e-01 3.163410e-01
<GCONST> 1.319863e+02
<STATE> 3
<MEAN> 39
 -2.447682e+00 -1.210788e+00 1.922638e+01 -2.945237e+00 -1.731304e+01 -7.959467e+00 -1.350011e+01 2.689531e-01 -1.139589e+01 -3.497029e+00 8.365646e+00 -7.891084e+00 6.623038e+01 2.446567e-01 2.305425e-01 -6.700147e-01 1.939157e-01 4.891779e-01 1.831581e-01 2.836797e-01 1.152929e-01 9.475495e-02 4.232974e-01 -5.193796e-01 8.894467e-02 -3.938341e-01 1.276552e-01 1.824888e-01 -8.196062e-01 3.866050e-01 6.666152e-01 2.105235e-01 4.704173e-01 -1.153009e-01 3.065833e-01 8.376157e-02 -6.053417e-01 1.521839e-01 -4.326640e-01
<VARIANCE> 39
 8.308003e+00 2.915097e+01 4.131914e+01 3.969877e+01 4.472604e+01 5.260713e+01 5.816516e+01 6.601480e+01 5.653039e+01 6.624454e+01 5.220082e+01 3.523926e+01 1.498065e+01 8.749853e-01 1.702078e+00 3.274234e+00 2.606659e+00 2.948536e+00 3.169111e+00 3.195016e+00 3.659523e+00 3.050429e+00 2.518683e+00 2.688301e+00 2.124510e+00 1.352044e+00 1.710852e-01 2.724171e-01 5.974716e-01 4.526753e-01 6.137220e-01 6.434065e-01 6.888717e-01 7.279428e-01 6.996600e-01 5.712220e-01 5.927387e-01 4.273417e-01 2.003560e-01
<GCONST> 1.204665e+02
<STATE> 4
<MEAN> 39
 -1.035747e+00 2.367943e+00 1.347798e+01 -8.266437e-01 -1.237144e+01 -3.881224e+00 -9.579548e+00 -1.905606e+00 -1.077864e+01 -5.215583e-01 2.726801e+00 -5.601309e+00 6.012142e+01 2.432078e-01 3.575684e-01 -1.382483e+00 6.728810e-01 8.258402e-01 5.359347e-01 6.692626e-01 -3.551442e-02 4.009706e-01 1.386458e-01 -7.675974e-01 2.541625e-01 -8.784896e-01 -7.501532e-02 -5.961851e-02 -4.273332e-02 -3.822610e-02 4.288845e-02 -2.776622e-03 1.929346e-04 -3.985900e-02 8.809464e-02 -5.387649e-02 1.253012e-02 -1.670713e-02 7.730623e-02
<VARIANCE> 39
 9.608032e+00 3.022728e+01 5.671247e+01 4.639579e+01 4.471555e+01 5.338285e+01 4.441399e+01 5.546496e+01 5.035273e+01 4.812310e+01 4.573208e+01 3.417010e+01 3.362041e+01 6.828137e-01 1.353541e+00 2.318008e+00 2.075058e+00 2.418509e+00 2.591392e+00 2.719488e+00 2.838096e+00 2.778393e+00 2.398202e+00 2.498761e+00 1.933782e+00 1.124949e+00 1.084060e-01 2.007627e-01 3.792040e-01 3.626658e-01 4.427564e-01 4.834318e-01 4.505583e-01 5.080431e-01 4.653371e-01 4.101577e-01 3.946036e-01 3.262126e-01 1.714334e-01
<GCONST> 1.141361e+02
<TRANSP> 5
 0.000000e+00 1.000000e+00 0.000000e+00 0.000000e+00 0.000000e+00
 0.000000e+00 5.838639e-01 4.161361e-01 0.000000e+00 0.000000e+00
 0.000000e+00 0.000000e+00 5.952210e-01 4.047789e-01 0.000000e+00
 0.000000e+00 0.000000e+00 0.000000e+00 7.555063e-01 2.444937e-01
 0.000000e+00 0.000000e+00 0.000000e+00 0.000000e+00 0.000000e+00
<ENDHMM>
~h "j"
<BEGINHMM>
<NUMSTATES> 5
<STATE> 2
<MEAN> 39
 1.233220e+00 4.378001e+00 7.506411e+00 3.166329e+00 -5.467340e+00 -3.137147e+00 -7.826894e+00 9.300732e-01 -4.679344e+00 -2.619783e+00 -2.251964e+00 -2.858144e+00 5.841280e+01 -7.557775e-01 5.856445e-01 7.157695e-01 -2.167068e-01 5.089045e-01 -3.114951e-01 1.571983e-01 -5.396818e-01 -5.398440e-02 -4.750957e-01 7.425178e-02 3.978112e-01 5.806021e-02 -2.261687e-01 -3.696784e-01 3.324280e-01 -4.179327e-01 -2.784082e-01 -4.704857e-01 -4.372505e-01 3.958147e-03 -1.116071e-01 7.017666e-02 3.632340e-01 -3.106330e-02 5.478912e-01
<VARIANCE> 39
 1.298129e+01 3.092443e+01 4.019376e+01 3.165117e+01 4.107433e+01 4.807062e+01 4.882708e+01 4.461623e+01 3.219360e+01 3.128280e+01 3.034855e+01 2.776173e+01 2.751978e+01 2.247228e+00 2.261958e+00 4.406996e+00 3.851900e+00 3.543961e+00 5.827775e+00 4.345867e+00 3.238371e+00 2.868157e+00 3.038139e+00 2.805408e+00 2.538285e+00 3.021361e+00 4.503150e-01 3.754759e-01 8.891852e-01 5.841955e-01 8.763452e-01 1.040156e+00 9.066224e-01 6.153772e-01 6.233124e-01 6.548561e-01 5.941562e-01 5.578883e-01 4.039849e-01
<GCONST> 1.264097e+02
<STATE> 3
<MEAN> 39
 -2.281983e+00 3.914136e+00 1.193544e+01 1.087360e+00 -5.638390e+00 -6.138695e+00 -1.092118e+01 -1.548657e+00 -5.287994e+00 -4.611648e+00 -4.737973e-03 -1.952941e+00 6.136635e+01 -7.654269e-01 -1.032769e+00 1.825548e+00 -1.147840e+00 -1.246522e+00 -1.990620e+00 -2.128239e+00 -3.457700e-02 -6.300684e-01 4.810067e-02 1.626854e+00 6.289780e-02 1.925703e+00 4.457757e-01 -3.200929e-01 -4.379709e-01 -8.590725e-02 -3.526368e-01 2.041708e-01 -2.581239e-01 3.995802e-01 -6.151561e-02 4.784049e-01 2.116716e-01 -3.244738e-01 8.460756e-02
<VARIANCE> 39
 1.333757e+01 3.267342e+01 5.128704e+01 3.095789e+01 5.563084e+01 4.672297e+01 8.159185e+01 4.183804e+01 3.152835e+01 3.620307e+01 3.081481e+01 2.925866e+01 2.385683e+01 2.943768e+00 2.951367e+00 5.183131e+00 3.695165e+00 6.713927e+00 4.733893e+00 6.495123e+00 4.584578e+00 3.736119e+00 3.804299e+00 3.720633e+00 3.644119e+00 2.046270e+00 4.002582e-01 6.303166e-01 1.048983e+00 6.145026e-01 1.375793e+00 1.150159e+00 1.238874e+00 8.105503e-01 7.182256e-01 7.429586e-01 7.311284e-01 6.804585e-01 3.967335e-01
<GCONST> 1.324796e+02
<STATE> 4
<MEAN> 39
 -3.167611e+00 1.111548e+00 1.387925e+01 -2.815190e+00 -9.067788e+00 -1.072043e+01 -1.299774e+01 8.369857e-01 -7.121428e+00 -1.146134e+00 4.014108e+00 -1.787066e+00 6.558652e+01 6.367755e-01 -1.559082e+00 -1.336419e-01 -8.170841e-01 -1.145982e+00 -5.035731e-01 -1.372469e+00 1.219925e+00 9.235765e-02 9.640051e-01 6.337994e-01 -5.789829e-01 1.203582e+00 3.717709e-01 1.318753e-01 -7.625799e-01 2.339128e-01 4.547756e-01 7.497616e-01 4.498122e-01 9.239379e-02 2.343223e-01 5.752415e-02 -5.144041e-01 -2.774955e-01 -4.971867e-01
<VARIANCE> 39
 1.997760e+01 4.516446e+01 4.827304e+01 3.410369e+01 6.273369e+01 4.021277e+01 7.970570e+01 6.442249e+01 4.331255e+01 5.106705e+01 3.059086e+01 3.187477e+01 2.464948e+01 1.964217e+00 3.045152e+00 6.015264e+00 2.896545e+00 6.629712e+00 4.756405e+00 4.909616e+00 4.909070e+00 4.193478e+00 3.718858e+00 4.260760e+00 3.148520e+00 1.778672e+00 4.525502e-01 5.867043e-01 7.609632e-01 5.797949e-01 1.454764e+00 7.420428e-01 1.128845e+00 9.788988e-01 6.511572e-01 6.514809e-01 6.594260e-01 5.398576e-01 2.301879e-01
<GCONST> 1.319260e+02
<TRANSP> 5
 0.000000e+00 1.000000e+00 0.000000e+00 0.000000e+00 0.000000e+00
 0.000000e+00 6.855558e-01 3.144442e-01 0.000000e+00 0.000000e+00
 0.000000e+00 0.000000e+00 4.193986e-01 5.806015e-01 0.000000e+00
 0.000000e+00 0.000000e+00 0.000000e+00 6.799290e-01 3.200710e-01
 0.000000e+00 0.000000e+00 0.000000e+00 0.000000e+00 0.000000e+00
<ENDHMM>
~h "k"
<BEGINHMM>
<NUMSTATES> 5
<STATE> 2
<MEAN> 39
 2.837544e-01 1.986221e+00 -3.744212e+00 1.655352e+00 -3.620461e+00 1.165015e+00 -5.070529e+00 -3.263194e-01 -4.541315e+00 4.753909e-01 -1.227856e+00 -3.716435e+00 5.419073e+01 -4.955371e-01 -4.810627e-01 -9.180394e-01 -2.689683e-01 1.318590e+00 -4.399118e-01 -2.040096e-01 -7.695982e-02 3.340182e-01 2.278071e-01 -1.232715e-01 7.281291e-02 3.904615e-01 1.707556e-02 -4.077618e-01 2.217179e-01 -5.481536e-01 1.208054e-01 -3.113271e-01 -2.484123e-01 1.181653e-02 -4.161031e-02 1.781586e-01 7.532001e-02 -2.363730e-01 7.375986e-01
<VARIANCE> 39
 1.058119e+01 2.534332e+01 3.294870e+01 3.358101e+01 4.303554e+01 4.258434e+01 3.553637e+01 3.431589e+01 3.205788e+01 3.034951e+01 2.873232e+01 2.766064e+01 2.149210e+01 1.255161e+00 2.956858e+00 2.793246e+00 3.518042e+00 5.101276e+00 4.087560e+00 3.569488e+00 3.683659e+00 3.587243e+00 3.384736e+00 2.688305e+00 2.685608e+00 2.649699e+00 2.333456e-01 3.953186e-01 4.773749e-01 5.164451e-01 9.218269e-01 6.626656e-01 6.102681e-01 6.446529e-01 6.479961e-01 6.019578e-01 5.023208e-01 5.075647e-01 2.928465e-01
<GCONST> 1.214361e+02
<STATE> 3
<MEAN> 39
 -1.751337e+00 -1.692866e+00 -5.935739e+00 -1.525890e+00 2.075588e+00 -1.986201e+00 -6.639686e+00 -8.345140e-01 -3.551349e+00 2.359019e+00 -1.219156e+00 -4.531923e+00 5.897224e+01 1.297531e-01 -9.919367e-01 4.319523e-01 -1.647671e+00 8.713481e-02 -8.731248e-01 -5.255334e-01 1.191331e-01 -3.754625e-02 3.829324e-01 2.308612e-01 -7.079260e-01 1.961532e+00 4.613784e-01 -2.068993e-03 6.815395e-01 -2.676197e-01 -1.065310e+00 2.425390e-01 -6.786779e-02 1.839721e-01 -2.417804e-01 -1.855861e-01 1.985483e-01 -2.526765e-01 2.257344e-01
<VARIANCE> 39
 2.163453e+01 3.196048e+01 5.038217e+01 4.794728e+01 6.789316e+01 6.690956e+01 5.966050e+01 5.444717e+01 4.667793e+01 4.277814e+01 4.008771e+01 3.448011e+01 2.889368e+01 2.596141e+00 3.738285e+00 4.326944e+00 5.054590e+00 7.118606e+00 5.493282e+00 4.448853e+00 5.273215e+00 5.229240e+00 3.915482e+00 3.548940e+00 3.930209e+00 3.142587e+00 4.352372e-01 6.384516e-01 7.094262e-01 8.003092e-01 1.295772e+00 9.978535e-01 1.067778e+00 1.151735e+00 1.057172e+00 8.856596e-01 7.724414e-01 7.710186e-01 4.596455e-01
<GCONST> 1.369420e+02
<STATE> 4
<MEAN> 39
 3.497970e-01 -1.222503e+00 -3.400540e+00 -3.492244e+00 -2.445932e+00 -1.682963e+00 -6.240871e+00 2.023703e-02 -4.709839e+00 1.362388e+00 -4.627478e-01 -5.599727e+00 6.037026e+01 9.004363e-01 -5.570862e-01 1.258245e+00 -1.476340e+00 -1.705932e+00 -7.895216e-02 -6.440948e-01 2.564135e-01 -4.075010e-01 -1.649227e-01 5.282404e-01 -8.022382e-01 1.568206e+00 1.273348e-01 -4.854348e-03 2.075431e-01 1.093038e-01 -3.208273e-01 2.254870e-01 -1.224643e-01 -8.308474e-03 -4.612092e-02 -9.751166e-02 1.006659e-01 -8.687934e-03 -4.704550e-02
<VARIANCE> 39
 2.472655e+01 3.760151e+01 4.960278e+01 5.955209e+01 4.577721e+01 6.717197e+01 4.986720e+01 4.220923e+01 4.493311e+01 3.758296e+01 3.822418e+01 3.786226e+01 3.756047e+01 2.336018e+00 3.811623e+00 4.101341e+00 4.957083e+00 6.028591e+00 4.718303e+00 5.083128e+00 5.982584e+00 5.462766e+00 4.165752e+00 4.138696e+00 4.261830e+00 2.758854e+00 3.630455e-01 4.655772e-01 5.340272e-01 7.828170e-01 8.630780e-01 7.706432e-01 8.040200e-01 7.926053e-01 7.632288e-01 6.887341e-01 6.443532e-01 5.669205e-01 4.590706e-01
<GCONST> 1.335554e+02
<TRANSP> 5
 0.000000e+00 1.000000e+00 0.000000e+00 0.000000e+00 0.000000e+00
 0.000000e+00 5.361019e-01 4.638981e-01 0.000000e+00 0.000000e+00
 0.000000e+00 0.000000e+00 4.143432e-01 5.856568e-01 0.000000e+00
 0.000000e+00 0.000000e+00 0.000000e+00 2.663882e-01 7.336118e-01
 0.000000e+00 0.000000e+00 0.000000e+00 0.000000e+00 0.000000e+00
<ENDHMM>
~h "l"
<BEGINHMM>
<NUMSTATES> 5
<STATE> 2
<MEAN> 39
 2.842559e+00 -4.999781e+00 3.554647e+00 -7.684358e+00 -7.015335e+00 -1.984278e+00 -1.586756e+01 -4.237056e+00 -1.308129e-01 5.244092e+00 2.455663e+00 -1.070280e+01 6.677425e+01 1.298032e-01 -1.070923e-01 1.172780e-01 -4.037930e-01 -5.946927e-02 1.734295e-01 -8.404343e-01 -3.434013e-01 4.360987e-01 7.853234e-01 2.509267e-01 -5.057890e-01 9.918738e-02 -1.003347e-01 -2.691082e-02 -8.644318e-02 2.284539e-02 -1.691405e-02 9.212787e-02 3.864473e-01 4.077720e-01 -1.271963e-01 -4.161042e-01 -1.183002e-01 8.118749e-02 -3.561452e-03
<VARIANCE> 39
 9.725756e+00 3.816338e+01 6.389612e+01 6.085724e+01 5.544566e+01 6.204060e+01 8.525497e+01 9.641777e+01 8.214147e+01 4.812925e+01 5.507575e+01 6.433857e+01 2.073273e+01 4.814146e-01 1.652951e+00 2.292393e+00 3.142508e+00 2.533094e+00 3.946818e+00 3.982285e+00 4.903970e+00 3.380924e+00 3.305017e+00 3.359274e+00 2.604478e+00 9.415616e-01 9.406918e-02 2.707327e-01 2.827049e-01 4.849803e-01 4.420480e-01 5.552340e-01 6.950289e-01 8.020149e-01 6.331707e-01 5.537274e-01 6.460733e-01 4.662917e-01 1.189162e-01
<GCONST> 1.220232e+02
<STATE> 3
<MEAN> 39
 2.834328e+00 -5.700778e+00 3.281271e+00 -8.981857e+00 -7.242035e+00 -1.212124e+00 -1.656141e+01 -3.205655e+00 8.254902e-01 5.835515e+00 2.853245e+00 -1.214070e+01 6.731494e+01 -6.771979e-02 -3.306523e-01 -1.797332e-01 -2.454214e-01 -8.900117e-03 3.951560e-01 3.463629e-01 7.544112e-01 1.227056e-01 -4.828186e-01 -4.011605e-01 -1.887479e-01 1.897547e-01 -7.577712e-02 -9.886563e-03 -6.067733e-02 1.360861e-01 7.430089e-02 6.635618e-02 4.528164e-01 2.873152e-01 -2.541563e-01 -4.510497e-01 -2.345663e-01 2.123644e-01 -3.276620e-02
<VARIANCE> 39
 8.839240e+00 3.498251e+01 5.695358e+01 5.821893e+01 5.331734e+01 5.579449e+01 8.252071e+01 7.956342e+01 8.872108e+01 4.755629e+01 5.988473e+01 7.036533e+01 1.930987e+01 4.283499e-01 1.744706e+00 2.161724e+00 2.571256e+00 1.930764e+00 3.221429e+00 3.471813e+00 4.438896e+00 3.345562e+00 2.909768e+00 3.545529e+00 2.261366e+00 9.084541e-01 6.864358e-02 2.878839e-01 2.750093e-01 4.370786e-01 3.667042e-01 5.259602e-01 5.919803e-01 7.150210e-01 6.512774e-01 4.868070e-01 6.361679e-01 4.417769e-01 1.283457e-01
<GCONST> 1.191886e+02
<STATE> 4
<MEAN> 39
 2.483704e+00 -6.458066e+00 1.669371e+00 -9.135423e+00 -6.489738e+00 6.180624e-01 -1.385273e+01 -9.889761e-01 1.091811e+00 2.389438e+00 1.104630e+00 -1.218512e+01 6.763148e+01 -9.945843e-02 -2.973125e-02 -4.714781e-02 3.727098e-01 1.980803e-01 2.773561e-01 9.265903e-01 6.903708e-01 -7.518233e-01 -8.853985e-01 -5.457760e-01 3.912696e-01 -1.588807e-01 -9.973215e-03 1.860752e-01 7.313392e-02 1.979981e-01 -4.153886e-03 -1.378757e-01 1.252236e-01 -1.076112e-01 -2.825181e-01 2.053410e-02 6.793386e-02 1.802165e-01 -1.518630e-01
<VARIANCE> 39
 9.922055e+00 4.058432e+01 5.351028e+01 6.293620e+01 4.544448e+01 6.637628e+01 7.354747e+01 8.536964e+01 9.035552e+01 5.560538e+01 6.299853e+01 6.732514e+01 2.356338e+01 4.542755e-01 1.814785e+00 1.698092e+00 2.425027e+00 2.095278e+00 3.136417e+00 2.918466e+00 3.652180e+00 3.579029e+00 2.692210e+00 3.682837e+00 2.065815e+00 1.137391e+00 7.313557e-02 2.459186e-01 2.964867e-01 3.994567e-01 3.652009e-01 4.782456e-01 5.180470e-01 6.499203e-01 5.497413e-01 4.941104e-01 6.252217e-01 3.889721e-01 1.404886e-01
<GCONST> 1.188183e+02
<TRANSP> 5
 0.000000e+00 1.000000e+00 0.000000e+00 0.000000e+00 0.000000e+00
 0.000000e+00 4.430927e-01 5.569074e-01 0.000000e+00 0.000000e+00
 0.000000e+00 0.000000e+00 4.306420e-01 5.693580e-01 0.000000e+00
 0.000000e+00 0.000000e+00 0.000000e+00 5.107188e-01 4.892812e-01
 0.000000e+00 0.000000e+00 0.000000e+00 0.000000e+00 0.000000e+00
<ENDHMM>
~h "m"
<BEGINHMM>
<NUMSTATES> 5
<STATE> 2
<MEAN> 39
 4.516447e+00 -1.949347e+00 3.830103e+00 4.333441e-01 -7.687856e+00 6.388396e+00 -6.159160e+00 -6.444946e+00 -1.193119e+01 1.980710e-01 -3.098238e-01 -8.617146e+00 6.188310e+01 4.459938e-02 2.732312e-01 8.628485e-01 9.492629e-01 -1.052161e-01 8.416495e-01 3.979762e-01 -1.131187e+00 -1.276506e+00 -4.524097e-01 -6.137046e-01 -8.948411e-02 -3.580698e-01 -6.737669e-02 -2.130198e-01 -2.095990e-01 -4.238296e-01 4.433389e-02 -3.159297e-01 -2.493146e-01 4.681914e-01 5.533055e-01 3.564774e-02 7.348934e-02 -4.640732e-02 2.361940e-01
<VARIANCE> 39
 7.488975e+00 2.781338e+01 3.501246e+01 3.640557e+01 5.038132e+01 4.198141e+01 4.378541e+01 3.899418e+01 4.761656e+01 3.304009e+01 4.296371e+01 4.179652e+01 1.925551e+01 4.708623e-01 1.343513e+00 2.091794e+00 2.242470e+00 2.053768e+00 2.354804e+00 2.232970e+00 2.662822e+00 3.981164e+00 2.222532e+00 2.861533e+00 1.917555e+00 9.720669e-01 9.164162e-02 1.520871e-01 3.061807e-01 3.273643e-01 3.575309e-01 3.861904e-01 4.019427e-01 4.552927e-01 5.995210e-01 4.342530e-01 5.322447e-01 3.559277e-01 9.275447e-02
<GCONST> 1.097400e+02
<STATE> 3
<MEAN> 39
 4.446299e+00 -1.940920e+00 5.585869e+00 6.499374e-01 -8.573987e+00 7.344001e+00 -6.409800e+00 -7.739817e+00 -1.338355e+01 -7.085354e-01 -9.312931e-01 -8.930223e+00 6.198124e+01 1.419202e-01 -2.163469e-01 -4.122946e-01 -5.147232e-01 -1.552139e-01 -1.385224e-01 -2.376075e-01 3.954605e-01 7.273871e-01 8.638632e-02 2.438604e-01 -8.057275e-02 2.268380e-01 -7.343728e-03 -1.649508e-01 -4.130214e-01 -4.025449e-01 4.849969e-02 -3.191527e-01 -1.496187e-01 5.506296e-01 6.681021e-01 1.576208e-01 1.608106e-01 -3.180816e-02 1.637628e-01
<VARIANCE> 39
 6.366421e+00 2.750434e+01 3.935777e+01 3.322935e+01 5.365951e+01 4.397695e+01 3.926669e+01 3.955682e+01 5.538248e+01 3.471051e+01 4.241929e+01 4.270080e+01 1.754688e+01 3.753511e-01 1.305927e+00 2.049938e+00 2.234515e+00 1.774019e+00 2.111543e+00 1.986716e+00 2.329290e+00 3.522691e+00 2.000675e+00 2.467249e+00 1.984665e+00 8.445224e-01 8.210909e-02 1.647485e-01 3.031601e-01 3.225905e-01 3.628808e-01 4.177035e-01 3.484440e-01 4.601050e-01 6.830688e-01 4.247310e-01 5.081199e-01 3.938510e-01 8.147340e-02
<GCONST> 1.083961e+02
<STATE> 4
<MEAN> 39
 4.778368e+00 -2.059040e+00 1.494689e+00 -2.650384e+00 -8.063819e+00 6.686715e+00 -7.766923e+00 -3.509795e+00 -7.399938e+00 -6.948752e-01 -7.779121e-01 -8.784549e+00 6.217249e+01 -2.242555e-02 -3.606119e-01 -7.094983e-01 -6.537762e-01 1.701321e-01 -4.517280e-01 -2.711472e-01 1.037078e+00 1.152943e+00 7.947740e-02 1.383658e-01 -1.476927e-01 2.722288e-01 -1.003591e-01 -5.274528e-02 9.161539e-02 3.648857e-02 1.063116e-01 -1.193232e-01 3.136802e-03 9.426863e-02 -3.661392e-02 -3.633290e-02 -7.049639e-02 1.957773e-02 2.631030e-02
<VARIANCE> 39
 8.063116e+00 4.540036e+01 3.824886e+01 4.692366e+01 9.094253e+01 4.589080e+01 4.699253e+01 4.633127e+01 4.786674e+01 4.027663e+01 4.409703e+01 4.949539e+01 2.972868e+01 4.211237e-01 1.652550e+00 1.988649e+00 2.480149e+00 2.488395e+00 2.352290e+00 2.292152e+00 3.007261e+00 4.194820e+00 2.266798e+00 2.562423e+00 2.376187e+00 9.349611e-01 8.397239e-02 1.857865e-01 3.038059e-01 3.965946e-01 4.250897e-01 3.858264e-01 3.780865e-01 4.707639e-01 5.423764e-01 3.944139e-01 4.597612e-01 3.472246e-01 9.640628e-02
<GCONST> 1.131351e+02
<TRANSP> 5
 0.000000e+00 1.000000e+00 0.000000e+00 0.000000e+00 0.000000e+00
 0.000000e+00 5.703295e-01 4.296705e-01 0.000000e+00 0.000000e+00
 0.000000e+00 0.000000e+00 5.393016e-01 4.606984e-01 0.000000e+00
 0.000000e+00 0.000000e+00 0.000000e+00 6.303229e-01 3.696771e-01
 0.000000e+00 0.000000e+00 0.000000e+00 0.000000e+00 0.000000e+00
<ENDHMM>
~h "n"
<BEGINHMM>
<NUMSTATES> 5
<STATE> 2
<MEAN> 39
 3.579790e+00 -4.657473e+00 6.914353e+00 2.210589e+00 -1.015540e+01 -2.001118e+00 -1.015063e+01 -7.134947e-01 -5.710975e+00 2.648432e+00 -4.408906e+00 -1.053934e+01 6.348924e+01 3.130090e-01 1.276069e+00 7.759604e-01 1.279775e+00 -4.524056e-01 6.923364e-01 3.015002e-01 -2.258709e+00 -8.647456e-01 9.094093e-01 -9.558772e-01 4.606384e-01 -1.091941e+00 -1.032681e-01 -1.366601e-01 -2.437824e-01 -3.449926e-01 1.312810e-01 5.665559e-03 1.160105e-01 3.212733e-01 1.365599e-01 -2.563276e-01 2.013874e-01 2.937801e-02 1.658265e-01
<VARIANCE> 39
 5.623165e+00 3.439175e+01 3.374395e+01 2.728624e+01 4.760897e+01 3.811097e+01 4.934188e+01 8.891613e+01 4.879039e+01 5.129865e+01 4.160479e+01 4.726740e+01 1.744538e+01 3.991689e-01 1.519011e+00 2.392666e+00 1.967718e+00 2.138706e+00 2.632547e+00 2.748192e+00 5.503056e+00 2.846239e+00 3.400413e+00 2.964712e+00 2.348615e+00 8.666980e-01 7.486132e-02 2.906223e-01 3.480519e-01 3.314970e-01 3.430302e-01 4.268259e-01 4.521870e-01 1.157444e+00 4.864599e-01 5.781989e-01 5.027950e-01 3.853565e-01 1.461967e-01
<GCONST> 1.140977e+02
<STATE> 3
<MEAN> 39
 4.066590e+00 -1.853002e+00 7.332373e+00 4.341703e+00 -1.047677e+01 -2.075588e-01 -8.848563e+00 -5.265446e+00 -7.016390e+00 3.838240e+00 -5.987321e+00 -8.824684e+00 6.133307e+01 6.162512e-02 5.459155e-01 -2.828082e-01 3.264575e-01 1.394057e-01 3.143748e-01 4.266683e-01 -2.664773e-01 -1.372860e-01 -3.088481e-01 -1.111601e-01 2.394364e-01 -4.810570e-01 -1.661016e-01 -2.999586e-01 -3.218027e-01 -4.548151e-01 2.544073e-01 -1.731764e-01 3.723983e-03 8.064000e-01 2.458272e-01 -4.584354e-01 3.675780e-01 -8.028403e-02 2.584879e-01
<VARIANCE> 39
 5.074363e+00 2.582162e+01 2.887041e+01 2.487922e+01 4.996767e+01 3.609670e+01 4.182034e+01 6.429462e+01 4.758509e+01 4.643864e+01 3.955860e+01 3.860757e+01 1.287542e+01 3.363401e-01 1.697639e+00 1.702899e+00 1.719964e+00 1.858221e+00 2.101969e+00 2.253220e+00 4.302474e+00 2.526464e+00 2.735490e+00 2.260162e+00 2.012626e+00 1.007773e+00 9.166362e-02 2.850450e-01 3.706728e-01 3.682964e-01 4.025765e-01 4.357867e-01 4.508391e-01 9.148311e-01 4.889223e-01 5.702343e-01 5.387236e-01 3.845851e-01 1.484347e-01
<GCONST> 1.106940e+02
<STATE> 4
<MEAN> 39
 1.928928e+00 2.033583e+00 2.141546e+00 5.354298e+00 -5.964935e+00 1.168093e+00 -5.876012e+00 -1.989792e+00 -4.632566e+00 4.403928e-02 -5.437876e+00 -5.388999e+00 5.591453e+01 -2.288355e-01 1.628751e-01 -3.859111e-01 -1.858878e-01 2.896637e-01 5.693330e-02 2.047130e-01 4.383152e-01 1.080730e-01 -4.455416e-01 3.242885e-01 1.144385e-01 -2.415352e-01 -1.008312e-01 -1.717738e-01 3.101723e-02 -2.293892e-01 3.588523e-02 -9.279529e-02 -7.593779e-02 1.791953e-01 5.345221e-02 -4.270369e-02 1.358051e-01 -2.654343e-02 1.700478e-01
<VARIANCE> 39
 1.225677e+01 2.960903e+01 3.533328e+01 2.257225e+01 4.017938e+01 2.952227e+01 3.726064e+01 5.133074e+01 3.689338e+01 3.628360e+01 3.453306e+01 3.378232e+01 2.836920e+01 4.534357e-01 1.420288e+00 1.559476e+00 1.695841e+00 1.905070e+00 1.840773e+00 2.056295e+00 3.571476e+00 2.222571e+00 2.533383e+00 2.247710e+00 1.829491e+00 8.710994e-01 1.054690e-01 2.116031e-01 2.631087e-01 3.239923e-01 3.574639e-01 3.807340e-01 3.896076e-01 5.942105e-01 4.316114e-01 4.463473e-01 4.428553e-01 3.412218e-01 1.163735e-01
<GCONST> 1.078698e+02
<TRANSP> 5
 0.000000e+00 1.000000e+00 0.000000e+00 0.000000e+00 0.000000e+00
 0.000000e+00 4.967156e-01 5.032845e-01 0.000000e+00 0.000000e+00
 0.000000e+00 0.000000e+00 4.610404e-01 5.389596e-01 0.000000e+00
 0.000000e+00 0.000000e+00 0.000000e+00 7.580437e-01 2.419563e-01
 0.000000e+00 0.000000e+00 0.000000e+00 0.000000e+00 0.000000e+00
<ENDHMM>
~h "o"
<BEGINHMM>
<NUMSTATES> 5
<STATE> 2
<MEAN> 39
 4.339179e+00 -1.238300e+00 -3.830600e+00 -1.116731e+01 -7.158715e+00 5.263107e+00 -8.063530e+00 -1.718467e+00 -3.979527e+00 2.191943e+00 2.585312e+00 -5.370018e+00 6.315709e+01 6.584376e-01 -3.489619e-01 -2.110256e-01 -1.625641e+00 -4.054823e-01 9.738259e-01 -6.576529e-02 1.634248e-01 -3.828285e-01 2.148388e-01 4.392709e-01 -1.100096e-01 7.098666e-01 -2.388855e-01 1.632890e-01 1.780185e-01 6.702046e-01 2.174664e-01 -2.493787e-01 9.341321e-02 -1.310299e-02 7.342575e-03 -7.746705e-02 -2.293794e-01 2.287044e-02 -3.167245e-01
<VARIANCE> 39
 1.146465e+01 3.744055e+01 2.469035e+01 8.514822e+01 4.780357e+01 6.267105e+01 6.153679e+01 4.874030e+01 5.555050e+01 4.295275e+01 4.501735e+01 3.993456e+01 4.048605e+01 1.300422e+00 2.259184e+00 1.702412e+00 7.002051e+00 3.243854e+00 3.884576e+00 3.774194e+00 3.351456e+00 3.635960e+00 3.175884e+00 3.058968e+00 2.357181e+00 2.911691e+00 2.394860e-01 3.442731e-01 3.189565e-01 1.150418e+00 5.467876e-01 7.473931e-01 7.146068e-01 5.766278e-01 6.343310e-01 5.733436e-01 5.563893e-01 4.569753e-01 3.872165e-01
<GCONST> 1.258826e+02
<STATE> 3
<MEAN> 39
 5.265949e+00 -2.645302e+00 -3.568302e+00 -1.355129e+01 -8.019182e+00 7.043565e+00 -8.974304e+00 -1.621956e+00 -4.441854e+00 2.516079e+00 3.508006e+00 -6.747437e+00 6.488310e+01 -4.373443e-02 2.375322e-01 2.413839e-03 9.022067e-01 2.659075e-01 -1.670280e-01 1.781974e-01 -5.568789e-02 -2.094915e-02 5.593143e-02 -3.039655e-01 -9.661314e-02 -3.971500e-01 -1.659362e-01 1.597769e-01 9.225511e-02 6.302239e-01 1.608829e-01 -3.251777e-01 4.882604e-02 -1.013689e-01 6.821959e-02 -3.711231e-02 -2.185922e-01 3.495272e-03 -2.588548e-01
<VARIANCE> 39
 7.599957e+00 3.570178e+01 2.274834e+01 7.948712e+01 5.169703e+01 5.749071e+01 5.649857e+01 5.657787e+01 5.850289e+01 5.316247e+01 4.982576e+01 5.091009e+01 2.453264e+01 4.676571e-01 1.679895e+00 1.194574e+00 3.485266e+00 2.127243e+00 2.256962e+00 3.093805e+00 2.417329e+00 2.422272e+00 2.589361e+00 2.357246e+00 1.931030e+00 1.368747e+00 1.047511e-01 2.302677e-01 2.688301e-01 5.181066e-01 4.306119e-01 4.942499e-01 5.193329e-01 5.070118e-01 4.919018e-01 4.939123e-01 4.510050e-01 3.792256e-01 1.745508e-01
<GCONST> 1.148561e+02
<STATE> 4
<MEAN> 39
 2.530480e+00 2.573839e+00 -3.991878e+00 -2.534365e+00 -5.525095e+00 3.589112e+00 -4.823903e+00 -2.207300e-01 -4.738783e+00 9.075729e-01 -2.045267e-01 -3.792324e+00 5.637957e+01 -2.448802e-01 2.438827e-01 1.285696e-01 1.006649e+00 2.204354e-01 -2.740549e-01 1.082420e-01 -8.486068e-02 1.352264e-01 -1.641193e-01 -2.636038e-01 5.830199e-02 -5.245005e-01 -2.540465e-02 -2.199647e-02 6.390567e-02 -3.066234e-02 -1.095911e-02 -1.682766e-02 -2.255307e-02 -2.234163e-02 1.331266e-03 -1.847789e-02 -1.570858e-02 2.459836e-02 3.485868e-02
<VARIANCE> 39
 1.704963e+01 4.021745e+01 2.198403e+01 7.690230e+01 3.177090e+01 3.563689e+01 4.646956e+01 3.775940e+01 4.291646e+01 4.069804e+01 3.094598e+01 3.427391e+01 5.493196e+01 4.314809e-01 9.513693e-01 1.242101e+00 2.349714e+00 1.770159e+00 2.112084e+00 2.196821e+00 2.185951e+00 2.216505e+00 2.417404e+00 1.984963e+00 1.696960e+00 7.220400e-01 8.169731e-02 1.906065e-01 2.016777e-01 3.357914e-01 3.249052e-01 3.837035e-01 4.264167e-01 4.327908e-01 4.373076e-01 4.766596e-01 3.523597e-01 3.154043e-01 1.195212e-01
<GCONST> 1.077006e+02
<TRANSP> 5
 0.000000e+00 1.000000e+00 0.000000e+00 0.000000e+00 0.000000e+00
 0.000000e+00 5.485203e-01 4.514796e-01 0.000000e+00 0.000000e+00
 0.000000e+00 0.000000e+00 5.987929e-01 4.012071e-01 0.000000e+00
 0.000000e+00 0.000000e+00 0.000000e+00 7.883636e-01 2.116364e-01
 0.000000e+00 0.000000e+00 0.000000e+00 0.000000e+00 0.000000e+00
<ENDHMM>
~h "p"
<BEGINHMM>
<NUMSTATES> 5
<STATE> 2
<MEAN> 39
 8.686182e-01 3.391501e+00 -4.360496e+00 2.752283e+00 -3.598365e+00 2.880975e+00 -4.696856e+00 -1.889199e-01 -3.817129e+00 -7.329070e-01 -2.017119e+00 -4.014670e+00 5.263601e+01 -2.615380e-01 -1.518178e-01 -1.428586e-01 -7.669687e-02 1.438500e-01 -3.323630e-01 1.679537e-01 -7.376812e-02 3.818468e-01 2.484262e-03 1.083063e-01 2.268534e-01 7.166946e-02 1.135839e-01 -4.649251e-01 1.826836e-01 -5.017059e-01 -7.256486e-02 -1.658770e-01 -2.754833e-01 -1.098480e-01 3.533425e-02 1.292939e-01 1.886567e-01 -1.549715e-01 6.778641e-01
<VARIANCE> 39
 1.063282e+01 1.897191e+01 2.236638e+01 2.097483e+01 2.336194e+01 3.224100e+01 2.474376e+01 2.678136e+01 2.734472e+01 2.339907e+01 2.090394e+01 2.498533e+01 1.449552e+01 9.770535e-01 1.859684e+00 1.433215e+00 2.620968e+00 1.943833e+00 2.621463e+00 2.291287e+00 2.475281e+00 2.282850e+00 2.124077e+00 1.961509e+00 2.012543e+00 1.921524e+00 1.788850e-01 3.410341e-01 3.713118e-01 5.352322e-01 4.235095e-01 5.706609e-01 5.121545e-01 5.388355e-01 5.069332e-01 4.750707e-01 4.427723e-01 4.523422e-01 3.047701e-01
<GCONST> 1.091984e+02
<STATE> 3
<MEAN> 39
 3.974894e-01 8.934521e-01 -3.588856e+00 4.495382e-03 -3.063464e+00 -1.509057e-01 -5.082220e+00 -1.789772e+00 -2.721744e+00 8.406276e-02 -1.063643e+00 -3.836806e+00 5.632800e+01 5.365548e-01 -1.903963e+00 3.883522e-01 -2.074081e+00 -4.263886e-01 -7.480368e-01 -1.031213e+00 -4.866998e-01 3.593814e-01 5.176868e-01 8.120821e-01 -5.220993e-01 2.636663e+00 2.588593e-01 -3.737152e-01 3.796748e-01 -3.639030e-01 -4.425283e-01 4.307351e-02 -4.755113e-01 2.009334e-01 -1.912015e-01 6.321914e-02 1.598938e-01 -3.872338e-01 5.663211e-01
<VARIANCE> 39
 1.802072e+01 2.456504e+01 2.665311e+01 3.822334e+01 2.731218e+01 4.659696e+01 2.945461e+01 2.977192e+01 3.320124e+01 2.231665e+01 2.287389e+01 2.696253e+01 2.330434e+01 2.377597e+00 3.884045e+00 4.329364e+00 6.427914e+00 3.963823e+00 6.097101e+00 5.104417e+00 4.288657e+00 4.529368e+00 4.173520e+00 3.333812e+00 4.410559e+00 2.990155e+00 3.304397e-01 5.190908e-01 6.967502e-01 8.583087e-01 7.395486e-01 9.384456e-01 6.764207e-01 8.309215e-01 7.651240e-01 6.043971e-01 7.123659e-01 5.991888e-01 4.189854e-01
<GCONST> 1.276346e+02
<STATE> 4
<MEAN> 39
 2.495359e+00 -3.513883e+00 -2.957693e+00 -5.133426e+00 -4.880745e+00 -3.367366e-01 -8.009892e+00 -1.987239e+00 -2.577197e+00 1.263590e+00 7.745730e-01 -5.965709e+00 6.240532e+01 6.709372e-01 -1.958791e+00 1.071461e+00 -1.735519e+00 -1.065825e+00 -5.553907e-01 -1.570587e+00 3.000524e-01 -3.603152e-02 3.710505e-01 7.551721e-01 -1.120340e+00 2.678549e+00 -1.068592e-01 3.614666e-01 3.320960e-01 5.303799e-01 -1.744377e-01 4.029835e-02 1.505395e-02 2.926766e-01 -2.100856e-01 -1.618812e-01 -1.592929e-01 -2.162082e-02 -4.167768e-01
<VARIANCE> 39
 2.295212e+01 4.126456e+01 3.426036e+01 7.321611e+01 3.565778e+01 7.801077e+01 5.163603e+01 3.891454e+01 4.779969e+01 3.923143e+01 3.247090e+01 3.815620e+01 3.524917e+01 2.092395e+00 3.957727e+00 6.574549e+00 6.343074e+00 5.543437e+00 7.579038e+00 5.241321e+00 6.110127e+00 5.775080e+00 4.674129e+00 5.178006e+00 4.978623e+00 2.759232e+00 4.305055e-01 5.993016e-01 6.220086e-01 1.318941e+00 8.580428e-01 1.084878e+00 9.265609e-01 8.386793e-01 8.388175e-01 7.020864e-01 8.438473e-01 8.056086e-01 6.531985e-01
<GCONST> 1.375067e+02
<TRANSP> 5
 0.000000e+00 1.000000e+00 0.000000e+00 0.000000e+00 0.000000e+00
 0.000000e+00 7.000294e-01 2.999706e-01 0.000000e+00 0.000000e+00
 0.000000e+00 0.000000e+00 2.661719e-01 7.338281e-01 0.000000e+00
 0.000000e+00 0.000000e+00 0.000000e+00 3.005389e-01 6.994612e-01
 0.000000e+00 0.000000e+00 0.000000e+00 0.000000e+00 0.000000e+00
<ENDHMM>
~h "r"
<BEGINHMM>
<NUMSTATES> 5
<STATE> 2
<MEAN> 39
 3.146848e+00 -5.819593e+00 -1.370025e+00 1.650969e+00 -6.895395e+00 -4.587360e+00 -1.132676e+01 -5.893719e-02 2.024791e+00 8.680859e-01 8.910843e-01 -8.539207e+00 6.423502e+01 2.991593e-01 1.148762e-01 -1.871383e-01 8.971863e-01 -7.227885e-02 -2.282115e-01 -1.029885e-01 -2.374946e-02 1.583521e-02 -2.546479e-01 -9.042840e-02 1.798985e-01 -4.529496e-01 -7.850701e-02 -5.198747e-03 1.411167e-01 -4.217944e-01 -2.342196e-02 1.533286e-01 1.584145e-01 1.387205e-01 -3.948693e-01 6.400922e-02 2.042288e-02 -7.878765e-02 1.223525e-01
<VARIANCE> 39
 1.357754e+01 3.002198e+01 3.916360e+01 4.362038e+01 3.948652e+01 4.745349e+01 6.935533e+01 7.453378e+01 5.518410e+01 4.238339e+01 5.531720e+01 6.394894e+01 2.908235e+01 1.063820e+00 2.284734e+00 1.999624e+00 3.382236e+00 3.316422e+00 3.587672e+00 3.282013e+00 4.511118e+00 4.097863e+00 3.464221e+00 3.738999e+00 3.821644e+00 2.327193e+00 1.884240e-01 3.884015e-01 3.584983e-01 6.310091e-01 6.400918e-01 5.582330e-01 6.520158e-01 7.895667e-01 6.851270e-01 6.306484e-01 7.829227e-01 7.243460e-01 4.115683e-01
<GCONST> 1.265556e+02
<STATE> 3
<MEAN> 39
 3.747087e+00 -5.190534e+00 -1.507148e+00 3.128871e+00 -6.986838e+00 -4.571707e+00 -1.074203e+01 -2.226213e-01 9.232711e-01 6.463124e-01 2.617663e-01 -7.434367e+00 6.312701e+01 5.269373e-02 9.497461e-02 2.551735e-01 -8.536796e-02 -1.445483e-01 2.101603e-01 3.635609e-01 2.954654e-01 -8.156008e-01 -6.473204e-02 -1.060652e-01 -3.975563e-03 -1.546823e-01 -1.722996e-01 -1.155164e-02 2.067441e-01 -4.802919e-01 1.852649e-02 1.432425e-01 1.452427e-01 1.105260e-01 -3.253903e-01 5.214947e-02 4.775357e-02 -9.278307e-02 1.851976e-01
<VARIANCE> 39
 1.380500e+01 3.591240e+01 4.325269e+01 3.534704e+01 4.116789e+01 4.818093e+01 6.680050e+01 7.685105e+01 5.600518e+01 4.233356e+01 4.971695e+01 5.648279e+01 2.792467e+01 1.033592e+00 2.684856e+00 2.388970e+00 2.878554e+00 3.378958e+00 3.603024e+00 3.467041e+00 4.577844e+00 3.621410e+00 3.160610e+00 3.572898e+00 3.643963e+00 2.203687e+00 1.892525e-01 3.964081e-01 3.867155e-01 4.851722e-01 6.938725e-01 5.650251e-01 6.531824e-01 7.995090e-01 6.805224e-01 6.444076e-01 8.063663e-01 6.383213e-01 3.612388e-01
<GCONST> 1.260436e+02
<STATE> 4
<MEAN> 39
 3.135733e+00 -3.753832e+00 -5.794728e-01 2.823869e+00 -6.691703e+00 -3.358429e+00 -8.807229e+00 1.072255e-01 -1.222243e+00 6.574723e-01 -8.588414e-01 -6.681803e+00 6.193458e+01 -2.352232e-01 2.240357e-01 5.133956e-01 -5.223473e-01 -6.718796e-02 3.880169e-01 4.192203e-01 2.490115e-01 -9.407658e-01 -6.216969e-02 -3.520832e-02 -5.083165e-02 -3.984956e-02 -1.297070e-01 -8.957677e-03 1.112973e-01 -2.232142e-01 4.548253e-02 -1.138080e-03 -4.478021e-02 -2.211004e-02 -4.878388e-02 3.334839e-03 1.061306e-01 -1.490262e-02 1.257881e-01
<VARIANCE> 39
 1.747963e+01 4.911806e+01 4.727757e+01 3.848675e+01 4.719883e+01 5.467941e+01 5.783318e+01 7.527882e+01 5.339594e+01 4.131620e+01 4.152292e+01 5.036659e+01 3.728001e+01 1.052173e+00 2.379273e+00 2.694308e+00 2.533321e+00 3.617224e+00 3.438915e+00 3.367666e+00 4.249951e+00 3.338283e+00 3.019310e+00 3.633700e+00 2.928547e+00 1.795273e+00 1.998754e-01 3.778292e-01 3.835340e-01 4.388999e-01 6.320348e-01 5.800123e-01 5.884274e-01 7.269871e-01 6.375227e-01 5.884096e-01 6.890027e-01 5.833537e-01 2.995420e-01
<GCONST> 1.251018e+02
<TRANSP> 5
 0.000000e+00 1.000000e+00 0.000000e+00 0.000000e+00 0.000000e+00
 0.000000e+00 3.787005e-01 6.212996e-01 0.000000e+00 0.000000e+00
 0.000000e+00 0.000000e+00 2.602358e-01 7.397642e-01 0.000000e+00
 0.000000e+00 0.000000e+00 0.000000e+00 3.383322e-01 6.616678e-01
 0.000000e+00 0.000000e+00 0.000000e+00 0.000000e+00 0.000000e+00
<ENDHMM>
~h "s"
<BEGINHMM>
<NUMSTATES> 5
<STATE> 2
<MEAN> 39
 -9.212633e+00 6.346594e+00 1.298130e+00 -1.423339e+00 2.649262e+00 -8.344640e+00 -1.847080e+00 -9.706087e-01 -1.375171e+00 -2.740937e+00 -1.285993e+00 -3.167881e+00 6.278578e+01 -2.902677e+00 1.909559e+00 -7.146937e-01 -5.089731e-01 1.594117e+00 -8.278948e-01 1.085919e+00 -1.776504e-01 4.454712e-01 -9.105314e-01 2.168112e-01 4.010888e-01 -1.144747e-03 2.738659e-01 -4.695755e-01 4.669366e-02 -6.927244e-02 -4.802822e-01 2.446493e-01 -4.402263e-01 1.382051e-01 -1.543989e-01 7.651079e-02 6.184494e-02 -2.221769e-01 7.454694e-02
<VARIANCE> 39
 4.720857e+01 3.766327e+01 4.038741e+01 2.818464e+01 4.299712e+01 5.268658e+01 5.071245e+01 4.528174e+01 4.325073e+01 3.488612e+01 3.114388e+01 2.879150e+01 1.914925e+01 2.546439e+00 2.927233e+00 2.594547e+00 2.365319e+00 3.537127e+00 3.435277e+00 4.430020e+00 3.761271e+00 3.174387e+00 3.111393e+00 2.403412e+00 2.480966e+00 8.383002e-01 8.594404e-01 5.287882e-01 3.943443e-01 4.948139e-01 5.741543e-01 5.737696e-01 6.932166e-01 6.129843e-01 5.308953e-01 6.043283e-01 4.466476e-01 4.708471e-01 1.124893e-01
<GCONST> 1.224955e+02
<STATE> 3
<MEAN> 39
 -1.534532e+01 7.555844e+00 1.909212e-01 -2.297050e+00 3.894078e+00 -8.790394e+00 -1.878968e+00 8.274394e-02 -4.969860e-01 -4.762974e+00 -7.846040e-01 -2.754405e+00 6.245503e+01 1.104109e+00 -9.853947e-01 2.951664e-01 1.263673e-01 -6.246246e-01 1.455149e-01 -5.549172e-01 -7.151958e-03 -3.631420e-03 2.850209e-01 -9.216350e-02 -1.410885e-01 -1.273519e-01 8.999190e-01 -4.319799e-01 1.786341e-01 4.919575e-02 -4.570082e-01 1.233057e-01 -3.075101e-01 -1.025239e-01 -1.032873e-01 2.543961e-01 -2.009660e-03 -1.326418e-01 7.277109e-02
<VARIANCE> 39
 1.873307e+01 2.675211e+01 2.704406e+01 2.667874e+01 3.476206e+01 3.514677e+01 4.008041e+01 3.156990e+01 3.007600e+01 2.576481e+01 2.394067e+01 2.291872e+01 1.214799e+01 4.215682e+00 2.103215e+00 2.187172e+00 1.692249e+00 2.482492e+00 2.553171e+00 3.013934e+00 2.615640e+00 2.476113e+00 2.338178e+00 2.054851e+00 1.925466e+00 9.137124e-01 4.417596e-01 3.852529e-01 3.734007e-01 3.641630e-01 4.404134e-01 5.223385e-01 5.920451e-01 5.732206e-01 5.156348e-01 4.835821e-01 4.211144e-01 4.038769e-01 1.651402e-01
<GCONST> 1.133499e+02
<STATE> 4
<MEAN> 39
 -4.220897e+00 2.222482e+00 2.735255e-01 -1.498549e+00 -3.370755e-01 -6.886291e+00 -5.153273e+00 -8.286444e-01 -7.808853e-01 -1.459523e+00 -1.864502e+00 -4.128665e+00 6.133595e+01 2.811260e+00 -1.690786e+00 2.967903e-01 -1.310981e-01 -1.917659e+00 8.254002e-01 -1.269725e+00 -2.361892e-01 -4.406287e-01 8.395273e-01 2.210901e-01 -6.883602e-01 5.648808e-01 -4.551627e-01 1.462436e-01 9.040923e-02 -1.219498e-01 2.898642e-02 1.697177e-01 1.269002e-01 6.313759e-02 -1.346810e-01 -1.689366e-01 2.087081e-01 -3.808750e-02 1.088773e-01
<VARIANCE> 39
 2.752820e+01 3.495334e+01 4.493516e+01 2.837461e+01 4.113452e+01 4.855698e+01 4.914972e+01 3.336510e+01 4.132742e+01 3.200134e+01 2.726149e+01 2.650675e+01 4.308308e+01 2.797183e+00 3.759036e+00 4.116898e+00 3.142220e+00 3.763209e+00 3.574155e+00 4.400019e+00 4.592202e+00 4.169977e+00 3.321704e+00 2.925088e+00 2.961457e+00 2.646461e+00 4.749986e-01 4.162639e-01 3.734910e-01 3.711387e-01 4.625933e-01 5.118976e-01 6.362237e-01 5.668107e-01 5.515317e-01 4.772922e-01 4.228415e-01 4.279996e-01 2.897956e-01
<GCONST> 1.241708e+02
<TRANSP> 5
 0.000000e+00 1.000000e+00 0.000000e+00 0.000000e+00 0.000000e+00
 0.000000e+00 7.538819e-01 2.461181e-01 0.000000e+00 0.000000e+00
 0.000000e+00 0.000000e+00 7.825754e-01 2.174247e-01 0.000000e+00
 0.000000e+00 0.000000e+00 0.000000e+00 5.137477e-01 4.862523e-01
 0.000000e+00 0.000000e+00 0.000000e+00 0.000000e+00 0.000000e+00
<ENDHMM>
~h "t"
<BEGINHMM>
<NUMSTATES> 5
<STATE> 2
<MEAN> 39
 6.667030e-01 2.805299e+00 -1.650138e+00 2.581471e+00 -4.965072e+00 -8.812729e-01 -6.393493e+00 -1.662188e-01 -4.236350e+00 4.480008e-01 -1.781989e+00 -4.397384e+00 5.418936e+01 -6.058315e-01 9.901121e-02 -4.995305e-01 -1.085534e-01 6.629046e-01 -1.371131e-01 5.887567e-01 -1.356226e-01 5.642771e-01 -3.694948e-01 -1.490359e-01 4.054418e-01 -2.719083e-01 -2.176148e-01 -4.515043e-01 2.821534e-01 -6.061732e-01 2.103554e-01 -5.128053e-01 -1.775930e-01 -7.430739e-02 3.227975e-01 -1.784668e-03 1.284524e-01 -1.938746e-01 8.642903e-01
<VARIANCE> 39
 9.183789e+00 1.851427e+01 3.090388e+01 2.356719e+01 2.785284e+01 3.765933e+01 3.259330e+01 3.295007e+01 3.853125e+01 2.748646e+01 2.865786e+01 2.909591e+01 1.749355e+01 1.198131e+00 1.534738e+00 1.681385e+00 2.557801e+00 3.083183e+00 3.915727e+00 2.950812e+00 2.786618e+00 3.271516e+00 2.793799e+00 2.179995e+00 2.042528e+00 2.460155e+00 2.127240e-01 2.700993e-01 3.318189e-01 4.243054e-01 5.094290e-01 6.992707e-01 6.325021e-01 6.201608e-01 6.144903e-01 5.295800e-01 4.443662e-01 4.761772e-01 3.426039e-01
<GCONST> 1.146316e+02
<STATE> 3
<MEAN> 39
 -2.257863e+00 1.761827e+00 -1.647302e+00 4.888536e-01 -1.710741e+00 -3.255317e+00 -4.775268e+00 -1.049585e+00 -1.671013e+00 -7.873923e-01 -2.085883e+00 -3.688850e+00 5.627275e+01 -8.693097e-01 -1.102093e+00 2.631724e-01 -1.730174e+00 1.030849e+00 -1.383420e+00 -2.448930e-01 -3.822900e-01 1.383865e+00 -2.580393e-01 2.274570e-01 -4.229783e-01 2.125595e+00 4.103228e-01 -3.895416e-01 3.084966e-01 -4.342110e-01 -4.609611e-01 1.038437e-01 -6.784928e-01 4.870848e-02 -1.395652e-01 2.408913e-01 2.435374e-01 -4.614457e-01 6.699592e-01
<VARIANCE> 39
 2.163280e+01 2.144488e+01 2.786225e+01 2.915934e+01 3.596213e+01 5.368595e+01 3.801741e+01 3.666939e+01 4.079684e+01 2.965955e+01 2.926403e+01 2.981510e+01 2.604748e+01 2.231604e+00 2.953116e+00 2.836370e+00 4.066575e+00 3.597959e+00 5.104059e+00 5.038255e+00 4.482556e+00 4.920022e+00 3.723690e+00 3.201717e+00 3.687870e+00 3.739363e+00 4.995604e-01 4.241948e-01 5.695612e-01 5.508747e-01 7.615589e-01 1.235334e+00 8.752495e-01 9.873223e-01 8.764006e-01 6.852967e-01 6.336889e-01 6.194364e-01 4.545030e-01
<GCONST> 1.283552e+02
<STATE> 4
<MEAN> 39
 -2.946114e+00 1.608585e+00 -1.498159e+00 -4.299873e-01 -1.724368e+00 -2.749868e+00 -5.024426e+00 -7.160548e-01 -3.965371e-01 -1.025147e+00 -1.241703e+00 -3.928346e+00 5.704709e+01 2.453603e-01 -8.462546e-01 5.857480e-01 -1.214757e+00 -2.440184e-01 -4.129830e-01 -1.001564e+00 -2.268940e-01 2.903260e-01 1.834348e-01 4.857329e-01 -7.129095e-01 1.676159e+00 3.942708e-01 -4.583468e-02 1.385395e-01 4.717999e-02 -4.429919e-01 3.392051e-01 -3.317657e-01 3.931594e-02 -3.786597e-01 1.810098e-01 1.320978e-01 -1.395803e-01 9.643018e-03
<VARIANCE> 39
 2.027070e+01 3.055625e+01 2.971715e+01 3.889674e+01 2.851761e+01 6.006789e+01 3.889957e+01 3.444649e+01 3.808078e+01 2.858403e+01 2.482372e+01 3.015911e+01 5.189849e+01 2.275303e+00 3.114005e+00 3.534023e+00 4.023857e+00 3.044743e+00 4.986076e+00 5.521955e+00 5.109256e+00 4.341478e+00 3.326049e+00 3.469516e+00 3.857783e+00 3.911178e+00 4.197274e-01 3.760793e-01 5.337929e-01 5.243610e-01 6.767773e-01 9.157107e-01 7.730311e-01 7.043394e-01 7.854796e-01 6.470281e-01 5.354909e-01 5.117629e-01 4.516620e-01
<GCONST> 1.276937e+02
<TRANSP> 5
 0.000000e+00 1.000000e+00 0.000000e+00 0.000000e+00 0.000000e+00
 0.000000e+00 5.128326e-01 4.871674e-01 0.000000e+00 0.000000e+00
 0.000000e+00 0.000000e+00 3.218774e-01 6.781226e-01 0.000000e+00
 0.000000e+00 0.000000e+00 0.000000e+00 4.910883e-01 5.089117e-01
 0.000000e+00 0.000000e+00 0.000000e+00 0.000000e+00 0.000000e+00
<ENDHMM>
~h "u"
<BEGINHMM>
<NUMSTATES> 5
<STATE> 2
<MEAN> 39
 4.384802e+00 1.548188e+00 1.032241e+00 -7.594730e+00 -7.882958e+00 1.596984e+00 -1.555964e+01 -6.847864e+00 -6.927986e+00 1.210498e+00 4.526273e+00 -5.832069e+00 6.309859e+01 7.458428e-01 4.064065e-02 2.314523e-01 -9.097690e-01 -7.638187e-01 1.074310e+00 -1.147028e+00 -7.060990e-01 -7.921380e-01 4.257813e-01 9.833863e-01 -4.614628e-02 4.043108e-01 -2.893420e-01 3.877519e-02 -4.328769e-02 6.146296e-01 2.533991e-01 -1.749939e-02 6.697394e-01 3.265938e-01 1.507652e-01 -1.593137e-01 -4.580640e-01 1.088422e-01 -4.119951e-01
<VARIANCE> 39
 1.282571e+01 2.666071e+01 3.635627e+01 7.187393e+01 6.412086e+01 5.838702e+01 7.281538e+01 5.819036e+01 6.425713e+01 5.339582e+01 5.984586e+01 4.403632e+01 1.871409e+01 1.696751e+00 2.539828e+00 2.850816e+00 5.848546e+00 4.790385e+00 5.011609e+00 6.924377e+00 4.724172e+00 5.583833e+00 4.543250e+00 4.945948e+00 3.632507e+00 2.178399e+00 2.629006e-01 3.999385e-01 4.230762e-01 9.160513e-01 8.683109e-01 9.319599e-01 1.122862e+00 9.036505e-01 1.024443e+00 8.556368e-01 8.766233e-01 7.178162e-01 3.130198e-01
<GCONST> 1.335938e+02
<STATE> 3
<MEAN> 39
 4.918288e+00 1.562961e+00 1.159760e+00 -7.857337e+00 -8.612529e+00 3.858700e+00 -1.592333e+01 -7.245505e+00 -7.600862e+00 1.599519e+00 5.069863e+00 -5.572247e+00 6.270453e+01 -3.379520e-02 2.471937e-01 -8.223988e-03 8.081577e-01 2.284311e-01 6.682593e-02 6.798165e-01 2.829019e-01 2.799787e-02 -1.377211e-01 -6.449677e-01 1.803158e-01 -5.678192e-01 -2.785362e-01 3.051053e-02 -4.719596e-03 4.820200e-01 2.733378e-01 -3.383656e-01 4.822017e-01 2.937912e-01 2.763030e-01 -1.878678e-01 -4.558224e-01 -1.826849e-02 -2.094620e-01
<VARIANCE> 39
 9.547529e+00 2.919054e+01 3.241210e+01 7.564176e+01 5.954475e+01 5.733758e+01 6.527818e+01 5.823101e+01 5.732639e+01 5.664598e+01 6.882065e+01 4.858317e+01 1.858282e+01 7.324658e-01 2.272423e+00 1.984061e+00 4.295888e+00 3.144876e+00 3.528793e+00 4.230544e+00 3.636601e+00 4.093829e+00 3.731730e+00 3.418884e+00 3.192122e+00 1.773709e+00 1.793761e-01 3.301389e-01 3.375568e-01 6.866341e-01 6.142806e-01 6.808870e-01 8.386822e-01 7.354523e-01 7.322376e-01 7.239372e-01 7.417145e-01 5.994757e-01 2.040438e-01
<GCONST> 1.254171e+02
<STATE> 4
<MEAN> 39
 3.942750e+00 5.245153e+00 -5.346500e-01 -3.042391e+00 -6.440417e+00 2.584909e+00 -1.048546e+01 -3.918493e+00 -7.643077e+00 -3.160158e-01 9.589993e-01 -2.913779e+00 5.702529e+01 -3.146993e-01 1.285420e-01 -2.205507e-02 9.195229e-01 3.275652e-01 -1.517129e-01 6.996399e-01 3.425069e-01 3.161528e-01 -1.508840e-01 -5.531692e-01 7.086978e-02 -5.380228e-01 -9.243487e-02 -1.125094e-01 3.327684e-02 -8.411901e-02 4.181996e-02 -6.075866e-02 -5.591789e-02 1.067646e-03 5.103759e-02 9.188537e-03 4.397514e-02 -5.838642e-02 1.215769e-01
<VARIANCE> 39
 1.457477e+01 3.091441e+01 2.568765e+01 7.477699e+01 4.511927e+01 4.277879e+01 4.971467e+01 4.133785e+01 4.228032e+01 4.320210e+01 4.557238e+01 3.637947e+01 3.208022e+01 5.721893e-01 1.250187e+00 1.397001e+00 2.399960e+00 2.251293e+00 2.441286e+00 2.633635e+00 2.613681e+00 2.514023e+00 2.491806e+00 2.437860e+00 2.100882e+00 8.481224e-01 1.191773e-01 2.273021e-01 2.169619e-01 4.397043e-01 4.004495e-01 4.303581e-01 5.254905e-01 4.814516e-01 4.591596e-01 4.815322e-01 4.489983e-01 3.813996e-01 1.501089e-01
<GCONST> 1.124838e+02
<TRANSP> 5
 0.000000e+00 1.000000e+00 0.000000e+00 0.000000e+00 0.000000e+00
 0.000000e+00 4.676946e-01 5.323054e-01 0.000000e+00 0.000000e+00
 0.000000e+00 0.000000e+00 4.164399e-01 5.835601e-01 0.000000e+00
 0.000000e+00 0.000000e+00 0.000000e+00 7.382437e-01 2.617563e-01
 0.000000e+00 0.000000e+00 0.000000e+00 0.000000e+00 0.000000e+00
<ENDHMM>
~h "v"
<BEGINHMM>
<NUMSTATES> 5
<STATE> 2
<MEAN> 39
 7.903662e-04 -6.079456e-01 1.670089e+00 -6.705837e-01 -5.929818e+00 -8.820225e-01 -6.906881e+00 5.931143e-01 -4.574426e+00 -3.940755e-01 -3.854154e-01 -5.847453e+00 5.993814e+01 5.024984e-04 -6.478592e-05 9.522401e-04 -6.048587e-04 -1.305029e-03 -9.148303e-04 -9.999124e-04 -6.995694e-04 3.150678e-04 8.832195e-04 -1.229102e-04 -1.829845e-05 4.304752e-04 -1.024714e-04 5.090495e-05 -4.314321e-05 5.499199e-04 2.475645e-04 2.544455e-04 -3.161734e-04 -1.009587e-04 -7.179174e-05 -5.594532e-04 -1.336834e-04 -6.698545e-06 -3.952787e-04
<VARIANCE> 39
 2.681136e+01 5.325134e+01 6.824250e+01 5.887592e+01 6.062508e+01 6.608533e+01 5.928268e+01 6.068991e+01 5.916120e+01 4.597362e+01 4.705821e+01 4.804106e+01 6.619385e+01 1.372020e+00 2.288023e+00 2.566274e+00 2.987463e+00 3.078158e+00 3.116328e+00 3.250192e+00 3.738113e+00 3.266875e+00 2.829993e+00 2.967949e+00 2.476121e+00 2.021681e+00 2.264445e-01 3.584008e-01 4.122588e-01 5.086471e-01 5.519696e-01 5.562619e-01 5.942494e-01 6.847889e-01 5.904057e-01 5.307208e-01 5.528100e-01 4.553457e-01 3.018115e-01
<GCONST> 1.265182e+02
<STATE> 3
<MEAN> 39
 7.903662e-04 -6.079456e-01 1.670089e+00 -6.705837e-01 -5.929818e+00 -8.820225e-01 -6.906881e+00 5.931143e-01 -4.574426e+00 -3.940755e-01 -3.854154e-01 -5.847453e+00 5.993814e+01 5.024984e-04 -6.478592e-05 9.522401e-04 -6.048587e-04 -1.305029e-03 -9.148303e-04 -9.999124e-04 -6.995694e-04 3.150678e-04 8.832195e-04 -1.229102e-04 -1.829845e-05 4.304752e-04 -1.024714e-04 5.090495e-05 -4.314321e-05 5.499199e-04 2.475645e-04 2.544455e-04 -3.161734e-04 -1.009587e-04 -7.179174e-05 -5.594532e-04 -1.336834e-04 -6.698545e-06 -3.952787e-04
<VARIANCE> 39
 2.681136e+01 5.325134e+01 6.824250e+01 5.887592e+01 6.062508e+01 6.608533e+01 5.928268e+01 6.068991e+01 5.916120e+01 4.597362e+01 4.705821e+01 4.804106e+01 6.619385e+01 1.372020e+00 2.288023e+00 2.566274e+00 2.987463e+00 3.078158e+00 3.116328e+00 3.250192e+00 3.738113e+00 3.266875e+00 2.829993e+00 2.967949e+00 2.476121e+00 2.021681e+00 2.264445e-01 3.584008e-01 4.122588e-01 5.086471e-01 5.519696e-01 5.562619e-01 5.942494e-01 6.847889e-01 5.904057e-01 5.307208e-01 5.528100e-01 4.553457e-01 3.018115e-01
<GCONST> 1.265182e+02
<STATE> 4
<MEAN> 39
 7.903662e-04 -6.079456e-01 1.670089e+00 -6.705837e-01 -5.929818e+00 -8.820225e-01 -6.906881e+00 5.931143e-01 -4.574426e+00 -3.940755e-01 -3.854154e-01 -5.847453e+00 5.993814e+01 5.024984e-04 -6.478592e-05 9.522401e-04 -6.048587e-04 -1.305029e-03 -9.148303e-04 -9.999124e-04 -6.995694e-04 3.150678e-04 8.832195e-04 -1.229102e-04 -1.829845e-05 4.304752e-04 -1.024714e-04 5.090495e-05 -4.314321e-05 5.499199e-04 2.475645e-04 2.544455e-04 -3.161734e-04 -1.009587e-04 -7.179174e-05 -5.594532e-04 -1.336834e-04 -6.698545e-06 -3.952787e-04
<VARIANCE> 39
 2.681136e+01 5.325134e+01 6.824250e+01 5.887592e+01 6.062508e+01 6.608533e+01 5.928268e+01 6.068991e+01 5.916120e+01 4.597362e+01 4.705821e+01 4.804106e+01 6.619385e+01 1.372020e+00 2.288023e+00 2.566274e+00 2.987463e+00 3.078158e+00 3.116328e+00 3.250192e+00 3.738113e+00 3.266875e+00 2.829993e+00 2.967949e+00 2.476121e+00 2.021681e+00 2.264445e-01 3.584008e-01 4.122588e-01 5.086471e-01 5.519696e-01 5.562619e-01 5.942494e-01 6.847889e-01 5.904057e-01 5.307208e-01 5.528100e-01 4.553457e-01 3.018115e-01
<GCONST> 1.265182e+02
<TRANSP> 5
 0.000000e+00 1.000000e+00 0.000000e+00 0.000000e+00 0.000000e+00
 0.000000e+00 6.000000e-01 4.000000e-01 0.000000e+00 0.000000e+00
 0.000000e+00 0.000000e+00 6.000000e-01 4.000000e-01 0.000000e+00
 0.000000e+00 0.000000e+00 0.000000e+00 7.000000e-01 3.000000e-01
 0.000000e+00 0.000000e+00 0.000000e+00 0.000000e+00 0.000000e+00
<ENDHMM>
~h "w"
<BEGINHMM>
<NUMSTATES> 5
<STATE> 2
<MEAN> 39
 -1.332919e+00 2.590001e+00 -3.018894e+00 3.171029e+00 -3.585474e+00 3.807924e+00 -4.054654e+00 4.868330e-01 -2.729352e+00 -4.044304e-01 -8.269011e-01 -1.816406e+00 5.210071e+01 1.016537e-01 1.653092e-01 -1.113579e-01 -1.630266e-01 -1.373124e-01 6.870636e-02 4.111366e-02 5.651224e-03 -1.923879e-01 3.743871e-02 1.553372e-01 1.885385e-01 -8.967580e-02 3.892008e-02 -3.296930e-02 5.702606e-03 -1.095857e-01 -6.465241e-03 -2.911267e-02 -5.854234e-02 8.258073e-03 -2.765627e-02 -1.675330e-03 1.941975e-02 -2.397205e-02 8.123477e-02
<VARIANCE> 39
 1.818239e+01 3.833040e+01 2.099342e+01 4.696337e+01 2.452640e+01 2.311161e+01 2.746808e+01 3.371442e+01 2.232923e+01 2.642373e+01 3.147657e+01 2.476197e+01 4.348769e+01 5.190069e-01 8.120545e-01 9.721364e-01 1.743795e+00 1.279644e+00 1.459683e+00 1.576306e+00 1.823695e+00 1.993577e+00 2.033107e+00 1.959764e+00 1.539585e+00 5.785888e-01 7.659655e-02 1.413637e-01 1.626208e-01 3.448804e-01 2.254957e-01 2.961816e-01 3.210204e-01 3.441790e-01 3.813117e-01 4.206192e-01 3.587648e-01 2.754934e-01 9.761898e-02
<GCONST> 9.961416e+01
<STATE> 3
<MEAN> 39
 6.175734e+00 1.575734e+00 -4.375211e+00 -9.583697e+00 -9.518628e+00 6.744154e+00 -8.084066e+00 -3.053349e+00 -7.658049e+00 9.292157e-01 5.210773e+00 -3.680735e+00 6.055157e+01 5.897950e-01 -5.344918e-01 -1.113651e-01 -2.168102e+00 -1.540836e-01 7.222316e-01 -9.606797e-01 -3.418767e-02 -1.964719e-01 5.662594e-01 9.957133e-01 -3.358727e-01 1.166355e+00 -2.702487e-01 -4.022401e-01 4.032687e-02 1.740733e-01 3.715276e-01 1.711570e-02 -4.657389e-02 1.893180e-01 4.281623e-01 1.858400e-01 -1.585031e-01 -4.503860e-01 1.352831e-01
<VARIANCE> 39
 1.267057e+01 3.586367e+01 2.574978e+01 8.068257e+01 5.920510e+01 4.974591e+01 5.009161e+01 3.048086e+01 3.643433e+01 3.314902e+01 4.049693e+01 4.279255e+01 3.086270e+01 1.147632e+00 3.078811e+00 1.220172e+00 5.988788e+00 2.612038e+00 2.630305e+00 3.737824e+00 2.096976e+00 3.146255e+00 3.349569e+00 3.176859e+00 4.651981e+00 2.786872e+00 1.418347e-01 3.377055e-01 1.753754e-01 7.855420e-01 3.623321e-01 4.867719e-01 5.461027e-01 4.010381e-01 4.830920e-01 4.821880e-01 5.961301e-01 6.156744e-01 1.953377e-01
<GCONST> 1.196812e+02
<STATE> 4
<MEAN> 39
 4.970959e+00 -6.528456e-01 -4.064409e+00 -1.415391e+01 -4.064019e+00 7.924749e+00 -1.215515e+01 -1.132334e+00 -4.616463e+00 4.503388e+00 2.658007e+00 -6.485019e+00 6.258956e+01 -1.495858e-01 -3.216569e-01 -8.004338e-02 1.418668e-01 2.967823e-01 -3.801768e-02 1.036241e-01 2.053463e-01 3.036749e-01 5.271839e-02 -2.553033e-01 -3.729994e-01 9.161235e-02 -3.363209e-02 3.100067e-02 2.281643e-02 2.218170e-01 1.011663e-02 -1.178047e-01 6.929258e-02 8.336492e-04 2.760356e-02 -1.065988e-01 -9.854212e-02 2.606280e-02 -7.195328e-02
<VARIANCE> 39
 1.079014e+01 4.777300e+01 1.818055e+01 8.725542e+01 6.803823e+01 5.027962e+01 4.351725e+01 3.253496e+01 4.086841e+01 6.778249e+01 5.861135e+01 6.823389e+01 4.145013e+01 3.564041e-01 1.791633e+00 7.078292e-01 2.465303e+00 1.670237e+00 1.627200e+00 1.672129e+00 1.765121e+00 2.131364e+00 2.376639e+00 1.922189e+00 2.904428e+00 1.123195e+00 4.581560e-02 1.743629e-01 1.254362e-01 4.155855e-01 2.560726e-01 2.773869e-01 2.755377e-01 2.873894e-01 3.086832e-01 3.929706e-01 3.681085e-01 4.068123e-01 1.102347e-01
<GCONST> 1.071006e+02
<TRANSP> 5
 0.000000e+00 1.000000e+00 0.000000e+00 0.000000e+00 0.000000e+00
 0.000000e+00 8.595162e-01 1.404838e-01 0.000000e+00 0.000000e+00
 0.000000e+00 0.000000e+00 7.162665e-01 2.837335e-01 0.000000e+00
 0.000000e+00 0.000000e+00 0.000000e+00 8.744011e-01 1.255989e-01
 0.000000e+00 0.000000e+00 0.000000e+00 0.000000e+00 0.000000e+00
<ENDHMM>
~h "y"
<BEGINHMM>
<NUMSTATES> 5
<STATE> 2
<MEAN> 39
 -2.390427e+00 -3.464044e+00 1.624003e+01 -5.887527e+00 -1.553367e+01 -8.170793e+00 -1.113328e+01 3.495086e+00 -8.208429e+00 -3.110017e+00 6.118876e+00 -6.491325e+00 6.778485e+01 -1.099277e-01 -5.391680e-01 6.304233e-01 -3.533508e-01 -8.838530e-01 -7.217550e-01 -1.123293e-02 8.686574e-01 -1.646511e-01 1.732317e-01 7.657818e-01 3.218229e-01 5.464342e-01 1.231818e-01 -8.762663e-02 -5.403031e-01 8.679375e-02 3.084947e-01 1.316636e-01 1.068154e-01 6.097086e-02 2.681264e-01 8.687873e-02 -3.069305e-01 -1.339902e-01 -7.522413e-02
<VARIANCE> 39
 8.488743e+00 4.512060e+01 6.214449e+01 2.920658e+01 4.035733e+01 4.779988e+01 6.044601e+01 6.836005e+01 6.918639e+01 7.703006e+01 4.661412e+01 3.821296e+01 2.238890e+01 6.190414e-01 2.193835e+00 4.333724e+00 1.759081e+00 2.352609e+00 2.912639e+00 2.764207e+00 4.284270e+00 3.001681e+00 2.512598e+00 2.668730e+00 2.199983e+00 1.129236e+00 7.789267e-02 2.043841e-01 5.358732e-01 2.981536e-01 4.494410e-01 4.976360e-01 4.480617e-01 6.767991e-01 4.876852e-01 4.114434e-01 4.815119e-01 3.445895e-01 1.013538e-01
<GCONST> 1.164842e+02
<STATE> 3
<MEAN> 39
 -1.259255e+00 -8.388349e+00 1.150248e+01 -6.619556e+00 -1.617348e+01 -9.880724e+00 -9.133915e+00 1.041469e+01 -3.990016e+00 -2.657780e+00 5.532455e+00 -7.666939e+00 7.005969e+01 3.401689e-01 -5.977869e-01 -1.403147e+00 7.782291e-02 9.838622e-01 3.975251e-01 5.628296e-01 8.042818e-01 7.314093e-01 -1.218474e-01 -1.228137e+00 -6.671821e-01 7.082536e-02 5.784605e-02 1.772517e-01 -1.465816e-01 1.546716e-01 3.151705e-01 2.746698e-01 -6.407768e-02 -4.327167e-01 -7.722208e-02 3.635985e-02 -2.652166e-01 -7.306507e-02 -1.933315e-01
<VARIANCE> 39
 5.486509e+00 2.264236e+01 3.066210e+01 2.232812e+01 3.918081e+01 4.415150e+01 5.852808e+01 5.867191e+01 4.827072e+01 6.470207e+01 4.475305e+01 4.391245e+01 1.473756e+01 2.715861e-01 1.194599e+00 2.476875e+00 1.105436e+00 1.903261e+00 1.922271e+00 1.779935e+00 3.645380e+00 2.622093e+00 1.944979e+00 2.388105e+00 1.757828e+00 5.587106e-01 5.307437e-02 1.549937e-01 3.281494e-01 1.752658e-01 3.097476e-01 3.386876e-01 3.122572e-01 6.513678e-01 3.511245e-01 3.706072e-01 4.004275e-01 3.298465e-01 8.058832e-02
<GCONST> 1.043908e+02
<STATE> 4
<MEAN> 39
 -2.305822e-01 -3.502093e+00 1.196218e+00 -6.035898e-01 -6.365545e+00 -2.075925e+00 -4.326213e+00 6.093151e+00 -2.887370e+00 -1.569911e+00 -3.230191e+00 -5.534996e+00 6.011663e+01 9.554020e-02 2.177915e-01 -4.826521e-01 3.057877e-01 4.695507e-01 3.786578e-01 5.719554e-02 -2.625163e-01 6.864978e-02 1.043665e-01 -3.403410e-01 3.525994e-02 -4.412473e-01 -4.223685e-03 8.682626e-02 6.431583e-02 3.532476e-02 -5.060248e-02 7.399818e-03 -3.804457e-02 -1.210248e-01 -5.323650e-02 5.624850e-02 9.215735e-02 4.592428e-02 -5.799067e-02
<VARIANCE> 39
 8.483075e+00 5.603872e+01 3.521923e+01 5.087968e+01 3.496899e+01 6.168119e+01 3.585174e+01 5.056529e+01 4.009834e+01 4.538921e+01 3.358996e+01 4.517495e+01 8.896522e+01 2.995513e-01 8.260388e-01 1.286301e+00 1.107726e+00 1.605268e+00 1.615754e+00 1.522015e+00 2.117602e+00 1.713263e+00 1.719475e+00 1.873737e+00 1.530991e+00 5.045798e-01 4.701674e-02 1.509110e-01 1.949413e-01 1.961846e-01 2.306715e-01 3.056922e-01 2.752680e-01 4.559744e-01 3.243450e-01 3.313633e-01 3.056498e-01 2.701719e-01 7.984236e-02
<GCONST> 1.021707e+02
<TRANSP> 5
 0.000000e+00 1.000000e+00 0.000000e+00 0.000000e+00 0.000000e+00
 0.000000e+00 7.474515e-01 2.525485e-01 0.000000e+00 0.000000e+00
 0.000000e+00 0.000000e+00 7.340763e-01 2.659238e-01 0.000000e+00
 0.000000e+00 0.000000e+00 0.000000e+00 8.428587e-01 1.571412e-01
 0.000000e+00 0.000000e+00 0.000000e+00 0.000000e+00 0.000000e+00
<ENDHMM>
~h "z"
<BEGINHMM>
<NUMSTATES> 5
<STATE> 2
<MEAN> 39
 -9.931408e-01 7.116343e+00 1.439774e+01 -7.983800e-01 -8.099232e+00 -7.314579e+00 -7.956357e+00 -5.730327e+00 -1.246611e+01 4.234225e-01 2.581901e-01 -3.111567e+00 6.016361e+01 2.186556e-01 2.829839e-02 1.356355e-01 -7.516326e-01 -1.499211e-01 8.186693e-01 -6.992600e-01 2.060015e-02 -7.433857e-02 3.295913e-01 -5.154029e-03 -5.369674e-02 -1.874996e-01 -4.095363e-03 3.180524e-02 -4.451498e-02 -2.009846e-02 2.026846e-02 5.368905e-02 1.646423e-02 1.167924e-01 1.575273e-01 7.855780e-03 -1.796326e-01 3.100708e-02 -7.325358e-02
<VARIANCE> 39
 1.787303e+01 2.916408e+01 6.739349e+01 7.384818e+01 1.483252e+01 4.246986e+01 7.347658e+01 4.720940e+01 5.487459e+01 2.653233e+01 9.916718e+00 1.436391e+01 2.701788e+01 7.134097e-01 2.014363e+00 3.321285e+00 3.556420e+00 1.603629e+00 1.699784e+00 3.487210e+00 2.330051e+00 2.646584e+00 2.262934e+00 1.942787e+00 1.368585e+00 9.015899e-01 9.539290e-02 3.053377e-01 4.110598e-01 3.671293e-01 2.808905e-01 4.047904e-01 3.544671e-01 3.115790e-01 3.533492e-01 2.300016e-01 3.689909e-01 2.459473e-01 9.947796e-02
<GCONST> 1.081537e+02
<STATE> 3
<MEAN> 39
 -3.831048e-01 2.772840e+00 1.552456e+01 -1.251175e+01 -8.275896e+00 8.029055e+00 -1.422532e+01 -3.502117e+00 -7.065120e+00 1.911139e+00 -6.154250e+00 -7.396005e+00 6.052259e+01 5.837825e-02 1.762470e-01 -1.052141e+00 6.885614e-01 7.676456e-02 4.595789e-01 4.003956e-01 6.523928e-02 4.224458e-01 -5.063798e-01 -4.326549e-01 -6.634784e-02 -7.101152e-01 -1.095903e-02 -1.267910e-03 -4.495947e-02 7.749754e-02 -2.169191e-02 -2.643651e-02 8.127458e-03 1.248990e-01 -6.428466e-02 -3.373121e-02 3.903745e-02 7.151806e-02 -1.902510e-02
<VARIANCE> 39
 2.498461e+00 1.503871e+01 7.265440e+01 5.915898e+01 1.291275e+01 1.086988e+02 2.893747e+01 1.991012e+01 2.929005e+01 2.557303e+01 2.395427e+01 2.116118e+01 2.112574e+01 1.603703e-01 9.405689e-01 1.158020e+00 1.414021e+00 7.392516e-01 7.972481e-01 1.015032e+00 1.359775e+00 1.503668e+00 1.003924e+00 1.896623e+00 9.709032e-01 6.773661e-01 4.425066e-02 1.522502e-01 1.536738e-01 2.097456e-01 1.933460e-01 1.782201e-01 2.155457e-01 2.394078e-01 2.404470e-01 2.257684e-01 3.502098e-01 1.518221e-01 4.057772e-02
<GCONST> 8.837878e+01
<STATE> 4
<MEAN> 39
 -2.758264e+00 4.806006e+00 2.441456e+00 3.525044e+00 -2.919544e+00 -1.458447e-01 -5.013540e+00 2.703048e+00 -4.291371e+00 -3.051114e+00 -4.529599e+00 -9.545466e-01 5.126938e+01 -5.433789e-02 4.622032e-02 -4.004480e-02 3.842005e-01 2.381806e-02 -9.909379e-02 4.862908e-02 -9.139454e-02 -2.100446e-01 -1.598604e-01 2.431580e-01 -3.197402e-02 -9.208538e-02 -1.275122e-02 -2.181541e-02 -3.339969e-02 -2.018837e-02 1.750133e-02 1.355717e-03 -8.528978e-04 -1.518301e-02 -2.062744e-03 2.981797e-02 6.114485e-02 -8.857529e-02 5.881587e-02
<VARIANCE> 39
 9.042328e+00 2.227323e+01 1.220086e+01 1.629368e+01 2.020541e+01 4.523399e+01 1.873573e+01 3.678580e+01 2.691105e+01 2.370005e+01 1.802455e+01 1.564827e+01 1.049912e+01 3.332102e-01 5.183226e-01 1.194838e+00 9.994914e-01 1.585477e+00 2.240520e+00 1.338027e+00 2.204616e+00 1.747170e+00 1.119563e+00 2.473606e+00 1.605612e+00 3.073654e-01 5.106163e-02 1.108898e-01 1.961547e-01 1.479572e-01 2.922343e-01 3.551322e-01 2.264522e-01 3.552903e-01 2.973882e-01 2.278796e-01 4.608729e-01 2.718293e-01 1.705221e-02
<GCONST> 8.938116e+01
<TRANSP> 5
 0.000000e+00 1.000000e+00 0.000000e+00 0.000000e+00 0.000000e+00
 0.000000e+00 8.721527e-01 1.278473e-01 0.000000e+00 0.000000e+00
 0.000000e+00 0.000000e+00 8.340423e-01 1.659577e-01 0.000000e+00
 0.000000e+00 0.000000e+00 0.000000e+00 9.237797e-01 7.622033e-02
 0.000000e+00 0.000000e+00 0.000000e+00 0.000000e+00 0.000000e+00
<ENDHMM>
~h "aw"
<BEGINHMM>
<NUMSTATES> 5
<STATE> 2
<MEAN> 39
 1.154505e+00 -2.050290e+00 -2.633380e-01 -1.169293e+01 -4.166415e+00 -7.195230e-01 -1.065345e+01 -4.297316e+00 6.972575e-01 2.627217e+00 2.355547e+00 -7.206311e+00 6.525549e+01 9.635539e-01 -5.876361e-01 7.016394e-01 -2.207936e+00 -1.271979e+00 1.016153e+00 -1.583802e+00 1.827236e-01 1.555831e-01 8.930705e-01 1.439012e+00 -6.568071e-01 1.735161e+00 1.839396e-01 1.549358e-01 -2.248940e-01 5.527669e-01 -1.183697e-01 4.952623e-01 9.677012e-02 1.623581e-01 -4.237265e-01 -9.100928e-03 -1.573788e-01 2.598940e-01 -4.946477e-01
<VARIANCE> 39
 2.307296e+01 3.379609e+01 1.725085e+01 5.001081e+01 8.846839e+01 5.561307e+01 7.524780e+01 3.483236e+01 7.553667e+01 4.968108e+01 2.543977e+01 3.680278e+01 2.549747e+01 1.970506e+00 1.832567e+00 1.942086e+00 4.644104e+00 3.457011e+00 4.085052e+00 7.400551e+00 2.965961e+00 5.915337e+00 3.486451e+00 3.274470e+00 4.554698e+00 3.128593e+00 7.541988e-01 3.389527e-01 3.661617e-01 7.280366e-01 1.142038e+00 1.148470e+00 1.220015e+00 1.004466e+00 8.259071e-01 7.321472e-01 6.130943e-01 5.180985e-01 3.706113e-01
<GCONST> 1.310146e+02
<STATE> 3
<MEAN> 39
 3.620637e+00 -3.928936e+00 1.355990e+00 -1.239814e+01 -8.700993e+00 3.459229e+00 -1.217877e+01 -5.455308e+00 -8.030995e-01 5.881024e+00 3.802918e+00 -6.747361e+00 6.790863e+01 3.051269e-01 4.124247e-01 3.980231e-01 8.815964e-01 -3.052064e-01 6.612765e-01 -7.203707e-02 -6.464682e-01 -8.040670e-01 -1.629093e-01 -7.974610e-02 1.089031e+00 -4.846759e-01 -1.717631e-01 3.299029e-01 -4.437979e-02 6.090754e-01 2.837698e-01 -2.362844e-01 2.649709e-01 -1.759879e-02 1.326810e-02 -2.910511e-01 -3.800136e-01 1.311041e-01 -5.214800e-01
<VARIANCE> 39
 7.277228e+00 2.861936e+01 1.437642e+01 3.663055e+01 5.878643e+01 4.666829e+01 7.160346e+01 6.021201e+01 9.597044e+01 4.437951e+01 2.979977e+01 4.784192e+01 1.773355e+01 1.001095e+00 1.680749e+00 2.021220e+00 2.584322e+00 3.164741e+00 3.959987e+00 4.078393e+00 3.506244e+00 2.990424e+00 4.298707e+00 2.646710e+00 3.246155e+00 1.670759e+00 1.991397e-01 2.564787e-01 2.761705e-01 6.142585e-01 5.426165e-01 5.909203e-01 7.437123e-01 6.808242e-01 8.695143e-01 7.408276e-01 7.353727e-01 7.981005e-01 2.122754e-01
<GCONST> 1.215539e+02
<STATE> 4
<MEAN> 39
 4.662420e+00 -4.258332e-01 2.267292e+00 -5.899443e+00 -1.071226e+01 6.532033e+00 -1.137671e+01 -7.625490e+00 -2.069335e+00 2.447564e+00 3.131737e+00 -4.178147e+00 6.315422e+01 -1.167957e-01 7.549014e-01 -3.392667e-02 1.743223e+00 4.722048e-01 -4.242946e-01 6.104952e-01 5.597292e-01 -9.394936e-02 -3.964271e-01 -7.678967e-01 9.226915e-02 -1.186110e+00 -2.313752e-01 -1.399676e-01 -3.768884e-02 -7.567893e-02 1.637826e-01 -4.608982e-01 1.308533e-01 3.256253e-01 3.282166e-03 1.420790e-01 -1.024732e-02 -2.333461e-01 1.508374e-01
<VARIANCE> 39
 6.468330e+00 2.413280e+01 2.630455e+01 3.517544e+01 3.826125e+01 6.743962e+01 8.009624e+01 5.123498e+01 7.507493e+01 4.403028e+01 3.760234e+01 4.089394e+01 2.557050e+01 6.287479e-01 1.284900e+00 1.910089e+00 2.421315e+00 2.555197e+00 2.971455e+00 2.544154e+00 3.819480e+00 3.380248e+00 2.830683e+00 3.200702e+00 3.666576e+00 1.331747e+00 1.752709e-01 2.441994e-01 3.779525e-01 4.081306e-01 4.221876e-01 6.694063e-01 6.114416e-01 6.833760e-01 7.366434e-01 4.265207e-01 7.013401e-01 7.540461e-01 2.191666e-01
<GCONST> 1.185734e+02
<TRANSP> 5
 0.000000e+00 1.000000e+00 0.000000e+00 0.000000e+00 0.000000e+00
 0.000000e+00 4.977399e-01 5.022601e-01 0.000000e+00 0.000000e+00
 0.000000e+00 0.000000e+00 6.696656e-01 3.303344e-01 0.000000e+00
 0.000000e+00 0.000000e+00 0.000000e+00 6.614381e-01 3.385619e-01
 0.000000e+00 0.000000e+00 0.000000e+00 0.000000e+00 0.000000e+00
<ENDHMM>
~h "ay"
<BEGINHMM>
<NUMSTATES> 5
<STATE> 2
<MEAN> 39
 5.287892e-01 -1.351388e+01 4.814845e+00 -5.407273e+00 -1.198039e+01 -8.344620e+00 -1.015020e+01 1.169575e+01 1.523695e+00 -4.434999e+00 3.739519e-01 -1.094131e+01 7.166478e+01 -3.639067e-01 -1.899246e-01 1.434438e+00 1.412832e-01 -1.500549e+00 -1.082602e+00 2.854924e-02 1.440326e+00 -6.660911e-01 -6.182759e-01 9.488476e-01 5.537922e-01 2.020785e-01 -2.525724e-03 5.103703e-01 1.179713e-01 7.075424e-02 6.395347e-02 2.167831e-01 2.268537e-02 -5.675189e-01 -4.519515e-01 2.182440e-01 2.192517e-01 2.730494e-01 -3.413840e-01
<VARIANCE> 39
 6.776527e+00 2.551730e+01 3.986791e+01 1.682150e+01 4.759557e+01 4.708799e+01 4.686134e+01 4.811321e+01 5.463940e+01 5.733942e+01 5.342702e+01 3.593104e+01 1.155494e+01 4.157985e-01 1.522192e+00 2.299592e+00 1.245081e+00 2.259486e+00 2.389158e+00 2.076627e+00 3.563537e+00 2.517683e+00 2.005752e+00 3.441339e+00 2.443086e+00 6.685734e-01 9.701280e-02 1.945756e-01 3.807031e-01 2.463874e-01 5.322042e-01 4.318586e-01 4.115345e-01 5.595163e-01 4.960418e-01 3.907602e-01 6.493369e-01 4.276520e-01 1.188973e-01
<GCONST> 1.101317e+02
<STATE> 3
<MEAN> 39
 -1.442951e+00 -8.324547e+00 1.427760e+01 -5.795616e+00 -1.948557e+01 -9.824335e+00 -1.300547e+01 1.080041e+01 -4.968583e+00 -5.993261e+00 8.699821e+00 -7.723472e+00 6.976080e+01 1.049641e-01 7.624507e-01 2.951766e-01 2.622712e-01 1.561198e-01 3.997221e-01 -1.517893e-01 -8.356869e-01 -7.177153e-01 3.130195e-01 -1.422861e-02 1.330030e-02 -6.318130e-01 1.631632e-01 1.174803e-01 -4.849402e-01 1.983757e-01 5.533287e-01 2.964436e-01 1.682290e-01 -2.619057e-01 7.917036e-02 1.283284e-01 -4.888663e-01 -1.777993e-01 -2.443812e-01
<VARIANCE> 39
 5.088316e+00 2.006607e+01 4.098603e+01 2.759533e+01 4.311355e+01 3.884447e+01 6.011200e+01 3.745292e+01 5.032973e+01 5.505115e+01 4.401005e+01 3.284428e+01 9.413912e+00 4.592637e-01 1.311916e+00 3.300522e+00 1.239790e+00 2.910728e+00 1.643254e+00 2.575788e+00 2.852404e+00 2.735013e+00 2.010674e+00 2.970455e+00 2.365611e+00 7.464087e-01 7.693861e-02 2.007598e-01 3.016012e-01 2.069817e-01 3.691949e-01 3.257868e-01 4.650927e-01 6.704190e-01 4.473091e-01 3.823268e-01 4.895834e-01 4.564503e-01 1.203741e-01
<GCONST> 1.081366e+02
<STATE> 4
<MEAN> 39
 6.509174e-01 -5.004235e+00 1.013592e+01 -1.304957e+00 -1.343760e+01 -6.919122e+00 -9.294580e+00 6.534341e+00 -6.980965e+00 -3.095840e+00 2.660549e+00 -6.431757e+00 6.457062e+01 4.767907e-01 8.657574e-01 -1.015186e+00 1.015346e+00 9.705020e-01 1.067419e+00 6.083614e-01 -1.060184e+00 -4.049434e-01 4.313655e-01 -8.747650e-01 -8.798616e-02 -1.204990e+00 -5.432473e-02 -3.139095e-02 -1.341330e-01 -2.867676e-02 9.031646e-03 2.246362e-02 6.862539e-02 -1.212861e-01 6.778604e-02 2.219367e-02 -9.608172e-03 9.268950e-02 3.120348e-02
<VARIANCE> 39
 7.044547e+00 2.236787e+01 4.745760e+01 3.009059e+01 4.111716e+01 3.781016e+01 5.835305e+01 3.508316e+01 6.423316e+01 4.435597e+01 3.251631e+01 3.964534e+01 2.334958e+01 4.984131e-01 1.103532e+00 1.858801e+00 1.546238e+00 2.155467e+00 2.149229e+00 2.638633e+00 3.277797e+00 2.718488e+00 2.304084e+00 2.407844e+00 2.021544e+00 8.270120e-01 9.448117e-02 1.696434e-01 2.565208e-01 3.139419e-01 3.584137e-01 4.149284e-01 4.444440e-01 4.667732e-01 4.650384e-01 3.973214e-01 3.493802e-01 4.037752e-01 1.139729e-01
<GCONST> 1.086674e+02
<TRANSP> 5
 0.000000e+00 1.000000e+00 0.000000e+00 0.000000e+00 0.000000e+00
 0.000000e+00 7.472376e-01 2.527624e-01 0.000000e+00 0.000000e+00
 0.000000e+00 0.000000e+00 7.128890e-01 2.871110e-01 0.000000e+00
 0.000000e+00 0.000000e+00 0.000000e+00 7.151435e-01 2.848565e-01
 0.000000e+00 0.000000e+00 0.000000e+00 0.000000e+00 0.000000e+00
<ENDHMM>
~h "kh"
<BEGINHMM>
<NUMSTATES> 5
<STATE> 2
<MEAN> 39
 7.498811e-01 -9.486030e-01 -4.669925e+00 4.503334e+00 -3.083746e+00 -3.188304e+00 -1.605415e+00 1.132449e+00 -1.220322e+00 -2.131416e+00 -3.615990e+00 -2.910206e+00 5.715020e+01 -2.326485e-01 7.807187e-01 4.014120e-02 9.841563e-02 -4.530041e-02 9.669675e-01 -5.855110e-01 -1.993666e-01 -8.417161e-01 2.861667e-01 -8.282431e-02 6.965396e-01 -1.455830e+00 -1.690228e-01 -4.627631e-01 1.031055e-01 -4.629278e-01 1.991786e-01 -9.361252e-02 3.566979e-02 -5.596811e-02 -2.592340e-02 2.220634e-01 -1.489947e-01 -1.985784e-01 5.061573e-01
<VARIANCE> 39
