~o
<STREAMINFO> 1 39
<VECSIZE> 39<NULLD><MFCC_D_A_0><DIAGC>
~s "silst"
<MEAN> 39
 -1.658205e+00 3.393147e+00 -2.574945e+00 4.752232e+00 -3.262425e+00 2.078580e+00 -3.374576e+00 1.592327e+00 -2.950824e+00 -1.446638e+00 -2.453262e+00 -1.355917e+00 5.082459e+01 -7.879903e-02 8.884583e-02 -4.518457e-02 5.040429e-02 5.127506e-02 4.915281e-02 3.095608e-02 7.295501e-03 1.957032e-02 -1.019036e-02 5.100155e-02 5.544761e-02 -1.376438e-01 8.892698e-03 -2.913797e-02 4.016664e-02 -4.130292e-02 8.818957e-03 -2.291311e-02 -2.287602e-02 -1.806217e-02 -2.469079e-02 7.676276e-03 1.622949e-03 -2.700705e-02 6.712542e-02
<VARIANCE> 39
 1.105784e+01 2.051625e+01 1.793730e+01 1.615462e+01 2.297043e+01 2.592721e+01 2.379343e+01 2.775148e+01 2.360415e+01 2.414116e+01 2.285670e+01 2.155061e+01 1.122701e+01 3.055942e-01 7.253149e-01 9.005950e-01 1.056801e+00 1.354245e+00 1.500621e+00 1.633686e+00 1.866748e+00 1.798627e+00 1.774438e+00 1.673269e+00 1.533300e+00 2.761075e-01 5.798305e-02 1.273479e-01 1.698978e-01 2.113902e-01 2.674738e-01 2.944719e-01 3.268356e-01 3.683136e-01 3.578272e-01 3.530063e-01 3.304245e-01 3.017298e-01 4.982467e-02
<GCONST> 9.143268e+01
~h "@"
<BEGINHMM>
<NUMSTATES> 5
<STATE> 2
<MEAN> 39
 1.287854e+00 -4.318120e+00 2.105350e+00 -2.683387e+00 -6.547095e+00 -5.460346e+00 -1.041169e+01 2.773957e-01 -1.786875e+00 1.591448e+00 8.809050e-01 -8.206462e+00 6.530858e+01 8.958012e-01 -1.059094e+00 3.680618e-01 -5.307924e-01 -1.072392e+00 -1.257491e-01 -7.837020e-01 7.102225e-01 2.968440e-01 2.583478e-01 4.121719e-01 -7.326851e-01 1.093680e+00 -1.413876e-01 5.592719e-01 -2.456548e-03 5.086935e-01 2.039036e-01 4.725300e-01 4.074500e-01 -1.985734e-01 -2.774145e-01 -2.019177e-01 -2.864383e-01 3.099805e-01 -6.575381e-01
<VARIANCE> 39
 2.216548e+01 4.327254e+01 5.054144e+01 4.890918e+01 6.855302e+01 7.374662e+01 7.301388e+01 7.880057e+01 6.681191e+01 5.319227e+01 4.794033e+01 5.253523e+01 2.890512e+01 2.700696e+00 2.830534e+00 3.295150e+00 3.944247e+00 4.125801e+00 5.244230e+00 4.734186e+00 7.407746e+00 5.943659e+00 4.557682e+00 4.635266e+00 3.640536e+00 2.697674e+00 3.597127e-01 4.546854e-01 5.448530e-01 6.870185e-01 7.686192e-01 7.391360e-01 9.239480e-01 9.777159e-01 8.358412e-01 7.813707e-01 7.186574e-01 5.963786e-01 4.302390e-01
<GCONST> 1.356839e+02
<STATE> 3
<MEAN> 39
 1.952538e+00 -5.451653e+00 2.447398e+00 -3.064610e+00 -7.765172e+00 -4.869771e+00 -1.106776e+01 1.271570e+00 -1.237955e+00 1.178280e+00 1.561746e+00 -8.905616e+00 6.631647e+01 4.175167e-01 1.563609e-01 3.011402e-01 5.623096e-01 -2.778946e-01 4.082664e-01 9.036615e-03 -1.242160e-01 -2.699563e-01 -7.571964e-03 -1.822614e-01 1.501994e-01 -2.846769e-01 -2.653413e-01 6.178084e-01 -4.590094e-02 5.281854e-01 4.078588e-01 2.746277e-01 4.699832e-01 -4.185384e-01 -3.042926e-01 -1.630221e-01 -3.762972e-01 4.116571e-01 -6.888621e-01
<VARIANCE> 39
 1.661265e+01 4.651975e+01 5.284475e+01 5.301270e+01 6.751736e+01 7.176534e+01 7.297485e+01 9.711021e+01 7.553914e+01 5.885958e+01 5.608941e+01 6.090804e+01 2.915299e+01 1.433891e+00 1.820621e+00 2.157017e+00 3.185113e+00 2.755843e+00 3.828093e+00 3.900747e+00 4.028967e+00 4.040095e+00 3.087600e+00 3.304419e+00 2.520030e+00 1.623608e+00 3.572750e-01 4.273911e-01 5.705289e-01 6.213803e-01 7.453076e-01 7.390898e-01 8.672723e-01 1.236799e+00 9.271016e-01 8.853334e-01 8.147051e-01 7.165564e-01 3.630288e-01
<GCONST> 1.314595e+02
<STATE> 4
<MEAN> 39
 1.846201e+00 -4.612394e+00 3.345741e+00 -1.363665e+00 -7.823957e+00 -5.156323e+00 -1.024958e+01 2.027321e+00 -2.496049e+00 7.006117e-01 4.121691e-01 -7.888899e+00 6.451082e+01 1.154323e-01 9.226534e-01 -6.681817e-02 1.062649e+00 2.711320e-01 6.225799e-01 5.389201e-01 -7.249706e-01 -4.362685e-01 -1.018762e-01 -6.002027e-01 4.767695e-01 -1.133901e+00 -1.591184e-01 1.447325e-01 -7.473776e-02 7.639338e-02 1.159775e-01 5.574972e-02 1.661697e-01 -7.931653e-02 -3.391826e-02 -8.045819e-02 -8.445095e-02 6.564704e-02 -1.589005e-01
<VARIANCE> 39
 1.494935e+01 5.053009e+01 4.906617e+01 4.882257e+01 6.491430e+01 6.633243e+01 6.076706e+01 9.008098e+01 6.471063e+01 5.071968e+01 4.759350e+01 5.529705e+01 3.094925e+01 1.009066e+00 1.909425e+00 2.049610e+00 2.523151e+00 2.767657e+00 2.864801e+00 3.449448e+00 3.647344e+00 3.176855e+00 2.990188e+00 2.766173e+00 2.388500e+00 1.791612e+00 2.216872e-01 2.945846e-01 3.538889e-01 4.131240e-01 4.631508e-01 4.889106e-01 6.015278e-01 7.101637e-01 6.219447e-01 5.221608e-01 5.671147e-01 4.052555e-01 2.350954e-01
<GCONST> 1.230594e+02
<TRANSP> 5
 0.000000e+00 1.000000e+00 0.000000e+00 0.000000e+00 0.000000e+00
 0.000000e+00 1.184014e-01 8.815986e-01 0.000000e+00 0.000000e+00
 0.000000e+00 0.000000e+00 1.744485e-01 8.255515e-01 0.000000e+00
 0.000000e+00 0.000000e+00 0.000000e+00 4.425830e-01 5.574170e-01
 0.000000e+00 0.000000e+00 0.000000e+00 0.000000e+00 0.000000e+00
<ENDHMM>
~h "a"
<BEGINHMM>
<NUMSTATES> 5
<STATE> 2
<MEAN> 39
 2.343410e+00 -1.016626e+01 -9.786102e-01 -7.575388e+00 -4.388003e+00 -1.129475e+00 -9.923560e+00 5.433016e+00 -7.165304e-01 6.340299e-01 -2.003073e+00 -1.189530e+01 6.892928e+01 1.618845e-01 -1.100789e+00 -1.642140e-01 -6.343819e-01 3.188079e-01 3.826508e-01 8.610064e-02 9.207528e-01 1.001032e-01 -2.002349e-01 -5.494933e-01 -7.148489e-01 8.520513e-01 -1.527153e-01 8.057134e-01 2.007200e-01 6.776716e-01 3.712161e-02 -7.054606e-02 2.215720e-01 -5.935858e-01 -3.739027e-01 -4.202851e-02 9.420721e-02 5.858656e-01 -7.095833e-01
<VARIANCE> 39
 9.675991e+00 2.586945e+01 4.297144e+01 4.418280e+01 5.781658e+01 8.115045e+01 6.077038e+01 6.134355e+01 6.910004e+01 6.735131e+01 4.881251e+01 5.105087e+01 2.048568e+01 1.064425e+00 2.562848e+00 2.558558e+00 3.175094e+00 3.442560e+00 4.074211e+00 3.608872e+00 5.008369e+00 3.655103e+00 3.807773e+00 3.473077e+00 3.410299e+00 1.948601e+00 2.017807e-01 3.716263e-01 3.685250e-01 5.171650e-01 5.772614e-01 6.373910e-01 6.389340e-01 8.067143e-01 7.106270e-01 7.244428e-01 6.173956e-01 5.539570e-01 2.882805e-01
<GCONST> 1.262265e+02
<STATE> 3
<MEAN> 39
 2.089454e+00 -1.094556e+01 -4.920501e-01 -7.842466e+00 -4.086943e+00 -1.357717e+00 -9.351692e+00 6.319902e+00 -1.259526e+00 -3.884609e-02 -2.466545e+00 -1.201833e+01 6.965094e+01 1.553629e-01 8.365671e-01 1.625549e-01 8.468698e-01 -5.868013e-02 -9.797482e-02 1.890863e-01 -5.389723e-01 -4.765246e-01 2.248231e-01 2.706053e-02 5.603326e-01 -7.954950e-01 1.716032e-02 5.095376e-01 1.049297e-01 3.901362e-01 -1.219779e-01 2.710963e-02 5.325878e-02 -4.222402e-01 -1.343711e-01 7.068923e-02 8.042324e-02 2.360788e-01 -4.494394e-01
<VARIANCE> 39
 8.722071e+00 2.318933e+01 4.052252e+01 3.905365e+01 5.429666e+01 7.763668e+01 5.620883e+01 6.275631e+01 7.408937e+01 6.852017e+01 4.826422e+01 5.205590e+01 1.433839e+01 4.389923e-01 1.448478e+00 1.481165e+00 1.721832e+00 2.053510e+00 2.662479e+00 2.337161e+00 3.046334e+00 2.341275e+00 2.434510e+00 2.253240e+00 2.007237e+00 9.550145e-01 1.047832e-01 2.011756e-01 2.864272e-01 2.956055e-01 3.843944e-01 4.927552e-01 4.922033e-01 6.297991e-01 4.607040e-01 5.140091e-01 4.802148e-01 3.985099e-01 1.265333e-01
<GCONST> 1.129166e+02
<STATE> 4
<MEAN> 39
 2.955803e+00 -4.188464e+00 -9.040285e-01 -2.092366e+00 -3.986358e+00 -8.867077e-01 -7.804853e+00 3.007090e+00 -3.240632e+00 1.030523e+00 -2.949220e+00 -7.960266e+00 6.238087e+01 1.595859e-02 1.414075e+00 -4.293013e-02 1.394742e+00 -1.260864e-01 4.362888e-01 5.887132e-01 -8.825836e-01 -3.330837e-01 -1.306867e-01 -2.330994e-01 5.879934e-01 -1.553396e+00 -1.105668e-01 -9.054329e-02 1.171243e-02 -1.134810e-01 -2.231419e-02 1.028006e-02 2.648049e-02 3.335838e-02 5.939817e-02 -9.586477e-02 -2.587054e-02 -6.858619e-02 1.033127e-01
<VARIANCE> 39
 9.189158e+00 2.541066e+01 4.913092e+01 4.205637e+01 4.658601e+01 6.081516e+01 5.364071e+01 5.023478e+01 5.198082e+01 5.155621e+01 4.631643e+01 4.507014e+01 2.465911e+01 6.317662e-01 1.332566e+00 1.772541e+00 1.989349e+00 2.269200e+00 2.684099e+00 2.643487e+00 3.423677e+00 2.841208e+00 2.801810e+00 2.502864e+00 2.233208e+00 1.018543e+00 1.133107e-01 2.028216e-01 2.530223e-01 3.170128e-01 3.476312e-01 4.411586e-01 4.443670e-01 5.272673e-01 4.428627e-01 4.399232e-01 4.422114e-01 3.900998e-01 1.394410e-01
<GCONST> 1.132806e+02
<TRANSP> 5
 0.000000e+00 1.000000e+00 0.000000e+00 0.000000e+00 0.000000e+00
 0.000000e+00 4.678469e-01 5.321531e-01 0.000000e+00 0.000000e+00
 0.000000e+00 0.000000e+00 6.168660e-01 3.831340e-01 0.000000e+00
 0.000000e+00 0.000000e+00 0.000000e+00 5.883272e-01 4.116728e-01
 0.000000e+00 0.000000e+00 0.000000e+00 0.000000e+00 0.000000e+00
<ENDHMM>
~h "b"
<BEGINHMM>
<NUMSTATES> 5
<STATE> 2
<MEAN> 39
 5.068980e+00 7.629814e+00 1.851104e+00 5.437629e+00 -3.766641e+00 2.336979e+00 -6.794682e+00 -3.291915e+00 -7.592970e+00 -2.442542e+00 -2.548807e+00 -4.910234e+00 5.533025e+01 2.705546e-01 -2.282818e-02 -3.079336e-01 -5.597188e-01 1.230062e-01 -3.106212e-01 -4.921892e-01 -3.558535e-01 2.436840e-02 2.472151e-02 4.522019e-01 2.950806e-01 4.112420e-01 -9.406091e-02 -7.434148e-01 4.835557e-02 -9.036660e-01 -2.797718e-01 -2.736656e-01 -6.839311e-01 -4.688187e-02 1.799286e-01 4.950362e-01 5.251635e-01 -1.056688e-01 6.720011e-01
<VARIANCE> 39
 7.208356e+00 2.127035e+01 1.844992e+01 2.087393e+01 2.659054e+01 2.859087e+01 2.998091e+01 2.659884e+01 2.561719e+01 2.302724e+01 2.315731e+01 2.367052e+01 1.149405e+01 7.308704e-01 2.357901e+00 1.566731e+00 4.663710e+00 2.314230e+00 2.742859e+00 3.937778e+00 2.999780e+00 3.184002e+00 3.026535e+00 3.202780e+00 2.140687e+00 1.868156e+00 1.293868e-01 4.086964e-01 3.596673e-01 5.304621e-01 4.569337e-01 5.744901e-01 5.644702e-01 6.306772e-01 7.127834e-01 6.483979e-01 5.598665e-01 5.250174e-01 2.182941e-01
<GCONST> 1.122879e+02
<STATE> 3
<MEAN> 39
 5.933664e+00 3.857379e+00 2.951500e-01 -2.809691e+00 -4.453846e+00 1.018882e+00 -1.193528e+01 -6.698059e+00 -8.660712e+00 5.530351e-01 2.593554e+00 -3.070907e+00 6.031417e+01 -5.889681e-02 -2.438865e+00 3.324960e-02 -3.228113e+00 -6.960521e-01 -5.450227e-01 -2.728957e+00 -3.471762e-03 1.055029e+00 2.339062e+00 1.916225e+00 -1.024256e+00 2.423054e+00 -3.096309e-01 -3.893194e-01 3.334020e-01 2.153422e-01 -2.166826e-01 -8.065344e-02 9.361392e-02 6.773142e-01 5.370600e-01 1.200473e-01 -4.010202e-01 -6.398060e-01 1.566215e-01
<VARIANCE> 39
 7.145554e+00 2.825161e+01 2.064907e+01 7.636111e+01 3.999479e+01 4.373235e+01 4.536540e+01 3.400313e+01 4.274897e+01 4.849371e+01 4.174060e+01 2.774615e+01 1.985587e+01 1.057684e+00 3.926812e+00 3.399507e+00 6.717152e+00 4.095669e+00 6.098845e+00 4.584755e+00 5.154864e+00 7.514942e+00 6.885096e+00 5.248722e+00 4.909964e+00 1.782247e+00 1.280072e-01 3.668638e-01 3.721027e-01 1.059134e+00 6.254934e-01 7.047731e-01 7.442951e-01 8.049616e-01 1.028052e+00 9.931018e-01 9.785261e-01 6.444810e-01 2.776484e-01
<GCONST> 1.284995e+02
<STATE> 4
<MEAN> 39
 5.005967e+00 -2.545065e+00 1.433344e+00 -6.411325e+00 -6.219521e+00 -3.371705e-01 -1.676929e+01 -3.414878e+00 -2.818740e+00 5.664279e+00 4.194711e+00 -9.074045e+00 6.478564e+01 -6.594256e-01 -2.273941e+00 7.604107e-01 -1.323653e+00 -9.487008e-01 -1.072813e+00 -1.210225e+00 1.828466e+00 1.793015e+00 7.089084e-01 -1.125720e-01 -1.647605e+00 1.913113e+00 -1.858553e-01 5.891829e-01 1.976417e-01 9.357826e-01 8.088650e-02 2.997624e-02 9.227631e-01 2.834196e-01 -3.157548e-01 -8.617561e-01 -7.194591e-01 3.154391e-01 -5.631416e-01
<VARIANCE> 39
 7.012779e+00 4.408092e+01 3.309362e+01 9.038139e+01 5.616813e+01 7.083265e+01 5.926960e+01 4.631786e+01 6.853504e+01 7.419688e+01 6.888708e+01 5.749692e+01 2.373550e+01 9.767651e-01 3.148788e+00 3.958985e+00 5.568682e+00 3.652324e+00 5.131331e+00 4.642552e+00 6.476154e+00 7.130860e+00 5.943734e+00 6.897914e+00 5.496799e+00 1.681455e+00 1.142823e-01 4.450130e-01 3.338820e-01 1.134897e+00 7.500246e-01 7.696854e-01 8.502442e-01 7.705155e-01 9.793535e-01 1.176508e+00 1.139864e+00 8.393396e-01 2.570403e-01
<GCONST> 1.338759e+02
<TRANSP> 5
 0.000000e+00 1.000000e+00 0.000000e+00 0.000000e+00 0.000000e+00
 0.000000e+00 6.957756e-01 3.042244e-01 0.000000e+00 0.000000e+00
 0.000000e+00 0.000000e+00 3.363513e-01 6.636488e-01 0.000000e+00
 0.000000e+00 0.000000e+00 0.000000e+00 2.568998e-01 7.431002e-01
 0.000000e+00 0.000000e+00 0.000000e+00 0.000000e+00 0.000000e+00
<ENDHMM>
~h "c"
<BEGINHMM>
<NUMSTATES> 5
<STATE> 2
<MEAN> 39
 -1.734102e+00 3.858730e+00 6.543937e-02 1.284373e+00 -3.723780e+00 -2.093533e+00 -5.479843e+00 4.279110e-01 -3.140238e+00 -1.280838e+00 -2.010430e+00 -2.854100e+00 5.483504e+01 -2.487138e+00 2.411294e-01 3.508266e-01 -1.211560e+00 1.224844e+00 -6.722587e-01 7.688277e-01 -3.164026e-01 2.162362e-01 -2.097721e-01 4.367325e-01 1.895041e-01 1.033858e+00 -5.310035e-01 -2.096496e-01 5.595692e-01 -4.105335e-01 1.555679e-02 -5.964532e-01 -1.486800e-01 -6.175680e-02 2.195165e-01 -1.023176e-01 2.062306e-01 4.840684e-02 8.927243e-01
<VARIANCE> 39
 1.943077e+01 2.050589e+01 2.915426e+01 2.549318e+01 3.536448e+01 4.666660e+01 3.473173e+01 4.134581e+01 3.169808e+01 2.486143e+01 2.777427e+01 2.488737e+01 2.084236e+01 3.355175e+00 2.654428e+00 2.851948e+00 3.467937e+00 3.423927e+00 4.140044e+00 2.621262e+00 3.343721e+00 2.768116e+00 2.541467e+00 2.674479e+00 2.153514e+00 2.935394e+00 6.666582e-01 3.950081e-01 4.016406e-01 5.619525e-01 6.572785e-01 5.826219e-01 5.219788e-01 6.633517e-01 5.687998e-01 5.507884e-01 4.821149e-01 4.225683e-01 2.596473e-01
<GCONST> 1.203350e+02
<STATE> 3
<MEAN> 39
 -1.414767e+01 4.852475e+00 4.620119e+00 -4.606609e+00 5.364772e-01 -7.006477e+00 -2.801701e+00 -1.074393e+00 -8.299065e-01 -3.697692e+00 6.335021e-01 -1.552295e+00 6.260380e+01 5.217853e-02 -1.134557e+00 1.414409e+00 -4.049812e-01 -1.071305e+00 -1.507246e+00 -9.699696e-01 2.946101e-01 6.453600e-01 -4.473930e-01 3.370703e-01 2.613062e-01 2.033026e+00 1.920266e+00 -7.005444e-01 -2.298907e-01 4.620092e-01 -9.099878e-01 3.662845e-01 -8.291048e-01 2.207911e-01 -1.260668e-01 2.502442e-01 -9.483725e-02 -2.537135e-01 -2.213476e-01
<VARIANCE> 39
 1.589328e+01 2.918306e+01 2.868733e+01 2.842190e+01 4.083884e+01 5.120959e+01 3.368018e+01 3.768134e+01 3.015278e+01 2.831346e+01 2.539005e+01 1.970712e+01 1.519086e+01 1.011991e+01 3.603071e+00 3.108052e+00 3.882426e+00 5.349776e+00 3.921463e+00 4.412590e+00 4.014970e+00 3.558270e+00 3.088869e+00 2.596943e+00 2.289459e+00 2.097211e+00 5.425507e-01 7.296039e-01 6.257134e-01 8.300827e-01 8.582006e-01 7.143811e-01 6.173693e-01 7.842836e-01 9.167958e-01 6.382337e-01 6.478201e-01 5.562239e-01 2.725642e-01
<GCONST> 1.262698e+02
<STATE> 4
<MEAN> 39
 -2.504010e+00 -3.433578e+00 6.381451e+00 -2.984312e+00 -7.301242e+00 -1.035120e+01 -1.109732e+01 1.973884e+00 1.255713e+00 -3.733425e+00 -1.409712e-01 -2.547714e+00 6.762469e+01 3.693001e+00 -2.693986e+00 -3.939076e-01 -3.399683e-01 -1.858816e+00 5.442231e-01 -2.230549e+00 5.717155e-01 8.567479e-02 8.458453e-01 6.041717e-01 -1.352863e+00 1.391633e+00 -1.732725e-01 4.932336e-01 -6.039535e-01 -1.036448e-01 5.469847e-01 9.611182e-01 5.856463e-01 -2.772159e-01 -5.080294e-01 2.720032e-01 1.041612e-01 -3.186719e-01 -7.030773e-01
<VARIANCE> 39
 1.513851e+01 3.334800e+01 4.365822e+01 2.796162e+01 2.792306e+01 3.809886e+01 5.474583e+01 5.793300e+01 3.733628e+01 3.390406e+01 1.998364e+01 1.800114e+01 2.074204e+01 2.369359e+00 3.994292e+00 3.618204e+00 2.855407e+00 4.117881e+00 3.445322e+00 4.017685e+00 6.489132e+00 5.118864e+00 3.781618e+00 3.626057e+00 3.157644e+00 1.208888e+00 9.164129e-01 5.584801e-01 4.488068e-01 5.252674e-01 6.262627e-01 6.441566e-01 7.476339e-01 6.177285e-01 6.364844e-01 5.815566e-01 5.398409e-01 5.643085e-01 2.942345e-01
<GCONST> 1.249869e+02
<TRANSP> 5
 0.000000e+00 1.000000e+00 0.000000e+00 0.000000e+00 0.000000e+00
 0.000000e+00 6.774110e-01 3.225891e-01 0.000000e+00 0.000000e+00
 0.000000e+00 0.000000e+00 6.458207e-01 3.541793e-01 0.000000e+00
 0.000000e+00 0.000000e+00 0.000000e+00 4.382740e-01 5.617260e-01
 0.000000e+00 0.000000e+00 0.000000e+00 0.000000e+00 0.000000e+00
<ENDHMM>
~h "d"
<BEGINHMM>
<NUMSTATES> 5
<STATE> 2
<MEAN> 39
 4.052171e+00 5.456360e+00 5.053679e+00 7.639511e+00 -7.041578e+00 -1.956621e+00 -7.726316e+00 7.788469e-01 -4.475268e+00 -2.527476e+00 -4.200725e+00 -5.285507e+00 5.584207e+01 -4.804686e-02 -2.018601e-01 3.026182e-01 9.955169e-02 4.336925e-02 -2.487106e-01 -1.873032e-01 -2.273999e-02 3.944957e-02 -3.815368e-01 2.266733e-01 3.177898e-01 2.146488e-01 -3.702675e-01 -9.697784e-01 5.629337e-01 -8.807412e-01 -5.291076e-01 -5.632177e-01 -6.573643e-01 4.135691e-02 1.458316e-02 5.042414e-02 7.666740e-01 7.383056e-02 9.665927e-01
<VARIANCE> 39
 6.937255e+00 2.949252e+01 3.082845e+01 2.054853e+01 3.652446e+01 2.688551e+01 3.598387e+01 4.971279e+01 3.163067e+01 2.748546e+01 3.562161e+01 2.834464e+01 1.409315e+01 9.229366e-01 2.990076e+00 2.830712e+00 2.529714e+00 3.009517e+00 3.427397e+00 3.874087e+00 4.068897e+00 3.205206e+00 2.472943e+00 3.330107e+00 2.399565e+00 2.073260e+00 1.450300e-01 3.130597e-01 5.633817e-01 4.312183e-01 5.771690e-01 6.232807e-01 7.755017e-01 1.098797e+00 7.173629e-01 5.636670e-01 6.014498e-01 5.054678e-01 2.145921e-01
<GCONST> 1.177872e+02
<STATE> 3
<MEAN> 39
 2.460474e+00 6.380498e-01 6.670990e+00 5.781825e+00 -6.959938e+00 -3.454598e+00 -9.253065e+00 -5.970826e-01 -4.187407e+00 -3.524549e+00 -2.240411e+00 -3.125574e+00 5.933070e+01 -8.395475e-01 -2.579849e+00 2.059913e+00 -2.287997e+00 -1.760353e+00 -1.928450e+00 -2.334105e+00 4.994584e-01 8.058635e-02 -4.500278e-02 2.354435e+00 1.378995e-01 2.801142e+00 -1.222804e-01 -1.598213e-01 1.865490e-01 -7.078325e-01 -4.198191e-01 -1.678350e-01 -3.709943e-01 3.566338e-01 -8.271140e-02 3.756212e-01 4.061538e-01 -4.999143e-01 4.711667e-01
<VARIANCE> 39
 1.047674e+01 3.254248e+01 3.862180e+01 3.422710e+01 3.914503e+01 4.550436e+01 5.626245e+01 6.146579e+01 4.292018e+01 3.369439e+01 3.081998e+01 3.250137e+01 2.023658e+01 1.196964e+00 2.632624e+00 5.430450e+00 3.389469e+00 3.811041e+00 4.495198e+00 5.501812e+00 1.022007e+01 6.721986e+00 4.660789e+00 5.193110e+00 3.569025e+00 1.369081e+00 1.425608e-01 4.227834e-01 4.868784e-01 5.461856e-01 7.898976e-01 8.631033e-01 8.261892e-01 9.861045e-01 7.613901e-01 7.266721e-01 7.047825e-01 6.028976e-01 2.433404e-01
<GCONST> 1.275496e+02
<STATE> 4
<MEAN> 39
 1.389523e+00 -5.054051e+00 1.081728e+01 -9.859689e-01 -1.228914e+01 -9.054265e+00 -1.614294e+01 3.851886e+00 -3.169740e+00 -2.056474e+00 3.395526e+00 -4.848675e+00 6.612319e+01 -7.048994e-01 -1.657523e+00 1.062145e+00 -2.636448e+00 -1.474733e+00 -1.159776e+00 -1.593532e+00 1.320759e+00 1.840219e-01 7.419728e-01 1.753952e+00 -1.249062e+00 2.392341e+00 1.373881e-01 7.377833e-01 -5.872667e-01 3.553302e-01 4.752855e-01 6.687725e-01 6.943015e-01 -2.293479e-01 -1.330213e-01 1.712819e-01 -6.161106e-01 -3.169738e-01 -6.173391e-01
<VARIANCE> 39
 1.003755e+01 3.119487e+01 5.344651e+01 3.851609e+01 4.007222e+01 5.121699e+01 8.190089e+01 1.141811e+02 7.833482e+01 5.183834e+01 4.401845e+01 5.401546e+01 1.801952e+01 1.049152e+00 2.532913e+00 5.663824e+00 3.206994e+00 4.068940e+00 5.014073e+00 5.023598e+00 8.511970e+00 5.898837e+00 5.455391e+00 6.110983e+00 3.852665e+00 1.595717e+00 1.164826e-01 3.356382e-01 4.519815e-01 5.867198e-01 7.445412e-01 8.097678e-01 1.062820e+00 1.258600e+00 9.207463e-01 6.439504e-01 7.083710e-01 6.507370e-01 2.263706e-01
<GCONST> 1.309768e+02
<TRANSP> 5
 0.000000e+00 1.000000e+00 0.000000e+00 0.000000e+00 0.000000e+00
 0.000000e+00 6.126308e-01 3.873692e-01 0.000000e+00 0.000000e+00
 0.000000e+00 0.000000e+00 1.924773e-01 8.075227e-01 0.000000e+00
 0.000000e+00 0.000000e+00 0.000000e+00 3.443446e-01 6.556554e-01
 0.000000e+00 0.000000e+00 0.000000e+00 0.000000e+00 0.000000e+00
<ENDHMM>
~h "e"
<BEGINHMM>
<NUMSTATES> 5
<STATE> 2
<MEAN> 39
 3.844837e-01 -6.781030e+00 6.786895e+00 -1.831087e+00 -1.068134e+01 -8.663277e+00 -6.953576e+00 5.714850e+00 -4.430907e+00 -6.770880e-01 1.581758e+00 -6.617467e+00 6.630821e+01 1.766605e-01 -1.409270e+00 1.396204e+00 -1.139107e+00 -1.383525e+00 -6.373385e-01 -2.765521e-01 1.639347e+00 -1.805049e-01 -2.905580e-01 7.256679e-01 -4.329301e-01 1.507888e+00 -1.624577e-01 5.154625e-01 -3.384796e-01 2.281171e-01 4.982399e-01 3.707446e-01 3.050028e-01 -4.231423e-01 -7.013647e-02 5.372944e-02 -2.276431e-01 2.257137e-01 -4.990738e-01
<VARIANCE> 39
 1.372986e+01 3.443756e+01 5.620580e+01 3.363963e+01 4.588468e+01 7.378814e+01 9.406855e+01 6.002051e+01 8.392955e+01 7.692573e+01 5.099148e+01 3.891859e+01 3.133141e+01 1.424243e+00 2.071960e+00 4.075492e+00 2.317503e+00 4.297812e+00 4.145401e+00 5.045246e+00 5.032072e+00 4.129088e+00 4.811512e+00 4.121378e+00 2.839550e+00 1.927505e+00 2.579233e-01 4.992770e-01 7.602643e-01 4.553239e-01 7.046768e-01 7.028397e-01 8.958482e-01 8.924095e-01 8.204922e-01 7.990056e-01 6.650530e-01 5.243770e-01 3.765447e-01
<GCONST> 1.310150e+02
<STATE> 3
<MEAN> 39
 2.747501e-01 -9.240025e+00 7.650733e+00 -4.488224e+00 -1.195330e+01 -8.746118e+00 -8.214031e+00 8.284076e+00 -3.920619e+00 -1.920523e+00 2.502307e+00 -8.367777e+00 6.901806e+01 1.742978e-01 5.975576e-01 -3.306972e-01 5.753470e-01 3.510181e-01 3.213097e-01 2.192957e-01 -4.154752e-01 -1.076742e-01 9.035765e-02 -4.335318e-01 1.696249e-01 -5.955817e-01 1.037306e-02 5.526353e-01 -2.727475e-01 5.039144e-01 3.146825e-01 2.103406e-01 1.473255e-01 -5.755583e-01 -4.066407e-03 9.498049e-02 -2.016110e-01 1.641188e-01 -5.038109e-01
<VARIANCE> 39
 7.642506e+00 2.616944e+01 4.396780e+01 2.979097e+01 3.986716e+01 9.019244e+01 7.187872e+01 7.231416e+01 8.000039e+01 7.376906e+01 5.178763e+01 3.980751e+01 1.529861e+01 5.315676e-01 1.479464e+00 1.440411e+00 2.087976e+00 2.163015e+00 2.143816e+00 2.930721e+00 2.899041e+00 2.527476e+00 2.831936e+00 2.119079e+00 1.594729e+00 1.176659e+00 1.500678e-01 2.837043e-01 3.617904e-01 3.229648e-01 4.102455e-01 4.447862e-01 6.128812e-01 6.375642e-01 5.264578e-01 6.314751e-01 4.642816e-01 3.610440e-01 1.533110e-01
<GCONST> 1.151149e+02
<STATE> 4
<MEAN> 39
 -3.719581e-01 -3.682674e+00 1.014208e+01 -2.035455e+00 -1.137820e+01 -8.169796e+00 -4.690904e+00 4.274712e+00 -8.081041e+00 2.891267e+00 2.920954e+00 -4.798904e+00 6.352999e+01 2.563459e-02 7.711078e-01 -4.538157e-01 7.713366e-01 4.350363e-01 5.614443e-01 4.529431e-01 -5.187083e-01 4.979406e-02 -1.245693e-02 -3.643965e-01 2.465102e-01 -8.950073e-01 -5.965080e-02 2.234428e-02 -2.286527e-02 -4.041130e-02 4.179823e-02 4.796077e-02 1.737113e-02 -3.695691e-02 3.731165e-03 -4.111455e-02 -1.741145e-03 1.507886e-02 6.119560e-03
<VARIANCE> 39
 9.088449e+00 2.168148e+01 6.717155e+01 5.011832e+01 4.429195e+01 5.473069e+01 4.921867e+01 4.847528e+01 4.908094e+01 5.696237e+01 7.103268e+01 3.206066e+01 2.680449e+01 4.395243e-01 1.426890e+00 1.509509e+00 1.651148e+00 1.831340e+00 1.672682e+00 2.106089e+00 2.564938e+00 2.121636e+00 2.112208e+00 1.813964e+00 1.598274e+00 8.557158e-01 9.609076e-02 1.665274e-01 2.358882e-01 2.235384e-01 3.012729e-01 2.694551e-01 3.478402e-01 3.849652e-01 3.746108e-01 3.546991e-01 2.703066e-01 2.719078e-01 9.322292e-02
<GCONST> 1.066686e+02
<TRANSP> 5
 0.000000e+00 1.000000e+00 0.000000e+00 0.000000e+00 0.000000e+00
 0.000000e+00 5.367042e-01 4.632958e-01 0.000000e+00 0.000000e+00
 0.000000e+00 0.000000e+00 6.573927e-01 3.426072e-01 0.000000e+00
 0.000000e+00 0.000000e+00 0.000000e+00 7.601044e-01 2.398956e-01
 0.000000e+00 0.000000e+00 0.000000e+00 0.000000e+00 0.000000e+00
<ENDHMM>
~h "f"
<BEGINHMM>
<NUMSTATES> 5
<STATE> 2
<MEAN> 39
 -6.773014e+00 1.239542e+00 1.145805e+00 5.935520e-01 -3.508490e+00 -3.896362e+00 -2.703837e+00 -2.123280e+00 -1.247076e+00 -1.937415e+00 -1.326477e+00 -4.425015e+00 5.984997e+01 -1.252969e+00 1.245677e-01 -5.221975e-02 1.653853e-01 4.060923e-01 -4.988909e-01 2.437421e-01 4.951897e-02 6.311226e-01 -1.780099e-01 -3.505806e-01 2.738140e-01 -1.378480e-01 3.548074e-01 -3.375100e-01 2.231969e-01 7.255723e-02 -2.526138e-01 -2.948780e-02 -2.596138e-01 1.067537e-01 -7.727455e-02 -1.479279e-02 1.699748e-01 -7.132973e-02 2.423324e-01
<VARIANCE> 39
 1.807121e+01 1.059619e+01 4.096448e+01 2.299341e+01 2.721408e+01 4.596765e+01 2.851163e+01 2.998142e+01 3.548497e+01 2.843044e+01 2.127226e+01 2.090971e+01 1.145685e+01 1.648689e+00 1.285633e+00 1.536897e+00 1.729232e+00 1.918814e+00 2.725477e+00 2.020074e+00 2.621212e+00 2.563354e+00 2.233298e+00 1.798300e+00 1.765189e+00 6.327065e-01 3.195654e-01 2.055808e-01 3.086094e-01 3.101401e-01 5.007616e-01 5.580804e-01 5.380654e-01 5.050457e-01 5.912991e-01 4.154910e-01 4.183020e-01 3.588394e-01 1.237152e-01
<GCONST> 1.075704e+02
<STATE> 3
<MEAN> 39
 -9.567881e+00 -7.546797e-01 3.009930e+00 3.927623e+00 -1.598356e+00 -6.773156e+00 -3.279677e+00 -1.425130e+00 1.935047e+00 -1.518220e+00 -2.408219e+00 -3.259588e+00 6.021132e+01 1.856570e+00 -1.066392e+00 1.848055e+00 4.460446e-01 -1.512902e+00 -1.414975e+00 -2.101969e+00 7.988148e-02 -7.693980e-01 -5.739451e-01 1.120500e+00 1.809424e-01 8.180369e-01 8.788829e-01 -1.585159e-01 7.067528e-01 -4.427806e-01 -1.193666e+00 -5.430201e-02 -8.307616e-01 1.147765e-01 -6.993818e-01 -2.872761e-01 8.379156e-01 -2.385379e-01 4.314006e-01
<VARIANCE> 39
 1.712959e+01 9.672623e+00 3.414464e+01 2.286785e+01 2.209139e+01 4.082791e+01 2.678376e+01 1.995544e+01 3.479840e+01 1.821324e+01 1.875560e+01 1.936099e+01 8.734318e+00 2.058036e+00 1.233892e+00 3.751672e+00 1.784629e+00 3.373055e+00 3.536634e+00 3.756792e+00 2.653367e+00 3.830169e+00 3.201505e+00 2.886536e+00 2.143556e+00 1.074934e+00 2.450661e-01 3.344230e-01 5.681857e-01 3.384554e-01 3.925135e-01 5.438304e-01 6.151947e-01 5.168706e-01 7.056885e-01 6.072046e-01 5.085790e-01 4.371251e-01 1.245349e-01
<GCONST> 1.117856e+02
<STATE> 4
<MEAN> 39
 -1.153122e+00 -2.079945e+00 9.721297e+00 4.122031e+00 -9.386637e+00 -1.068506e+01 -1.142291e+01 -8.412932e-01 -3.832266e+00 -5.029591e+00 2.625319e+00 -3.654042e+00 6.268084e+01 2.570963e+00 -1.422182e+00 2.727575e+00 -9.986936e-01 -3.768791e+00 -6.497530e-01 -3.031507e+00 7.037127e-01 -1.628159e+00 -1.113771e+00 2.836660e+00 -8.267108e-01 1.815912e+00 -5.153355e-01 -3.631355e-02 -2.101664e-01 -5.460306e-01 1.347935e-02 4.576606e-01 3.098250e-01 1.262892e-01 2.981946e-01 2.808202e-01 3.331675e-02 -3.982125e-01 1.514486e-01
<VARIANCE> 39
 1.088729e+01 1.346933e+01 8.495747e+01 2.955416e+01 3.633541e+01 4.475331e+01 5.571438e+01 2.316789e+01 2.755147e+01 3.744709e+01 2.806183e+01 2.057723e+01 1.299887e+01 1.084221e+00 2.126502e+00 7.157561e+00 2.198626e+00 3.095958e+00 4.063973e+00 5.094964e+00 3.601958e+00 5.986656e+00 4.625791e+00 4.037287e+00 2.975925e+00 1.328938e+00 2.230041e-01 1.648086e-01 5.000284e-01 3.142645e-01 5.637488e-01 5.042216e-01 5.355919e-01 4.157532e-01 5.022582e-01 4.350393e-01 6.118504e-01 3.247090e-01 1.283185e-01
<GCONST> 1.169337e+02
<TRANSP> 5
 0.000000e+00 1.000000e+00 0.000000e+00 0.000000e+00 0.000000e+00
 0.000000e+00 8.265828e-01 1.734171e-01 0.000000e+00 0.000000e+00
 0.000000e+00 0.000000e+00 5.172732e-01 4.827268e-01 0.000000e+00
 0.000000e+00 0.000000e+00 0.000000e+00 3.182678e-01 6.817322e-01
 0.000000e+00 0.000000e+00 0.000000e+00 0.000000e+00 0.000000e+00
<ENDHMM>
~h "g"
<BEGINHMM>
<NUMSTATES> 5
<STATE> 2
<MEAN> 39
 3.530444e+00 5.812304e+00 4.151115e+00 4.357501e+00 -5.745872e+00 6.427176e-02 -8.140597e+00 -1.873996e+00 -7.641895e+00 -4.105513e-01 -1.741260e+00 -6.406557e+00 5.620953e+01 -6.088604e-01 -5.500760e-01 2.631264e-01 -8.320711e-01 9.278446e-01 -8.308080e-01 -6.957411e-01 5.282641e-02 1.780047e-01 2.005876e-01 2.292526e-01 -5.666582e-02 7.444006e-01 -3.208235e-01 -5.902418e-01 5.756338e-01 -7.762074e-01 -3.430972e-01 -4.759053e-01 -6.499950e-01 4.022001e-02 7.685450e-02 1.098467e-01 6.755502e-01 -2.780314e-01 8.380628e-01
<VARIANCE> 39
 7.619323e+00 2.486641e+01 3.191601e+01 2.906629e+01 5.332105e+01 3.644792e+01 4.302353e+01 3.985854e+01 3.611958e+01 3.186308e+01 3.621199e+01 3.097294e+01 1.456598e+01 1.219574e+00 2.606682e+00 4.105377e+00 3.644419e+00 4.432024e+00 4.367139e+00 4.790259e+00 4.049393e+00 4.026237e+00 3.416854e+00 3.820600e+00 2.889046e+00 2.036249e+00 1.859363e-01 3.649441e-01 6.000307e-01 4.990232e-01 9.482946e-01 5.863730e-01 6.320127e-01 7.919903e-01 7.506662e-01 6.169676e-01 7.652070e-01 4.870094e-01 2.018954e-01
<GCONST> 1.225150e+02
<STATE> 3
<MEAN> 39
 4.873368e-01 7.239618e-01 7.347957e+00 -1.490011e+00 -4.802528e+00 -5.488260e+00 -1.412864e+01 -1.953172e+00 -7.366416e+00 1.096152e+00 3.273779e+00 -8.892741e+00 6.297732e+01 -7.768577e-01 -1.542210e+00 1.425919e+00 -2.233744e+00 -1.642092e+00 -1.717619e+00 -1.822456e+00 7.431905e-01 1.004130e+00 3.506046e-01 2.133016e+00 -1.137971e+00 2.505446e+00 1.831541e-01 -5.456294e-02 -1.160188e-01 5.749435e-02 -6.886793e-01 3.967659e-01 3.781256e-01 2.881873e-01 2.769270e-01 -3.903731e-02 -1.268914e-01 -5.197694e-02 -1.436478e-02
<VARIANCE> 39
 1.363177e+01 3.123178e+01 5.334126e+01 3.549374e+01 6.599963e+01 6.137692e+01 7.338408e+01 4.599110e+01 5.372437e+01 5.297685e+01 8.031786e+01 4.459246e+01 1.700900e+01 1.332329e+00 2.709723e+00 5.231401e+00 3.154431e+00 6.812663e+00 3.966097e+00 4.677805e+00 6.923772e+00 5.808742e+00 4.896479e+00 5.548978e+00 3.311003e+00 1.483884e+00 1.490240e-01 3.922288e-01 6.040621e-01 5.425521e-01 1.186075e+00 9.622010e-01 1.053061e+00 8.551856e-01 8.950071e-01 6.978732e-01 1.312829e+00 6.464044e-01 2.248193e-01
<GCONST> 1.321391e+02
<STATE> 4
<MEAN> 39
 -4.229558e-02 -2.267686e+00 8.304547e+00 -5.306819e+00 -1.067611e+01 -6.671064e+00 -1.518969e+01 1.339600e+00 -3.399444e+00 1.672722e+00 6.431921e+00 -1.148436e+01 6.731047e+01 -3.260219e-01 -1.347070e+00 2.237516e-01 -1.414832e+00 -1.200486e+00 -6.916654e-02 9.412155e-03 1.173044e+00 1.015285e+00 1.377694e-01 1.533369e-01 -6.032117e-01 1.499931e+00 2.650567e-01 2.082635e-01 -4.064928e-01 6.169491e-01 3.903675e-01 4.660079e-01 4.568049e-01 -1.261616e-01 -3.719696e-01 -1.297018e-01 -6.653591e-01 3.219125e-01 -5.751154e-01
<VARIANCE> 39
 1.325123e+01 4.169863e+01 5.536219e+01 3.195778e+01 6.238353e+01 5.154786e+01 7.440363e+01 6.304094e+01 7.513783e+01 6.710115e+01 8.077698e+01 5.522289e+01 2.417260e+01 9.059272e-01 1.572697e+00 5.569422e+00 2.645517e+00 4.410254e+00 3.689871e+00 3.850572e+00 5.411828e+00 5.320897e+00 3.805488e+00 6.863182e+00 2.913538e+00 9.646453e-01 1.774949e-01 2.655286e-01 5.495149e-01 4.054401e-01 1.084958e+00 6.720856e-01 9.965258e-01 8.464136e-01 7.554130e-01 6.716282e-01 1.178255e+00 5.792528e-01 1.655369e-01
<GCONST> 1.290496e+02
<TRANSP> 5
 0.000000e+00 1.000000e+00 0.000000e+00 0.000000e+00 0.000000e+00
 0.000000e+00 6.328214e-01 3.671786e-01 0.000000e+00 0.000000e+00
 0.000000e+00 0.000000e+00 4.044293e-01 5.955707e-01 0.000000e+00
 0.000000e+00 0.000000e+00 0.000000e+00 3.379715e-01 6.620286e-01
 0.000000e+00 0.000000e+00 0.000000e+00 0.000000e+00 0.000000e+00
<ENDHMM>
~h "h"
<BEGINHMM>
<NUMSTATES> 5
<STATE> 2
<MEAN> 39
 -1.941994e-01 -5.244238e+00 2.241099e+00 -3.362225e+00 -2.912061e+00 -2.095216e+00 -4.427871e+00 3.511224e+00 -2.815217e+00 -1.370834e+00 -3.878966e+00 -6.285667e+00 6.568216e+01 -2.744513e-01 1.668359e-01 -1.119197e-01 5.831435e-01 6.406555e-01 1.778141e-01 6.512550e-01 -1.596617e-01 9.933605e-02 -2.380485e-01 -3.316743e-01 3.267474e-01 -4.433730e-01 4.743467e-02 -5.490704e-02 -3.631805e-03 -6.984292e-02 -2.183396e-01 -4.615924e-02 -2.042890e-01 -5.953591e-02 -2.323647e-02 1.560906e-02 1.848939e-01 -7.806497e-02 -1.205093e-02
<VARIANCE> 39
 1.229164e+01 3.847023e+01 5.125321e+01 4.710087e+01 6.413035e+01 9.233702e+01 6.474345e+01 6.549072e+01 7.407182e+01 5.052770e+01 5.553297e+01 4.355865e+01 3.368420e+01 8.161247e-01 1.610449e+00 1.856782e+00 1.858723e+00 2.342641e+00 2.536133e+00 2.286833e+00 2.719697e+00 2.485814e+00 1.813735e+00 2.063558e+00 1.706502e+00 1.073510e+00 1.033961e-01 2.938924e-01 2.587488e-01 3.226454e-01 4.028980e-01 4.211812e-01 4.440488e-01 4.432679e-01 4.201023e-01 3.358212e-01 3.843956e-01 3.451284e-01 1.302555e-01
<GCONST> 1.147643e+02
<STATE> 3
<MEAN> 39
 -1.362903e+00 -5.580536e+00 -4.018452e-01 -5.675258e-01 5.831514e-01 -1.987641e+00 -1.434841e+00 1.742599e+00 -1.444407e+00 -1.892483e+00 -5.672274e+00 -4.934709e+00 6.355964e+01 7.966049e-02 2.319919e-01 -1.504942e-01 2.917210e-01 -2.101493e-01 1.389824e-02 -4.529959e-02 -1.403041e-01 -6.764185e-02 3.826391e-02 1.205364e-01 2.510298e-02 -5.501782e-01 9.416088e-02 2.670068e-02 2.261347e-03 -7.603426e-02 -1.838362e-01 -2.400510e-02 -1.433913e-01 1.046932e-02 -5.452067e-02 2.854275e-02 7.530195e-02 -6.588162e-02 2.586685e-02
<VARIANCE> 39
 2.051558e+01 2.984982e+01 4.075977e+01 2.853769e+01 4.975220e+01 5.082000e+01 7.023820e+01 5.164317e+01 6.703597e+01 4.585768e+01 5.225483e+01 2.937832e+01 2.778768e+01 6.319223e-01 1.031732e+00 1.343363e+00 1.362114e+00 1.651774e+00 2.059176e+00 1.913223e+00 2.093662e+00 1.989116e+00 1.971552e+00 1.808963e+00 1.562268e+00 8.114330e-01 1.022567e-01 1.839367e-01 2.071457e-01 2.451425e-01 3.185604e-01 3.507816e-01 3.945954e-01 3.991972e-01 3.894057e-01 3.456099e-01 3.481199e-01 3.005670e-01 7.495827e-02
<GCONST> 1.070145e+02
<STATE> 4
<MEAN> 39
 -3.259656e-01 -1.881118e-01 7.027911e-01 2.211217e+00 -4.324711e+00 -1.430341e+00 -3.006002e+00 7.545833e-01 -5.849854e+00 -3.679050e-01 -2.278122e+00 -2.838915e+00 5.705006e+01 1.371116e-01 3.314705e-01 -3.345931e-01 2.900093e-01 -2.745716e-01 1.410682e-01 -1.221313e-01 -2.831513e-02 -9.889809e-03 -1.561795e-01 1.832328e-01 8.922175e-03 -4.612766e-01 -3.588937e-02 -7.667559e-02 7.675578e-02 -1.293018e-01 -8.807061e-04 -2.191362e-02 -6.218486e-02 4.478375e-02 4.794556e-02 -8.697465e-03 5.231588e-02 -5.537114e-02 1.621799e-01
<VARIANCE> 39
 1.167086e+01 2.824598e+01 5.180072e+01 3.204755e+01 4.734109e+01 5.226103e+01 4.314013e+01 3.982869e+01 4.450988e+01 3.536580e+01 3.428934e+01 2.974976e+01 3.057057e+01 6.799445e-01 1.284347e+00 1.646786e+00 1.779018e+00 2.064405e+00 2.281815e+00 2.399432e+00 2.521210e+00 2.371049e+00 2.081539e+00 2.094470e+00 2.023561e+00 8.506332e-01 8.957506e-02 1.837832e-01 2.599352e-01 3.062924e-01 3.550752e-01 3.960077e-01 4.208888e-01 4.630977e-01 4.298749e-01 3.966977e-01 3.949215e-01 3.517977e-01 1.122012e-01
<GCONST> 1.088655e+02
<TRANSP> 5
 0.000000e+00 1.000000e+00 0.000000e+00 0.000000e+00 0.000000e+00
 0.000000e+00 4.964317e-01 5.035683e-01 0.000000e+00 0.000000e+00
 0.000000e+00 0.000000e+00 6.896699e-01 3.103301e-01 0.000000e+00
 0.000000e+00 0.000000e+00 0.000000e+00 6.316211e-01 3.683788e-01
 0.000000e+00 0.000000e+00 0.000000e+00 0.000000e+00 0.000000e+00
<ENDHMM>
~h "i"
<BEGINHMM>
<NUMSTATES> 5
<STATE> 2
<MEAN> 39
 -1.761563e+00 -9.558595e-01 1.690486e+01 -1.375148e+00 -1.506675e+01 -8.381982e+00 -1.141296e+01 -1.148058e+00 -1.056884e+01 -3.187122e+00 6.072484e+00 -6.468209e+00 6.511392e+01 -9.296788e-02 -5.013496e-01 2.588920e+00 -1.074877e+00 -2.242984e+00 -3.412817e-01 -1.488392e+00 4.956200e-01 -1.128029e+00 -2.931585e-01 1.860974e+00 -5.998666e-01 1.166465e+00 1.316900e-02 3.175959e-01 -9.561049e-01 1.733439e-01 6.876772e-01 4.823206e-01 4.021890e-01 2.928939e-02 3.956077e-01 2.562761e-01 -5.480366e-01 3.785607e-02 -4.614059e-01
<VARIANCE> 39
 1.123647e+01 3.134476e+01 4.531831e+01 4.195481e+01 4.455243e+01 5.437222e+01 5.604790e+01 6.062723e+01 5.449525e+01 5.787646e+01 4.674997e+01 3.203079e+01 1.647898e+01 2.260835e+00 2.073469e+00 4.722965e+00 3.767761e+00 4.122112e+00 4.218851e+00 5.129445e+00 5.047297e+00 5.229800e+00 4.590158e+00 3.945898e+00 2.854750e+00 1.407160e+00 3.124246e-01 3.375118e-01 8.969504e-01 6.565104e-01 8.312482e-01 7.198993e-01 8.195440e-01 8.636928e-01 8.065600e-01 6.783441e-01 7.121391e-01 5.145899e-01 2.781184e-01
<GCONST> 1.291356e+02
<STATE> 3
<MEAN> 39
 -2.909443e+00 -1.012906e+00 2.012918e+01 -3.720547e+00 -1.833877e+01 -7.331889e+00 -1.332896e+01 -2.025385e-02 -1.146116e+01 -3.874634e+00 9.173800e+00 -8.702971e+00 6.665089e+01 1.945627e-01 1.838737e-01 -6.355565e-01 1.455532e-01 4.614599e-01 1.191167e-01 2.799756e-01 1.747766e-01 1.516043e-01 3.806202e-01 -4.878957e-01 7.422211e-02 -3.204374e-01 1.461496e-01 1.712496e-01 -7.740145e-01 3.913972e-01 6.602947e-01 1.626676e-01 4.203660e-01 -1.208925e-01 2.518745e-01 1.126126e-01 -6.037700e-01 1.697636e-01 -4.238577e-01
<VARIANCE> 39
 8.017573e+00 3.084691e+01 3.516682e+01 3.886469e+01 3.770471e+01 5.454210e+01 5.575059e+01 7.020436e+01 5.870560e+01 6.539377e+01 4.619622e+01 3.499506e+01 1.111671e+01 7.831413e-01 1.562018e+00 2.700622e+00 2.313022e+00 2.460451e+00 2.812942e+00 2.770845e+00 3.286394e+00 2.651067e+00 2.191896e+00 2.317721e+00 1.974587e+00 1.027246e+00 1.526762e-01 2.436803e-01 5.545958e-01 4.093308e-01 5.484353e-01 5.747842e-01 6.250591e-01 6.904283e-01 6.205604e-01 5.330440e-01 5.501646e-01 4.062206e-01 1.801735e-01
<GCONST> 1.167559e+02
<STATE> 4
<MEAN> 39
 -7.651113e-01 2.394499e+00 1.319697e+01 -7.668341e-01 -1.121964e+01 -4.011835e+00 -9.690786e+00 -2.051530e+00 -1.053713e+01 -1.946298e-01 1.703027e+00 -5.235855e+00 6.001989e+01 2.867036e-01 4.971397e-01 -1.573144e+00 8.699924e-01 9.731523e-01 6.761697e-01 7.807211e-01 -1.541113e-01 4.001324e-01 1.366356e-01 -8.916256e-01 2.901312e-01 -1.108209e+00 -9.237229e-02 -5.057895e-02 -2.736733e-02 -4.183118e-02 -3.696042e-02 4.354310e-02 2.006908e-02 -4.316782e-02 5.927185e-02 -5.974404e-02 6.091269e-02 -2.391113e-02 5.896374e-02
<VARIANCE> 39
 9.213382e+00 2.918821e+01 4.369058e+01 4.364775e+01 4.008105e+01 5.741082e+01 4.698077e+01 5.306646e+01 4.750332e+01 4.887560e+01 4.276854e+01 3.188028e+01 2.542576e+01 7.652551e-01 1.348384e+00 2.353714e+00 2.149262e+00 2.577863e+00 2.774536e+00 2.931703e+00 3.013715e+00 3.034358e+00 2.617231e+00 2.619745e+00 2.073067e+00 1.130381e+00 1.108865e-01 1.969065e-01 3.974293e-01 3.607386e-01 4.442433e-01 5.184240e-01 4.952109e-01 4.990548e-01 4.836392e-01 4.222710e-01 3.928111e-01 3.401327e-01 1.527406e-01
<GCONST> 1.141633e+02
<TRANSP> 5
 0.000000e+00 1.000000e+00 0.000000e+00 0.000000e+00 0.000000e+00
 0.000000e+00 4.598663e-01 5.401337e-01 0.000000e+00 0.000000e+00
 0.000000e+00 0.000000e+00 6.674758e-01 3.325242e-01 0.000000e+00
 0.000000e+00 0.000000e+00 0.000000e+00 7.037296e-01 2.962705e-01
 0.000000e+00 0.000000e+00 0.000000e+00 0.000000e+00 0.000000e+00
<ENDHMM>
~h "j"
<BEGINHMM>
<NUMSTATES> 5
<STATE> 2
<MEAN> 39
 1.692222e+00 6.469109e+00 5.418724e+00 4.708415e+00 -3.920553e+00 -1.326171e+00 -6.117871e+00 6.064519e-01 -4.356040e+00 -2.030165e+00 -2.675436e+00 -3.461903e+00 5.604327e+01 -1.310532e+00 3.605077e-01 8.296969e-01 -9.362381e-01 9.075844e-01 -7.806773e-01 1.493429e-01 -6.821684e-01 1.641742e-02 -4.386578e-01 4.007337e-01 4.682816e-01 6.144876e-01 -4.435194e-01 -4.804223e-01 7.798498e-01 -5.994076e-01 -4.540655e-01 -7.612021e-01 -6.085411e-01 -1.122699e-01 -2.294293e-01 -9.166318e-02 4.851374e-01 1.816023e-01 8.262888e-01
<VARIANCE> 39
 1.385897e+01 2.474496e+01 2.826973e+01 2.593662e+01 3.917744e+01 3.285405e+01 3.382938e+01 3.884239e+01 2.803114e+01 2.413843e+01 2.537560e+01 2.417556e+01 1.640628e+01 2.436913e+00 2.022479e+00 3.807123e+00 3.289382e+00 3.494668e+00 4.802075e+00 3.222564e+00 3.414975e+00 2.656265e+00 2.733462e+00 2.335327e+00 2.090302e+00 2.039571e+00 3.706495e-01 3.403802e-01 3.876428e-01 4.905144e-01 8.786030e-01 6.278394e-01 6.447603e-01 5.956562e-01 5.296206e-01 5.777431e-01 4.751866e-01 4.154606e-01 1.841914e-01
<GCONST> 1.180286e+02
<STATE> 3
<MEAN> 39
 -5.547508e+00 5.977914e+00 1.304104e+01 -1.219857e+00 -4.107958e+00 -7.429900e+00 -7.557462e+00 -3.673392e+00 -6.113356e+00 -4.582023e+00 9.620709e-01 -8.932614e-01 6.240311e+01 -3.455684e-01 -1.552361e+00 2.580530e+00 -8.982790e-01 -2.596296e+00 -2.234424e+00 -2.403577e+00 2.055368e-01 -8.446020e-01 -1.062163e-01 1.742511e+00 4.341310e-01 2.228655e+00 8.736585e-01 -5.579407e-01 -5.738344e-01 2.660657e-01 -5.855773e-01 2.801799e-01 -5.502586e-01 7.198551e-01 6.698819e-02 5.050945e-01 4.118192e-02 -3.826256e-01 -7.084261e-02
<VARIANCE> 39
 1.932214e+01 3.257487e+01 4.427311e+01 2.882561e+01 5.334975e+01 5.049787e+01 5.220591e+01 3.857406e+01 3.141555e+01 3.222752e+01 2.733964e+01 2.419848e+01 1.473736e+01 3.009483e+00 2.788168e+00 3.234993e+00 3.779151e+00 4.300560e+00 4.093718e+00 4.202110e+00 4.661017e+00 3.433858e+00 3.575378e+00 3.120787e+00 2.635949e+00 1.351833e+00 3.474321e-01 5.196621e-01 7.379733e-01 6.046324e-01 1.208827e+00 1.003741e+00 8.078972e-01 7.404056e-01 6.999893e-01 6.216087e-01 6.998914e-01 5.913811e-01 2.143019e-01
<GCONST> 1.261818e+02
<STATE> 4
<MEAN> 39
 -1.504287e+00 -2.379853e+00 1.577892e+01 -2.620265e+00 -1.320415e+01 -1.204074e+01 -1.679169e+01 3.783478e+00 -6.688200e+00 -2.114342e+00 5.123510e+00 -1.990313e+00 6.768541e+01 9.137895e-01 -1.742837e+00 -1.066271e+00 -7.556647e-01 -6.887515e-01 -1.129029e-01 -1.407652e+00 1.649306e+00 6.092440e-01 1.183475e+00 3.251345e-01 -1.155039e+00 9.932560e-01 1.104887e-01 5.153114e-01 -9.495603e-01 1.055942e-01 1.047986e+00 8.651415e-01 8.368869e-01 -2.521206e-01 1.921860e-01 1.047940e-01 -6.179662e-01 -3.314768e-01 -6.503928e-01
<VARIANCE> 39
 6.126095e+00 2.417092e+01 3.431814e+01 3.856152e+01 3.145862e+01 2.631171e+01 5.583751e+01 6.234161e+01 4.688544e+01 6.528529e+01 3.677861e+01 2.927222e+01 1.701341e+01 8.602051e-01 2.096455e+00 3.412549e+00 2.080790e+00 4.750469e+00 3.223939e+00 5.277428e+00 4.070884e+00 3.824525e+00 3.350149e+00 4.460184e+00 2.979547e+00 1.126252e+00 2.139461e-01 2.391265e-01 6.266553e-01 5.775084e-01 5.310411e-01 6.114573e-01 6.624931e-01 7.437150e-01 6.704514e-01 6.777321e-01 6.419187e-01 4.948441e-01 1.568152e-01
<GCONST> 1.205708e+02
<TRANSP> 5
 0.000000e+00 1.000000e+00 0.000000e+00 0.000000e+00 0.000000e+00
 0.000000e+00 6.720134e-01 3.279866e-01 0.000000e+00 0.000000e+00
 0.000000e+00 0.000000e+00 5.778062e-01 4.221939e-01 0.000000e+00
 0.000000e+00 0.000000e+00 0.000000e+00 6.030676e-01 3.969324e-01
 0.000000e+00 0.000000e+00 0.000000e+00 0.000000e+00 0.000000e+00
<ENDHMM>
~h "k"
<BEGINHMM>
<NUMSTATES> 5
<STATE> 2
<MEAN> 39
 6.293740e-01 2.459506e+00 -3.535897e+00 1.708096e+00 -4.741274e+00 1.208302e+00 -4.963562e+00 -1.288151e-01 -4.862144e+00 -9.541132e-02 -1.186308e+00 -3.753943e+00 5.375424e+01 -5.694172e-01 -3.932213e-01 -7.927480e-01 -1.812847e-01 1.160014e+00 -4.238832e-01 -1.134727e-01 -1.714703e-02 3.461803e-01 1.437909e-01 -1.588758e-01 1.469659e-01 2.487615e-01 -2.673846e-02 -4.370928e-01 1.695105e-01 -5.780038e-01 2.679772e-01 -3.370284e-01 -2.686716e-01 -4.478659e-02 -2.884047e-02 2.318308e-01 8.893438e-02 -1.947169e-01 7.862768e-01
<VARIANCE> 39
 8.684014e+00 2.118094e+01 3.277232e+01 2.858994e+01 3.428010e+01 3.961355e+01 3.040562e+01 3.266004e+01 3.057838e+01 2.685224e+01 2.623085e+01 2.604695e+01 1.534973e+01 1.153427e+00 2.749263e+00 2.826696e+00 3.108339e+00 4.842068e+00 3.850808e+00 3.411847e+00 3.661595e+00 3.443701e+00 3.133167e+00 2.624052e+00 2.488421e+00 2.296728e+00 2.138276e-01 3.419721e-01 4.548825e-01 4.783675e-01 7.160440e-01 6.224740e-01 5.575578e-01 6.129689e-01 6.217070e-01 5.438091e-01 4.712797e-01 4.744312e-01 2.336536e-01
<GCONST> 1.176233e+02
<STATE> 3
<MEAN> 39
 -2.810461e+00 -1.945113e+00 -5.654308e+00 -8.529168e-01 2.953015e+00 -2.371722e+00 -6.391999e+00 -9.678488e-01 -3.228288e+00 2.268521e+00 -1.527088e+00 -4.024609e+00 5.878378e+01 7.309932e-02 -8.493962e-01 3.383707e-01 -1.591510e+00 2.654487e-01 -9.957681e-01 -5.941746e-01 -2.772102e-02 -5.205014e-02 4.931059e-01 2.009266e-01 -6.682781e-01 1.882739e+00 5.900311e-01 2.157067e-02 7.038901e-01 -3.593250e-01 -1.211749e+00 2.382042e-01 -1.329412e-01 2.056811e-01 -2.975115e-01 -1.432897e-01 2.474471e-01 -3.368123e-01 2.739545e-01
<VARIANCE> 39
 2.183192e+01 3.058450e+01 5.507005e+01 4.044867e+01 6.334848e+01 6.851469e+01 6.076484e+01 5.856844e+01 4.540711e+01 4.224528e+01 4.070336e+01 3.371746e+01 2.331497e+01 2.272537e+00 3.451571e+00 4.555059e+00 4.408867e+00 6.538936e+00 4.885029e+00 4.305760e+00 4.854165e+00 4.765672e+00 3.617488e+00 3.219824e+00 3.535246e+00 2.822106e+00 3.626860e-01 6.292613e-01 6.908920e-01 7.356597e-01 1.131503e+00 9.177184e-01 1.116315e+00 1.197625e+00 1.055936e+00 8.898219e-01 7.868212e-01 7.369296e-01 3.411088e-01
<GCONST> 1.347464e+02
<STATE> 4
<MEAN> 39
 6.860036e-01 -8.497071e-01 -2.810500e+00 -4.195451e+00 -2.966652e+00 -2.989641e+00 -6.960781e+00 -2.474335e-01 -5.233954e+00 1.737083e+00 -5.265639e-01 -6.249564e+00 6.083612e+01 1.234378e+00 -8.015172e-01 1.517635e+00 -1.922171e+00 -2.150129e+00 -1.059433e-02 -9.479458e-01 4.053355e-01 -5.822215e-01 -1.243539e-02 7.616553e-01 -1.067777e+00 1.986371e+00 1.066932e-01 -8.467534e-02 1.863577e-01 1.990739e-01 -3.429057e-01 3.896919e-01 -6.033460e-02 7.767034e-02 2.618096e-02 -1.550839e-01 8.186270e-02 1.651471e-02 -1.105543e-01
<VARIANCE> 39
 2.133964e+01 3.630573e+01 5.418897e+01 5.131050e+01 4.486110e+01 6.265563e+01 4.642113e+01 4.278644e+01 4.550321e+01 3.886255e+01 3.704815e+01 3.531387e+01 3.002286e+01 2.363652e+00 3.978663e+00 4.604876e+00 5.611526e+00 6.471720e+00 5.077028e+00 6.050699e+00 6.664603e+00 6.431863e+00 4.871835e+00 4.822752e+00 4.771329e+00 2.393555e+00 2.958713e-01 4.496007e-01 5.356326e-01 6.364037e-01 7.821959e-01 7.488176e-01 7.339959e-01 7.620609e-01 7.582803e-01 7.161497e-01 5.824030e-01 5.222604e-01 3.876618e-01
<GCONST> 1.330296e+02
<TRANSP> 5
 0.000000e+00 1.000000e+00 0.000000e+00 0.000000e+00 0.000000e+00
 0.000000e+00 5.992741e-01 4.007259e-01 0.000000e+00 0.000000e+00
 0.000000e+00 0.000000e+00 4.403493e-01 5.596507e-01 0.000000e+00
 0.000000e+00 0.000000e+00 0.000000e+00 1.668870e-01 8.331130e-01
 0.000000e+00 0.000000e+00 0.000000e+00 0.000000e+00 0.000000e+00
<ENDHMM>
~h "l"
<BEGINHMM>
<NUMSTATES> 5
<STATE> 2
<MEAN> 39
 3.148612e+00 -3.245093e+00 3.183822e+00 -6.149916e+00 -6.296010e+00 -2.497985e+00 -1.593937e+01 -6.244668e+00 -8.447425e-01 5.116024e+00 2.503857e+00 -9.341071e+00 6.553949e+01 9.745935e-02 -6.277390e-02 6.009526e-02 -3.049256e-01 -8.552110e-03 3.138692e-01 -6.763710e-01 -3.626743e-01 2.733029e-01 5.219378e-01 2.330793e-01 -5.193062e-01 8.195708e-02 -1.296512e-01 -1.810344e-01 -8.658263e-02 -1.601783e-01 -5.479443e-02 1.551852e-01 3.894015e-01 5.890540e-01 3.383451e-02 -3.995190e-01 -1.393358e-01 -1.471110e-02 1.199210e-01
<VARIANCE> 39
 1.014817e+01 3.683085e+01 6.707473e+01 6.078815e+01 5.164182e+01 6.199691e+01 8.864736e+01 9.735634e+01 8.614403e+01 4.763251e+01 5.961001e+01 6.420277e+01 2.057390e+01 4.384066e-01 1.391652e+00 2.069681e+00 2.942739e+00 2.209868e+00 3.371779e+00 3.712011e+00 4.190033e+00 3.341545e+00 3.132928e+00 2.922999e+00 2.463926e+00 9.616193e-01 9.510811e-02 2.627370e-01 3.090100e-01 5.033357e-01 4.963219e-01 5.995900e-01 7.777090e-01 7.232870e-01 6.195062e-01 5.498002e-01 6.989592e-01 4.920389e-01 1.213648e-01
<GCONST> 1.213999e+02
<STATE> 3
<MEAN> 39
 2.788537e+00 -5.251964e+00 3.814961e+00 -8.531505e+00 -7.499370e+00 -1.462967e+00 -1.672941e+01 -3.457119e+00 3.190350e-01 5.997106e+00 2.944784e+00 -1.244314e+01 6.701060e+01 -1.792568e-01 -6.683136e-01 -2.405970e-01 -5.651528e-01 -1.472868e-02 4.508805e-01 5.517048e-01 1.216876e+00 4.116237e-01 -5.879815e-01 -6.115587e-01 -3.488148e-01 4.614673e-01 -8.806552e-02 -1.064165e-01 -9.251761e-02 7.939156e-02 6.111251e-02 2.237796e-02 4.581675e-01 4.200070e-01 -1.620374e-01 -4.885553e-01 -2.496312e-01 2.461179e-01 4.199255e-02
<VARIANCE> 39
 8.877519e+00 3.503378e+01 6.853747e+01 5.789127e+01 5.043646e+01 5.386905e+01 8.536065e+01 7.409743e+01 8.545587e+01 4.539889e+01 5.189777e+01 6.872490e+01 1.950204e+01 4.423125e-01 1.609085e+00 2.294047e+00 2.431863e+00 2.106723e+00 3.137255e+00 3.570509e+00 3.720333e+00 3.461237e+00 2.883823e+00 3.600336e+00 2.246540e+00 8.698338e-01 6.571850e-02 2.318061e-01 2.572151e-01 4.315007e-01 3.529996e-01 5.195745e-01 5.679500e-01 5.818384e-01 5.222849e-01 5.022362e-01 5.999193e-01 4.131463e-01 1.065167e-01
<GCONST> 1.177230e+02
<STATE> 4
<MEAN> 39
 2.271635e+00 -6.389649e+00 2.287500e+00 -8.509233e+00 -7.241766e+00 -4.190577e-01 -1.375266e+01 -6.279599e-01 1.157770e+00 2.589779e+00 7.166815e-01 -1.175470e+01 6.780871e+01 -1.694996e-01 -3.305816e-01 -1.281327e-01 4.757268e-02 1.529149e-01 4.752263e-01 1.061249e+00 1.054971e+00 -6.082894e-01 -1.008302e+00 -5.142371e-01 2.626174e-01 1.072400e-01 3.082262e-03 2.637623e-01 1.521075e-01 2.476687e-01 2.276798e-02 -1.051811e-01 7.037506e-02 -2.428919e-01 -4.656329e-01 1.044560e-02 1.402517e-01 2.375516e-01 -2.131762e-01
<VARIANCE> 39
 1.172707e+01 3.645213e+01 6.105274e+01 6.421367e+01 4.631573e+01 6.292683e+01 7.229970e+01 7.755515e+01 9.514984e+01 5.251531e+01 5.424327e+01 6.539230e+01 2.303033e+01 5.786613e-01 1.950917e+00 2.450503e+00 2.898242e+00 2.628501e+00 3.938958e+00 3.877954e+00 4.576288e+00 4.386956e+00 3.323046e+00 4.451456e+00 2.361282e+00 1.246696e+00 8.812316e-02 2.300984e-01 3.967850e-01 4.336854e-01 4.283212e-01 5.386067e-01 5.637053e-01 7.177873e-01 6.812149e-01 5.158840e-01 5.817235e-01 4.291275e-01 1.448386e-01
<GCONST> 1.225980e+02
<TRANSP> 5
 0.000000e+00 1.000000e+00 0.000000e+00 0.000000e+00 0.000000e+00
 0.000000e+00 4.123163e-01 5.876837e-01 0.000000e+00 0.000000e+00
 0.000000e+00 0.000000e+00 3.648066e-01 6.351934e-01 0.000000e+00
 0.000000e+00 0.000000e+00 0.000000e+00 3.227053e-01 6.772947e-01
 0.000000e+00 0.000000e+00 0.000000e+00 0.000000e+00 0.000000e+00
<ENDHMM>
~h "m"
<BEGINHMM>
<NUMSTATES> 5
<STATE> 2
<MEAN> 39
 4.685708e+00 -1.226614e+00 3.447527e+00 8.064252e-01 -7.234488e+00 6.070640e+00 -6.285342e+00 -6.643675e+00 -1.155461e+01 4.265623e-01 -5.072176e-01 -8.158334e+00 6.140080e+01 2.800846e-03 3.255079e-01 9.929341e-01 1.180856e+00 1.634703e-03 9.462773e-01 5.131578e-01 -1.311139e+00 -1.441684e+00 -5.750399e-01 -8.373525e-01 -1.700009e-01 -3.945197e-01 -7.989338e-02 -2.772550e-01 -1.887576e-01 -4.833651e-01 3.454094e-02 -3.009543e-01 -2.819136e-01 4.959316e-01 5.471892e-01 6.624276e-05 9.481309e-02 -5.710921e-02 2.928664e-01
<VARIANCE> 39
 7.073287e+00 2.907453e+01 3.123305e+01 3.463445e+01 5.223769e+01 4.149201e+01 4.459787e+01 3.576724e+01 4.177419e+01 3.404672e+01 4.154543e+01 4.082922e+01 1.857828e+01 5.080686e-01 1.303690e+00 1.994454e+00 1.969430e+00 2.182622e+00 2.380451e+00 2.479666e+00 2.577593e+00 4.071510e+00 2.234011e+00 2.913739e+00 2.085724e+00 9.430385e-01 9.181958e-02 1.492745e-01 2.636031e-01 2.896242e-01 3.661346e-01 3.724094e-01 4.120976e-01 4.113237e-01 5.141423e-01 4.286897e-01 5.085571e-01 3.585979e-01 8.578745e-02
<GCONST> 1.087769e+02
<STATE> 3
<MEAN> 39
 4.137949e+00 -1.801071e+00 6.499559e+00 5.526344e-01 -8.426285e+00 7.699625e+00 -6.597305e+00 -7.943374e+00 -1.384848e+01 -1.378260e+00 -1.150187e+00 -9.433187e+00 6.215467e+01 1.607509e-01 -1.027042e-01 -2.999269e-01 -3.965193e-01 -2.836327e-01 -2.240084e-01 -2.077593e-01 2.239896e-01 4.943565e-01 1.140783e-01 3.377120e-01 3.057497e-02 1.589800e-01 4.991958e-02 -1.519670e-01 -4.754110e-01 -4.397246e-01 -6.196249e-02 -3.182931e-01 -1.502886e-01 5.432119e-01 6.999503e-01 2.264003e-01 2.367222e-01 -1.032629e-02 1.545472e-01
<VARIANCE> 39
 5.620778e+00 2.628675e+01 3.659017e+01 3.135007e+01 5.616963e+01 4.504067e+01 3.951610e+01 4.046891e+01 5.560945e+01 3.472569e+01 4.701420e+01 4.438798e+01 1.531618e+01 3.446489e-01 9.884040e-01 1.482273e+00 1.589319e+00 1.509054e+00 1.964674e+00 1.748905e+00 1.823682e+00 2.691244e+00 1.760720e+00 2.089000e+00 1.743179e+00 6.628600e-01 6.824729e-02 1.729966e-01 2.619905e-01 2.979156e-01 3.160336e-01 3.975012e-01 3.449390e-01 4.474689e-01 6.761991e-01 4.031156e-01 4.732001e-01 3.934565e-01 8.172093e-02
<GCONST> 1.049149e+02
<STATE> 4
<MEAN> 39
 5.691399e+00 -2.335509e+00 7.932698e-01 -2.738874e+00 -8.415098e+00 5.560622e+00 -7.586884e+00 -4.460111e+00 -8.278933e+00 7.132825e-01 6.396551e-01 -8.236482e+00 6.288263e+01 6.855176e-02 -9.633424e-01 -1.163906e+00 -1.367504e+00 3.372630e-01 -3.390540e-01 -5.386401e-01 1.716357e+00 1.767940e+00 2.119124e-01 2.741743e-01 -5.109524e-01 7.568912e-01 -2.173959e-01 -1.184961e-01 2.416476e-01 9.940077e-02 2.410884e-01 -8.830506e-02 -3.050289e-02 1.943832e-01 -2.575633e-02 -1.458529e-01 -2.195780e-01 -4.340689e-02 4.870363e-02
<VARIANCE> 39
 6.871456e+00 3.982396e+01 3.884498e+01 4.894331e+01 8.223459e+01 4.417645e+01 5.319373e+01 4.380702e+01 4.300468e+01 3.743225e+01 4.100621e+01 4.456217e+01 2.274635e+01 5.616724e-01 1.992378e+00 2.664487e+00 2.930908e+00 3.527692e+00 3.234097e+00 3.110983e+00 3.077090e+00 5.463111e+00 3.020727e+00 3.247588e+00 3.181231e+00 1.034770e+00 9.250335e-02 2.001309e-01 3.599861e-01 5.133319e-01 5.658722e-01 4.702723e-01 4.680351e-01 5.550203e-01 6.378750e-01 4.394317e-01 5.285624e-01 4.126287e-01 1.181250e-01
<GCONST> 1.175634e+02
<TRANSP> 5
 0.000000e+00 1.000000e+00 0.000000e+00 0.000000e+00 0.000000e+00
 0.000000e+00 4.839323e-01 5.160676e-01 0.000000e+00 0.000000e+00
 0.000000e+00 0.000000e+00 6.222133e-01 3.777867e-01 0.000000e+00
 0.000000e+00 0.000000e+00 0.000000e+00 4.819486e-01 5.180514e-01
 0.000000e+00 0.000000e+00 0.000000e+00 0.000000e+00 0.000000e+00
<ENDHMM>
~h "n"
<BEGINHMM>
<NUMSTATES> 5
<STATE> 2
<MEAN> 39
 3.666898e+00 -2.788581e+00 6.889547e+00 3.322062e+00 -9.655169e+00 -1.343015e+00 -9.407699e+00 -2.948799e+00 -5.875437e+00 2.631660e+00 -5.129719e+00 -9.186469e+00 6.238781e+01 3.492987e-01 1.380940e+00 8.623483e-01 1.312535e+00 -5.372241e-01 9.303088e-01 3.759436e-01 -2.564019e+00 -9.656958e-01 9.768772e-01 -1.083678e+00 5.770787e-01 -1.182184e+00 -1.381859e-01 -2.823968e-01 -2.664732e-01 -4.972542e-01 1.390044e-01 -5.141228e-02 6.265678e-02 5.574147e-01 1.815263e-01 -2.902885e-01 3.182333e-01 -4.812118e-02 2.838019e-01
<VARIANCE> 39
 5.270548e+00 2.903545e+01 3.145480e+01 2.512108e+01 4.872162e+01 3.596417e+01 4.574318e+01 6.088654e+01 5.012504e+01 4.482344e+01 3.790292e+01 4.293111e+01 1.492414e+01 4.394890e-01 1.275631e+00 2.692463e+00 1.746487e+00 2.281241e+00 2.837002e+00 3.374254e+00 4.740499e+00 2.882180e+00 3.362171e+00 3.097127e+00 2.664753e+00 7.174512e-01 7.701008e-02 2.159980e-01 3.046684e-01 2.663599e-01 3.419501e-01 3.663394e-01 4.046801e-01 6.915037e-01 4.333178e-01 4.589805e-01 4.337419e-01 3.335444e-01 1.073154e-01
<GCONST> 1.105156e+02
<STATE> 3
<MEAN> 39
 4.285653e+00 -1.727863e+00 8.082989e+00 4.878064e+00 -1.202345e+01 4.524651e-01 -8.099568e+00 -6.579451e+00 -7.772358e+00 4.289787e+00 -5.731348e+00 -8.829423e+00 6.127050e+01 7.520438e-02 5.426730e-01 -2.274909e-01 3.042153e-01 1.144086e-01 3.081349e-01 3.885255e-01 -3.353119e-01 -1.811936e-01 -1.178249e-01 -1.448949e-01 2.196656e-01 -4.809176e-01 -1.647695e-01 -2.649142e-01 -3.255964e-01 -3.961814e-01 2.904138e-01 -2.357699e-01 -3.056494e-02 8.097907e-01 2.772264e-01 -4.708928e-01 3.506547e-01 -1.057488e-01 2.341357e-01
<VARIANCE> 39
 3.999612e+00 2.304553e+01 2.750139e+01 2.354052e+01 4.072897e+01 3.597860e+01 3.804471e+01 5.471610e+01 5.109991e+01 4.068021e+01 4.002989e+01 3.779571e+01 1.073269e+01 2.513482e-01 1.146689e+00 1.348634e+00 1.218018e+00 1.516263e+00 1.738703e+00 1.928084e+00 2.625174e+00 2.219272e+00 2.117047e+00 1.892917e+00 1.589069e+00 6.379601e-01 9.025361e-02 2.720657e-01 3.796362e-01 3.540412e-01 3.719837e-01 4.106218e-01 4.471515e-01 8.091183e-01 4.847221e-01 5.224469e-01 5.241436e-01 3.682234e-01 1.427095e-01
<GCONST> 1.054068e+02
<STATE> 4
<MEAN> 39
 3.275179e+00 1.306066e+00 4.706865e+00 5.085566e+00 -6.758726e+00 2.510119e-01 -7.352844e+00 -3.471278e+00 -5.798786e+00 4.893297e-01 -6.393143e+00 -6.810241e+00 5.852842e+01 -3.611878e-01 -3.698174e-02 -5.612580e-01 -5.016134e-01 4.977947e-01 2.781278e-03 2.138227e-01 9.637530e-01 2.683953e-01 -8.428955e-01 4.928257e-01 2.056826e-03 -9.927595e-02 -1.759569e-01 -3.014968e-01 1.999782e-02 -4.042242e-01 1.893725e-02 -9.009398e-02 -1.126822e-01 3.591123e-01 9.725784e-02 -1.035904e-01 2.478396e-01 -3.328843e-02 2.616282e-01
<VARIANCE> 39
 7.060592e+00 3.201950e+01 2.822489e+01 2.630020e+01 4.719462e+01 3.587975e+01 5.039107e+01 5.678939e+01 4.160127e+01 4.333751e+01 3.998655e+01 3.391589e+01 1.765586e+01 6.218308e-01 2.252627e+00 2.202103e+00 2.333249e+00 2.632431e+00 2.525147e+00 2.636600e+00 4.804598e+00 2.711067e+00 2.981307e+00 3.004124e+00 2.271210e+00 1.458104e+00 1.434193e-01 2.544399e-01 3.467679e-01 3.941896e-01 4.333822e-01 4.981298e-01 4.804544e-01 7.651293e-01 4.895668e-01 5.246802e-01 5.110575e-01 3.821445e-01 1.390437e-01
<GCONST> 1.146764e+02
<TRANSP> 5
 0.000000e+00 1.000000e+00 0.000000e+00 0.000000e+00 0.000000e+00
 0.000000e+00 2.923538e-01 7.076462e-01 0.000000e+00 0.000000e+00
 0.000000e+00 0.000000e+00 5.737374e-01 4.262626e-01 0.000000e+00
 0.000000e+00 0.000000e+00 0.000000e+00 5.521305e-01 4.478696e-01
 0.000000e+00 0.000000e+00 0.000000e+00 0.000000e+00 0.000000e+00
<ENDHMM>
~h "o"
<BEGINHMM>
<NUMSTATES> 5
<STATE> 2
<MEAN> 39
 4.273484e+00 -1.915341e+00 -3.582486e+00 -1.254414e+01 -7.257957e+00 4.272891e+00 -8.535311e+00 -1.991550e+00 -4.235699e+00 2.747088e+00 3.067635e+00 -5.968662e+00 6.492443e+01 8.175371e-01 -8.189735e-01 -5.566775e-02 -1.757831e+00 -5.971038e-01 1.083856e+00 -5.263277e-01 9.279786e-03 -2.365001e-01 6.107417e-01 7.327182e-01 -5.390282e-01 1.197299e+00 -3.149815e-01 2.671297e-01 2.138954e-01 8.392151e-01 2.303503e-01 -1.991508e-01 2.350653e-01 3.164517e-02 -6.161067e-02 -1.754053e-01 -3.024400e-01 1.009472e-01 -5.027643e-01
<VARIANCE> 39
 1.148345e+01 3.399418e+01 3.012474e+01 7.467926e+01 5.389242e+01 7.321079e+01 7.217178e+01 4.768493e+01 6.525948e+01 4.786717e+01 4.035735e+01 4.325434e+01 3.146586e+01 2.003407e+00 2.287286e+00 2.897056e+00 7.236937e+00 4.403270e+00 5.329478e+00 4.712760e+00 4.374249e+00 4.485558e+00 4.076488e+00 3.263506e+00 2.790613e+00 2.584005e+00 3.148945e-01 3.793709e-01 4.655725e-01 9.909379e-01 6.905209e-01 9.167305e-01 9.750276e-01 7.234095e-01 7.907557e-01 7.323338e-01 6.133011e-01 5.514101e-01 3.643927e-01
<GCONST> 1.312140e+02
<STATE> 3
<MEAN> 39
 4.940746e+00 -4.998602e+00 -3.033824e+00 -1.285286e+01 -9.606674e+00 6.480741e+00 -9.793831e+00 -2.191252e+00 -3.336885e+00 3.145633e+00 6.074151e+00 -9.605208e+00 6.704725e+01 2.486035e-02 2.552547e-01 8.583134e-03 8.987728e-01 3.436179e-01 -2.944780e-01 1.955063e-01 -2.066589e-02 -1.379607e-01 1.956876e-02 -4.308212e-01 -1.366570e-02 -4.436719e-01 -1.531781e-01 3.212449e-01 1.194202e-01 6.737677e-01 1.797514e-01 -3.187009e-01 1.351027e-01 -1.443216e-01 1.131773e-02 -1.281780e-01 -3.826887e-01 1.858903e-01 -3.888431e-01
<VARIANCE> 39
 6.984029e+00 2.818510e+01 2.367709e+01 6.145214e+01 4.564207e+01 6.411169e+01 5.691267e+01 6.270464e+01 6.672549e+01 5.227742e+01 4.888082e+01 4.929760e+01 1.384769e+01 4.780976e-01 1.522708e+00 1.391529e+00 3.579488e+00 2.206723e+00 3.222186e+00 2.979179e+00 2.557802e+00 2.993602e+00 2.701608e+00 2.622383e+00 2.172684e+00 1.102944e+00 1.196544e-01 2.077610e-01 2.940378e-01 4.464103e-01 5.001162e-01 6.089090e-01 5.387168e-01 6.123243e-01 5.856476e-01 5.414428e-01 4.914628e-01 4.511260e-01 1.295734e-01
<GCONST> 1.154636e+02
<STATE> 4
<MEAN> 39
 4.736089e+00 1.386161e+00 -3.439304e+00 -7.943237e+00 -5.801310e+00 3.257481e+00 -7.748809e+00 -1.147538e+00 -5.723371e+00 2.618250e+00 1.222720e-01 -4.294249e+00 6.019873e+01 -2.484312e-01 5.873830e-01 1.901716e-01 1.687300e+00 1.364722e-01 -2.757276e-01 3.868718e-01 -3.033409e-01 9.747399e-02 -3.092557e-01 -6.456069e-01 2.490091e-01 -9.559397e-01 -6.614769e-02 -7.258060e-02 8.369504e-02 -1.443849e-02 -3.227000e-02 1.031512e-02 -3.589690e-03 -2.216641e-03 -3.669480e-03 -1.626448e-02 4.388867e-02 -2.157665e-02 6.985759e-02
<VARIANCE> 39
 8.664018e+00 3.578468e+01 2.914077e+01 7.994537e+01 4.231033e+01 4.903666e+01 7.040175e+01 4.146756e+01 6.300716e+01 4.856024e+01 3.841402e+01 4.390691e+01 2.761889e+01 5.236619e-01 1.202286e+00 1.596282e+00 2.743810e+00 2.199832e+00 2.433792e+00 2.486666e+00 2.551731e+00 2.540639e+00 2.859139e+00 2.418387e+00 1.804684e+00 9.185405e-01 9.757408e-02 1.903574e-01 2.204639e-01 4.099974e-01 3.347638e-01 4.078500e-01 4.389970e-01 4.391812e-01 4.563235e-01 5.106707e-01 3.404662e-01 3.080143e-01 1.002960e-01
<GCONST> 1.114323e+02
<TRANSP> 5
 0.000000e+00 1.000000e+00 0.000000e+00 0.000000e+00 0.000000e+00
 0.000000e+00 5.660667e-01 4.339333e-01 0.000000e+00 0.000000e+00
 0.000000e+00 0.000000e+00 6.663805e-01 3.336196e-01 0.000000e+00
 0.000000e+00 0.000000e+00 0.000000e+00 6.709429e-01 3.290571e-01
 0.000000e+00 0.000000e+00 0.000000e+00 0.000000e+00 0.000000e+00
<ENDHMM>
~h "p"
<BEGINHMM>
<NUMSTATES> 5
<STATE> 2
<MEAN> 39
 1.489306e+00 2.943673e+00 -4.348033e+00 2.222118e+00 -3.860127e+00 2.571532e+00 -5.464668e+00 -3.784795e-01 -3.958102e+00 -4.749069e-01 -2.190621e+00 -4.785477e+00 5.340939e+01 -4.106072e-01 1.873101e-01 -2.083781e-01 3.360838e-01 1.750639e-01 -3.315708e-01 3.455276e-01 7.780879e-02 3.895506e-01 -1.216662e-01 -6.654507e-02 3.518915e-01 -4.210057e-01 5.488810e-02 -4.537091e-01 2.325464e-01 -4.519282e-01 -3.290287e-02 -2.108573e-01 -2.385356e-01 -1.441583e-01 5.924601e-02 8.809543e-02 2.084584e-01 -8.415872e-02 6.775031e-01
<VARIANCE> 39
 9.467929e+00 1.655393e+01 2.458185e+01 1.954156e+01 2.607273e+01 3.721854e+01 2.656032e+01 2.600369e+01 2.889447e+01 2.314880e+01 2.336018e+01 2.460605e+01 9.188148e+00 6.869758e-01 1.088386e+00 1.125569e+00 1.552844e+00 1.615317e+00 2.192430e+00 1.986100e+00 2.264028e+00 1.969260e+00 1.841573e+00 1.806412e+00 1.653792e+00 1.026120e+00 1.421083e-01 2.348780e-01 3.581587e-01 4.092968e-01 3.893592e-01 5.441417e-01 4.762895e-01 4.940126e-01 4.798358e-01 4.483426e-01 4.485521e-01 3.979421e-01 2.262877e-01
<GCONST> 1.037788e+02
<STATE> 3
<MEAN> 39
 -5.100647e-01 2.053390e+00 -2.802494e+00 1.982974e+00 -2.711689e+00 -1.496505e-01 -4.446332e+00 -1.127008e+00 -2.862901e+00 -8.494076e-01 -1.916745e+00 -3.162991e+00 5.460792e+01 4.392707e-01 -1.647314e+00 5.132899e-01 -1.845562e+00 -4.824153e-01 -9.092475e-01 -1.021892e+00 -6.851599e-01 2.736275e-01 3.505358e-01 8.802536e-01 -2.199576e-01 2.373302e+00 4.209689e-01 -5.348524e-01 2.841142e-01 -7.238286e-01 -5.413459e-01 1.075874e-01 -6.024926e-01 5.703832e-02 -2.280470e-01 2.013680e-01 3.593035e-01 -4.632154e-01 8.331461e-01
<VARIANCE> 39
 1.458966e+01 2.032537e+01 2.225834e+01 2.389331e+01 2.671587e+01 4.108429e+01 2.507080e+01 3.045178e+01 3.208727e+01 2.011552e+01 2.041853e+01 2.400559e+01 1.592722e+01 2.369817e+00 3.021321e+00 4.813271e+00 5.160143e+00 4.118503e+00 5.784824e+00 4.836488e+00 3.803168e+00 4.636621e+00 3.460787e+00 3.403965e+00 3.707841e+00 2.283568e+00 2.460530e-01 5.270798e-01 7.255800e-01 7.365891e-01 6.816627e-01 8.890885e-01 6.535936e-01 8.330995e-01 7.958437e-01 6.145205e-01 6.376060e-01 5.782067e-01 3.025301e-01
<GCONST> 1.234309e+02
<STATE> 4
<MEAN> 39
 2.832247e+00 -2.761279e+00 -3.158961e+00 -5.279994e+00 -5.236075e+00 -3.881211e-01 -7.968645e+00 -2.988898e+00 -3.384804e+00 1.023245e+00 1.529703e+00 -5.339481e+00 6.188706e+01 9.991011e-01 -2.281826e+00 7.244321e-01 -2.455663e+00 -1.203076e+00 -1.761153e-01 -1.603125e+00 9.122232e-02 -1.703533e-01 6.864902e-01 1.108422e+00 -1.315123e+00 3.117291e+00 -1.172712e-01 2.085604e-01 2.903911e-01 4.976468e-01 -5.984337e-02 6.533807e-02 -3.370901e-02 4.302439e-01 -1.045974e-01 -6.683365e-02 -2.786908e-01 -1.745743e-01 -3.133837e-01
<VARIANCE> 39
 2.154932e+01 3.191586e+01 3.362278e+01 6.254947e+01 3.268586e+01 7.688302e+01 4.366322e+01 3.230441e+01 4.525880e+01 3.092016e+01 2.958901e+01 3.032030e+01 2.505182e+01 1.969611e+00 4.343514e+00 7.401961e+00 6.693848e+00 5.598367e+00 7.579947e+00 5.509526e+00 5.776257e+00 6.085388e+00 4.896225e+00 5.045240e+00 5.010271e+00 2.544466e+00 3.724534e-01 4.378843e-01 4.874474e-01 9.933067e-01 6.557876e-01 8.901256e-01 7.104906e-01 7.015556e-01 7.516131e-01 6.343816e-01 7.614606e-01 6.023703e-01 3.696350e-01
<GCONST> 1.327340e+02
<TRANSP> 5
 0.000000e+00 1.000000e+00 0.000000e+00 0.000000e+00 0.000000e+00
 0.000000e+00 6.691515e-01 3.308485e-01 0.000000e+00 0.000000e+00
 0.000000e+00 0.000000e+00 4.299023e-01 5.700976e-01 0.000000e+00
 0.000000e+00 0.000000e+00 0.000000e+00 2.451267e-01 7.548732e-01
 0.000000e+00 0.000000e+00 0.000000e+00 0.000000e+00 0.000000e+00
<ENDHMM>
~h "r"
<BEGINHMM>
<NUMSTATES> 5
<STATE> 2
<MEAN> 39
 3.399613e+00 -4.062889e+00 -1.235927e+00 3.582665e+00 -5.645689e+00 -4.061731e+00 -1.094160e+01 -1.814409e+00 1.315531e+00 1.291278e+00 -1.010323e+00 -6.509301e+00 6.214560e+01 1.084574e-01 3.645265e-01 4.702950e-02 1.128084e+00 1.507633e-01 -2.651927e-01 8.462276e-03 -2.654317e-01 -6.957164e-02 -4.319658e-01 -4.123921e-01 7.665249e-01 -7.551261e-01 -8.198651e-02 -1.479910e-01 1.056640e-01 -6.351284e-01 -2.028925e-01 7.572385e-02 1.125185e-01 2.715501e-01 -3.069324e-01 2.520569e-02 2.697057e-01 -2.444480e-01 3.677882e-01
<VARIANCE> 39
 1.151439e+01 2.169331e+01 3.822600e+01 3.352438e+01 3.379351e+01 4.433199e+01 5.645663e+01 5.749518e+01 4.902539e+01 3.947140e+01 3.972357e+01 4.786010e+01 1.765862e+01 1.198619e+00 1.619071e+00 2.186044e+00 2.041325e+00 2.929402e+00 3.409575e+00 3.409825e+00 3.730212e+00 3.425505e+00 3.229600e+00 3.599841e+00 2.944035e+00 1.290179e+00 1.726983e-01 3.689359e-01 3.860565e-01 5.007681e-01 6.263617e-01 5.976138e-01 6.454628e-01 7.157413e-01 6.897985e-01 6.830397e-01 6.787851e-01 5.563182e-01 3.264118e-01
<GCONST> 1.207648e+02
<STATE> 3
<MEAN> 39
 3.279633e+00 -4.123505e+00 -9.421103e-01 4.116203e+00 -6.035784e+00 -5.201009e+00 -1.056683e+01 -1.807627e+00 5.612668e-01 2.864029e-01 -7.671193e-01 -5.320817e+00 6.214457e+01 3.935437e-02 -2.365073e-01 2.268654e-01 -1.898102e-01 -6.005054e-01 -1.779820e-01 2.282549e-01 4.839005e-01 -4.994739e-01 -3.776653e-01 3.090921e-01 -1.046541e-01 2.784783e-01 -8.721121e-02 -2.127328e-01 1.736620e-01 -7.484640e-01 -2.457330e-01 2.439312e-01 8.035846e-02 3.437969e-01 -3.312208e-01 1.552263e-01 3.300554e-01 -4.859622e-01 4.554999e-01
<VARIANCE> 39
 1.600043e+01 2.432062e+01 4.233225e+01 3.466237e+01 3.354907e+01 4.887461e+01 6.346162e+01 6.081185e+01 5.199242e+01 3.922170e+01 3.809706e+01 4.156109e+01 1.715160e+01 1.324625e+00 2.516915e+00 2.794924e+00 2.065201e+00 3.598751e+00 3.719740e+00 3.600828e+00 4.290033e+00 3.967548e+00 3.144156e+00 3.425606e+00 3.044174e+00 1.679865e+00 2.230250e-01 4.132068e-01 4.572415e-01 4.862462e-01 7.414082e-01 6.579768e-01 7.282602e-01 8.158880e-01 7.596037e-01 7.648099e-01 8.020762e-01 5.981063e-01 3.249776e-01
<GCONST> 1.245705e+02
<STATE> 4
<MEAN> 39
 3.167878e+00 -4.381853e+00 -1.067361e+00 2.991040e+00 -7.383810e+00 -4.475301e+00 -9.033132e+00 -1.096824e+00 4.027513e-02 5.074656e-02 1.837325e-02 -6.268759e+00 6.305459e+01 -1.227316e-01 -5.378370e-02 4.771526e-01 -8.073308e-01 -5.259916e-01 4.509555e-01 2.917087e-01 6.288282e-01 -7.994046e-01 -4.250878e-02 4.286156e-01 -5.508225e-01 3.396029e-01 -8.455009e-02 4.098943e-02 1.152771e-01 -2.700745e-01 8.917114e-02 1.941848e-01 -3.449847e-02 5.126001e-02 -1.853071e-01 1.363676e-01 2.160388e-02 -1.536900e-01 3.743135e-02
<VARIANCE> 39
 2.285536e+01 3.757620e+01 5.477242e+01 3.801408e+01 4.688417e+01 5.886946e+01 7.292538e+01 7.049302e+01 6.066463e+01 4.440863e+01 4.669647e+01 4.879810e+01 2.624528e+01 1.572052e+00 3.400908e+00 3.573503e+00 2.535161e+00 4.490718e+00 4.029233e+00 3.903104e+00 5.049659e+00 4.416051e+00 3.764389e+00 3.838623e+00 3.331025e+00 2.525200e+00 2.730173e-01 2.794270e-01 4.412705e-01 4.163901e-01 5.873001e-01 5.804943e-01 6.798680e-01 6.358125e-01 6.726978e-01 5.994118e-01 6.221662e-01 4.701250e-01 2.161570e-01
<GCONST> 1.276304e+02
<TRANSP> 5
 0.000000e+00 1.000000e+00 0.000000e+00 0.000000e+00 0.000000e+00
 0.000000e+00 3.239327e-01 6.760673e-01 0.000000e+00 0.000000e+00
 0.000000e+00 0.000000e+00 1.126647e-01 8.873352e-01 0.000000e+00
 0.000000e+00 0.000000e+00 0.000000e+00 3.423015e-01 6.576985e-01
 0.000000e+00 0.000000e+00 0.000000e+00 0.000000e+00 0.000000e+00
<ENDHMM>
~h "s"
<BEGINHMM>
<NUMSTATES> 5
<STATE> 2
<MEAN> 39
 -7.072503e+00 5.212724e+00 1.769647e+00 -8.883082e-01 2.325178e+00 -7.750319e+00 -1.653307e+00 -4.937813e-01 -1.265028e+00 -1.986857e+00 -1.669071e+00 -3.271929e+00 6.245525e+01 -3.513070e+00 2.445106e+00 -8.106344e-01 -7.094896e-01 2.054119e+00 -1.118624e+00 1.493285e+00 -3.580940e-01 5.783986e-01 -1.105692e+00 3.165657e-01 4.661810e-01 4.505598e-02 2.406372e-02 -3.972342e-01 -5.675979e-02 -1.928203e-01 -5.103973e-01 2.482816e-01 -5.337199e-01 1.466774e-01 -1.958492e-01 7.927626e-03 1.179603e-01 -2.820996e-01 1.496622e-01
<VARIANCE> 39
 3.626854e+01 3.202194e+01 4.155786e+01 2.605252e+01 4.321545e+01 5.580528e+01 5.195551e+01 4.882017e+01 4.502780e+01 3.488166e+01 3.185933e+01 2.975208e+01 2.336672e+01 1.610429e+00 2.485440e+00 3.036278e+00 2.688655e+00 3.361721e+00 3.554709e+00 4.693581e+00 4.290068e+00 3.542632e+00 3.364891e+00 2.679235e+00 2.647964e+00 9.975190e-01 7.165865e-01 5.031627e-01 3.690023e-01 4.767793e-01 5.853634e-01 5.927318e-01 6.988367e-01 6.536881e-01 5.495428e-01 5.954605e-01 4.653900e-01 4.840850e-01 1.088955e-01
<GCONST> 1.226936e+02
<STATE> 3
<MEAN> 39
 -1.611959e+01 8.562153e+00 1.773685e-02 -2.658636e+00 3.966950e+00 -8.897230e+00 -1.791954e+00 -2.729570e-01 -7.633367e-01 -4.967545e+00 -4.872325e-01 -2.733371e+00 6.283202e+01 6.917217e-02 -4.528663e-01 1.009492e-01 8.510087e-02 -1.806802e-01 1.073786e-01 -2.037081e-01 1.262976e-01 1.385045e-02 -3.362384e-02 -4.956861e-02 2.906303e-02 -2.301709e-01 9.792375e-01 -5.321351e-01 2.364727e-01 1.547104e-01 -4.337468e-01 1.108074e-01 -2.919015e-01 -4.447452e-02 -7.636350e-02 2.626010e-01 -6.684061e-02 -9.188978e-02 -2.490901e-02
<VARIANCE> 39
 1.379108e+01 2.674550e+01 2.788496e+01 2.892569e+01 3.569971e+01 3.684781e+01 3.969905e+01 3.316965e+01 3.200888e+01 2.548985e+01 2.465203e+01 2.331238e+01 1.112619e+01 2.940546e+00 1.643726e+00 1.772514e+00 1.482220e+00 1.829806e+00 2.158124e+00 2.325499e+00 2.207105e+00 2.122736e+00 2.005943e+00 1.796199e+00 1.696619e+00 5.612321e-01 4.076259e-01 3.881173e-01 3.584473e-01 3.607444e-01 4.451552e-01 5.091324e-01 5.661268e-01 5.505442e-01 4.971985e-01 4.920431e-01 3.944545e-01 3.907582e-01 1.171314e-01
<GCONST> 1.096869e+02
<STATE> 4
<MEAN> 39
 -7.248150e+00 3.415421e+00 6.674425e-01 -1.552612e+00 1.366653e+00 -8.187714e+00 -3.890148e+00 -6.953014e-01 -5.565706e-01 -2.496985e+00 -1.991065e+00 -3.658483e+00 6.180443e+01 3.539210e+00 -2.019550e+00 3.254399e-01 -6.889462e-02 -2.112539e+00 5.198459e-01 -1.649572e+00 -3.744871e-01 -3.135662e-01 1.050445e+00 2.092151e-02 -7.752729e-01 6.481240e-01 -3.534168e-02 -7.294687e-02 7.104344e-02 -2.067240e-01 -2.635771e-01 2.713672e-01 -1.157796e-01 1.120016e-02 -1.566315e-01 -1.222610e-03 2.801477e-01 -1.731959e-01 2.659604e-01
<VARIANCE> 39
 3.678777e+01 2.810424e+01 3.931837e+01 2.135930e+01 3.918160e+01 4.360732e+01 4.945790e+01 3.083386e+01 3.707821e+01 3.055103e+01 2.489634e+01 2.477680e+01 2.489963e+01 2.159271e+00 3.584587e+00 4.736711e+00 2.987982e+00 3.591407e+00 4.059922e+00 4.386164e+00 4.735918e+00 4.501651e+00 3.463815e+00 3.062463e+00 2.965563e+00 2.384884e+00 6.691561e-01 4.061969e-01 3.669663e-01 3.392696e-01 4.710123e-01 5.005369e-01 6.828311e-01 6.199645e-01 5.539940e-01 4.966668e-01 4.197703e-01 4.449224e-01 2.201704e-01
<GCONST> 1.228561e+02
<TRANSP> 5
 0.000000e+00 1.000000e+00 0.000000e+00 0.000000e+00 0.000000e+00
 0.000000e+00 6.439874e-01 3.560126e-01 0.000000e+00 0.000000e+00
 0.000000e+00 0.000000e+00 7.983785e-01 2.016215e-01 0.000000e+00
 0.000000e+00 0.000000e+00 0.000000e+00 5.406682e-01 4.593317e-01
 0.000000e+00 0.000000e+00 0.000000e+00 0.000000e+00 0.000000e+00
<ENDHMM>
~h "t"
<BEGINHMM>
<NUMSTATES> 5
<STATE> 2
<MEAN> 39
 9.115496e-01 2.724367e+00 -2.030296e+00 2.670066e+00 -5.596165e+00 -4.796855e-01 -6.571878e+00 1.548925e-01 -4.019477e+00 4.540822e-01 -2.012280e+00 -4.708558e+00 5.379268e+01 -3.978402e-01 3.079349e-01 -5.841429e-01 1.745109e-01 2.725079e-01 2.221881e-01 5.645245e-01 1.505174e-02 2.374335e-01 -3.163990e-01 -7.894830e-02 4.948423e-01 -6.877545e-01 -2.963410e-01 -3.657884e-01 3.254050e-01 -5.264971e-01 2.996055e-01 -5.511399e-01 -7.536432e-02 -1.241631e-01 2.815210e-01 -3.882421e-02 1.268575e-01 -8.840036e-02 7.807178e-01
<VARIANCE> 39
 8.208602e+00 1.759135e+01 3.568919e+01 2.047864e+01 2.921970e+01 3.313535e+01 3.016726e+01 3.210306e+01 3.877833e+01 2.670745e+01 3.089924e+01 2.929415e+01 1.192688e+01 6.657679e-01 7.807359e-01 1.344136e+00 1.450177e+00 2.060829e+00 2.524830e+00 2.409912e+00 2.322048e+00 2.266217e+00 2.189372e+00 1.788373e+00 1.770879e+00 9.680564e-01 1.546500e-01 2.173429e-01 3.078631e-01 3.592401e-01 4.423588e-01 5.598767e-01 5.199764e-01 5.292889e-01 5.679584e-01 4.795173e-01 4.183367e-01 4.170857e-01 2.429250e-01
<GCONST> 1.065892e+02
<STATE> 3
<MEAN> 39
 -8.203616e-01 3.297510e+00 -1.886622e+00 2.265483e+00 -3.572782e+00 -1.318876e+00 -4.928397e+00 -2.655640e-01 -3.543826e+00 -4.898911e-01 -1.964877e+00 -3.281098e+00 5.369297e+01 -1.507267e+00 -9.875202e-01 4.592469e-01 -1.619086e+00 1.532967e+00 -1.903012e+00 3.496979e-01 -6.387135e-01 1.380835e+00 -4.764871e-01 2.284022e-01 4.063695e-02 1.996182e+00 1.984270e-01 -5.251982e-01 4.248200e-01 -6.632543e-01 -2.176395e-01 -2.882881e-01 -6.948368e-01 -1.031795e-01 1.396143e-01 1.999538e-01 1.985927e-01 -5.225947e-01 1.044992e+00
<VARIANCE> 39
 1.247844e+01 1.740581e+01 2.791662e+01 2.254440e+01 3.163285e+01 4.212821e+01 3.272785e+01 3.318452e+01 3.683814e+01 2.545790e+01 2.835534e+01 2.582201e+01 1.636114e+01 1.597947e+00 2.237861e+00 3.249031e+00 3.165428e+00 3.685204e+00 4.374187e+00 4.544446e+00 4.245173e+00 4.459653e+00 3.669668e+00 3.313535e+00 2.973769e+00 1.982197e+00 2.527542e-01 3.404075e-01 5.527396e-01 4.526374e-01 6.092951e-01 7.449735e-01 6.530167e-01 8.488110e-01 8.373688e-01 6.100059e-01 5.681826e-01 5.184349e-01 2.608700e-01
<GCONST> 1.205781e+02
<STATE> 4
<MEAN> 39
 -5.239901e+00 -2.595923e-02 8.354063e-02 -2.854440e+00 4.813101e-01 -7.440428e+00 -4.621800e+00 -2.854855e+00 6.740831e-01 -1.601675e+00 -1.022340e+00 -4.062667e+00 6.097029e+01 4.826895e-01 -1.444411e+00 8.992855e-01 -2.117782e+00 -3.884948e-01 -7.420918e-01 -1.932407e+00 -4.023216e-01 6.603869e-01 4.481801e-01 6.743740e-01 -1.342221e+00 2.890937e+00 8.418493e-01 -6.445345e-02 7.782669e-02 9.442885e-02 -8.665032e-01 8.586062e-01 -6.552979e-01 2.623376e-01 -6.030384e-01 3.417603e-01 1.516818e-01 -3.097957e-01 -1.218919e-01
<VARIANCE> 39
 2.015005e+01 2.134005e+01 2.821636e+01 2.721732e+01 3.064216e+01 4.795902e+01 5.147819e+01 3.990067e+01 3.985316e+01 3.373257e+01 2.731575e+01 2.994137e+01 1.790207e+01 2.708882e+00 3.480763e+00 5.601094e+00 4.192214e+00 4.635500e+00 5.696887e+00 5.846900e+00 6.561884e+00 6.778274e+00 4.245822e+00 4.515527e+00 4.134809e+00 3.067548e+00 3.662967e-01 4.643769e-01 5.679700e-01 5.826705e-01 6.679530e-01 9.887508e-01 1.004502e+00 9.257876e-01 8.167351e-01 8.060245e-01 7.138882e-01 6.287374e-01 3.859708e-01
<GCONST> 1.302928e+02
<TRANSP> 5
 0.000000e+00 1.000000e+00 0.000000e+00 0.000000e+00 0.000000e+00
 0.000000e+00 5.912386e-01 4.087614e-01 0.000000e+00 0.000000e+00
 0.000000e+00 0.000000e+00 3.335675e-01 6.664325e-01 0.000000e+00
 0.000000e+00 0.000000e+00 0.000000e+00 4.397288e-01 5.602711e-01
 0.000000e+00 0.000000e+00 0.000000e+00 0.000000e+00 0.000000e+00
<ENDHMM>
~h "u"
<BEGINHMM>
<NUMSTATES> 5
<STATE> 2
<MEAN> 39
 4.239511e+00 9.519044e-01 1.785272e+00 -7.872989e+00 -8.075486e+00 1.044498e+00 -1.667777e+01 -6.696371e+00 -6.775612e+00 1.980973e+00 4.793177e+00 -6.443063e+00 6.391610e+01 7.157937e-01 -2.336234e-01 3.916975e-01 -8.341053e-01 -8.481606e-01 1.010438e+00 -1.351678e+00 -6.530485e-01 -5.261822e-01 5.987386e-01 1.100774e+00 -3.285173e-01 5.908864e-01 -3.233019e-01 1.470969e-01 -1.005288e-01 6.860479e-01 3.058665e-01 3.874310e-02 8.910252e-01 3.535506e-01 1.107509e-01 -3.037255e-01 -5.464529e-01 2.126772e-01 -5.371625e-01
<VARIANCE> 39
 1.211503e+01 2.817997e+01 4.007938e+01 7.043776e+01 6.695383e+01 6.168643e+01 7.684120e+01 5.835305e+01 6.413200e+01 5.549538e+01 5.897731e+01 4.820867e+01 1.682943e+01 2.095423e+00 2.613934e+00 3.269415e+00 5.835161e+00 4.933935e+00 5.694814e+00 5.994476e+00 5.121055e+00 6.075211e+00 4.746726e+00 4.596478e+00 3.643396e+00 1.675472e+00 2.761830e-01 4.381320e-01 4.408396e-01 9.332737e-01 8.641626e-01 9.440839e-01 1.109010e+00 1.011020e+00 1.014751e+00 8.717170e-01 8.623621e-01 7.607429e-01 2.979932e-01
<GCONST> 1.344042e+02
<STATE> 3
<MEAN> 39
 4.459129e+00 4.846713e-01 2.469966e+00 -8.117345e+00 -9.757191e+00 3.621711e+00 -1.717345e+01 -7.300402e+00 -7.089928e+00 1.326424e+00 6.857511e+00 -7.160297e+00 6.403986e+01 1.091526e-02 4.129229e-01 -9.999876e-02 6.572079e-01 2.825440e-01 1.884155e-01 9.314017e-01 3.312817e-01 -1.670798e-01 -2.905576e-01 -7.860270e-01 4.039976e-01 -6.605641e-01 -2.366455e-01 1.637851e-01 -7.221797e-02 5.308860e-01 3.304399e-01 -3.225922e-01 5.905876e-01 2.608400e-01 1.925092e-01 -2.111865e-01 -5.899671e-01 1.183333e-01 -3.382512e-01
<VARIANCE> 39
 9.159351e+00 2.844532e+01 3.874125e+01 7.517555e+01 5.536877e+01 6.179822e+01 6.367438e+01 6.123896e+01 6.006771e+01 5.765534e+01 6.538094e+01 5.155298e+01 1.432231e+01 7.296128e-01 2.044423e+00 1.850949e+00 4.386709e+00 2.948456e+00 3.521603e+00 3.532774e+00 3.336322e+00 4.112863e+00 3.289202e+00 3.180107e+00 2.947755e+00 1.460370e+00 2.146609e-01 3.206095e-01 3.613883e-01 6.156929e-01 6.031261e-01 7.234839e-01 7.478274e-01 7.677393e-01 7.819376e-01 7.088113e-01 6.735985e-01 6.302035e-01 1.599577e-01
<GCONST> 1.242375e+02
<STATE> 4
<MEAN> 39
 5.053797e+00 5.035913e+00 -3.456270e-01 -5.241095e+00 -7.361006e+00 2.922940e+00 -1.152881e+01 -4.535698e+00 -8.356853e+00 -4.642348e-01 1.354436e+00 -3.408972e+00 5.866386e+01 -2.776926e-01 2.822018e-01 -9.020630e-02 1.096641e+00 3.820972e-01 -1.225458e-01 8.429598e-01 2.899491e-01 2.628340e-01 -1.831264e-01 -6.984411e-01 2.053629e-01 -7.296600e-01 -1.163755e-01 -1.076313e-01 3.267086e-02 -7.484503e-03 3.649599e-02 -4.566097e-02 -3.884503e-02 -1.266294e-02 8.606002e-02 1.839845e-02 6.412838e-02 -6.533656e-02 8.219419e-02
<VARIANCE> 39
 1.019115e+01 3.176959e+01 2.831163e+01 7.313352e+01 5.370599e+01 4.944195e+01 4.540196e+01 4.383614e+01 4.276403e+01 4.736250e+01 4.893146e+01 3.842424e+01 2.287452e+01 6.779180e-01 1.382991e+00 1.392577e+00 2.525115e+00 2.380252e+00 2.632080e+00 2.791778e+00 2.811482e+00 2.670384e+00 2.668176e+00 2.614977e+00 2.309799e+00 9.340993e-01 1.113280e-01 2.050511e-01 2.027694e-01 4.266379e-01 3.716959e-01 4.315982e-01 4.692756e-01 4.700074e-01 4.653079e-01 4.619623e-01 4.125852e-01 3.814861e-01 1.117703e-01
<GCONST> 1.124916e+02
<TRANSP> 5
 0.000000e+00 1.000000e+00 0.000000e+00 0.000000e+00 0.000000e+00
 0.000000e+00 4.067385e-01 5.932614e-01 0.000000e+00 0.000000e+00
 0.000000e+00 0.000000e+00 4.556875e-01 5.443125e-01 0.000000e+00
 0.000000e+00 0.000000e+00 0.000000e+00 7.017827e-01 2.982173e-01
 0.000000e+00 0.000000e+00 0.000000e+00 0.000000e+00 0.000000e+00
<ENDHMM>
~h "v"
<BEGINHMM>
<NUMSTATES> 5
<STATE> 2
<MEAN> 39
 7.903662e-04 -6.079456e-01 1.670089e+00 -6.705837e-01 -5.929818e+00 -8.820225e-01 -6.906881e+00 5.931143e-01 -4.574426e+00 -3.940755e-01 -3.854154e-01 -5.847453e+00 5.993814e+01 5.024984e-04 -6.478592e-05 9.522401e-04 -6.048587e-04 -1.305029e-03 -9.148303e-04 -9.999124e-04 -6.995694e-04 3.150678e-04 8.832195e-04 -1.229102e-04 -1.829845e-05 4.304752e-04 -1.024714e-04 5.090495e-05 -4.314321e-05 5.499199e-04 2.475645e-04 2.544455e-04 -3.161734e-04 -1.009587e-04 -7.179174e-05 -5.594532e-04 -1.336834e-04 -6.698545e-06 -3.952787e-04
<VARIANCE> 39
 2.681136e+01 5.325134e+01 6.824250e+01 5.887592e+01 6.062508e+01 6.608533e+01 5.928268e+01 6.068991e+01 5.916120e+01 4.597362e+01 4.705821e+01 4.804106e+01 6.619385e+01 1.372020e+00 2.288023e+00 2.566274e+00 2.987463e+00 3.078158e+00 3.116328e+00 3.250192e+00 3.738113e+00 3.266875e+00 2.829993e+00 2.967949e+00 2.476121e+00 2.021681e+00 2.264445e-01 3.584008e-01 4.122588e-01 5.086471e-01 5.519696e-01 5.562619e-01 5.942494e-01 6.847889e-01 5.904057e-01 5.307208e-01 5.528100e-01 4.553457e-01 3.018115e-01
<GCONST> 1.265182e+02
<STATE> 3
<MEAN> 39
 7.903662e-04 -6.079456e-01 1.670089e+00 -6.705837e-01 -5.929818e+00 -8.820225e-01 -6.906881e+00 5.931143e-01 -4.574426e+00 -3.940755e-01 -3.854154e-01 -5.847453e+00 5.993814e+01 5.024984e-04 -6.478592e-05 9.522401e-04 -6.048587e-04 -1.305029e-03 -9.148303e-04 -9.999124e-04 -6.995694e-04 3.150678e-04 8.832195e-04 -1.229102e-04 -1.829845e-05 4.304752e-04 -1.024714e-04 5.090495e-05 -4.314321e-05 5.499199e-04 2.475645e-04 2.544455e-04 -3.161734e-04 -1.009587e-04 -7.179174e-05 -5.594532e-04 -1.336834e-04 -6.698545e-06 -3.952787e-04
<VARIANCE> 39
 2.681136e+01 5.325134e+01 6.824250e+01 5.887592e+01 6.062508e+01 6.608533e+01 5.928268e+01 6.068991e+01 5.916120e+01 4.597362e+01 4.705821e+01 4.804106e+01 6.619385e+01 1.372020e+00 2.288023e+00 2.566274e+00 2.987463e+00 3.078158e+00 3.116328e+00 3.250192e+00 3.738113e+00 3.266875e+00 2.829993e+00 2.967949e+00 2.476121e+00 2.021681e+00 2.264445e-01 3.584008e-01 4.122588e-01 5.086471e-01 5.519696e-01 5.562619e-01 5.942494e-01 6.847889e-01 5.904057e-01 5.307208e-01 5.528100e-01 4.553457e-01 3.018115e-01
<GCONST> 1.265182e+02
<STATE> 4
<MEAN> 39
 7.903662e-04 -6.079456e-01 1.670089e+00 -6.705837e-01 -5.929818e+00 -8.820225e-01 -6.906881e+00 5.931143e-01 -4.574426e+00 -3.940755e-01 -3.854154e-01 -5.847453e+00 5.993814e+01 5.024984e-04 -6.478592e-05 9.522401e-04 -6.048587e-04 -1.305029e-03 -9.148303e-04 -9.999124e-04 -6.995694e-04 3.150678e-04 8.832195e-04 -1.229102e-04 -1.829845e-05 4.304752e-04 -1.024714e-04 5.090495e-05 -4.314321e-05 5.499199e-04 2.475645e-04 2.544455e-04 -3.161734e-04 -1.009587e-04 -7.179174e-05 -5.594532e-04 -1.336834e-04 -6.698545e-06 -3.952787e-04
<VARIANCE> 39
 2.681136e+01 5.325134e+01 6.824250e+01 5.887592e+01 6.062508e+01 6.608533e+01 5.928268e+01 6.068991e+01 5.916120e+01 4.597362e+01 4.705821e+01 4.804106e+01 6.619385e+01 1.372020e+00 2.288023e+00 2.566274e+00 2.987463e+00 3.078158e+00 3.116328e+00 3.250192e+00 3.738113e+00 3.266875e+00 2.829993e+00 2.967949e+00 2.476121e+00 2.021681e+00 2.264445e-01 3.584008e-01 4.122588e-01 5.086471e-01 5.519696e-01 5.562619e-01 5.942494e-01 6.847889e-01 5.904057e-01 5.307208e-01 5.528100e-01 4.553457e-01 3.018115e-01
<GCONST> 1.265182e+02
<TRANSP> 5
 0.000000e+00 1.000000e+00 0.000000e+00 0.000000e+00 0.000000e+00
 0.000000e+00 6.000000e-01 4.000000e-01 0.000000e+00 0.000000e+00
 0.000000e+00 0.000000e+00 6.000000e-01 4.000000e-01 0.000000e+00
 0.000000e+00 0.000000e+00 0.000000e+00 7.000000e-01 3.000000e-01
 0.000000e+00 0.000000e+00 0.000000e+00 0.000000e+00 0.000000e+00
<ENDHMM>
~h "w"
<BEGINHMM>
<NUMSTATES> 5
<STATE> 2
<MEAN> 39
 1.568317e+00 -1.074389e+00 -3.246271e+00 -2.958105e+00 -6.243702e+00 3.733659e+00 -6.031637e+00 -3.125339e+00 -4.592796e+00 1.714108e+00 1.591504e+00 -2.379844e+00 5.878718e+01 4.008581e-01 4.577866e-01 -7.559621e-02 -3.011920e-01 -4.118018e-01 1.327551e-01 -3.952172e-02 -1.641793e-01 -4.871213e-01 -1.326595e-01 3.302281e-01 4.147050e-01 -1.786910e-01 6.013771e-02 -6.458624e-02 2.427931e-02 -2.121310e-01 -5.017681e-02 1.820385e-02 -1.248173e-01 5.650143e-02 6.126143e-02 -4.671967e-02 4.294441e-02 -1.134783e-01 1.356910e-01
<VARIANCE> 39
 3.975653e+01 5.310206e+01 2.908411e+01 7.428233e+01 3.969369e+01 5.433117e+01 4.624776e+01 2.937368e+01 2.850775e+01 4.245227e+01 4.133387e+01 3.551373e+01 4.553862e+01 4.665452e-01 9.553729e-01 1.077020e+00 1.907735e+00 1.378376e+00 1.687938e+00 1.416578e+00 1.932114e+00 2.342540e+00 2.051560e+00 2.012709e+00 1.864906e+00 5.215793e-01 1.050027e-01 1.478445e-01 1.568692e-01 4.282616e-01 2.552106e-01 3.537584e-01 2.960824e-01 4.069930e-01 4.521512e-01 3.904381e-01 3.600051e-01 4.259302e-01 9.261899e-02
<GCONST> 1.067391e+02
<STATE> 3
<MEAN> 39
 6.373367e+00 2.406242e+00 -4.032598e+00 -1.009822e+01 -9.927737e+00 6.846129e+00 -8.514774e+00 -3.006975e+00 -7.789511e+00 3.767839e-01 5.312294e+00 -3.093620e+00 6.015242e+01 5.850174e-01 -9.278677e-01 -1.281213e-01 -2.362782e+00 -2.165249e-01 1.108064e+00 -9.651662e-01 -9.404526e-02 7.370338e-02 6.587600e-01 1.144321e+00 -7.735126e-01 1.503335e+00 -2.825308e-01 -5.261041e-01 3.709976e-02 1.339424e-01 3.689196e-01 4.185105e-02 -4.779727e-02 1.995769e-01 4.771454e-01 2.441228e-01 -1.222064e-01 -5.160492e-01 2.295741e-01
<VARIANCE> 39
 1.243464e+01 3.156327e+01 2.393875e+01 7.789336e+01 5.630507e+01 5.201330e+01 4.693790e+01 3.045154e+01 3.419262e+01 3.829435e+01 4.033833e+01 4.047959e+01 3.258747e+01 1.480258e+00 3.051656e+00 1.084654e+00 4.893900e+00 3.127495e+00 2.731528e+00 3.677671e+00 2.553852e+00 3.256790e+00 2.945082e+00 3.018080e+00 3.852569e+00 2.387516e+00 2.085736e-01 2.622088e-01 1.669779e-01 9.732160e-01 4.903474e-01 5.789005e-01 5.446893e-01 4.787985e-01 4.603176e-01 4.405644e-01 6.566347e-01 6.091299e-01 2.344851e-01
<GCONST> 1.203451e+02
<STATE> 4
<MEAN> 39
 5.668968e+00 -4.540379e+00 -3.329882e+00 -1.740281e+01 -4.890419e+00 9.719090e+00 -1.495596e+01 -8.292326e-01 -3.312663e+00 6.767645e+00 4.077178e+00 -9.606967e+00 6.628638e+01 -3.782357e-01 -1.075371e+00 -3.365767e-02 1.656206e-01 7.328439e-01 -2.358619e-01 7.378770e-02 5.103594e-01 8.661435e-01 6.650119e-02 -6.588466e-01 -1.167130e+00 6.508486e-01 -6.762380e-02 1.426991e-01 4.803113e-02 3.828115e-01 6.312975e-02 -3.273844e-01 1.902914e-01 3.377978e-02 -2.159702e-02 -2.473404e-01 -2.751719e-01 1.450145e-01 -1.590026e-01
<VARIANCE> 39
 5.071241e+00 3.608234e+01 2.173428e+01 4.509679e+01 8.617314e+01 4.496174e+01 3.486747e+01 4.024591e+01 3.652341e+01 5.983870e+01 7.523267e+01 5.462191e+01 1.584097e+01 3.573720e-01 1.735484e+00 8.434250e-01 1.941691e+00 1.480872e+00 1.687378e+00 1.901604e+00 1.712692e+00 2.291350e+00 1.884157e+00 2.185154e+00 3.014565e+00 8.058918e-01 4.845834e-02 2.387962e-01 1.362539e-01 3.454215e-01 2.653840e-01 2.917393e-01 2.782061e-01 2.489634e-01 3.320261e-01 3.017934e-01 4.545432e-01 4.389605e-01 1.330975e-01
<GCONST> 1.046276e+02
<TRANSP> 5
 0.000000e+00 1.000000e+00 0.000000e+00 0.000000e+00 0.000000e+00
 0.000000e+00 6.194827e-01 3.805173e-01 0.000000e+00 0.000000e+00
 0.000000e+00 0.000000e+00 6.964343e-01 3.035657e-01 0.000000e+00
 0.000000e+00 0.000000e+00 0.000000e+00 7.647688e-01 2.352312e-01
 0.000000e+00 0.000000e+00 0.000000e+00 0.000000e+00 0.000000e+00
<ENDHMM>
~h "y"
<BEGINHMM>
<NUMSTATES> 5
<STATE> 2
<MEAN> 39
 -2.589805e+00 -1.685103e+00 1.782240e+01 -5.901550e+00 -1.540765e+01 -7.552462e+00 -1.179948e+01 1.811007e+00 -9.495361e+00 -1.972113e+00 5.885334e+00 -5.449989e+00 6.670740e+01 -5.136730e-02 -7.940888e-01 5.518837e-01 -4.803616e-01 -9.764782e-01 -8.627321e-01 -1.335130e-01 9.500700e-01 1.597935e-04 2.256283e-01 8.045241e-01 2.038155e-01 7.909834e-01 1.382785e-01 -1.902072e-01 -6.754051e-01 1.025052e-01 3.476703e-01 7.161129e-02 1.920557e-01 2.388766e-01 3.554933e-01 6.272298e-02 -3.675740e-01 -1.552675e-01 -3.318783e-02
<VARIANCE> 39
 8.854718e+00 4.444218e+01 5.113630e+01 3.272554e+01 4.457789e+01 4.649953e+01 5.283775e+01 6.424595e+01 5.719947e+01 7.567990e+01 4.849534e+01 3.861774e+01 2.421896e+01 6.932734e-01 2.191273e+00 4.707665e+00 1.825125e+00 2.429286e+00 2.942908e+00 3.056602e+00 4.754277e+00 2.961648e+00 2.764739e+00 2.406584e+00 2.290238e+00 1.346661e+00 7.781680e-02 1.988730e-01 5.330789e-01 2.926959e-01 4.967461e-01 4.991119e-01 4.404089e-01 6.313525e-01 4.877571e-01 4.480582e-01 4.582776e-01 3.604132e-01 1.092913e-01
<GCONST> 1.170205e+02
<STATE> 3
<MEAN> 39
 -1.429793e+00 -8.392939e+00 1.253230e+01 -6.705110e+00 -1.701971e+01 -1.138197e+01 -8.881648e+00 1.076778e+01 -4.441316e+00 -2.016497e+00 6.420285e+00 -6.220740e+00 7.040974e+01 3.446741e-01 -9.521303e-01 -1.707558e+00 -1.910006e-02 1.052392e+00 2.258359e-01 7.837178e-01 1.476887e+00 1.092813e+00 -3.360568e-01 -1.425110e+00 -8.436555e-01 3.213758e-01 7.593419e-02 2.092412e-01 -2.435595e-01 1.958116e-01 4.882548e-01 4.119330e-01 -7.490769e-02 -5.450401e-01 -6.850015e-02 1.750732e-02 -4.337527e-01 -2.107533e-01 -2.340468e-01
<VARIANCE> 39
 5.288082e+00 1.813732e+01 2.221510e+01 2.127567e+01 3.685221e+01 3.855267e+01 5.018876e+01 5.222614e+01 4.480989e+01 6.125479e+01 4.312831e+01 3.467827e+01 1.108958e+01 2.706906e-01 1.043222e+00 2.402111e+00 1.181492e+00 1.773626e+00 1.734174e+00 1.697646e+00 2.767176e+00 2.563748e+00 1.762406e+00 2.270241e+00 1.702657e+00 4.262706e-01 6.323922e-02 1.621480e-01 3.109720e-01 1.911806e-01 2.975883e-01 3.470062e-01 3.112412e-01 6.792484e-01 3.260375e-01 4.076575e-01 3.516878e-01 2.982372e-01 9.622293e-02
<GCONST> 1.017788e+02
<STATE> 4
<MEAN> 39
 1.510742e-01 -1.001849e+01 5.219035e+00 -6.798723e+00 -9.451568e+00 -7.748858e+00 -6.464442e+00 1.138560e+01 -1.236430e+00 -2.744091e+00 -2.205246e+00 -9.357879e+00 6.994501e+01 3.797631e-01 -1.451092e-01 -1.154266e+00 2.825797e-01 1.244442e+00 8.490134e-01 -1.242134e-01 -4.503460e-01 2.317637e-01 1.487147e-01 -1.069282e+00 -5.515543e-01 -2.672583e-01 4.901221e-03 2.719206e-01 1.729724e-01 1.167450e-01 -7.112813e-02 8.519552e-02 -1.062419e-01 -4.309589e-01 -2.408654e-01 2.298817e-01 2.406784e-01 1.890018e-01 -2.191058e-01
<VARIANCE> 39
 6.477257e+00 2.266079e+01 2.935612e+01 2.400867e+01 3.653540e+01 4.692801e+01 4.714902e+01 3.932382e+01 4.428022e+01 7.199561e+01 4.135678e+01 4.439236e+01 1.677125e+01 2.876080e-01 6.264088e-01 1.657474e+00 9.982084e-01 1.775513e+00 1.433058e+00 1.570230e+00 2.407474e+00 1.786647e+00 1.893620e+00 2.154657e+00 1.453816e+00 3.094291e-01 5.461572e-02 1.763260e-01 2.450608e-01 2.001010e-01 2.262542e-01 3.070562e-01 2.881075e-01 5.990480e-01 3.406052e-01 3.571579e-01 3.029069e-01 2.501446e-01 1.085800e-01
<GCONST> 9.985049e+01
<TRANSP> 5
 0.000000e+00 1.000000e+00 0.000000e+00 0.000000e+00 0.000000e+00
 0.000000e+00 7.349931e-01 2.650069e-01 0.000000e+00 0.000000e+00
 0.000000e+00 0.000000e+00 6.325480e-01 3.674520e-01 0.000000e+00
 0.000000e+00 0.000000e+00 0.000000e+00 6.542006e-01 3.457994e-01
 0.000000e+00 0.000000e+00 0.000000e+00 0.000000e+00 0.000000e+00
<ENDHMM>
~h "z"
<BEGINHMM>
<NUMSTATES> 5
<STATE> 2
<MEAN> 39
 -6.309689e-01 1.129951e+01 9.811463e+00 5.472601e+00 -5.105077e+00 -9.414231e+00 -3.419340e+00 -3.050932e+00 -9.273013e+00 -3.385433e+00 -8.259892e-01 -2.052820e+00 5.754687e+01 6.518802e-02 -4.714788e-01 7.452040e-01 -6.980180e-01 -8.028187e-02 3.998094e-01 -8.876767e-01 -1.607291e-01 -2.439558e-01 1.961760e-01 6.251199e-01 -4.115652e-01 5.674160e-01 2.172703e-02 -3.403763e-01 1.653617e-01 -4.265299e-01 -2.800136e-01 4.746186e-01 -1.011534e-01 -4.695117e-02 -5.492517e-02 2.859055e-01 5.274082e-02 -5.705696e-02 3.409296e-02
<VARIANCE> 39
 2.399184e+01 1.883809e+01 2.088665e+01 1.747280e+01 1.799108e+01 2.694432e+01 6.073111e+01 3.112466e+01 3.113334e+01 2.149064e+01 1.662145e+01 1.927345e+01 1.766853e+01 1.339292e+00 3.338601e+00 4.469042e+00 2.727376e+00 1.484570e+00 2.838351e+00 3.244870e+00 3.170490e+00 2.647842e+00 2.290263e+00 2.112832e+00 1.341361e+00 1.769296e+00 1.756203e-01 4.791678e-01 3.215699e-01 1.600648e-01 3.555133e-01 3.050508e-01 3.528130e-01 2.496721e-01 4.686224e-01 1.786241e-01 5.360461e-01 2.394403e-01 9.545920e-02
<GCONST> 1.067728e+02
<STATE> 3
<MEAN> 39
 -2.304650e+00 1.803492e+00 1.984319e+01 -9.421707e+00 -8.238588e+00 -2.299616e+00 -1.770425e+01 -6.944958e+00 -1.193847e+01 5.608127e+00 5.126956e-01 -5.083047e+00 6.517027e+01 1.073944e-01 -1.131323e+00 6.181868e-01 -1.693309e+00 -7.200670e-01 1.742285e+00 -1.355444e+00 -5.787914e-01 -6.223091e-02 6.729360e-01 4.816189e-02 -2.897229e-01 6.284757e-01 9.659287e-02 2.689797e-01 -6.433597e-01 2.614264e-01 2.099087e-01 -1.448831e-01 3.672322e-01 4.413546e-01 1.981162e-01 -1.119309e-01 -9.579746e-02 8.359896e-03 -2.109570e-01
<VARIANCE> 39
 1.248674e+01 3.221982e+00 6.690412e+01 5.013248e+01 1.909219e+01 1.113137e+02 4.053600e+01 4.194886e+01 6.362275e+01 1.306002e+01 5.191310e+00 2.020791e+01 5.497334e+00 9.568057e-01 1.644403e+00 2.669044e+00 1.565958e+00 2.315420e+00 2.226579e+00 3.551004e+00 1.582948e+00 3.909580e+00 1.750656e+00 1.402549e+00 1.861534e+00 7.829711e-01 5.426164e-02 2.848904e-01 1.051332e-01 2.200016e-01 3.610932e-01 4.956695e-01 5.395198e-01 3.259526e-01 3.611096e-01 4.829730e-01 1.612422e-01 2.030724e-01 6.222621e-02
<GCONST> 1.002212e+02
<STATE> 4
<MEAN> 39
 -1.421699e+00 4.750747e+00 8.810269e+00 -5.747775e+00 -5.926966e+00 9.574728e+00 -9.637613e+00 -1.760851e+00 -5.472044e+00 -2.512002e+00 -6.129918e+00 -6.520202e+00 5.563153e+01 1.456840e-01 2.669920e-01 -6.342757e-01 5.721533e-01 2.181171e-02 -3.171061e-02 4.436379e-01 3.607105e-02 1.439613e-02 -2.247098e-01 2.668063e-02 3.960676e-02 -3.904630e-01 2.077889e-02 1.379872e-01 1.971198e-02 7.721832e-02 -7.275664e-03 -8.473091e-02 6.266076e-02 -1.882156e-02 -4.207268e-02 -3.703759e-02 3.211579e-03 4.802821e-02 -5.691363e-02
<VARIANCE> 39
 4.641369e+00 2.727178e+01 7.298784e+01 9.614027e+01 9.006548e+00 5.119094e+01 6.855086e+01 1.783917e+01 2.231611e+01 2.802015e+01 2.297423e+01 2.495445e+01 5.912057e+01 3.245805e-01 1.252457e+00 1.022555e+00 1.324064e+00 6.102479e-01 1.260543e+00 1.047045e+00 1.420920e+00 1.356954e+00 1.289424e+00 1.987868e+00 1.886173e+00 5.179731e-01 4.540784e-02 1.442522e-01 1.718530e-01 1.657771e-01 1.003024e-01 2.218268e-01 4.178959e-01 2.755879e-01 2.120257e-01 2.066745e-01 3.387101e-01 2.080557e-01 5.700594e-02
<GCONST> 9.304886e+01
<TRANSP> 5
 0.000000e+00 1.000000e+00 0.000000e+00 0.000000e+00 0.000000e+00
 0.000000e+00 8.038178e-01 1.961823e-01 0.000000e+00 0.000000e+00
 0.000000e+00 0.000000e+00 7.486877e-01 2.513122e-01 0.000000e+00
 0.000000e+00 0.000000e+00 0.000000e+00 8.707806e-01 1.292194e-01
 0.000000e+00 0.000000e+00 0.000000e+00 0.000000e+00 0.000000e+00
<ENDHMM>
~h "aw"
<BEGINHMM>
<NUMSTATES> 5
<STATE> 2
<MEAN> 39
 2.717717e+00 -4.489813e+00 -4.978565e-01 -1.151122e+01 -5.223193e+00 9.778824e-01 -1.305752e+01 -2.828971e+00 9.513069e-01 5.605038e+00 4.188838e+00 -9.125916e+00 6.810166e+01 1.253744e+00 -3.979200e-01 3.234329e-01 -1.914495e+00 -1.821056e+00 2.156757e+00 -2.102876e+00 4.082402e-01 -4.316904e-01 8.284670e-01 1.545824e+00 -9.121198e-01 1.061292e+00 -9.953584e-02 4.806029e-01 8.795032e-02 6.501275e-01 -1.637786e-01 3.470852e-01 4.306220e-01 8.927672e-02 -2.179305e-01 -5.947974e-01 -4.799173e-01 6.123570e-01 -7.826059e-01
<VARIANCE> 39
 8.454817e+00 2.280347e+01 2.038644e+01 3.576537e+01 5.174621e+01 7.284647e+01 4.114980e+01 3.249703e+01 9.569727e+01 4.922800e+01 1.986767e+01 3.537873e+01 1.672031e+01 2.024696e+00 1.813584e+00 3.459357e+00 3.805441e+00 3.572366e+00 5.118816e+00 5.366266e+00 3.020063e+00 4.855030e+00 4.369269e+00 1.694358e+00 4.449641e+00 2.260731e+00 3.181050e-01 2.470675e-01 4.252735e-01 5.967659e-01 7.442980e-01 8.649715e-01 6.848105e-01 6.987288e-01 8.957966e-01 6.026721e-01 4.115086e-01 5.251573e-01 3.091602e-01
<GCONST> 1.238390e+02
<STATE> 3
<MEAN> 39
 3.151899e+00 -4.022106e+00 1.457561e+00 -1.446571e+01 -8.592651e+00 4.291464e+00 -1.498988e+01 -2.583233e+00 -1.273139e+00 4.146914e+00 4.889059e+00 -7.308612e+00 6.877528e+01 3.797106e-01 9.620149e-01 3.896125e-01 5.260839e-01 -5.249501e-01 7.616388e-01 -1.168585e-01 -2.055444e-01 -8.666295e-01 -9.032013e-01 -4.155200e-01 1.481823e+00 -9.422516e-01 -1.243616e-01 3.483048e-01 -1.204448e-01 7.709590e-01 4.486506e-01 -2.887482e-01 4.440284e-01 -1.588595e-01 2.266964e-01 -2.108637e-01 -6.158413e-01 1.949244e-01 -5.208367e-01
<VARIANCE> 39
 7.258042e+00 2.122478e+01 1.909806e+01 4.230172e+01 4.624702e+01 8.798604e+01 7.433605e+01 4.071254e+01 1.181955e+02 3.381145e+01 3.106543e+01 5.016017e+01 1.258362e+01 5.179504e-01 9.960032e-01 1.235021e+00 3.355402e+00 2.501522e+00 2.631106e+00 2.791100e+00 2.894200e+00 1.826817e+00 3.119964e+00 1.966177e+00 2.140056e+00 7.460294e-01 1.810845e-01 2.085785e-01 2.413812e-01 4.153450e-01 3.260312e-01 4.416277e-01 6.527573e-01 4.747077e-01 7.556421e-01 5.307466e-01 4.344219e-01 5.169551e-01 1.354046e-01
<GCONST> 1.124370e+02
<STATE> 4
<MEAN> 39
 5.093175e+00 1.449722e+00 -2.285424e-01 -8.446030e+00 -1.216204e+01 9.072455e+00 -9.674013e+00 -6.648058e+00 -4.148196e+00 1.364689e+00 2.721312e+00 -1.997724e+00 6.093391e+01 -2.057077e-01 6.553648e-01 -2.902935e-01 1.290818e+00 5.319626e-01 -4.719490e-01 5.653387e-01 1.924334e-01 -1.348323e-01 -2.647667e-01 -6.288912e-01 -7.499373e-02 -1.105964e+00 -1.634963e-01 -1.581659e-01 4.225281e-02 -1.855775e-02 1.677856e-01 -3.419208e-01 3.156558e-02 1.721021e-01 2.549479e-03 1.209464e-01 1.046057e-01 -2.317020e-01 1.917680e-01
<VARIANCE> 39
 5.435371e+00 2.842194e+01 2.897494e+01 5.213073e+01 3.334593e+01 6.882351e+01 5.003717e+01 4.009273e+01 5.208808e+01 5.144364e+01 3.237521e+01 2.218422e+01 2.032654e+01 3.869022e-01 1.062025e+00 1.780645e+00 2.486202e+00 2.200251e+00 3.090740e+00 2.098902e+00 2.857915e+00 3.308642e+00 2.187217e+00 2.369630e+00 2.765320e+00 1.067179e+00 7.986635e-02 1.345859e-01 3.063038e-01 3.216092e-01 3.170350e-01 5.242718e-01 4.717067e-01 6.463642e-01 6.291881e-01 4.377406e-01 4.368343e-01 6.012456e-01 1.112733e-01
<GCONST> 1.104379e+02
<TRANSP> 5
 0.000000e+00 1.000000e+00 0.000000e+00 0.000000e+00 0.000000e+00
 0.000000e+00 4.270675e-01 5.729325e-01 0.000000e+00 0.000000e+00
 0.000000e+00 0.000000e+00 6.378404e-01 3.621596e-01 0.000000e+00
 0.000000e+00 0.000000e+00 0.000000e+00 7.897589e-01 2.102412e-01
 0.000000e+00 0.000000e+00 0.000000e+00 0.000000e+00 0.000000e+00
<ENDHMM>
~h "ay"
<BEGINHMM>
<NUMSTATES> 5
<STATE> 2
<MEAN> 39
 4.708839e-01 -1.404751e+01 2.249865e+00 -5.850518e+00 -1.010014e+01 -6.505300e+00 -8.209873e+00 9.652303e+00 2.829204e+00 -5.037609e+00 -1.150513e+00 -1.159588e+01 7.220945e+01 -3.451442e-01 -1.879034e-01 1.271048e+00 2.105013e-01 -1.359357e+00 -1.160935e+00 2.279784e-01 1.413164e+00 -5.729302e-01 -5.440481e-01 7.022368e-01 6.344979e-01 1.376060e-01 -8.441360e-03 4.924728e-01 2.118571e-01 7.757950e-02 -5.496595e-02 1.266530e-01 -3.403228e-02 -4.521369e-01 -4.503268e-01 2.228197e-01 3.295728e-01 2.920268e-01 -3.316826e-01
<VARIANCE> 39
 6.343970e+00 1.916569e+01 4.304550e+01 1.800376e+01 4.219459e+01 5.862039e+01 5.422986e+01 5.603664e+01 5.801775e+01 6.520095e+01 4.325224e+01 3.110610e+01 5.584490e+00 3.714320e-01 1.137496e+00 1.900352e+00 1.175381e+00 1.987507e+00 2.234332e+00 1.753646e+00 2.603717e+00 2.085179e+00 2.070128e+00 3.014636e+00 1.884060e+00 3.232926e-01 9.893405e-02 1.811176e-01 2.905153e-01 2.469608e-01 4.934232e-01 4.304003e-01 3.759288e-01 5.424860e-01 4.418251e-01 3.575990e-01 5.140638e-01 3.737227e-01 1.108681e-01
<GCONST> 1.056575e+02
<STATE> 3
<MEAN> 39
 -1.442238e+00 -8.938657e+00 1.454178e+01 -5.620441e+00 -1.989447e+01 -1.030614e+01 -1.231132e+01 1.098876e+01 -5.336036e+00 -5.774985e+00 8.147420e+00 -6.930219e+00 7.023364e+01 6.468622e-02 9.960928e-01 6.683156e-01 3.380397e-01 -6.726661e-02 4.222787e-01 -3.683670e-01 -9.513309e-01 -9.229948e-01 1.135012e-01 1.856361e-01 1.160863e-01 -6.862381e-01 1.794257e-01 9.049650e-02 -5.212889e-01 2.305581e-01 5.902056e-01 2.778883e-01 1.320998e-01 -2.475709e-01 1.475031e-01 1.333548e-01 -5.292972e-01 -2.644704e-01 -2.395623e-01
<VARIANCE> 39
 4.186696e+00 1.678576e+01 3.488881e+01 2.101761e+01 3.373085e+01 3.350325e+01 5.844909e+01 3.815974e+01 5.805307e+01 5.412843e+01 3.949696e+01 2.764166e+01 5.619584e+00 4.411220e-01 9.756589e-01 2.486636e+00 1.245764e+00 2.242483e+00 1.239610e+00 2.061215e+00 2.396678e+00 2.409591e+00 1.799847e+00 2.864923e+00 2.006928e+00 5.033709e-01 6.452613e-02 1.767733e-01 2.103572e-01 1.959886e-01 2.470037e-01 3.093904e-01 3.775973e-01 6.138499e-01 3.788806e-01 3.645345e-01 3.910768e-01 3.029328e-01 1.001556e-01
<GCONST> 1.013695e+02
<STATE> 4
<MEAN> 39
 5.837446e-01 -3.627828e+00 1.005558e+01 -1.307445e+00 -1.337808e+01 -6.091644e+00 -9.482882e+00 5.325065e+00 -6.185654e+00 -3.452327e+00 3.247643e+00 -6.883328e+00 6.394704e+01 5.211402e-01 8.234988e-01 -1.338278e+00 1.040590e+00 1.261028e+00 1.201401e+00 8.294942e-01 -9.464535e-01 -4.113403e-01 6.233843e-01 -9.090285e-01 -8.720807e-02 -1.386950e+00 -1.113486e-01 -6.518072e-02 -8.312352e-02 -1.021205e-01 -6.293419e-02 1.955050e-02 1.153542e-01 -1.379735e-01 -3.962449e-02 -2.403276e-02 4.264089e-02 1.699345e-01 7.871305e-02
<VARIANCE> 39
 8.862623e+00 1.981550e+01 3.658512e+01 3.580384e+01 3.927934e+01 4.000860e+01 6.143014e+01 5.383642e+01 5.002895e+01 4.334153e+01 3.268454e+01 4.469766e+01 1.792994e+01 5.715240e-01 1.318021e+00 2.155597e+00 1.739226e+00 2.578061e+00 2.810902e+00 2.918082e+00 4.166746e+00 3.384287e+00 2.684759e+00 2.928637e+00 2.606063e+00 8.929972e-01 1.057160e-01 2.117684e-01 3.407698e-01 3.256123e-01 4.544023e-01 5.132143e-01 5.526423e-01 5.544230e-01 5.453501e-01 4.480482e-01 3.652467e-01 4.933667e-01 1.392444e-01
<GCONST> 1.132537e+02
<TRANSP> 5
 0.000000e+00 1.000000e+00 0.000000e+00 0.000000e+00 0.000000e+00
 0.000000e+00 7.605501e-01 2.394499e-01 0.000000e+00 0.000000e+00
 0.000000e+00 0.000000e+00 7.515880e-01 2.484120e-01 0.000000e+00
 0.000000e+00 0.000000e+00 0.000000e+00 6.916561e-01 3.083440e-01
