~o
<STREAMINFO> 1 39
<VECSIZE> 39<NULLD><MFCC_D_A_0><DIAGC>
~s "silst"
<MEAN> 39
 -1.658207e+00 3.393128e+00 -2.574937e+00 4.752233e+00 -3.262425e+00 2.078572e+00 -3.374574e+00 1.592328e+00 -2.950828e+00 -1.446639e+00 -2.453260e+00 -1.355911e+00 5.082460e+01 -7.879878e-02 8.884554e-02 -4.518536e-02 5.040507e-02 5.127557e-02 4.915368e-02 3.095675e-02 7.295151e-03 1.957057e-02 -1.019028e-02 5.100154e-02 5.544694e-02 -1.376435e-01 8.893004e-03 -2.913783e-02 4.016644e-02 -4.130317e-02 8.818874e-03 -2.291307e-02 -2.287619e-02 -1.806258e-02 -2.469097e-02 7.676362e-03 1.622687e-03 -2.700707e-02 6.712538e-02
<VARIANCE> 39
 1.105788e+01 2.051637e+01 1.793737e+01 1.615460e+01 2.297042e+01 2.592730e+01 2.379358e+01 2.775164e+01 2.360415e+01 2.414124e+01 2.285682e+01 2.155060e+01 1.122707e+01 3.055945e-01 7.253158e-01 9.005936e-01 1.056800e+00 1.354246e+00 1.500621e+00 1.633692e+00 1.866750e+00 1.798630e+00 1.774444e+00 1.673271e+00 1.533304e+00 2.761066e-01 5.798314e-02 1.273482e-01 1.698973e-01 2.113894e-01 2.674742e-01 2.944714e-01 3.268363e-01 3.683144e-01 3.578272e-01 3.530070e-01 3.304249e-01 3.017306e-01 4.982468e-02
<GCONST> 9.143275e+01
~h "@"
<BEGINHMM>
<NUMSTATES> 5
<STATE> 2
<MEAN> 39
 1.287847e+00 -4.318107e+00 2.105351e+00 -2.683382e+00 -6.547086e+00 -5.460338e+00 -1.041171e+01 2.773795e-01 -1.786866e+00 1.591437e+00 8.808972e-01 -8.206459e+00 6.530858e+01 8.958040e-01 -1.059090e+00 3.680620e-01 -5.307892e-01 -1.072391e+00 -1.257469e-01 -7.837003e-01 7.102183e-01 2.968428e-01 2.583520e-01 4.121696e-01 -7.326860e-01 1.093676e+00 -1.413873e-01 5.592705e-01 -2.456505e-03 5.086930e-01 2.039029e-01 4.725300e-01 4.074526e-01 -1.985718e-01 -2.774153e-01 -2.019169e-01 -2.864371e-01 3.099801e-01 -6.575381e-01
<VARIANCE> 39
 2.216558e+01 4.327260e+01 5.054134e+01 4.890921e+01 6.855314e+01 7.374659e+01 7.301371e+01 7.880093e+01 6.681183e+01 5.319219e+01 4.794044e+01 5.253540e+01 2.890510e+01 2.700693e+00 2.830538e+00 3.295169e+00 3.944250e+00 4.125796e+00 5.244223e+00 4.734186e+00 7.407743e+00 5.943662e+00 4.557679e+00 4.635286e+00 3.640527e+00 2.697673e+00 3.597127e-01 4.546863e-01 5.448509e-01 6.870199e-01 7.686220e-01 7.391368e-01 9.239461e-01 9.777146e-01 8.358422e-01 7.813725e-01 7.186602e-01 5.963830e-01 4.302379e-01
<GCONST> 1.356839e+02
<STATE> 3
<MEAN> 39
 1.952537e+00 -5.451669e+00 2.447412e+00 -3.064614e+00 -7.765182e+00 -4.869786e+00 -1.106775e+01 1.271586e+00 -1.237954e+00 1.178272e+00 1.561734e+00 -8.905624e+00 6.631649e+01 4.175153e-01 1.563620e-01 3.011411e-01 5.623096e-01 -2.778918e-01 4.082665e-01 9.042417e-03 -1.242167e-01 -2.699590e-01 -7.569904e-03 -1.822581e-01 1.502001e-01 -2.846805e-01 -2.653405e-01 6.178072e-01 -4.590198e-02 5.281839e-01 4.078588e-01 2.746279e-01 4.699814e-01 -4.185376e-01 -3.042923e-01 -1.630202e-01 -3.762951e-01 4.116571e-01 -6.888613e-01
<VARIANCE> 39
 1.661265e+01 4.651980e+01 5.284484e+01 5.301266e+01 6.751736e+01 7.176543e+01 7.297471e+01 9.711021e+01 7.553905e+01 5.885957e+01 5.608942e+01 6.090784e+01 2.915289e+01 1.433887e+00 1.820617e+00 2.157022e+00 3.185107e+00 2.755833e+00 3.828092e+00 3.900733e+00 4.028969e+00 4.040098e+00 3.087610e+00 3.304417e+00 2.520040e+00 1.623611e+00 3.572740e-01 4.273904e-01 5.705299e-01 6.213788e-01 7.453063e-01 7.390897e-01 8.672692e-01 1.236794e+00 9.270982e-01 8.853304e-01 8.147070e-01 7.165546e-01 3.630264e-01
<GCONST> 1.314595e+02
<STATE> 4
<MEAN> 39
 1.846203e+00 -4.612382e+00 3.345746e+00 -1.363657e+00 -7.823943e+00 -5.156302e+00 -1.024957e+01 2.027308e+00 -2.496066e+00 7.006186e-01 4.121684e-01 -7.888900e+00 6.451081e+01 1.154307e-01 9.226544e-01 -6.681512e-02 1.062649e+00 2.711357e-01 6.225824e-01 5.389225e-01 -7.249693e-01 -4.362689e-01 -1.018773e-01 -6.002036e-01 4.767700e-01 -1.133902e+00 -1.591192e-01 1.447315e-01 -7.473839e-02 7.639198e-02 1.159767e-01 5.574881e-02 1.661689e-01 -7.931518e-02 -3.391680e-02 -8.045857e-02 -8.445036e-02 6.564749e-02 -1.588989e-01
<VARIANCE> 39
 1.494939e+01 5.053022e+01 4.906617e+01 4.882264e+01 6.491446e+01 6.633263e+01 6.076717e+01 9.008109e+01 6.471050e+01 5.071992e+01 4.759366e+01 5.529720e+01 3.094927e+01 1.009071e+00 1.909437e+00 2.049617e+00 2.523167e+00 2.767673e+00 2.864808e+00 3.449449e+00 3.647358e+00 3.176849e+00 2.990199e+00 2.766191e+00 2.388506e+00 1.791621e+00 2.216875e-01 2.945852e-01 3.538902e-01 4.131243e-01 4.631521e-01 4.889117e-01 6.015292e-01 7.101659e-01 6.219443e-01 5.221604e-01 5.671161e-01 4.052558e-01 2.350953e-01
<GCONST> 1.230594e+02
<TRANSP> 5
 0.000000e+00 1.000000e+00 0.000000e+00 0.000000e+00 0.000000e+00
 0.000000e+00 1.183990e-01 8.816010e-01 0.000000e+00 0.000000e+00
 0.000000e+00 0.000000e+00 1.744529e-01 8.255472e-01 0.000000e+00
 0.000000e+00 0.000000e+00 0.000000e+00 4.425795e-01 5.574205e-01
 0.000000e+00 0.000000e+00 0.000000e+00 0.000000e+00 0.000000e+00
<ENDHMM>
~h "a"
<BEGINHMM>
<NUMSTATES> 5
<STATE> 2
<MEAN> 39
 2.343408e+00 -1.016626e+01 -9.786027e-01 -7.575387e+00 -4.388005e+00 -1.129477e+00 -9.923570e+00 5.433025e+00 -7.165288e-01 6.340275e-01 -2.003079e+00 -1.189529e+01 6.892928e+01 1.618849e-01 -1.100791e+00 -1.642156e-01 -6.343824e-01 3.188078e-01 3.826509e-01 8.610096e-02 9.207554e-01 1.001058e-01 -2.002364e-01 -5.494946e-01 -7.148497e-01 8.520519e-01 -1.527157e-01 8.057138e-01 2.007195e-01 6.776717e-01 3.712229e-02 -7.054609e-02 2.215729e-01 -5.935864e-01 -3.739025e-01 -4.202906e-02 9.420761e-02 5.858659e-01 -7.095837e-01
<VARIANCE> 39
 9.675982e+00 2.586943e+01 4.297149e+01 4.418275e+01 5.781654e+01 8.115026e+01 6.077031e+01 6.134325e+01 6.910001e+01 6.735107e+01 4.881248e+01 5.105091e+01 2.048563e+01 1.064424e+00 2.562849e+00 2.558558e+00 3.175086e+00 3.442557e+00 4.074207e+00 3.608866e+00 5.008351e+00 3.655096e+00 3.807768e+00 3.473070e+00 3.410297e+00 1.948595e+00 2.017805e-01 3.716266e-01 3.685256e-01 5.171654e-01 5.772597e-01 6.373906e-01 6.389322e-01 8.067114e-01 7.106245e-01 7.244427e-01 6.173950e-01 5.539548e-01 2.882800e-01
<GCONST> 1.262264e+02
<STATE> 3
<MEAN> 39
 2.089455e+00 -1.094557e+01 -4.920574e-01 -7.842470e+00 -4.086941e+00 -1.357714e+00 -9.351686e+00 6.319910e+00 -1.259511e+00 -3.884822e-02 -2.466542e+00 -1.201834e+01 6.965095e+01 1.553626e-01 8.365653e-01 1.625541e-01 8.468691e-01 -5.867878e-02 -9.797561e-02 1.890864e-01 -5.389708e-01 -4.765232e-01 2.248214e-01 2.706103e-02 5.603314e-01 -7.954932e-01 1.716034e-02 5.095387e-01 1.049308e-01 3.901363e-01 -1.219785e-01 2.710910e-02 5.325852e-02 -4.222415e-01 -1.343724e-01 7.069007e-02 8.042377e-02 2.360794e-01 -4.494399e-01
<VARIANCE> 39
 8.722054e+00 2.318924e+01 4.052243e+01 3.905354e+01 5.429657e+01 7.763662e+01 5.620885e+01 6.275619e+01 7.408923e+01 6.851998e+01 4.826407e+01 5.205580e+01 1.433834e+01 4.389921e-01 1.448480e+00 1.481165e+00 1.721830e+00 2.053505e+00 2.662473e+00 2.337164e+00 3.046333e+00 2.341269e+00 2.434504e+00 2.253239e+00 2.007234e+00 9.550137e-01 1.047830e-01 2.011762e-01 2.864268e-01 2.956047e-01 3.843927e-01 4.927540e-01 4.922025e-01 6.297992e-01 4.607030e-01 5.140077e-01 4.802147e-01 3.985096e-01 1.265330e-01
<GCONST> 1.129165e+02
<STATE> 4
<MEAN> 39
 2.955803e+00 -4.188466e+00 -9.040455e-01 -2.092364e+00 -3.986353e+00 -8.866992e-01 -7.804856e+00 3.007083e+00 -3.240627e+00 1.030524e+00 -2.949217e+00 -7.960275e+00 6.238086e+01 1.595775e-02 1.414075e+00 -4.292969e-02 1.394739e+00 -1.260861e-01 4.362875e-01 5.887133e-01 -8.825819e-01 -3.330838e-01 -1.306857e-01 -2.331008e-01 5.879925e-01 -1.553395e+00 -1.105667e-01 -9.054283e-02 1.171276e-02 -1.134808e-01 -2.231382e-02 1.028078e-02 2.648068e-02 3.335816e-02 5.939804e-02 -9.586482e-02 -2.587061e-02 -6.858613e-02 1.033128e-01
<VARIANCE> 39
 9.189152e+00 2.541059e+01 4.913079e+01 4.205624e+01 4.658594e+01 6.081512e+01 5.364063e+01 5.023484e+01 5.198087e+01 5.155627e+01 4.631635e+01 4.507013e+01 2.465911e+01 6.317682e-01 1.332564e+00 1.772539e+00 1.989348e+00 2.269195e+00 2.684102e+00 2.643487e+00 3.423689e+00 2.841206e+00 2.801805e+00 2.502867e+00 2.233204e+00 1.018543e+00 1.133106e-01 2.028213e-01 2.530223e-01 3.170123e-01 3.476309e-01 4.411590e-01 4.443678e-01 5.272658e-01 4.428625e-01 4.399227e-01 4.422103e-01 3.901009e-01 1.394407e-01
<GCONST> 1.132805e+02
<TRANSP> 5
 0.000000e+00 1.000000e+00 0.000000e+00 0.000000e+00 0.000000e+00
 0.000000e+00 4.678445e-01 5.321555e-01 0.000000e+00 0.000000e+00
 0.000000e+00 0.000000e+00 6.168659e-01 3.831341e-01 0.000000e+00
 0.000000e+00 0.000000e+00 0.000000e+00 5.883286e-01 4.116714e-01
 0.000000e+00 0.000000e+00 0.000000e+00 0.000000e+00 0.000000e+00
<ENDHMM>
~h "b"
<BEGINHMM>
<NUMSTATES> 5
<STATE> 2
<MEAN> 39
 5.068981e+00 7.629809e+00 1.851108e+00 5.437638e+00 -3.766630e+00 2.336974e+00 -6.794683e+00 -3.291918e+00 -7.592975e+00 -2.442536e+00 -2.548808e+00 -4.910239e+00 5.533026e+01 2.705573e-01 -2.282967e-02 -3.079295e-01 -5.597209e-01 1.230074e-01 -3.106234e-01 -4.921942e-01 -3.558574e-01 2.436466e-02 2.472196e-02 4.522038e-01 2.950822e-01 4.112468e-01 -9.406085e-02 -7.434162e-01 4.835551e-02 -9.036688e-01 -2.797728e-01 -2.736665e-01 -6.839328e-01 -4.688288e-02 1.799280e-01 4.950373e-01 5.251643e-01 -1.056678e-01 6.720018e-01
<VARIANCE> 39
 7.208363e+00 2.127036e+01 1.844990e+01 2.087388e+01 2.659055e+01 2.859086e+01 2.998101e+01 2.659883e+01 2.561726e+01 2.302719e+01 2.315728e+01 2.367060e+01 1.149403e+01 7.308709e-01 2.357896e+00 1.566731e+00 4.663703e+00 2.314230e+00 2.742859e+00 3.937784e+00 2.999780e+00 3.184001e+00 3.026527e+00 3.202769e+00 2.140694e+00 1.868149e+00 1.293871e-01 4.086964e-01 3.596671e-01 5.304587e-01 4.569339e-01 5.744894e-01 5.644692e-01 6.306778e-01 7.127845e-01 6.483983e-01 5.598657e-01 5.250195e-01 2.182934e-01
<GCONST> 1.122879e+02
<STATE> 3
<MEAN> 39
 5.933668e+00 3.857373e+00 2.951598e-01 -2.809690e+00 -4.453855e+00 1.018882e+00 -1.193527e+01 -6.698059e+00 -8.660711e+00 5.530301e-01 2.593556e+00 -3.070905e+00 6.031419e+01 -5.889709e-02 -2.438864e+00 3.324506e-02 -3.228112e+00 -6.960563e-01 -5.450183e-01 -2.728953e+00 -3.474295e-03 1.055031e+00 2.339061e+00 1.916225e+00 -1.024256e+00 2.423051e+00 -3.096311e-01 -3.893181e-01 3.334006e-01 2.153423e-01 -2.166813e-01 -8.065265e-02 9.361410e-02 6.773133e-01 5.370603e-01 1.200485e-01 -4.010203e-01 -6.398070e-01 1.566199e-01
<VARIANCE> 39
 7.145547e+00 2.825163e+01 2.064909e+01 7.636119e+01 3.999490e+01 4.373235e+01 4.536525e+01 3.400304e+01 4.274873e+01 4.849369e+01 4.174072e+01 2.774621e+01 1.985584e+01 1.057687e+00 3.926813e+00 3.399499e+00 6.717140e+00 4.095663e+00 6.098831e+00 4.584749e+00 5.154844e+00 7.514923e+00 6.885096e+00 5.248726e+00 4.909967e+00 1.782243e+00 1.280069e-01 3.668649e-01 3.721012e-01 1.059134e+00 6.254956e-01 7.047710e-01 7.442937e-01 8.049632e-01 1.028048e+00 9.930979e-01 9.785267e-01 6.444839e-01 2.776480e-01
<GCONST> 1.284995e+02
<STATE> 4
<MEAN> 39
 5.005966e+00 -2.545067e+00 1.433347e+00 -6.411319e+00 -6.219526e+00 -3.371656e-01 -1.676929e+01 -3.414882e+00 -2.818742e+00 5.664266e+00 4.194709e+00 -9.074048e+00 6.478564e+01 -6.594263e-01 -2.273939e+00 7.604104e-01 -1.323655e+00 -9.487012e-01 -1.072816e+00 -1.210225e+00 1.828465e+00 1.793015e+00 7.089117e-01 -1.125774e-01 -1.647607e+00 1.913110e+00 -1.858556e-01 5.891841e-01 1.976425e-01 9.357837e-01 8.088745e-02 2.997394e-02 9.227641e-01 2.834212e-01 -3.157541e-01 -8.617561e-01 -7.194603e-01 3.154410e-01 -5.631413e-01
<VARIANCE> 39
 7.012789e+00 4.408104e+01 3.309337e+01 9.038126e+01 5.616787e+01 7.083247e+01 5.926957e+01 4.631791e+01 6.853487e+01 7.419686e+01 6.888702e+01 5.749678e+01 2.373549e+01 9.767649e-01 3.148791e+00 3.958980e+00 5.568649e+00 3.652331e+00 5.131321e+00 4.642545e+00 6.476155e+00 7.130829e+00 5.943715e+00 6.897907e+00 5.496817e+00 1.681444e+00 1.142821e-01 4.450112e-01 3.338798e-01 1.134893e+00 7.500235e-01 7.696818e-01 8.502440e-01 7.705139e-01 9.793499e-01 1.176506e+00 1.139861e+00 8.393379e-01 2.570387e-01
<GCONST> 1.338758e+02
<TRANSP> 5
 0.000000e+00 1.000000e+00 0.000000e+00 0.000000e+00 0.000000e+00
 0.000000e+00 6.957746e-01 3.042254e-01 0.000000e+00 0.000000e+00
 0.000000e+00 0.000000e+00 3.363522e-01 6.636478e-01 0.000000e+00
 0.000000e+00 0.000000e+00 0.000000e+00 2.568985e-01 7.431015e-01
 0.000000e+00 0.000000e+00 0.000000e+00 0.000000e+00 0.000000e+00
<ENDHMM>
~h "c"
<BEGINHMM>
<NUMSTATES> 5
<STATE> 2
<MEAN> 39
 -1.734111e+00 3.858736e+00 6.543655e-02 1.284367e+00 -3.723785e+00 -2.093541e+00 -5.479858e+00 4.279097e-01 -3.140244e+00 -1.280837e+00 -2.010430e+00 -2.854096e+00 5.483504e+01 -2.487139e+00 2.411294e-01 3.508201e-01 -1.211558e+00 1.224843e+00 -6.722561e-01 7.688280e-01 -3.164115e-01 2.162423e-01 -2.097733e-01 4.367317e-01 1.895009e-01 1.033862e+00 -5.310029e-01 -2.096486e-01 5.595700e-01 -4.105322e-01 1.555731e-02 -5.964546e-01 -1.486797e-01 -6.175715e-02 2.195170e-01 -1.023170e-01 2.062311e-01 4.840690e-02 8.927230e-01
<VARIANCE> 39
 1.943081e+01 2.050585e+01 2.915439e+01 2.549316e+01 3.536431e+01 4.666659e+01 3.473171e+01 4.134577e+01 3.169811e+01 2.486157e+01 2.777417e+01 2.488751e+01 2.084238e+01 3.355159e+00 2.654438e+00 2.851916e+00 3.467939e+00 3.423921e+00 4.140041e+00 2.621260e+00 3.343697e+00 2.768122e+00 2.541462e+00 2.674474e+00 2.153524e+00 2.935389e+00 6.666585e-01 3.950090e-01 4.016369e-01 5.619504e-01 6.572775e-01 5.826219e-01 5.219783e-01 6.633495e-01 5.687996e-01 5.507860e-01 4.821116e-01 4.225712e-01 2.596468e-01
<GCONST> 1.203349e+02
<STATE> 3
<MEAN> 39
 -1.414769e+01 4.852492e+00 4.620111e+00 -4.606603e+00 5.364832e-01 -7.006464e+00 -2.801691e+00 -1.074403e+00 -8.299066e-01 -3.697703e+00 6.335210e-01 -1.552298e+00 6.260381e+01 5.218029e-02 -1.134562e+00 1.414412e+00 -4.049824e-01 -1.071302e+00 -1.507244e+00 -9.699687e-01 2.946212e-01 6.453565e-01 -4.473796e-01 3.370746e-01 2.613059e-01 2.033017e+00 1.920263e+00 -7.005433e-01 -2.298892e-01 4.620060e-01 -9.099860e-01 3.662838e-01 -8.291038e-01 2.207911e-01 -1.260676e-01 2.502431e-01 -9.483920e-02 -2.537120e-01 -2.213472e-01
<VARIANCE> 39
 1.589332e+01 2.918331e+01 2.868728e+01 2.842197e+01 4.083881e+01 5.120982e+01 3.368022e+01 3.768149e+01 3.015284e+01 2.831340e+01 2.539006e+01 1.970711e+01 1.519088e+01 1.011991e+01 3.603090e+00 3.108056e+00 3.882415e+00 5.349777e+00 3.921478e+00 4.412588e+00 4.014984e+00 3.558263e+00 3.088884e+00 2.596944e+00 2.289464e+00 2.097218e+00 5.425518e-01 7.296079e-01 6.257134e-01 8.300819e-01 8.582028e-01 7.143800e-01 6.173724e-01 7.842833e-01 9.167971e-01 6.382352e-01 6.478189e-01 5.562271e-01 2.725648e-01
<GCONST> 1.262699e+02
<STATE> 4
<MEAN> 39
 -2.504007e+00 -3.433583e+00 6.381447e+00 -2.984336e+00 -7.301234e+00 -1.035117e+01 -1.109732e+01 1.973919e+00 1.255710e+00 -3.733412e+00 -1.409724e-01 -2.547725e+00 6.762468e+01 3.693003e+00 -2.693992e+00 -3.939095e-01 -3.399689e-01 -1.858812e+00 5.442324e-01 -2.230548e+00 5.717135e-01 8.567487e-02 8.458393e-01 6.041640e-01 -1.352862e+00 1.391634e+00 -1.732777e-01 4.932349e-01 -6.039525e-01 -1.036430e-01 5.469849e-01 9.611145e-01 5.856471e-01 -2.772207e-01 -5.080267e-01 2.719954e-01 1.041628e-01 -3.186713e-01 -7.030740e-01
<VARIANCE> 39
 1.513835e+01 3.334815e+01 4.365848e+01 2.796174e+01 2.792315e+01 3.809924e+01 5.474541e+01 5.793300e+01 3.733607e+01 3.390406e+01 1.998370e+01 1.800102e+01 2.074220e+01 2.369337e+00 3.994301e+00 3.618192e+00 2.855399e+00 4.117873e+00 3.445309e+00 4.017704e+00 6.489079e+00 5.118842e+00 3.781598e+00 3.626053e+00 3.157612e+00 1.208890e+00 9.164129e-01 5.584866e-01 4.488061e-01 5.252679e-01 6.262655e-01 6.441567e-01 7.476240e-01 6.177316e-01 6.364805e-01 5.815579e-01 5.398408e-01 5.643060e-01 2.942368e-01
<GCONST> 1.249868e+02
<TRANSP> 5
 0.000000e+00 1.000000e+00 0.000000e+00 0.000000e+00 0.000000e+00
 0.000000e+00 6.774103e-01 3.225897e-01 0.000000e+00 0.000000e+00
 0.000000e+00 0.000000e+00 6.458218e-01 3.541781e-01 0.000000e+00
 0.000000e+00 0.000000e+00 0.000000e+00 4.382755e-01 5.617245e-01
 0.000000e+00 0.000000e+00 0.000000e+00 0.000000e+00 0.000000e+00
<ENDHMM>
~h "d"
<BEGINHMM>
<NUMSTATES> 5
<STATE> 2
<MEAN> 39
 4.052174e+00 5.456361e+00 5.053688e+00 7.639514e+00 -7.041583e+00 -1.956629e+00 -7.726326e+00 7.788590e-01 -4.475262e+00 -2.527472e+00 -4.200723e+00 -5.285505e+00 5.584207e+01 -4.804859e-02 -2.018620e-01 3.026199e-01 9.955359e-02 4.337169e-02 -2.487098e-01 -1.873027e-01 -2.273763e-02 3.944485e-02 -3.815393e-01 2.266747e-01 3.177913e-01 2.146497e-01 -3.702678e-01 -9.697786e-01 5.629340e-01 -8.807422e-01 -5.291082e-01 -5.632166e-01 -6.573631e-01 4.135649e-02 1.458249e-02 5.042379e-02 7.666736e-01 7.383005e-02 9.665924e-01
<VARIANCE> 39
 6.937220e+00 2.949257e+01 3.082854e+01 2.054857e+01 3.652441e+01 2.688549e+01 3.598380e+01 4.971280e+01 3.163058e+01 2.748549e+01 3.562169e+01 2.834471e+01 1.409321e+01 9.229344e-01 2.990076e+00 2.830724e+00 2.529720e+00 3.009512e+00 3.427403e+00 3.874095e+00 4.068892e+00 3.205211e+00 2.472944e+00 3.330120e+00 2.399561e+00 2.073262e+00 1.450293e-01 3.130593e-01 5.633835e-01 4.312192e-01 5.771679e-01 6.232831e-01 7.755028e-01 1.098797e+00 7.173630e-01 5.636678e-01 6.014498e-01 5.054680e-01 2.145919e-01
<GCONST> 1.177872e+02
<STATE> 3
<MEAN> 39
 2.460470e+00 6.380424e-01 6.671000e+00 5.781823e+00 -6.959932e+00 -3.454605e+00 -9.253071e+00 -5.970821e-01 -4.187410e+00 -3.524561e+00 -2.240413e+00 -3.125564e+00 5.933072e+01 -8.395477e-01 -2.579851e+00 2.059913e+00 -2.288001e+00 -1.760357e+00 -1.928447e+00 -2.334104e+00 4.994566e-01 8.059217e-02 -4.500259e-02 2.354434e+00 1.378971e-01 2.801143e+00 -1.222794e-01 -1.598203e-01 1.865473e-01 -7.078322e-01 -4.198192e-01 -1.678335e-01 -3.709926e-01 3.566320e-01 -8.270941e-02 3.756228e-01 4.061537e-01 -4.999152e-01 4.711646e-01
<VARIANCE> 39
 1.047673e+01 3.254247e+01 3.862188e+01 3.422711e+01 3.914519e+01 4.550454e+01 5.626244e+01 6.146588e+01 4.292048e+01 3.369429e+01 3.081998e+01 3.250133e+01 2.023663e+01 1.196964e+00 2.632622e+00 5.430460e+00 3.389472e+00 3.811026e+00 4.495207e+00 5.501810e+00 1.022009e+01 6.721994e+00 4.660768e+00 5.193132e+00 3.569024e+00 1.369074e+00 1.425605e-01 4.227845e-01 4.868774e-01 5.461857e-01 7.899004e-01 8.631065e-01 8.261918e-01 9.861041e-01 7.613920e-01 7.266708e-01 7.047853e-01 6.028993e-01 2.433395e-01
<GCONST> 1.275496e+02
<STATE> 4
<MEAN> 39
 1.389518e+00 -5.054055e+00 1.081729e+01 -9.859688e-01 -1.228915e+01 -9.054267e+00 -1.614294e+01 3.851894e+00 -3.169733e+00 -2.056475e+00 3.395533e+00 -4.848670e+00 6.612318e+01 -7.048959e-01 -1.657521e+00 1.062144e+00 -2.636446e+00 -1.474732e+00 -1.159775e+00 -1.593532e+00 1.320754e+00 1.840213e-01 7.419752e-01 1.753949e+00 -1.249062e+00 2.392337e+00 1.373886e-01 7.377845e-01 -5.872686e-01 3.553315e-01 4.752865e-01 6.687717e-01 6.943025e-01 -2.293483e-01 -1.330222e-01 1.712811e-01 -6.161121e-01 -3.169733e-01 -6.173394e-01
<VARIANCE> 39
 1.003756e+01 3.119481e+01 5.344635e+01 3.851619e+01 4.007223e+01 5.121706e+01 8.190076e+01 1.141813e+02 7.833466e+01 5.183829e+01 4.401857e+01 5.401541e+01 1.801946e+01 1.049152e+00 2.532911e+00 5.663808e+00 3.206987e+00 4.068944e+00 5.014057e+00 5.023605e+00 8.511960e+00 5.898820e+00 5.455376e+00 6.110982e+00 3.852670e+00 1.595708e+00 1.164825e-01 3.356385e-01 4.519823e-01 5.867198e-01 7.445390e-01 8.097684e-01 1.062817e+00 1.258598e+00 9.207461e-01 6.439490e-01 7.083734e-01 6.507338e-01 2.263693e-01
<GCONST> 1.309767e+02
<TRANSP> 5
 0.000000e+00 1.000000e+00 0.000000e+00 0.000000e+00 0.000000e+00
 0.000000e+00 6.126309e-01 3.873691e-01 0.000000e+00 0.000000e+00
 0.000000e+00 0.000000e+00 1.924777e-01 8.075223e-01 0.000000e+00
 0.000000e+00 0.000000e+00 0.000000e+00 3.443448e-01 6.556551e-01
 0.000000e+00 0.000000e+00 0.000000e+00 0.000000e+00 0.000000e+00
<ENDHMM>
~h "e"
<BEGINHMM>
<NUMSTATES> 5
<STATE> 2
<MEAN> 39
 3.844823e-01 -6.781025e+00 6.786917e+00 -1.831095e+00 -1.068135e+01 -8.663263e+00 -6.953558e+00 5.714815e+00 -4.430893e+00 -6.770858e-01 1.581787e+00 -6.617455e+00 6.630821e+01 1.766566e-01 -1.409262e+00 1.396197e+00 -1.139111e+00 -1.383524e+00 -6.373425e-01 -2.765545e-01 1.639339e+00 -1.805095e-01 -2.905535e-01 7.256739e-01 -4.329294e-01 1.507882e+00 -1.624569e-01 5.154591e-01 -3.384783e-01 2.281160e-01 4.982361e-01 3.707417e-01 3.050005e-01 -4.231376e-01 -7.013810e-02 5.372941e-02 -2.276447e-01 2.257112e-01 -4.990706e-01
<VARIANCE> 39
 1.372993e+01 3.443739e+01 5.620547e+01 3.363953e+01 4.588482e+01 7.378809e+01 9.406818e+01 6.002057e+01 8.392889e+01 7.692596e+01 5.099149e+01 3.891846e+01 3.133123e+01 1.424250e+00 2.071961e+00 4.075511e+00 2.317482e+00 4.297826e+00 4.145373e+00 5.045265e+00 5.032098e+00 4.129095e+00 4.811485e+00 4.121344e+00 2.839527e+00 1.927489e+00 2.579248e-01 4.992754e-01 7.602610e-01 4.553234e-01 7.046769e-01 7.028340e-01 8.958553e-01 8.924136e-01 8.204870e-01 7.990087e-01 6.650465e-01 5.243727e-01 3.765414e-01
<GCONST> 1.310150e+02
<STATE> 3
<MEAN> 39
 2.747488e-01 -9.240021e+00 7.650725e+00 -4.488243e+00 -1.195328e+01 -8.746091e+00 -8.214054e+00 8.284060e+00 -3.920612e+00 -1.920555e+00 2.502287e+00 -8.367807e+00 6.901806e+01 1.742978e-01 5.975547e-01 -3.306986e-01 5.753498e-01 3.510159e-01 3.213134e-01 2.193017e-01 -4.154764e-01 -1.076763e-01 9.035207e-02 -4.335373e-01 1.696238e-01 -5.955819e-01 1.037328e-02 5.526357e-01 -2.727492e-01 5.039181e-01 3.146820e-01 2.103410e-01 1.473271e-01 -5.755575e-01 -4.064475e-03 9.498059e-02 -2.016118e-01 1.641204e-01 -5.038118e-01
<VARIANCE> 39
 7.642517e+00 2.616949e+01 4.396778e+01 2.979095e+01 3.986718e+01 9.019251e+01 7.187871e+01 7.231441e+01 8.000042e+01 7.376906e+01 5.178762e+01 3.980750e+01 1.529865e+01 5.315635e-01 1.479466e+00 1.440386e+00 2.087970e+00 2.163018e+00 2.143818e+00 2.930728e+00 2.899048e+00 2.527457e+00 2.831941e+00 2.119072e+00 1.594732e+00 1.176650e+00 1.500670e-01 2.837055e-01 3.617905e-01 3.229631e-01 4.102494e-01 4.447854e-01 6.128825e-01 6.375651e-01 5.264593e-01 6.314723e-01 4.642807e-01 3.610448e-01 1.533106e-01
<GCONST> 1.151149e+02
<STATE> 4
<MEAN> 39
 -3.719449e-01 -3.682667e+00 1.014210e+01 -2.035458e+00 -1.137821e+01 -8.169816e+00 -4.690911e+00 4.274753e+00 -8.081057e+00 2.891269e+00 2.920975e+00 -4.798914e+00 6.353000e+01 2.563381e-02 7.711072e-01 -4.538154e-01 7.713395e-01 4.350346e-01 5.614411e-01 4.529460e-01 -5.187016e-01 4.979180e-02 -1.245795e-02 -3.644015e-01 2.465119e-01 -8.950055e-01 -5.965135e-02 2.234501e-02 -2.286483e-02 -4.041123e-02 4.179896e-02 4.796088e-02 1.737130e-02 -3.695779e-02 3.731845e-03 -4.111451e-02 -1.742967e-03 1.507905e-02 6.119233e-03
<VARIANCE> 39
 9.088428e+00 2.168141e+01 6.717128e+01 5.011805e+01 4.429182e+01 5.473104e+01 4.921873e+01 4.847521e+01 4.908090e+01 5.696226e+01 7.103236e+01 3.206059e+01 2.680450e+01 4.395200e-01 1.426883e+00 1.509508e+00 1.651146e+00 1.831341e+00 1.672680e+00 2.106094e+00 2.564934e+00 2.121633e+00 2.112215e+00 1.813956e+00 1.598262e+00 8.557181e-01 9.609027e-02 1.665262e-01 2.358884e-01 2.235363e-01 3.012733e-01 2.694559e-01 3.478427e-01 3.849658e-01 3.746108e-01 3.547002e-01 2.703048e-01 2.719059e-01 9.322371e-02
<GCONST> 1.066685e+02
<TRANSP> 5
 0.000000e+00 1.000000e+00 0.000000e+00 0.000000e+00 0.000000e+00
 0.000000e+00 5.367060e-01 4.632940e-01 0.000000e+00 0.000000e+00
 0.000000e+00 0.000000e+00 6.573913e-01 3.426087e-01 0.000000e+00
 0.000000e+00 0.000000e+00 0.000000e+00 7.601042e-01 2.398958e-01
 0.000000e+00 0.000000e+00 0.000000e+00 0.000000e+00 0.000000e+00
<ENDHMM>
~h "f"
<BEGINHMM>
<NUMSTATES> 5
<STATE> 2
<MEAN> 39
 -6.773007e+00 1.239509e+00 1.145773e+00 5.935466e-01 -3.508473e+00 -3.896345e+00 -2.703853e+00 -2.123290e+00 -1.247080e+00 -1.937393e+00 -1.326486e+00 -4.425009e+00 5.984998e+01 -1.252966e+00 1.245694e-01 -5.221910e-02 1.653913e-01 4.060870e-01 -4.988828e-01 2.437384e-01 4.952227e-02 6.311142e-01 -1.780103e-01 -3.505745e-01 2.738144e-01 -1.378509e-01 3.548060e-01 -3.375084e-01 2.231965e-01 7.255852e-02 -2.526131e-01 -2.948703e-02 -2.596089e-01 1.067541e-01 -7.727458e-02 -1.479432e-02 1.699722e-01 -7.133039e-02 2.423321e-01
<VARIANCE> 39
 1.807117e+01 1.059656e+01 4.096436e+01 2.299332e+01 2.721386e+01 4.596782e+01 2.851167e+01 2.998167e+01 3.548493e+01 2.843040e+01 2.127228e+01 2.090982e+01 1.145702e+01 1.648680e+00 1.285630e+00 1.536890e+00 1.729236e+00 1.918814e+00 2.725481e+00 2.020081e+00 2.621199e+00 2.563333e+00 2.233304e+00 1.798299e+00 1.765180e+00 6.327094e-01 3.195648e-01 2.055812e-01 3.086102e-01 3.101412e-01 5.007614e-01 5.580831e-01 5.380666e-01 5.050479e-01 5.912929e-01 4.154930e-01 4.183019e-01 3.588384e-01 1.237153e-01
<GCONST> 1.075704e+02
<STATE> 3
<MEAN> 39
 -9.567882e+00 -7.546861e-01 3.009929e+00 3.927626e+00 -1.598357e+00 -6.773145e+00 -3.279675e+00 -1.425149e+00 1.935029e+00 -1.518218e+00 -2.408220e+00 -3.259614e+00 6.021133e+01 1.856570e+00 -1.066395e+00 1.848056e+00 4.460441e-01 -1.512889e+00 -1.414973e+00 -2.101956e+00 7.986833e-02 -7.694066e-01 -5.739322e-01 1.120513e+00 1.809466e-01 8.180388e-01 8.788850e-01 -1.585140e-01 7.067548e-01 -4.427819e-01 -1.193668e+00 -5.430251e-02 -8.307636e-01 1.147810e-01 -6.993788e-01 -2.872773e-01 8.379170e-01 -2.385331e-01 4.313973e-01
<VARIANCE> 39
 1.712951e+01 9.672525e+00 3.414464e+01 2.286785e+01 2.209139e+01 4.082806e+01 2.678382e+01 1.995541e+01 3.479862e+01 1.821327e+01 1.875575e+01 1.936114e+01 8.734338e+00 2.058035e+00 1.233889e+00 3.751653e+00 1.784627e+00 3.373046e+00 3.536673e+00 3.756806e+00 2.653353e+00 3.830165e+00 3.201506e+00 2.886545e+00 2.143545e+00 1.074942e+00 2.450652e-01 3.344203e-01 5.681862e-01 3.384569e-01 3.925108e-01 5.438386e-01 6.151927e-01 5.168613e-01 7.056877e-01 6.072079e-01 5.085856e-01 4.371257e-01 1.245354e-01
<GCONST> 1.117856e+02
<STATE> 4
<MEAN> 39
 -1.153130e+00 -2.079911e+00 9.721257e+00 4.122044e+00 -9.386582e+00 -1.068506e+01 -1.142284e+01 -8.413295e-01 -3.832288e+00 -5.029573e+00 2.625293e+00 -3.654019e+00 6.268082e+01 2.570971e+00 -1.422175e+00 2.727576e+00 -9.986960e-01 -3.768791e+00 -6.497524e-01 -3.031490e+00 7.037197e-01 -1.628162e+00 -1.113765e+00 2.836656e+00 -8.266913e-01 1.815904e+00 -5.153348e-01 -3.631493e-02 -2.101633e-01 -5.460309e-01 1.347205e-02 4.576597e-01 3.098179e-01 1.262988e-01 2.981999e-01 2.808170e-01 3.331820e-02 -3.982131e-01 1.514513e-01
<VARIANCE> 39
 1.088736e+01 1.346947e+01 8.495741e+01 2.955385e+01 3.633547e+01 4.475317e+01 5.571386e+01 2.316783e+01 2.755117e+01 3.744706e+01 2.806175e+01 2.057714e+01 1.299884e+01 1.084217e+00 2.126487e+00 7.157545e+00 2.198642e+00 3.095940e+00 4.064065e+00 5.095019e+00 3.601952e+00 5.986598e+00 4.625835e+00 4.037314e+00 2.975941e+00 1.328950e+00 2.230060e-01 1.648083e-01 5.000325e-01 3.142612e-01 5.637496e-01 5.042252e-01 5.355875e-01 4.157499e-01 5.022519e-01 4.350431e-01 6.118485e-01 3.247049e-01 1.283182e-01
<GCONST> 1.169336e+02
<TRANSP> 5
 0.000000e+00 1.000000e+00 0.000000e+00 0.000000e+00 0.000000e+00
 0.000000e+00 8.265840e-01 1.734160e-01 0.000000e+00 0.000000e+00
 0.000000e+00 0.000000e+00 5.172721e-01 4.827279e-01 0.000000e+00
 0.000000e+00 0.000000e+00 0.000000e+00 3.182682e-01 6.817318e-01
 0.000000e+00 0.000000e+00 0.000000e+00 0.000000e+00 0.000000e+00
<ENDHMM>
~h "g"
<BEGINHMM>
<NUMSTATES> 5
<STATE> 2
<MEAN> 39
 3.530443e+00 5.812300e+00 4.151108e+00 4.357487e+00 -5.745868e+00 6.428055e-02 -8.140594e+00 -1.873997e+00 -7.641876e+00 -4.105418e-01 -1.741264e+00 -6.406548e+00 5.620953e+01 -6.088581e-01 -5.500745e-01 2.631284e-01 -8.320695e-01 9.278377e-01 -8.308103e-01 -6.957418e-01 5.282409e-02 1.780010e-01 2.005898e-01 2.292517e-01 -5.666251e-02 7.443966e-01 -3.208237e-01 -5.902398e-01 5.756341e-01 -7.762049e-01 -3.430958e-01 -4.759059e-01 -6.499946e-01 4.021776e-02 7.685269e-02 1.098455e-01 6.755500e-01 -2.780310e-01 8.380617e-01
<VARIANCE> 39
 7.619332e+00 2.486640e+01 3.191614e+01 2.906633e+01 5.332113e+01 3.644791e+01 4.302348e+01 3.985845e+01 3.611965e+01 3.186312e+01 3.621197e+01 3.097292e+01 1.456604e+01 1.219576e+00 2.606681e+00 4.105382e+00 3.644421e+00 4.432027e+00 4.367152e+00 4.790247e+00 4.049382e+00 4.026247e+00 3.416848e+00 3.820582e+00 2.889046e+00 2.036247e+00 1.859358e-01 3.649435e-01 6.000304e-01 4.990239e-01 9.482934e-01 5.863748e-01 6.320122e-01 7.919903e-01 7.506671e-01 6.169698e-01 7.652049e-01 4.870088e-01 2.018953e-01
<GCONST> 1.225151e+02
<STATE> 3
<MEAN> 39
 4.873298e-01 7.239594e-01 7.347968e+00 -1.490024e+00 -4.802531e+00 -5.488261e+00 -1.412863e+01 -1.953185e+00 -7.366429e+00 1.096159e+00 3.273757e+00 -8.892724e+00 6.297732e+01 -7.768598e-01 -1.542206e+00 1.425927e+00 -2.233740e+00 -1.642089e+00 -1.717622e+00 -1.822457e+00 7.431847e-01 1.004124e+00 3.506001e-01 2.133017e+00 -1.137969e+00 2.505443e+00 1.831545e-01 -5.456220e-02 -1.160204e-01 5.749520e-02 -6.886774e-01 3.967662e-01 3.781257e-01 2.881872e-01 2.769271e-01 -3.903921e-02 -1.268891e-01 -5.197871e-02 -1.436336e-02
<VARIANCE> 39
 1.363180e+01 3.123172e+01 5.334110e+01 3.549398e+01 6.599944e+01 6.137709e+01 7.338438e+01 4.599103e+01 5.372453e+01 5.297694e+01 8.031766e+01 4.459238e+01 1.700900e+01 1.332327e+00 2.709723e+00 5.231426e+00 3.154441e+00 6.812675e+00 3.966096e+00 4.677797e+00 6.923758e+00 5.808764e+00 4.896484e+00 5.548954e+00 3.310999e+00 1.483883e+00 1.490250e-01 3.922284e-01 6.040637e-01 5.425548e-01 1.186072e+00 9.622020e-01 1.053065e+00 8.551831e-01 8.950101e-01 6.978726e-01 1.312825e+00 6.464080e-01 2.248190e-01
<GCONST> 1.321391e+02
<STATE> 4
<MEAN> 39
 -4.228642e-02 -2.267682e+00 8.304556e+00 -5.306808e+00 -1.067614e+01 -6.671044e+00 -1.518969e+01 1.339571e+00 -3.399413e+00 1.672705e+00 6.431944e+00 -1.148434e+01 6.731046e+01 -3.260185e-01 -1.347068e+00 2.237478e-01 -1.414827e+00 -1.200487e+00 -6.916689e-02 9.416267e-03 1.173051e+00 1.015287e+00 1.377640e-01 1.533378e-01 -6.032160e-01 1.499931e+00 2.650554e-01 2.082621e-01 -4.064964e-01 6.169479e-01 3.903736e-01 4.660080e-01 4.568062e-01 -1.261588e-01 -3.719695e-01 -1.296997e-01 -6.653628e-01 3.219113e-01 -5.751162e-01
<VARIANCE> 39
 1.325118e+01 4.169875e+01 5.536264e+01 3.195751e+01 6.238310e+01 5.154783e+01 7.440273e+01 6.304110e+01 7.513802e+01 6.710099e+01 8.077677e+01 5.522281e+01 2.417254e+01 9.059246e-01 1.572695e+00 5.569405e+00 2.645526e+00 4.410246e+00 3.689870e+00 3.850593e+00 5.411798e+00 5.320913e+00 3.805508e+00 6.863217e+00 2.913553e+00 9.646434e-01 1.774954e-01 2.655293e-01 5.495164e-01 4.054405e-01 1.084957e+00 6.720812e-01 9.965183e-01 8.464153e-01 7.554166e-01 6.716265e-01 1.178252e+00 5.792552e-01 1.655362e-01
<GCONST> 1.290496e+02
<TRANSP> 5
 0.000000e+00 1.000000e+00 0.000000e+00 0.000000e+00 0.000000e+00
 0.000000e+00 6.328223e-01 3.671777e-01 0.000000e+00 0.000000e+00
 0.000000e+00 0.000000e+00 4.044293e-01 5.955706e-01 0.000000e+00
 0.000000e+00 0.000000e+00 0.000000e+00 3.379734e-01 6.620266e-01
 0.000000e+00 0.000000e+00 0.000000e+00 0.000000e+00 0.000000e+00
<ENDHMM>
~h "h"
<BEGINHMM>
<NUMSTATES> 5
<STATE> 2
<MEAN> 39
 -1.942122e-01 -5.244231e+00 2.241112e+00 -3.362222e+00 -2.912056e+00 -2.095249e+00 -4.427859e+00 3.511242e+00 -2.815228e+00 -1.370817e+00 -3.878971e+00 -6.285632e+00 6.568215e+01 -2.744505e-01 1.668329e-01 -1.119217e-01 5.831401e-01 6.406512e-01 1.778109e-01 6.512556e-01 -1.596621e-01 9.933580e-02 -2.380503e-01 -3.316711e-01 3.267452e-01 -4.433712e-01 4.743620e-02 -5.490564e-02 -3.632189e-03 -6.984100e-02 -2.183410e-01 -4.615667e-02 -2.042905e-01 -5.953658e-02 -2.323778e-02 1.561010e-02 1.848958e-01 -7.806516e-02 -1.205193e-02
<VARIANCE> 39
 1.229167e+01 3.847021e+01 5.125296e+01 4.710086e+01 6.413004e+01 9.233703e+01 6.474339e+01 6.549072e+01 7.407127e+01 5.052766e+01 5.553316e+01 4.355836e+01 3.368418e+01 8.161275e-01 1.610450e+00 1.856799e+00 1.858717e+00 2.342643e+00 2.536140e+00 2.286829e+00 2.719683e+00 2.485826e+00 1.813730e+00 2.063558e+00 1.706506e+00 1.073512e+00 1.033973e-01 2.938940e-01 2.587515e-01 3.226467e-01 4.028974e-01 4.211838e-01 4.440478e-01 4.432691e-01 4.201001e-01 3.358227e-01 3.843967e-01 3.451284e-01 1.302561e-01
<GCONST> 1.147644e+02
<STATE> 3
<MEAN> 39
 -1.362905e+00 -5.580534e+00 -4.018556e-01 -5.675433e-01 5.831532e-01 -1.987641e+00 -1.434836e+00 1.742594e+00 -1.444380e+00 -1.892484e+00 -5.672281e+00 -4.934719e+00 6.355964e+01 7.966147e-02 2.319914e-01 -1.504958e-01 2.917200e-01 -2.101472e-01 1.390037e-02 -4.529933e-02 -1.403030e-01 -6.764156e-02 3.826433e-02 1.205372e-01 2.510046e-02 -5.501761e-01 9.416049e-02 2.670040e-02 2.261976e-03 -7.603330e-02 -1.838353e-01 -2.400424e-02 -1.433917e-01 1.046822e-02 -5.452136e-02 2.854305e-02 7.530294e-02 -6.588110e-02 2.586724e-02
<VARIANCE> 39
 2.051559e+01 2.984989e+01 4.075958e+01 2.853767e+01 4.975221e+01 5.082000e+01 7.023804e+01 5.164291e+01 6.703615e+01 4.585780e+01 5.225474e+01 2.937828e+01 2.778772e+01 6.319257e-01 1.031729e+00 1.343366e+00 1.362112e+00 1.651767e+00 2.059174e+00 1.913222e+00 2.093672e+00 1.989108e+00 1.971550e+00 1.808967e+00 1.562270e+00 8.114344e-01 1.022563e-01 1.839364e-01 2.071472e-01 2.451415e-01 3.185587e-01 3.507803e-01 3.945936e-01 3.991953e-01 3.894044e-01 3.456103e-01 3.481206e-01 3.005661e-01 7.495856e-02
<GCONST> 1.070145e+02
<STATE> 4
<MEAN> 39
 -3.259664e-01 -1.881263e-01 7.027907e-01 2.211215e+00 -4.324707e+00 -1.430359e+00 -3.006009e+00 7.545941e-01 -5.849856e+00 -3.679165e-01 -2.278122e+00 -2.838909e+00 5.705006e+01 1.371135e-01 3.314700e-01 -3.345894e-01 2.900103e-01 -2.745734e-01 1.410711e-01 -1.221364e-01 -2.831771e-02 -9.894973e-03 -1.561748e-01 1.832368e-01 8.921910e-03 -4.612754e-01 -3.588955e-02 -7.667522e-02 7.675569e-02 -1.293018e-01 -8.806475e-04 -2.191333e-02 -6.218391e-02 4.478408e-02 4.794681e-02 -8.698160e-03 5.231443e-02 -5.537196e-02 1.621800e-01
<VARIANCE> 39
 1.167080e+01 2.824596e+01 5.180081e+01 3.204761e+01 4.734127e+01 5.226118e+01 4.314033e+01 3.982892e+01 4.450999e+01 3.536571e+01 3.428933e+01 2.974980e+01 3.057060e+01 6.799442e-01 1.284347e+00 1.646788e+00 1.779032e+00 2.064404e+00 2.281832e+00 2.399434e+00 2.521208e+00 2.371034e+00 2.081547e+00 2.094485e+00 2.023561e+00 8.506372e-01 8.957503e-02 1.837826e-01 2.599362e-01 3.062925e-01 3.550771e-01 3.960089e-01 4.208879e-01 4.630990e-01 4.298754e-01 3.966995e-01 3.949223e-01 3.517985e-01 1.122017e-01
<GCONST> 1.088655e+02
<TRANSP> 5
 0.000000e+00 1.000000e+00 0.000000e+00 0.000000e+00 0.000000e+00
 0.000000e+00 4.964314e-01 5.035685e-01 0.000000e+00 0.000000e+00
 0.000000e+00 0.000000e+00 6.896690e-01 3.103309e-01 0.000000e+00
 0.000000e+00 0.000000e+00 0.000000e+00 6.316214e-01 3.683787e-01
 0.000000e+00 0.000000e+00 0.000000e+00 0.000000e+00 0.000000e+00
<ENDHMM>
~h "i"
<BEGINHMM>
<NUMSTATES> 5
<STATE> 2
<MEAN> 39
 -1.761561e+00 -9.558687e-01 1.690485e+01 -1.375143e+00 -1.506676e+01 -8.381988e+00 -1.141296e+01 -1.148040e+00 -1.056884e+01 -3.187128e+00 6.072487e+00 -6.468206e+00 6.511392e+01 -9.296713e-02 -5.013505e-01 2.588922e+00 -1.074879e+00 -2.242984e+00 -3.412810e-01 -1.488393e+00 4.956201e-01 -1.128029e+00 -2.931572e-01 1.860972e+00 -5.998667e-01 1.166463e+00 1.316891e-02 3.175969e-01 -9.561049e-01 1.733437e-01 6.876783e-01 4.823219e-01 4.021891e-01 2.928786e-02 3.956075e-01 2.562764e-01 -5.480372e-01 3.785570e-02 -4.614062e-01
<VARIANCE> 39
 1.123649e+01 3.134478e+01 4.531824e+01 4.195488e+01 4.455253e+01 5.437225e+01 5.604798e+01 6.062715e+01 5.449530e+01 5.787653e+01 4.675000e+01 3.203079e+01 1.647898e+01 2.260842e+00 2.073474e+00 4.722969e+00 3.767767e+00 4.122143e+00 4.218862e+00 5.129465e+00 5.047309e+00 5.229827e+00 4.590175e+00 3.945901e+00 2.854755e+00 1.407163e+00 3.124245e-01 3.375125e-01 8.969514e-01 6.565135e-01 8.312501e-01 7.199003e-01 8.195452e-01 8.636940e-01 8.065622e-01 6.783454e-01 7.121406e-01 5.145890e-01 2.781181e-01
<GCONST> 1.291357e+02
<STATE> 3
<MEAN> 39
 -2.909448e+00 -1.012902e+00 2.012919e+01 -3.720545e+00 -1.833878e+01 -7.331889e+00 -1.332896e+01 -2.025150e-02 -1.146116e+01 -3.874646e+00 9.173809e+00 -8.702972e+00 6.665090e+01 1.945625e-01 1.838733e-01 -6.355535e-01 1.455522e-01 4.614570e-01 1.191168e-01 2.799742e-01 1.747775e-01 1.516025e-01 3.806197e-01 -4.878932e-01 7.422098e-02 -3.204353e-01 1.461498e-01 1.712500e-01 -7.740157e-01 3.913977e-01 6.602958e-01 1.626675e-01 4.203668e-01 -1.208931e-01 2.518750e-01 1.126129e-01 -6.037710e-01 1.697640e-01 -4.238582e-01
<VARIANCE> 39
 8.017588e+00 3.084692e+01 3.516686e+01 3.886465e+01 3.770483e+01 5.454213e+01 5.575063e+01 7.020430e+01 5.870563e+01 6.539404e+01 4.619630e+01 3.499506e+01 1.111672e+01 7.831433e-01 1.562022e+00 2.700628e+00 2.313025e+00 2.460457e+00 2.812940e+00 2.770849e+00 3.286395e+00 2.651065e+00 2.191899e+00 2.317723e+00 1.974586e+00 1.027247e+00 1.526767e-01 2.436801e-01 5.545979e-01 4.093313e-01 5.484381e-01 5.747833e-01 6.250589e-01 6.904295e-01 6.205618e-01 5.330447e-01 5.501630e-01 4.062208e-01 1.801737e-01
<GCONST> 1.167559e+02
<STATE> 4
<MEAN> 39
 -7.651109e-01 2.394499e+00 1.319696e+01 -7.668270e-01 -1.121964e+01 -4.011833e+00 -9.690783e+00 -2.051530e+00 -1.053714e+01 -1.946323e-01 1.703025e+00 -5.235855e+00 6.001988e+01 2.867016e-01 4.971388e-01 -1.573140e+00 8.699899e-01 9.731503e-01 6.761680e-01 7.807186e-01 -1.541132e-01 4.001313e-01 1.366331e-01 -8.916245e-01 2.901298e-01 -1.108206e+00 -9.237179e-02 -5.057887e-02 -2.736791e-02 -4.183132e-02 -3.696011e-02 4.354252e-02 2.006894e-02 -4.316684e-02 5.927153e-02 -5.974370e-02 6.091267e-02 -2.391100e-02 5.896383e-02
<VARIANCE> 39
 9.213378e+00 2.918819e+01 4.369070e+01 4.364787e+01 4.008112e+01 5.741088e+01 4.698074e+01 5.306649e+01 4.750320e+01 4.887560e+01 4.276857e+01 3.188030e+01 2.542584e+01 7.652557e-01 1.348380e+00 2.353710e+00 2.149260e+00 2.577867e+00 2.774530e+00 2.931699e+00 3.013713e+00 3.034354e+00 2.617233e+00 2.619738e+00 2.073070e+00 1.130378e+00 1.108868e-01 1.969068e-01 3.974293e-01 3.607382e-01 4.442436e-01 5.184237e-01 4.952109e-01 4.990557e-01 4.836384e-01 4.222717e-01 3.928123e-01 3.401328e-01 1.527408e-01
<GCONST> 1.141633e+02
<TRANSP> 5
 0.000000e+00 1.000000e+00 0.000000e+00 0.000000e+00 0.000000e+00
 0.000000e+00 4.598652e-01 5.401348e-01 0.000000e+00 0.000000e+00
 0.000000e+00 0.000000e+00 6.674747e-01 3.325253e-01 0.000000e+00
 0.000000e+00 0.000000e+00 0.000000e+00 7.037313e-01 2.962687e-01
 0.000000e+00 0.000000e+00 0.000000e+00 0.000000e+00 0.000000e+00
<ENDHMM>
~h "j"
<BEGINHMM>
<NUMSTATES> 5
<STATE> 2
<MEAN> 39
 1.692215e+00 6.469107e+00 5.418715e+00 4.708414e+00 -3.920541e+00 -1.326175e+00 -6.117868e+00 6.064396e-01 -4.356040e+00 -2.030159e+00 -2.675443e+00 -3.461897e+00 5.604327e+01 -1.310531e+00 3.605084e-01 8.296998e-01 -9.362355e-01 9.075872e-01 -7.806793e-01 1.493395e-01 -6.821747e-01 1.641408e-02 -4.386588e-01 4.007328e-01 4.682845e-01 6.144878e-01 -4.435185e-01 -4.804226e-01 7.798495e-01 -5.994070e-01 -4.540665e-01 -7.612021e-01 -6.085406e-01 -1.122666e-01 -2.294288e-01 -9.166323e-02 4.851374e-01 1.816016e-01 8.262878e-01
<VARIANCE> 39
 1.385897e+01 2.474500e+01 2.826975e+01 2.593657e+01 3.917735e+01 3.285411e+01 3.382935e+01 3.884232e+01 2.803109e+01 2.413838e+01 2.537557e+01 2.417558e+01 1.640626e+01 2.436907e+00 2.022484e+00 3.807127e+00 3.289376e+00 3.494687e+00 4.802087e+00 3.222562e+00 3.414962e+00 2.656271e+00 2.733445e+00 2.335333e+00 2.090306e+00 2.039568e+00 3.706498e-01 3.403807e-01 3.876444e-01 4.905137e-01 8.786039e-01 6.278389e-01 6.447607e-01 5.956552e-01 5.296211e-01 5.777410e-01 4.751874e-01 4.154617e-01 1.841929e-01
<GCONST> 1.180286e+02
<STATE> 3
<MEAN> 39
 -5.547506e+00 5.977915e+00 1.304104e+01 -1.219854e+00 -4.107951e+00 -7.429912e+00 -7.557466e+00 -3.673387e+00 -6.113351e+00 -4.582022e+00 9.620658e-01 -8.932527e-01 6.240310e+01 -3.455686e-01 -1.552363e+00 2.580526e+00 -8.982789e-01 -2.596296e+00 -2.234425e+00 -2.403580e+00 2.055443e-01 -8.445992e-01 -1.062192e-01 1.742510e+00 4.341291e-01 2.228658e+00 8.736587e-01 -5.579410e-01 -5.738344e-01 2.660648e-01 -5.855794e-01 2.801820e-01 -5.502585e-01 7.198541e-01 6.698827e-02 5.050952e-01 4.118289e-02 -3.826262e-01 -7.084097e-02
<VARIANCE> 39
 1.932212e+01 3.257481e+01 4.427306e+01 2.882557e+01 5.334971e+01 5.049784e+01 5.220596e+01 3.857420e+01 3.141548e+01 3.222745e+01 2.733968e+01 2.419850e+01 1.473732e+01 3.009474e+00 2.788174e+00 3.235012e+00 3.779147e+00 4.300557e+00 4.093709e+00 4.202113e+00 4.661021e+00 3.433859e+00 3.575375e+00 3.120786e+00 2.635938e+00 1.351829e+00 3.474302e-01 5.196608e-01 7.379748e-01 6.046337e-01 1.208827e+00 1.003743e+00 8.078966e-01 7.404059e-01 6.999894e-01 6.216063e-01 6.998915e-01 5.913798e-01 2.143022e-01
<GCONST> 1.261817e+02
<STATE> 4
<MEAN> 39
 -1.504283e+00 -2.379853e+00 1.577892e+01 -2.620265e+00 -1.320416e+01 -1.204072e+01 -1.679169e+01 3.783478e+00 -6.688208e+00 -2.114347e+00 5.123522e+00 -1.990319e+00 6.768541e+01 9.137927e-01 -1.742836e+00 -1.066267e+00 -7.556668e-01 -6.887522e-01 -1.129007e-01 -1.407647e+00 1.649302e+00 6.092417e-01 1.183475e+00 3.251382e-01 -1.155036e+00 9.932553e-01 1.104875e-01 5.153123e-01 -9.495603e-01 1.055939e-01 1.047987e+00 8.651386e-01 8.368878e-01 -2.521211e-01 1.921866e-01 1.047948e-01 -6.179662e-01 -3.314752e-01 -6.503935e-01
<VARIANCE> 39
 6.126104e+00 2.417098e+01 3.431806e+01 3.856162e+01 3.145853e+01 2.631155e+01 5.583722e+01 6.234156e+01 4.688544e+01 6.528517e+01 3.677854e+01 2.927209e+01 1.701340e+01 8.602018e-01 2.096453e+00 3.412552e+00 2.080791e+00 4.750460e+00 3.223922e+00 5.277428e+00 4.070879e+00 3.824532e+00 3.350148e+00 4.460171e+00 2.979543e+00 1.126256e+00 2.139466e-01 2.391265e-01 6.266572e-01 5.775095e-01 5.310403e-01 6.114553e-01 6.624924e-01 7.437134e-01 6.704527e-01 6.777307e-01 6.419175e-01 4.948403e-01 1.568155e-01
<GCONST> 1.205708e+02
<TRANSP> 5
 0.000000e+00 1.000000e+00 0.000000e+00 0.000000e+00 0.000000e+00
 0.000000e+00 6.720135e-01 3.279864e-01 0.000000e+00 0.000000e+00
 0.000000e+00 0.000000e+00 5.778057e-01 4.221943e-01 0.000000e+00
 0.000000e+00 0.000000e+00 0.000000e+00 6.030682e-01 3.969318e-01
 0.000000e+00 0.000000e+00 0.000000e+00 0.000000e+00 0.000000e+00
<ENDHMM>
~h "k"
<BEGINHMM>
<NUMSTATES> 5
<STATE> 2
<MEAN> 39
 6.293736e-01 2.459504e+00 -3.535903e+00 1.708091e+00 -4.741271e+00 1.208295e+00 -4.963566e+00 -1.288136e-01 -4.862134e+00 -9.540956e-02 -1.186306e+00 -3.753943e+00 5.375425e+01 -5.694184e-01 -3.932250e-01 -7.927476e-01 -1.812881e-01 1.160021e+00 -4.238893e-01 -1.134717e-01 -1.714553e-02 3.461787e-01 1.437920e-01 -1.588774e-01 1.469667e-01 2.487649e-01 -2.673872e-02 -4.370943e-01 1.695115e-01 -5.780037e-01 2.679782e-01 -3.370289e-01 -2.686717e-01 -4.478658e-02 -2.884115e-02 2.318313e-01 8.893436e-02 -1.947175e-01 7.862781e-01
<VARIANCE> 39
 8.684017e+00 2.118093e+01 3.277238e+01 2.859003e+01 3.428024e+01 3.961369e+01 3.040557e+01 3.266000e+01 3.057838e+01 2.685234e+01 2.623087e+01 2.604702e+01 1.534976e+01 1.153430e+00 2.749277e+00 2.826707e+00 3.108355e+00 4.842072e+00 3.850820e+00 3.411849e+00 3.661607e+00 3.443710e+00 3.133182e+00 2.624053e+00 2.488421e+00 2.296736e+00 2.138282e-01 3.419726e-01 4.548833e-01 4.783686e-01 7.160456e-01 6.224731e-01 5.575581e-01 6.129709e-01 6.217079e-01 5.438108e-01 4.712791e-01 4.744321e-01 2.336536e-01
<GCONST> 1.176234e+02
<STATE> 3
<MEAN> 39
 -2.810460e+00 -1.945114e+00 -5.654309e+00 -8.529119e-01 2.953023e+00 -2.371733e+00 -6.392006e+00 -9.678506e-01 -3.228285e+00 2.268527e+00 -1.527084e+00 -4.024610e+00 5.878378e+01 7.309794e-02 -8.493984e-01 3.383696e-01 -1.591508e+00 2.654494e-01 -9.957669e-01 -5.941718e-01 -2.771925e-02 -5.205195e-02 4.931049e-01 2.009265e-01 -6.682794e-01 1.882739e+00 5.900310e-01 2.157010e-02 7.038896e-01 -3.593251e-01 -1.211751e+00 2.382057e-01 -1.329410e-01 2.056804e-01 -2.975118e-01 -1.432898e-01 2.474476e-01 -3.368119e-01 2.739547e-01
<VARIANCE> 39
 2.183194e+01 3.058454e+01 5.507011e+01 4.044870e+01 6.334841e+01 6.851469e+01 6.076484e+01 5.856852e+01 4.540716e+01 4.224534e+01 4.070338e+01 3.371751e+01 2.331494e+01 2.272536e+00 3.451570e+00 4.555046e+00 4.408870e+00 6.538937e+00 4.885035e+00 4.305761e+00 4.854188e+00 4.765672e+00 3.617489e+00 3.219815e+00 3.535242e+00 2.822108e+00 3.626862e-01 6.292631e-01 6.908925e-01 7.356591e-01 1.131503e+00 9.177177e-01 1.116314e+00 1.197629e+00 1.055938e+00 8.898245e-01 7.868234e-01 7.369301e-01 3.411087e-01
<GCONST> 1.347464e+02
<STATE> 4
<MEAN> 39
 6.860008e-01 -8.497110e-01 -2.810500e+00 -4.195444e+00 -2.966656e+00 -2.989644e+00 -6.960775e+00 -2.474073e-01 -5.233960e+00 1.737071e+00 -5.265616e-01 -6.249573e+00 6.083612e+01 1.234379e+00 -8.015205e-01 1.517634e+00 -1.922171e+00 -2.150130e+00 -1.059028e-02 -9.479434e-01 4.053331e-01 -5.822238e-01 -1.243497e-02 7.616568e-01 -1.067777e+00 1.986371e+00 1.066939e-01 -8.467590e-02 1.863572e-01 1.990734e-01 -3.429053e-01 3.896925e-01 -6.033526e-02 7.766799e-02 2.618222e-02 -1.550830e-01 8.186224e-02 1.651582e-02 -1.105547e-01
<VARIANCE> 39
 2.133965e+01 3.630583e+01 5.418882e+01 5.131049e+01 4.486102e+01 6.265554e+01 4.642115e+01 4.278642e+01 4.550324e+01 3.886254e+01 3.704814e+01 3.531376e+01 3.002294e+01 2.363654e+00 3.978664e+00 4.604871e+00 5.611515e+00 6.471714e+00 5.077013e+00 6.050686e+00 6.664610e+00 6.431849e+00 4.871840e+00 4.822759e+00 4.771336e+00 2.393558e+00 2.958712e-01 4.496008e-01 5.356267e-01 6.364025e-01 7.821967e-01 7.488148e-01 7.339957e-01 7.620615e-01 7.582791e-01 7.161477e-01 5.823973e-01 5.222598e-01 3.876630e-01
<GCONST> 1.330296e+02
<TRANSP> 5
 0.000000e+00 1.000000e+00 0.000000e+00 0.000000e+00 0.000000e+00
 0.000000e+00 5.992726e-01 4.007274e-01 0.000000e+00 0.000000e+00
 0.000000e+00 0.000000e+00 4.403493e-01 5.596508e-01 0.000000e+00
 0.000000e+00 0.000000e+00 0.000000e+00 1.668872e-01 8.331128e-01
 0.000000e+00 0.000000e+00 0.000000e+00 0.000000e+00 0.000000e+00
<ENDHMM>
~h "l"
<BEGINHMM>
<NUMSTATES> 5
<STATE> 2
<MEAN> 39
 3.148609e+00 -3.245096e+00 3.183818e+00 -6.149908e+00 -6.296025e+00 -2.497970e+00 -1.593934e+01 -6.244675e+00 -8.447479e-01 5.116026e+00 2.503887e+00 -9.341109e+00 6.553950e+01 9.746010e-02 -6.277131e-02 6.009337e-02 -3.049240e-01 -8.552209e-03 3.138680e-01 -6.763740e-01 -3.626832e-01 2.732975e-01 5.219464e-01 2.330807e-01 -5.193120e-01 8.195628e-02 -1.296507e-01 -1.810342e-01 -8.658276e-02 -1.601781e-01 -5.479483e-02 1.551845e-01 3.893995e-01 5.890545e-01 3.383605e-02 -3.995215e-01 -1.393373e-01 -1.470914e-02 1.199206e-01
<VARIANCE> 39
 1.014815e+01 3.683086e+01 6.707481e+01 6.078806e+01 5.164156e+01 6.199647e+01 8.864700e+01 9.735638e+01 8.614412e+01 4.763254e+01 5.960952e+01 6.420280e+01 2.057389e+01 4.384079e-01 1.391647e+00 2.069681e+00 2.942746e+00 2.209858e+00 3.371786e+00 3.712013e+00 4.190026e+00 3.341557e+00 3.132931e+00 2.923015e+00 2.463932e+00 9.616192e-01 9.510796e-02 2.627368e-01 3.090108e-01 5.033371e-01 4.963202e-01 5.995882e-01 7.777029e-01 7.232836e-01 6.195067e-01 5.498006e-01 6.989583e-01 4.920381e-01 1.213649e-01
<GCONST> 1.213999e+02
<STATE> 3
<MEAN> 39
 2.788530e+00 -5.251961e+00 3.814967e+00 -8.531522e+00 -7.499340e+00 -1.462981e+00 -1.672944e+01 -3.457117e+00 3.190226e-01 5.997131e+00 2.944751e+00 -1.244312e+01 6.701060e+01 -1.792558e-01 -6.683143e-01 -2.405962e-01 -5.651528e-01 -1.473285e-02 4.508786e-01 5.517009e-01 1.216872e+00 4.116258e-01 -5.879800e-01 -6.115571e-01 -3.488142e-01 4.614673e-01 -8.806468e-02 -1.064182e-01 -9.251659e-02 7.939173e-02 6.111088e-02 2.237820e-02 4.581690e-01 4.200085e-01 -1.620352e-01 -4.885573e-01 -2.496296e-01 2.461198e-01 4.199339e-02
<VARIANCE> 39
 8.877537e+00 3.503378e+01 6.853766e+01 5.789148e+01 5.043679e+01 5.386921e+01 8.536086e+01 7.409750e+01 8.545561e+01 4.539876e+01 5.189798e+01 6.872508e+01 1.950203e+01 4.423125e-01 1.609077e+00 2.294054e+00 2.431864e+00 2.106714e+00 3.137252e+00 3.570516e+00 3.720326e+00 3.461222e+00 2.883823e+00 3.600331e+00 2.246547e+00 8.698307e-01 6.571872e-02 2.318067e-01 2.572148e-01 4.315034e-01 3.530015e-01 5.195751e-01 5.679513e-01 5.818411e-01 5.222830e-01 5.022389e-01 5.999198e-01 4.131457e-01 1.065167e-01
<GCONST> 1.177231e+02
<STATE> 4
<MEAN> 39
 2.271629e+00 -6.389653e+00 2.287497e+00 -8.509241e+00 -7.241775e+00 -4.190751e-01 -1.375265e+01 -6.279924e-01 1.157799e+00 2.589784e+00 7.166903e-01 -1.175471e+01 6.780871e+01 -1.694968e-01 -3.305857e-01 -1.281328e-01 4.757165e-02 1.529122e-01 4.752312e-01 1.061254e+00 1.054973e+00 -6.082864e-01 -1.008306e+00 -5.142326e-01 2.626209e-01 1.072420e-01 3.082413e-03 2.637636e-01 1.521086e-01 2.476697e-01 2.277049e-02 -1.051810e-01 7.037455e-02 -2.428892e-01 -4.656354e-01 1.044437e-02 1.402501e-01 2.375525e-01 -2.131768e-01
<VARIANCE> 39
 1.172705e+01 3.645193e+01 6.105267e+01 6.421346e+01 4.631577e+01 6.292654e+01 7.229987e+01 7.755525e+01 9.514938e+01 5.251514e+01 5.424319e+01 6.539246e+01 2.303036e+01 5.786636e-01 1.950918e+00 2.450503e+00 2.898256e+00 2.628503e+00 3.938956e+00 3.877954e+00 4.576305e+00 4.386949e+00 3.323051e+00 4.451465e+00 2.361282e+00 1.246697e+00 8.812337e-02 2.300978e-01 3.967835e-01 4.336867e-01 4.283216e-01 5.386098e-01 5.637090e-01 7.177898e-01 6.812121e-01 5.158826e-01 5.817248e-01 4.291288e-01 1.448381e-01
<GCONST> 1.225981e+02
<TRANSP> 5
 0.000000e+00 1.000000e+00 0.000000e+00 0.000000e+00 0.000000e+00
 0.000000e+00 4.123129e-01 5.876871e-01 0.000000e+00 0.000000e+00
 0.000000e+00 0.000000e+00 3.648088e-01 6.351912e-01 0.000000e+00
 0.000000e+00 0.000000e+00 0.000000e+00 3.227055e-01 6.772946e-01
 0.000000e+00 0.000000e+00 0.000000e+00 0.000000e+00 0.000000e+00
<ENDHMM>
~h "m"
<BEGINHMM>
<NUMSTATES> 5
<STATE> 2
<MEAN> 39
 4.685708e+00 -1.226621e+00 3.447526e+00 8.064383e-01 -7.234494e+00 6.070651e+00 -6.285330e+00 -6.643698e+00 -1.155461e+01 4.265660e-01 -5.072264e-01 -8.158326e+00 6.140080e+01 2.802467e-03 3.255086e-01 9.929291e-01 1.180852e+00 1.630433e-03 9.462759e-01 5.131560e-01 -1.311133e+00 -1.441680e+00 -5.750411e-01 -8.373521e-01 -1.699988e-01 -3.945197e-01 -7.989335e-02 -2.772538e-01 -1.887573e-01 -4.833672e-01 3.454075e-02 -3.009547e-01 -2.819145e-01 4.959328e-01 5.471907e-01 6.645627e-05 9.481456e-02 -5.710965e-02 2.928660e-01
<VARIANCE> 39
 7.073256e+00 2.907452e+01 3.123302e+01 3.463435e+01 5.223756e+01 4.149199e+01 4.459772e+01 3.576742e+01 4.177411e+01 3.404674e+01 4.154548e+01 4.082921e+01 1.857829e+01 5.080709e-01 1.303685e+00 1.994448e+00 1.969421e+00 2.182621e+00 2.380455e+00 2.479661e+00 2.577593e+00 4.071508e+00 2.234000e+00 2.913739e+00 2.085720e+00 9.430359e-01 9.181856e-02 1.492744e-01 2.636020e-01 2.896235e-01 3.661338e-01 3.724091e-01 4.120947e-01 4.113257e-01 5.141405e-01 4.286884e-01 5.085555e-01 3.585999e-01 8.578745e-02
<GCONST> 1.087769e+02
<STATE> 3
<MEAN> 39
 4.137948e+00 -1.801066e+00 6.499573e+00 5.526348e-01 -8.426286e+00 7.699636e+00 -6.597309e+00 -7.943357e+00 -1.384849e+01 -1.378270e+00 -1.150190e+00 -9.433195e+00 6.215466e+01 1.607501e-01 -1.027044e-01 -2.999237e-01 -3.965198e-01 -2.836329e-01 -2.240108e-01 -2.077591e-01 2.239900e-01 4.943556e-01 1.140774e-01 3.377135e-01 3.057457e-02 1.589815e-01 4.991962e-02 -1.519679e-01 -4.754117e-01 -4.397244e-01 -6.196310e-02 -3.182948e-01 -1.502882e-01 5.432104e-01 6.999505e-01 2.264007e-01 2.367231e-01 -1.032567e-02 1.545478e-01
<VARIANCE> 39
 5.620754e+00 2.628680e+01 3.659022e+01 3.135008e+01 5.616946e+01 4.504078e+01 3.951600e+01 4.046897e+01 5.560927e+01 3.472564e+01 4.701419e+01 4.438794e+01 1.531616e+01 3.446488e-01 9.884006e-01 1.482276e+00 1.589308e+00 1.509051e+00 1.964676e+00 1.748899e+00 1.823679e+00 2.691238e+00 1.760717e+00 2.088992e+00 1.743179e+00 6.628598e-01 6.824762e-02 1.729966e-01 2.619907e-01 2.979149e-01 3.160325e-01 3.975015e-01 3.449389e-01 4.474707e-01 6.761975e-01 4.031135e-01 4.732011e-01 3.934571e-01 8.172115e-02
<GCONST> 1.049149e+02
<STATE> 4
<MEAN> 39
 5.691396e+00 -2.335514e+00 7.932835e-01 -2.738900e+00 -8.415130e+00 5.560619e+00 -7.586876e+00 -4.460109e+00 -8.278928e+00 7.132916e-01 6.396490e-01 -8.236485e+00 6.288264e+01 6.855147e-02 -9.633388e-01 -1.163903e+00 -1.367500e+00 3.372605e-01 -3.390540e-01 -5.386392e-01 1.716350e+00 1.767935e+00 2.119112e-01 2.741729e-01 -5.109527e-01 7.568887e-01 -2.173957e-01 -1.184950e-01 2.416471e-01 9.940253e-02 2.410902e-01 -8.830466e-02 -3.050302e-02 1.943821e-01 -2.575701e-02 -1.458515e-01 -2.195785e-01 -4.340705e-02 4.870281e-02
<VARIANCE> 39
 6.871461e+00 3.982392e+01 3.884501e+01 4.894334e+01 8.223476e+01 4.417623e+01 5.319357e+01 4.380700e+01 4.300463e+01 3.743237e+01 4.100616e+01 4.456227e+01 2.274633e+01 5.616716e-01 1.992375e+00 2.664490e+00 2.930911e+00 3.527693e+00 3.234085e+00 3.110976e+00 3.077099e+00 5.463107e+00 3.020722e+00 3.247582e+00 3.181221e+00 1.034772e+00 9.250356e-02 2.001299e-01 3.599868e-01 5.133282e-01 5.658722e-01 4.702719e-01 4.680348e-01 5.550170e-01 6.378723e-01 4.394310e-01 5.285612e-01 4.126283e-01 1.181248e-01
<GCONST> 1.175633e+02
<TRANSP> 5
 0.000000e+00 1.000000e+00 0.000000e+00 0.000000e+00 0.000000e+00
 0.000000e+00 4.839315e-01 5.160685e-01 0.000000e+00 0.000000e+00
 0.000000e+00 0.000000e+00 6.222121e-01 3.777879e-01 0.000000e+00
 0.000000e+00 0.000000e+00 0.000000e+00 4.819511e-01 5.180489e-01
 0.000000e+00 0.000000e+00 0.000000e+00 0.000000e+00 0.000000e+00
<ENDHMM>
~h "n"
<BEGINHMM>
<NUMSTATES> 5
<STATE> 2
<MEAN> 39
 3.666892e+00 -2.788575e+00 6.889554e+00 3.322059e+00 -9.655164e+00 -1.343017e+00 -9.407699e+00 -2.948807e+00 -5.875445e+00 2.631655e+00 -5.129720e+00 -9.186465e+00 6.238780e+01 3.492973e-01 1.380939e+00 8.623498e-01 1.312536e+00 -5.372241e-01 9.303108e-01 3.759468e-01 -2.564018e+00 -9.656994e-01 9.768766e-01 -1.083678e+00 5.770765e-01 -1.182184e+00 -1.381848e-01 -2.823975e-01 -2.664748e-01 -4.972538e-01 1.390031e-01 -5.141217e-02 6.265737e-02 5.574147e-01 1.815271e-01 -2.902891e-01 3.182317e-01 -4.812077e-02 2.838023e-01
<VARIANCE> 39
 5.270559e+00 2.903545e+01 3.145485e+01 2.512109e+01 4.872166e+01 3.596423e+01 4.574324e+01 6.088657e+01 5.012504e+01 4.482337e+01 3.790277e+01 4.293117e+01 1.492413e+01 4.394884e-01 1.275635e+00 2.692464e+00 1.746481e+00 2.281242e+00 2.836997e+00 3.374250e+00 4.740499e+00 2.882181e+00 3.362172e+00 3.097131e+00 2.664755e+00 7.174520e-01 7.701074e-02 2.159976e-01 3.046682e-01 2.663600e-01 3.419503e-01 3.663404e-01 4.046796e-01 6.915017e-01 4.333177e-01 4.589826e-01 4.337429e-01 3.335454e-01 1.073152e-01
<GCONST> 1.105157e+02
<STATE> 3
<MEAN> 39
 4.285655e+00 -1.727860e+00 8.082981e+00 4.878075e+00 -1.202345e+01 4.524712e-01 -8.099556e+00 -6.579463e+00 -7.772351e+00 4.289791e+00 -5.731359e+00 -8.829422e+00 6.127050e+01 7.520373e-02 5.426732e-01 -2.274930e-01 3.042146e-01 1.144078e-01 3.081356e-01 3.885253e-01 -3.353123e-01 -1.811930e-01 -1.178261e-01 -1.448967e-01 2.196673e-01 -4.809169e-01 -1.647692e-01 -2.649138e-01 -3.255965e-01 -3.961821e-01 2.904146e-01 -2.357702e-01 -3.056643e-02 8.097915e-01 2.772271e-01 -4.708919e-01 3.506546e-01 -1.057485e-01 2.341352e-01
<VARIANCE> 39
 3.999608e+00 2.304562e+01 2.750146e+01 2.354044e+01 4.072897e+01 3.597863e+01 3.804483e+01 5.471625e+01 5.109990e+01 4.068027e+01 4.002986e+01 3.779579e+01 1.073270e+01 2.513481e-01 1.146686e+00 1.348636e+00 1.218020e+00 1.516277e+00 1.738701e+00 1.928081e+00 2.625171e+00 2.219276e+00 2.117049e+00 1.892908e+00 1.589071e+00 6.379603e-01 9.025341e-02 2.720664e-01 3.796380e-01 3.540415e-01 3.719850e-01 4.106228e-01 4.471516e-01 8.091146e-01 4.847220e-01 5.224491e-01 5.241414e-01 3.682249e-01 1.427097e-01
<GCONST> 1.054068e+02
<STATE> 4
<MEAN> 39
 3.275174e+00 1.306071e+00 4.706875e+00 5.085548e+00 -6.758724e+00 2.510163e-01 -7.352853e+00 -3.471280e+00 -5.798793e+00 4.893312e-01 -6.393138e+00 -6.810239e+00 5.852842e+01 -3.611859e-01 -3.698394e-02 -5.612555e-01 -5.016180e-01 4.977931e-01 2.781436e-03 2.138207e-01 9.637575e-01 2.683948e-01 -8.428965e-01 4.928270e-01 2.056107e-03 -9.927406e-02 -1.759572e-01 -3.014971e-01 1.999858e-02 -4.042233e-01 1.893820e-02 -9.009502e-02 -1.126815e-01 3.591128e-01 9.725802e-02 -1.035913e-01 2.478397e-01 -3.328791e-02 2.616285e-01
<VARIANCE> 39
 7.060606e+00 3.201944e+01 2.822488e+01 2.630025e+01 4.719466e+01 3.587973e+01 5.039111e+01 5.678917e+01 4.160124e+01 4.333755e+01 3.998643e+01 3.391588e+01 1.765582e+01 6.218317e-01 2.252622e+00 2.202112e+00 2.333257e+00 2.632428e+00 2.525151e+00 2.636602e+00 4.804588e+00 2.711075e+00 2.981315e+00 3.004117e+00 2.271211e+00 1.458097e+00 1.434186e-01 2.544407e-01 3.467698e-01 3.941903e-01 4.333821e-01 4.981312e-01 4.804536e-01 7.651297e-01 4.895686e-01 5.246807e-01 5.110574e-01 3.821442e-01 1.390436e-01
<GCONST> 1.146763e+02
<TRANSP> 5
 0.000000e+00 1.000000e+00 0.000000e+00 0.000000e+00 0.000000e+00
 0.000000e+00 2.923545e-01 7.076455e-01 0.000000e+00 0.000000e+00
 0.000000e+00 0.000000e+00 5.737366e-01 4.262635e-01 0.000000e+00
 0.000000e+00 0.000000e+00 0.000000e+00 5.521306e-01 4.478693e-01
 0.000000e+00 0.000000e+00 0.000000e+00 0.000000e+00 0.000000e+00
<ENDHMM>
~h "o"
<BEGINHMM>
<NUMSTATES> 5
<STATE> 2
<MEAN> 39
 4.273480e+00 -1.915347e+00 -3.582464e+00 -1.254413e+01 -7.257969e+00 4.272895e+00 -8.535301e+00 -1.991566e+00 -4.235710e+00 2.747100e+00 3.067628e+00 -5.968659e+00 6.492445e+01 8.175371e-01 -8.189756e-01 -5.566262e-02 -1.757831e+00 -5.971019e-01 1.083852e+00 -5.263284e-01 9.273477e-03 -2.364946e-01 6.107429e-01 7.327135e-01 -5.390257e-01 1.197300e+00 -3.149822e-01 2.671309e-01 2.138933e-01 8.392143e-01 2.303510e-01 -1.991502e-01 2.350657e-01 3.164698e-02 -6.161129e-02 -1.754059e-01 -3.024402e-01 1.009473e-01 -5.027657e-01
<VARIANCE> 39
 1.148352e+01 3.399414e+01 3.012494e+01 7.467938e+01 5.389244e+01 7.321101e+01 7.217164e+01 4.768478e+01 6.525981e+01 4.786711e+01 4.035736e+01 4.325423e+01 3.146581e+01 2.003423e+00 2.287287e+00 2.897090e+00 7.236983e+00 4.403315e+00 5.329477e+00 4.712773e+00 4.374252e+00 4.485580e+00 4.076481e+00 3.263521e+00 2.790622e+00 2.584003e+00 3.148965e-01 3.793711e-01 4.655815e-01 9.909421e-01 6.905220e-01 9.167296e-01 9.750284e-01 7.234080e-01 7.907596e-01 7.323326e-01 6.133077e-01 5.514123e-01 3.643917e-01
<GCONST> 1.312141e+02
<STATE> 3
<MEAN> 39
 4.940742e+00 -4.998599e+00 -3.033799e+00 -1.285288e+01 -9.606680e+00 6.480747e+00 -9.793822e+00 -2.191234e+00 -3.336904e+00 3.145633e+00 6.074135e+00 -9.605196e+00 6.704725e+01 2.486178e-02 2.552567e-01 8.582618e-03 8.987721e-01 3.436184e-01 -2.944732e-01 1.955058e-01 -2.066500e-02 -1.379642e-01 1.956784e-02 -4.308213e-01 -1.366359e-02 -4.436755e-01 -1.531779e-01 3.212447e-01 1.194194e-01 6.737667e-01 1.797508e-01 -3.186999e-01 1.351021e-01 -1.443206e-01 1.131862e-02 -1.281773e-01 -3.826871e-01 1.858895e-01 -3.888426e-01
<VARIANCE> 39
 6.984059e+00 2.818506e+01 2.367714e+01 6.145232e+01 4.564196e+01 6.411199e+01 5.691284e+01 6.270482e+01 6.672559e+01 5.227740e+01 4.888081e+01 4.929757e+01 1.384767e+01 4.780971e-01 1.522704e+00 1.391533e+00 3.579472e+00 2.206726e+00 3.222184e+00 2.979166e+00 2.557792e+00 2.993596e+00 2.701592e+00 2.622370e+00 2.172684e+00 1.102944e+00 1.196550e-01 2.077605e-01 2.940383e-01 4.464103e-01 5.001165e-01 6.089097e-01 5.387178e-01 6.123216e-01 5.856476e-01 5.414435e-01 4.914607e-01 4.511236e-01 1.295741e-01
<GCONST> 1.154636e+02
<STATE> 4
<MEAN> 39
 4.736096e+00 1.386171e+00 -3.439327e+00 -7.943242e+00 -5.801305e+00 3.257497e+00 -7.748831e+00 -1.147548e+00 -5.723372e+00 2.618271e+00 1.222610e-01 -4.294236e+00 6.019872e+01 -2.484304e-01 5.873846e-01 1.901678e-01 1.687297e+00 1.364738e-01 -2.757260e-01 3.868699e-01 -3.033355e-01 9.747981e-02 -3.092560e-01 -6.456043e-01 2.490114e-01 -9.559395e-01 -6.614882e-02 -7.258099e-02 8.369557e-02 -1.443852e-02 -3.227174e-02 1.031344e-02 -3.587779e-03 -2.215723e-03 -3.669055e-03 -1.626537e-02 4.388914e-02 -2.157637e-02 6.985793e-02
<VARIANCE> 39
 8.663985e+00 3.578450e+01 2.914087e+01 7.994517e+01 4.231011e+01 4.903676e+01 7.040182e+01 4.146748e+01 6.300707e+01 4.856012e+01 3.841397e+01 4.390706e+01 2.761872e+01 5.236640e-01 1.202287e+00 1.596286e+00 2.743814e+00 2.199828e+00 2.433783e+00 2.486675e+00 2.551731e+00 2.540654e+00 2.859135e+00 2.418374e+00 1.804683e+00 9.185384e-01 9.757397e-02 1.903579e-01 2.204643e-01 4.099975e-01 3.347628e-01 4.078482e-01 4.389963e-01 4.391804e-01 4.563265e-01 5.106701e-01 3.404640e-01 3.080149e-01 1.002958e-01
<GCONST> 1.114323e+02
<TRANSP> 5
 0.000000e+00 1.000000e+00 0.000000e+00 0.000000e+00 0.000000e+00
 0.000000e+00 5.660665e-01 4.339335e-01 0.000000e+00 0.000000e+00
 0.000000e+00 0.000000e+00 6.663814e-01 3.336186e-01 0.000000e+00
 0.000000e+00 0.000000e+00 0.000000e+00 6.709422e-01 3.290578e-01
 0.000000e+00 0.000000e+00 0.000000e+00 0.000000e+00 0.000000e+00
<ENDHMM>
~h "p"
<BEGINHMM>
<NUMSTATES> 5
<STATE> 2
<MEAN> 39
 1.489303e+00 2.943667e+00 -4.348039e+00 2.222114e+00 -3.860121e+00 2.571531e+00 -5.464658e+00 -3.784644e-01 -3.958081e+00 -4.748992e-01 -2.190625e+00 -4.785482e+00 5.340940e+01 -4.106049e-01 1.873111e-01 -2.083777e-01 3.360813e-01 1.750627e-01 -3.315707e-01 3.455251e-01 7.780887e-02 3.895497e-01 -1.216646e-01 -6.654435e-02 3.518915e-01 -4.210037e-01 5.488754e-02 -4.537095e-01 2.325476e-01 -4.519279e-01 -3.290331e-02 -2.108576e-01 -2.385368e-01 -1.441582e-01 5.924465e-02 8.809525e-02 2.084595e-01 -8.415836e-02 6.775038e-01
<VARIANCE> 39
 9.467893e+00 1.655395e+01 2.458191e+01 1.954151e+01 2.607276e+01 3.721833e+01 2.656040e+01 2.600363e+01 2.889444e+01 2.314882e+01 2.336013e+01 2.460605e+01 9.188169e+00 6.869764e-01 1.088384e+00 1.125576e+00 1.552833e+00 1.615308e+00 2.192433e+00 1.986101e+00 2.264032e+00 1.969250e+00 1.841576e+00 1.806412e+00 1.653790e+00 1.026116e+00 1.421086e-01 2.348791e-01 3.581596e-01 4.092965e-01 3.893590e-01 5.441407e-01 4.762899e-01 4.940135e-01 4.798338e-01 4.483425e-01 4.485524e-01 3.979425e-01 2.262875e-01
<GCONST> 1.037788e+02
<STATE> 3
<MEAN> 39
 -5.100620e-01 2.053391e+00 -2.802481e+00 1.982973e+00 -2.711701e+00 -1.496479e-01 -4.446325e+00 -1.127007e+00 -2.862911e+00 -8.494115e-01 -1.916746e+00 -3.162986e+00 5.460793e+01 4.392706e-01 -1.647318e+00 5.132930e-01 -1.845560e+00 -4.824164e-01 -9.092455e-01 -1.021896e+00 -6.851561e-01 2.736269e-01 3.505372e-01 8.802561e-01 -2.199616e-01 2.373306e+00 4.209685e-01 -5.348526e-01 2.841135e-01 -7.238276e-01 -5.413436e-01 1.075868e-01 -6.024948e-01 5.703891e-02 -2.280446e-01 2.013687e-01 3.593037e-01 -4.632163e-01 8.331450e-01
<VARIANCE> 39
 1.458966e+01 2.032534e+01 2.225831e+01 2.389326e+01 2.671593e+01 4.108431e+01 2.507069e+01 3.045177e+01 3.208727e+01 2.011543e+01 2.041844e+01 2.400553e+01 1.592723e+01 2.369820e+00 3.021327e+00 4.813285e+00 5.160126e+00 4.118508e+00 5.784823e+00 4.836473e+00 3.803170e+00 4.636626e+00 3.460799e+00 3.403969e+00 3.707856e+00 2.283568e+00 2.460525e-01 5.270785e-01 7.255800e-01 7.365879e-01 6.816616e-01 8.890876e-01 6.535915e-01 8.331001e-01 7.958422e-01 6.145180e-01 6.376024e-01 5.782086e-01 3.025296e-01
<GCONST> 1.234309e+02
<STATE> 4
<MEAN> 39
 2.832248e+00 -2.761291e+00 -3.158951e+00 -5.280000e+00 -5.236066e+00 -3.881137e-01 -7.968646e+00 -2.988894e+00 -3.384809e+00 1.023256e+00 1.529713e+00 -5.339494e+00 6.188708e+01 9.990959e-01 -2.281825e+00 7.244295e-01 -2.455664e+00 -1.203068e+00 -1.761178e-01 -1.603126e+00 9.122784e-02 -1.703456e-01 6.864852e-01 1.108422e+00 -1.315126e+00 3.117289e+00 -1.172711e-01 2.085621e-01 2.903906e-01 4.976466e-01 -5.984436e-02 6.533635e-02 -3.370943e-02 4.302445e-01 -1.045969e-01 -6.683487e-02 -2.786931e-01 -1.745713e-01 -3.133869e-01
<VARIANCE> 39
 2.154933e+01 3.191589e+01 3.362283e+01 6.254934e+01 3.268602e+01 7.688297e+01 4.366320e+01 3.230432e+01 4.525892e+01 3.092027e+01 2.958917e+01 3.032024e+01 2.505190e+01 1.969610e+00 4.343508e+00 7.401955e+00 6.693830e+00 5.598355e+00 7.579921e+00 5.509520e+00 5.776255e+00 6.085392e+00 4.896207e+00 5.045233e+00 5.010288e+00 2.544460e+00 3.724547e-01 4.378862e-01 4.874464e-01 9.933070e-01 6.557896e-01 8.901333e-01 7.104872e-01 7.015561e-01 7.516156e-01 6.343837e-01 7.614615e-01 6.023691e-01 3.696367e-01
<GCONST> 1.327340e+02
<TRANSP> 5
 0.000000e+00 1.000000e+00 0.000000e+00 0.000000e+00 0.000000e+00
 0.000000e+00 6.691517e-01 3.308482e-01 0.000000e+00 0.000000e+00
 0.000000e+00 0.000000e+00 4.299017e-01 5.700983e-01 0.000000e+00
 0.000000e+00 0.000000e+00 0.000000e+00 2.451282e-01 7.548718e-01
 0.000000e+00 0.000000e+00 0.000000e+00 0.000000e+00 0.000000e+00
<ENDHMM>
~h "r"
<BEGINHMM>
<NUMSTATES> 5
<STATE> 2
<MEAN> 39
 3.399605e+00 -4.062885e+00 -1.235942e+00 3.582681e+00 -5.645673e+00 -4.061772e+00 -1.094160e+01 -1.814415e+00 1.315553e+00 1.291222e+00 -1.010302e+00 -6.509285e+00 6.214560e+01 1.084576e-01 3.645256e-01 4.702833e-02 1.128076e+00 1.507557e-01 -2.651881e-01 8.465260e-03 -2.654258e-01 -6.957988e-02 -4.319595e-01 -4.123855e-01 7.665206e-01 -7.551193e-01 -8.198441e-02 -1.479891e-01 1.056629e-01 -6.351237e-01 -2.028937e-01 7.572915e-02 1.125201e-01 2.715476e-01 -3.069303e-01 2.520801e-02 2.697021e-01 -2.444484e-01 3.677843e-01
<VARIANCE> 39
 1.151439e+01 2.169322e+01 3.822593e+01 3.352438e+01 3.379358e+01 4.433176e+01 5.645682e+01 5.749483e+01 4.902514e+01 3.947132e+01 3.972349e+01 4.786007e+01 1.765847e+01 1.198611e+00 1.619057e+00 2.186037e+00 2.041301e+00 2.929387e+00 3.409579e+00 3.409815e+00 3.730197e+00 3.425466e+00 3.229596e+00 3.599833e+00 2.944025e+00 1.290169e+00 1.726977e-01 3.689348e-01 3.860551e-01 5.007690e-01 6.263611e-01 5.976121e-01 6.454607e-01 7.157362e-01 6.897953e-01 6.830348e-01 6.787818e-01 5.563169e-01 3.264123e-01
<GCONST> 1.207646e+02
<STATE> 3
<MEAN> 39
 3.279629e+00 -4.123505e+00 -9.421070e-01 4.116187e+00 -6.035809e+00 -5.200995e+00 -1.056683e+01 -1.807616e+00 5.612433e-01 2.864062e-01 -7.671151e-01 -5.320831e+00 6.214458e+01 3.935476e-02 -2.365081e-01 2.268688e-01 -1.898154e-01 -6.005116e-01 -1.779678e-01 2.282647e-01 4.839059e-01 -4.994791e-01 -3.776614e-01 3.090900e-01 -1.046615e-01 2.784790e-01 -8.721147e-02 -2.127320e-01 1.736621e-01 -7.484611e-01 -2.457296e-01 2.439309e-01 8.035885e-02 3.437949e-01 -3.312181e-01 1.552261e-01 3.300529e-01 -4.859610e-01 4.554971e-01
<VARIANCE> 39
 1.600045e+01 2.432067e+01 4.233236e+01 3.466251e+01 3.354918e+01 4.887486e+01 6.346162e+01 6.081203e+01 5.199258e+01 3.922178e+01 3.809726e+01 4.156112e+01 1.715168e+01 1.324621e+00 2.516937e+00 2.794923e+00 2.065204e+00 3.598775e+00 3.719729e+00 3.600836e+00 4.290052e+00 3.967551e+00 3.144147e+00 3.425579e+00 3.044162e+00 1.679869e+00 2.230260e-01 4.132037e-01 4.572442e-01 4.862469e-01 7.414069e-01 6.579776e-01 7.282597e-01 8.158913e-01 7.596051e-01 7.648109e-01 8.020757e-01 5.981045e-01 3.249795e-01
<GCONST> 1.245706e+02
<STATE> 4
<MEAN> 39
 3.167871e+00 -4.381859e+00 -1.067335e+00 2.991033e+00 -7.383830e+00 -4.475285e+00 -9.033135e+00 -1.096790e+00 4.026815e-02 5.076520e-02 1.838589e-02 -6.268762e+00 6.305459e+01 -1.227342e-01 -5.378963e-02 4.771554e-01 -8.073371e-01 -5.259944e-01 4.509546e-01 2.917078e-01 6.288353e-01 -7.994046e-01 -4.250737e-02 4.286221e-01 -5.508302e-01 3.396097e-01 -8.455089e-02 4.098916e-02 1.152772e-01 -2.700760e-01 8.917363e-02 1.941816e-01 -3.450021e-02 5.125780e-02 -1.853072e-01 1.363676e-01 2.160383e-02 -1.536900e-01 3.743218e-02
<VARIANCE> 39
 2.285544e+01 3.757647e+01 5.477251e+01 3.801394e+01 4.688435e+01 5.886954e+01 7.292551e+01 7.049336e+01 6.066479e+01 4.440857e+01 4.669640e+01 4.879832e+01 2.624558e+01 1.572052e+00 3.400909e+00 3.573517e+00 2.535177e+00 4.490735e+00 4.029228e+00 3.903109e+00 5.049689e+00 4.416078e+00 3.764389e+00 3.838614e+00 3.331019e+00 2.525208e+00 2.730151e-01 2.794262e-01 4.412704e-01 4.163904e-01 5.873000e-01 5.804929e-01 6.798707e-01 6.358199e-01 6.726989e-01 5.994124e-01 6.221640e-01 4.701250e-01 2.161563e-01
<GCONST> 1.276304e+02
<TRANSP> 5
 0.000000e+00 1.000000e+00 0.000000e+00 0.000000e+00 0.000000e+00
 0.000000e+00 3.239422e-01 6.760578e-01 0.000000e+00 0.000000e+00
 0.000000e+00 0.000000e+00 1.126617e-01 8.873383e-01 0.000000e+00
 0.000000e+00 0.000000e+00 0.000000e+00 3.422960e-01 6.577039e-01
 0.000000e+00 0.000000e+00 0.000000e+00 0.000000e+00 0.000000e+00
<ENDHMM>
~h "s"
<BEGINHMM>
<NUMSTATES> 5
<STATE> 2
<MEAN> 39
 -7.072505e+00 5.212724e+00 1.769647e+00 -8.883090e-01 2.325183e+00 -7.750312e+00 -1.653309e+00 -4.937786e-01 -1.265033e+00 -1.986857e+00 -1.669077e+00 -3.271931e+00 6.245525e+01 -3.513070e+00 2.445109e+00 -8.106342e-01 -7.094883e-01 2.054118e+00 -1.118624e+00 1.493285e+00 -3.580952e-01 5.783993e-01 -1.105692e+00 3.165670e-01 4.661818e-01 4.505422e-02 2.406424e-02 -3.972344e-01 -5.676042e-02 -1.928208e-01 -5.103979e-01 2.482800e-01 -5.337192e-01 1.466777e-01 -1.958491e-01 7.927345e-03 1.179609e-01 -2.820992e-01 1.496621e-01
<VARIANCE> 39
 3.626851e+01 3.202195e+01 4.155791e+01 2.605247e+01 4.321540e+01 5.580518e+01 5.195557e+01 4.882012e+01 4.502788e+01 3.488165e+01 3.185930e+01 2.975200e+01 2.336670e+01 1.610425e+00 2.485435e+00 3.036268e+00 2.688659e+00 3.361722e+00 3.554713e+00 4.693588e+00 4.290065e+00 3.542625e+00 3.364894e+00 2.679222e+00 2.647964e+00 9.975157e-01 7.165863e-01 5.031638e-01 3.690005e-01 4.767781e-01 5.853636e-01 5.927318e-01 6.988350e-01 6.536885e-01 5.495420e-01 5.954589e-01 4.653888e-01 4.840836e-01 1.088953e-01
<GCONST> 1.226935e+02
<STATE> 3
<MEAN> 39
 -1.611959e+01 8.562144e+00 1.774015e-02 -2.658637e+00 3.966950e+00 -8.897239e+00 -1.791950e+00 -2.729608e-01 -7.633382e-01 -4.967540e+00 -4.872325e-01 -2.733373e+00 6.283202e+01 6.917560e-02 -4.528670e-01 1.009495e-01 8.510061e-02 -1.806812e-01 1.073771e-01 -2.037089e-01 1.262992e-01 1.385033e-02 -3.362256e-02 -4.956843e-02 2.906272e-02 -2.301693e-01 9.792377e-01 -5.321348e-01 2.364726e-01 1.547105e-01 -4.337473e-01 1.108085e-01 -2.919026e-01 -4.447464e-02 -7.636379e-02 2.626009e-01 -6.684113e-02 -9.189010e-02 -2.490843e-02
<VARIANCE> 39
 1.379104e+01 2.674544e+01 2.788485e+01 2.892559e+01 3.569956e+01 3.684779e+01 3.969895e+01 3.316954e+01 3.200883e+01 2.548978e+01 2.465194e+01 2.331231e+01 1.112614e+01 2.940549e+00 1.643721e+00 1.772514e+00 1.482220e+00 1.829808e+00 2.158129e+00 2.325488e+00 2.207109e+00 2.122731e+00 2.005938e+00 1.796197e+00 1.696615e+00 5.612317e-01 4.076250e-01 3.881171e-01 3.584457e-01 3.607446e-01 4.451556e-01 5.091324e-01 5.661235e-01 5.505443e-01 4.971975e-01 4.920422e-01 3.944545e-01 3.907579e-01 1.171314e-01
<GCONST> 1.096868e+02
<STATE> 4
<MEAN> 39
 -7.248132e+00 3.415421e+00 6.674397e-01 -1.552614e+00 1.366648e+00 -8.187717e+00 -3.890163e+00 -6.953043e-01 -5.565786e-01 -2.496984e+00 -1.991066e+00 -3.658481e+00 6.180444e+01 3.539209e+00 -2.019552e+00 3.254372e-01 -6.889469e-02 -2.112541e+00 5.198475e-01 -1.649572e+00 -3.744913e-01 -3.135650e-01 1.050447e+00 2.092304e-02 -7.752728e-01 6.481274e-01 -3.534424e-02 -7.294661e-02 7.104368e-02 -2.067241e-01 -2.635754e-01 2.713679e-01 -1.157780e-01 1.120049e-02 -1.566308e-01 -1.222227e-03 2.801478e-01 -1.731958e-01 2.659597e-01
<VARIANCE> 39
 3.678767e+01 2.810423e+01 3.931834e+01 2.135929e+01 3.918177e+01 4.360743e+01 4.945803e+01 3.083393e+01 3.707823e+01 3.055107e+01 2.489635e+01 2.477678e+01 2.489964e+01 2.159276e+00 3.584584e+00 4.736704e+00 2.987986e+00 3.591409e+00 4.059908e+00 4.386162e+00 4.735923e+00 4.501653e+00 3.463813e+00 3.062455e+00 2.965562e+00 2.384878e+00 6.691540e-01 4.061970e-01 3.669666e-01 3.392713e-01 4.710136e-01 5.005375e-01 6.828298e-01 6.199629e-01 5.539938e-01 4.966673e-01 4.197689e-01 4.449214e-01 2.201710e-01
<GCONST> 1.228561e+02
<TRANSP> 5
 0.000000e+00 1.000000e+00 0.000000e+00 0.000000e+00 0.000000e+00
 0.000000e+00 6.439872e-01 3.560128e-01 0.000000e+00 0.000000e+00
 0.000000e+00 0.000000e+00 7.983786e-01 2.016214e-01 0.000000e+00
 0.000000e+00 0.000000e+00 0.000000e+00 5.406677e-01 4.593323e-01
 0.000000e+00 0.000000e+00 0.000000e+00 0.000000e+00 0.000000e+00
<ENDHMM>
~h "t"
<BEGINHMM>
<NUMSTATES> 5
<STATE> 2
<MEAN> 39
 9.115450e-01 2.724378e+00 -2.030302e+00 2.670070e+00 -5.596147e+00 -4.796762e-01 -6.571878e+00 1.548911e-01 -4.019472e+00 4.540838e-01 -2.012282e+00 -4.708549e+00 5.379266e+01 -3.978426e-01 3.079341e-01 -5.841405e-01 1.745081e-01 2.725103e-01 2.221849e-01 5.645261e-01 1.505129e-02 2.374370e-01 -3.164003e-01 -7.894687e-02 4.948420e-01 -6.877491e-01 -2.963420e-01 -3.657903e-01 3.254067e-01 -5.264988e-01 2.996062e-01 -5.511416e-01 -7.536574e-02 -1.241642e-01 2.815220e-01 -3.882467e-02 1.268571e-01 -8.840205e-02 7.807208e-01
<VARIANCE> 39
 8.208617e+00 1.759133e+01 3.568916e+01 2.047852e+01 2.921964e+01 3.313524e+01 3.016732e+01 3.210298e+01 3.877824e+01 2.670745e+01 3.089924e+01 2.929420e+01 1.192693e+01 6.657716e-01 7.807390e-01 1.344134e+00 1.450177e+00 2.060833e+00 2.524829e+00 2.409912e+00 2.322042e+00 2.266209e+00 2.189377e+00 1.788365e+00 1.770881e+00 9.680545e-01 1.546502e-01 2.173439e-01 3.078631e-01 3.592404e-01 4.423576e-01 5.598753e-01 5.199763e-01 5.292874e-01 5.679583e-01 4.795185e-01 4.183366e-01 4.170870e-01 2.429240e-01
<GCONST> 1.065892e+02
<STATE> 3
<MEAN> 39
 -8.203657e-01 3.297517e+00 -1.886626e+00 2.265485e+00 -3.572782e+00 -1.318876e+00 -4.928391e+00 -2.655500e-01 -3.543820e+00 -4.898941e-01 -1.964875e+00 -3.281104e+00 5.369297e+01 -1.507266e+00 -9.875210e-01 4.592493e-01 -1.619086e+00 1.532966e+00 -1.903010e+00 3.496944e-01 -6.387146e-01 1.380836e+00 -4.764886e-01 2.284023e-01 4.063547e-02 1.996185e+00 1.984280e-01 -5.251980e-01 4.248193e-01 -6.632537e-01 -2.176410e-01 -2.882880e-01 -6.948383e-01 -1.031810e-01 1.396139e-01 1.999547e-01 1.985925e-01 -5.225936e-01 1.044991e+00
<VARIANCE> 39
 1.247843e+01 1.740579e+01 2.791661e+01 2.254437e+01 3.163291e+01 4.212822e+01 3.272788e+01 3.318458e+01 3.683817e+01 2.545790e+01 2.835529e+01 2.582198e+01 1.636121e+01 1.597952e+00 2.237863e+00 3.249040e+00 3.165432e+00 3.685210e+00 4.374192e+00 4.544447e+00 4.245180e+00 4.459657e+00 3.669673e+00 3.313530e+00 2.973773e+00 1.982191e+00 2.527532e-01 3.404070e-01 5.527394e-01 4.526376e-01 6.092954e-01 7.449699e-01 6.530147e-01 8.488109e-01 8.373678e-01 6.100070e-01 5.681816e-01 5.184352e-01 2.608707e-01
<GCONST> 1.205781e+02
<STATE> 4
<MEAN> 39
 -5.239904e+00 -2.596039e-02 8.354095e-02 -2.854434e+00 4.813084e-01 -7.440435e+00 -4.621802e+00 -2.854858e+00 6.740792e-01 -1.601684e+00 -1.022349e+00 -4.062670e+00 6.097029e+01 4.826908e-01 -1.444413e+00 8.992867e-01 -2.117780e+00 -3.884967e-01 -7.420950e-01 -1.932407e+00 -4.023232e-01 6.603893e-01 4.481799e-01 6.743714e-01 -1.342220e+00 2.890936e+00 8.418501e-01 -6.445301e-02 7.782633e-02 9.442756e-02 -8.665035e-01 8.586055e-01 -6.552974e-01 2.623377e-01 -6.030378e-01 3.417609e-01 1.516827e-01 -3.097952e-01 -1.218923e-01
<VARIANCE> 39
 2.015007e+01 2.134015e+01 2.821637e+01 2.721732e+01 3.064211e+01 4.795884e+01 5.147821e+01 3.990069e+01 3.985328e+01 3.373264e+01 2.731570e+01 2.994140e+01 1.790209e+01 2.708876e+00 3.480766e+00 5.601078e+00 4.192212e+00 4.635509e+00 5.696877e+00 5.846874e+00 6.561868e+00 6.778274e+00 4.245835e+00 4.515524e+00 4.134813e+00 3.067538e+00 3.662968e-01 4.643793e-01 5.679695e-01 5.826713e-01 6.679527e-01 9.887505e-01 1.004503e+00 9.257875e-01 8.167368e-01 8.060263e-01 7.138869e-01 6.287373e-01 3.859702e-01
<GCONST> 1.302929e+02
<TRANSP> 5
 0.000000e+00 1.000000e+00 0.000000e+00 0.000000e+00 0.000000e+00
 0.000000e+00 5.912360e-01 4.087640e-01 0.000000e+00 0.000000e+00
 0.000000e+00 0.000000e+00 3.335665e-01 6.664335e-01 0.000000e+00
 0.000000e+00 0.000000e+00 0.000000e+00 4.397283e-01 5.602717e-01
 0.000000e+00 0.000000e+00 0.000000e+00 0.000000e+00 0.000000e+00
<ENDHMM>
~h "u"
<BEGINHMM>
<NUMSTATES> 5
<STATE> 2
<MEAN> 39
 4.239512e+00 9.518949e-01 1.785262e+00 -7.872983e+00 -8.075477e+00 1.044488e+00 -1.667775e+01 -6.696373e+00 -6.775609e+00 1.980972e+00 4.793169e+00 -6.443063e+00 6.391611e+01 7.157935e-01 -2.336256e-01 3.916997e-01 -8.341050e-01 -8.481591e-01 1.010437e+00 -1.351682e+00 -6.530511e-01 -5.261799e-01 5.987410e-01 1.100772e+00 -3.285199e-01 5.908877e-01 -3.233022e-01 1.470980e-01 -1.005274e-01 6.860473e-01 3.058652e-01 3.874427e-02 8.910232e-01 3.535517e-01 1.107496e-01 -3.037253e-01 -5.464531e-01 2.126781e-01 -5.371630e-01
<VARIANCE> 39
 1.211501e+01 2.817992e+01 4.007940e+01 7.043764e+01 6.695377e+01 6.168625e+01 7.684119e+01 5.835289e+01 6.413210e+01 5.549530e+01 5.897713e+01 4.820861e+01 1.682940e+01 2.095418e+00 2.613925e+00 3.269418e+00 5.835155e+00 4.933932e+00 5.694811e+00 5.994472e+00 5.121066e+00 6.075210e+00 4.746727e+00 4.596486e+00 3.643378e+00 1.675468e+00 2.761823e-01 4.381317e-01 4.408385e-01 9.332724e-01 8.641644e-01 9.440834e-01 1.109013e+00 1.011018e+00 1.014751e+00 8.717158e-01 8.623604e-01 7.607398e-01 2.979919e-01
<GCONST> 1.344041e+02
<STATE> 3
<MEAN> 39
 4.459131e+00 4.846649e-01 2.469963e+00 -8.117376e+00 -9.757204e+00 3.621737e+00 -1.717345e+01 -7.300413e+00 -7.089923e+00 1.326415e+00 6.857522e+00 -7.160303e+00 6.403987e+01 1.091572e-02 4.129220e-01 -1.000000e-01 6.572018e-01 2.825401e-01 1.884172e-01 9.313954e-01 3.312806e-01 -1.670816e-01 -2.905550e-01 -7.860240e-01 4.039986e-01 -6.605610e-01 -2.366448e-01 1.637849e-01 -7.221871e-02 5.308863e-01 3.304394e-01 -3.225920e-01 5.905859e-01 2.608397e-01 1.925083e-01 -2.111862e-01 -5.899636e-01 1.183328e-01 -3.382509e-01
<VARIANCE> 39
 9.159305e+00 2.844530e+01 3.874105e+01 7.517569e+01 5.536890e+01 6.179823e+01 6.367438e+01 6.123886e+01 6.006758e+01 5.765544e+01 6.538078e+01 5.155294e+01 1.432222e+01 7.296109e-01 2.044421e+00 1.850946e+00 4.386701e+00 2.948456e+00 3.521622e+00 3.532770e+00 3.336316e+00 4.112846e+00 3.289179e+00 3.180096e+00 2.947749e+00 1.460368e+00 2.146593e-01 3.206082e-01 3.613875e-01 6.156894e-01 6.031255e-01 7.234820e-01 7.478269e-01 7.677372e-01 7.819343e-01 7.088101e-01 6.735979e-01 6.302022e-01 1.599574e-01
<GCONST> 1.242374e+02
<STATE> 4
<MEAN> 39
 5.053796e+00 5.035929e+00 -3.456459e-01 -5.241066e+00 -7.360982e+00 2.922927e+00 -1.152881e+01 -4.535688e+00 -8.356854e+00 -4.642303e-01 1.354430e+00 -3.408964e+00 5.866383e+01 -2.776930e-01 2.822031e-01 -9.020499e-02 1.096640e+00 3.820972e-01 -1.225449e-01 8.429563e-01 2.899499e-01 2.628363e-01 -1.831276e-01 -6.984398e-01 2.053622e-01 -7.296601e-01 -1.163758e-01 -1.076320e-01 3.267077e-02 -7.485814e-03 3.649560e-02 -4.566177e-02 -3.884444e-02 -1.266272e-02 8.605970e-02 1.839787e-02 6.412856e-02 -6.533719e-02 8.219519e-02
<VARIANCE> 39
 1.019120e+01 3.176961e+01 2.831168e+01 7.313327e+01 5.370589e+01 4.944168e+01 4.540197e+01 4.383615e+01 4.276401e+01 4.736238e+01 4.893130e+01 3.842417e+01 2.287458e+01 6.779196e-01 1.382991e+00 1.392583e+00 2.525116e+00 2.380264e+00 2.632080e+00 2.791785e+00 2.811484e+00 2.670386e+00 2.668184e+00 2.614983e+00 2.309810e+00 9.341016e-01 1.113279e-01 2.050511e-01 2.027706e-01 4.266404e-01 3.716984e-01 4.315988e-01 4.692772e-01 4.700094e-01 4.653088e-01 4.619631e-01 4.125856e-01 3.814865e-01 1.117706e-01
<GCONST> 1.124916e+02
<TRANSP> 5
 0.000000e+00 1.000000e+00 0.000000e+00 0.000000e+00 0.000000e+00
 0.000000e+00 4.067363e-01 5.932636e-01 0.000000e+00 0.000000e+00
 0.000000e+00 0.000000e+00 4.556915e-01 5.443085e-01 0.000000e+00
 0.000000e+00 0.000000e+00 0.000000e+00 7.017831e-01 2.982170e-01
 0.000000e+00 0.000000e+00 0.000000e+00 0.000000e+00 0.000000e+00
<ENDHMM>
~h "v"
<BEGINHMM>
<NUMSTATES> 5
<STATE> 2
<MEAN> 39
 7.903662e-04 -6.079456e-01 1.670089e+00 -6.705837e-01 -5.929818e+00 -8.820225e-01 -6.906881e+00 5.931143e-01 -4.574426e+00 -3.940755e-01 -3.854154e-01 -5.847453e+00 5.993814e+01 5.024984e-04 -6.478592e-05 9.522401e-04 -6.048587e-04 -1.305029e-03 -9.148303e-04 -9.999124e-04 -6.995694e-04 3.150678e-04 8.832195e-04 -1.229102e-04 -1.829845e-05 4.304752e-04 -1.024714e-04 5.090495e-05 -4.314321e-05 5.499199e-04 2.475645e-04 2.544455e-04 -3.161734e-04 -1.009587e-04 -7.179174e-05 -5.594532e-04 -1.336834e-04 -6.698545e-06 -3.952787e-04
<VARIANCE> 39
 2.681136e+01 5.325134e+01 6.824250e+01 5.887592e+01 6.062508e+01 6.608533e+01 5.928268e+01 6.068991e+01 5.916120e+01 4.597362e+01 4.705821e+01 4.804106e+01 6.619385e+01 1.372020e+00 2.288023e+00 2.566274e+00 2.987463e+00 3.078158e+00 3.116328e+00 3.250192e+00 3.738113e+00 3.266875e+00 2.829993e+00 2.967949e+00 2.476121e+00 2.021681e+00 2.264445e-01 3.584008e-01 4.122588e-01 5.086471e-01 5.519696e-01 5.562619e-01 5.942494e-01 6.847889e-01 5.904057e-01 5.307208e-01 5.528100e-01 4.553457e-01 3.018115e-01
<GCONST> 1.265182e+02
<STATE> 3
<MEAN> 39
 7.903662e-04 -6.079456e-01 1.670089e+00 -6.705837e-01 -5.929818e+00 -8.820225e-01 -6.906881e+00 5.931143e-01 -4.574426e+00 -3.940755e-01 -3.854154e-01 -5.847453e+00 5.993814e+01 5.024984e-04 -6.478592e-05 9.522401e-04 -6.048587e-04 -1.305029e-03 -9.148303e-04 -9.999124e-04 -6.995694e-04 3.150678e-04 8.832195e-04 -1.229102e-04 -1.829845e-05 4.304752e-04 -1.024714e-04 5.090495e-05 -4.314321e-05 5.499199e-04 2.475645e-04 2.544455e-04 -3.161734e-04 -1.009587e-04 -7.179174e-05 -5.594532e-04 -1.336834e-04 -6.698545e-06 -3.952787e-04
<VARIANCE> 39
 2.681136e+01 5.325134e+01 6.824250e+01 5.887592e+01 6.062508e+01 6.608533e+01 5.928268e+01 6.068991e+01 5.916120e+01 4.597362e+01 4.705821e+01 4.804106e+01 6.619385e+01 1.372020e+00 2.288023e+00 2.566274e+00 2.987463e+00 3.078158e+00 3.116328e+00 3.250192e+00 3.738113e+00 3.266875e+00 2.829993e+00 2.967949e+00 2.476121e+00 2.021681e+00 2.264445e-01 3.584008e-01 4.122588e-01 5.086471e-01 5.519696e-01 5.562619e-01 5.942494e-01 6.847889e-01 5.904057e-01 5.307208e-01 5.528100e-01 4.553457e-01 3.018115e-01
<GCONST> 1.265182e+02
<STATE> 4
<MEAN> 39
 7.903662e-04 -6.079456e-01 1.670089e+00 -6.705837e-01 -5.929818e+00 -8.820225e-01 -6.906881e+00 5.931143e-01 -4.574426e+00 -3.940755e-01 -3.854154e-01 -5.847453e+00 5.993814e+01 5.024984e-04 -6.478592e-05 9.522401e-04 -6.048587e-04 -1.305029e-03 -9.148303e-04 -9.999124e-04 -6.995694e-04 3.150678e-04 8.832195e-04 -1.229102e-04 -1.829845e-05 4.304752e-04 -1.024714e-04 5.090495e-05 -4.314321e-05 5.499199e-04 2.475645e-04 2.544455e-04 -3.161734e-04 -1.009587e-04 -7.179174e-05 -5.594532e-04 -1.336834e-04 -6.698545e-06 -3.952787e-04
<VARIANCE> 39
 2.681136e+01 5.325134e+01 6.824250e+01 5.887592e+01 6.062508e+01 6.608533e+01 5.928268e+01 6.068991e+01 5.916120e+01 4.597362e+01 4.705821e+01 4.804106e+01 6.619385e+01 1.372020e+00 2.288023e+00 2.566274e+00 2.987463e+00 3.078158e+00 3.116328e+00 3.250192e+00 3.738113e+00 3.266875e+00 2.829993e+00 2.967949e+00 2.476121e+00 2.021681e+00 2.264445e-01 3.584008e-01 4.122588e-01 5.086471e-01 5.519696e-01 5.562619e-01 5.942494e-01 6.847889e-01 5.904057e-01 5.307208e-01 5.528100e-01 4.553457e-01 3.018115e-01
<GCONST> 1.265182e+02
<TRANSP> 5
 0.000000e+00 1.000000e+00 0.000000e+00 0.000000e+00 0.000000e+00
 0.000000e+00 6.000000e-01 4.000000e-01 0.000000e+00 0.000000e+00
 0.000000e+00 0.000000e+00 6.000000e-01 4.000000e-01 0.000000e+00
 0.000000e+00 0.000000e+00 0.000000e+00 7.000000e-01 3.000000e-01
 0.000000e+00 0.000000e+00 0.000000e+00 0.000000e+00 0.000000e+00
<ENDHMM>
~h "w"
<BEGINHMM>
<NUMSTATES> 5
<STATE> 2
<MEAN> 39
 1.568302e+00 -1.074410e+00 -3.246251e+00 -2.958110e+00 -6.243646e+00 3.733688e+00 -6.031627e+00 -3.125362e+00 -4.592789e+00 1.714115e+00 1.591483e+00 -2.379855e+00 5.878718e+01 4.008521e-01 4.577890e-01 -7.560215e-02 -3.011955e-01 -4.118002e-01 1.327683e-01 -3.952022e-02 -1.641818e-01 -4.871286e-01 -1.326588e-01 3.302339e-01 4.147110e-01 -1.786927e-01 6.013939e-02 -6.458468e-02 2.427790e-02 -2.121321e-01 -5.017938e-02 1.820335e-02 -1.248196e-01 5.650384e-02 6.125999e-02 -4.672106e-02 4.294515e-02 -1.134763e-01 1.356898e-01
<VARIANCE> 39
 3.975664e+01 5.310216e+01 2.908407e+01 7.428188e+01 3.969386e+01 5.433089e+01 4.624768e+01 2.937342e+01 2.850797e+01 4.245254e+01 4.133394e+01 3.551404e+01 4.553860e+01 4.665394e-01 9.553713e-01 1.077017e+00 1.907757e+00 1.378360e+00 1.687939e+00 1.416574e+00 1.932105e+00 2.342541e+00 2.051543e+00 2.012732e+00 1.864901e+00 5.215784e-01 1.050028e-01 1.478447e-01 1.568688e-01 4.282578e-01 2.552119e-01 3.537553e-01 2.960828e-01 4.069943e-01 4.521502e-01 3.904413e-01 3.600079e-01 4.259314e-01 9.261918e-02
<GCONST> 1.067391e+02
<STATE> 3
<MEAN> 39
 6.373358e+00 2.406237e+00 -4.032615e+00 -1.009818e+01 -9.927712e+00 6.846090e+00 -8.514710e+00 -3.006952e+00 -7.789503e+00 3.767914e-01 5.312288e+00 -3.093624e+00 6.015239e+01 5.850302e-01 -9.278596e-01 -1.281227e-01 -2.362790e+00 -2.165414e-01 1.108061e+00 -9.651740e-01 -9.404537e-02 7.369339e-02 6.587554e-01 1.144325e+00 -7.735081e-01 1.503332e+00 -2.825307e-01 -5.261019e-01 3.710372e-02 1.339418e-01 3.689170e-01 4.185180e-02 -4.780184e-02 1.995746e-01 4.771475e-01 2.441240e-01 -1.222088e-01 -5.160471e-01 2.295741e-01
<VARIANCE> 39
 1.243470e+01 3.156338e+01 2.393886e+01 7.789345e+01 5.630476e+01 5.201287e+01 4.693792e+01 3.045169e+01 3.419279e+01 3.829427e+01 4.033834e+01 4.048003e+01 3.258755e+01 1.480263e+00 3.051666e+00 1.084659e+00 4.893880e+00 3.127496e+00 2.731534e+00 3.677669e+00 2.553871e+00 3.256797e+00 2.945103e+00 3.018053e+00 3.852610e+00 2.387519e+00 2.085758e-01 2.622129e-01 1.669798e-01 9.732111e-01 4.903436e-01 5.788986e-01 5.446892e-01 4.788010e-01 4.603148e-01 4.405636e-01 6.566316e-01 6.091317e-01 2.344847e-01
<GCONST> 1.203451e+02
<STATE> 4
<MEAN> 39
 5.668996e+00 -4.540303e+00 -3.329851e+00 -1.740281e+01 -4.890471e+00 9.719122e+00 -1.495598e+01 -8.292804e-01 -3.312716e+00 6.767616e+00 4.077189e+00 -9.606876e+00 6.628633e+01 -3.782356e-01 -1.075366e+00 -3.365497e-02 1.656171e-01 7.328379e-01 -2.358522e-01 7.378075e-02 5.103544e-01 8.661393e-01 6.650256e-02 -6.588361e-01 -1.167123e+00 6.508464e-01 -6.762533e-02 1.426915e-01 4.802794e-02 3.828091e-01 6.313407e-02 -3.273858e-01 1.902923e-01 3.378363e-02 -2.159154e-02 -2.473378e-01 -2.751718e-01 1.450061e-01 -1.589987e-01
<VARIANCE> 39
 5.071207e+00 3.608219e+01 2.173411e+01 4.509669e+01 8.617371e+01 4.496215e+01 3.486714e+01 4.024591e+01 3.652317e+01 5.983907e+01 7.523270e+01 5.462123e+01 1.584084e+01 3.573783e-01 1.735501e+00 8.434237e-01 1.941682e+00 1.480888e+00 1.687378e+00 1.901614e+00 1.712706e+00 2.291356e+00 1.884159e+00 2.185154e+00 3.014547e+00 8.059077e-01 4.845858e-02 2.387965e-01 1.362536e-01 3.454235e-01 2.653878e-01 2.917387e-01 2.782061e-01 2.489679e-01 3.320276e-01 3.017957e-01 4.545425e-01 4.389592e-01 1.330999e-01
<GCONST> 1.046277e+02
<TRANSP> 5
 0.000000e+00 1.000000e+00 0.000000e+00 0.000000e+00 0.000000e+00
 0.000000e+00 6.194814e-01 3.805186e-01 0.000000e+00 0.000000e+00
 0.000000e+00 0.000000e+00 6.964334e-01 3.035665e-01 0.000000e+00
 0.000000e+00 0.000000e+00 0.000000e+00 7.647696e-01 2.352304e-01
 0.000000e+00 0.000000e+00 0.000000e+00 0.000000e+00 0.000000e+00
<ENDHMM>
~h "y"
<BEGINHMM>
<NUMSTATES> 5
<STATE> 2
<MEAN> 39
 -2.589802e+00 -1.685123e+00 1.782239e+01 -5.901550e+00 -1.540767e+01 -7.552453e+00 -1.179947e+01 1.811004e+00 -9.495357e+00 -1.972123e+00 5.885349e+00 -5.450000e+00 6.670740e+01 -5.136920e-02 -7.940869e-01 5.518844e-01 -4.803631e-01 -9.764765e-01 -8.627335e-01 -1.335113e-01 9.500673e-01 1.608743e-04 2.256285e-01 8.045255e-01 2.038144e-01 7.909804e-01 1.382775e-01 -1.902073e-01 -6.754044e-01 1.025048e-01 3.476700e-01 7.161001e-02 1.920561e-01 2.388780e-01 3.554928e-01 6.272346e-02 -3.675745e-01 -1.552665e-01 -3.318745e-02
<VARIANCE> 39
 8.854723e+00 4.444213e+01 5.113619e+01 3.272538e+01 4.457785e+01 4.649952e+01 5.283775e+01 6.424581e+01 5.719932e+01 7.567994e+01 4.849524e+01 3.861771e+01 2.421889e+01 6.932673e-01 2.191266e+00 4.707666e+00 1.825134e+00 2.429290e+00 2.942899e+00 3.056585e+00 4.754268e+00 2.961651e+00 2.764733e+00 2.406580e+00 2.290225e+00 1.346655e+00 7.781614e-02 1.988729e-01 5.330774e-01 2.926965e-01 4.967454e-01 4.991110e-01 4.404065e-01 6.313507e-01 4.877568e-01 4.480569e-01 4.582748e-01 3.604116e-01 1.092912e-01
<GCONST> 1.170204e+02
<STATE> 3
<MEAN> 39
 -1.429796e+00 -8.392942e+00 1.253230e+01 -6.705112e+00 -1.701970e+01 -1.138197e+01 -8.881627e+00 1.076778e+01 -4.441301e+00 -2.016510e+00 6.420281e+00 -6.220741e+00 7.040973e+01 3.446760e-01 -9.521325e-01 -1.707561e+00 -1.909807e-02 1.052396e+00 2.258384e-01 7.837210e-01 1.476894e+00 1.092815e+00 -3.360595e-01 -1.425117e+00 -8.436548e-01 3.213784e-01 7.593466e-02 2.092437e-01 -2.435596e-01 1.958133e-01 4.882534e-01 4.119345e-01 -7.490937e-02 -5.450415e-01 -6.850207e-02 1.750743e-02 -4.337514e-01 -2.107535e-01 -2.340463e-01
<VARIANCE> 39
 5.288058e+00 1.813735e+01 2.221501e+01 2.127574e+01 3.685208e+01 3.855270e+01 5.018859e+01 5.222628e+01 4.480971e+01 6.125473e+01 4.312842e+01 3.467848e+01 1.108957e+01 2.706931e-01 1.043222e+00 2.402091e+00 1.181491e+00 1.773622e+00 1.734174e+00 1.697640e+00 2.767165e+00 2.563751e+00 1.762398e+00 2.270230e+00 1.702669e+00 4.262724e-01 6.323954e-02 1.621468e-01 3.109716e-01 1.911823e-01 2.975906e-01 3.470056e-01 3.112409e-01 6.792493e-01 3.260362e-01 4.076578e-01 3.516863e-01 2.982368e-01 9.622181e-02
<GCONST> 1.017787e+02
<STATE> 4
<MEAN> 39
 1.510830e-01 -1.001850e+01 5.219039e+00 -6.798730e+00 -9.451578e+00 -7.748857e+00 -6.464459e+00 1.138561e+01 -1.236433e+00 -2.744066e+00 -2.205236e+00 -9.357881e+00 6.994500e+01 3.797644e-01 -1.451063e-01 -1.154265e+00 2.825823e-01 1.244444e+00 8.490138e-01 -1.242138e-01 -4.503445e-01 2.317612e-01 1.487182e-01 -1.069278e+00 -5.515554e-01 -2.672561e-01 4.900216e-03 2.719209e-01 1.729735e-01 1.167455e-01 -7.112868e-02 8.519509e-02 -1.062400e-01 -4.309596e-01 -2.408655e-01 2.298815e-01 2.406782e-01 1.890010e-01 -2.191056e-01
<VARIANCE> 39
 6.477278e+00 2.266076e+01 2.935602e+01 2.400874e+01 3.653555e+01 4.692776e+01 4.714906e+01 3.932387e+01 4.428027e+01 7.199548e+01 4.135688e+01 4.439227e+01 1.677126e+01 2.876070e-01 6.264067e-01 1.657471e+00 9.982039e-01 1.775508e+00 1.433048e+00 1.570220e+00 2.407478e+00 1.786639e+00 1.893631e+00 2.154653e+00 1.453814e+00 3.094270e-01 5.461591e-02 1.763260e-01 2.450588e-01 2.001003e-01 2.262552e-01 3.070551e-01 2.881082e-01 5.990470e-01 3.406056e-01 3.571559e-01 3.029078e-01 2.501457e-01 1.085801e-01
<GCONST> 9.985049e+01
<TRANSP> 5
 0.000000e+00 1.000000e+00 0.000000e+00 0.000000e+00 0.000000e+00
 0.000000e+00 7.349939e-01 2.650061e-01 0.000000e+00 0.000000e+00
 0.000000e+00 0.000000e+00 6.325474e-01 3.674527e-01 0.000000e+00
 0.000000e+00 0.000000e+00 0.000000e+00 6.542009e-01 3.457992e-01
 0.000000e+00 0.000000e+00 0.000000e+00 0.000000e+00 0.000000e+00
<ENDHMM>
~h "z"
<BEGINHMM>
<NUMSTATES> 5
<STATE> 2
<MEAN> 39
 -6.309586e-01 1.129947e+01 9.811452e+00 5.472589e+00 -5.105071e+00 -9.414169e+00 -3.419377e+00 -3.050922e+00 -9.273005e+00 -3.385446e+00 -8.260382e-01 -2.052815e+00 5.754690e+01 6.517898e-02 -4.714897e-01 7.451981e-01 -6.980187e-01 -8.027220e-02 3.998189e-01 -8.876612e-01 -1.607248e-01 -2.439608e-01 1.961712e-01 6.251232e-01 -4.115862e-01 5.674053e-01 2.172766e-02 -3.403729e-01 1.653645e-01 -4.265298e-01 -2.800141e-01 4.746063e-01 -1.011542e-01 -4.695448e-02 -5.492633e-02 2.859000e-01 5.274555e-02 -5.705613e-02 3.409079e-02
<VARIANCE> 39
 2.399185e+01 1.883898e+01 2.088641e+01 1.747318e+01 1.799098e+01 2.694348e+01 6.073287e+01 3.112400e+01 3.113344e+01 2.149066e+01 1.662132e+01 1.927336e+01 1.766864e+01 1.339309e+00 3.338648e+00 4.469041e+00 2.727401e+00 1.484499e+00 2.838238e+00 3.244986e+00 3.170458e+00 2.647879e+00 2.290358e+00 2.112794e+00 1.341365e+00 1.769264e+00 1.756223e-01 4.791830e-01 3.215816e-01 1.600673e-01 3.555185e-01 3.050295e-01 3.528028e-01 2.496775e-01 4.686250e-01 1.786233e-01 5.360305e-01 2.394360e-01 9.545933e-02
<GCONST> 1.067728e+02
<STATE> 3
<MEAN> 39
 -2.304835e+00 1.803559e+00 1.984352e+01 -9.421723e+00 -8.238594e+00 -2.299802e+00 -1.770409e+01 -6.945078e+00 -1.193856e+01 5.608093e+00 5.125965e-01 -5.083113e+00 6.517019e+01 1.073713e-01 -1.131342e+00 6.182685e-01 -1.693304e+00 -7.200603e-01 1.742341e+00 -1.355552e+00 -5.788849e-01 -6.220055e-02 6.728807e-01 4.817618e-02 -2.897879e-01 6.284801e-01 9.659918e-02 2.689623e-01 -6.433609e-01 2.614148e-01 2.099031e-01 -1.448542e-01 3.671975e-01 4.413908e-01 1.981079e-01 -1.119207e-01 -9.580977e-02 8.358965e-03 -2.109463e-01
<VARIANCE> 39
 1.248605e+01 3.221546e+00 6.690308e+01 5.013330e+01 1.909319e+01 1.113166e+02 4.053439e+01 4.194961e+01 6.362395e+01 1.306022e+01 5.190873e+00 2.020814e+01 5.497341e+00 9.567981e-01 1.644467e+00 2.668955e+00 1.565928e+00 2.315564e+00 2.226571e+00 3.550740e+00 1.582866e+00 3.909591e+00 1.750669e+00 1.402614e+00 1.861283e+00 7.829654e-01 5.426222e-02 2.849104e-01 1.051354e-01 2.200035e-01 3.611140e-01 4.956896e-01 5.395159e-01 3.259457e-01 3.611020e-01 4.829816e-01 1.612412e-01 2.030660e-01 6.223058e-02
<GCONST> 1.002211e+02
<STATE> 4
<MEAN> 39
 -1.421730e+00 4.750760e+00 8.810142e+00 -5.747540e+00 -5.926904e+00 9.574672e+00 -9.637441e+00 -1.760869e+00 -5.471971e+00 -2.512165e+00 -6.129892e+00 -6.520184e+00 5.563136e+01 1.456809e-01 2.669751e-01 -6.342617e-01 5.721379e-01 2.181464e-02 -3.173088e-02 4.436150e-01 3.609079e-02 1.438804e-02 -2.246941e-01 2.667757e-02 3.960086e-02 -3.904459e-01 2.078028e-02 1.379887e-01 1.970790e-02 7.720744e-02 -7.280156e-03 -8.473890e-02 6.266051e-02 -1.881389e-02 -4.207621e-02 -3.702520e-02 3.210481e-03 4.803479e-02 -5.690775e-02
<VARIANCE> 39
 4.641305e+00 2.727185e+01 7.298877e+01 9.613943e+01 9.006479e+00 5.119047e+01 6.855151e+01 1.783946e+01 2.231528e+01 2.801661e+01 2.297464e+01 2.495418e+01 5.912082e+01 3.245640e-01 1.252448e+00 1.022593e+00 1.324059e+00 6.102580e-01 1.260525e+00 1.047021e+00 1.421019e+00 1.356923e+00 1.289454e+00 1.987832e+00 1.886159e+00 5.179660e-01 4.540480e-02 1.442523e-01 1.718594e-01 1.657619e-01 1.003055e-01 2.218345e-01 4.179000e-01 2.755871e-01 2.120209e-01 2.066673e-01 3.387049e-01 2.080648e-01 5.700382e-02
<GCONST> 9.304854e+01
<TRANSP> 5
 0.000000e+00 1.000000e+00 0.000000e+00 0.000000e+00 0.000000e+00
 0.000000e+00 8.038168e-01 1.961832e-01 0.000000e+00 0.000000e+00
 0.000000e+00 0.000000e+00 7.486802e-01 2.513198e-01 0.000000e+00
 0.000000e+00 0.000000e+00 0.000000e+00 8.707843e-01 1.292157e-01
 0.000000e+00 0.000000e+00 0.000000e+00 0.000000e+00 0.000000e+00
<ENDHMM>
~h "aw"
<BEGINHMM>
<NUMSTATES> 5
<STATE> 2
<MEAN> 39
 2.717744e+00 -4.489814e+00 -4.978279e-01 -1.151113e+01 -5.223161e+00 9.777467e-01 -1.305751e+01 -2.828884e+00 9.512277e-01 5.605101e+00 4.188749e+00 -9.125830e+00 6.810164e+01 1.253734e+00 -3.979079e-01 3.234516e-01 -1.914506e+00 -1.821051e+00 2.156713e+00 -2.102892e+00 4.082184e-01 -4.316696e-01 8.284526e-01 1.545828e+00 -9.121199e-01 1.061301e+00 -9.953995e-02 4.806001e-01 8.794770e-02 6.501234e-01 -1.637932e-01 3.471009e-01 4.306168e-01 8.926845e-02 -2.179149e-01 -5.948063e-01 -4.799063e-01 6.123440e-01 -7.825996e-01
<VARIANCE> 39
 8.454816e+00 2.280345e+01 2.038671e+01 3.576571e+01 5.174657e+01 7.284663e+01 4.114984e+01 3.249784e+01 9.569677e+01 4.922775e+01 1.986753e+01 3.537785e+01 1.672020e+01 2.024692e+00 1.813603e+00 3.459350e+00 3.805466e+00 3.572450e+00 5.118790e+00 5.366192e+00 3.020023e+00 4.854957e+00 4.369313e+00 1.694373e+00 4.449594e+00 2.260765e+00 3.181144e-01 2.470706e-01 4.252798e-01 5.967768e-01 7.443026e-01 8.649858e-01 6.848184e-01 6.987556e-01 8.957750e-01 6.026547e-01 4.115081e-01 5.251474e-01 3.091514e-01
<GCONST> 1.238391e+02
<STATE> 3
<MEAN> 39
 3.151903e+00 -4.022103e+00 1.457528e+00 -1.446573e+01 -8.592620e+00 4.291499e+00 -1.498989e+01 -2.583256e+00 -1.273012e+00 4.146864e+00 4.889087e+00 -7.308699e+00 6.877529e+01 3.797066e-01 9.620048e-01 3.896000e-01 5.260822e-01 -5.249594e-01 7.616629e-01 -1.168483e-01 -2.055349e-01 -8.666351e-01 -9.031877e-01 -4.155080e-01 1.481809e+00 -9.422499e-01 -1.243609e-01 3.483009e-01 -1.204421e-01 7.709649e-01 4.486509e-01 -2.887476e-01 4.440323e-01 -1.588534e-01 2.266834e-01 -2.108544e-01 -6.158468e-01 1.949327e-01 -5.208419e-01
<VARIANCE> 39
 7.258127e+00 2.122453e+01 1.909831e+01 4.230126e+01 4.624674e+01 8.798476e+01 7.433516e+01 4.071252e+01 1.181952e+02 3.381100e+01 3.106546e+01 5.016029e+01 1.258380e+01 5.179413e-01 9.960219e-01 1.235012e+00 3.355425e+00 2.501517e+00 2.631135e+00 2.791118e+00 2.894239e+00 1.826806e+00 3.119910e+00 1.966170e+00 2.140045e+00 7.460555e-01 1.810811e-01 2.085809e-01 2.413857e-01 4.153412e-01 3.260292e-01 4.416187e-01 6.527562e-01 4.746985e-01 7.556502e-01 5.307413e-01 4.344145e-01 5.169555e-01 1.354067e-01
<GCONST> 1.124370e+02
<STATE> 4
<MEAN> 39
 5.093157e+00 1.449716e+00 -2.285568e-01 -8.446023e+00 -1.216204e+01 9.072433e+00 -9.673965e+00 -6.648012e+00 -4.148211e+00 1.364680e+00 2.721307e+00 -1.997715e+00 6.093390e+01 -2.057100e-01 6.553631e-01 -2.902923e-01 1.290815e+00 5.319644e-01 -4.719459e-01 5.653386e-01 1.924253e-01 -1.348366e-01 -2.647721e-01 -6.288868e-01 -7.498964e-02 -1.105960e+00 -1.634939e-01 -1.581640e-01 4.225392e-02 -1.855858e-02 1.677888e-01 -3.419234e-01 3.156397e-02 1.721013e-01 2.550207e-03 1.209458e-01 1.046080e-01 -2.317016e-01 1.917697e-01
<VARIANCE> 39
 5.435405e+00 2.842203e+01 2.897518e+01 5.213095e+01 3.334579e+01 6.882377e+01 5.003714e+01 4.009254e+01 5.208829e+01 5.144383e+01 3.237553e+01 2.218383e+01 2.032651e+01 3.869051e-01 1.062014e+00 1.780667e+00 2.486229e+00 2.200248e+00 3.090790e+00 2.098916e+00 2.857938e+00 3.308620e+00 2.187213e+00 2.369680e+00 2.765304e+00 1.067184e+00 7.986607e-02 1.345861e-01 3.063048e-01 3.216143e-01 3.170315e-01 5.242811e-01 4.717106e-01 6.463682e-01 6.291816e-01 4.377396e-01 4.368431e-01 6.012426e-01 1.112735e-01
<GCONST> 1.104381e+02
<TRANSP> 5
 0.000000e+00 1.000000e+00 0.000000e+00 0.000000e+00 0.000000e+00
 0.000000e+00 4.270698e-01 5.729302e-01 0.000000e+00 0.000000e+00
 0.000000e+00 0.000000e+00 6.378402e-01 3.621598e-01 0.000000e+00
 0.000000e+00 0.000000e+00 0.000000e+00 7.897593e-01 2.102407e-01
 0.000000e+00 0.000000e+00 0.000000e+00 0.000000e+00 0.000000e+00
<ENDHMM>
~h "ay"
<BEGINHMM>
<NUMSTATES> 5
<STATE> 2
<MEAN> 39
 4.708816e-01 -1.404751e+01 2.249866e+00 -5.850507e+00 -1.010014e+01 -6.505309e+00 -8.209877e+00 9.652313e+00 2.829213e+00 -5.037616e+00 -1.150502e+00 -1.159588e+01 7.220945e+01 -3.451467e-01 -1.878996e-01 1.271046e+00 2.104980e-01 -1.359355e+00 -1.160936e+00 2.279794e-01 1.413161e+00 -5.729331e-01 -5.440506e-01 7.022340e-01 6.344942e-01 1.376052e-01 -8.441011e-03 4.924739e-01 2.118563e-01 7.757941e-02 -5.496560e-02 1.266549e-01 -3.403235e-02 -4.521388e-01 -4.503255e-01 2.228217e-01 3.295714e-01 2.920251e-01 -3.316832e-01
<VARIANCE> 39
 6.343977e+00 1.916579e+01 4.304551e+01 1.800386e+01 4.219438e+01 5.862051e+01 5.422984e+01 5.603679e+01 5.801774e+01 6.520099e+01 4.325230e+01 3.110604e+01 5.584510e+00 3.714318e-01 1.137492e+00 1.900353e+00 1.175375e+00 1.987506e+00 2.234339e+00 1.753661e+00 2.603722e+00 2.085177e+00 2.070136e+00 3.014627e+00 1.884047e+00 3.232918e-01 9.893306e-02 1.811175e-01 2.905147e-01 2.469608e-01 4.934251e-01 4.304008e-01 3.759299e-01 5.424866e-01 4.418231e-01 3.575993e-01 5.140622e-01 3.737212e-01 1.108682e-01
<GCONST> 1.056575e+02
<STATE> 3
<MEAN> 39
 -1.442242e+00 -8.938639e+00 1.454179e+01 -5.620456e+00 -1.989448e+01 -1.030615e+01 -1.231133e+01 1.098879e+01 -5.336035e+00 -5.774975e+00 8.147427e+00 -6.930215e+00 7.023363e+01 6.469335e-02 9.960922e-01 6.683104e-01 3.380443e-01 -6.727062e-02 4.222806e-01 -3.683697e-01 -9.513345e-01 -9.229906e-01 1.135004e-01 1.856318e-01 1.160853e-01 -6.862367e-01 1.794268e-01 9.049568e-02 -5.212904e-01 2.305579e-01 5.902063e-01 2.778898e-01 1.321000e-01 -2.475735e-01 1.475022e-01 1.333549e-01 -5.292960e-01 -2.644706e-01 -2.395628e-01
<VARIANCE> 39
 4.186658e+00 1.678582e+01 3.488871e+01 2.101782e+01 3.373085e+01 3.350329e+01 5.844937e+01 3.815976e+01 5.805286e+01 5.412854e+01 3.949702e+01 2.764163e+01 5.619568e+00 4.411220e-01 9.756686e-01 2.486656e+00 1.245763e+00 2.242491e+00 1.239613e+00 2.061213e+00 2.396700e+00 2.409585e+00 1.799865e+00 2.864919e+00 2.006956e+00 5.033742e-01 6.452666e-02 1.767724e-01 2.103564e-01 1.959882e-01 2.470024e-01 3.093910e-01 3.776011e-01 6.138477e-01 3.788787e-01 3.645359e-01 3.910751e-01 3.029330e-01 1.001558e-01
<GCONST> 1.013695e+02
<STATE> 4
<MEAN> 39
 5.837862e-01 -3.627809e+00 1.005555e+01 -1.307371e+00 -1.337811e+01 -6.091630e+00 -9.482842e+00 5.324994e+00 -6.185736e+00 -3.452303e+00 3.247636e+00 -6.883321e+00 6.394699e+01 5.211335e-01 8.234966e-01 -1.338273e+00 1.040575e+00 1.261026e+00 1.201410e+00 8.294837e-01 -9.464576e-01 -4.113390e-01 6.233777e-01 -9.090284e-01 -8.720108e-02 -1.386948e+00 -1.113518e-01 -6.518135e-02 -8.311872e-02 -1.021254e-01 -6.293626e-02 1.954593e-02 1.153533e-01 -1.379651e-01 -3.962356e-02 -2.403337e-02 4.263766e-02 1.699339e-01 7.871702e-02
<VARIANCE> 39
 8.862679e+00 1.981537e+01 3.658482e+01 3.580352e+01 3.927950e+01 4.000854e+01 6.142970e+01 5.383669e+01 5.002899e+01 4.334108e+01 3.268441e+01 4.469780e+01 1.792996e+01 5.715232e-01 1.318002e+00 2.155573e+00 1.739235e+00 2.578051e+00 2.810891e+00 2.918078e+00 4.166706e+00 3.384269e+00 2.684726e+00 2.928593e+00 2.606027e+00 8.929949e-01 1.057148e-01 2.117682e-01 3.407656e-01 3.256151e-01 4.544042e-01 5.132121e-01 5.526407e-01 5.544235e-01 5.453510e-01 4.480453e-01 3.652429e-01 4.933612e-01 1.392446e-01
<GCONST> 1.132535e+02
<TRANSP> 5
 0.000000e+00 1.000000e+00 0.000000e+00 0.000000e+00 0.000000e+00
 0.000000e+00 7.605503e-01 2.394497e-01 0.000000e+00 0.000000e+00
 0.000000e+00 0.000000e+00 7.515875e-01 2.484125e-01 0.000000e+00
 0.000000e+00 0.000000e+00 0.000000e+00 6.916593e-01 3.083407e-01
