~o
<STREAMINFO> 1 39
<VECSIZE> 39<NULLD><MFCC_D_A_0><DIAGC>
~s "silst"
<MEAN> 39
 -1.572270e+00 3.038814e+00 -2.504589e+00 4.712818e+00 -3.320056e+00 1.846418e+00 -3.413750e+00 1.622781e+00 -3.035695e+00 -1.389400e+00 -2.518531e+00 -1.420583e+00 5.111012e+01 -7.898564e-02 1.039297e-01 -6.759880e-02 5.477809e-02 4.682723e-02 5.693298e-02 3.034057e-02 1.442647e-02 3.141277e-02 -2.237092e-02 5.473240e-02 7.123858e-02 -1.590480e-01 8.154276e-03 -2.263961e-02 3.569568e-02 -3.799639e-02 7.954184e-03 -1.737191e-02 -1.927095e-02 -1.446464e-02 -2.244934e-02 6.790497e-03 3.630982e-03 -2.248598e-02 5.850949e-02
<VARIANCE> 39
 1.145906e+01 2.121997e+01 1.888905e+01 1.622707e+01 2.363763e+01 2.655954e+01 2.509977e+01 2.861077e+01 2.481776e+01 2.531556e+01 2.361148e+01 2.271164e+01 1.111586e+01 2.881196e-01 6.854063e-01 8.746340e-01 1.029918e+00 1.318925e+00 1.483503e+00 1.623099e+00 1.836500e+00 1.788785e+00 1.765985e+00 1.671459e+00 1.532550e+00 2.589437e-01 5.349770e-02 1.179691e-01 1.618983e-01 2.035551e-01 2.586744e-01 2.891691e-01 3.233967e-01 3.616897e-01 3.537248e-01 3.492444e-01 3.297237e-01 3.008004e-01 4.338735e-02
<GCONST> 9.107114e+01
~h "@"
<BEGINHMM>
<NUMSTATES> 5
<STATE> 2
<MEAN> 39
 1.247427e+00 -4.346065e+00 2.172072e+00 -2.818106e+00 -6.564371e+00 -5.422626e+00 -1.046698e+01 3.252210e-01 -1.802028e+00 1.579649e+00 9.619815e-01 -8.260042e+00 6.538963e+01 9.074734e-01 -1.074352e+00 3.692248e-01 -5.358274e-01 -1.087520e+00 -1.060514e-01 -8.173671e-01 7.065648e-01 3.085407e-01 2.722726e-01 4.457094e-01 -7.484440e-01 1.096810e+00 -1.386254e-01 5.696874e-01 -1.337083e-02 5.245255e-01 2.110960e-01 4.682276e-01 4.155854e-01 -2.050746e-01 -2.784930e-01 -1.982882e-01 -3.010674e-01 3.169935e-01 -6.725532e-01
<VARIANCE> 39
 2.261728e+01 4.347869e+01 5.046089e+01 4.831879e+01 6.873549e+01 7.433786e+01 7.247663e+01 7.947092e+01 6.718631e+01 5.376961e+01 4.823829e+01 5.253605e+01 2.875139e+01 2.715995e+00 2.787214e+00 3.214406e+00 3.822898e+00 4.065078e+00 5.095539e+00 4.714660e+00 7.302522e+00 5.894866e+00 4.487031e+00 4.603302e+00 3.619905e+00 2.618060e+00 3.592531e-01 4.557135e-01 5.599295e-01 6.889731e-01 7.743773e-01 7.453883e-01 9.278165e-01 9.937467e-01 8.493516e-01 7.906573e-01 7.325004e-01 5.999861e-01 4.324658e-01
<GCONST> 1.356553e+02
<STATE> 3
<MEAN> 39
 1.920269e+00 -5.496551e+00 2.518316e+00 -3.122433e+00 -7.833264e+00 -4.886428e+00 -1.110049e+01 1.317878e+00 -1.258152e+00 1.182211e+00 1.656736e+00 -8.973945e+00 6.637885e+01 4.171518e-01 1.865396e-01 2.824040e-01 6.073874e-01 -2.478880e-01 3.830443e-01 1.988029e-02 -1.600592e-01 -2.787317e-01 1.415427e-02 -2.077388e-01 1.703943e-01 -3.228540e-01 -2.594177e-01 6.208434e-01 -4.936188e-02 5.311368e-01 4.096365e-01 2.694227e-01 4.736653e-01 -4.185848e-01 -3.037671e-01 -1.660564e-01 -3.867114e-01 4.125108e-01 -6.906248e-01
<VARIANCE> 39
 1.689269e+01 4.643375e+01 5.359813e+01 5.261252e+01 6.793830e+01 7.156412e+01 7.306273e+01 9.755016e+01 7.577364e+01 5.883510e+01 5.681470e+01 6.104461e+01 2.884328e+01 1.439232e+00 1.806330e+00 2.134980e+00 3.137507e+00 2.731645e+00 3.819680e+00 3.856376e+00 4.008961e+00 4.061711e+00 3.046335e+00 3.234321e+00 2.483407e+00 1.611646e+00 3.566689e-01 4.244168e-01 5.682963e-01 6.080474e-01 7.340252e-01 7.349643e-01 8.611143e-01 1.224064e+00 9.191248e-01 8.782822e-01 8.202489e-01 7.127828e-01 3.526619e-01
<GCONST> 1.312719e+02
<STATE> 4
<MEAN> 39
 1.832138e+00 -4.580348e+00 3.313972e+00 -1.310660e+00 -7.753902e+00 -5.138636e+00 -1.025702e+01 1.943336e+00 -2.513765e+00 7.582653e-01 4.007726e-01 -7.886949e+00 6.448712e+01 1.250404e-01 9.348069e-01 -6.871966e-02 1.079805e+00 2.714605e-01 6.259686e-01 5.381136e-01 -7.415198e-01 -4.386415e-01 -9.888554e-02 -6.200875e-01 4.810872e-01 -1.147894e+00 -1.611495e-01 1.428736e-01 -7.143784e-02 6.907687e-02 1.084738e-01 5.947067e-02 1.691174e-01 -7.176363e-02 -3.326975e-02 -8.881365e-02 -8.164306e-02 6.181702e-02 -1.550180e-01
<VARIANCE> 39
 1.544986e+01 5.041307e+01 4.898082e+01 4.871627e+01 6.481009e+01 6.620650e+01 6.086128e+01 8.996442e+01 6.372206e+01 5.018969e+01 4.710694e+01 5.475336e+01 3.060847e+01 1.030955e+00 1.911087e+00 2.070334e+00 2.521936e+00 2.760238e+00 2.885191e+00 3.457550e+00 3.712344e+00 3.192685e+00 3.038026e+00 2.781349e+00 2.419281e+00 1.787344e+00 2.210962e-01 2.880116e-01 3.440800e-01 3.965866e-01 4.565021e-01 4.815584e-01 5.967051e-01 6.948299e-01 6.109132e-01 5.127357e-01 5.552667e-01 3.984805e-01 2.223818e-01
<GCONST> 1.228353e+02
<TRANSP> 5
 0.000000e+00 1.000000e+00 0.000000e+00 0.000000e+00 0.000000e+00
 0.000000e+00 1.296527e-01 8.703473e-01 0.000000e+00 0.000000e+00
 0.000000e+00 0.000000e+00 1.869632e-01 8.130368e-01 0.000000e+00
 0.000000e+00 0.000000e+00 0.000000e+00 4.363635e-01 5.636365e-01
 0.000000e+00 0.000000e+00 0.000000e+00 0.000000e+00 0.000000e+00
<ENDHMM>
~h "a"
<BEGINHMM>
<NUMSTATES> 5
<STATE> 2
<MEAN> 39
 2.376121e+00 -1.011073e+01 -9.556876e-01 -7.601151e+00 -4.430740e+00 -1.181761e+00 -9.994625e+00 5.437622e+00 -7.635345e-01 7.462527e-01 -1.932043e+00 -1.185319e+01 6.890153e+01 1.729211e-01 -1.120560e+00 -1.662971e-01 -6.439430e-01 3.060635e-01 3.903712e-01 8.725382e-02 9.330899e-01 1.075993e-01 -1.889191e-01 -5.559752e-01 -7.278773e-01 8.690075e-01 -1.608225e-01 8.144262e-01 1.987524e-01 6.901317e-01 4.743451e-02 -6.354013e-02 2.357324e-01 -6.022071e-01 -3.766143e-01 -5.868226e-02 8.451208e-02 5.893124e-01 -7.183040e-01
<VARIANCE> 39
 9.641759e+00 2.601084e+01 4.342408e+01 4.428165e+01 5.788363e+01 8.159417e+01 6.122237e+01 6.153765e+01 6.919438e+01 6.725838e+01 4.921904e+01 5.107769e+01 2.048556e+01 1.096809e+00 2.598366e+00 2.594119e+00 3.224756e+00 3.498426e+00 4.111549e+00 3.643235e+00 5.055053e+00 3.719719e+00 3.863663e+00 3.526489e+00 3.460224e+00 1.971219e+00 2.068902e-01 3.752604e-01 3.767815e-01 5.229750e-01 5.850999e-01 6.506034e-01 6.450946e-01 8.149761e-01 7.213184e-01 7.329299e-01 6.311200e-01 5.597307e-01 2.914028e-01
<GCONST> 1.266491e+02
<STATE> 3
<MEAN> 39
 2.069647e+00 -1.099884e+01 -5.921283e-01 -7.819116e+00 -4.046156e+00 -1.241156e+00 -9.230349e+00 6.282371e+00 -1.164613e+00 -1.552156e-01 -2.526413e+00 -1.206441e+01 6.967731e+01 1.451656e-01 7.789471e-01 1.583558e-01 8.003086e-01 -5.251810e-02 -1.027861e-01 1.826756e-01 -5.002875e-01 -4.545491e-01 2.142073e-01 2.285636e-02 5.327393e-01 -7.466415e-01 1.839439e-02 5.039110e-01 1.145505e-01 3.796921e-01 -1.241026e-01 1.700278e-02 4.042878e-02 -4.180644e-01 -1.405876e-01 8.140337e-02 8.964156e-02 2.399546e-01 -4.405127e-01
<VARIANCE> 39
 8.735192e+00 2.275100e+01 3.972075e+01 3.867559e+01 5.429496e+01 7.684290e+01 5.535272e+01 6.246128e+01 7.410694e+01 6.825612e+01 4.793173e+01 5.180435e+01 1.424033e+01 4.296562e-01 1.428106e+00 1.465489e+00 1.700352e+00 2.028720e+00 2.600915e+00 2.300802e+00 3.013517e+00 2.303232e+00 2.396991e+00 2.223773e+00 1.984686e+00 9.253600e-01 1.018473e-01 1.989049e-01 2.737941e-01 2.908627e-01 3.728358e-01 4.771197e-01 4.781784e-01 6.150580e-01 4.491619e-01 4.996499e-01 4.652678e-01 3.893615e-01 1.270435e-01
<GCONST> 1.122869e+02
<STATE> 4
<MEAN> 39
 2.968409e+00 -4.272933e+00 -6.208130e-01 -2.224266e+00 -4.105513e+00 -1.102802e+00 -8.021064e+00 3.077374e+00 -3.287286e+00 1.099913e+00 -2.761199e+00 -7.966220e+00 6.263289e+01 2.623876e-02 1.476077e+00 -2.405548e-02 1.457025e+00 -1.200664e-01 4.548923e-01 6.017128e-01 -9.421598e-01 -3.687892e-01 -1.282998e-01 -2.472339e-01 6.094571e-01 -1.611526e+00 -1.139633e-01 -8.872046e-02 -3.145821e-05 -1.023533e-01 -2.130980e-02 2.259830e-02 4.180368e-02 3.540542e-02 6.602167e-02 -1.087409e-01 -4.369701e-02 -7.438298e-02 9.218749e-02
<VARIANCE> 39
 9.260186e+00 2.490891e+01 5.017233e+01 4.272138e+01 4.801812e+01 6.208056e+01 5.543007e+01 5.113884e+01 5.290159e+01 5.284142e+01 4.727050e+01 4.589256e+01 2.363938e+01 6.494095e-01 1.340156e+00 1.822411e+00 1.980818e+00 2.337143e+00 2.764378e+00 2.712692e+00 3.481893e+00 2.913676e+00 2.874923e+00 2.558846e+00 2.278892e+00 1.020148e+00 1.161605e-01 2.072485e-01 2.645409e-01 3.262758e-01 3.602124e-01 4.552284e-01 4.597802e-01 5.354151e-01 4.542317e-01 4.511661e-01 4.541410e-01 3.977768e-01 1.440693e-01
<GCONST> 1.140636e+02
<TRANSP> 5
 0.000000e+00 1.000000e+00 0.000000e+00 0.000000e+00 0.000000e+00
 0.000000e+00 4.651558e-01 5.348442e-01 0.000000e+00 0.000000e+00
 0.000000e+00 0.000000e+00 6.278465e-01 3.721535e-01 0.000000e+00
 0.000000e+00 0.000000e+00 0.000000e+00 5.711602e-01 4.288398e-01
 0.000000e+00 0.000000e+00 0.000000e+00 0.000000e+00 0.000000e+00
<ENDHMM>
~h "b"
<BEGINHMM>
<NUMSTATES> 5
<STATE> 2
<MEAN> 39
 4.985047e+00 7.668884e+00 1.858966e+00 5.486891e+00 -3.715273e+00 2.353458e+00 -6.804358e+00 -3.124320e+00 -7.449161e+00 -2.416062e+00 -2.596899e+00 -4.946462e+00 5.522401e+01 2.645756e-01 1.006564e-01 -2.909816e-01 -3.868343e-01 1.599495e-01 -2.739778e-01 -3.552060e-01 -3.237319e-01 -2.298763e-03 -7.345783e-02 3.335164e-01 2.897559e-01 2.966545e-01 -8.457733e-02 -7.164803e-01 4.559945e-02 -8.835630e-01 -2.712437e-01 -2.783121e-01 -6.720776e-01 -7.709129e-02 1.498510e-01 4.688761e-01 5.236666e-01 -7.211705e-02 6.555109e-01
<VARIANCE> 39
 7.522120e+00 2.069150e+01 1.862406e+01 2.038808e+01 2.653413e+01 2.847501e+01 2.973175e+01 2.631683e+01 2.562602e+01 2.307537e+01 2.329302e+01 2.387173e+01 1.131907e+01 7.189428e-01 2.074519e+00 1.527374e+00 4.153668e+00 2.201018e+00 2.604244e+00 3.678483e+00 2.901437e+00 2.968461e+00 2.737227e+00 2.970418e+00 2.066860e+00 1.675195e+00 1.283901e-01 3.994207e-01 3.527910e-01 5.298519e-01 4.507517e-01 5.532951e-01 5.578236e-01 6.030427e-01 6.874645e-01 6.348971e-01 5.463524e-01 4.994209e-01 2.187238e-01
<GCONST> 1.110971e+02
<STATE> 3
<MEAN> 39
 5.878158e+00 4.595690e+00 4.402273e-01 -1.579841e+00 -4.297618e+00 1.070012e+00 -1.103891e+01 -6.486633e+00 -8.919263e+00 -4.125893e-01 1.774004e+00 -2.934688e+00 5.959332e+01 -4.305981e-03 -2.336771e+00 2.792291e-03 -3.294283e+00 -7.016813e-01 -5.354341e-01 -2.734680e+00 -2.173914e-01 8.552011e-01 2.257869e+00 2.052205e+00 -8.009840e-01 2.396392e+00 -3.025540e-01 -4.942572e-01 3.088752e-01 2.894974e-02 -2.501309e-01 -6.501833e-02 -3.672887e-02 6.342527e-01 5.641115e-01 2.756879e-01 -2.592824e-01 -6.735255e-01 2.595930e-01
<VARIANCE> 39
 7.409494e+00 2.625206e+01 1.954553e+01 7.170551e+01 3.737234e+01 4.209276e+01 4.175212e+01 3.320449e+01 3.961982e+01 4.153768e+01 3.864076e+01 2.672697e+01 1.870674e+01 1.092691e+00 3.823515e+00 3.411441e+00 6.612490e+00 4.111555e+00 6.102112e+00 4.567241e+00 5.000857e+00 7.369358e+00 6.806118e+00 4.921997e+00 4.653223e+00 1.738460e+00 1.309182e-01 3.975125e-01 3.873734e-01 1.059534e+00 6.092510e-01 7.283296e-01 7.140475e-01 7.902514e-01 1.032208e+00 9.076177e-01 9.544988e-01 6.427627e-01 2.840970e-01
<GCONST> 1.275161e+02
<STATE> 4
<MEAN> 39
 5.136752e+00 -2.135723e+00 1.281923e+00 -6.631129e+00 -6.137524e+00 -7.698089e-02 -1.670730e+01 -4.085672e+00 -3.452580e+00 5.809661e+00 4.593013e+00 -8.525740e+00 6.458445e+01 -6.198060e-01 -2.434683e+00 6.954532e-01 -1.624510e+00 -9.554394e-01 -1.001011e+00 -1.418378e+00 1.740846e+00 1.873405e+00 1.028250e+00 8.929778e-02 -1.781367e+00 2.069587e+00 -2.031543e-01 5.145366e-01 2.146918e-01 9.468435e-01 6.165824e-02 7.449828e-03 9.071420e-01 3.904679e-01 -2.130342e-01 -8.568327e-01 -7.845262e-01 2.075484e-01 -5.230500e-01
<VARIANCE> 39
 7.250412e+00 4.213545e+01 3.218585e+01 8.909647e+01 5.595739e+01 6.871570e+01 5.905793e+01 4.432307e+01 6.633845e+01 7.193510e+01 6.588955e+01 5.400914e+01 2.307715e+01 9.904892e-01 3.329840e+00 3.957819e+00 5.697337e+00 3.636348e+00 5.182533e+00 4.642009e+00 6.429269e+00 7.280820e+00 6.156899e+00 6.900259e+00 5.536753e+00 1.731827e+00 1.122833e-01 4.289219e-01 3.221072e-01 1.119583e+00 7.547911e-01 7.574373e-01 8.603740e-01 7.749385e-01 9.889183e-01 1.155869e+00 1.090095e+00 8.244278e-01 2.434434e-01
<GCONST> 1.335042e+02
<TRANSP> 5
 0.000000e+00 1.000000e+00 0.000000e+00 0.000000e+00 0.000000e+00
 0.000000e+00 6.943435e-01 3.056566e-01 0.000000e+00 0.000000e+00
 0.000000e+00 0.000000e+00 3.354012e-01 6.645988e-01 0.000000e+00
 0.000000e+00 0.000000e+00 0.000000e+00 2.777819e-01 7.222181e-01
 0.000000e+00 0.000000e+00 0.000000e+00 0.000000e+00 0.000000e+00
<ENDHMM>
~h "c"
<BEGINHMM>
<NUMSTATES> 5
<STATE> 2
<MEAN> 39
 -1.483411e+00 3.834324e+00 -1.263463e-02 1.458531e+00 -3.889373e+00 -1.990463e+00 -5.540367e+00 5.641519e-01 -3.139946e+00 -1.278516e+00 -2.039236e+00 -2.752359e+00 5.463342e+01 -2.394238e+00 2.225256e-01 2.770060e-01 -1.148815e+00 1.193589e+00 -6.241030e-01 7.578905e-01 -3.177384e-01 2.054489e-01 -1.828433e-01 4.103178e-01 1.780396e-01 9.570431e-01 -5.743521e-01 -1.957384e-01 5.582747e-01 -4.347075e-01 4.908690e-02 -6.089101e-01 -1.281856e-01 -7.642731e-02 2.183988e-01 -9.694643e-02 2.138188e-01 3.990387e-02 9.085363e-01
<VARIANCE> 39
 1.730737e+01 2.060946e+01 2.858141e+01 2.461050e+01 3.423687e+01 4.516172e+01 3.442964e+01 4.031744e+01 3.173683e+01 2.477099e+01 2.757371e+01 2.477174e+01 2.012193e+01 3.396378e+00 2.630003e+00 2.808241e+00 3.435443e+00 3.433904e+00 4.185278e+00 2.604780e+00 3.333702e+00 2.738477e+00 2.516910e+00 2.671402e+00 2.186028e+00 2.964678e+00 5.931992e-01 3.807690e-01 3.896655e-01 5.354792e-01 6.286219e-01 5.540813e-01 5.080128e-01 6.581339e-01 5.581809e-01 5.513400e-01 4.782465e-01 4.204914e-01 2.406292e-01
<GCONST> 1.195377e+02
<STATE> 3
<MEAN> 39
 -1.421947e+01 4.990745e+00 4.445099e+00 -4.638136e+00 7.527699e-01 -6.837059e+00 -2.770233e+00 -1.166829e+00 -9.185046e-01 -3.670184e+00 6.446198e-01 -1.674054e+00 6.246981e+01 -1.680288e-01 -1.040635e+00 1.433633e+00 -4.700403e-01 -9.391807e-01 -1.515556e+00 -8.442121e-01 2.683286e-01 6.373674e-01 -4.573536e-01 3.599450e-01 2.793243e-01 2.047253e+00 1.906114e+00 -7.052820e-01 -1.832793e-01 4.682119e-01 -9.359459e-01 3.267041e-01 -8.295337e-01 2.342925e-01 -1.192792e-01 2.243969e-01 -1.065374e-01 -2.270731e-01 -2.012312e-01
<VARIANCE> 39
 1.569216e+01 2.987026e+01 2.911095e+01 2.854765e+01 4.005748e+01 5.131721e+01 3.380553e+01 3.798421e+01 3.003488e+01 2.852684e+01 2.550262e+01 2.007432e+01 1.528558e+01 1.016144e+01 3.635840e+00 3.020154e+00 3.939706e+00 5.404181e+00 3.798526e+00 4.369055e+00 3.957376e+00 3.503693e+00 3.057698e+00 2.592122e+00 2.257963e+00 2.065306e+00 5.582013e-01 7.338118e-01 6.285426e-01 8.260424e-01 8.232586e-01 7.170677e-01 6.291021e-01 7.757618e-01 9.084699e-01 6.411888e-01 6.420181e-01 5.544126e-01 2.703833e-01
<GCONST> 1.262021e+02
<STATE> 4
<MEAN> 39
 -2.945170e+00 -2.986474e+00 6.541532e+00 -2.916339e+00 -7.115522e+00 -1.040854e+01 -1.082476e+01 1.927841e+00 1.372825e+00 -3.957420e+00 -2.648767e-01 -2.312200e+00 6.740594e+01 3.739661e+00 -2.759177e+00 -3.008276e-01 -3.018917e-01 -1.969379e+00 4.655536e-01 -2.317182e+00 6.030780e-01 1.770245e-01 7.931418e-01 5.587466e-01 -1.347335e+00 1.454342e+00 -9.307054e-02 4.397179e-01 -6.353486e-01 -1.175228e-01 5.196544e-01 9.678102e-01 5.282415e-01 -2.545774e-01 -5.045386e-01 3.060566e-01 1.220019e-01 -3.594973e-01 -6.837742e-01
<VARIANCE> 39
 1.595878e+01 3.284431e+01 4.114031e+01 2.743851e+01 2.835091e+01 3.873780e+01 5.626930e+01 5.513848e+01 3.550489e+01 3.164373e+01 1.949035e+01 1.777809e+01 2.118198e+01 2.280108e+00 4.008823e+00 3.618380e+00 2.889146e+00 4.053667e+00 3.584460e+00 3.973141e+00 6.590533e+00 5.034512e+00 3.843655e+00 3.555809e+00 3.077543e+00 1.215312e+00 9.525389e-01 5.612488e-01 4.314414e-01 5.203335e-01 6.083428e-01 6.461406e-01 7.571301e-01 6.086368e-01 6.351429e-01 5.626638e-01 5.472764e-01 5.569514e-01 2.953898e-01
<GCONST> 1.247211e+02
<TRANSP> 5
 0.000000e+00 1.000000e+00 0.000000e+00 0.000000e+00 0.000000e+00
 0.000000e+00 6.756329e-01 3.243671e-01 0.000000e+00 0.000000e+00
 0.000000e+00 0.000000e+00 6.501451e-01 3.498550e-01 0.000000e+00
 0.000000e+00 0.000000e+00 0.000000e+00 4.395503e-01 5.604497e-01
 0.000000e+00 0.000000e+00 0.000000e+00 0.000000e+00 0.000000e+00
<ENDHMM>
~h "d"
<BEGINHMM>
<NUMSTATES> 5
<STATE> 2
<MEAN> 39
 4.024457e+00 5.450258e+00 5.019911e+00 7.591767e+00 -7.020845e+00 -1.925562e+00 -7.732193e+00 7.890628e-01 -4.491040e+00 -2.500022e+00 -4.156611e+00 -5.300657e+00 5.581627e+01 -1.928802e-02 -1.236531e-01 2.461303e-01 1.686393e-01 8.184057e-02 -1.975576e-01 -1.207160e-01 -2.930468e-02 3.673985e-02 -3.685041e-01 1.707903e-01 2.967658e-01 1.440355e-01 -3.678570e-01 -9.647290e-01 5.544647e-01 -8.669975e-01 -5.171094e-01 -5.610600e-01 -6.482018e-01 3.080688e-02 1.892036e-02 4.399994e-02 7.524756e-01 8.488636e-02 9.578303e-01
<VARIANCE> 39
 7.068385e+00 2.942818e+01 3.121058e+01 2.049190e+01 3.659059e+01 2.709159e+01 3.610719e+01 4.976624e+01 3.171935e+01 2.756655e+01 3.562178e+01 2.838326e+01 1.428122e+01 9.074650e-01 2.827295e+00 2.704498e+00 2.411954e+00 2.926618e+00 3.323008e+00 3.695168e+00 3.953754e+00 3.086650e+00 2.452054e+00 3.209513e+00 2.362609e+00 1.945941e+00 1.463045e-01 3.197547e-01 5.617802e-01 4.302705e-01 5.796278e-01 6.248949e-01 7.794562e-01 1.091131e+00 7.139803e-01 5.578259e-01 5.988067e-01 4.990774e-01 2.206270e-01
<GCONST> 1.174099e+02
<STATE> 3
<MEAN> 39
 2.601591e+00 1.177776e+00 6.395093e+00 6.082474e+00 -6.748182e+00 -3.103581e+00 -8.955727e+00 -4.612904e-01 -4.264145e+00 -3.381278e+00 -2.543890e+00 -3.400368e+00 5.886782e+01 -8.339396e-01 -2.571373e+00 2.072685e+00 -2.196285e+00 -1.710605e+00 -1.912831e+00 -2.302693e+00 4.501076e-01 5.222981e-02 -9.377889e-02 2.313108e+00 1.894085e-01 2.750331e+00 -1.428115e-01 -2.328571e-01 2.427511e-01 -7.490735e-01 -4.701087e-01 -2.183743e-01 -4.303974e-01 3.455068e-01 -7.917453e-02 3.583693e-01 4.646750e-01 -4.690006e-01 5.366498e-01
<VARIANCE> 39
 1.035316e+01 3.393190e+01 3.792465e+01 3.388592e+01 3.778010e+01 4.261702e+01 5.386633e+01 5.891583e+01 4.043576e+01 3.289441e+01 3.071942e+01 3.140704e+01 2.036370e+01 1.197080e+00 2.620284e+00 5.323065e+00 3.346231e+00 3.853695e+00 4.520820e+00 5.643854e+00 1.008019e+01 6.668694e+00 4.554536e+00 5.146979e+00 3.590219e+00 1.346841e+00 1.442098e-01 4.240124e-01 5.052635e-01 5.444809e-01 7.618877e-01 8.309009e-01 7.933140e-01 9.850093e-01 7.555255e-01 7.197853e-01 7.157869e-01 5.951255e-01 2.375393e-01
<GCONST> 1.270838e+02
<STATE> 4
<MEAN> 39
 1.426787e+00 -4.959220e+00 1.069436e+01 -7.201471e-01 -1.211268e+01 -9.007137e+00 -1.591490e+01 3.507128e+00 -3.138249e+00 -2.210669e+00 3.197804e+00 -4.482949e+00 6.591885e+01 -7.194663e-01 -1.751831e+00 1.122031e+00 -2.690138e+00 -1.537669e+00 -1.256798e+00 -1.676582e+00 1.332227e+00 2.167178e-01 7.296529e-01 1.824253e+00 -1.183667e+00 2.473145e+00 1.295163e-01 7.226701e-01 -5.674344e-01 3.071726e-01 4.499595e-01 6.559100e-01 6.593699e-01 -1.814508e-01 -1.334317e-01 1.931292e-01 -5.859665e-01 -3.651359e-01 -5.830592e-01
<VARIANCE> 39
 9.980100e+00 3.044555e+01 5.207227e+01 3.893120e+01 4.002478e+01 5.214397e+01 8.269465e+01 1.132134e+02 7.724689e+01 5.046430e+01 4.279519e+01 5.362905e+01 1.793358e+01 1.061453e+00 2.570183e+00 5.629583e+00 3.215247e+00 3.976082e+00 4.940453e+00 4.951819e+00 8.660442e+00 5.981938e+00 5.474333e+00 6.051485e+00 3.915194e+00 1.585042e+00 1.147165e-01 3.354965e-01 4.468991e-01 6.039580e-01 7.547352e-01 8.305297e-01 1.083196e+00 1.257327e+00 9.127522e-01 6.519717e-01 7.092624e-01 6.416175e-01 2.300584e-01
<GCONST> 1.309389e+02
<TRANSP> 5
 0.000000e+00 1.000000e+00 0.000000e+00 0.000000e+00 0.000000e+00
 0.000000e+00 6.063119e-01 3.936882e-01 0.000000e+00 0.000000e+00
 0.000000e+00 0.000000e+00 1.969490e-01 8.030509e-01 0.000000e+00
 0.000000e+00 0.000000e+00 0.000000e+00 3.476026e-01 6.523974e-01
 0.000000e+00 0.000000e+00 0.000000e+00 0.000000e+00 0.000000e+00
<ENDHMM>
~h "e"
<BEGINHMM>
<NUMSTATES> 5
<STATE> 2
<MEAN> 39
 4.308152e-01 -6.847041e+00 6.849076e+00 -1.875295e+00 -1.076134e+01 -8.825127e+00 -7.238210e+00 5.789035e+00 -4.344956e+00 -6.952122e-01 1.658803e+00 -6.680587e+00 6.644000e+01 1.955664e-01 -1.455593e+00 1.434004e+00 -1.170984e+00 -1.430122e+00 -6.263955e-01 -3.180378e-01 1.665093e+00 -2.035349e-01 -2.875088e-01 7.251376e-01 -4.480695e-01 1.548854e+00 -1.750796e-01 5.310780e-01 -3.565388e-01 2.282792e-01 5.250589e-01 3.879336e-01 3.287171e-01 -4.238297e-01 -7.513821e-02 4.806201e-02 -2.442390e-01 2.323782e-01 -5.175723e-01
<VARIANCE> 39
 1.361087e+01 3.353573e+01 5.572116e+01 3.366509e+01 4.584738e+01 7.408994e+01 9.345164e+01 5.950186e+01 8.321918e+01 7.412080e+01 5.032996e+01 3.903172e+01 2.970275e+01 1.456257e+00 2.072254e+00 4.059837e+00 2.338712e+00 4.261602e+00 4.167709e+00 4.971954e+00 4.991861e+00 4.036617e+00 4.871368e+00 4.217593e+00 2.842880e+00 1.934040e+00 2.561427e-01 4.836075e-01 7.503840e-01 4.520690e-01 6.922610e-01 7.020002e-01 8.786582e-01 8.691827e-01 8.130892e-01 7.686711e-01 6.563358e-01 5.271461e-01 3.585156e-01
<GCONST> 1.306414e+02
<STATE> 3
<MEAN> 39
 3.291791e-01 -9.399526e+00 7.434285e+00 -4.511308e+00 -1.180893e+01 -8.423722e+00 -8.222331e+00 8.405764e+00 -3.644727e+00 -2.100309e+00 2.206292e+00 -8.488348e+00 6.909241e+01 1.792573e-01 5.632443e-01 -3.085646e-01 5.471861e-01 3.403548e-01 3.056284e-01 2.107102e-01 -3.985703e-01 -1.369233e-01 9.825734e-02 -4.199445e-01 1.726356e-01 -5.696349e-01 1.133354e-02 5.829476e-01 -2.772713e-01 5.257168e-01 3.253667e-01 2.092735e-01 1.407751e-01 -6.181260e-01 -1.310488e-02 1.072842e-01 -2.048922e-01 1.738403e-01 -5.288408e-01
<VARIANCE> 39
 7.595916e+00 2.664110e+01 4.281409e+01 2.975227e+01 3.996913e+01 9.057310e+01 7.232047e+01 7.306442e+01 8.080677e+01 7.633412e+01 4.944052e+01 4.011556e+01 1.550421e+01 5.291421e-01 1.446780e+00 1.398146e+00 2.106700e+00 2.203136e+00 2.166757e+00 2.897320e+00 2.941932e+00 2.507511e+00 2.870464e+00 2.184018e+00 1.618563e+00 1.140151e+00 1.518858e-01 2.813118e-01 3.689986e-01 3.183950e-01 4.124076e-01 4.528064e-01 6.175931e-01 6.358640e-01 5.398611e-01 6.585642e-01 4.654630e-01 3.695855e-01 1.511787e-01
<GCONST> 1.152607e+02
<STATE> 4
<MEAN> 39
 -4.329548e-01 -3.867906e+00 1.050058e+01 -2.365201e+00 -1.166820e+01 -8.555555e+00 -4.838715e+00 4.421922e+00 -8.188608e+00 2.924679e+00 3.286731e+00 -4.835397e+00 6.391833e+01 2.641071e-02 7.715178e-01 -4.438834e-01 7.718737e-01 4.443507e-01 5.690743e-01 4.430410e-01 -5.232366e-01 5.899730e-02 -9.793060e-03 -3.737051e-01 2.449654e-01 -8.886354e-01 -5.597382e-02 2.836531e-02 -2.925707e-02 -2.129418e-02 5.149844e-02 6.030092e-02 2.267008e-02 -3.987028e-02 3.389468e-03 -3.514414e-02 -8.818583e-03 1.657643e-02 -9.260692e-03
<VARIANCE> 39
 9.054257e+00 2.182383e+01 6.548154e+01 4.899914e+01 4.340130e+01 5.528124e+01 4.966980e+01 4.841687e+01 4.993744e+01 5.652518e+01 7.180603e+01 3.194536e+01 2.581609e+01 4.448169e-01 1.455592e+00 1.538901e+00 1.684687e+00 1.858206e+00 1.666773e+00 2.123354e+00 2.554995e+00 2.155644e+00 2.091651e+00 1.796379e+00 1.565902e+00 9.129646e-01 9.969691e-02 1.692063e-01 2.451463e-01 2.238194e-01 3.001674e-01 2.727798e-01 3.544048e-01 3.876316e-01 3.754842e-01 3.562321e-01 2.717585e-01 2.649326e-01 9.368142e-02
<GCONST> 1.068451e+02
<TRANSP> 5
 0.000000e+00 1.000000e+00 0.000000e+00 0.000000e+00 0.000000e+00
 0.000000e+00 5.177790e-01 4.822210e-01 0.000000e+00 0.000000e+00
 0.000000e+00 0.000000e+00 6.438953e-01 3.561047e-01 0.000000e+00
 0.000000e+00 0.000000e+00 0.000000e+00 7.606721e-01 2.393278e-01
 0.000000e+00 0.000000e+00 0.000000e+00 0.000000e+00 0.000000e+00
<ENDHMM>
~h "f"
<BEGINHMM>
<NUMSTATES> 5
<STATE> 2
<MEAN> 39
 -6.738042e+00 1.274946e+00 9.905436e-01 5.119538e-01 -3.462654e+00 -3.808457e+00 -2.692131e+00 -2.181211e+00 -1.273593e+00 -1.914574e+00 -1.303318e+00 -4.452905e+00 5.981847e+01 -1.243238e+00 1.359468e-01 -6.133831e-02 1.649426e-01 3.932999e-01 -4.918841e-01 2.301113e-01 4.989004e-02 6.163501e-01 -1.625223e-01 -3.386735e-01 2.560316e-01 -1.457157e-01 3.501261e-01 -3.334602e-01 2.227100e-01 7.556485e-02 -2.440607e-01 -1.866188e-02 -2.477199e-01 1.103859e-01 -7.311025e-02 -1.016398e-02 1.596863e-01 -6.861161e-02 2.408391e-01
<VARIANCE> 39
 1.760564e+01 1.104580e+01 4.144703e+01 2.280145e+01 2.727273e+01 4.635336e+01 2.818203e+01 2.987850e+01 3.531912e+01 2.810664e+01 2.113719e+01 2.093113e+01 1.179322e+01 1.670774e+00 1.254630e+00 1.528181e+00 1.723246e+00 1.893300e+00 2.713397e+00 1.987306e+00 2.612067e+00 2.560586e+00 2.200630e+00 1.769630e+00 1.766062e+00 6.324905e-01 3.102085e-01 2.045859e-01 3.079006e-01 3.058436e-01 4.955368e-01 5.605825e-01 5.305371e-01 4.995257e-01 5.853724e-01 4.130600e-01 4.147409e-01 3.609536e-01 1.218389e-01
<GCONST> 1.073866e+02
<STATE> 3
<MEAN> 39
 -9.578404e+00 -6.991291e-01 3.020396e+00 3.894593e+00 -1.567207e+00 -6.728788e+00 -3.211095e+00 -1.375741e+00 1.919479e+00 -1.536050e+00 -2.407407e+00 -3.285853e+00 6.018643e+01 1.807860e+00 -1.063711e+00 1.806047e+00 4.547035e-01 -1.474858e+00 -1.385896e+00 -2.046839e+00 8.009402e-02 -7.328370e-01 -5.644001e-01 1.090984e+00 1.834886e-01 8.101858e-01 8.817143e-01 -1.624690e-01 7.008821e-01 -4.353588e-01 -1.189149e+00 -6.060694e-02 -8.336473e-01 1.089583e-01 -6.967110e-01 -2.811498e-01 8.318133e-01 -2.299204e-01 4.288231e-01
<VARIANCE> 39
 1.724307e+01 9.754377e+00 3.396830e+01 2.288771e+01 2.220649e+01 4.113186e+01 2.690422e+01 1.994827e+01 3.453446e+01 1.834306e+01 1.892810e+01 1.929095e+01 8.843478e+00 2.168339e+00 1.240748e+00 3.782982e+00 1.802592e+00 3.417216e+00 3.639456e+00 3.802122e+00 2.647072e+00 3.841554e+00 3.233175e+00 2.922018e+00 2.141275e+00 1.070814e+00 2.445931e-01 3.344499e-01 5.647712e-01 3.412507e-01 3.898733e-01 5.419027e-01 6.077712e-01 5.273007e-01 7.064865e-01 6.052711e-01 5.070908e-01 4.342020e-01 1.273542e-01
<GCONST> 1.119866e+02
<STATE> 4
<MEAN> 39
 -1.061293e+00 -2.117699e+00 9.849252e+00 4.122019e+00 -9.533757e+00 -1.074758e+01 -1.160041e+01 -8.284966e-01 -3.852559e+00 -4.993665e+00 2.746065e+00 -3.629588e+00 6.273532e+01 2.552530e+00 -1.438015e+00 2.776059e+00 -1.008542e+00 -3.798137e+00 -6.504166e-01 -3.053514e+00 7.229009e-01 -1.638622e+00 -1.141559e+00 2.862482e+00 -8.279999e-01 1.825507e+00 -5.332548e-01 -3.509475e-02 -2.237373e-01 -5.455504e-01 3.194301e-02 4.648631e-01 3.256066e-01 1.183491e-01 3.055121e-01 2.871625e-01 2.015635e-02 -3.990666e-01 1.436525e-01
<VARIANCE> 39
 1.053600e+01 1.365817e+01 8.495081e+01 2.921705e+01 3.559386e+01 4.407235e+01 5.630717e+01 2.337247e+01 2.789328e+01 3.655445e+01 2.809916e+01 2.029057e+01 1.299829e+01 1.093794e+00 2.106809e+00 6.903160e+00 2.202185e+00 2.958009e+00 3.998281e+00 5.016093e+00 3.607087e+00 5.901159e+00 4.462716e+00 3.952727e+00 3.002773e+00 1.297097e+00 2.125710e-01 1.669591e-01 5.076551e-01 3.107478e-01 5.611859e-01 5.111605e-01 5.586589e-01 4.217039e-01 5.079650e-01 4.344685e-01 6.191851e-01 3.245577e-01 1.315670e-01
<GCONST> 1.167451e+02
<TRANSP> 5
 0.000000e+00 1.000000e+00 0.000000e+00 0.000000e+00 0.000000e+00
 0.000000e+00 8.275186e-01 1.724814e-01 0.000000e+00 0.000000e+00
 0.000000e+00 0.000000e+00 5.299991e-01 4.700010e-01 0.000000e+00
 0.000000e+00 0.000000e+00 0.000000e+00 3.256786e-01 6.743214e-01
 0.000000e+00 0.000000e+00 0.000000e+00 0.000000e+00 0.000000e+00
<ENDHMM>
~h "g"
<BEGINHMM>
<NUMSTATES> 5
<STATE> 2
<MEAN> 39
 3.604387e+00 5.998518e+00 4.201264e+00 4.525557e+00 -6.036492e+00 2.629948e-01 -7.897681e+00 -1.778796e+00 -7.506377e+00 -4.947644e-01 -1.824743e+00 -6.361124e+00 5.599172e+01 -5.829434e-01 -4.412611e-01 2.123981e-01 -7.185881e-01 9.714775e-01 -7.251295e-01 -5.536414e-01 2.999900e-02 1.934978e-01 1.426085e-01 1.139923e-01 2.211541e-02 6.093483e-01 -3.293942e-01 -6.002988e-01 5.591686e-01 -7.789325e-01 -2.775716e-01 -4.956880e-01 -6.690444e-01 1.587885e-02 5.133379e-02 1.151526e-01 6.677911e-01 -2.564653e-01 8.448798e-01
<VARIANCE> 39
 7.371650e+00 2.361863e+01 3.094797e+01 2.747381e+01 4.861858e+01 3.450888e+01 4.052734e+01 3.910391e+01 3.560961e+01 3.124354e+01 3.539072e+01 3.124820e+01 1.401230e+01 1.244252e+00 2.531733e+00 4.042199e+00 3.556917e+00 4.148877e+00 4.232033e+00 4.480406e+00 3.966437e+00 3.925461e+00 3.251010e+00 3.495798e+00 2.736941e+00 1.967731e+00 1.813128e-01 3.435642e-01 5.838544e-01 4.862995e-01 8.685110e-01 5.623819e-01 6.128787e-01 7.648390e-01 7.384009e-01 6.090401e-01 7.471969e-01 4.822402e-01 1.927465e-01
<GCONST> 1.211011e+02
<STATE> 3
<MEAN> 39
 3.480541e-01 1.309626e+00 7.159312e+00 -1.351466e+00 -3.568339e+00 -4.765479e+00 -1.319127e+01 -2.454038e+00 -7.749169e+00 1.034617e+00 1.908577e+00 -8.118023e+00 6.223639e+01 -8.456702e-01 -1.443177e+00 1.560009e+00 -2.179163e+00 -1.424799e+00 -1.832176e+00 -1.979756e+00 5.254803e-01 7.278925e-01 3.154005e-01 2.175087e+00 -1.096241e+00 2.464595e+00 1.879639e-01 -7.868771e-02 -2.332906e-02 4.246444e-02 -8.664897e-01 2.886013e-01 2.256696e-01 3.030317e-01 2.830966e-01 -4.116059e-02 8.082719e-02 -1.393249e-01 6.611496e-02
<VARIANCE> 39
 1.555983e+01 3.136153e+01 5.738749e+01 3.892385e+01 6.507750e+01 5.860530e+01 7.481396e+01 4.548277e+01 5.418462e+01 5.209047e+01 7.121284e+01 4.289286e+01 1.516753e+01 1.322374e+00 2.851127e+00 5.179718e+00 3.266219e+00 6.665617e+00 3.963411e+00 4.776434e+00 6.685480e+00 5.789868e+00 4.943664e+00 5.449628e+00 3.213292e+00 1.532270e+00 1.729060e-01 4.142698e-01 6.154643e-01 6.217303e-01 1.120248e+00 9.240507e-01 1.026588e+00 8.634332e-01 9.315401e-01 7.126769e-01 1.157015e+00 6.532798e-01 2.068001e-01
<GCONST> 1.322351e+02
<STATE> 4
<MEAN> 39
 6.778158e-02 -2.113548e+00 8.569590e+00 -4.881790e+00 -1.088995e+01 -7.032078e+00 -1.571680e+01 1.071780e+00 -3.737788e+00 1.423195e+00 7.194347e+00 -1.158518e+01 6.724172e+01 -2.832693e-01 -1.411090e+00 2.218820e-01 -1.457212e+00 -1.494612e+00 -1.583356e-01 -1.345997e-01 1.282759e+00 1.169450e+00 1.910191e-01 4.216042e-01 -7.137742e-01 1.622123e+00 2.565245e-01 1.894649e-01 -4.595904e-01 5.659217e-01 4.069531e-01 5.409417e-01 5.550449e-01 -6.844029e-02 -2.946432e-01 -9.793680e-02 -7.856724e-01 3.304282e-01 -5.778378e-01
<VARIANCE> 39
 1.247375e+01 3.947609e+01 5.553845e+01 3.183279e+01 5.905907e+01 5.229863e+01 6.961761e+01 6.102115e+01 7.101775e+01 6.626560e+01 7.949158e+01 5.219516e+01 2.209375e+01 8.296663e-01 1.660491e+00 5.184941e+00 2.812245e+00 4.834068e+00 3.659664e+00 3.935092e+00 5.413026e+00 5.550194e+00 4.040816e+00 7.003332e+00 3.185373e+00 1.043321e+00 1.760291e-01 2.601229e-01 5.619789e-01 4.193442e-01 1.001297e+00 6.969277e-01 9.719585e-01 8.506431e-01 7.650208e-01 6.629816e-01 1.143492e+00 5.491837e-01 1.598977e-01
<GCONST> 1.287596e+02
<TRANSP> 5
 0.000000e+00 1.000000e+00 0.000000e+00 0.000000e+00 0.000000e+00
 0.000000e+00 6.340410e-01 3.659590e-01 0.000000e+00 0.000000e+00
 0.000000e+00 0.000000e+00 4.067757e-01 5.932243e-01 0.000000e+00
 0.000000e+00 0.000000e+00 0.000000e+00 3.853759e-01 6.146241e-01
 0.000000e+00 0.000000e+00 0.000000e+00 0.000000e+00 0.000000e+00
<ENDHMM>
~h "h"
<BEGINHMM>
<NUMSTATES> 5
<STATE> 2
<MEAN> 39
 -2.651343e-01 -4.198512e+00 2.831095e+00 -2.544824e+00 -3.307434e+00 -2.572287e+00 -4.264279e+00 3.163031e+00 -3.725059e+00 -9.308479e-01 -3.369700e+00 -5.800830e+00 6.499449e+01 -3.201681e-01 1.964766e-01 -1.290297e-01 6.518410e-01 7.434502e-01 2.125642e-01 7.561159e-01 -1.893672e-01 9.697620e-02 -2.618393e-01 -4.106666e-01 3.443505e-01 -5.035257e-01 4.874101e-02 -1.019805e-01 -4.119874e-03 -1.047971e-01 -2.495513e-01 -5.137911e-02 -2.368768e-01 -5.774425e-02 -3.611641e-02 2.038640e-02 2.048727e-01 -1.000263e-01 1.265023e-02
<VARIANCE> 39
 1.314635e+01 3.702803e+01 5.273420e+01 4.571891e+01 6.405749e+01 9.803979e+01 6.715531e+01 6.803890e+01 6.912420e+01 4.890709e+01 5.263486e+01 4.346609e+01 3.494096e+01 8.979216e-01 1.774263e+00 2.092169e+00 2.031204e+00 2.578788e+00 2.852631e+00 2.525609e+00 3.099472e+00 2.735529e+00 2.007966e+00 2.276929e+00 1.820795e+00 1.186026e+00 1.164009e-01 3.164408e-01 2.879743e-01 3.398983e-01 4.403500e-01 4.775524e-01 4.880733e-01 5.000601e-01 4.666182e-01 3.784455e-01 4.142557e-01 3.720889e-01 1.392802e-01
<GCONST> 1.173319e+02
<STATE> 3
<MEAN> 39
 -1.319995e+00 -5.845469e+00 -4.156358e-01 -8.204901e-01 6.474371e-01 -1.823956e+00 -1.598117e+00 1.963034e+00 -1.258000e+00 -2.027185e+00 -5.892100e+00 -5.082170e+00 6.372064e+01 5.066753e-02 1.909086e-01 -1.404524e-01 2.787844e-01 -1.770081e-01 2.082251e-05 -2.314381e-03 -1.184899e-01 -5.693281e-02 2.469687e-02 1.050378e-01 3.067795e-02 -5.087904e-01 9.101031e-02 3.122955e-02 -1.249306e-03 -7.078113e-02 -1.790651e-01 -2.446747e-02 -1.397460e-01 2.193103e-03 -5.378764e-02 3.381067e-02 8.359475e-02 -6.046740e-02 1.947622e-02
<VARIANCE> 39
 1.989458e+01 2.974521e+01 3.893330e+01 2.897864e+01 4.925311e+01 4.902453e+01 6.945766e+01 5.093321e+01 6.659747e+01 4.597105e+01 5.203072e+01 3.007250e+01 2.854059e+01 5.959969e-01 1.001130e+00 1.270171e+00 1.301639e+00 1.585659e+00 1.999796e+00 1.849387e+00 2.005936e+00 1.938867e+00 1.902244e+00 1.759428e+00 1.525509e+00 7.649293e-01 9.868481e-02 1.764094e-01 1.988411e-01 2.401618e-01 3.086056e-01 3.332038e-01 3.793429e-01 3.802315e-01 3.738345e-01 3.320923e-01 3.416960e-01 2.895692e-01 7.176850e-02
<GCONST> 1.059213e+02
<STATE> 4
<MEAN> 39
 -3.453335e-01 -9.715976e-02 1.290369e+00 1.925789e+00 -4.319784e+00 -1.545087e+00 -3.128915e+00 5.049872e-01 -6.058934e+00 -2.549546e-01 -2.245589e+00 -3.136685e+00 5.758684e+01 2.085057e-01 3.247789e-01 -3.027374e-01 2.758971e-01 -3.558306e-01 1.397951e-01 -1.904692e-01 -4.841027e-02 -4.527684e-02 -1.323545e-01 2.087214e-01 -4.653933e-02 -4.366979e-01 -3.532870e-02 -9.473845e-02 8.473324e-02 -1.421316e-01 -1.750347e-02 -2.365121e-02 -8.465718e-02 6.195664e-02 6.949701e-02 -2.852789e-02 6.323895e-02 -6.926262e-02 1.879340e-01
<VARIANCE> 39
 1.187308e+01 2.992485e+01 5.649459e+01 3.398915e+01 5.013558e+01 5.698878e+01 4.412397e+01 4.232239e+01 4.576014e+01 3.576807e+01 3.609933e+01 3.055649e+01 3.381653e+01 7.990935e-01 1.525276e+00 1.888435e+00 2.051283e+00 2.301643e+00 2.480937e+00 2.505884e+00 2.707106e+00 2.563677e+00 2.157083e+00 2.206332e+00 2.159960e+00 1.132490e+00 1.038032e-01 2.188302e-01 2.871819e-01 3.429600e-01 3.924178e-01 4.344191e-01 4.314767e-01 5.012367e-01 4.557779e-01 4.149639e-01 4.170279e-01 3.748828e-01 1.373132e-01
<GCONST> 1.122230e+02
<TRANSP> 5
 0.000000e+00 1.000000e+00 0.000000e+00 0.000000e+00 0.000000e+00
 0.000000e+00 4.209233e-01 5.790766e-01 0.000000e+00 0.000000e+00
 0.000000e+00 0.000000e+00 7.071092e-01 2.928909e-01 0.000000e+00
 0.000000e+00 0.000000e+00 0.000000e+00 5.785000e-01 4.215000e-01
 0.000000e+00 0.000000e+00 0.000000e+00 0.000000e+00 0.000000e+00
<ENDHMM>
~h "i"
<BEGINHMM>
<NUMSTATES> 5
<STATE> 2
<MEAN> 39
 -1.761584e+00 -1.090531e+00 1.708468e+01 -1.351942e+00 -1.528452e+01 -8.484975e+00 -1.155029e+01 -9.954040e-01 -1.065210e+01 -3.258204e+00 6.267356e+00 -6.499613e+00 6.523363e+01 -9.174170e-02 -5.005031e-01 2.561306e+00 -1.079477e+00 -2.219775e+00 -3.165138e-01 -1.492418e+00 4.997824e-01 -1.112813e+00 -2.687781e-01 1.836607e+00 -5.958197e-01 1.155562e+00 1.116459e-02 3.330071e-01 -9.864954e-01 1.779948e-01 7.240564e-01 4.855194e-01 4.235244e-01 1.583276e-02 4.117408e-01 2.627719e-01 -5.765013e-01 4.715494e-02 -4.775984e-01
<VARIANCE> 39
 1.093566e+01 3.071799e+01 4.424977e+01 4.171305e+01 4.361193e+01 5.385284e+01 5.610745e+01 6.042335e+01 5.421669e+01 5.831052e+01 4.637997e+01 3.170280e+01 1.596416e+01 2.256790e+00 2.093009e+00 4.705241e+00 3.736847e+00 4.126340e+00 4.210103e+00 5.111454e+00 5.051540e+00 5.201863e+00 4.546162e+00 3.911874e+00 2.825707e+00 1.397408e+00 3.101484e-01 3.350112e-01 8.723487e-01 6.503860e-01 8.080497e-01 7.127889e-01 8.128883e-01 8.733975e-01 8.044028e-01 6.794766e-01 7.012239e-01 5.126754e-01 2.709095e-01
<GCONST> 1.287952e+02
<STATE> 3
<MEAN> 39
 -2.939978e+00 -9.013100e-01 2.017546e+01 -3.840120e+00 -1.828631e+01 -7.166593e+00 -1.328319e+01 -1.450113e-01 -1.147977e+01 -3.808506e+00 9.094312e+00 -8.705912e+00 6.660371e+01 1.970363e-01 1.845603e-01 -6.379472e-01 1.486907e-01 4.654074e-01 1.139147e-01 2.814194e-01 1.725314e-01 1.518213e-01 3.798113e-01 -4.932823e-01 8.003543e-02 -3.241366e-01 1.473151e-01 1.621139e-01 -7.591559e-01 3.921887e-01 6.445732e-01 1.534118e-01 4.095153e-01 -1.121271e-01 2.448574e-01 1.084655e-01 -5.898329e-01 1.691187e-01 -4.152130e-01
<VARIANCE> 39
 7.972326e+00 3.103435e+01 3.534872e+01 3.948779e+01 3.789202e+01 5.542607e+01 5.549665e+01 7.024158e+01 5.854603e+01 6.574214e+01 4.692048e+01 3.506943e+01 1.117159e+01 7.687097e-01 1.537162e+00 2.640525e+00 2.281254e+00 2.412866e+00 2.773753e+00 2.719018e+00 3.236325e+00 2.605724e+00 2.171444e+00 2.274889e+00 1.950010e+00 1.006551e+00 1.496014e-01 2.413556e-01 5.473649e-01 4.062452e-01 5.432006e-01 5.675687e-01 6.171759e-01 6.795841e-01 6.086856e-01 5.245035e-01 5.475279e-01 4.021521e-01 1.786243e-01
<GCONST> 1.164423e+02
<STATE> 4
<MEAN> 39
 -7.334005e-01 2.342779e+00 1.317752e+01 -7.288178e-01 -1.118402e+01 -4.141577e+00 -9.737528e+00 -1.991767e+00 -1.050374e+01 -2.354919e-01 1.719234e+00 -5.204050e+00 6.005826e+01 2.974369e-01 5.091303e-01 -1.607004e+00 8.963196e-01 9.978800e-01 6.897451e-01 7.920845e-01 -1.623394e-01 4.051468e-01 1.392581e-01 -9.090210e-01 2.922523e-01 -1.132334e+00 -9.612482e-02 -4.750813e-02 -2.672010e-02 -4.385670e-02 -3.970885e-02 5.066631e-02 2.455293e-02 -4.825680e-02 5.962317e-02 -5.918294e-02 6.062669e-02 -2.738401e-02 5.623934e-02
<VARIANCE> 39
 9.154768e+00 2.943672e+01 4.218502e+01 4.272569e+01 3.994806e+01 5.768933e+01 4.746397e+01 5.358215e+01 4.758907e+01 4.904398e+01 4.263700e+01 3.180040e+01 2.516803e+01 7.759358e-01 1.370897e+00 2.366165e+00 2.167228e+00 2.605173e+00 2.811519e+00 2.979790e+00 3.070253e+00 3.086111e+00 2.648395e+00 2.651463e+00 2.092030e+00 1.143120e+00 1.116108e-01 1.994462e-01 4.036729e-01 3.625360e-01 4.489518e-01 5.247875e-01 5.038555e-01 5.056748e-01 4.909771e-01 4.254878e-01 3.970723e-01 3.416386e-01 1.554099e-01
<GCONST> 1.144318e+02
<TRANSP> 5
 0.000000e+00 1.000000e+00 0.000000e+00 0.000000e+00 0.000000e+00
 0.000000e+00 4.572158e-01 5.427842e-01 0.000000e+00 0.000000e+00
 0.000000e+00 0.000000e+00 6.683118e-01 3.316881e-01 0.000000e+00
 0.000000e+00 0.000000e+00 0.000000e+00 6.949261e-01 3.050739e-01
 0.000000e+00 0.000000e+00 0.000000e+00 0.000000e+00 0.000000e+00
<ENDHMM>
~h "j"
<BEGINHMM>
<NUMSTATES> 5
<STATE> 2
<MEAN> 39
 1.910155e+00 6.394446e+00 5.292587e+00 5.012224e+00 -4.101393e+00 -1.151449e+00 -6.173856e+00 7.365621e-01 -4.370068e+00 -1.995336e+00 -2.682311e+00 -3.457841e+00 5.585041e+01 -1.226537e+00 3.629775e-01 7.510783e-01 -8.651077e-01 9.238718e-01 -6.953772e-01 1.758727e-01 -6.562161e-01 4.868457e-02 -4.052895e-01 3.480294e-01 4.355593e-01 5.434118e-01 -4.749281e-01 -4.643150e-01 7.713672e-01 -6.209821e-01 -3.979336e-01 -7.611334e-01 -5.881726e-01 -1.333562e-01 -2.180934e-01 -9.795940e-02 4.758734e-01 1.842411e-01 8.237438e-01
<VARIANCE> 39
 1.226424e+01 2.425769e+01 2.812642e+01 2.520612e+01 3.719144e+01 3.237448e+01 3.339877e+01 3.789910e+01 2.783277e+01 2.393961e+01 2.522108e+01 2.419336e+01 1.605624e+01 2.412698e+00 2.022553e+00 3.653160e+00 3.259423e+00 3.359810e+00 4.645397e+00 3.133183e+00 3.330995e+00 2.614817e+00 2.706669e+00 2.230639e+00 2.083420e+00 1.982153e+00 3.332562e-01 3.405106e-01 3.922527e-01 4.662450e-01 8.371128e-01 6.226282e-01 6.389236e-01 5.686963e-01 5.290756e-01 5.741887e-01 4.743240e-01 4.145261e-01 1.886755e-01
<GCONST> 1.171730e+02
<STATE> 3
<MEAN> 39
 -5.555210e+00 6.133050e+00 1.268552e+01 -1.237857e+00 -3.686031e+00 -7.229890e+00 -7.313443e+00 -3.687766e+00 -5.982096e+00 -4.475177e+00 7.896531e-01 -1.009408e+00 6.221161e+01 -4.609948e-01 -1.452592e+00 2.603869e+00 -9.421364e-01 -2.475031e+00 -2.254743e+00 -2.303843e+00 1.239140e-01 -8.455012e-01 -1.517770e-01 1.725021e+00 4.737221e-01 2.226180e+00 8.652655e-01 -5.718282e-01 -5.094316e-01 2.687976e-01 -6.464514e-01 2.429142e-01 -5.756910e-01 7.132347e-01 4.299204e-02 4.863316e-01 6.394996e-02 -3.536518e-01 -4.375245e-02
<VARIANCE> 39
 1.930350e+01 3.280295e+01 4.493385e+01 2.847174e+01 5.386004e+01 5.066056e+01 5.205245e+01 3.840770e+01 3.127209e+01 3.199356e+01 2.741959e+01 2.402609e+01 1.487423e+01 3.147330e+00 2.868765e+00 3.221974e+00 3.791718e+00 4.575584e+00 4.128242e+00 4.311529e+00 4.648923e+00 3.391423e+00 3.577707e+00 3.141742e+00 2.603781e+00 1.347090e+00 3.458841e-01 5.177944e-01 7.706870e-01 5.999035e-01 1.201630e+00 9.965373e-01 8.006898e-01 7.453673e-01 6.954383e-01 6.180779e-01 6.932802e-01 5.907104e-01 2.198336e-01
<GCONST> 1.263487e+02
<STATE> 4
<MEAN> 39
 -1.543660e+00 -2.310848e+00 1.584108e+01 -2.566879e+00 -1.321381e+01 -1.204130e+01 -1.670869e+01 3.700426e+00 -6.731550e+00 -2.174780e+00 5.107117e+00 -1.915728e+00 6.765729e+01 9.191401e-01 -1.783213e+00 -1.019684e+00 -7.567590e-01 -7.516234e-01 -1.522095e-01 -1.462047e+00 1.673794e+00 6.004552e-01 1.174253e+00 3.633835e-01 -1.142303e+00 1.029208e+00 1.201581e-01 5.059941e-01 -9.670728e-01 1.004826e-01 1.050227e+00 8.707936e-01 8.262056e-01 -2.395886e-01 2.010314e-01 1.179764e-01 -6.178966e-01 -3.474569e-01 -6.480320e-01
<VARIANCE> 39
 6.131703e+00 2.420297e+01 3.427888e+01 3.859256e+01 3.115388e+01 2.618630e+01 5.542445e+01 6.211184e+01 4.674776e+01 6.505074e+01 3.650168e+01 2.898222e+01 1.704725e+01 8.784817e-01 2.097414e+00 3.508887e+00 2.094850e+00 4.827917e+00 3.252235e+00 5.327246e+00 4.083121e+00 3.854423e+00 3.345518e+00 4.495598e+00 2.993308e+00 1.128667e+00 2.179422e-01 2.435375e-01 6.217051e-01 5.794732e-01 5.290731e-01 6.165138e-01 6.633928e-01 7.465818e-01 6.741428e-01 6.860479e-01 6.428717e-01 4.949251e-01 1.562052e-01
<GCONST> 1.206969e+02
<TRANSP> 5
 0.000000e+00 1.000000e+00 0.000000e+00 0.000000e+00 0.000000e+00
 0.000000e+00 6.709135e-01 3.290865e-01 0.000000e+00 0.000000e+00
 0.000000e+00 0.000000e+00 5.900705e-01 4.099295e-01 0.000000e+00
 0.000000e+00 0.000000e+00 0.000000e+00 6.036071e-01 3.963930e-01
 0.000000e+00 0.000000e+00 0.000000e+00 0.000000e+00 0.000000e+00
<ENDHMM>
~h "k"
<BEGINHMM>
<NUMSTATES> 5
<STATE> 2
<MEAN> 39
 6.584449e-01 2.482050e+00 -3.556745e+00 1.687295e+00 -4.770129e+00 1.219557e+00 -4.986952e+00 -9.492861e-02 -4.829511e+00 -7.968150e-02 -1.217265e+00 -3.779551e+00 5.372899e+01 -5.538729e-01 -3.477313e-01 -7.849550e-01 -1.376411e-01 1.108281e+00 -3.823552e-01 -9.450053e-02 -9.951774e-03 3.404998e-01 1.251833e-01 -1.647229e-01 1.524538e-01 1.815505e-01 -3.181972e-02 -4.325315e-01 1.572838e-01 -5.648786e-01 2.795546e-01 -3.289216e-01 -2.658196e-01 -4.803895e-02 -2.219311e-02 2.299693e-01 8.576178e-02 -1.872154e-01 7.708905e-01
<VARIANCE> 39
 8.689915e+00 2.121462e+01 3.245585e+01 2.835492e+01 3.381335e+01 3.900604e+01 3.013491e+01 3.237926e+01 3.047764e+01 2.669032e+01 2.617689e+01 2.616182e+01 1.518679e+01 1.106472e+00 2.649042e+00 2.716194e+00 3.007593e+00 4.735307e+00 3.738542e+00 3.334052e+00 3.553998e+00 3.337228e+00 3.070643e+00 2.580941e+00 2.439675e+00 2.212979e+00 2.069693e-01 3.348034e-01 4.476624e-01 4.728019e-01 6.949585e-01 6.156602e-01 5.470876e-01 6.042364e-01 6.086116e-01 5.376754e-01 4.668633e-01 4.708302e-01 2.304566e-01
<GCONST> 1.169427e+02
<STATE> 3
<MEAN> 39
 -2.814743e+00 -1.882811e+00 -5.613207e+00 -7.950134e-01 2.894791e+00 -2.322711e+00 -6.357103e+00 -9.527780e-01 -3.247507e+00 2.227302e+00 -1.520304e+00 -4.013764e+00 5.870234e+01 5.381136e-02 -8.540797e-01 3.141750e-01 -1.575802e+00 2.993365e-01 -1.010224e+00 -5.939808e-01 -3.405562e-02 -4.178855e-02 4.994675e-01 1.926453e-01 -6.568742e-01 1.869686e+00 5.878268e-01 1.611879e-02 7.018457e-01 -3.670966e-01 -1.203160e+00 2.253498e-01 -1.368543e-01 2.051805e-01 -2.965218e-01 -1.382750e-01 2.477081e-01 -3.388991e-01 2.862127e-01
<VARIANCE> 39
 2.193085e+01 3.069635e+01 5.491873e+01 4.018929e+01 6.333776e+01 6.856525e+01 6.047271e+01 5.807603e+01 4.490282e+01 4.225747e+01 4.055279e+01 3.371092e+01 2.353467e+01 2.280276e+00 3.463793e+00 4.613151e+00 4.399270e+00 6.565234e+00 4.920290e+00 4.328444e+00 4.863898e+00 4.757733e+00 3.631652e+00 3.212501e+00 3.533933e+00 2.839769e+00 3.623657e-01 6.290913e-01 6.875734e-01 7.327045e-01 1.123213e+00 9.138904e-01 1.112236e+00 1.189541e+00 1.046152e+00 8.860790e-01 7.839885e-01 7.341481e-01 3.443521e-01
<GCONST> 1.347255e+02
<STATE> 4
<MEAN> 39
 6.551461e-01 -7.692208e-01 -2.816025e+00 -4.151484e+00 -2.972435e+00 -3.033630e+00 -6.955592e+00 -2.924324e-01 -5.275433e+00 1.743760e+00 -5.323254e-01 -6.242598e+00 6.077022e+01 1.231105e+00 -7.883628e-01 1.515870e+00 -1.914228e+00 -2.141513e+00 -2.535949e-02 -9.538344e-01 4.079465e-01 -5.910907e-01 1.811190e-04 7.709600e-01 -1.061344e+00 1.975265e+00 1.114708e-01 -8.978213e-02 1.933442e-01 1.915895e-01 -3.479758e-01 3.924461e-01 -6.129687e-02 8.434951e-02 2.300559e-02 -1.548437e-01 8.310486e-02 1.482600e-02 -1.018457e-01
<VARIANCE> 39
 2.109434e+01 3.568806e+01 5.487472e+01 5.036095e+01 4.504980e+01 6.248784e+01 4.632071e+01 4.268915e+01 4.555159e+01 3.917690e+01 3.694173e+01 3.525146e+01 2.959813e+01 2.369915e+00 4.002815e+00 4.685905e+00 5.699319e+00 6.461918e+00 5.071655e+00 6.054729e+00 6.632025e+00 6.401847e+00 4.881352e+00 4.817255e+00 4.760324e+00 2.459754e+00 2.927857e-01 4.427920e-01 5.401139e-01 6.255188e-01 7.840385e-01 7.505034e-01 7.356062e-01 7.639230e-01 7.635302e-01 7.219180e-01 5.798805e-01 5.202656e-01 3.820035e-01
<GCONST> 1.330046e+02
<TRANSP> 5
 0.000000e+00 1.000000e+00 0.000000e+00 0.000000e+00 0.000000e+00
 0.000000e+00 6.111537e-01 3.888462e-01 0.000000e+00 0.000000e+00
 0.000000e+00 0.000000e+00 4.480531e-01 5.519469e-01 0.000000e+00
 0.000000e+00 0.000000e+00 0.000000e+00 1.659282e-01 8.340718e-01
 0.000000e+00 0.000000e+00 0.000000e+00 0.000000e+00 0.000000e+00
<ENDHMM>
~h "l"
<BEGINHMM>
<NUMSTATES> 5
<STATE> 2
<MEAN> 39
 3.191260e+00 -3.025424e+00 2.935946e+00 -5.958999e+00 -6.087393e+00 -2.544733e+00 -1.582110e+01 -6.453578e+00 -8.828780e-01 5.121902e+00 2.405228e+00 -9.085908e+00 6.537941e+01 9.860558e-02 -4.849086e-02 5.135288e-02 -2.729276e-01 -5.685236e-03 2.946265e-01 -6.374642e-01 -3.406554e-01 2.519406e-01 4.547036e-01 2.239186e-01 -4.855329e-01 7.233048e-02 -1.299883e-01 -1.920338e-01 -8.140180e-02 -1.874232e-01 -6.253102e-02 1.695400e-01 3.817906e-01 5.842534e-01 4.793417e-02 -3.834746e-01 -1.435231e-01 -2.261499e-02 1.275272e-01
<VARIANCE> 39
 1.023489e+01 3.691410e+01 6.480775e+01 6.104441e+01 5.084141e+01 6.274148e+01 8.708292e+01 9.775711e+01 8.756165e+01 4.846838e+01 6.085287e+01 6.418743e+01 2.082499e+01 4.386567e-01 1.362700e+00 2.013496e+00 2.930995e+00 2.182155e+00 3.273937e+00 3.671159e+00 4.089431e+00 3.318781e+00 3.136559e+00 2.883585e+00 2.460136e+00 9.464920e-01 9.557333e-02 2.629126e-01 3.099774e-01 4.985009e-01 5.061595e-01 6.033850e-01 7.754037e-01 7.208527e-01 6.204535e-01 5.587451e-01 7.070367e-01 4.894074e-01 1.214717e-01
<GCONST> 1.213066e+02
<STATE> 3
<MEAN> 39
 2.732474e+00 -5.191238e+00 3.982117e+00 -8.458014e+00 -7.553103e+00 -1.564930e+00 -1.682483e+01 -3.486722e+00 2.750470e-01 5.866531e+00 2.977661e+00 -1.244358e+01 6.698650e+01 -1.752888e-01 -6.703727e-01 -2.333775e-01 -6.021755e-01 -3.581241e-02 4.598680e-01 5.401703e-01 1.190008e+00 4.115721e-01 -5.436727e-01 -5.901727e-01 -3.548326e-01 4.660221e-01 -8.672123e-02 -1.138661e-01 -9.456717e-02 6.794965e-02 5.047163e-02 2.177868e-02 4.549440e-01 4.344775e-01 -1.568903e-01 -4.802028e-01 -2.411528e-01 2.400993e-01 4.916584e-02
<VARIANCE> 39
 9.058511e+00 3.451830e+01 7.088992e+01 5.856252e+01 5.006372e+01 5.417435e+01 8.654777e+01 7.380238e+01 8.470207e+01 4.532727e+01 5.072404e+01 6.895515e+01 1.956758e+01 4.497168e-01 1.601566e+00 2.295826e+00 2.447085e+00 2.110078e+00 3.130082e+00 3.526864e+00 3.743061e+00 3.490942e+00 2.913820e+00 3.582176e+00 2.266481e+00 8.739072e-01 6.687430e-02 2.235259e-01 2.609762e-01 4.303710e-01 3.634992e-01 5.210174e-01 5.831234e-01 5.796366e-01 5.140926e-01 5.190638e-01 5.993268e-01 4.141414e-01 1.033287e-01
<GCONST> 1.178303e+02
<STATE> 4
<MEAN> 39
 2.320990e+00 -6.313035e+00 2.372318e+00 -8.323935e+00 -7.319993e+00 -6.824472e-01 -1.384612e+01 -7.076781e-01 1.123887e+00 2.758511e+00 7.339492e-01 -1.166164e+01 6.771587e+01 -1.716010e-01 -3.555723e-01 -1.423988e-01 -1.291064e-02 1.156732e-01 5.078190e-01 1.093626e+00 1.088133e+00 -5.875266e-01 -9.868892e-01 -5.313460e-01 2.537847e-01 1.351556e-01 -2.580646e-03 2.662029e-01 1.568666e-01 2.481068e-01 3.185594e-02 -9.442461e-02 7.418113e-02 -2.349342e-01 -4.753314e-01 -8.495073e-03 1.328804e-01 2.367804e-01 -2.122303e-01
<VARIANCE> 39
 1.188936e+01 3.642694e+01 6.136193e+01 6.392842e+01 4.718734e+01 6.278305e+01 7.255950e+01 7.697807e+01 9.393408e+01 5.236752e+01 5.379413e+01 6.595665e+01 2.318060e+01 5.988025e-01 2.015527e+00 2.581966e+00 2.989377e+00 2.697094e+00 4.048348e+00 4.016919e+00 4.759444e+00 4.559660e+00 3.431509e+00 4.612327e+00 2.425137e+00 1.306427e+00 9.039163e-02 2.288050e-01 3.995024e-01 4.512932e-01 4.372765e-01 5.452012e-01 5.698243e-01 7.348414e-01 6.916325e-01 5.270426e-01 5.822554e-01 4.372482e-01 1.458540e-01
<GCONST> 1.232694e+02
<TRANSP> 5
 0.000000e+00 1.000000e+00 0.000000e+00 0.000000e+00 0.000000e+00
 0.000000e+00 4.138195e-01 5.861806e-01 0.000000e+00 0.000000e+00
 0.000000e+00 0.000000e+00 3.646700e-01 6.353300e-01 0.000000e+00
 0.000000e+00 0.000000e+00 0.000000e+00 2.993219e-01 7.006781e-01
 0.000000e+00 0.000000e+00 0.000000e+00 0.000000e+00 0.000000e+00
<ENDHMM>
~h "m"
<BEGINHMM>
<NUMSTATES> 5
<STATE> 2
<MEAN> 39
 4.665851e+00 -1.120297e+00 3.313164e+00 8.251793e-01 -7.161097e+00 5.958611e+00 -6.237082e+00 -6.593821e+00 -1.145012e+01 3.796331e-01 -5.423471e-01 -8.012413e+00 6.131303e+01 6.487402e-03 3.198718e-01 1.025009e+00 1.210453e+00 3.445878e-03 9.844429e-01 5.308498e-01 -1.345279e+00 -1.475996e+00 -5.871359e-01 -8.580057e-01 -1.903055e-01 -3.904099e-01 -8.133593e-02 -2.855064e-01 -1.770177e-01 -4.875940e-01 3.386535e-02 -2.954621e-01 -2.884897e-01 4.922069e-01 5.402396e-01 -1.905930e-06 9.068595e-02 -6.023242e-02 3.014964e-01
<VARIANCE> 39
 7.341838e+00 2.938649e+01 3.141795e+01 3.463275e+01 5.194332e+01 4.172276e+01 4.456774e+01 3.597674e+01 4.196822e+01 3.392967e+01 4.110748e+01 4.075723e+01 1.926104e+01 5.219288e-01 1.335396e+00 2.032043e+00 2.024962e+00 2.228763e+00 2.416958e+00 2.534603e+00 2.635581e+00 4.114988e+00 2.281431e+00 2.964227e+00 2.102286e+00 9.750070e-01 9.552208e-02 1.505348e-01 2.686337e-01 2.898194e-01 3.704992e-01 3.754451e-01 4.159853e-01 4.216729e-01 5.150042e-01 4.310090e-01 5.063636e-01 3.620019e-01 8.735166e-02
<GCONST> 1.092805e+02
<STATE> 3
<MEAN> 39
 4.146005e+00 -1.787326e+00 6.451083e+00 4.466407e-01 -8.444204e+00 7.719380e+00 -6.657362e+00 -7.785737e+00 -1.372232e+01 -1.337634e+00 -1.200483e+00 -9.456025e+00 6.216784e+01 1.499973e-01 -6.844284e-02 -2.529899e-01 -3.379058e-01 -2.754241e-01 -1.973834e-01 -1.821994e-01 1.711657e-01 4.143563e-01 8.187702e-02 3.009951e-01 5.114487e-02 1.290232e-01 5.222512e-02 -1.440478e-01 -4.690032e-01 -4.326280e-01 -6.546472e-02 -3.149845e-01 -1.471937e-01 5.219761e-01 6.808559e-01 2.238340e-01 2.427966e-01 -5.030138e-03 1.500314e-01
<VARIANCE> 39
 5.627814e+00 2.603758e+01 3.634557e+01 3.187255e+01 5.807475e+01 4.461746e+01 3.955705e+01 4.073285e+01 5.529641e+01 3.504788e+01 4.682537e+01 4.463626e+01 1.519896e+01 3.352493e-01 9.485292e-01 1.420849e+00 1.523142e+00 1.499151e+00 1.912572e+00 1.696119e+00 1.787340e+00 2.590606e+00 1.740375e+00 2.081563e+00 1.693257e+00 6.338443e-01 6.627216e-02 1.676797e-01 2.604203e-01 2.967385e-01 3.125563e-01 3.936414e-01 3.432573e-01 4.417369e-01 6.723598e-01 3.991437e-01 4.647289e-01 3.872459e-01 8.023210e-02
<GCONST> 1.044032e+02
<STATE> 4
<MEAN> 39
 5.682369e+00 -2.261384e+00 8.333483e-01 -2.489031e+00 -8.185547e+00 5.513571e+00 -7.485033e+00 -4.681170e+00 -8.512639e+00 6.502851e-01 6.461163e-01 -8.077839e+00 6.277216e+01 7.950874e-02 -9.898766e-01 -1.173631e+00 -1.421867e+00 3.364865e-01 -3.446744e-01 -5.605318e-01 1.735969e+00 1.804030e+00 2.381543e-01 3.021528e-01 -5.193759e-01 7.878192e-01 -2.202085e-01 -1.334647e-01 2.315614e-01 8.043137e-02 2.379998e-01 -9.424337e-02 -4.532030e-02 2.245753e-01 1.323243e-02 -1.392788e-01 -2.206615e-01 -5.655763e-02 5.965796e-02
<VARIANCE> 39
 6.931290e+00 3.969880e+01 3.929906e+01 4.907855e+01 7.810050e+01 4.445930e+01 5.326388e+01 4.418130e+01 4.464870e+01 3.754924e+01 4.101178e+01 4.377750e+01 2.266029e+01 5.902097e-01 1.990949e+00 2.746956e+00 2.932544e+00 3.552952e+00 3.280210e+00 3.184290e+00 3.093813e+00 5.487007e+00 3.065176e+00 3.289726e+00 3.241555e+00 1.042584e+00 9.444381e-02 2.031246e-01 3.758755e-01 5.300796e-01 5.696966e-01 4.775616e-01 4.720507e-01 5.749011e-01 6.707697e-01 4.484892e-01 5.364597e-01 4.175802e-01 1.222568e-01
<GCONST> 1.180637e+02
<TRANSP> 5
 0.000000e+00 1.000000e+00 0.000000e+00 0.000000e+00 0.000000e+00
 0.000000e+00 4.656282e-01 5.343718e-01 0.000000e+00 0.000000e+00
 0.000000e+00 0.000000e+00 6.332408e-01 3.667592e-01 0.000000e+00
 0.000000e+00 0.000000e+00 0.000000e+00 4.802175e-01 5.197825e-01
 0.000000e+00 0.000000e+00 0.000000e+00 0.000000e+00 0.000000e+00
<ENDHMM>
~h "n"
<BEGINHMM>
<NUMSTATES> 5
<STATE> 2
<MEAN> 39
 3.674817e+00 -2.535864e+00 6.797101e+00 3.508111e+00 -9.582443e+00 -1.279807e+00 -9.293493e+00 -3.166353e+00 -5.844654e+00 2.468295e+00 -5.144970e+00 -8.934712e+00 6.220427e+01 3.526338e-01 1.384506e+00 8.700209e-01 1.297793e+00 -5.608245e-01 9.471687e-01 3.717752e-01 -2.565101e+00 -9.727944e-01 9.773121e-01 -1.099509e+00 5.578533e-01 -1.184625e+00 -1.436548e-01 -2.991825e-01 -2.595952e-01 -5.175176e-01 1.331435e-01 -6.366217e-02 5.571079e-02 5.753239e-01 1.872829e-01 -2.780274e-01 3.273745e-01 -6.159491e-02 3.009264e-01
<VARIANCE> 39
 5.366069e+00 2.929272e+01 3.128963e+01 2.531708e+01 4.936198e+01 3.618063e+01 4.543476e+01 6.052686e+01 5.076438e+01 4.478564e+01 3.784476e+01 4.198785e+01 1.531936e+01 4.449364e-01 1.271946e+00 2.731067e+00 1.761290e+00 2.284791e+00 2.880722e+00 3.436924e+00 4.769226e+00 2.913845e+00 3.389186e+00 3.101428e+00 2.724714e+00 7.076111e-01 7.796670e-02 2.098817e-01 3.039199e-01 2.588775e-01 3.474700e-01 3.672820e-01 4.099827e-01 6.839585e-01 4.362042e-01 4.606793e-01 4.397064e-01 3.338002e-01 1.026667e-01
<GCONST> 1.106214e+02
<STATE> 3
<MEAN> 39
 4.223580e+00 -1.709436e+00 8.009428e+00 4.796907e+00 -1.185212e+01 5.394655e-01 -8.029971e+00 -6.264228e+00 -7.736629e+00 4.174299e+00 -5.816842e+00 -8.858108e+00 6.119767e+01 7.128129e-02 5.762377e-01 -2.336216e-01 3.316796e-01 1.221501e-01 3.132862e-01 3.992654e-01 -3.560019e-01 -1.729603e-01 -1.000385e-01 -1.533661e-01 2.346661e-01 -5.144543e-01 -1.545179e-01 -2.449792e-01 -3.120230e-01 -3.658356e-01 2.761942e-01 -2.303624e-01 -3.202005e-02 7.528399e-01 2.569150e-01 -4.386169e-01 3.337142e-01 -9.131765e-02 2.140674e-01
<VARIANCE> 39
 4.093419e+00 2.308981e+01 2.790054e+01 2.331423e+01 4.100967e+01 3.569120e+01 3.828220e+01 5.457328e+01 5.032238e+01 4.028098e+01 4.126385e+01 3.810286e+01 1.130378e+01 2.431283e-01 1.027562e+00 1.282179e+00 1.145591e+00 1.465151e+00 1.653076e+00 1.856004e+00 2.439468e+00 2.120935e+00 2.051973e+00 1.820225e+00 1.522789e+00 5.658407e-01 8.824018e-02 2.599666e-01 3.641798e-01 3.402376e-01 3.622676e-01 3.987666e-01 4.347338e-01 7.887101e-01 4.733894e-01 5.057788e-01 5.045137e-01 3.577498e-01 1.369594e-01
<GCONST> 1.043518e+02
<STATE> 4
<MEAN> 39
 3.320780e+00 1.125505e+00 4.949309e+00 4.930403e+00 -7.051769e+00 1.131417e-02 -7.529387e+00 -3.768201e+00 -5.926738e+00 5.900009e-01 -6.170164e+00 -6.925632e+00 5.885614e+01 -3.846774e-01 -1.724458e-01 -5.273384e-01 -6.301414e-01 5.112531e-01 -4.420917e-02 1.731420e-01 1.120914e+00 2.916875e-01 -9.167708e-01 5.500000e-01 -5.850430e-02 3.305162e-02 -1.942018e-01 -3.330347e-01 1.987220e-02 -4.523956e-01 2.967796e-02 -8.771998e-02 -1.213602e-01 4.264625e-01 1.106467e-01 -1.419338e-01 2.765402e-01 -4.033816e-02 2.929870e-01
<VARIANCE> 39
 7.232338e+00 3.336917e+01 2.950120e+01 2.722940e+01 5.014598e+01 3.721651e+01 5.177191e+01 6.006935e+01 4.437198e+01 4.521679e+01 4.016816e+01 3.464903e+01 1.807519e+01 6.771039e-01 2.460179e+00 2.434091e+00 2.479212e+00 2.818275e+00 2.718287e+00 2.797710e+00 5.135502e+00 2.900397e+00 3.183625e+00 3.228144e+00 2.416747e+00 1.597318e+00 1.512961e-01 2.729073e-01 3.851079e-01 4.152491e-01 4.547508e-01 5.282409e-01 5.033394e-01 8.459225e-01 5.117529e-01 5.751678e-01 5.400106e-01 4.018186e-01 1.493399e-01
<GCONST> 1.169648e+02
<TRANSP> 5
 0.000000e+00 1.000000e+00 0.000000e+00 0.000000e+00 0.000000e+00
 0.000000e+00 2.757872e-01 7.242128e-01 0.000000e+00 0.000000e+00
 0.000000e+00 0.000000e+00 5.919548e-01 4.080452e-01 0.000000e+00
 0.000000e+00 0.000000e+00 0.000000e+00 5.096475e-01 4.903525e-01
 0.000000e+00 0.000000e+00 0.000000e+00 0.000000e+00 0.000000e+00
<ENDHMM>
~h "o"
<BEGINHMM>
<NUMSTATES> 5
<STATE> 2
<MEAN> 39
 4.254004e+00 -1.970825e+00 -3.350963e+00 -1.266744e+01 -7.315253e+00 4.234138e+00 -8.625650e+00 -2.004916e+00 -4.273904e+00 2.922277e+00 2.958576e+00 -5.915965e+00 6.503030e+01 8.144897e-01 -8.411539e-01 -6.935704e-02 -1.773559e+00 -5.713567e-01 1.071070e+00 -5.719750e-01 1.751592e-02 -1.959877e-01 6.193561e-01 7.370909e-01 -5.520166e-01 1.226360e+00 -3.156957e-01 2.720202e-01 1.977578e-01 8.477405e-01 2.336554e-01 -2.042373e-01 2.521473e-01 5.149832e-02 -7.136619e-02 -1.930681e-01 -2.911393e-01 1.009890e-01 -5.092093e-01
<VARIANCE> 39
 1.144966e+01 3.410561e+01 2.993959e+01 7.522119e+01 5.432452e+01 7.415797e+01 7.207646e+01 4.700773e+01 6.402251e+01 4.884845e+01 4.032011e+01 4.278028e+01 3.103678e+01 2.037010e+00 2.283017e+00 2.986165e+00 7.207599e+00 4.519281e+00 5.275806e+00 4.646924e+00 4.373200e+00 4.417135e+00 4.077305e+00 3.263253e+00 2.839307e+00 2.520983e+00 3.199388e-01 3.805352e-01 4.878606e-01 1.013277e+00 7.040058e-01 9.261520e-01 9.723635e-01 7.176278e-01 7.870000e-01 7.421437e-01 6.171398e-01 5.584050e-01 3.628215e-01
<GCONST> 1.313459e+02
<STATE> 3
<MEAN> 39
 4.834176e+00 -5.269319e+00 -3.008666e+00 -1.268202e+01 -9.676333e+00 6.373467e+00 -9.898779e+00 -2.206878e+00 -3.117082e+00 3.075685e+00 6.175210e+00 -9.844855e+00 6.727019e+01 3.271046e-02 2.381293e-01 7.141995e-03 8.696781e-01 3.422613e-01 -3.011684e-01 1.837943e-01 8.363703e-03 -1.622425e-01 3.696675e-02 -4.101163e-01 -2.962796e-02 -4.317317e-01 -1.512696e-01 3.378493e-01 1.291174e-01 6.731288e-01 1.889977e-01 -3.216670e-01 1.455603e-01 -1.486995e-01 -1.025800e-02 -1.222810e-01 -3.949091e-01 2.035795e-01 -4.017137e-01
<VARIANCE> 39
 7.128976e+00 2.778851e+01 2.395911e+01 6.030757e+01 4.497400e+01 6.459155e+01 5.729206e+01 6.510039e+01 6.799516e+01 5.142949e+01 4.982771e+01 4.874354e+01 1.367127e+01 4.787419e-01 1.496649e+00 1.419028e+00 3.626246e+00 2.228387e+00 3.320767e+00 2.928634e+00 2.576910e+00 3.042571e+00 2.677606e+00 2.593366e+00 2.193100e+00 1.058474e+00 1.224495e-01 2.079701e-01 2.927217e-01 4.421379e-01 4.986630e-01 6.106427e-01 5.454293e-01 6.241513e-01 5.914001e-01 5.392929e-01 4.908051e-01 4.587390e-01 1.269554e-01
<GCONST> 1.155509e+02
<STATE> 4
<MEAN> 39
 4.881204e+00 1.120017e+00 -3.462063e+00 -8.494123e+00 -5.836254e+00 3.320807e+00 -7.941487e+00 -1.042427e+00 -5.657098e+00 2.939469e+00 1.707500e-01 -4.429657e+00 6.052329e+01 -2.304542e-01 6.265161e-01 1.813605e-01 1.681356e+00 1.324170e-01 -2.548417e-01 4.122462e-01 -3.259755e-01 7.862388e-02 -3.415409e-01 -6.471502e-01 2.665806e-01 -9.749583e-01 -7.474673e-02 -6.699049e-02 8.175474e-02 1.927732e-02 -3.793715e-02 8.925607e-03 7.245531e-03 -1.040795e-02 4.515899e-03 -3.597391e-02 3.117515e-02 -2.126558e-02 5.633740e-02
<VARIANCE> 39
 8.357325e+00 3.606677e+01 2.984041e+01 8.034695e+01 4.330113e+01 5.057393e+01 7.131747e+01 4.243274e+01 6.435841e+01 4.927487e+01 3.899349e+01 4.449677e+01 2.626649e+01 5.389351e-01 1.241035e+00 1.641502e+00 2.858387e+00 2.238440e+00 2.518837e+00 2.589705e+00 2.627711e+00 2.581738e+00 2.922827e+00 2.499215e+00 1.810042e+00 9.702857e-01 9.692659e-02 1.881112e-01 2.236674e-01 4.289108e-01 3.415765e-01 4.162978e-01 4.448396e-01 4.450850e-01 4.604498e-01 5.161786e-01 3.411166e-01 3.080287e-01 1.008262e-01
<GCONST> 1.120517e+02
<TRANSP> 5
 0.000000e+00 1.000000e+00 0.000000e+00 0.000000e+00 0.000000e+00
 0.000000e+00 5.662355e-01 4.337644e-01 0.000000e+00 0.000000e+00
 0.000000e+00 0.000000e+00 6.614186e-01 3.385814e-01 0.000000e+00
 0.000000e+00 0.000000e+00 0.000000e+00 6.767681e-01 3.232320e-01
 0.000000e+00 0.000000e+00 0.000000e+00 0.000000e+00 0.000000e+00
<ENDHMM>
~h "p"
<BEGINHMM>
<NUMSTATES> 5
<STATE> 2
<MEAN> 39
 1.545465e+00 2.786751e+00 -4.377115e+00 2.063819e+00 -3.903187e+00 2.591351e+00 -5.512215e+00 -3.581245e-01 -3.962576e+00 -4.414724e-01 -2.213120e+00 -4.892091e+00 5.354369e+01 -4.020990e-01 2.574175e-01 -2.414161e-01 3.976669e-01 1.584942e-01 -2.886877e-01 3.653461e-01 1.125592e-01 3.651883e-01 -1.305921e-01 -8.989522e-02 3.438423e-01 -5.190122e-01 3.853057e-02 -4.286502e-01 2.299632e-01 -4.189256e-01 -1.509112e-02 -2.057009e-01 -2.190634e-01 -1.392051e-01 6.460391e-02 7.822460e-02 1.964006e-01 -6.948072e-02 6.447662e-01
<VARIANCE> 39
 9.543062e+00 1.735166e+01 2.476994e+01 1.982830e+01 2.616584e+01 3.772354e+01 2.681816e+01 2.670853e+01 2.918210e+01 2.305202e+01 2.365800e+01 2.533543e+01 9.261700e+00 6.408466e-01 9.923900e-01 1.073216e+00 1.491668e+00 1.528154e+00 2.103131e+00 1.945115e+00 2.201486e+00 1.930794e+00 1.817165e+00 1.759895e+00 1.631390e+00 9.360940e-01 1.352676e-01 2.234358e-01 3.346950e-01 3.855281e-01 3.705207e-01 5.151120e-01 4.618620e-01 4.830961e-01 4.678513e-01 4.358836e-01 4.417834e-01 3.859721e-01 2.121906e-01
<GCONST> 1.028569e+02
<STATE> 3
<MEAN> 39
 -4.229217e-01 2.263798e+00 -2.876187e+00 2.169842e+00 -2.758342e+00 9.680843e-02 -4.484439e+00 -9.873626e-01 -2.949541e+00 -8.988463e-01 -1.950743e+00 -3.228992e+00 5.432419e+01 3.591541e-01 -1.589650e+00 5.054399e-01 -1.723225e+00 -4.090280e-01 -9.282462e-01 -9.385433e-01 -6.995528e-01 3.090931e-01 3.235966e-01 8.380772e-01 -1.634696e-01 2.265478e+00 4.144468e-01 -5.563132e-01 2.866969e-01 -7.534913e-01 -5.333431e-01 7.827129e-02 -5.942197e-01 2.497724e-02 -2.157243e-01 2.047937e-01 3.681695e-01 -4.474403e-01 8.715907e-01
<VARIANCE> 39
 1.390418e+01 2.004243e+01 2.188501e+01 2.318027e+01 2.654434e+01 4.015669e+01 2.535534e+01 3.008362e+01 3.163223e+01 2.052908e+01 2.037520e+01 2.410304e+01 1.534832e+01 2.367289e+00 2.898626e+00 4.592372e+00 5.007393e+00 4.078227e+00 5.601924e+00 4.747081e+00 3.715580e+00 4.519113e+00 3.349723e+00 3.360160e+00 3.593611e+00 2.226390e+00 2.360756e-01 5.182487e-01 7.266978e-01 7.216479e-01 6.752431e-01 8.987618e-01 6.538159e-01 8.147544e-01 7.871165e-01 6.172443e-01 6.241634e-01 5.811664e-01 2.946232e-01
<GCONST> 1.227839e+02
<STATE> 4
<MEAN> 39
 2.620967e+00 -2.537725e+00 -3.082182e+00 -4.987615e+00 -5.149685e+00 -6.316630e-01 -7.787660e+00 -3.080295e+00 -3.342978e+00 9.371321e-01 1.402817e+00 -5.120708e+00 6.165585e+01 1.018270e+00 -2.277133e+00 7.096378e-01 -2.489709e+00 -1.215587e+00 -1.893499e-01 -1.573341e+00 3.184413e-02 -1.929714e-01 6.877554e-01 1.133172e+00 -1.268929e+00 3.140675e+00 -8.599319e-02 1.753489e-01 2.793331e-01 4.492226e-01 -8.078222e-02 9.886428e-02 -5.726232e-02 4.385719e-01 -1.151995e-01 -5.306643e-02 -2.552138e-01 -2.040706e-01 -2.751830e-01
<VARIANCE> 39
 2.244701e+01 3.068035e+01 3.312819e+01 6.129418e+01 3.239166e+01 7.572565e+01 4.245055e+01 3.155993e+01 4.474134e+01 2.998020e+01 2.875109e+01 2.937874e+01 2.429652e+01 1.973178e+00 4.401619e+00 7.485866e+00 6.785755e+00 5.594452e+00 7.594678e+00 5.596810e+00 5.739766e+00 6.070649e+00 4.896747e+00 4.968135e+00 4.955938e+00 2.579102e+00 3.828136e-01 4.319685e-01 4.779365e-01 9.786135e-01 6.567704e-01 8.784820e-01 7.025197e-01 7.028961e-01 7.500733e-01 6.237471e-01 7.514761e-01 5.907655e-01 3.564915e-01
<GCONST> 1.323972e+02
<TRANSP> 5
 0.000000e+00 1.000000e+00 0.000000e+00 0.000000e+00 0.000000e+00
 0.000000e+00 6.770133e-01 3.229866e-01 0.000000e+00 0.000000e+00
 0.000000e+00 0.000000e+00 4.532771e-01 5.467229e-01 0.000000e+00
 0.000000e+00 0.000000e+00 0.000000e+00 2.472300e-01 7.527701e-01
 0.000000e+00 0.000000e+00 0.000000e+00 0.000000e+00 0.000000e+00
<ENDHMM>
~h "r"
<BEGINHMM>
<NUMSTATES> 5
<STATE> 2
<MEAN> 39
 3.408082e+00 -3.763674e+00 -1.262794e+00 3.724493e+00 -5.466025e+00 -3.976582e+00 -1.087740e+01 -1.961103e+00 1.202791e+00 1.286549e+00 -1.237189e+00 -6.333101e+00 6.183079e+01 6.199514e-02 3.732230e-01 9.439056e-02 1.082358e+00 1.696984e-01 -2.402195e-01 5.571793e-02 -2.156915e-01 -9.610704e-02 -4.889911e-01 -4.345993e-01 7.704311e-01 -7.554021e-01 -8.587769e-02 -1.732562e-01 1.067001e-01 -6.470253e-01 -2.201709e-01 7.038575e-02 1.132733e-01 2.763184e-01 -2.874519e-01 1.402112e-02 2.859050e-01 -2.510106e-01 3.954849e-01
<VARIANCE> 39
 1.137879e+01 2.168616e+01 3.808717e+01 3.277917e+01 3.274838e+01 4.370481e+01 5.572672e+01 5.612988e+01 4.836129e+01 3.884748e+01 3.896205e+01 4.676973e+01 1.743381e+01 1.211510e+00 1.607257e+00 2.175907e+00 2.002544e+00 2.836424e+00 3.382899e+00 3.410897e+00 3.686754e+00 3.404552e+00 3.135652e+00 3.441908e+00 2.924079e+00 1.222079e+00 1.718254e-01 3.618541e-01 3.819650e-01 4.934699e-01 6.178139e-01 6.011732e-01 6.358188e-01 7.228819e-01 7.109646e-01 6.807010e-01 6.633197e-01 5.400927e-01 3.149246e-01
<GCONST> 1.202211e+02
<STATE> 3
<MEAN> 39
 3.062897e+00 -4.118823e+00 -6.952916e-01 4.042075e+00 -5.951168e+00 -5.318591e+00 -1.040951e+01 -1.684813e+00 3.889596e-01 1.093856e-01 -8.775608e-01 -5.178527e+00 6.210480e+01 2.997266e-02 -3.140160e-01 2.374180e-01 -2.057862e-01 -6.531700e-01 -2.204679e-01 1.998790e-01 4.999835e-01 -4.485174e-01 -4.201277e-01 3.597196e-01 -1.302547e-01 3.566772e-01 -5.782329e-02 -2.269619e-01 1.413162e-01 -7.425928e-01 -2.680057e-01 2.465850e-01 5.142241e-02 3.291845e-01 -3.037371e-01 1.880999e-01 3.607177e-01 -5.118023e-01 4.799053e-01
<VARIANCE> 39
 1.627019e+01 2.429576e+01 4.111245e+01 3.474675e+01 3.261721e+01 4.925608e+01 6.314094e+01 6.005600e+01 4.994154e+01 3.879457e+01 3.620259e+01 4.136258e+01 1.717986e+01 1.358170e+00 2.469141e+00 2.916049e+00 2.064360e+00 3.667246e+00 3.743981e+00 3.635645e+00 4.343741e+00 4.011877e+00 3.103108e+00 3.430518e+00 2.952464e+00 1.604787e+00 2.316760e-01 4.002231e-01 4.529368e-01 5.066789e-01 7.130771e-01 6.622820e-01 7.238617e-01 8.221427e-01 7.730511e-01 7.661234e-01 7.804087e-01 5.907717e-01 3.020205e-01
<GCONST> 1.243477e+02
<STATE> 4
<MEAN> 39
 3.269586e+00 -4.845492e+00 -1.117984e+00 2.976626e+00 -7.720590e+00 -4.648046e+00 -9.251910e+00 -1.081730e+00 3.605458e-01 -1.059120e-01 3.404635e-01 -6.535532e+00 6.356878e+01 -7.176821e-02 -1.054616e-01 4.445349e-01 -8.362659e-01 -5.970607e-01 4.690194e-01 2.575207e-01 6.326616e-01 -7.903007e-01 -1.194502e-02 5.154473e-01 -6.061238e-01 4.121161e-01 -8.804349e-02 8.005957e-02 1.302838e-01 -2.814384e-01 1.172692e-01 2.262394e-01 -2.074685e-02 6.121746e-02 -2.284365e-01 1.661471e-01 -5.693682e-03 -1.555226e-01 -4.866667e-03
<VARIANCE> 39
 2.320024e+01 3.650866e+01 5.678468e+01 3.901073e+01 4.880265e+01 6.031036e+01 7.587055e+01 7.312167e+01 6.369976e+01 4.587172e+01 4.783870e+01 4.949181e+01 2.494588e+01 1.605214e+00 3.461144e+00 3.648609e+00 2.629083e+00 4.596752e+00 4.071020e+00 3.954633e+00 5.214802e+00 4.695694e+00 3.898114e+00 3.993148e+00 3.387440e+00 2.569290e+00 2.790930e-01 2.843311e-01 4.574586e-01 4.214703e-01 6.070228e-01 5.835362e-01 7.079187e-01 6.512412e-01 6.975255e-01 5.994771e-01 6.365295e-01 4.766476e-01 2.204560e-01
<GCONST> 1.285150e+02
<TRANSP> 5
 0.000000e+00 1.000000e+00 0.000000e+00 0.000000e+00 0.000000e+00
 0.000000e+00 3.339830e-01 6.660169e-01 0.000000e+00 0.000000e+00
 0.000000e+00 0.000000e+00 9.294745e-02 9.070526e-01 0.000000e+00
 0.000000e+00 0.000000e+00 0.000000e+00 3.384738e-01 6.615262e-01
 0.000000e+00 0.000000e+00 0.000000e+00 0.000000e+00 0.000000e+00
<ENDHMM>
~h "s"
<BEGINHMM>
<NUMSTATES> 5
<STATE> 2
<MEAN> 39
 -6.737706e+00 4.994441e+00 1.821194e+00 -7.704778e-01 2.198022e+00 -7.599297e+00 -1.710895e+00 -4.466908e-01 -1.280270e+00 -1.878251e+00 -1.712391e+00 -3.263116e+00 6.236768e+01 -3.530249e+00 2.479176e+00 -7.950950e-01 -7.077516e-01 2.111506e+00 -1.152156e+00 1.553645e+00 -3.874118e-01 6.060128e-01 -1.108530e+00 3.146693e-01 4.885128e-01 4.289541e-02 -2.864994e-02 -3.647404e-01 -7.061897e-02 -2.149352e-01 -4.924926e-01 2.346354e-01 -5.229956e-01 1.431360e-01 -1.928981e-01 -1.047327e-02 1.268276e-01 -2.853628e-01 1.593623e-01
<VARIANCE> 39
 3.518867e+01 3.153208e+01 4.160466e+01 2.585038e+01 4.374155e+01 5.656650e+01 5.234893e+01 4.936736e+01 4.505906e+01 3.508585e+01 3.196974e+01 2.995177e+01 2.438377e+01 1.623764e+00 2.518376e+00 3.107585e+00 2.742646e+00 3.341012e+00 3.579859e+00 4.709889e+00 4.346612e+00 3.568171e+00 3.423627e+00 2.724068e+00 2.680223e+00 1.027215e+00 6.843606e-01 4.905692e-01 3.612424e-01 4.656962e-01 5.909976e-01 5.941451e-01 7.055954e-01 6.563595e-01 5.461664e-01 5.858824e-01 4.681950e-01 4.834574e-01 1.080310e-01
<GCONST> 1.227932e+02
<STATE> 3
<MEAN> 39
 -1.611599e+01 8.699366e+00 -4.301983e-02 -2.676609e+00 3.970690e+00 -8.939914e+00 -1.784735e+00 -3.455512e-01 -7.771582e-01 -4.938197e+00 -4.872658e-01 -2.770764e+00 6.288098e+01 -1.128669e-01 -3.646836e-01 5.441111e-02 5.589013e-02 -1.095188e-01 1.123565e-01 -1.544523e-01 1.504337e-01 2.357578e-02 -8.376129e-02 -3.122284e-02 4.308748e-02 -2.278909e-01 9.783509e-01 -5.520980e-01 2.445897e-01 1.665110e-01 -4.293401e-01 1.166281e-01 -2.882725e-01 -2.892173e-02 -7.681078e-02 2.596847e-01 -7.466230e-02 -8.488271e-02 -3.829956e-02
<VARIANCE> 39
 1.384286e+01 2.647139e+01 2.832417e+01 2.908219e+01 3.585632e+01 3.696886e+01 3.964378e+01 3.321869e+01 3.228469e+01 2.547563e+01 2.481681e+01 2.341198e+01 1.110977e+01 2.746304e+00 1.641192e+00 1.708232e+00 1.465141e+00 1.760494e+00 2.101699e+00 2.253790e+00 2.184819e+00 2.095756e+00 1.996930e+00 1.760286e+00 1.683352e+00 5.314167e-01 4.065902e-01 3.870315e-01 3.530988e-01 3.589053e-01 4.458408e-01 5.110512e-01 5.545658e-01 5.439154e-01 4.919156e-01 4.925183e-01 3.867642e-01 3.863434e-01 1.092069e-01
<GCONST> 1.092379e+02
<STATE> 4
<MEAN> 39
 -7.992832e+00 3.697052e+00 7.958662e-01 -1.584026e+00 1.608148e+00 -8.251884e+00 -3.620304e+00 -5.699002e-01 -5.912368e-01 -2.756037e+00 -1.872571e+00 -3.488191e+00 6.174538e+01 3.525356e+00 -1.976191e+00 3.692506e-01 -1.939780e-02 -2.074056e+00 4.320103e-01 -1.640117e+00 -3.877921e-01 -3.088044e-01 1.024058e+00 -1.516705e-02 -7.326029e-01 5.817875e-01 7.291172e-02 -1.045661e-01 6.851367e-02 -2.006570e-01 -3.139578e-01 2.638969e-01 -1.673503e-01 -1.457394e-02 -1.554572e-01 3.759774e-02 2.710799e-01 -1.931224e-01 2.801650e-01
<VARIANCE> 39
 3.836518e+01 2.700354e+01 3.804510e+01 2.156844e+01 3.903656e+01 4.294181e+01 4.912483e+01 3.114785e+01 3.630449e+01 3.025236e+01 2.490918e+01 2.461485e+01 2.350537e+01 2.098742e+00 3.476627e+00 4.716992e+00 2.928937e+00 3.544121e+00 4.108940e+00 4.311300e+00 4.562798e+00 4.370648e+00 3.374906e+00 3.058717e+00 2.902288e+00 2.322411e+00 7.217866e-01 4.103231e-01 3.768904e-01 3.432893e-01 4.857968e-01 5.067300e-01 7.096774e-01 6.349860e-01 5.653678e-01 5.086221e-01 4.312870e-01 4.473370e-01 2.110451e-01
<GCONST> 1.227453e+02
<TRANSP> 5
 0.000000e+00 1.000000e+00 0.000000e+00 0.000000e+00 0.000000e+00
 0.000000e+00 6.330035e-01 3.669965e-01 0.000000e+00 0.000000e+00
 0.000000e+00 0.000000e+00 7.951092e-01 2.048908e-01 0.000000e+00
 0.000000e+00 0.000000e+00 0.000000e+00 5.669304e-01 4.330697e-01
 0.000000e+00 0.000000e+00 0.000000e+00 0.000000e+00 0.000000e+00
<ENDHMM>
~h "t"
<BEGINHMM>
<NUMSTATES> 5
<STATE> 2
<MEAN> 39
 9.616835e-01 2.674288e+00 -2.075248e+00 2.581843e+00 -5.624692e+00 -3.943727e-01 -6.614601e+00 1.692839e-01 -3.980268e+00 4.499231e-01 -2.065181e+00 -4.815477e+00 5.383068e+01 -3.383805e-01 3.489468e-01 -6.231276e-01 2.318382e-01 2.045437e-01 2.939168e-01 5.438399e-01 3.344302e-02 1.915583e-01 -2.911936e-01 -8.582477e-02 4.797506e-01 -7.693943e-01 -2.812306e-01 -3.420191e-01 3.063302e-01 -4.874026e-01 2.887183e-01 -5.163629e-01 -6.447849e-02 -1.125602e-01 2.591437e-01 -3.870635e-02 1.241004e-01 -7.120050e-02 7.287419e-01
<VARIANCE> 39
 8.202205e+00 1.797157e+01 3.639167e+01 2.096481e+01 2.944357e+01 3.325005e+01 3.002572e+01 3.214804e+01 3.876948e+01 2.699789e+01 3.111606e+01 2.959241e+01 1.172959e+01 5.821587e-01 7.179746e-01 1.276007e+00 1.332404e+00 1.902977e+00 2.321137e+00 2.325039e+00 2.259306e+00 2.180564e+00 2.107038e+00 1.736572e+00 1.742292e+00 8.362526e-01 1.522186e-01 2.103927e-01 2.910503e-01 3.516112e-01 4.292004e-01 5.599170e-01 5.024056e-01 5.125514e-01 5.503215e-01 4.670969e-01 4.112048e-01 4.027892e-01 2.388382e-01
<GCONST> 1.054714e+02
<STATE> 3
<MEAN> 39
 -5.309352e-01 3.385930e+00 -1.962558e+00 2.454945e+00 -3.950615e+00 -1.004914e+00 -5.161248e+00 -1.564060e-01 -3.714620e+00 -4.003026e-01 -1.961533e+00 -3.376393e+00 5.347240e+01 -1.522772e+00 -9.479405e-01 4.296893e-01 -1.548563e+00 1.538348e+00 -1.839190e+00 4.139794e-01 -6.118146e-01 1.331023e+00 -5.089635e-01 2.286462e-01 1.047667e-01 1.877554e+00 1.386901e-01 -5.353774e-01 4.362490e-01 -6.835923e-01 -1.441552e-01 -3.485656e-01 -6.495593e-01 -1.272257e-01 1.794533e-01 1.784722e-01 1.927523e-01 -5.001326e-01 1.078196e+00
<VARIANCE> 39
 1.147658e+01 1.723353e+01 2.791733e+01 2.197526e+01 3.065295e+01 3.999137e+01 3.180437e+01 3.255791e+01 3.642281e+01 2.538070e+01 2.838504e+01 2.598268e+01 1.568784e+01 1.512124e+00 2.175783e+00 3.143713e+00 3.095228e+00 3.589358e+00 4.350368e+00 4.449317e+00 4.147919e+00 4.357270e+00 3.616912e+00 3.260414e+00 2.875209e+00 1.931743e+00 2.441930e-01 3.288277e-01 5.353736e-01 4.425431e-01 5.917331e-01 7.082664e-01 6.462692e-01 8.215218e-01 8.234039e-01 6.068572e-01 5.487326e-01 5.101674e-01 2.528840e-01
<GCONST> 1.196000e+02
<STATE> 4
<MEAN> 39
 -5.238691e+00 3.677038e-02 9.749845e-02 -2.808427e+00 5.103210e-01 -7.426434e+00 -4.555339e+00 -2.865506e+00 5.549932e-01 -1.619650e+00 -1.018371e+00 -4.010151e+00 6.084388e+01 4.344363e-01 -1.426481e+00 8.958839e-01 -2.109633e+00 -3.292146e-01 -7.902907e-01 -1.883461e+00 -4.357923e-01 6.875427e-01 4.274230e-01 6.746170e-01 -1.318079e+00 2.895267e+00 8.426265e-01 -7.297753e-02 8.279734e-02 8.278774e-02 -8.724208e-01 8.489017e-01 -6.681396e-01 2.639782e-01 -5.857642e-01 3.414069e-01 1.509001e-01 -3.204432e-01 -1.005992e-01
<VARIANCE> 39
 1.964071e+01 2.129293e+01 2.846110e+01 2.697791e+01 3.060368e+01 4.793815e+01 5.194329e+01 3.999488e+01 4.015449e+01 3.353432e+01 2.737183e+01 2.974583e+01 1.811455e+01 2.747353e+00 3.448262e+00 5.576132e+00 4.184638e+00 4.757635e+00 5.716614e+00 5.911479e+00 6.496867e+00 6.784797e+00 4.263784e+00 4.492428e+00 4.127590e+00 3.019676e+00 3.600298e-01 4.661049e-01 5.739495e-01 5.845553e-01 6.647666e-01 9.857137e-01 1.004383e+00 9.350861e-01 8.291879e-01 8.037660e-01 7.179855e-01 6.333426e-01 3.968647e-01
<GCONST> 1.303503e+02
<TRANSP> 5
 0.000000e+00 1.000000e+00 0.000000e+00 0.000000e+00 0.000000e+00
 0.000000e+00 6.024000e-01 3.976000e-01 0.000000e+00 0.000000e+00
 0.000000e+00 0.000000e+00 3.511373e-01 6.488627e-01 0.000000e+00
 0.000000e+00 0.000000e+00 0.000000e+00 4.594817e-01 5.405182e-01
 0.000000e+00 0.000000e+00 0.000000e+00 0.000000e+00 0.000000e+00
<ENDHMM>
~h "u"
<BEGINHMM>
<NUMSTATES> 5
<STATE> 2
<MEAN> 39
 4.306467e+00 1.000116e+00 1.771412e+00 -8.005889e+00 -8.165395e+00 1.201100e+00 -1.667039e+01 -6.744063e+00 -6.861404e+00 2.043624e+00 4.847491e+00 -6.419646e+00 6.392643e+01 7.163034e-01 -2.753967e-01 3.988492e-01 -8.403441e-01 -8.470879e-01 9.896866e-01 -1.409414e+00 -6.639249e-01 -4.938318e-01 6.390783e-01 1.108072e+00 -3.667163e-01 6.205177e-01 -3.297356e-01 1.408879e-01 -9.822080e-02 7.041378e-01 3.153433e-01 1.843133e-02 8.901399e-01 3.662501e-01 1.213457e-01 -3.144169e-01 -5.544917e-01 2.037642e-01 -5.369177e-01
<VARIANCE> 39
 1.190165e+01 2.821004e+01 3.981768e+01 7.090045e+01 6.717231e+01 6.152384e+01 7.609528e+01 5.792794e+01 6.411519e+01 5.546062e+01 5.878504e+01 4.818234e+01 1.664425e+01 2.130798e+00 2.634316e+00 3.262804e+00 5.853124e+00 4.922007e+00 5.758019e+00 5.856760e+00 5.127333e+00 6.177242e+00 4.742778e+00 4.580119e+00 3.623943e+00 1.617073e+00 2.703200e-01 4.381368e-01 4.332013e-01 9.262462e-01 8.575597e-01 9.495646e-01 1.103020e+00 1.001199e+00 1.009391e+00 8.680060e-01 8.587046e-01 7.582487e-01 2.941744e-01
<GCONST> 1.342453e+02
<STATE> 3
<MEAN> 39
 4.356443e+00 3.142634e-01 2.663137e+00 -7.798083e+00 -9.686671e+00 3.247505e+00 -1.729749e+01 -7.171584e+00 -6.926683e+00 1.421322e+00 6.818431e+00 -7.342520e+00 6.415186e+01 1.796192e-02 4.309510e-01 -9.358229e-02 6.604706e-01 2.791026e-01 2.066908e-01 9.447893e-01 3.345686e-01 -1.835008e-01 -3.157774e-01 -7.921863e-01 4.173076e-01 -6.756527e-01 -2.352658e-01 1.858135e-01 -8.113176e-02 5.291079e-01 3.371566e-01 -3.038074e-01 6.204343e-01 2.609951e-01 1.725959e-01 -2.227873e-01 -6.038126e-01 1.453466e-01 -3.597707e-01
<VARIANCE> 39
 9.354711e+00 2.860242e+01 3.996306e+01 7.309304e+01 5.487880e+01 6.101606e+01 6.576933e+01 6.189356e+01 6.017842e+01 5.669285e+01 6.605025e+01 5.198990e+01 1.430182e+01 7.378125e-01 2.006517e+00 1.916530e+00 4.383323e+00 2.988346e+00 3.540357e+00 3.495764e+00 3.326278e+00 4.147050e+00 3.290817e+00 3.176284e+00 2.950622e+00 1.436181e+00 2.222884e-01 3.253327e-01 3.742997e-01 6.143186e-01 6.103654e-01 7.365885e-01 7.657585e-01 7.857462e-01 7.999375e-01 7.179512e-01 6.781662e-01 6.401907e-01 1.621016e-01
<GCONST> 1.245447e+02
<STATE> 4
<MEAN> 39
 5.117566e+00 4.960212e+00 -2.967854e-01 -5.641829e+00 -7.539138e+00 3.111145e+00 -1.171961e+01 -4.652792e+00 -8.398450e+00 -4.866523e-01 1.545370e+00 -3.486607e+00 5.888066e+01 -2.694540e-01 2.914067e-01 -9.264030e-02 1.103724e+00 3.803761e-01 -1.306021e-01 8.589057e-01 2.973456e-01 2.515515e-01 -1.808763e-01 -7.143441e-01 2.082552e-01 -7.346538e-01 -1.205638e-01 -1.023539e-01 3.185027e-02 1.279409e-02 4.073919e-02 -5.131901e-02 -2.724542e-02 -1.100146e-02 9.161218e-02 1.690697e-02 5.795342e-02 -6.562188e-02 7.106374e-02
<VARIANCE> 39
 1.016399e+01 3.209648e+01 2.851314e+01 7.498160e+01 5.552963e+01 5.077304e+01 4.557414e+01 4.490494e+01 4.313711e+01 4.824307e+01 5.017125e+01 3.899259e+01 2.279584e+01 6.863193e-01 1.406440e+00 1.405167e+00 2.562176e+00 2.413623e+00 2.666851e+00 2.804847e+00 2.830813e+00 2.698834e+00 2.694587e+00 2.628313e+00 2.328890e+00 9.533421e-01 1.114644e-01 2.069389e-01 2.023908e-01 4.307634e-01 3.712386e-01 4.359478e-01 4.659210e-01 4.667489e-01 4.693826e-01 4.641328e-01 4.111238e-01 3.833331e-01 1.098674e-01
<GCONST> 1.128381e+02
<TRANSP> 5
 0.000000e+00 1.000000e+00 0.000000e+00 0.000000e+00 0.000000e+00
 0.000000e+00 4.034685e-01 5.965315e-01 0.000000e+00 0.000000e+00
 0.000000e+00 0.000000e+00 4.410273e-01 5.589727e-01 0.000000e+00
 0.000000e+00 0.000000e+00 0.000000e+00 6.975242e-01 3.024758e-01
 0.000000e+00 0.000000e+00 0.000000e+00 0.000000e+00 0.000000e+00
<ENDHMM>
~h "v"
<BEGINHMM>
<NUMSTATES> 5
<STATE> 2
<MEAN> 39
 7.903662e-04 -6.079456e-01 1.670089e+00 -6.705837e-01 -5.929818e+00 -8.820225e-01 -6.906881e+00 5.931143e-01 -4.574426e+00 -3.940755e-01 -3.854154e-01 -5.847453e+00 5.993814e+01 5.024984e-04 -6.478592e-05 9.522401e-04 -6.048587e-04 -1.305029e-03 -9.148303e-04 -9.999124e-04 -6.995694e-04 3.150678e-04 8.832195e-04 -1.229102e-04 -1.829845e-05 4.304752e-04 -1.024714e-04 5.090495e-05 -4.314321e-05 5.499199e-04 2.475645e-04 2.544455e-04 -3.161734e-04 -1.009587e-04 -7.179174e-05 -5.594532e-04 -1.336834e-04 -6.698545e-06 -3.952787e-04
<VARIANCE> 39
 2.681136e+01 5.325134e+01 6.824250e+01 5.887592e+01 6.062508e+01 6.608533e+01 5.928268e+01 6.068991e+01 5.916120e+01 4.597362e+01 4.705821e+01 4.804106e+01 6.619385e+01 1.372020e+00 2.288023e+00 2.566274e+00 2.987463e+00 3.078158e+00 3.116328e+00 3.250192e+00 3.738113e+00 3.266875e+00 2.829993e+00 2.967949e+00 2.476121e+00 2.021681e+00 2.264445e-01 3.584008e-01 4.122588e-01 5.086471e-01 5.519696e-01 5.562619e-01 5.942494e-01 6.847889e-01 5.904057e-01 5.307208e-01 5.528100e-01 4.553457e-01 3.018115e-01
<GCONST> 1.265182e+02
<STATE> 3
<MEAN> 39
 7.903662e-04 -6.079456e-01 1.670089e+00 -6.705837e-01 -5.929818e+00 -8.820225e-01 -6.906881e+00 5.931143e-01 -4.574426e+00 -3.940755e-01 -3.854154e-01 -5.847453e+00 5.993814e+01 5.024984e-04 -6.478592e-05 9.522401e-04 -6.048587e-04 -1.305029e-03 -9.148303e-04 -9.999124e-04 -6.995694e-04 3.150678e-04 8.832195e-04 -1.229102e-04 -1.829845e-05 4.304752e-04 -1.024714e-04 5.090495e-05 -4.314321e-05 5.499199e-04 2.475645e-04 2.544455e-04 -3.161734e-04 -1.009587e-04 -7.179174e-05 -5.594532e-04 -1.336834e-04 -6.698545e-06 -3.952787e-04
<VARIANCE> 39
 2.681136e+01 5.325134e+01 6.824250e+01 5.887592e+01 6.062508e+01 6.608533e+01 5.928268e+01 6.068991e+01 5.916120e+01 4.597362e+01 4.705821e+01 4.804106e+01 6.619385e+01 1.372020e+00 2.288023e+00 2.566274e+00 2.987463e+00 3.078158e+00 3.116328e+00 3.250192e+00 3.738113e+00 3.266875e+00 2.829993e+00 2.967949e+00 2.476121e+00 2.021681e+00 2.264445e-01 3.584008e-01 4.122588e-01 5.086471e-01 5.519696e-01 5.562619e-01 5.942494e-01 6.847889e-01 5.904057e-01 5.307208e-01 5.528100e-01 4.553457e-01 3.018115e-01
<GCONST> 1.265182e+02
<STATE> 4
<MEAN> 39
 7.903662e-04 -6.079456e-01 1.670089e+00 -6.705837e-01 -5.929818e+00 -8.820225e-01 -6.906881e+00 5.931143e-01 -4.574426e+00 -3.940755e-01 -3.854154e-01 -5.847453e+00 5.993814e+01 5.024984e-04 -6.478592e-05 9.522401e-04 -6.048587e-04 -1.305029e-03 -9.148303e-04 -9.999124e-04 -6.995694e-04 3.150678e-04 8.832195e-04 -1.229102e-04 -1.829845e-05 4.304752e-04 -1.024714e-04 5.090495e-05 -4.314321e-05 5.499199e-04 2.475645e-04 2.544455e-04 -3.161734e-04 -1.009587e-04 -7.179174e-05 -5.594532e-04 -1.336834e-04 -6.698545e-06 -3.952787e-04
<VARIANCE> 39
 2.681136e+01 5.325134e+01 6.824250e+01 5.887592e+01 6.062508e+01 6.608533e+01 5.928268e+01 6.068991e+01 5.916120e+01 4.597362e+01 4.705821e+01 4.804106e+01 6.619385e+01 1.372020e+00 2.288023e+00 2.566274e+00 2.987463e+00 3.078158e+00 3.116328e+00 3.250192e+00 3.738113e+00 3.266875e+00 2.829993e+00 2.967949e+00 2.476121e+00 2.021681e+00 2.264445e-01 3.584008e-01 4.122588e-01 5.086471e-01 5.519696e-01 5.562619e-01 5.942494e-01 6.847889e-01 5.904057e-01 5.307208e-01 5.528100e-01 4.553457e-01 3.018115e-01
<GCONST> 1.265182e+02
<TRANSP> 5
 0.000000e+00 1.000000e+00 0.000000e+00 0.000000e+00 0.000000e+00
 0.000000e+00 6.000000e-01 4.000000e-01 0.000000e+00 0.000000e+00
 0.000000e+00 0.000000e+00 6.000000e-01 4.000000e-01 0.000000e+00
 0.000000e+00 0.000000e+00 0.000000e+00 7.000000e-01 3.000000e-01
 0.000000e+00 0.000000e+00 0.000000e+00 0.000000e+00 0.000000e+00
<ENDHMM>
~h "w"
<BEGINHMM>
<NUMSTATES> 5
<STATE> 2
<MEAN> 39
 3.043527e+00 -1.244042e+00 -3.412665e+00 -6.025175e+00 -6.974249e+00 5.079295e+00 -7.687812e+00 -3.456721e+00 -5.123839e+00 1.981815e+00 2.513906e+00 -2.462377e+00 6.039321e+01 4.273337e-01 6.030443e-01 -5.110884e-02 -4.747957e-01 -5.022241e-01 9.966794e-02 -5.729108e-02 -1.931488e-01 -5.963021e-01 -2.920318e-01 2.977807e-01 5.373809e-01 -1.974548e-01 2.326325e-02 -1.272716e-01 2.463445e-02 -1.598681e-01 -1.798257e-02 2.306207e-02 -1.159949e-01 7.446250e-02 1.307551e-01 -1.048229e-02 1.499133e-02 -2.098385e-01 1.299085e-01
<VARIANCE> 39
 3.380600e+01 4.756562e+01 2.980190e+01 9.997109e+01 4.132195e+01 6.047632e+01 4.708997e+01 2.880922e+01 3.158072e+01 4.459451e+01 4.124472e+01 3.377550e+01 4.058411e+01 4.840621e-01 1.081423e+00 9.783026e-01 2.118015e+00 1.327141e+00 1.752719e+00 1.346339e+00 1.707475e+00 2.206791e+00 2.045892e+00 1.822384e+00 2.087615e+00 6.391043e-01 9.869664e-02 1.454974e-01 1.550323e-01 4.723736e-01 2.609398e-01 3.673698e-01 2.902651e-01 3.817271e-01 4.489718e-01 3.951960e-01 3.487879e-01 4.279445e-01 1.024748e-01
<GCONST> 1.071307e+02
<STATE> 3
<MEAN> 39
 6.631802e+00 2.445996e+00 -3.905797e+00 -1.107021e+01 -1.038911e+01 7.336428e+00 -9.080330e+00 -3.127435e+00 -7.916116e+00 2.200858e-01 5.670998e+00 -3.184913e+00 6.049820e+01 5.112635e-01 -1.115638e+00 -1.398444e-01 -2.338401e+00 -8.342990e-02 1.165355e+00 -9.938467e-01 -8.780090e-02 2.369583e-01 8.217765e-01 1.176690e+00 -9.536897e-01 1.577203e+00 -3.278153e-01 -5.702534e-01 3.395380e-02 2.086791e-01 4.297783e-01 -8.237220e-03 -2.422269e-02 2.144910e-01 5.135466e-01 2.668376e-01 -1.508737e-01 -5.477632e-01 2.317235e-01
<VARIANCE> 39
 1.082666e+01 2.985955e+01 2.286729e+01 7.101047e+01 5.408001e+01 5.382896e+01 4.442891e+01 3.116819e+01 3.480688e+01 3.762262e+01 3.854581e+01 4.000202e+01 2.931845e+01 1.524117e+00 2.831016e+00 1.110695e+00 5.449815e+00 3.155855e+00 2.738238e+00 3.817224e+00 2.595905e+00 3.097380e+00 2.750171e+00 3.166665e+00 3.609318e+00 2.463915e+00 1.889183e-01 2.511912e-01 1.590278e-01 9.045752e-01 4.573737e-01 5.615720e-01 5.357672e-01 4.709016e-01 4.331572e-01 4.204624e-01 6.361917e-01 6.104313e-01 2.324565e-01
<GCONST> 1.193157e+02
<STATE> 4
<MEAN> 39
 5.645755e+00 -4.928111e+00 -3.562253e+00 -1.720007e+01 -4.422025e+00 9.417943e+00 -1.500345e+01 -5.645931e-01 -2.905621e+00 7.247097e+00 3.961582e+00 -9.979920e+00 6.642264e+01 -4.278821e-01 -1.212487e+00 -2.404202e-02 2.194384e-01 7.731844e-01 -2.656047e-01 7.273810e-02 6.031756e-01 1.004869e+00 1.111068e-01 -7.492447e-01 -1.353066e+00 7.393695e-01 -6.290062e-02 2.029354e-01 5.781351e-02 4.207834e-01 4.374725e-02 -3.602132e-01 2.184740e-01 2.666933e-02 -6.006701e-02 -3.098907e-01 -3.055280e-01 2.091792e-01 -1.968267e-01
<VARIANCE> 39
 4.987506e+00 3.563789e+01 2.251693e+01 4.661865e+01 8.667097e+01 4.368552e+01 3.704368e+01 3.870192e+01 3.545139e+01 5.941753e+01 7.914379e+01 5.335295e+01 1.549533e+01 3.422098e-01 1.600120e+00 8.731161e-01 2.063525e+00 1.513700e+00 1.770289e+00 2.067612e+00 1.650829e+00 2.363178e+00 1.933526e+00 2.211753e+00 2.896179e+00 7.403517e-01 4.998021e-02 2.114353e-01 1.431861e-01 3.483064e-01 2.831267e-01 3.071855e-01 2.980756e-01 2.464659e-01 3.288131e-01 2.931599e-01 4.807351e-01 4.180943e-01 1.163860e-01
<GCONST> 1.046422e+02
<TRANSP> 5
 0.000000e+00 1.000000e+00 0.000000e+00 0.000000e+00 0.000000e+00
 0.000000e+00 6.828968e-01 3.171032e-01 0.000000e+00 0.000000e+00
 0.000000e+00 0.000000e+00 6.691157e-01 3.308843e-01 0.000000e+00
 0.000000e+00 0.000000e+00 0.000000e+00 7.436367e-01 2.563632e-01
 0.000000e+00 0.000000e+00 0.000000e+00 0.000000e+00 0.000000e+00
<ENDHMM>
~h "y"
<BEGINHMM>
<NUMSTATES> 5
<STATE> 2
<MEAN> 39
 -2.628569e+00 -1.456275e+00 1.789260e+01 -5.907589e+00 -1.523293e+01 -7.417502e+00 -1.179988e+01 1.607404e+00 -9.531364e+00 -1.941958e+00 5.751953e+00 -5.432254e+00 6.654994e+01 -4.844778e-02 -7.938367e-01 5.987936e-01 -4.822568e-01 -1.007366e+00 -8.601012e-01 -1.617405e-01 9.065081e-01 -2.767451e-02 2.327824e-01 8.250979e-01 2.082305e-01 7.976511e-01 1.383187e-01 -1.995754e-01 -6.725447e-01 1.013074e-01 3.324205e-01 6.052404e-02 1.909685e-01 2.514022e-01 3.531414e-01 6.548397e-02 -3.523597e-01 -1.457447e-01 -2.679876e-02
<VARIANCE> 39
 8.909029e+00 4.485078e+01 5.173606e+01 3.378016e+01 4.506452e+01 4.603480e+01 5.287014e+01 6.348153e+01 5.716797e+01 7.583782e+01 4.887081e+01 3.885151e+01 2.500484e+01 6.989432e-01 2.202085e+00 4.640552e+00 1.828743e+00 2.436723e+00 2.951446e+00 3.045448e+00 4.692633e+00 2.909284e+00 2.784360e+00 2.376432e+00 2.292955e+00 1.363451e+00 7.672726e-02 1.949456e-01 5.433440e-01 2.956523e-01 4.986196e-01 4.942922e-01 4.391382e-01 6.144912e-01 4.909279e-01 4.464808e-01 4.553776e-01 3.591173e-01 1.090031e-01
<GCONST> 1.170455e+02
<STATE> 3
<MEAN> 39
 -1.500798e+00 -8.124613e+00 1.297054e+01 -6.588504e+00 -1.729242e+01 -1.146309e+01 -9.074892e+00 1.030407e+01 -4.808859e+00 -1.883513e+00 6.814795e+00 -5.925807e+00 7.030668e+01 3.431269e-01 -1.012080e+00 -1.715694e+00 -4.047823e-02 9.854504e-01 1.422558e-01 8.259022e-01 1.605401e+00 1.147018e+00 -3.226125e-01 -1.366313e+00 -8.021423e-01 3.710880e-01 8.355810e-02 2.037718e-01 -2.945614e-01 1.995526e-01 5.341911e-01 4.330163e-01 -4.838831e-02 -5.218399e-01 -3.488061e-02 -2.992228e-03 -4.903410e-01 -2.456225e-01 -2.377862e-01
<VARIANCE> 39
 5.292123e+00 1.806266e+01 2.191781e+01 2.179739e+01 3.680823e+01 3.906519e+01 5.037422e+01 5.217735e+01 4.513961e+01 6.074883e+01 4.283427e+01 3.327623e+01 1.106810e+01 2.791016e-01 1.057816e+00 2.502892e+00 1.199187e+00 1.798308e+00 1.758534e+00 1.738188e+00 2.702987e+00 2.597951e+00 1.774618e+00 2.281285e+00 1.764902e+00 4.511305e-01 6.788015e-02 1.707372e-01 3.183762e-01 2.010768e-01 2.986237e-01 3.577827e-01 3.200002e-01 7.187725e-01 3.387527e-01 4.273087e-01 3.474264e-01 3.022808e-01 1.012680e-01
<GCONST> 1.024484e+02
<STATE> 4
<MEAN> 39
 6.002116e-02 -1.012748e+01 5.523320e+00 -6.885274e+00 -9.897501e+00 -7.998007e+00 -6.560362e+00 1.167857e+01 -1.239631e+00 -2.809050e+00 -1.849018e+00 -9.347442e+00 7.010373e+01 3.823728e-01 -1.848561e-01 -1.199959e+00 2.729525e-01 1.265992e+00 8.404038e-01 -9.337713e-02 -3.818068e-01 2.724235e-01 1.066412e-01 -1.120984e+00 -6.035909e-01 -2.363249e-01 7.940952e-03 2.722091e-01 1.716995e-01 1.164817e-01 -5.764873e-02 9.586512e-02 -1.188699e-01 -4.512994e-01 -2.463462e-01 2.360481e-01 2.326528e-01 1.808250e-01 -2.190280e-01
<VARIANCE> 39
 6.321050e+00 2.194830e+01 2.874606e+01 2.416543e+01 3.764571e+01 4.553529e+01 4.734566e+01 4.011933e+01 4.364885e+01 7.101934e+01 4.235556e+01 4.389462e+01 1.601398e+01 2.771211e-01 6.064929e-01 1.661497e+00 9.905897e-01 1.735177e+00 1.426525e+00 1.547219e+00 2.405329e+00 1.789794e+00 1.895558e+00 2.182211e+00 1.441713e+00 2.943309e-01 5.333031e-02 1.713452e-01 2.395192e-01 1.921872e-01 2.238855e-01 2.991852e-01 2.855194e-01 5.868924e-01 3.324294e-01 3.412088e-01 2.939965e-01 2.457108e-01 1.037328e-01
<GCONST> 9.923613e+01
<TRANSP> 5
 0.000000e+00 1.000000e+00 0.000000e+00 0.000000e+00 0.000000e+00
 0.000000e+00 7.279487e-01 2.720513e-01 0.000000e+00 0.000000e+00
 0.000000e+00 0.000000e+00 6.144812e-01 3.855188e-01 0.000000e+00
 0.000000e+00 0.000000e+00 0.000000e+00 6.700625e-01 3.299376e-01
 0.000000e+00 0.000000e+00 0.000000e+00 0.000000e+00 0.000000e+00
<ENDHMM>
~h "z"
<BEGINHMM>
<NUMSTATES> 5
<STATE> 2
<MEAN> 39
 -6.615385e-01 1.174580e+01 9.312078e+00 5.397110e+00 -4.638672e+00 -9.462320e+00 -3.517253e+00 -2.625894e+00 -8.853635e+00 -3.440248e+00 -8.434573e-01 -2.098804e+00 5.729598e+01 5.918789e-02 -4.767917e-01 1.001282e+00 -7.683398e-01 -1.304660e-01 2.314232e-01 -1.035445e+00 -1.295704e-01 -2.904560e-01 3.138511e-01 6.191928e-01 -3.989038e-01 7.064108e-01 1.842827e-02 -4.003263e-01 1.607784e-01 -4.086824e-01 -3.136497e-01 5.069157e-01 -8.876688e-02 -6.234480e-02 -9.496775e-02 3.035604e-01 8.254854e-02 -4.842617e-02 5.675565e-02
<VARIANCE> 39
 2.423053e+01 1.690088e+01 1.900761e+01 1.737644e+01 1.770849e+01 3.073367e+01 5.465276e+01 3.186125e+01 3.017843e+01 2.213461e+01 1.724530e+01 2.080531e+01 1.656427e+01 1.427452e+00 3.654006e+00 4.425724e+00 2.467318e+00 1.880669e+00 3.649879e+00 3.011046e+00 3.374004e+00 2.614644e+00 1.926556e+00 2.103688e+00 1.161853e+00 1.987485e+00 1.848918e-01 4.565535e-01 3.316797e-01 1.675363e-01 3.181629e-01 3.684914e-01 4.253233e-01 2.590104e-01 4.551591e-01 1.837400e-01 5.298950e-01 2.450092e-01 9.304856e-02
<GCONST> 1.073236e+02
<STATE> 3
<MEAN> 39
 -2.380030e+00 1.824607e+00 1.976454e+01 -9.118717e+00 -8.403327e+00 -2.621318e+00 -1.726056e+01 -6.992152e+00 -1.239663e+01 5.196359e+00 5.400193e-01 -4.536516e+00 6.505751e+01 1.089887e-01 -1.200962e+00 6.380428e-01 -1.785988e+00 -7.943648e-01 1.828413e+00 -1.397829e+00 -5.222191e-01 -7.141068e-02 7.553049e-01 -2.049447e-02 -3.993527e-01 6.995338e-01 6.451219e-02 3.392712e-01 -6.789017e-01 2.799200e-01 2.996069e-01 -1.788924e-01 4.470371e-01 4.299458e-01 2.752925e-01 -1.623730e-01 -9.184764e-02 -1.830943e-02 -2.273725e-01
<VARIANCE> 39
 1.254056e+01 3.008165e+00 6.978683e+01 4.815020e+01 1.896346e+01 1.135275e+02 4.487703e+01 4.350547e+01 6.021024e+01 1.172325e+01 4.589344e+00 2.248565e+01 5.548898e+00 9.861305e-01 1.626809e+00 2.691741e+00 1.651608e+00 2.342598e+00 2.273556e+00 3.638572e+00 1.713628e+00 4.018694e+00 1.577960e+00 1.249708e+00 1.968663e+00 8.364266e-01 5.995468e-02 2.549922e-01 9.472522e-02 2.121691e-01 3.606788e-01 4.347771e-01 4.955432e-01 3.359273e-01 2.833134e-01 4.648017e-01 1.619550e-01 2.192916e-01 5.645586e-02
<GCONST> 9.965149e+01
<STATE> 4
<MEAN> 39
 -4.840730e-01 1.374703e+00 1.468855e+01 -1.286712e+01 -7.683911e+00 1.177698e+01 -1.514304e+01 -2.809728e+00 -5.932302e+00 -1.570106e-02 -6.299639e+00 -9.628368e+00 6.150381e+01 1.987273e-01 2.488107e-01 -1.091581e+00 5.952722e-01 -3.293419e-02 3.140225e-01 6.935722e-01 1.438481e-01 1.974661e-01 -5.185787e-01 -1.909256e-01 -1.398283e-01 -5.843458e-01 -7.031236e-03 1.975492e-01 -6.788121e-02 1.265416e-01 2.637101e-02 -1.471939e-01 2.047954e-01 -2.928600e-04 -5.458232e-02 -7.091524e-02 3.212595e-02 1.897526e-01 -1.444018e-01
<VARIANCE> 39
 4.464508e+00 2.155706e+01 5.495544e+01 5.747334e+01 4.240029e+00 6.450780e+01 4.703564e+01 1.609812e+01 2.654676e+01 2.774556e+01 3.001406e+01 1.512469e+01 3.100464e+01 2.762268e-01 2.015719e+00 3.817436e-01 1.988730e+00 6.606691e-01 8.542578e-01 7.372863e-01 1.197595e+00 1.068803e+00 1.573666e+00 2.235188e+00 2.004526e+00 6.901965e-01 4.950933e-02 1.712702e-01 1.348823e-01 2.324330e-01 8.397821e-02 1.601792e-01 5.250626e-01 2.784710e-01 2.013055e-01 2.448873e-01 3.407795e-01 1.148377e-01 7.233739e-02
<GCONST> 8.944733e+01
<TRANSP> 5
 0.000000e+00 1.000000e+00 0.000000e+00 0.000000e+00 0.000000e+00
 0.000000e+00 8.025593e-01 1.974407e-01 0.000000e+00 0.000000e+00
 0.000000e+00 0.000000e+00 7.384613e-01 2.615387e-01 0.000000e+00
 0.000000e+00 0.000000e+00 0.000000e+00 7.726138e-01 2.273862e-01
 0.000000e+00 0.000000e+00 0.000000e+00 0.000000e+00 0.000000e+00
<ENDHMM>
~h "aw"
<BEGINHMM>
<NUMSTATES> 5
<STATE> 2
<MEAN> 39
 2.777360e+00 -4.748634e+00 -5.151223e-01 -1.174259e+01 -5.347716e+00 1.083723e+00 -1.326981e+01 -2.546184e+00 8.119930e-01 5.603435e+00 4.217406e+00 -9.322195e+00 6.835706e+01 1.218518e+00 -3.506097e-01 3.478076e-01 -1.791219e+00 -1.843682e+00 2.179332e+00 -1.930244e+00 4.630913e-01 -5.324709e-01 7.082253e-01 1.440494e+00 -7.004269e-01 9.190700e-01 -1.288094e-01 5.134897e-01 9.275971e-02 6.890247e-01 -1.082492e-01 2.672145e-01 5.069386e-01 4.147337e-02 -2.353160e-01 -6.012089e-01 -5.270383e-01 6.702557e-01 -8.189052e-01
<VARIANCE> 39
 7.471281e+00 2.254976e+01 1.981273e+01 3.441403e+01 4.894524e+01 6.970355e+01 4.052707e+01 3.306475e+01 9.697676e+01 4.809072e+01 1.956530e+01 3.565390e+01 1.639994e+01 2.018360e+00 1.762891e+00 3.441681e+00 3.552656e+00 3.406145e+00 4.775947e+00 5.456984e+00 2.898720e+00 4.672113e+00 4.408783e+00 1.776507e+00 4.626792e+00 2.015232e+00 3.082342e-01 2.377820e-01 4.018151e-01 5.778875e-01 7.228146e-01 8.792373e-01 7.389269e-01 7.244301e-01 9.309825e-01 6.241469e-01 4.081000e-01 5.324265e-01 3.029694e-01
<GCONST> 1.231971e+02
<STATE> 3
<MEAN> 39
 3.263012e+00 -3.786216e+00 1.484448e+00 -1.457161e+01 -8.784122e+00 4.713187e+00 -1.505238e+01 -2.737849e+00 -1.325727e+00 4.030948e+00 4.954358e+00 -6.989665e+00 6.860113e+01 3.620233e-01 1.023905e+00 3.575043e-01 5.942636e-01 -4.355007e-01 6.602488e-01 -9.263093e-02 -2.526383e-01 -8.385777e-01 -9.039176e-01 -4.834188e-01 1.498505e+00 -1.000485e+00 -1.229146e-01 3.203192e-01 -1.245469e-01 7.623032e-01 4.587527e-01 -2.920377e-01 4.032378e-01 -1.476370e-01 2.547616e-01 -1.832404e-01 -5.936257e-01 1.272053e-01 -4.831148e-01
<VARIANCE> 39
 7.635394e+00 2.103025e+01 1.931832e+01 4.350357e+01 4.800676e+01 9.386500e+01 7.572967e+01 4.042282e+01 1.184224e+02 3.396130e+01 3.253654e+01 4.955951e+01 1.284522e+01 4.886439e-01 9.634431e-01 1.089524e+00 3.457834e+00 2.467224e+00 2.484336e+00 2.784632e+00 2.884078e+00 1.740368e+00 3.163206e+00 1.886017e+00 2.059338e+00 7.283728e-01 1.752321e-01 2.083855e-01 2.461817e-01 4.118958e-01 3.133470e-01 4.174578e-01 6.026806e-01 4.424115e-01 7.104871e-01 5.105683e-01 4.414716e-01 4.690045e-01 1.142565e-01
<GCONST> 1.116699e+02
<STATE> 4
<MEAN> 39
 5.110476e+00 1.397015e+00 -2.385786e-01 -8.371947e+00 -1.223543e+01 9.051259e+00 -9.608964e+00 -6.655724e+00 -4.120786e+00 1.456069e+00 2.693715e+00 -1.988983e+00 6.095804e+01 -1.956022e-01 6.590997e-01 -3.025113e-01 1.308790e+00 5.018247e-01 -4.719741e-01 5.607379e-01 1.959957e-01 -1.136502e-01 -2.621354e-01 -6.400833e-01 -7.723325e-02 -1.119515e+00 -1.668936e-01 -1.579276e-01 3.941797e-02 -2.596008e-02 1.722931e-01 -3.437082e-01 2.344117e-02 1.684616e-01 -3.991517e-03 1.134447e-01 1.145394e-01 -2.363708e-01 1.917505e-01
<VARIANCE> 39
 5.412862e+00 2.828657e+01 2.917726e+01 5.184850e+01 3.257934e+01 6.808759e+01 5.006148e+01 4.044880e+01 5.217917e+01 5.020277e+01 3.206725e+01 2.231886e+01 2.024566e+01 3.753805e-01 1.048468e+00 1.775482e+00 2.441568e+00 2.149781e+00 3.148613e+00 2.112327e+00 2.890230e+00 3.312667e+00 2.203928e+00 2.374359e+00 2.767318e+00 1.048420e+00 7.877700e-02 1.357801e-01 3.068610e-01 3.163991e-01 3.117946e-01 5.279222e-01 4.741050e-01 6.506954e-01 6.268603e-01 4.337893e-01 4.315280e-01 6.031142e-01 1.105502e-01
<GCONST> 1.102726e+02
<TRANSP> 5
 0.000000e+00 1.000000e+00 0.000000e+00 0.000000e+00 0.000000e+00
 0.000000e+00 4.600548e-01 5.399452e-01 0.000000e+00 0.000000e+00
 0.000000e+00 0.000000e+00 6.207916e-01 3.792084e-01 0.000000e+00
 0.000000e+00 0.000000e+00 0.000000e+00 7.854866e-01 2.145134e-01
 0.000000e+00 0.000000e+00 0.000000e+00 0.000000e+00 0.000000e+00
<ENDHMM>
~h "ay"
<BEGINHMM>
<NUMSTATES> 5
<STATE> 2
<MEAN> 39
 4.834353e-01 -1.405007e+01 2.185285e+00 -5.895226e+00 -9.991320e+00 -6.425557e+00 -8.173889e+00 9.586270e+00 2.842541e+00 -5.031257e+00 -1.213622e+00 -1.160522e+01 7.221382e+01 -3.410287e-01 -2.028725e-01 1.247930e+00 2.159650e-01 -1.347619e+00 -1.159718e+00 2.365489e-01 1.416823e+00 -5.556365e-01 -5.536882e-01 6.865911e-01 6.223670e-01 1.422295e-01 -9.850874e-03 4.923177e-01 2.159631e-01 7.987907e-02 -6.118280e-02 1.172755e-01 -3.683188e-02 -4.442193e-01 -4.493081e-01 2.216347e-01 3.360296e-01 2.930763e-01 -3.302977e-01
<VARIANCE> 39
 6.360071e+00 1.917966e+01 4.279570e+01 1.812104e+01 4.302600e+01 5.816945e+01 5.402298e+01 5.617058e+01 5.782816e+01 6.524212e+01 4.321416e+01 3.120752e+01 5.561583e+00 3.749465e-01 1.138079e+00 1.926347e+00 1.171849e+00 1.996212e+00 2.223084e+00 1.739326e+00 2.591285e+00 2.074231e+00 2.065863e+00 2.991131e+00 1.852122e+00 3.159598e-01 1.014174e-01 1.814371e-01 2.882001e-01 2.457422e-01 4.899973e-01 4.280528e-01 3.783181e-01 5.397342e-01 4.407743e-01 3.549426e-01 5.099107e-01 3.760126e-01 1.098629e-01
<GCONST> 1.056005e+02
<STATE> 3
<MEAN> 39
 -1.422992e+00 -9.024194e+00 1.446731e+01 -5.605561e+00 -1.982936e+01 -1.034552e+01 -1.222250e+01 1.103388e+01 -5.314199e+00 -5.746427e+00 8.061242e+00 -6.876412e+00 7.026759e+01 5.139738e-02 1.009363e+00 7.225405e-01 3.209917e-01 -1.116531e-01 4.270962e-01 -3.804299e-01 -9.624090e-01 -9.616196e-01 9.467707e-02 2.283886e-01 1.516992e-01 -6.788701e-01 1.791391e-01 9.272382e-02 -5.177093e-01 2.314613e-01 5.864059e-01 2.782716e-01 1.263657e-01 -2.516048e-01 1.477241e-01 1.295679e-01 -5.300617e-01 -2.666011e-01 -2.400021e-01
<VARIANCE> 39
 4.242359e+00 1.675037e+01 3.515047e+01 2.069514e+01 3.398204e+01 3.323560e+01 5.841545e+01 3.818705e+01 5.804961e+01 5.424927e+01 4.004171e+01 2.775398e+01 5.596360e+00 4.346028e-01 9.419720e-01 2.370859e+00 1.228096e+00 2.200314e+00 1.212570e+00 2.043176e+00 2.355964e+00 2.327700e+00 1.751663e+00 2.824811e+00 1.956690e+00 4.882089e-01 6.432319e-02 1.778204e-01 2.075696e-01 1.970342e-01 2.471194e-01 3.082072e-01 3.767672e-01 6.126076e-01 3.752731e-01 3.625726e-01 3.909955e-01 2.990045e-01 1.001808e-01
<GCONST> 1.010364e+02
<STATE> 4
<MEAN> 39
 4.766951e-01 -3.777382e+00 1.018683e+01 -1.625819e+00 -1.343356e+01 -6.251998e+00 -9.748884e+00 5.495142e+00 -5.811268e+00 -3.516995e+00 3.530113e+00 -7.049803e+00 6.426310e+01 5.409776e-01 8.197924e-01 -1.382428e+00 1.077195e+00 1.324239e+00 1.196735e+00 8.565479e-01 -9.261426e-01 -4.004455e-01 6.564826e-01 -9.398068e-01 -1.417875e-01 -1.401896e+00 -1.027806e-01 -6.061842e-02 -1.017657e-01 -8.765428e-02 -5.054495e-02 5.396774e-02 1.376760e-01 -1.679059e-01 -5.150598e-02 -1.973644e-02 3.471316e-02 1.734683e-01 6.198509e-02
<VARIANCE> 39
 8.953735e+00 2.020371e+01 3.744458e+01 3.689904e+01 4.074672e+01 4.147731e+01 6.298883e+01 5.454081e+01 5.001266e+01 4.524772e+01 3.374752e+01 4.539970e+01 1.707676e+01 5.753709e-01 1.386945e+00 2.250106e+00 1.770432e+00 2.586514e+00 2.935352e+00 2.966548e+00 4.283885e+00 3.514436e+00 2.788151e+00 3.019152e+00 2.726712e+00 9.372743e-01 1.085360e-01 2.174125e-01 3.598897e-01 3.295446e-01 4.729190e-01 5.198027e-01 5.560318e-01 5.569267e-01 5.477580e-01 4.667366e-01 3.718863e-01 5.163189e-01 1.455205e-01
<GCONST> 1.142331e+02
<TRANSP> 5
 0.000000e+00 1.000000e+00 0.000000e+00 0.000000e+00 0.000000e+00
 0.000000e+00 7.605308e-01 2.394692e-01 0.000000e+00 0.000000e+00
 0.000000e+00 0.000000e+00 7.501645e-01 2.498355e-01 0.000000e+00
 0.000000e+00 0.000000e+00 0.000000e+00 6.808203e-01 3.191797e-01
