~o
<STREAMINFO> 1 39
<VECSIZE> 39<NULLD><MFCC_D_A_0><DIAGC>
~s "silst"
<MEAN> 39
 -1.572259e+00 3.038827e+00 -2.504598e+00 4.712815e+00 -3.320059e+00 1.846415e+00 -3.413753e+00 1.622775e+00 -3.035699e+00 -1.389390e+00 -2.518533e+00 -1.420587e+00 5.111012e+01 -7.898660e-02 1.039302e-01 -6.759749e-02 5.477784e-02 4.682649e-02 5.693255e-02 3.034026e-02 1.442794e-02 3.141253e-02 -2.237090e-02 5.473360e-02 7.123883e-02 -1.590487e-01 8.154142e-03 -2.263970e-02 3.569603e-02 -3.799654e-02 7.954283e-03 -1.737154e-02 -1.927074e-02 -1.446452e-02 -2.244942e-02 6.790662e-03 3.631221e-03 -2.248595e-02 5.850963e-02
<VARIANCE> 39
 1.145906e+01 2.121997e+01 1.888907e+01 1.622709e+01 2.363765e+01 2.655958e+01 2.509974e+01 2.861073e+01 2.481786e+01 2.531559e+01 2.361149e+01 2.271158e+01 1.111590e+01 2.881205e-01 6.854059e-01 8.746386e-01 1.029919e+00 1.318929e+00 1.483508e+00 1.623099e+00 1.836503e+00 1.788786e+00 1.765988e+00 1.671464e+00 1.532549e+00 2.589454e-01 5.349791e-02 1.179687e-01 1.618984e-01 2.035565e-01 2.586740e-01 2.891698e-01 3.233973e-01 3.616908e-01 3.537239e-01 3.492458e-01 3.297250e-01 3.008012e-01 4.338760e-02
<GCONST> 9.107120e+01
~h "@"
<BEGINHMM>
<NUMSTATES> 5
<STATE> 2
<MEAN> 39
 1.247427e+00 -4.346070e+00 2.172081e+00 -2.818119e+00 -6.564373e+00 -5.422630e+00 -1.046696e+01 3.252346e-01 -1.802046e+00 1.579666e+00 9.619918e-01 -8.260049e+00 6.538964e+01 9.074717e-01 -1.074356e+00 3.692251e-01 -5.358282e-01 -1.087518e+00 -1.060534e-01 -8.173695e-01 7.065669e-01 3.085410e-01 2.722686e-01 4.457096e-01 -7.484446e-01 1.096812e+00 -1.386250e-01 5.696875e-01 -1.337185e-02 5.245261e-01 2.110962e-01 4.682267e-01 4.155828e-01 -2.050753e-01 -2.784916e-01 -1.982891e-01 -3.010688e-01 3.169941e-01 -6.725528e-01
<VARIANCE> 39
 2.261728e+01 4.347861e+01 5.046110e+01 4.831870e+01 6.873552e+01 7.433789e+01 7.247686e+01 7.947069e+01 6.718655e+01 5.376968e+01 4.823816e+01 5.253595e+01 2.875136e+01 2.715997e+00 2.787217e+00 3.214390e+00 3.822896e+00 4.065086e+00 5.095534e+00 4.714664e+00 7.302540e+00 5.894884e+00 4.487030e+00 4.603288e+00 3.619905e+00 2.618065e+00 3.592540e-01 4.557144e-01 5.599315e-01 6.889717e-01 7.743764e-01 7.453894e-01 9.278186e-01 9.937478e-01 8.493530e-01 7.906569e-01 7.324980e-01 5.999827e-01 4.324679e-01
<GCONST> 1.356553e+02
<STATE> 3
<MEAN> 39
 1.920269e+00 -5.496546e+00 2.518306e+00 -3.122449e+00 -7.833250e+00 -4.886416e+00 -1.110050e+01 1.317867e+00 -1.258167e+00 1.182224e+00 1.656739e+00 -8.973958e+00 6.637885e+01 4.171527e-01 1.865391e-01 2.824002e-01 6.073915e-01 -2.478889e-01 3.830397e-01 1.987519e-02 -1.600597e-01 -2.787269e-01 1.415129e-02 -2.077409e-01 1.703948e-01 -3.228521e-01 -2.594174e-01 6.208442e-01 -4.936232e-02 5.311378e-01 4.096352e-01 2.694212e-01 4.736663e-01 -4.185845e-01 -3.037664e-01 -1.660579e-01 -3.867117e-01 4.125111e-01 -6.906253e-01
<VARIANCE> 39
 1.689271e+01 4.643369e+01 5.359811e+01 5.261242e+01 6.793831e+01 7.156400e+01 7.306267e+01 9.755012e+01 7.577388e+01 5.883519e+01 5.681475e+01 6.104463e+01 2.884332e+01 1.439234e+00 1.806341e+00 2.134980e+00 3.137513e+00 2.731652e+00 3.819682e+00 3.856387e+00 4.008962e+00 4.061713e+00 3.046334e+00 3.234332e+00 2.483403e+00 1.611649e+00 3.566699e-01 4.244184e-01 5.682949e-01 6.080489e-01 7.340249e-01 7.349653e-01 8.611164e-01 1.224068e+00 9.191326e-01 8.782844e-01 8.202487e-01 7.127847e-01 3.526643e-01
<GCONST> 1.312720e+02
<STATE> 4
<MEAN> 39
 1.832146e+00 -4.580362e+00 3.313955e+00 -1.310665e+00 -7.753908e+00 -5.138658e+00 -1.025703e+01 1.943347e+00 -2.513757e+00 7.582619e-01 4.007730e-01 -7.886950e+00 6.448714e+01 1.250426e-01 9.348052e-01 -6.872354e-02 1.079808e+00 2.714550e-01 6.259665e-01 5.381107e-01 -7.415212e-01 -4.386408e-01 -9.888581e-02 -6.200859e-01 4.810868e-01 -1.147894e+00 -1.611495e-01 1.428744e-01 -7.143685e-02 6.907713e-02 1.084743e-01 5.947248e-02 1.691183e-01 -7.176406e-02 -3.327153e-02 -8.881386e-02 -8.164366e-02 6.181618e-02 -1.550194e-01
<VARIANCE> 39
 1.544977e+01 5.041298e+01 4.898100e+01 4.871633e+01 6.481017e+01 6.620648e+01 6.086129e+01 8.996458e+01 6.372228e+01 5.018956e+01 4.710687e+01 5.475345e+01 3.060853e+01 1.030956e+00 1.911085e+00 2.070339e+00 2.521933e+00 2.760233e+00 2.885193e+00 3.457557e+00 3.712344e+00 3.192698e+00 3.038030e+00 2.781348e+00 2.419280e+00 1.787343e+00 2.210968e-01 2.880116e-01 3.440796e-01 3.965877e-01 4.565023e-01 4.815582e-01 5.967053e-01 6.948293e-01 6.109170e-01 5.127372e-01 5.552654e-01 3.984806e-01 2.223815e-01
<GCONST> 1.228354e+02
<TRANSP> 5
 0.000000e+00 1.000000e+00 0.000000e+00 0.000000e+00 0.000000e+00
 0.000000e+00 1.296547e-01 8.703453e-01 0.000000e+00 0.000000e+00
 0.000000e+00 0.000000e+00 1.869635e-01 8.130365e-01 0.000000e+00
 0.000000e+00 0.000000e+00 0.000000e+00 4.363631e-01 5.636369e-01
 0.000000e+00 0.000000e+00 0.000000e+00 0.000000e+00 0.000000e+00
<ENDHMM>
~h "a"
<BEGINHMM>
<NUMSTATES> 5
<STATE> 2
<MEAN> 39
 2.376118e+00 -1.011073e+01 -9.556895e-01 -7.601147e+00 -4.430739e+00 -1.181754e+00 -9.994628e+00 5.437616e+00 -7.635299e-01 7.462490e-01 -1.932040e+00 -1.185319e+01 6.890153e+01 1.729207e-01 -1.120558e+00 -1.662952e-01 -6.439425e-01 3.060634e-01 3.903711e-01 8.725339e-02 9.330856e-01 1.075963e-01 -1.889178e-01 -5.559730e-01 -7.278770e-01 8.690069e-01 -1.608222e-01 8.144258e-01 1.987528e-01 6.901311e-01 4.743386e-02 -6.353974e-02 2.357323e-01 -6.022070e-01 -3.766152e-01 -5.868198e-02 8.451134e-02 5.893122e-01 -7.183039e-01
<VARIANCE> 39
 9.641739e+00 2.601083e+01 4.342400e+01 4.428164e+01 5.788347e+01 8.159409e+01 6.122247e+01 6.153762e+01 6.919425e+01 6.725839e+01 4.921897e+01 5.107755e+01 2.048559e+01 1.096811e+00 2.598361e+00 2.594114e+00 3.224756e+00 3.498426e+00 4.111550e+00 3.643225e+00 5.055057e+00 3.719719e+00 3.863653e+00 3.526493e+00 3.460217e+00 1.971223e+00 2.068896e-01 3.752608e-01 3.767808e-01 5.229738e-01 5.851002e-01 6.506025e-01 6.450929e-01 8.149759e-01 7.213163e-01 7.329303e-01 6.311197e-01 5.597322e-01 2.914030e-01
<GCONST> 1.266491e+02
<STATE> 3
<MEAN> 39
 2.069645e+00 -1.099883e+01 -5.921192e-01 -7.819111e+00 -4.046157e+00 -1.241164e+00 -9.230343e+00 6.282362e+00 -1.164621e+00 -1.552074e-01 -2.526410e+00 -1.206441e+01 6.967731e+01 1.451658e-01 7.789488e-01 1.583573e-01 8.003091e-01 -5.251965e-02 -1.027855e-01 1.826756e-01 -5.002881e-01 -4.545501e-01 2.142078e-01 2.285584e-02 5.327407e-01 -7.466434e-01 1.839462e-02 5.039107e-01 1.145492e-01 3.796926e-01 -1.241023e-01 1.700355e-02 4.042928e-02 -4.180634e-01 -1.405864e-01 8.140271e-02 8.964110e-02 2.399543e-01 -4.405128e-01
<VARIANCE> 39
 8.735202e+00 2.275097e+01 3.972067e+01 3.867558e+01 5.429497e+01 7.684283e+01 5.535279e+01 6.246130e+01 7.410680e+01 6.825602e+01 4.793172e+01 5.180430e+01 1.424032e+01 4.296552e-01 1.428106e+00 1.465486e+00 1.700349e+00 2.028717e+00 2.600915e+00 2.300794e+00 3.013510e+00 2.303234e+00 2.396991e+00 2.223773e+00 1.984682e+00 9.253585e-01 1.018471e-01 1.989038e-01 2.737934e-01 2.908625e-01 3.728362e-01 4.771195e-01 4.781766e-01 6.150589e-01 4.491620e-01 4.996497e-01 4.652670e-01 3.893612e-01 1.270428e-01
<GCONST> 1.122869e+02
<STATE> 4
<MEAN> 39
 2.968408e+00 -4.272938e+00 -6.207966e-01 -2.224272e+00 -4.105517e+00 -1.102810e+00 -8.021064e+00 3.077380e+00 -3.287295e+00 1.099912e+00 -2.761197e+00 -7.966217e+00 6.263290e+01 2.624007e-02 1.476078e+00 -2.405631e-02 1.457028e+00 -1.200664e-01 4.548939e-01 6.017135e-01 -9.421604e-01 -3.687890e-01 -1.283005e-01 -2.472335e-01 6.094582e-01 -1.611528e+00 -1.139633e-01 -8.872032e-02 -3.194809e-05 -1.023530e-01 -2.131029e-02 2.259778e-02 4.180388e-02 3.540542e-02 6.602176e-02 -1.087407e-01 -4.369696e-02 -7.438267e-02 9.218687e-02
<VARIANCE> 39
 9.260192e+00 2.490893e+01 5.017252e+01 4.272137e+01 4.801800e+01 6.208049e+01 5.543009e+01 5.113888e+01 5.290154e+01 5.284129e+01 4.727043e+01 4.589256e+01 2.363931e+01 6.494080e-01 1.340154e+00 1.822409e+00 1.980811e+00 2.337143e+00 2.764367e+00 2.712695e+00 3.481893e+00 2.913675e+00 2.874919e+00 2.558839e+00 2.278891e+00 1.020149e+00 1.161603e-01 2.072476e-01 2.645411e-01 3.262759e-01 3.602124e-01 4.552271e-01 4.597780e-01 5.354147e-01 4.542310e-01 4.511659e-01 4.541412e-01 3.977769e-01 1.440689e-01
<GCONST> 1.140636e+02
<TRANSP> 5
 0.000000e+00 1.000000e+00 0.000000e+00 0.000000e+00 0.000000e+00
 0.000000e+00 4.651566e-01 5.348434e-01 0.000000e+00 0.000000e+00
 0.000000e+00 0.000000e+00 6.278470e-01 3.721530e-01 0.000000e+00
 0.000000e+00 0.000000e+00 0.000000e+00 5.711583e-01 4.288417e-01
 0.000000e+00 0.000000e+00 0.000000e+00 0.000000e+00 0.000000e+00
<ENDHMM>
~h "b"
<BEGINHMM>
<NUMSTATES> 5
<STATE> 2
<MEAN> 39
 4.985046e+00 7.668883e+00 1.858964e+00 5.486882e+00 -3.715278e+00 2.353467e+00 -6.804365e+00 -3.124325e+00 -7.449157e+00 -2.416060e+00 -2.596897e+00 -4.946454e+00 5.522401e+01 2.645749e-01 1.006606e-01 -2.909839e-01 -3.868315e-01 1.599496e-01 -2.739756e-01 -3.552003e-01 -3.237297e-01 -2.299074e-03 -7.345931e-02 3.335125e-01 2.897540e-01 2.966499e-01 -8.457731e-02 -7.164784e-01 4.559936e-02 -8.835606e-01 -2.712429e-01 -2.783118e-01 -6.720763e-01 -7.709000e-02 1.498515e-01 4.688757e-01 5.236657e-01 -7.211742e-02 6.555098e-01
<VARIANCE> 39
 7.522127e+00 2.069148e+01 1.862410e+01 2.038813e+01 2.653414e+01 2.847504e+01 2.973170e+01 2.631680e+01 2.562599e+01 2.307536e+01 2.329309e+01 2.387169e+01 1.131905e+01 7.189416e-01 2.074519e+00 1.527374e+00 4.153677e+00 2.201013e+00 2.604244e+00 3.678476e+00 2.901431e+00 2.968456e+00 2.737227e+00 2.970425e+00 2.066854e+00 1.675196e+00 1.283898e-01 3.994217e-01 3.527915e-01 5.298545e-01 4.507502e-01 5.532950e-01 5.578241e-01 6.030405e-01 6.874641e-01 6.348957e-01 5.463518e-01 4.994181e-01 2.187248e-01
<GCONST> 1.110971e+02
<STATE> 3
<MEAN> 39
 5.878158e+00 4.595699e+00 4.402160e-01 -1.579844e+00 -4.297615e+00 1.070017e+00 -1.103891e+01 -6.486631e+00 -8.919273e+00 -4.125812e-01 1.774001e+00 -2.934692e+00 5.959330e+01 -4.305732e-03 -2.336768e+00 2.796872e-03 -3.294281e+00 -7.016779e-01 -5.354367e-01 -2.734683e+00 -2.173915e-01 8.552006e-01 2.257869e+00 2.052203e+00 -8.009815e-01 2.396394e+00 -3.025539e-01 -4.942584e-01 3.088767e-01 2.895020e-02 -2.501316e-01 -6.501894e-02 -3.672975e-02 6.342531e-01 5.641119e-01 2.756864e-01 -2.592817e-01 -6.735247e-01 2.595939e-01
<VARIANCE> 39
 7.409495e+00 2.625210e+01 1.954551e+01 7.170560e+01 3.737223e+01 4.209273e+01 4.175219e+01 3.320453e+01 3.962008e+01 4.153777e+01 3.864067e+01 2.672700e+01 1.870673e+01 1.092687e+00 3.823521e+00 3.411444e+00 6.612511e+00 4.111560e+00 6.102125e+00 4.567251e+00 5.000860e+00 7.369381e+00 6.806112e+00 4.921999e+00 4.653216e+00 1.738464e+00 1.309185e-01 3.975129e-01 3.873741e-01 1.059535e+00 6.092517e-01 7.283318e-01 7.140484e-01 7.902527e-01 1.032210e+00 9.076210e-01 9.544991e-01 6.427591e-01 2.840984e-01
<GCONST> 1.275162e+02
<STATE> 4
<MEAN> 39
 5.136752e+00 -2.135714e+00 1.281922e+00 -6.631134e+00 -6.137526e+00 -7.698372e-02 -1.670728e+01 -4.085670e+00 -3.452580e+00 5.809666e+00 4.593020e+00 -8.525736e+00 6.458445e+01 -6.198055e-01 -2.434685e+00 6.954533e-01 -1.624509e+00 -9.554394e-01 -1.001010e+00 -1.418376e+00 1.740847e+00 1.873405e+00 1.028249e+00 8.930054e-02 -1.781366e+00 2.069589e+00 -2.031543e-01 5.145344e-01 2.146909e-01 9.468432e-01 6.165753e-02 7.451238e-03 9.071411e-01 3.904675e-01 -2.130346e-01 -8.568329e-01 -7.845267e-01 2.075464e-01 -5.230495e-01
<VARIANCE> 39
 7.250390e+00 4.213535e+01 3.218603e+01 8.909632e+01 5.595739e+01 6.871578e+01 5.905801e+01 4.432290e+01 6.633839e+01 7.193481e+01 6.588946e+01 5.400914e+01 2.307714e+01 9.904872e-01 3.329828e+00 3.957819e+00 5.697333e+00 3.636343e+00 5.182529e+00 4.642006e+00 6.429275e+00 7.280825e+00 6.156890e+00 6.900253e+00 5.536729e+00 1.731830e+00 1.122832e-01 4.289217e-01 3.221087e-01 1.119587e+00 7.547883e-01 7.574393e-01 8.603747e-01 7.749373e-01 9.889186e-01 1.155868e+00 1.090095e+00 8.244284e-01 2.434440e-01
<GCONST> 1.335042e+02
<TRANSP> 5
 0.000000e+00 1.000000e+00 0.000000e+00 0.000000e+00 0.000000e+00
 0.000000e+00 6.943445e-01 3.056555e-01 0.000000e+00 0.000000e+00
 0.000000e+00 0.000000e+00 3.354014e-01 6.645985e-01 0.000000e+00
 0.000000e+00 0.000000e+00 0.000000e+00 2.777813e-01 7.222187e-01
 0.000000e+00 0.000000e+00 0.000000e+00 0.000000e+00 0.000000e+00
<ENDHMM>
~h "c"
<BEGINHMM>
<NUMSTATES> 5
<STATE> 2
<MEAN> 39
 -1.483395e+00 3.834314e+00 -1.263478e-02 1.458541e+00 -3.889371e+00 -1.990453e+00 -5.540355e+00 5.641554e-01 -3.139937e+00 -1.278516e+00 -2.039239e+00 -2.752361e+00 5.463341e+01 -2.394235e+00 2.225230e-01 2.770115e-01 -1.148816e+00 1.193589e+00 -6.241047e-01 7.578923e-01 -3.177283e-01 2.054408e-01 -1.828423e-01 4.103189e-01 1.780406e-01 9.570388e-01 -5.743525e-01 -1.957396e-01 5.582749e-01 -4.347084e-01 4.908642e-02 -6.089092e-01 -1.281862e-01 -7.642695e-02 2.183988e-01 -9.694643e-02 2.138182e-01 3.990339e-02 9.085383e-01
<VARIANCE> 39
 1.730726e+01 2.060941e+01 2.858129e+01 2.461049e+01 3.423705e+01 4.516158e+01 3.442966e+01 4.031741e+01 3.173677e+01 2.477077e+01 2.757387e+01 2.477159e+01 2.012191e+01 3.396382e+00 2.629992e+00 2.808270e+00 3.435437e+00 3.433907e+00 4.185281e+00 2.604780e+00 3.333730e+00 2.738475e+00 2.516917e+00 2.671410e+00 2.186022e+00 2.964686e+00 5.931982e-01 3.807675e-01 3.896692e-01 5.354819e-01 6.286228e-01 5.540797e-01 5.080138e-01 6.581356e-01 5.581807e-01 5.513412e-01 4.782485e-01 4.204881e-01 2.406292e-01
<GCONST> 1.195378e+02
<STATE> 3
<MEAN> 39
 -1.421944e+01 4.990722e+00 4.445109e+00 -4.638137e+00 7.527641e-01 -6.837068e+00 -2.770250e+00 -1.166821e+00 -9.185044e-01 -3.670166e+00 6.445968e-01 -1.674053e+00 6.246980e+01 -1.680344e-01 -1.040627e+00 1.433628e+00 -4.700412e-01 -9.391823e-01 -1.515559e+00 -8.442135e-01 2.683169e-01 6.373708e-01 -4.573661e-01 3.599409e-01 2.793236e-01 2.047263e+00 1.906115e+00 -7.052833e-01 -1.832807e-01 4.682140e-01 -9.359483e-01 3.267053e-01 -8.295342e-01 2.342928e-01 -1.192786e-01 2.243969e-01 -1.065356e-01 -2.270748e-01 -2.012307e-01
<VARIANCE> 39
 1.569213e+01 2.986997e+01 2.911088e+01 2.854754e+01 4.005746e+01 5.131715e+01 3.380548e+01 3.798410e+01 3.003483e+01 2.852687e+01 2.550256e+01 2.007435e+01 1.528559e+01 1.016145e+01 3.635832e+00 3.020155e+00 3.939728e+00 5.404186e+00 3.798525e+00 4.369050e+00 3.957366e+00 3.503700e+00 3.057685e+00 2.592123e+00 2.257960e+00 2.065297e+00 5.582029e-01 7.338074e-01 6.285405e-01 8.260428e-01 8.232554e-01 7.170694e-01 6.290995e-01 7.757618e-01 9.084696e-01 6.411887e-01 6.420183e-01 5.544108e-01 2.703822e-01
<GCONST> 1.262020e+02
<STATE> 4
<MEAN> 39
 -2.945179e+00 -2.986478e+00 6.541555e+00 -2.916317e+00 -7.115545e+00 -1.040857e+01 -1.082475e+01 1.927815e+00 1.372827e+00 -3.957421e+00 -2.648885e-01 -2.312192e+00 6.740596e+01 3.739659e+00 -2.759173e+00 -3.008213e-01 -3.018908e-01 -1.969387e+00 4.655421e-01 -2.317185e+00 6.030828e-01 1.770286e-01 7.931455e-01 5.587527e-01 -1.347334e+00 1.454343e+00 -9.306344e-02 4.397173e-01 -6.353520e-01 -1.175238e-01 5.196558e-01 9.678140e-01 5.282403e-01 -2.545727e-01 -5.045409e-01 3.060639e-01 1.220016e-01 -3.594979e-01 -6.837791e-01
<VARIANCE> 39
 1.595896e+01 3.284424e+01 4.114001e+01 2.743853e+01 2.835080e+01 3.873742e+01 5.626989e+01 5.513865e+01 3.550505e+01 3.164372e+01 1.949013e+01 1.777814e+01 2.118179e+01 2.280133e+00 4.008811e+00 3.618385e+00 2.889148e+00 4.053659e+00 3.584461e+00 3.973114e+00 6.590578e+00 5.034531e+00 3.843673e+00 3.555813e+00 3.077575e+00 1.215307e+00 9.525390e-01 5.612434e-01 4.314426e-01 5.203359e-01 6.083401e-01 6.461399e-01 7.571416e-01 6.086324e-01 6.351466e-01 5.626624e-01 5.472770e-01 5.569525e-01 2.953876e-01
<GCONST> 1.247211e+02
<TRANSP> 5
 0.000000e+00 1.000000e+00 0.000000e+00 0.000000e+00 0.000000e+00
 0.000000e+00 6.756331e-01 3.243669e-01 0.000000e+00 0.000000e+00
 0.000000e+00 0.000000e+00 6.501440e-01 3.498561e-01 0.000000e+00
 0.000000e+00 0.000000e+00 0.000000e+00 4.395477e-01 5.604523e-01
 0.000000e+00 0.000000e+00 0.000000e+00 0.000000e+00 0.000000e+00
<ENDHMM>
~h "d"
<BEGINHMM>
<NUMSTATES> 5
<STATE> 2
<MEAN> 39
 4.024456e+00 5.450255e+00 5.019903e+00 7.591762e+00 -7.020836e+00 -1.925556e+00 -7.732183e+00 7.890508e-01 -4.491041e+00 -2.500024e+00 -4.156618e+00 -5.300660e+00 5.581627e+01 -1.928576e-02 -1.236484e-01 2.461278e-01 1.686394e-01 8.183856e-02 -1.975559e-01 -1.207153e-01 -2.930598e-02 3.674497e-02 -3.685022e-01 1.707881e-01 2.967630e-01 1.440320e-01 -3.678568e-01 -9.647280e-01 5.544639e-01 -8.669960e-01 -5.171086e-01 -5.610609e-01 -6.482025e-01 3.080754e-02 1.892125e-02 4.400031e-02 7.524759e-01 8.488733e-02 9.578296e-01
<VARIANCE> 39
 7.068403e+00 2.942812e+01 3.121054e+01 2.049190e+01 3.659070e+01 2.709157e+01 3.610729e+01 4.976622e+01 3.171949e+01 2.756655e+01 3.562178e+01 2.838317e+01 1.428116e+01 9.074674e-01 2.827287e+00 2.704495e+00 2.411947e+00 2.926625e+00 3.322998e+00 3.695160e+00 3.953758e+00 3.086643e+00 2.452050e+00 3.209505e+00 2.362614e+00 1.945940e+00 1.463050e-01 3.197554e-01 5.617788e-01 4.302698e-01 5.796283e-01 6.248911e-01 7.794541e-01 1.091130e+00 7.139806e-01 5.578266e-01 5.988063e-01 4.990778e-01 2.206279e-01
<GCONST> 1.174098e+02
<STATE> 3
<MEAN> 39
 2.601593e+00 1.177785e+00 6.395083e+00 6.082478e+00 -6.748185e+00 -3.103580e+00 -8.955727e+00 -4.612974e-01 -4.264132e+00 -3.381264e+00 -2.543882e+00 -3.400382e+00 5.886781e+01 -8.339403e-01 -2.571371e+00 2.072684e+00 -2.196282e+00 -1.710602e+00 -1.912834e+00 -2.302694e+00 4.501105e-01 5.222624e-02 -9.378153e-02 2.313110e+00 1.894113e-01 2.750331e+00 -1.428124e-01 -2.328581e-01 2.427528e-01 -7.490737e-01 -4.701088e-01 -2.183746e-01 -4.303984e-01 3.455086e-01 -7.917752e-02 3.583675e-01 4.646750e-01 -4.689993e-01 5.366517e-01
<VARIANCE> 39
 1.035316e+01 3.393197e+01 3.792462e+01 3.388591e+01 3.778001e+01 4.261692e+01 5.386642e+01 5.891589e+01 4.043555e+01 3.289441e+01 3.071942e+01 3.140703e+01 2.036367e+01 1.197078e+00 2.620286e+00 5.323075e+00 3.346227e+00 3.853696e+00 4.520813e+00 5.643850e+00 1.008019e+01 6.668679e+00 4.554554e+00 5.146954e+00 3.590219e+00 1.346853e+00 1.442104e-01 4.240116e-01 5.052647e-01 5.444806e-01 7.618856e-01 8.308956e-01 7.933105e-01 9.850096e-01 7.555242e-01 7.197844e-01 7.157848e-01 5.951239e-01 2.375398e-01
<GCONST> 1.270838e+02
<STATE> 4
<MEAN> 39
 1.426792e+00 -4.959214e+00 1.069434e+01 -7.201494e-01 -1.211267e+01 -9.007133e+00 -1.591491e+01 3.507114e+00 -3.138257e+00 -2.210668e+00 3.197803e+00 -4.482950e+00 6.591885e+01 -7.194693e-01 -1.751831e+00 1.122032e+00 -2.690138e+00 -1.537671e+00 -1.256799e+00 -1.676582e+00 1.332231e+00 2.167168e-01 7.296512e-01 1.824256e+00 -1.183666e+00 2.473147e+00 1.295160e-01 7.226692e-01 -5.674327e-01 3.071718e-01 4.499590e-01 6.559110e-01 6.593691e-01 -1.814494e-01 -1.334308e-01 1.931302e-01 -5.859660e-01 -3.651361e-01 -5.830594e-01
<VARIANCE> 39
 9.980134e+00 3.044574e+01 5.207254e+01 3.893122e+01 4.002478e+01 5.214411e+01 8.269485e+01 1.132137e+02 7.724710e+01 5.046449e+01 4.279522e+01 5.362914e+01 1.793366e+01 1.061454e+00 2.570194e+00 5.629606e+00 3.215255e+00 3.976074e+00 4.940474e+00 4.951830e+00 8.660460e+00 5.981960e+00 5.474359e+00 6.051492e+00 3.915201e+00 1.585055e+00 1.147169e-01 3.354965e-01 4.469002e-01 6.039578e-01 7.547373e-01 8.305304e-01 1.083200e+00 1.257329e+00 9.127516e-01 6.519753e-01 7.092612e-01 6.416222e-01 2.300599e-01
<GCONST> 1.309390e+02
<TRANSP> 5
 0.000000e+00 1.000000e+00 0.000000e+00 0.000000e+00 0.000000e+00
 0.000000e+00 6.063118e-01 3.936882e-01 0.000000e+00 0.000000e+00
 0.000000e+00 0.000000e+00 1.969492e-01 8.030508e-01 0.000000e+00
 0.000000e+00 0.000000e+00 0.000000e+00 3.476021e-01 6.523979e-01
 0.000000e+00 0.000000e+00 0.000000e+00 0.000000e+00 0.000000e+00
<ENDHMM>
~h "e"
<BEGINHMM>
<NUMSTATES> 5
<STATE> 2
<MEAN> 39
 4.308155e-01 -6.847046e+00 6.849062e+00 -1.875292e+00 -1.076133e+01 -8.825133e+00 -7.238223e+00 5.789047e+00 -4.344976e+00 -6.951929e-01 1.658787e+00 -6.680596e+00 6.644001e+01 1.955691e-01 -1.455597e+00 1.434005e+00 -1.170982e+00 -1.430118e+00 -6.263933e-01 -3.180310e-01 1.665097e+00 -2.035297e-01 -2.875128e-01 7.251310e-01 -4.480687e-01 1.548855e+00 -1.750800e-01 5.310795e-01 -3.565384e-01 2.282796e-01 5.250602e-01 3.879347e-01 3.287194e-01 -4.238311e-01 -7.513747e-02 4.806016e-02 -2.442369e-01 2.323799e-01 -5.175737e-01
<VARIANCE> 39
 1.361082e+01 3.353582e+01 5.572143e+01 3.366509e+01 4.584726e+01 7.408994e+01 9.345169e+01 5.950180e+01 8.321970e+01 7.412057e+01 5.033023e+01 3.903175e+01 2.970286e+01 1.456249e+00 2.072254e+00 4.059828e+00 2.338722e+00 4.261597e+00 4.167725e+00 4.971942e+00 4.991847e+00 4.036617e+00 4.871374e+00 4.217611e+00 2.842896e+00 1.934060e+00 2.561414e-01 4.836086e-01 7.503894e-01 4.520694e-01 6.922592e-01 7.020041e-01 8.786505e-01 8.691815e-01 8.130945e-01 7.686682e-01 6.563419e-01 5.271499e-01 3.585182e-01
<GCONST> 1.306414e+02
<STATE> 3
<MEAN> 39
 3.291763e-01 -9.399529e+00 7.434293e+00 -4.511298e+00 -1.180894e+01 -8.423755e+00 -8.222308e+00 8.405788e+00 -3.644724e+00 -2.100296e+00 2.206294e+00 -8.488321e+00 6.909242e+01 1.792571e-01 5.632488e-01 -3.085614e-01 5.471838e-01 3.403593e-01 3.056249e-01 2.107068e-01 -3.985706e-01 -1.369234e-01 9.826513e-02 -4.199398e-01 1.726392e-01 -5.696363e-01 1.133321e-02 5.829469e-01 -2.772711e-01 5.257145e-01 3.253667e-01 2.092736e-01 1.407734e-01 -6.181266e-01 -1.310549e-02 1.072835e-01 -2.048912e-01 1.738393e-01 -5.288402e-01
<VARIANCE> 39
 7.595900e+00 2.664107e+01 4.281398e+01 2.975226e+01 3.996918e+01 9.057318e+01 7.232039e+01 7.306419e+01 8.080654e+01 7.633392e+01 4.944056e+01 4.011557e+01 1.550414e+01 5.291423e-01 1.446777e+00 1.398156e+00 2.106704e+00 2.203128e+00 2.166754e+00 2.897311e+00 2.941917e+00 2.507520e+00 2.870467e+00 2.184012e+00 1.618554e+00 1.140159e+00 1.518857e-01 2.813102e-01 3.689947e-01 3.183951e-01 4.124061e-01 4.528063e-01 6.175906e-01 6.358601e-01 5.398577e-01 6.585664e-01 4.654625e-01 3.695845e-01 1.511789e-01
<GCONST> 1.152607e+02
<STATE> 4
<MEAN> 39
 -4.329617e-01 -3.867905e+00 1.050059e+01 -2.365216e+00 -1.166818e+01 -8.555541e+00 -4.838703e+00 4.421910e+00 -8.188606e+00 2.924682e+00 3.286710e+00 -4.835391e+00 6.391833e+01 2.641007e-02 7.715194e-01 -4.438821e-01 7.718753e-01 4.443488e-01 5.690767e-01 4.430380e-01 -5.232416e-01 5.900121e-02 -9.795173e-03 -3.737005e-01 2.449641e-01 -8.886376e-01 -5.597353e-02 2.836423e-02 -2.925794e-02 -2.129408e-02 5.149808e-02 6.030047e-02 2.266880e-02 -3.987030e-02 3.388567e-03 -3.514417e-02 -8.817322e-03 1.657653e-02 -9.260099e-03
<VARIANCE> 39
 9.054248e+00 2.182376e+01 6.548158e+01 4.899926e+01 4.340166e+01 5.528085e+01 4.966971e+01 4.841678e+01 4.993758e+01 5.652521e+01 7.180641e+01 3.194537e+01 2.581596e+01 4.448223e-01 1.455591e+00 1.538900e+00 1.684682e+00 1.858195e+00 1.666767e+00 2.123348e+00 2.554994e+00 2.155643e+00 2.091642e+00 1.796382e+00 1.565914e+00 9.129611e-01 9.969736e-02 1.692066e-01 2.451470e-01 2.238197e-01 3.001667e-01 2.727793e-01 3.544014e-01 3.876305e-01 3.754839e-01 3.562301e-01 2.717596e-01 2.649331e-01 9.368075e-02
<GCONST> 1.068451e+02
<TRANSP> 5
 0.000000e+00 1.000000e+00 0.000000e+00 0.000000e+00 0.000000e+00
 0.000000e+00 5.177795e-01 4.822206e-01 0.000000e+00 0.000000e+00
 0.000000e+00 0.000000e+00 6.438960e-01 3.561040e-01 0.000000e+00
 0.000000e+00 0.000000e+00 0.000000e+00 7.606717e-01 2.393283e-01
 0.000000e+00 0.000000e+00 0.000000e+00 0.000000e+00 0.000000e+00
<ENDHMM>
~h "f"
<BEGINHMM>
<NUMSTATES> 5
<STATE> 2
<MEAN> 39
 -6.738045e+00 1.274995e+00 9.905761e-01 5.119659e-01 -3.462674e+00 -3.808471e+00 -2.692103e+00 -2.181173e+00 -1.273565e+00 -1.914610e+00 -1.303314e+00 -4.452918e+00 5.981845e+01 -1.243243e+00 1.359453e-01 -6.133770e-02 1.649360e-01 3.933067e-01 -4.919009e-01 2.301157e-01 4.988313e-02 6.163588e-01 -1.625257e-01 -3.386830e-01 2.560327e-01 -1.457123e-01 3.501272e-01 -3.334630e-01 2.227120e-01 7.556160e-02 -2.440604e-01 -1.866148e-02 -2.477257e-01 1.103837e-01 -7.311150e-02 -1.016106e-02 1.596907e-01 -6.861138e-02 2.408399e-01
<VARIANCE> 39
 1.760574e+01 1.104513e+01 4.144724e+01 2.280154e+01 2.727287e+01 4.635320e+01 2.818194e+01 2.987805e+01 3.531912e+01 2.810669e+01 2.113717e+01 2.093083e+01 1.179296e+01 1.670775e+00 1.254636e+00 1.528189e+00 1.723240e+00 1.893300e+00 2.713390e+00 1.987300e+00 2.612075e+00 2.560613e+00 2.200616e+00 1.769626e+00 1.766067e+00 6.324881e-01 3.102100e-01 2.045847e-01 3.078996e-01 3.058426e-01 4.955375e-01 5.605823e-01 5.305354e-01 4.995196e-01 5.853800e-01 4.130565e-01 4.147395e-01 3.609545e-01 1.218387e-01
<GCONST> 1.073865e+02
<STATE> 3
<MEAN> 39
 -9.578394e+00 -6.991258e-01 3.020401e+00 3.894593e+00 -1.567218e+00 -6.728811e+00 -3.211102e+00 -1.375730e+00 1.919492e+00 -1.536058e+00 -2.407406e+00 -3.285822e+00 6.018642e+01 1.807865e+00 -1.063708e+00 1.806053e+00 4.546999e-01 -1.474876e+00 -1.385894e+00 -2.046860e+00 8.010621e-02 -7.328357e-01 -5.644156e-01 1.090977e+00 1.834823e-01 8.101852e-01 8.817106e-01 -1.624704e-01 7.008789e-01 -4.353589e-01 -1.189147e+00 -6.060441e-02 -8.336453e-01 1.089568e-01 -6.967133e-01 -2.811479e-01 8.318133e-01 -2.299263e-01 4.288263e-01
<VARIANCE> 39
 1.724312e+01 9.754453e+00 3.396827e+01 2.288773e+01 2.220658e+01 4.113159e+01 2.690424e+01 1.994832e+01 3.453430e+01 1.834302e+01 1.892793e+01 1.929081e+01 8.843493e+00 2.168335e+00 1.240755e+00 3.782997e+00 1.802588e+00 3.417233e+00 3.639421e+00 3.802102e+00 2.647085e+00 3.841555e+00 3.233170e+00 2.922005e+00 2.141288e+00 1.070812e+00 2.445951e-01 3.344525e-01 5.647725e-01 3.412483e-01 3.898763e-01 5.418959e-01 6.077732e-01 5.273096e-01 7.064880e-01 6.052682e-01 5.070837e-01 4.342019e-01 1.273540e-01
<GCONST> 1.119866e+02
<STATE> 4
<MEAN> 39
 -1.061289e+00 -2.117735e+00 9.849306e+00 4.122005e+00 -9.533806e+00 -1.074759e+01 -1.160047e+01 -8.284554e-01 -3.852555e+00 -4.993688e+00 2.746096e+00 -3.629615e+00 6.273536e+01 2.552522e+00 -1.438022e+00 2.776053e+00 -1.008544e+00 -3.798135e+00 -6.504074e-01 -3.053526e+00 7.228974e-01 -1.638620e+00 -1.141558e+00 2.862492e+00 -8.280196e-01 1.825512e+00 -5.332549e-01 -3.509224e-02 -2.237446e-01 -5.455493e-01 3.194999e-02 4.648649e-01 3.256130e-01 1.183398e-01 3.055102e-01 2.871671e-01 2.015328e-02 -3.990665e-01 1.436487e-01
<VARIANCE> 39
 1.053594e+01 1.365808e+01 8.495074e+01 2.921741e+01 3.559404e+01 4.407236e+01 5.630774e+01 2.337262e+01 2.789347e+01 3.655463e+01 2.809932e+01 2.029066e+01 1.299827e+01 1.093795e+00 2.106821e+00 6.903214e+00 2.202158e+00 2.958044e+00 3.998226e+00 5.016050e+00 3.607077e+00 5.901219e+00 4.462689e+00 3.952691e+00 3.002762e+00 1.297100e+00 2.125700e-01 1.669596e-01 5.076476e-01 3.107503e-01 5.611827e-01 5.111583e-01 5.586608e-01 4.217080e-01 5.079701e-01 4.344653e-01 6.191850e-01 3.245609e-01 1.315657e-01
<GCONST> 1.167451e+02
<TRANSP> 5
 0.000000e+00 1.000000e+00 0.000000e+00 0.000000e+00 0.000000e+00
 0.000000e+00 8.275174e-01 1.724826e-01 0.000000e+00 0.000000e+00
 0.000000e+00 0.000000e+00 5.300002e-01 4.699999e-01 0.000000e+00
 0.000000e+00 0.000000e+00 0.000000e+00 3.256766e-01 6.743234e-01
 0.000000e+00 0.000000e+00 0.000000e+00 0.000000e+00 0.000000e+00
<ENDHMM>
~h "g"
<BEGINHMM>
<NUMSTATES> 5
<STATE> 2
<MEAN> 39
 3.604388e+00 5.998515e+00 4.201274e+00 4.525567e+00 -6.036499e+00 2.629873e-01 -7.897695e+00 -1.778794e+00 -7.506388e+00 -4.947715e-01 -1.824742e+00 -6.361131e+00 5.599172e+01 -5.829437e-01 -4.412600e-01 2.123929e-01 -7.185870e-01 9.714832e-01 -7.251252e-01 -5.536376e-01 2.999946e-02 1.935011e-01 1.426048e-01 1.139914e-01 2.211541e-02 6.093478e-01 -3.293937e-01 -6.003002e-01 5.591670e-01 -7.789334e-01 -2.775718e-01 -4.956877e-01 -6.690436e-01 1.588121e-02 5.133562e-02 1.151528e-01 6.677900e-01 -2.564660e-01 8.448803e-01
<VARIANCE> 39
 7.371640e+00 2.361857e+01 3.094781e+01 2.747366e+01 4.861845e+01 3.450892e+01 4.052733e+01 3.910390e+01 3.560954e+01 3.124348e+01 3.539072e+01 3.124825e+01 1.401218e+01 1.244252e+00 2.531735e+00 4.042187e+00 3.556916e+00 4.148860e+00 4.232024e+00 4.480418e+00 3.966444e+00 3.925453e+00 3.251013e+00 3.495800e+00 2.736949e+00 1.967745e+00 1.813130e-01 3.435647e-01 5.838525e-01 4.862978e-01 8.685118e-01 5.623801e-01 6.128774e-01 7.648370e-01 7.383991e-01 6.090378e-01 7.471969e-01 4.822406e-01 1.927460e-01
<GCONST> 1.211011e+02
<STATE> 3
<MEAN> 39
 3.480659e-01 1.309626e+00 7.159290e+00 -1.351450e+00 -3.568323e+00 -4.765493e+00 -1.319129e+01 -2.454044e+00 -7.749155e+00 1.034609e+00 1.908602e+00 -8.118044e+00 6.223640e+01 -8.456649e-01 -1.443181e+00 1.560000e+00 -2.179172e+00 -1.424804e+00 -1.832171e+00 -1.979758e+00 5.254907e-01 7.278970e-01 3.154090e-01 2.175093e+00 -1.096247e+00 2.464600e+00 1.879639e-01 -7.868806e-02 -2.332715e-02 4.246380e-02 -8.664930e-01 2.886041e-01 2.256709e-01 3.030355e-01 2.830963e-01 -4.115755e-02 8.082397e-02 -1.393237e-01 6.611278e-02
<VARIANCE> 39
 1.555978e+01 3.136151e+01 5.738737e+01 3.892363e+01 6.507760e+01 5.860503e+01 7.481377e+01 4.548260e+01 5.418453e+01 5.209046e+01 7.121312e+01 4.289296e+01 1.516745e+01 1.322374e+00 2.851125e+00 5.179690e+00 3.266211e+00 6.665610e+00 3.963407e+00 4.776440e+00 6.685482e+00 5.789847e+00 4.943653e+00 5.449629e+00 3.213284e+00 1.532273e+00 1.729044e-01 4.142708e-01 6.154600e-01 6.217273e-01 1.120249e+00 9.240475e-01 1.026585e+00 8.634290e-01 9.315369e-01 7.126780e-01 1.157019e+00 6.532755e-01 2.067990e-01
<GCONST> 1.322351e+02
<STATE> 4
<MEAN> 39
 6.777418e-02 -2.113543e+00 8.569574e+00 -4.881797e+00 -1.088991e+01 -7.032069e+00 -1.571678e+01 1.071797e+00 -3.737824e+00 1.423200e+00 7.194321e+00 -1.158519e+01 6.724171e+01 -2.832755e-01 -1.411091e+00 2.218850e-01 -1.457216e+00 -1.494603e+00 -1.583346e-01 -1.345955e-01 1.282754e+00 1.169450e+00 1.910202e-01 4.215946e-01 -7.137661e-01 1.622123e+00 2.565252e-01 1.894659e-01 -4.595860e-01 5.659233e-01 4.069471e-01 5.409387e-01 5.550418e-01 -6.844413e-02 -2.946433e-01 -9.793869e-02 -7.856675e-01 3.304304e-01 -5.778368e-01
<VARIANCE> 39
 1.247381e+01 3.947594e+01 5.553793e+01 3.183302e+01 5.905933e+01 5.229850e+01 6.961839e+01 6.102060e+01 7.101791e+01 6.626566e+01 7.949174e+01 5.219516e+01 2.209385e+01 8.296730e-01 1.660492e+00 5.184949e+00 2.812222e+00 4.834063e+00 3.659659e+00 3.935067e+00 5.413050e+00 5.550168e+00 4.040797e+00 7.003309e+00 3.185363e+00 1.043323e+00 1.760289e-01 2.601218e-01 5.619761e-01 4.193429e-01 1.001301e+00 6.969307e-01 9.719657e-01 8.506441e-01 7.650192e-01 6.629835e-01 1.143498e+00 5.491833e-01 1.598987e-01
<GCONST> 1.287596e+02
<TRANSP> 5
 0.000000e+00 1.000000e+00 0.000000e+00 0.000000e+00 0.000000e+00
 0.000000e+00 6.340422e-01 3.659578e-01 0.000000e+00 0.000000e+00
 0.000000e+00 0.000000e+00 4.067727e-01 5.932272e-01 0.000000e+00
 0.000000e+00 0.000000e+00 0.000000e+00 3.853764e-01 6.146235e-01
 0.000000e+00 0.000000e+00 0.000000e+00 0.000000e+00 0.000000e+00
<ENDHMM>
~h "h"
<BEGINHMM>
<NUMSTATES> 5
<STATE> 2
<MEAN> 39
 -2.651194e-01 -4.198527e+00 2.831089e+00 -2.544823e+00 -3.307445e+00 -2.572271e+00 -4.264281e+00 3.163040e+00 -3.725071e+00 -9.308610e-01 -3.369702e+00 -5.800844e+00 6.499451e+01 -3.201683e-01 1.964792e-01 -1.290294e-01 6.518448e-01 7.434525e-01 2.125710e-01 7.561120e-01 -1.893684e-01 9.697530e-02 -2.618396e-01 -4.106622e-01 3.443478e-01 -5.035276e-01 4.873829e-02 -1.019824e-01 -4.119782e-03 -1.047999e-01 -2.495483e-01 -5.137943e-02 -2.368761e-01 -5.774474e-02 -3.611394e-02 2.038467e-02 2.048708e-01 -1.000258e-01 1.265151e-02
<VARIANCE> 39
 1.314621e+01 3.702796e+01 5.273444e+01 4.571891e+01 6.405788e+01 9.803972e+01 6.715521e+01 6.803854e+01 6.912466e+01 4.890706e+01 5.263478e+01 4.346631e+01 3.494091e+01 8.979163e-01 1.774257e+00 2.092159e+00 2.031207e+00 2.578789e+00 2.852625e+00 2.525625e+00 3.099480e+00 2.735506e+00 2.007968e+00 2.276938e+00 1.820803e+00 1.186023e+00 1.163984e-01 3.164403e-01 2.879732e-01 3.398951e-01 4.403501e-01 4.775497e-01 4.880736e-01 5.000594e-01 4.666220e-01 3.784428e-01 4.142543e-01 3.720901e-01 1.392798e-01
<GCONST> 1.173318e+02
<STATE> 3
<MEAN> 39
 -1.319996e+00 -5.845471e+00 -4.156398e-01 -8.204724e-01 6.474345e-01 -1.823952e+00 -1.598112e+00 1.963046e+00 -1.258022e+00 -2.027182e+00 -5.892086e+00 -5.082167e+00 6.372062e+01 5.066691e-02 1.909095e-01 -1.404528e-01 2.787834e-01 -1.770088e-01 1.941994e-05 -2.315037e-03 -1.184905e-01 -5.693467e-02 2.470009e-02 1.050368e-01 3.068026e-02 -5.087911e-01 9.101006e-02 3.122979e-02 -1.249853e-03 -7.078272e-02 -1.790654e-01 -2.446745e-02 -1.397454e-01 2.193648e-03 -5.378621e-02 3.381006e-02 8.359299e-02 -6.046771e-02 1.947611e-02
<VARIANCE> 39
 1.989464e+01 2.974532e+01 3.893347e+01 2.897881e+01 4.925323e+01 4.902476e+01 6.945786e+01 5.093350e+01 6.659762e+01 4.597125e+01 5.203083e+01 3.007263e+01 2.854069e+01 5.959960e-01 1.001135e+00 1.270173e+00 1.301644e+00 1.585668e+00 1.999804e+00 1.849396e+00 2.005931e+00 1.938880e+00 1.902254e+00 1.759432e+00 1.525511e+00 7.649311e-01 9.868576e-02 1.764105e-01 1.988399e-01 2.401640e-01 3.086083e-01 3.332080e-01 3.793463e-01 3.802360e-01 3.738368e-01 3.320944e-01 3.416967e-01 2.895714e-01 7.176857e-02
<GCONST> 1.059215e+02
<STATE> 4
<MEAN> 39
 -3.453200e-01 -9.715983e-02 1.290351e+00 1.925740e+00 -4.319788e+00 -1.545060e+00 -3.128929e+00 5.049592e-01 -6.058886e+00 -2.549261e-01 -2.245605e+00 -3.136716e+00 5.758688e+01 2.085076e-01 3.247808e-01 -3.027396e-01 2.758962e-01 -3.558362e-01 1.397970e-01 -1.904704e-01 -4.841248e-02 -4.527115e-02 -1.323575e-01 2.087205e-01 -4.654156e-02 -4.366987e-01 -3.532907e-02 -9.474017e-02 8.473425e-02 -1.421333e-01 -1.750223e-02 -2.365171e-02 -8.465682e-02 6.195749e-02 6.949608e-02 -2.852662e-02 6.324069e-02 -6.926249e-02 1.879351e-01
<VARIANCE> 39
 1.187311e+01 2.992499e+01 5.649480e+01 3.398892e+01 5.013554e+01 5.698884e+01 4.412391e+01 4.232220e+01 4.576009e+01 3.576814e+01 3.609953e+01 3.055656e+01 3.381666e+01 7.990987e-01 1.525286e+00 1.888436e+00 2.051276e+00 2.301651e+00 2.480936e+00 2.505898e+00 2.707099e+00 2.563698e+00 2.157080e+00 2.206325e+00 2.159958e+00 1.132494e+00 1.038036e-01 2.188302e-01 2.871805e-01 3.429615e-01 3.924178e-01 4.344200e-01 4.314773e-01 5.012338e-01 4.557779e-01 4.149633e-01 4.170282e-01 3.748788e-01 1.373142e-01
<GCONST> 1.122231e+02
<TRANSP> 5
 0.000000e+00 1.000000e+00 0.000000e+00 0.000000e+00 0.000000e+00
 0.000000e+00 4.209264e-01 5.790736e-01 0.000000e+00 0.000000e+00
 0.000000e+00 0.000000e+00 7.071105e-01 2.928896e-01 0.000000e+00
 0.000000e+00 0.000000e+00 0.000000e+00 5.784938e-01 4.215062e-01
 0.000000e+00 0.000000e+00 0.000000e+00 0.000000e+00 0.000000e+00
<ENDHMM>
~h "i"
<BEGINHMM>
<NUMSTATES> 5
<STATE> 2
<MEAN> 39
 -1.761586e+00 -1.090527e+00 1.708471e+01 -1.351950e+00 -1.528453e+01 -8.484968e+00 -1.155030e+01 -9.954124e-01 -1.065209e+01 -3.258211e+00 6.267371e+00 -6.499610e+00 6.523363e+01 -9.174268e-02 -5.005020e-01 2.561304e+00 -1.079477e+00 -2.219775e+00 -3.165123e-01 -1.492420e+00 4.997823e-01 -1.112813e+00 -2.687779e-01 1.836609e+00 -5.958216e-01 1.155563e+00 1.116500e-02 3.330069e-01 -9.864975e-01 1.779966e-01 7.240570e-01 4.855181e-01 4.235263e-01 1.583342e-02 4.117414e-01 2.627724e-01 -5.765023e-01 4.715531e-02 -4.775994e-01
<VARIANCE> 39
 1.093564e+01 3.071805e+01 4.424983e+01 4.171297e+01 4.361190e+01 5.385288e+01 5.610738e+01 6.042324e+01 5.421668e+01 5.831057e+01 4.637997e+01 3.170277e+01 1.596404e+01 2.256788e+00 2.093003e+00 4.705230e+00 3.736837e+00 4.126314e+00 4.210080e+00 5.111436e+00 5.051535e+00 5.201858e+00 4.546151e+00 3.911874e+00 2.825708e+00 1.397398e+00 3.101478e-01 3.350115e-01 8.723459e-01 6.503838e-01 8.080473e-01 7.127864e-01 8.128859e-01 8.733969e-01 8.044025e-01 6.794760e-01 7.012222e-01 5.126756e-01 2.709084e-01
<GCONST> 1.287952e+02
<STATE> 3
<MEAN> 39
 -2.939976e+00 -9.013134e-01 2.017546e+01 -3.840119e+00 -1.828631e+01 -7.166597e+00 -1.328319e+01 -1.450037e-01 -1.147976e+01 -3.808506e+00 9.094317e+00 -8.705908e+00 6.660372e+01 1.970367e-01 1.845598e-01 -6.379509e-01 1.486910e-01 4.654100e-01 1.139132e-01 2.814209e-01 1.725320e-01 1.518235e-01 3.798129e-01 -4.932847e-01 8.003636e-02 -3.241375e-01 1.473152e-01 1.621138e-01 -7.591552e-01 3.921882e-01 6.445729e-01 1.534119e-01 4.095153e-01 -1.121268e-01 2.448570e-01 1.084653e-01 -5.898331e-01 1.691184e-01 -4.152128e-01
<VARIANCE> 39
 7.972314e+00 3.103436e+01 3.534871e+01 3.948783e+01 3.789194e+01 5.542614e+01 5.549670e+01 7.024166e+01 5.854601e+01 6.574210e+01 4.692049e+01 3.506948e+01 1.117160e+01 7.687082e-01 1.537163e+00 2.640520e+00 2.281255e+00 2.412855e+00 2.773760e+00 2.719016e+00 3.236332e+00 2.605721e+00 2.171447e+00 2.274891e+00 1.950010e+00 1.006553e+00 1.496005e-01 2.413558e-01 5.473648e-01 4.062456e-01 5.431991e-01 5.675686e-01 6.171749e-01 6.795847e-01 6.086847e-01 5.245023e-01 5.475282e-01 4.021516e-01 1.786242e-01
<GCONST> 1.164423e+02
<STATE> 4
<MEAN> 39
 -7.334000e-01 2.342775e+00 1.317752e+01 -7.288251e-01 -1.118402e+01 -4.141578e+00 -9.737522e+00 -1.991764e+00 -1.050374e+01 -2.354892e-01 1.719236e+00 -5.204050e+00 6.005827e+01 2.974381e-01 5.091304e-01 -1.607005e+00 8.963203e-01 9.978793e-01 6.897448e-01 7.920855e-01 -1.623369e-01 4.051469e-01 1.392592e-01 -9.090200e-01 2.922544e-01 -1.132335e+00 -9.612492e-02 -4.750794e-02 -2.671990e-02 -4.385613e-02 -3.970815e-02 5.066666e-02 2.455297e-02 -4.825754e-02 5.962325e-02 -5.918337e-02 6.062618e-02 -2.738397e-02 5.623890e-02
<VARIANCE> 39
 9.154757e+00 2.943665e+01 4.218487e+01 4.272565e+01 3.994802e+01 5.768929e+01 4.746388e+01 5.358209e+01 4.758904e+01 4.904388e+01 4.263688e+01 3.180037e+01 2.516801e+01 7.759324e-01 1.370901e+00 2.366166e+00 2.167225e+00 2.605165e+00 2.811510e+00 2.979775e+00 3.070243e+00 3.086112e+00 2.648390e+00 2.651459e+00 2.092027e+00 1.143119e+00 1.116105e-01 1.994459e-01 4.036724e-01 3.625360e-01 4.489519e-01 5.247864e-01 5.038536e-01 5.056716e-01 4.909766e-01 4.254869e-01 3.970718e-01 3.416380e-01 1.554094e-01
<GCONST> 1.144318e+02
<TRANSP> 5
 0.000000e+00 1.000000e+00 0.000000e+00 0.000000e+00 0.000000e+00
 0.000000e+00 4.572169e-01 5.427832e-01 0.000000e+00 0.000000e+00
 0.000000e+00 0.000000e+00 6.683115e-01 3.316886e-01 0.000000e+00
 0.000000e+00 0.000000e+00 0.000000e+00 6.949260e-01 3.050740e-01
 0.000000e+00 0.000000e+00 0.000000e+00 0.000000e+00 0.000000e+00
<ENDHMM>
~h "j"
<BEGINHMM>
<NUMSTATES> 5
<STATE> 2
<MEAN> 39
 1.910148e+00 6.394443e+00 5.292596e+00 5.012218e+00 -4.101388e+00 -1.151448e+00 -6.173853e+00 7.365727e-01 -4.370066e+00 -1.995342e+00 -2.682299e+00 -3.457842e+00 5.585041e+01 -1.226536e+00 3.629768e-01 7.510743e-01 -8.651088e-01 9.238682e-01 -6.953751e-01 1.758755e-01 -6.562096e-01 4.868768e-02 -4.052880e-01 3.480307e-01 4.355546e-01 5.434116e-01 -4.749275e-01 -4.643143e-01 7.713665e-01 -6.209810e-01 -3.979333e-01 -7.611325e-01 -5.881733e-01 -1.333591e-01 -2.180931e-01 -9.795958e-02 4.758726e-01 1.842412e-01 8.237436e-01
<VARIANCE> 39
 1.226432e+01 2.425765e+01 2.812642e+01 2.520619e+01 3.719155e+01 3.237446e+01 3.339886e+01 3.789912e+01 2.783284e+01 2.393964e+01 2.522113e+01 2.419334e+01 1.605626e+01 2.412704e+00 2.022552e+00 3.653165e+00 3.259426e+00 3.359786e+00 4.645387e+00 3.133178e+00 3.331010e+00 2.614805e+00 2.706684e+00 2.230639e+00 2.083417e+00 1.982159e+00 3.332562e-01 3.405102e-01 3.922516e-01 4.662475e-01 8.371125e-01 6.226279e-01 6.389230e-01 5.686961e-01 5.290771e-01 5.741896e-01 4.743236e-01 4.145250e-01 1.886746e-01
<GCONST> 1.171730e+02
<STATE> 3
<MEAN> 39
 -5.555214e+00 6.133051e+00 1.268552e+01 -1.237858e+00 -3.686044e+00 -7.229880e+00 -7.313437e+00 -3.687777e+00 -5.982106e+00 -4.475184e+00 7.896627e-01 -1.009416e+00 6.221162e+01 -4.609930e-01 -1.452593e+00 2.603874e+00 -9.421357e-01 -2.475035e+00 -2.254741e+00 -2.303842e+00 1.239080e-01 -8.455043e-01 -1.517736e-01 1.725021e+00 4.737239e-01 2.226178e+00 8.652660e-01 -5.718288e-01 -5.094321e-01 2.687986e-01 -6.464496e-01 2.429127e-01 -5.756916e-01 7.132370e-01 4.299310e-02 4.863321e-01 6.394869e-02 -3.536513e-01 -4.375445e-02
<VARIANCE> 39
 1.930352e+01 3.280297e+01 4.493385e+01 2.847178e+01 5.385991e+01 5.066055e+01 5.205235e+01 3.840764e+01 3.127209e+01 3.199363e+01 2.741957e+01 2.402604e+01 1.487425e+01 3.147331e+00 2.868754e+00 3.221951e+00 3.791723e+00 4.575581e+00 4.128251e+00 4.311520e+00 4.648917e+00 3.391427e+00 3.577710e+00 3.141741e+00 2.603790e+00 1.347096e+00 3.458865e-01 5.177962e-01 7.706844e-01 5.999020e-01 1.201629e+00 9.965360e-01 8.006896e-01 7.453673e-01 6.954383e-01 6.180788e-01 6.932793e-01 5.907114e-01 2.198334e-01
<GCONST> 1.263487e+02
<STATE> 4
<MEAN> 39
 -1.543664e+00 -2.310845e+00 1.584108e+01 -2.566879e+00 -1.321380e+01 -1.204132e+01 -1.670868e+01 3.700423e+00 -6.731540e+00 -2.174777e+00 5.107100e+00 -1.915721e+00 6.765729e+01 9.191364e-01 -1.783213e+00 -1.019688e+00 -7.567560e-01 -7.516218e-01 -1.522124e-01 -1.462051e+00 1.673795e+00 6.004570e-01 1.174253e+00 3.633795e-01 -1.142305e+00 1.029208e+00 1.201590e-01 5.059928e-01 -9.670721e-01 1.004828e-01 1.050225e+00 8.707952e-01 8.262037e-01 -2.395877e-01 2.010303e-01 1.179751e-01 -6.178958e-01 -3.474579e-01 -6.480306e-01
<VARIANCE> 39
 6.131683e+00 2.420291e+01 3.427895e+01 3.859250e+01 3.115395e+01 2.618649e+01 5.542476e+01 6.211183e+01 4.674772e+01 6.505082e+01 3.650172e+01 2.898239e+01 1.704727e+01 8.784872e-01 2.097416e+00 3.508891e+00 2.094847e+00 4.827921e+00 3.252254e+00 5.327251e+00 4.083129e+00 3.854414e+00 3.345512e+00 4.495612e+00 2.993311e+00 1.128662e+00 2.179419e-01 2.435374e-01 6.217034e-01 5.794720e-01 5.290749e-01 6.165163e-01 6.633925e-01 7.465823e-01 6.741409e-01 6.860497e-01 6.428733e-01 4.949291e-01 1.562053e-01
<GCONST> 1.206969e+02
<TRANSP> 5
 0.000000e+00 1.000000e+00 0.000000e+00 0.000000e+00 0.000000e+00
 0.000000e+00 6.709143e-01 3.290857e-01 0.000000e+00 0.000000e+00
 0.000000e+00 0.000000e+00 5.900698e-01 4.099302e-01 0.000000e+00
 0.000000e+00 0.000000e+00 0.000000e+00 6.036076e-01 3.963924e-01
 0.000000e+00 0.000000e+00 0.000000e+00 0.000000e+00 0.000000e+00
<ENDHMM>
~h "k"
<BEGINHMM>
<NUMSTATES> 5
<STATE> 2
<MEAN> 39
 6.584477e-01 2.482050e+00 -3.556742e+00 1.687289e+00 -4.770136e+00 1.219566e+00 -4.986952e+00 -9.492686e-02 -4.829515e+00 -7.968125e-02 -1.217268e+00 -3.779556e+00 5.372898e+01 -5.538720e-01 -3.477264e-01 -7.849543e-01 -1.376358e-01 1.108273e+00 -3.823502e-01 -9.449966e-02 -9.953296e-03 3.404995e-01 1.251815e-01 -1.647228e-01 1.524540e-01 1.815452e-01 -3.181967e-02 -4.325299e-01 1.572826e-01 -5.648772e-01 2.795542e-01 -3.289211e-01 -2.658190e-01 -4.803942e-02 -2.219232e-02 2.299685e-01 8.576203e-02 -1.872150e-01 7.708892e-01
<VARIANCE> 39
 8.689920e+00 2.121464e+01 3.245588e+01 2.835489e+01 3.381333e+01 3.900607e+01 3.013508e+01 3.237933e+01 3.047768e+01 2.669033e+01 2.617696e+01 2.616190e+01 1.518678e+01 1.106471e+00 2.649041e+00 2.716196e+00 3.007585e+00 4.735305e+00 3.738530e+00 3.334052e+00 3.553993e+00 3.337219e+00 3.070637e+00 2.580944e+00 2.439678e+00 2.212983e+00 2.069696e-01 3.348049e-01 4.476617e-01 4.728015e-01 6.949586e-01 6.156595e-01 5.470884e-01 6.042364e-01 6.086116e-01 5.376755e-01 4.668643e-01 4.708297e-01 2.304569e-01
<GCONST> 1.169428e+02
<STATE> 3
<MEAN> 39
 -2.814744e+00 -1.882810e+00 -5.613207e+00 -7.950079e-01 2.894782e+00 -2.322697e+00 -6.357096e+00 -9.527786e-01 -3.247512e+00 2.227293e+00 -1.520312e+00 -4.013762e+00 5.870234e+01 5.381091e-02 -8.540776e-01 3.141764e-01 -1.575803e+00 2.993378e-01 -1.010226e+00 -5.939808e-01 -3.405975e-02 -4.178702e-02 4.994698e-01 1.926466e-01 -6.568732e-01 1.869686e+00 5.878268e-01 1.611954e-02 7.018465e-01 -3.670969e-01 -1.203158e+00 2.253480e-01 -1.368541e-01 2.051812e-01 -2.965216e-01 -1.382752e-01 2.477083e-01 -3.388993e-01 2.862128e-01
<VARIANCE> 39
 2.193091e+01 3.069639e+01 5.491877e+01 4.018929e+01 6.333783e+01 6.856536e+01 6.047291e+01 5.807605e+01 4.490284e+01 4.225762e+01 4.055282e+01 3.371093e+01 2.353481e+01 2.280284e+00 3.463810e+00 4.613178e+00 4.399271e+00 6.565235e+00 4.920302e+00 4.328450e+00 4.863902e+00 4.757742e+00 3.631664e+00 3.212514e+00 3.533940e+00 2.839775e+00 3.623669e-01 6.290908e-01 6.875741e-01 7.327057e-01 1.123218e+00 9.138898e-01 1.112238e+00 1.189540e+00 1.046154e+00 8.860772e-01 7.839882e-01 7.341486e-01 3.443533e-01
<GCONST> 1.347256e+02
<STATE> 4
<MEAN> 39
 6.551440e-01 -7.692162e-01 -2.816020e+00 -4.151491e+00 -2.972438e+00 -3.033635e+00 -6.955594e+00 -2.924639e-01 -5.275440e+00 1.743772e+00 -5.323207e-01 -6.242598e+00 6.077022e+01 1.231102e+00 -7.883599e-01 1.515872e+00 -1.914227e+00 -2.141511e+00 -2.536533e-02 -9.538337e-01 4.079461e-01 -5.910906e-01 1.808507e-04 7.709624e-01 -1.061343e+00 1.975266e+00 1.114706e-01 -8.978213e-02 1.933439e-01 1.915907e-01 -3.479754e-01 3.924459e-01 -6.129666e-02 8.435216e-02 2.300573e-02 -1.548454e-01 8.310506e-02 1.482529e-02 -1.018454e-01
<VARIANCE> 39
 2.109437e+01 3.568795e+01 5.487495e+01 5.036082e+01 4.504987e+01 6.248779e+01 4.632067e+01 4.268906e+01 4.555171e+01 3.917704e+01 3.694180e+01 3.525164e+01 2.959809e+01 2.369920e+00 4.002812e+00 4.685934e+00 5.699321e+00 6.461913e+00 5.071663e+00 6.054741e+00 6.632015e+00 6.401868e+00 4.881348e+00 4.817253e+00 4.760323e+00 2.459750e+00 2.927861e-01 4.427926e-01 5.401204e-01 6.255189e-01 7.840402e-01 7.505074e-01 7.356064e-01 7.639225e-01 7.635335e-01 7.219220e-01 5.798835e-01 5.202662e-01 3.820037e-01
<GCONST> 1.330047e+02
<TRANSP> 5
 0.000000e+00 1.000000e+00 0.000000e+00 0.000000e+00 0.000000e+00
 0.000000e+00 6.111555e-01 3.888445e-01 0.000000e+00 0.000000e+00
 0.000000e+00 0.000000e+00 4.480532e-01 5.519469e-01 0.000000e+00
 0.000000e+00 0.000000e+00 0.000000e+00 1.659295e-01 8.340705e-01
 0.000000e+00 0.000000e+00 0.000000e+00 0.000000e+00 0.000000e+00
<ENDHMM>
~h "l"
<BEGINHMM>
<NUMSTATES> 5
<STATE> 2
<MEAN> 39
 3.191262e+00 -3.025418e+00 2.935960e+00 -5.959001e+00 -6.087363e+00 -2.544750e+00 -1.582113e+01 -6.453556e+00 -8.828782e-01 5.121901e+00 2.405183e+00 -9.085858e+00 6.537940e+01 9.860544e-02 -4.849131e-02 5.135500e-02 -2.729276e-01 -5.687122e-03 2.946276e-01 -6.374609e-01 -3.406521e-01 2.519458e-01 4.546984e-01 2.239195e-01 -4.855245e-01 7.232927e-02 -1.299885e-01 -1.920339e-01 -8.140193e-02 -1.874240e-01 -6.253154e-02 1.695409e-01 3.817914e-01 5.842510e-01 4.793314e-02 -3.834716e-01 -1.435197e-01 -2.261785e-02 1.275279e-01
<VARIANCE> 39
 1.023491e+01 3.691401e+01 6.480756e+01 6.104445e+01 5.084161e+01 6.274174e+01 8.708334e+01 9.775705e+01 8.756129e+01 4.846841e+01 6.085348e+01 6.418739e+01 2.082497e+01 4.386550e-01 1.362705e+00 2.013494e+00 2.930994e+00 2.182158e+00 3.273931e+00 3.671146e+00 4.089429e+00 3.318764e+00 3.136565e+00 2.883565e+00 2.460135e+00 9.464885e-01 9.557304e-02 2.629118e-01 3.099755e-01 4.984981e-01 5.061610e-01 6.033872e-01 7.754069e-01 7.208539e-01 6.204528e-01 5.587459e-01 7.070353e-01 4.894086e-01 1.214711e-01
<GCONST> 1.213065e+02
<STATE> 3
<MEAN> 39
 2.732478e+00 -5.191243e+00 3.982116e+00 -8.457991e+00 -7.553133e+00 -1.564918e+00 -1.682481e+01 -3.486732e+00 2.750718e-01 5.866514e+00 2.977691e+00 -1.244361e+01 6.698650e+01 -1.752891e-01 -6.703718e-01 -2.333786e-01 -6.021768e-01 -3.580969e-02 4.598711e-01 5.401717e-01 1.190008e+00 4.115713e-01 -5.436731e-01 -5.901726e-01 -3.548329e-01 4.660225e-01 -8.672214e-02 -1.138649e-01 -9.456833e-02 6.794875e-02 5.047358e-02 2.177849e-02 4.549419e-01 4.344771e-01 -1.568918e-01 -4.802012e-01 -2.411551e-01 2.400974e-01 4.916567e-02
<VARIANCE> 39
 9.058513e+00 3.451833e+01 7.088986e+01 5.856216e+01 5.006343e+01 5.417438e+01 8.654784e+01 7.380235e+01 8.470246e+01 4.532747e+01 5.072404e+01 6.895515e+01 1.956763e+01 4.497153e-01 1.601576e+00 2.295822e+00 2.447079e+00 2.110080e+00 3.130090e+00 3.526865e+00 3.743073e+00 3.490954e+00 2.913826e+00 3.582198e+00 2.266475e+00 8.739093e-01 6.687394e-02 2.235257e-01 2.609761e-01 4.303680e-01 3.634969e-01 5.210171e-01 5.831228e-01 5.796331e-01 5.140946e-01 5.190629e-01 5.993273e-01 4.141430e-01 1.033286e-01
<GCONST> 1.178303e+02
<STATE> 4
<MEAN> 39
 2.320990e+00 -6.313030e+00 2.372285e+00 -8.323941e+00 -7.319973e+00 -6.824329e-01 -1.384611e+01 -7.076491e-01 1.123882e+00 2.758491e+00 7.339471e-01 -1.166162e+01 6.771587e+01 -1.716036e-01 -3.555689e-01 -1.424001e-01 -1.290728e-02 1.156785e-01 5.078114e-01 1.093620e+00 1.088132e+00 -5.875310e-01 -9.868841e-01 -5.313515e-01 2.537820e-01 1.351535e-01 -2.580404e-03 2.662017e-01 1.568670e-01 2.481056e-01 3.185274e-02 -9.442584e-02 7.417943e-02 -2.349364e-01 -4.753297e-01 -8.491838e-03 1.328823e-01 2.367780e-01 -2.122296e-01
<VARIANCE> 39
 1.188940e+01 3.642719e+01 6.136208e+01 6.392904e+01 4.718730e+01 6.278304e+01 7.255946e+01 7.697821e+01 9.393462e+01 5.236774e+01 5.379440e+01 6.595645e+01 2.318068e+01 5.987993e-01 2.015516e+00 2.581959e+00 2.989352e+00 2.697099e+00 4.048360e+00 4.016916e+00 4.759424e+00 4.559659e+00 3.431515e+00 4.612322e+00 2.425134e+00 1.306426e+00 9.039166e-02 2.288060e-01 3.995034e-01 4.512937e-01 4.372765e-01 5.451982e-01 5.698208e-01 7.348381e-01 6.916340e-01 5.270435e-01 5.822530e-01 4.372476e-01 1.458548e-01
<GCONST> 1.232694e+02
<TRANSP> 5
 0.000000e+00 1.000000e+00 0.000000e+00 0.000000e+00 0.000000e+00
 0.000000e+00 4.138214e-01 5.861786e-01 0.000000e+00 0.000000e+00
 0.000000e+00 0.000000e+00 3.646708e-01 6.353292e-01 0.000000e+00
 0.000000e+00 0.000000e+00 0.000000e+00 2.993257e-01 7.006743e-01
 0.000000e+00 0.000000e+00 0.000000e+00 0.000000e+00 0.000000e+00
<ENDHMM>
~h "m"
<BEGINHMM>
<NUMSTATES> 5
<STATE> 2
<MEAN> 39
 4.665848e+00 -1.120285e+00 3.313161e+00 8.251606e-01 -7.161088e+00 5.958599e+00 -6.237096e+00 -6.593803e+00 -1.145012e+01 3.796306e-01 -5.423391e-01 -8.012416e+00 6.131303e+01 6.486555e-03 3.198711e-01 1.025015e+00 1.210458e+00 3.451061e-03 9.844435e-01 5.308511e-01 -1.345284e+00 -1.475999e+00 -5.871358e-01 -8.580068e-01 -1.903079e-01 -3.904094e-01 -8.133577e-02 -2.855074e-01 -1.770175e-01 -4.875912e-01 3.386563e-02 -2.954607e-01 -2.884886e-01 4.922051e-01 5.402380e-01 -1.751876e-06 9.068427e-02 -6.023204e-02 3.014965e-01
<VARIANCE> 39
 7.341862e+00 2.938651e+01 3.141801e+01 3.463287e+01 5.194347e+01 4.172282e+01 4.456778e+01 3.597657e+01 4.196822e+01 3.392967e+01 4.110735e+01 4.075718e+01 1.926103e+01 5.219277e-01 1.335404e+00 2.032048e+00 2.024969e+00 2.228768e+00 2.416950e+00 2.534606e+00 2.635578e+00 4.114979e+00 2.281437e+00 2.964224e+00 2.102287e+00 9.750106e-01 9.552302e-02 1.505349e-01 2.686343e-01 2.898197e-01 3.705001e-01 3.754457e-01 4.159881e-01 4.216713e-01 5.150063e-01 4.310099e-01 5.063651e-01 3.620007e-01 8.735160e-02
<GCONST> 1.092806e+02
<STATE> 3
<MEAN> 39
 4.146007e+00 -1.787330e+00 6.451072e+00 4.466399e-01 -8.444191e+00 7.719368e+00 -6.657360e+00 -7.785745e+00 -1.372231e+01 -1.337636e+00 -1.200481e+00 -9.456014e+00 6.216784e+01 1.499980e-01 -6.844330e-02 -2.529931e-01 -3.379064e-01 -2.754244e-01 -1.973814e-01 -1.821996e-01 1.711658e-01 4.143573e-01 8.187892e-02 3.009943e-01 5.114516e-02 1.290229e-01 5.222514e-02 -1.440468e-01 -4.690025e-01 -4.326286e-01 -6.546506e-02 -3.149829e-01 -1.471941e-01 5.219774e-01 6.808559e-01 2.238343e-01 2.427957e-01 -5.030393e-03 1.500306e-01
<VARIANCE> 39
 5.627838e+00 2.603753e+01 3.634550e+01 3.187250e+01 5.807495e+01 4.461750e+01 3.955712e+01 4.073281e+01 5.529651e+01 3.504792e+01 4.682542e+01 4.463636e+01 1.519890e+01 3.352497e-01 9.485326e-01 1.420845e+00 1.523150e+00 1.499156e+00 1.912570e+00 1.696127e+00 1.787342e+00 2.590609e+00 1.740377e+00 2.081565e+00 1.693255e+00 6.338449e-01 6.627206e-02 1.676792e-01 2.604197e-01 2.967388e-01 3.125573e-01 3.936405e-01 3.432573e-01 4.417351e-01 6.723610e-01 3.991445e-01 4.647295e-01 3.872456e-01 8.023173e-02
<GCONST> 1.044032e+02
<STATE> 4
<MEAN> 39
 5.682374e+00 -2.261381e+00 8.333344e-01 -2.489027e+00 -8.185526e+00 5.513580e+00 -7.485044e+00 -4.681164e+00 -8.512645e+00 6.502780e-01 6.461235e-01 -8.077838e+00 6.277216e+01 7.950930e-02 -9.898781e-01 -1.173631e+00 -1.421868e+00 3.364893e-01 -3.446720e-01 -5.605332e-01 1.735974e+00 1.804032e+00 2.381552e-01 3.021526e-01 -5.193745e-01 7.878203e-01 -2.202087e-01 -1.334658e-01 2.315617e-01 8.043119e-02 2.379983e-01 -9.424391e-02 -4.531984e-02 2.245755e-01 1.323315e-02 -1.392798e-01 -2.206613e-01 -5.655757e-02 5.965813e-02
<VARIANCE> 39
 6.931290e+00 3.969883e+01 3.929898e+01 4.907857e+01 7.810069e+01 4.445946e+01 5.326403e+01 4.418142e+01 4.464871e+01 3.754926e+01 4.101181e+01 4.377745e+01 2.266032e+01 5.902095e-01 1.990952e+00 2.746959e+00 2.932544e+00 3.552948e+00 3.280224e+00 3.184298e+00 3.093806e+00 5.487006e+00 3.065178e+00 3.289733e+00 3.241568e+00 1.042583e+00 9.444334e-02 2.031254e-01 3.758753e-01 5.300819e-01 5.696969e-01 4.775617e-01 4.720521e-01 5.749043e-01 6.707709e-01 4.484902e-01 5.364617e-01 4.175801e-01 1.222565e-01
<GCONST> 1.180638e+02
<TRANSP> 5
 0.000000e+00 1.000000e+00 0.000000e+00 0.000000e+00 0.000000e+00
 0.000000e+00 4.656294e-01 5.343706e-01 0.000000e+00 0.000000e+00
 0.000000e+00 0.000000e+00 6.332416e-01 3.667584e-01 0.000000e+00
 0.000000e+00 0.000000e+00 0.000000e+00 4.802164e-01 5.197836e-01
 0.000000e+00 0.000000e+00 0.000000e+00 0.000000e+00 0.000000e+00
<ENDHMM>
~h "n"
<BEGINHMM>
<NUMSTATES> 5
<STATE> 2
<MEAN> 39
 3.674823e+00 -2.535865e+00 6.797088e+00 3.508121e+00 -9.582440e+00 -1.279800e+00 -9.293491e+00 -3.166356e+00 -5.844640e+00 2.468298e+00 -5.144982e+00 -8.934711e+00 6.220427e+01 3.526357e-01 1.384506e+00 8.700182e-01 1.297791e+00 -5.608228e-01 9.471657e-01 3.717705e-01 -2.565100e+00 -9.727898e-01 9.773113e-01 -1.099509e+00 5.578547e-01 -1.184624e+00 -1.436556e-01 -2.991825e-01 -2.595938e-01 -5.175182e-01 1.331445e-01 -6.366200e-02 5.570956e-02 5.753241e-01 1.872820e-01 -2.780273e-01 3.273762e-01 -6.159583e-02 3.009265e-01
<VARIANCE> 39
 5.366045e+00 2.929277e+01 3.128962e+01 2.531699e+01 4.936193e+01 3.618058e+01 4.543464e+01 6.052673e+01 5.076434e+01 4.478577e+01 3.784480e+01 4.198775e+01 1.531935e+01 4.449375e-01 1.271940e+00 2.731065e+00 1.761293e+00 2.284791e+00 2.880726e+00 3.436920e+00 4.769227e+00 2.913848e+00 3.389179e+00 3.101429e+00 2.724709e+00 7.076107e-01 7.796629e-02 2.098825e-01 3.039197e-01 2.588772e-01 3.474694e-01 3.672828e-01 4.099829e-01 6.839590e-01 4.362049e-01 4.606766e-01 4.397047e-01 3.338000e-01 1.026666e-01
<GCONST> 1.106214e+02
<STATE> 3
<MEAN> 39
 4.223579e+00 -1.709432e+00 8.009427e+00 4.796905e+00 -1.185212e+01 5.394673e-01 -8.029968e+00 -6.264203e+00 -7.736629e+00 4.174292e+00 -5.816840e+00 -8.858101e+00 6.119766e+01 7.128067e-02 5.762361e-01 -2.336221e-01 3.316782e-01 1.221530e-01 3.132846e-01 3.992656e-01 -3.559971e-01 -1.729576e-01 -1.000413e-01 -1.533617e-01 2.346645e-01 -5.144542e-01 -1.545184e-01 -2.449789e-01 -3.120222e-01 -3.658340e-01 2.761928e-01 -2.303620e-01 -3.201907e-02 7.528370e-01 2.569140e-01 -4.386166e-01 3.337135e-01 -9.131785e-02 2.140671e-01
<VARIANCE> 39
 4.093411e+00 2.308976e+01 2.790049e+01 2.331426e+01 4.100961e+01 3.569119e+01 3.828205e+01 5.457327e+01 5.032232e+01 4.028086e+01 4.126387e+01 3.810277e+01 1.130377e+01 2.431284e-01 1.027563e+00 1.282174e+00 1.145587e+00 1.465139e+00 1.653075e+00 1.856011e+00 2.439468e+00 2.120930e+00 2.051970e+00 1.820235e+00 1.522788e+00 5.658392e-01 8.824026e-02 2.599661e-01 3.641793e-01 3.402379e-01 3.622662e-01 3.987660e-01 4.347334e-01 7.887120e-01 4.733894e-01 5.057759e-01 5.045154e-01 3.577483e-01 1.369592e-01
<GCONST> 1.043518e+02
<STATE> 4
<MEAN> 39
 3.320782e+00 1.125496e+00 4.949305e+00 4.930421e+00 -7.051772e+00 1.131202e-02 -7.529382e+00 -3.768211e+00 -5.926731e+00 5.900023e-01 -6.170158e+00 -6.925634e+00 5.885615e+01 -3.846811e-01 -1.724479e-01 -5.273402e-01 -6.301404e-01 5.112556e-01 -4.421141e-02 1.731420e-01 1.120913e+00 2.916892e-01 -9.167739e-01 5.499999e-01 -5.850545e-02 3.305419e-02 -1.942022e-01 -3.330355e-01 1.987166e-02 -4.523980e-01 2.967734e-02 -8.771966e-02 -1.213611e-01 4.264636e-01 1.106465e-01 -1.419342e-01 2.765403e-01 -4.033828e-02 2.929879e-01
<VARIANCE> 39
 7.232346e+00 3.336932e+01 2.950120e+01 2.722940e+01 5.014594e+01 3.721660e+01 5.177207e+01 6.006938e+01 4.437194e+01 4.521679e+01 4.016817e+01 3.464910e+01 1.807525e+01 6.771060e-01 2.460186e+00 2.434095e+00 2.479205e+00 2.818271e+00 2.718293e+00 2.797719e+00 5.135526e+00 2.900391e+00 3.183625e+00 3.228159e+00 2.416749e+00 1.597326e+00 1.512970e-01 2.729075e-01 3.851067e-01 4.152484e-01 4.547524e-01 5.282395e-01 5.033407e-01 8.459225e-01 5.117505e-01 5.751662e-01 5.400106e-01 4.018198e-01 1.493403e-01
<GCONST> 1.169649e+02
<TRANSP> 5
 0.000000e+00 1.000000e+00 0.000000e+00 0.000000e+00 0.000000e+00
 0.000000e+00 2.757905e-01 7.242095e-01 0.000000e+00 0.000000e+00
 0.000000e+00 0.000000e+00 5.919558e-01 4.080442e-01 0.000000e+00
 0.000000e+00 0.000000e+00 0.000000e+00 5.096443e-01 4.903557e-01
 0.000000e+00 0.000000e+00 0.000000e+00 0.000000e+00 0.000000e+00
<ENDHMM>
~h "o"
<BEGINHMM>
<NUMSTATES> 5
<STATE> 2
<MEAN> 39
 4.254006e+00 -1.970815e+00 -3.350978e+00 -1.266746e+01 -7.315247e+00 4.234144e+00 -8.625653e+00 -2.004895e+00 -4.273896e+00 2.922266e+00 2.958572e+00 -5.915956e+00 6.503029e+01 8.144894e-01 -8.411519e-01 -6.936095e-02 -1.773566e+00 -5.713542e-01 1.071076e+00 -5.719749e-01 1.752529e-02 -1.959934e-01 6.193546e-01 7.370923e-01 -5.520164e-01 1.226361e+00 -3.156954e-01 2.720189e-01 1.977599e-01 8.477412e-01 2.336555e-01 -2.042382e-01 2.521466e-01 5.149718e-02 -7.136597e-02 -1.930669e-01 -2.911376e-01 1.009879e-01 -5.092079e-01
<VARIANCE> 39
 1.144963e+01 3.410558e+01 2.993946e+01 7.522121e+01 5.432452e+01 7.415780e+01 7.207627e+01 4.700788e+01 6.402223e+01 4.884848e+01 4.032010e+01 4.278044e+01 3.103687e+01 2.036998e+00 2.283016e+00 2.986156e+00 7.207557e+00 4.519262e+00 5.275811e+00 4.646906e+00 4.373204e+00 4.417112e+00 4.077302e+00 3.263247e+00 2.839308e+00 2.520984e+00 3.199378e-01 3.805346e-01 4.878583e-01 1.013280e+00 7.040074e-01 9.261523e-01 9.723626e-01 7.176296e-01 7.869951e-01 7.421430e-01 6.171368e-01 5.584045e-01 3.628224e-01
<GCONST> 1.313459e+02
<STATE> 3
<MEAN> 39
 4.834182e+00 -5.269337e+00 -3.008699e+00 -1.268199e+01 -9.676308e+00 6.373456e+00 -9.898790e+00 -2.206890e+00 -3.117063e+00 3.075691e+00 6.175213e+00 -9.844860e+00 6.727019e+01 3.270873e-02 2.381275e-01 7.141561e-03 8.696749e-01 3.422611e-01 -3.011739e-01 1.837939e-01 8.365374e-03 -1.622435e-01 3.697036e-02 -4.101141e-01 -2.963049e-02 -4.317273e-01 -1.512705e-01 3.378501e-01 1.291195e-01 6.731312e-01 1.889981e-01 -3.216690e-01 1.455613e-01 -1.487011e-01 -1.025885e-02 -1.222811e-01 -3.949108e-01 2.035796e-01 -4.017146e-01
<VARIANCE> 39
 7.128932e+00 2.778855e+01 2.395898e+01 6.030727e+01 4.497400e+01 6.459133e+01 5.729206e+01 6.510029e+01 6.799500e+01 5.142956e+01 4.982779e+01 4.874362e+01 1.367128e+01 4.787418e-01 1.496649e+00 1.419026e+00 3.626269e+00 2.228387e+00 3.320773e+00 2.928640e+00 2.576920e+00 3.042575e+00 2.677628e+00 2.593376e+00 2.193105e+00 1.058472e+00 1.224483e-01 2.079706e-01 2.927206e-01 4.421360e-01 4.986630e-01 6.106415e-01 5.454285e-01 6.241539e-01 5.913996e-01 5.392914e-01 4.908071e-01 4.587420e-01 1.269548e-01
<GCONST> 1.155509e+02
<STATE> 4
<MEAN> 39
 4.881206e+00 1.119995e+00 -3.462054e+00 -8.494164e+00 -5.836275e+00 3.320779e+00 -7.941467e+00 -1.042411e+00 -5.657107e+00 2.939483e+00 1.707563e-01 -4.429696e+00 6.052332e+01 -2.304550e-01 6.265150e-01 1.813667e-01 1.681362e+00 1.324172e-01 -2.548413e-01 4.122437e-01 -3.259854e-01 7.861765e-02 -3.415437e-01 -6.471543e-01 2.665794e-01 -9.749600e-01 -7.474568e-02 -6.698939e-02 8.175471e-02 1.927888e-02 -3.793557e-02 8.927605e-03 7.245142e-03 -1.040896e-02 4.516981e-03 -3.597536e-02 3.117425e-02 -2.126493e-02 5.633625e-02
<VARIANCE> 39
 8.357376e+00 3.606698e+01 2.984042e+01 8.034720e+01 4.330154e+01 5.057385e+01 7.131766e+01 4.243296e+01 6.435863e+01 4.927496e+01 3.899349e+01 4.449678e+01 2.626651e+01 5.389339e-01 1.241040e+00 1.641502e+00 2.858381e+00 2.238449e+00 2.518849e+00 2.589707e+00 2.627712e+00 2.581730e+00 2.922832e+00 2.499228e+00 1.810044e+00 9.702915e-01 9.692714e-02 1.881115e-01 2.236669e-01 4.289105e-01 3.415786e-01 4.162996e-01 4.448408e-01 4.450876e-01 4.604476e-01 5.161811e-01 3.411193e-01 3.080284e-01 1.008263e-01
<GCONST> 1.120518e+02
<TRANSP> 5
 0.000000e+00 1.000000e+00 0.000000e+00 0.000000e+00 0.000000e+00
 0.000000e+00 5.662356e-01 4.337644e-01 0.000000e+00 0.000000e+00
 0.000000e+00 0.000000e+00 6.614179e-01 3.385821e-01 0.000000e+00
 0.000000e+00 0.000000e+00 0.000000e+00 6.767679e-01 3.232321e-01
 0.000000e+00 0.000000e+00 0.000000e+00 0.000000e+00 0.000000e+00
<ENDHMM>
~h "p"
<BEGINHMM>
<NUMSTATES> 5
<STATE> 2
<MEAN> 39
 1.545469e+00 2.786762e+00 -4.377109e+00 2.063816e+00 -3.903192e+00 2.591352e+00 -5.512230e+00 -3.581383e-01 -3.962598e+00 -4.414778e-01 -2.213111e+00 -4.892086e+00 5.354369e+01 -4.021002e-01 2.574183e-01 -2.414173e-01 3.976718e-01 1.584948e-01 -2.886853e-01 3.653480e-01 1.125592e-01 3.651873e-01 -1.305949e-01 -8.989739e-02 3.438411e-01 -5.190169e-01 3.853035e-02 -4.286495e-01 2.299618e-01 -4.189248e-01 -1.508999e-02 -2.057005e-01 -2.190611e-01 -1.392049e-01 6.460536e-02 7.822429e-02 1.963990e-01 -6.948068e-02 6.447647e-01
<VARIANCE> 39
 9.543123e+00 1.735163e+01 2.476990e+01 1.982838e+01 2.616584e+01 3.772368e+01 2.681808e+01 2.670861e+01 2.918215e+01 2.305201e+01 2.365801e+01 2.533541e+01 9.261701e+00 6.408483e-01 9.923855e-01 1.073211e+00 1.491676e+00 1.528162e+00 2.103134e+00 1.945110e+00 2.201481e+00 1.930807e+00 1.817163e+00 1.759890e+00 1.631391e+00 9.360979e-01 1.352675e-01 2.234344e-01 3.346938e-01 3.855278e-01 3.705219e-01 5.151119e-01 4.618612e-01 4.830950e-01 4.678527e-01 4.358833e-01 4.417834e-01 3.859709e-01 2.121906e-01
<GCONST> 1.028569e+02
<STATE> 3
<MEAN> 39
 -4.229200e-01 2.263799e+00 -2.876203e+00 2.169846e+00 -2.758334e+00 9.680845e-02 -4.484452e+00 -9.873619e-01 -2.949525e+00 -8.988440e-01 -1.950740e+00 -3.229000e+00 5.432417e+01 3.591533e-01 -1.589647e+00 5.054368e-01 -1.723228e+00 -4.090255e-01 -9.282489e-01 -9.385375e-01 -6.995580e-01 3.090928e-01 3.235970e-01 8.380743e-01 -1.634661e-01 2.265474e+00 4.144469e-01 -5.563138e-01 2.866977e-01 -7.534933e-01 -5.333449e-01 7.827126e-02 -5.942173e-01 2.497675e-02 -2.157270e-01 2.047940e-01 3.681692e-01 -4.474395e-01 8.715920e-01
<VARIANCE> 39
 1.390416e+01 2.004241e+01 2.188502e+01 2.318026e+01 2.654417e+01 4.015667e+01 2.535554e+01 3.008360e+01 3.163223e+01 2.052918e+01 2.037527e+01 2.410310e+01 1.534830e+01 2.367283e+00 2.898620e+00 4.592354e+00 5.007411e+00 4.078218e+00 5.601916e+00 4.747102e+00 3.715575e+00 4.519095e+00 3.349710e+00 3.360155e+00 3.593591e+00 2.226387e+00 2.360759e-01 5.182499e-01 7.266970e-01 7.216483e-01 6.752442e-01 8.987634e-01 6.538175e-01 8.147545e-01 7.871169e-01 6.172469e-01 6.241657e-01 5.811648e-01 2.946240e-01
<GCONST> 1.227839e+02
<STATE> 4
<MEAN> 39
 2.620967e+00 -2.537715e+00 -3.082194e+00 -4.987614e+00 -5.149694e+00 -6.316685e-01 -7.787657e+00 -3.080300e+00 -3.342971e+00 9.371255e-01 1.402811e+00 -5.120698e+00 6.165583e+01 1.018275e+00 -2.277135e+00 7.096388e-01 -2.489705e+00 -1.215594e+00 -1.893499e-01 -1.573339e+00 3.184240e-02 -1.929789e-01 6.877596e-01 1.133173e+00 -1.268927e+00 3.140675e+00 -8.599357e-02 1.753473e-01 2.793340e-01 4.492242e-01 -8.078144e-02 9.886579e-02 -5.726240e-02 4.385725e-01 -1.152005e-01 -5.306605e-02 -2.552117e-01 -2.040731e-01 -2.751807e-01
<VARIANCE> 39
 2.244703e+01 3.068032e+01 3.312806e+01 6.129429e+01 3.239156e+01 7.572575e+01 4.245063e+01 3.156000e+01 4.474123e+01 2.998012e+01 2.875097e+01 2.937879e+01 2.429643e+01 1.973176e+00 4.401621e+00 7.485874e+00 6.785757e+00 5.594466e+00 7.594696e+00 5.596819e+00 5.739766e+00 6.070645e+00 4.896763e+00 4.968145e+00 4.955927e+00 2.579109e+00 3.828124e-01 4.319671e-01 4.779362e-01 9.786126e-01 6.567683e-01 8.784763e-01 7.025227e-01 7.028958e-01 7.500708e-01 6.237445e-01 7.514750e-01 5.907657e-01 3.564899e-01
<GCONST> 1.323972e+02
<TRANSP> 5
 0.000000e+00 1.000000e+00 0.000000e+00 0.000000e+00 0.000000e+00
 0.000000e+00 6.770137e-01 3.229863e-01 0.000000e+00 0.000000e+00
 0.000000e+00 0.000000e+00 4.532779e-01 5.467221e-01 0.000000e+00
 0.000000e+00 0.000000e+00 0.000000e+00 2.472292e-01 7.527708e-01
 0.000000e+00 0.000000e+00 0.000000e+00 0.000000e+00 0.000000e+00
<ENDHMM>
~h "r"
<BEGINHMM>
<NUMSTATES> 5
<STATE> 2
<MEAN> 39
 3.408089e+00 -3.763690e+00 -1.262768e+00 3.724471e+00 -5.466044e+00 -3.976540e+00 -1.087741e+01 -1.961105e+00 1.202765e+00 1.286610e+00 -1.237222e+00 -6.333110e+00 6.183080e+01 6.199382e-02 3.732252e-01 9.439345e-02 1.082368e+00 1.697086e-01 -2.402265e-01 5.571456e-02 -2.156980e-01 -9.609527e-02 -4.890002e-01 -4.346075e-01 7.704369e-01 -7.554101e-01 -8.587975e-02 -1.732583e-01 1.067023e-01 -6.470317e-01 -2.201712e-01 7.038008e-02 1.132734e-01 2.763220e-01 -2.874555e-01 1.401881e-02 2.859101e-01 -2.510106e-01 3.954898e-01
<VARIANCE> 39
 1.137879e+01 2.168625e+01 3.808716e+01 3.277924e+01 3.274839e+01 4.370497e+01 5.572642e+01 5.613054e+01 4.836174e+01 3.884761e+01 3.896203e+01 4.676971e+01 1.743388e+01 1.211517e+00 1.607275e+00 2.175907e+00 2.002566e+00 2.836436e+00 3.382891e+00 3.410906e+00 3.686775e+00 3.404583e+00 3.135645e+00 3.441922e+00 2.924084e+00 1.222088e+00 1.718249e-01 3.618554e-01 3.819647e-01 4.934679e-01 6.178147e-01 6.011751e-01 6.358212e-01 7.228895e-01 7.109667e-01 6.807067e-01 6.633234e-01 5.400912e-01 3.149242e-01
<GCONST> 1.202212e+02
<STATE> 3
<MEAN> 39
 3.062902e+00 -4.118830e+00 -6.953031e-01 4.042089e+00 -5.951147e+00 -5.318602e+00 -1.040952e+01 -1.684827e+00 3.889938e-01 1.093810e-01 -8.775679e-01 -5.178514e+00 6.210480e+01 2.997328e-02 -3.140146e-01 2.374163e-01 -2.057801e-01 -6.531655e-01 -2.204833e-01 1.998699e-01 4.999753e-01 -4.485109e-01 -4.201342e-01 3.597231e-01 -1.302469e-01 3.566772e-01 -5.782249e-02 -2.269620e-01 1.413166e-01 -7.425947e-01 -2.680095e-01 2.465859e-01 5.142262e-02 3.291857e-01 -3.037408e-01 1.880998e-01 3.607203e-01 -5.118041e-01 4.799071e-01
<VARIANCE> 39
 1.627013e+01 2.429567e+01 4.111234e+01 3.474639e+01 3.261708e+01 4.925568e+01 6.314083e+01 6.005579e+01 4.994148e+01 3.879461e+01 3.620224e+01 4.136235e+01 1.717973e+01 1.358171e+00 2.469115e+00 2.916036e+00 2.064362e+00 3.667238e+00 3.743993e+00 3.635632e+00 4.343727e+00 4.011878e+00 3.103122e+00 3.430549e+00 2.952468e+00 1.604778e+00 2.316757e-01 4.002252e-01 4.529343e-01 5.066771e-01 7.130746e-01 6.622788e-01 7.238597e-01 8.221381e-01 7.730494e-01 7.661216e-01 7.804081e-01 5.907720e-01 3.020193e-01
<GCONST> 1.243476e+02
<STATE> 4
<MEAN> 39
 3.269588e+00 -4.845485e+00 -1.118005e+00 2.976638e+00 -7.720551e+00 -4.648053e+00 -9.251928e+00 -1.081770e+00 3.605692e-01 -1.059204e-01 3.404677e-01 -6.535536e+00 6.356876e+01 -7.176606e-02 -1.054514e-01 4.445346e-01 -8.362577e-01 -5.970572e-01 4.690239e-01 2.575243e-01 6.326560e-01 -7.903033e-01 -1.194668e-02 5.154412e-01 -6.061148e-01 4.121061e-01 -8.804272e-02 8.006063e-02 1.302828e-01 -2.814365e-01 1.172653e-01 2.262419e-01 -2.074449e-02 6.121992e-02 -2.284358e-01 1.661464e-01 -5.695052e-03 -1.555222e-01 -4.867829e-03
<VARIANCE> 39
 2.320021e+01 3.650836e+01 5.678458e+01 3.901072e+01 4.880254e+01 6.031037e+01 7.587030e+01 7.312101e+01 6.369952e+01 4.587193e+01 4.783889e+01 4.949176e+01 2.494551e+01 1.605213e+00 3.461140e+00 3.648592e+00 2.629071e+00 4.596726e+00 4.071008e+00 3.954620e+00 5.214763e+00 4.695646e+00 3.898120e+00 3.993159e+00 3.387450e+00 2.569276e+00 2.790946e-01 2.843316e-01 4.574603e-01 4.214701e-01 6.070211e-01 5.835353e-01 7.079164e-01 6.512322e-01 6.975224e-01 5.994756e-01 6.365328e-01 4.766476e-01 2.204561e-01
<GCONST> 1.285149e+02
<TRANSP> 5
 0.000000e+00 1.000000e+00 0.000000e+00 0.000000e+00 0.000000e+00
 0.000000e+00 3.339707e-01 6.660293e-01 0.000000e+00 0.000000e+00
 0.000000e+00 0.000000e+00 9.295275e-02 9.070473e-01 0.000000e+00
 0.000000e+00 0.000000e+00 0.000000e+00 3.384781e-01 6.615220e-01
 0.000000e+00 0.000000e+00 0.000000e+00 0.000000e+00 0.000000e+00
<ENDHMM>
~h "s"
<BEGINHMM>
<NUMSTATES> 5
<STATE> 2
<MEAN> 39
 -6.737698e+00 4.994437e+00 1.821198e+00 -7.704746e-01 2.198013e+00 -7.599307e+00 -1.710893e+00 -4.466912e-01 -1.280264e+00 -1.878249e+00 -1.712386e+00 -3.263113e+00 6.236768e+01 -3.530251e+00 2.479174e+00 -7.950968e-01 -7.077539e-01 2.111509e+00 -1.152158e+00 1.553647e+00 -3.874113e-01 6.060131e-01 -1.108530e+00 3.146680e-01 4.885124e-01 4.289664e-02 -2.865150e-02 -3.647397e-01 -7.061903e-02 -2.149355e-01 -4.924916e-01 2.346373e-01 -5.229965e-01 1.431356e-01 -1.928986e-01 -1.047344e-02 1.268270e-01 -2.853632e-01 1.593625e-01
<VARIANCE> 39
 3.518861e+01 3.153211e+01 4.160459e+01 2.585040e+01 4.374150e+01 5.656635e+01 5.234886e+01 4.936738e+01 4.505901e+01 3.508586e+01 3.196975e+01 2.995188e+01 2.438374e+01 1.623764e+00 2.518374e+00 3.107593e+00 2.742647e+00 3.341005e+00 3.579859e+00 4.709877e+00 4.346607e+00 3.568157e+00 3.423624e+00 2.724082e+00 2.680223e+00 1.027216e+00 6.843595e-01 4.905681e-01 3.612441e-01 4.656961e-01 5.909972e-01 5.941446e-01 7.055952e-01 6.563578e-01 5.461666e-01 5.858839e-01 4.681971e-01 4.834579e-01 1.080307e-01
<GCONST> 1.227932e+02
<STATE> 3
<MEAN> 39
 -1.611599e+01 8.699377e+00 -4.302249e-02 -2.676610e+00 3.970694e+00 -8.939906e+00 -1.784734e+00 -3.455519e-01 -7.771572e-01 -4.938203e+00 -4.872638e-01 -2.770762e+00 6.288098e+01 -1.128710e-01 -3.646814e-01 5.440924e-02 5.588970e-02 -1.095174e-01 1.123583e-01 -1.544517e-01 1.504317e-01 2.357606e-02 -8.376199e-02 -3.122326e-02 4.308731e-02 -2.278919e-01 9.783505e-01 -5.520988e-01 2.445899e-01 1.665110e-01 -4.293400e-01 1.166275e-01 -2.882719e-01 -2.892122e-02 -7.681058e-02 2.596851e-01 -7.466181e-02 -8.488245e-02 -3.829994e-02
<VARIANCE> 39
 1.384287e+01 2.647137e+01 2.832418e+01 2.908222e+01 3.585631e+01 3.696891e+01 3.964384e+01 3.321867e+01 3.228467e+01 2.547566e+01 2.481683e+01 2.341200e+01 1.110981e+01 2.746295e+00 1.641193e+00 1.708231e+00 1.465143e+00 1.760494e+00 2.101691e+00 2.253799e+00 2.184808e+00 2.095754e+00 1.996932e+00 1.760286e+00 1.683355e+00 5.314161e-01 4.065914e-01 3.870314e-01 3.530993e-01 3.589048e-01 4.458407e-01 5.110510e-01 5.545678e-01 5.439126e-01 4.919154e-01 4.925188e-01 3.867640e-01 3.863427e-01 1.092067e-01
<GCONST> 1.092379e+02
<STATE> 4
<MEAN> 39
 -7.992846e+00 3.697051e+00 7.958621e-01 -1.584024e+00 1.608148e+00 -8.251884e+00 -3.620294e+00 -5.698930e-01 -5.912303e-01 -2.756038e+00 -1.872572e+00 -3.488193e+00 6.174538e+01 3.525358e+00 -1.976191e+00 3.692540e-01 -1.939673e-02 -2.074053e+00 4.320085e-01 -1.640117e+00 -3.877878e-01 -3.088052e-01 1.024057e+00 -1.516818e-02 -7.326040e-01 5.817860e-01 7.291412e-02 -1.045660e-01 6.851415e-02 -2.006566e-01 -3.139584e-01 2.638960e-01 -1.673516e-01 -1.457478e-02 -1.554582e-01 3.759677e-02 2.710798e-01 -1.931225e-01 2.801657e-01
<VARIANCE> 39
 3.836526e+01 2.700354e+01 3.804514e+01 2.156842e+01 3.903643e+01 4.294170e+01 4.912466e+01 3.114767e+01 3.630447e+01 3.025229e+01 2.490916e+01 2.461494e+01 2.350540e+01 2.098735e+00 3.476624e+00 4.716989e+00 2.928936e+00 3.544119e+00 4.108955e+00 4.311296e+00 4.562792e+00 4.370643e+00 3.374910e+00 3.058717e+00 2.902284e+00 2.322413e+00 7.217885e-01 4.103233e-01 3.768889e-01 3.432882e-01 4.857953e-01 5.067309e-01 7.096785e-01 6.349854e-01 5.653662e-01 5.086212e-01 4.312878e-01 4.473372e-01 2.110446e-01
<GCONST> 1.227452e+02
<TRANSP> 5
 0.000000e+00 1.000000e+00 0.000000e+00 0.000000e+00 0.000000e+00
 0.000000e+00 6.330036e-01 3.669964e-01 0.000000e+00 0.000000e+00
 0.000000e+00 0.000000e+00 7.951092e-01 2.048908e-01 0.000000e+00
 0.000000e+00 0.000000e+00 0.000000e+00 5.669308e-01 4.330692e-01
 0.000000e+00 0.000000e+00 0.000000e+00 0.000000e+00 0.000000e+00
<ENDHMM>
~h "t"
<BEGINHMM>
<NUMSTATES> 5
<STATE> 2
<MEAN> 39
 9.616891e-01 2.674274e+00 -2.075230e+00 2.581847e+00 -5.624702e+00 -3.943817e-01 -6.614601e+00 1.692856e-01 -3.980277e+00 4.499209e-01 -2.065193e+00 -4.815488e+00 5.383070e+01 -3.383783e-01 3.489470e-01 -6.231306e-01 2.318401e-01 2.045399e-01 2.939193e-01 5.438399e-01 3.344472e-02 1.915549e-01 -2.911927e-01 -8.582589e-02 4.797491e-01 -7.693995e-01 -2.812299e-01 -3.420182e-01 3.063283e-01 -4.874015e-01 2.887181e-01 -5.163620e-01 -6.447719e-02 -1.125587e-01 2.591436e-01 -3.870616e-02 1.241013e-01 -7.119892e-02 7.287399e-01
<VARIANCE> 39
 8.202199e+00 1.797160e+01 3.639179e+01 2.096483e+01 2.944369e+01 3.325015e+01 3.002571e+01 3.214812e+01 3.876965e+01 2.699784e+01 3.111609e+01 2.959234e+01 1.172955e+01 5.821564e-01 7.179760e-01 1.276007e+00 1.332412e+00 1.902978e+00 2.321144e+00 2.325042e+00 2.259304e+00 2.180572e+00 2.107024e+00 1.736580e+00 1.742288e+00 8.362547e-01 1.522189e-01 2.103918e-01 2.910496e-01 3.516111e-01 4.292013e-01 5.599174e-01 5.024069e-01 5.125524e-01 5.503218e-01 4.670956e-01 4.112058e-01 4.027894e-01 2.388391e-01
<GCONST> 1.054714e+02
<STATE> 3
<MEAN> 39
 -5.309268e-01 3.385926e+00 -1.962558e+00 2.454947e+00 -3.950624e+00 -1.004916e+00 -5.161252e+00 -1.564134e-01 -3.714630e+00 -4.002975e-01 -1.961534e+00 -3.376392e+00 5.347239e+01 -1.522773e+00 -9.479403e-01 4.296863e-01 -1.548562e+00 1.538348e+00 -1.839192e+00 4.139854e-01 -6.118102e-01 1.331023e+00 -5.089644e-01 2.286461e-01 1.047705e-01 1.877550e+00 1.386885e-01 -5.353773e-01 4.362498e-01 -6.835935e-01 -1.441531e-01 -3.485658e-01 -6.495586e-01 -1.272254e-01 1.794541e-01 1.784711e-01 1.927521e-01 -5.001326e-01 1.078198e+00
<VARIANCE> 39
 1.147658e+01 1.723354e+01 2.791719e+01 2.197523e+01 3.065294e+01 3.999134e+01 3.180436e+01 3.255789e+01 3.642276e+01 2.538072e+01 2.838514e+01 2.598270e+01 1.568773e+01 1.512118e+00 2.175781e+00 3.143703e+00 3.095223e+00 3.589353e+00 4.350362e+00 4.449315e+00 4.147903e+00 4.357265e+00 3.616905e+00 3.260417e+00 2.875201e+00 1.931744e+00 2.441933e-01 3.288281e-01 5.353718e-01 4.425418e-01 5.917324e-01 7.082676e-01 6.462714e-01 8.215207e-01 8.234029e-01 6.068547e-01 5.487332e-01 5.101667e-01 2.528831e-01
<GCONST> 1.195999e+02
<STATE> 4
<MEAN> 39
 -5.238687e+00 3.676527e-02 9.750037e-02 -2.808426e+00 5.103174e-01 -7.426429e+00 -4.555331e+00 -2.865497e+00 5.549915e-01 -1.619639e+00 -1.018360e+00 -4.010148e+00 6.084387e+01 4.344360e-01 -1.426479e+00 8.958818e-01 -2.109634e+00 -3.292126e-01 -7.902868e-01 -1.883459e+00 -4.357914e-01 6.875421e-01 4.274237e-01 6.746181e-01 -1.318079e+00 2.895268e+00 8.426256e-01 -7.297716e-02 8.279740e-02 8.278845e-02 -8.724205e-01 8.489026e-01 -6.681403e-01 2.639768e-01 -5.857647e-01 3.414067e-01 1.508986e-01 -3.204433e-01 -1.005992e-01
<VARIANCE> 39
 1.964071e+01 2.129286e+01 2.846112e+01 2.697806e+01 3.060378e+01 4.793840e+01 5.194344e+01 3.999501e+01 4.015448e+01 3.353428e+01 2.737189e+01 2.974584e+01 1.811457e+01 2.747359e+00 3.448259e+00 5.576126e+00 4.184648e+00 4.757635e+00 5.716639e+00 5.911504e+00 6.496871e+00 6.784803e+00 4.263779e+00 4.492440e+00 4.127590e+00 3.019685e+00 3.600303e-01 4.661038e-01 5.739492e-01 5.845578e-01 6.647674e-01 9.857147e-01 1.004382e+00 9.350875e-01 8.291875e-01 8.037649e-01 7.179862e-01 6.333448e-01 3.968658e-01
<GCONST> 1.303504e+02
<TRANSP> 5
 0.000000e+00 1.000000e+00 0.000000e+00 0.000000e+00 0.000000e+00
 0.000000e+00 6.024014e-01 3.975986e-01 0.000000e+00 0.000000e+00
 0.000000e+00 0.000000e+00 3.511375e-01 6.488625e-01 0.000000e+00
 0.000000e+00 0.000000e+00 0.000000e+00 4.594832e-01 5.405167e-01
 0.000000e+00 0.000000e+00 0.000000e+00 0.000000e+00 0.000000e+00
<ENDHMM>
~h "u"
<BEGINHMM>
<NUMSTATES> 5
<STATE> 2
<MEAN> 39
 4.306465e+00 1.000120e+00 1.771416e+00 -8.005891e+00 -8.165401e+00 1.201113e+00 -1.667041e+01 -6.744061e+00 -6.861408e+00 2.043622e+00 4.847492e+00 -6.419647e+00 6.392643e+01 7.163045e-01 -2.753952e-01 3.988485e-01 -8.403450e-01 -8.470901e-01 9.896874e-01 -1.409413e+00 -6.639228e-01 -4.938349e-01 6.390764e-01 1.108074e+00 -3.667147e-01 6.205178e-01 -3.297356e-01 1.408873e-01 -9.822153e-02 7.041388e-01 3.153444e-01 1.843028e-02 8.901412e-01 3.662493e-01 1.213468e-01 -3.144171e-01 -5.544915e-01 2.037634e-01 -5.369174e-01
<VARIANCE> 39
 1.190164e+01 2.821009e+01 3.981775e+01 7.090053e+01 6.717255e+01 6.152388e+01 7.609528e+01 5.792796e+01 6.411514e+01 5.546061e+01 5.878512e+01 4.818240e+01 1.664432e+01 2.130804e+00 2.634315e+00 3.262810e+00 5.853140e+00 4.922005e+00 5.758036e+00 5.856774e+00 5.127331e+00 6.177251e+00 4.742774e+00 4.580116e+00 3.623964e+00 1.617079e+00 2.703203e-01 4.381369e-01 4.332020e-01 9.262466e-01 8.575577e-01 9.495648e-01 1.103021e+00 1.001201e+00 1.009389e+00 8.680080e-01 8.587072e-01 7.582514e-01 2.941755e-01
<GCONST> 1.342454e+02
<STATE> 3
<MEAN> 39
 4.356445e+00 3.142672e-01 2.663139e+00 -7.798049e+00 -9.686653e+00 3.247479e+00 -1.729749e+01 -7.171576e+00 -6.926691e+00 1.421321e+00 6.818423e+00 -7.342516e+00 6.415186e+01 1.796087e-02 4.309500e-01 -9.357999e-02 6.604747e-01 2.791039e-01 2.066907e-01 9.447907e-01 3.345671e-01 -1.834970e-01 -3.157767e-01 -7.921869e-01 4.173053e-01 -6.756532e-01 -2.352667e-01 1.858139e-01 -8.113140e-02 5.291080e-01 3.371571e-01 -3.038074e-01 6.204361e-01 2.609959e-01 1.725974e-01 -2.227875e-01 -6.038154e-01 1.453474e-01 -3.597715e-01
<VARIANCE> 39
 9.354737e+00 2.860239e+01 3.996312e+01 7.309293e+01 5.487872e+01 6.101601e+01 6.576941e+01 6.189377e+01 6.017855e+01 5.669286e+01 6.605038e+01 5.198981e+01 1.430190e+01 7.378112e-01 2.006522e+00 1.916536e+00 4.383315e+00 2.988343e+00 3.540345e+00 3.495775e+00 3.326288e+00 4.147061e+00 3.290833e+00 3.176289e+00 2.950629e+00 1.436185e+00 2.222896e-01 3.253338e-01 3.742998e-01 6.143220e-01 6.103643e-01 7.365895e-01 7.657607e-01 7.857478e-01 7.999425e-01 7.179537e-01 6.781677e-01 6.401914e-01 1.621021e-01
<GCONST> 1.245447e+02
<STATE> 4
<MEAN> 39
 5.117572e+00 4.960188e+00 -2.967685e-01 -5.641872e+00 -7.539165e+00 3.111161e+00 -1.171961e+01 -4.652801e+00 -8.398454e+00 -4.866450e-01 1.545387e+00 -3.486624e+00 5.888071e+01 -2.694534e-01 2.914064e-01 -9.264093e-02 1.103725e+00 3.803767e-01 -1.306036e-01 8.589088e-01 2.973453e-01 2.515493e-01 -1.808746e-01 -7.143465e-01 2.082553e-01 -7.346538e-01 -1.205638e-01 -1.023530e-01 3.185018e-02 1.279611e-02 4.073949e-02 -5.131907e-02 -2.724542e-02 -1.100145e-02 9.161259e-02 1.690626e-02 5.795301e-02 -6.562153e-02 7.106247e-02
<VARIANCE> 39
 1.016395e+01 3.209650e+01 2.851317e+01 7.498197e+01 5.552968e+01 5.077332e+01 4.557426e+01 4.490499e+01 4.313715e+01 4.824330e+01 5.017136e+01 3.899275e+01 2.279573e+01 6.863195e-01 1.406440e+00 1.405167e+00 2.562185e+00 2.413619e+00 2.666859e+00 2.804846e+00 2.830810e+00 2.698836e+00 2.694586e+00 2.628318e+00 2.328887e+00 9.533433e-01 1.114645e-01 2.069389e-01 2.023904e-01 4.307636e-01 3.712366e-01 4.359485e-01 4.659196e-01 4.667480e-01 4.693830e-01 4.641329e-01 4.111235e-01 3.833340e-01 1.098674e-01
<GCONST> 1.128382e+02
<TRANSP> 5
 0.000000e+00 1.000000e+00 0.000000e+00 0.000000e+00 0.000000e+00
 0.000000e+00 4.034679e-01 5.965322e-01 0.000000e+00 0.000000e+00
 0.000000e+00 0.000000e+00 4.410250e-01 5.589750e-01 0.000000e+00
 0.000000e+00 0.000000e+00 0.000000e+00 6.975235e-01 3.024765e-01
 0.000000e+00 0.000000e+00 0.000000e+00 0.000000e+00 0.000000e+00
<ENDHMM>
~h "v"
<BEGINHMM>
<NUMSTATES> 5
<STATE> 2
<MEAN> 39
 7.903662e-04 -6.079456e-01 1.670089e+00 -6.705837e-01 -5.929818e+00 -8.820225e-01 -6.906881e+00 5.931143e-01 -4.574426e+00 -3.940755e-01 -3.854154e-01 -5.847453e+00 5.993814e+01 5.024984e-04 -6.478592e-05 9.522401e-04 -6.048587e-04 -1.305029e-03 -9.148303e-04 -9.999124e-04 -6.995694e-04 3.150678e-04 8.832195e-04 -1.229102e-04 -1.829845e-05 4.304752e-04 -1.024714e-04 5.090495e-05 -4.314321e-05 5.499199e-04 2.475645e-04 2.544455e-04 -3.161734e-04 -1.009587e-04 -7.179174e-05 -5.594532e-04 -1.336834e-04 -6.698545e-06 -3.952787e-04
<VARIANCE> 39
 2.681136e+01 5.325134e+01 6.824250e+01 5.887592e+01 6.062508e+01 6.608533e+01 5.928268e+01 6.068991e+01 5.916120e+01 4.597362e+01 4.705821e+01 4.804106e+01 6.619385e+01 1.372020e+00 2.288023e+00 2.566274e+00 2.987463e+00 3.078158e+00 3.116328e+00 3.250192e+00 3.738113e+00 3.266875e+00 2.829993e+00 2.967949e+00 2.476121e+00 2.021681e+00 2.264445e-01 3.584008e-01 4.122588e-01 5.086471e-01 5.519696e-01 5.562619e-01 5.942494e-01 6.847889e-01 5.904057e-01 5.307208e-01 5.528100e-01 4.553457e-01 3.018115e-01
<GCONST> 1.265182e+02
<STATE> 3
<MEAN> 39
 7.903662e-04 -6.079456e-01 1.670089e+00 -6.705837e-01 -5.929818e+00 -8.820225e-01 -6.906881e+00 5.931143e-01 -4.574426e+00 -3.940755e-01 -3.854154e-01 -5.847453e+00 5.993814e+01 5.024984e-04 -6.478592e-05 9.522401e-04 -6.048587e-04 -1.305029e-03 -9.148303e-04 -9.999124e-04 -6.995694e-04 3.150678e-04 8.832195e-04 -1.229102e-04 -1.829845e-05 4.304752e-04 -1.024714e-04 5.090495e-05 -4.314321e-05 5.499199e-04 2.475645e-04 2.544455e-04 -3.161734e-04 -1.009587e-04 -7.179174e-05 -5.594532e-04 -1.336834e-04 -6.698545e-06 -3.952787e-04
<VARIANCE> 39
 2.681136e+01 5.325134e+01 6.824250e+01 5.887592e+01 6.062508e+01 6.608533e+01 5.928268e+01 6.068991e+01 5.916120e+01 4.597362e+01 4.705821e+01 4.804106e+01 6.619385e+01 1.372020e+00 2.288023e+00 2.566274e+00 2.987463e+00 3.078158e+00 3.116328e+00 3.250192e+00 3.738113e+00 3.266875e+00 2.829993e+00 2.967949e+00 2.476121e+00 2.021681e+00 2.264445e-01 3.584008e-01 4.122588e-01 5.086471e-01 5.519696e-01 5.562619e-01 5.942494e-01 6.847889e-01 5.904057e-01 5.307208e-01 5.528100e-01 4.553457e-01 3.018115e-01
<GCONST> 1.265182e+02
<STATE> 4
<MEAN> 39
 7.903662e-04 -6.079456e-01 1.670089e+00 -6.705837e-01 -5.929818e+00 -8.820225e-01 -6.906881e+00 5.931143e-01 -4.574426e+00 -3.940755e-01 -3.854154e-01 -5.847453e+00 5.993814e+01 5.024984e-04 -6.478592e-05 9.522401e-04 -6.048587e-04 -1.305029e-03 -9.148303e-04 -9.999124e-04 -6.995694e-04 3.150678e-04 8.832195e-04 -1.229102e-04 -1.829845e-05 4.304752e-04 -1.024714e-04 5.090495e-05 -4.314321e-05 5.499199e-04 2.475645e-04 2.544455e-04 -3.161734e-04 -1.009587e-04 -7.179174e-05 -5.594532e-04 -1.336834e-04 -6.698545e-06 -3.952787e-04
<VARIANCE> 39
 2.681136e+01 5.325134e+01 6.824250e+01 5.887592e+01 6.062508e+01 6.608533e+01 5.928268e+01 6.068991e+01 5.916120e+01 4.597362e+01 4.705821e+01 4.804106e+01 6.619385e+01 1.372020e+00 2.288023e+00 2.566274e+00 2.987463e+00 3.078158e+00 3.116328e+00 3.250192e+00 3.738113e+00 3.266875e+00 2.829993e+00 2.967949e+00 2.476121e+00 2.021681e+00 2.264445e-01 3.584008e-01 4.122588e-01 5.086471e-01 5.519696e-01 5.562619e-01 5.942494e-01 6.847889e-01 5.904057e-01 5.307208e-01 5.528100e-01 4.553457e-01 3.018115e-01
<GCONST> 1.265182e+02
<TRANSP> 5
 0.000000e+00 1.000000e+00 0.000000e+00 0.000000e+00 0.000000e+00
 0.000000e+00 6.000000e-01 4.000000e-01 0.000000e+00 0.000000e+00
 0.000000e+00 0.000000e+00 6.000000e-01 4.000000e-01 0.000000e+00
 0.000000e+00 0.000000e+00 0.000000e+00 7.000000e-01 3.000000e-01
 0.000000e+00 0.000000e+00 0.000000e+00 0.000000e+00 0.000000e+00
<ENDHMM>
~h "w"
<BEGINHMM>
<NUMSTATES> 5
<STATE> 2
<MEAN> 39
 3.043536e+00 -1.244042e+00 -3.412700e+00 -6.025246e+00 -6.974261e+00 5.079302e+00 -7.687800e+00 -3.456700e+00 -5.123880e+00 1.981794e+00 2.513911e+00 -2.462391e+00 6.039325e+01 4.273404e-01 6.030446e-01 -5.110633e-02 -4.747993e-01 -5.022295e-01 9.966384e-02 -5.729996e-02 -1.931472e-01 -5.962932e-01 -2.920321e-01 2.977735e-01 5.373781e-01 -1.974528e-01 2.326216e-02 -1.272744e-01 2.463681e-02 -1.598668e-01 -1.798049e-02 2.306274e-02 -1.159946e-01 7.445816e-02 1.307594e-01 -1.047815e-02 1.499138e-02 -2.098397e-01 1.299094e-01
<VARIANCE> 39
 3.380589e+01 4.756568e+01 2.980205e+01 9.997182e+01 4.132158e+01 6.047615e+01 4.708999e+01 2.880941e+01 3.158076e+01 4.459450e+01 4.124459e+01 3.377519e+01 4.058428e+01 4.840628e-01 1.081420e+00 9.783047e-01 2.117995e+00 1.327160e+00 1.752722e+00 1.346341e+00 1.707472e+00 2.206777e+00 2.045898e+00 1.822365e+00 2.087620e+00 6.391006e-01 9.869596e-02 1.454982e-01 1.550317e-01 4.723759e-01 2.609382e-01 3.673751e-01 2.902624e-01 3.817255e-01 4.489724e-01 3.951946e-01 3.487848e-01 4.279402e-01 1.024747e-01
<GCONST> 1.071307e+02
<STATE> 3
<MEAN> 39
 6.631796e+00 2.446010e+00 -3.905780e+00 -1.107025e+01 -1.038912e+01 7.336460e+00 -9.080415e+00 -3.127441e+00 -7.916097e+00 2.200776e-01 5.671015e+00 -3.184938e+00 6.049822e+01 5.112534e-01 -1.115648e+00 -1.398482e-01 -2.338397e+00 -8.341514e-02 1.165352e+00 -9.938377e-01 -8.780313e-02 2.369694e-01 8.217862e-01 1.176690e+00 -9.536936e-01 1.577210e+00 -3.278157e-01 -5.702554e-01 3.395133e-02 2.086812e-01 4.297798e-01 -8.239783e-03 -2.421519e-02 2.144938e-01 5.135443e-01 2.668380e-01 -1.508744e-01 -5.477626e-01 2.317216e-01
<VARIANCE> 39
 1.082667e+01 2.985940e+01 2.286722e+01 7.101053e+01 5.408000e+01 5.382900e+01 4.442860e+01 3.116801e+01 3.480679e+01 3.762262e+01 3.854600e+01 4.000190e+01 2.931838e+01 1.524117e+00 2.831009e+00 1.110693e+00 5.449843e+00 3.155848e+00 2.738240e+00 3.817248e+00 2.595901e+00 3.097367e+00 2.750143e+00 3.166673e+00 3.609277e+00 2.463913e+00 1.889171e-01 2.511863e-01 1.590260e-01 9.045786e-01 4.573789e-01 5.615718e-01 5.357668e-01 4.708998e-01 4.331582e-01 4.204631e-01 6.361993e-01 6.104343e-01 2.324561e-01
<GCONST> 1.193157e+02
<STATE> 4
<MEAN> 39
 5.645733e+00 -4.928185e+00 -3.562276e+00 -1.720004e+01 -4.422019e+00 9.417921e+00 -1.500343e+01 -5.645609e-01 -2.905558e+00 7.247085e+00 3.961533e+00 -9.979998e+00 6.642268e+01 -4.278791e-01 -1.212486e+00 -2.404284e-02 2.194454e-01 7.731869e-01 -2.656117e-01 7.275013e-02 6.031749e-01 1.004870e+00 1.111044e-01 -7.492532e-01 -1.353063e+00 7.393651e-01 -6.289900e-02 2.029417e-01 5.781617e-02 4.207822e-01 4.374323e-02 -3.602099e-01 2.184722e-01 2.666518e-02 -6.007235e-02 -3.098920e-01 -3.055236e-01 2.091848e-01 -1.968277e-01
<VARIANCE> 39
 4.987529e+00 3.563805e+01 2.251709e+01 4.661855e+01 8.667071e+01 4.368533e+01 3.704389e+01 3.870212e+01 3.545140e+01 5.941727e+01 7.914428e+01 5.335336e+01 1.549552e+01 3.422042e-01 1.600109e+00 8.731168e-01 2.063532e+00 1.513696e+00 1.770288e+00 2.067598e+00 1.650813e+00 2.363157e+00 1.933526e+00 2.211764e+00 2.896206e+00 7.403461e-01 4.997973e-02 2.114348e-01 1.431868e-01 3.483047e-01 2.831231e-01 3.071861e-01 2.980736e-01 2.464611e-01 3.288116e-01 2.931564e-01 4.807355e-01 4.180956e-01 1.163855e-01
<GCONST> 1.046421e+02
<TRANSP> 5
 0.000000e+00 1.000000e+00 0.000000e+00 0.000000e+00 0.000000e+00
 0.000000e+00 6.828983e-01 3.171017e-01 0.000000e+00 0.000000e+00
 0.000000e+00 0.000000e+00 6.691156e-01 3.308844e-01 0.000000e+00
 0.000000e+00 0.000000e+00 0.000000e+00 7.436376e-01 2.563624e-01
 0.000000e+00 0.000000e+00 0.000000e+00 0.000000e+00 0.000000e+00
<ENDHMM>
~h "y"
<BEGINHMM>
<NUMSTATES> 5
<STATE> 2
<MEAN> 39
 -2.628571e+00 -1.456259e+00 1.789260e+01 -5.907583e+00 -1.523291e+01 -7.417512e+00 -1.179988e+01 1.607417e+00 -9.531375e+00 -1.941947e+00 5.751937e+00 -5.432250e+00 6.654994e+01 -4.844541e-02 -7.938364e-01 5.987917e-01 -4.822553e-01 -1.007366e+00 -8.600991e-01 -1.617422e-01 9.065120e-01 -2.767438e-02 2.327786e-01 8.250937e-01 2.082303e-01 7.976530e-01 1.383197e-01 -1.995752e-01 -6.725445e-01 1.013079e-01 3.324207e-01 6.052598e-02 1.909673e-01 2.514002e-01 3.531415e-01 6.548279e-02 -3.523590e-01 -1.457458e-01 -2.679949e-02
<VARIANCE> 39
 8.909026e+00 4.485075e+01 5.173603e+01 3.378029e+01 4.506451e+01 4.603487e+01 5.287006e+01 6.348162e+01 5.716797e+01 7.583781e+01 4.887085e+01 3.885153e+01 2.500488e+01 6.989486e-01 2.202088e+00 4.640560e+00 1.828735e+00 2.436724e+00 2.951454e+00 3.045467e+00 4.692647e+00 2.909284e+00 2.784367e+00 2.376438e+00 2.292968e+00 1.363455e+00 7.672785e-02 1.949455e-01 5.433438e-01 2.956521e-01 4.986208e-01 4.942935e-01 4.391402e-01 6.144914e-01 4.909278e-01 4.464816e-01 4.553804e-01 3.591188e-01 1.090032e-01
<GCONST> 1.170455e+02
<STATE> 3
<MEAN> 39
 -1.500796e+00 -8.124616e+00 1.297054e+01 -6.588493e+00 -1.729245e+01 -1.146309e+01 -9.074916e+00 1.030407e+01 -4.808854e+00 -1.883526e+00 6.814809e+00 -5.925815e+00 7.030669e+01 3.431248e-01 -1.012078e+00 -1.715691e+00 -4.048346e-02 9.854451e-01 1.422533e-01 8.258986e-01 1.605392e+00 1.147017e+00 -3.226109e-01 -1.366306e+00 -8.021432e-01 3.710864e-01 8.355702e-02 2.037691e-01 -2.945613e-01 1.995506e-01 5.341929e-01 4.330145e-01 -4.838476e-02 -5.218385e-01 -3.487920e-02 -2.991764e-03 -4.903421e-01 -2.456222e-01 -2.377865e-01
<VARIANCE> 39
 5.292166e+00 1.806266e+01 2.191790e+01 2.179729e+01 3.680835e+01 3.906517e+01 5.037438e+01 5.217710e+01 4.513985e+01 6.074899e+01 4.283413e+01 3.327607e+01 1.106808e+01 2.790989e-01 1.057815e+00 2.502911e+00 1.199186e+00 1.798309e+00 1.758530e+00 1.738193e+00 2.702994e+00 2.597952e+00 1.774620e+00 2.281295e+00 1.764885e+00 4.511256e-01 6.788017e-02 1.707381e-01 3.183757e-01 2.010752e-01 2.986198e-01 3.577836e-01 3.200002e-01 7.187704e-01 3.387531e-01 4.273085e-01 3.474266e-01 3.022808e-01 1.012692e-01
<GCONST> 1.024484e+02
<STATE> 4
<MEAN> 39
 6.001326e-02 -1.012747e+01 5.523314e+00 -6.885276e+00 -9.897476e+00 -7.998014e+00 -6.560351e+00 1.167856e+01 -1.239645e+00 -2.809053e+00 -1.849038e+00 -9.347428e+00 7.010374e+01 3.823711e-01 -1.848590e-01 -1.199960e+00 2.729503e-01 1.265992e+00 8.404040e-01 -9.337480e-02 -3.818046e-01 2.724251e-01 1.066381e-01 -1.120986e+00 -6.035911e-01 -2.363267e-01 7.941624e-03 2.722092e-01 1.716990e-01 1.164814e-01 -5.764915e-02 9.586521e-02 -1.188720e-01 -4.512990e-01 -2.463461e-01 2.360489e-01 2.326533e-01 1.808257e-01 -2.190286e-01
<VARIANCE> 39
 6.321026e+00 2.194830e+01 2.874624e+01 2.416539e+01 3.764549e+01 4.553544e+01 4.734574e+01 4.011925e+01 4.364887e+01 7.101958e+01 4.235553e+01 4.389469e+01 1.601393e+01 2.771212e-01 6.064945e-01 1.661500e+00 9.905964e-01 1.735186e+00 1.426534e+00 1.547230e+00 2.405328e+00 1.789802e+00 1.895551e+00 2.182220e+00 1.441718e+00 2.943327e-01 5.333013e-02 1.713445e-01 2.395211e-01 1.921878e-01 2.238845e-01 2.991863e-01 2.855199e-01 5.868922e-01 3.324291e-01 3.412103e-01 2.939964e-01 2.457101e-01 1.037320e-01
<GCONST> 9.923619e+01
<TRANSP> 5
 0.000000e+00 1.000000e+00 0.000000e+00 0.000000e+00 0.000000e+00
 0.000000e+00 7.279486e-01 2.720514e-01 0.000000e+00 0.000000e+00
 0.000000e+00 0.000000e+00 6.144805e-01 3.855195e-01 0.000000e+00
 0.000000e+00 0.000000e+00 0.000000e+00 6.700635e-01 3.299365e-01
 0.000000e+00 0.000000e+00 0.000000e+00 0.000000e+00 0.000000e+00
<ENDHMM>
~h "z"
<BEGINHMM>
<NUMSTATES> 5
<STATE> 2
<MEAN> 39
 -6.615501e-01 1.174580e+01 9.312074e+00 5.397125e+00 -4.638705e+00 -9.462353e+00 -3.517234e+00 -2.625904e+00 -8.853662e+00 -3.440248e+00 -8.434028e-01 -2.098806e+00 5.729597e+01 5.919646e-02 -4.767831e-01 1.001277e+00 -7.683434e-01 -1.304717e-01 2.314295e-01 -1.035443e+00 -1.295761e-01 -2.904489e-01 3.138416e-01 6.191898e-01 -3.988914e-01 7.064135e-01 1.842950e-02 -4.003241e-01 1.607776e-01 -4.086832e-01 -3.136459e-01 5.069217e-01 -8.876553e-02 -6.234141e-02 -9.496351e-02 3.035645e-01 8.254398e-02 -4.842706e-02 5.675621e-02
<VARIANCE> 39
 2.423056e+01 1.690039e+01 1.900783e+01 1.737614e+01 1.770836e+01 3.073400e+01 5.465181e+01 3.186195e+01 3.017820e+01 2.213432e+01 1.724540e+01 2.080552e+01 1.656435e+01 1.427430e+00 3.653938e+00 4.425738e+00 2.467268e+00 1.880703e+00 3.649942e+00 3.010958e+00 3.374001e+00 2.614617e+00 1.926483e+00 2.103740e+00 1.161861e+00 1.987489e+00 1.848888e-01 4.565440e-01 3.316667e-01 1.675348e-01 3.181618e-01 3.685039e-01 4.253265e-01 2.590074e-01 4.551582e-01 1.837430e-01 5.299086e-01 2.450129e-01 9.304908e-02
<GCONST> 1.073235e+02
<STATE> 3
<MEAN> 39
 -2.379983e+00 1.824653e+00 1.976450e+01 -9.118752e+00 -8.403355e+00 -2.621244e+00 -1.726057e+01 -6.992130e+00 -1.239663e+01 5.196326e+00 5.400389e-01 -4.536459e+00 6.505753e+01 1.089929e-01 -1.200958e+00 6.380360e-01 -1.785999e+00 -7.943599e-01 1.828388e+00 -1.397816e+00 -5.221982e-01 -7.141578e-02 7.553349e-01 -2.050254e-02 -3.993484e-01 6.995375e-01 6.451010e-02 3.392682e-01 -6.789029e-01 2.799237e-01 2.996100e-01 -1.789062e-01 4.470406e-01 4.299336e-01 2.752926e-01 -1.623745e-01 -9.184243e-02 -1.831397e-02 -2.273747e-01
<VARIANCE> 39
 1.254084e+01 3.008360e+00 6.978591e+01 4.815002e+01 1.896307e+01 1.135268e+02 4.487748e+01 4.350541e+01 6.021030e+01 1.172297e+01 4.589414e+00 2.248540e+01 5.548868e+00 9.861485e-01 1.626745e+00 2.691722e+00 1.651678e+00 2.342508e+00 2.273578e+00 3.638618e+00 1.713593e+00 4.018770e+00 1.577981e+00 1.249680e+00 1.968702e+00 8.364441e-01 5.995463e-02 2.549759e-01 9.472282e-02 2.121750e-01 3.606611e-01 4.347657e-01 4.955400e-01 3.359238e-01 2.833201e-01 4.648062e-01 1.619592e-01 2.192982e-01 5.645383e-02
<GCONST> 9.965144e+01
<STATE> 4
<MEAN> 39
 -4.839413e-01 1.374308e+00 1.468930e+01 -1.286810e+01 -7.684172e+00 1.177720e+01 -1.514385e+01 -2.809856e+00 -5.932407e+00 -1.537085e-02 -6.299661e+00 -9.628759e+00 6.150460e+01 1.987367e-01 2.488201e-01 -1.091636e+00 5.952802e-01 -3.294315e-02 3.140691e-01 6.936138e-01 1.438476e-01 1.974788e-01 -5.186073e-01 -1.909375e-01 -1.398533e-01 -5.843761e-01 -7.033681e-03 1.975546e-01 -6.789728e-02 1.265556e-01 2.637603e-02 -1.471989e-01 2.048172e-01 -2.916846e-04 -5.458034e-02 -7.092287e-02 3.212761e-02 1.897664e-01 -1.444174e-01
<VARIANCE> 39
 4.464269e+00 2.155470e+01 5.494742e+01 5.746202e+01 4.239069e+00 6.450925e+01 4.702851e+01 1.609768e+01 2.654794e+01 2.774583e+01 3.001461e+01 1.512218e+01 3.099635e+01 2.762408e-01 2.015806e+00 3.816103e-01 1.988856e+00 6.606522e-01 8.542514e-01 7.372233e-01 1.197479e+00 1.068802e+00 1.573655e+00 2.235238e+00 2.004534e+00 6.902251e-01 4.951259e-02 1.712739e-01 1.348762e-01 2.324490e-01 8.397459e-02 1.601728e-01 5.250682e-01 2.784608e-01 2.013076e-01 2.448890e-01 3.407830e-01 1.148262e-01 7.233945e-02
<GCONST> 8.944569e+01
<TRANSP> 5
 0.000000e+00 1.000000e+00 0.000000e+00 0.000000e+00 0.000000e+00
 0.000000e+00 8.025599e-01 1.974402e-01 0.000000e+00 0.000000e+00
 0.000000e+00 0.000000e+00 7.384618e-01 2.615382e-01 0.000000e+00
 0.000000e+00 0.000000e+00 0.000000e+00 7.725998e-01 2.274002e-01
 0.000000e+00 0.000000e+00 0.000000e+00 0.000000e+00 0.000000e+00
<ENDHMM>
~h "aw"
<BEGINHMM>
<NUMSTATES> 5
<STATE> 2
<MEAN> 39
 2.777330e+00 -4.748645e+00 -5.151442e-01 -1.174266e+01 -5.347757e+00 1.083801e+00 -1.326980e+01 -2.546238e+00 8.119723e-01 5.603407e+00 4.217480e+00 -9.322255e+00 6.835710e+01 1.218523e+00 -3.506156e-01 3.477977e-01 -1.791209e+00 -1.843686e+00 2.179367e+00 -1.930222e+00 4.630995e-01 -5.324966e-01 7.082279e-01 1.440490e+00 -7.004138e-01 9.190542e-01 -1.288050e-01 5.134942e-01 9.276056e-02 6.890268e-01 -1.082364e-01 2.672050e-01 5.069430e-01 4.147598e-02 -2.353197e-01 -6.012033e-01 -5.270509e-01 6.702649e-01 -8.189112e-01
<VARIANCE> 39
 7.471268e+00 2.254987e+01 1.981256e+01 3.441354e+01 4.894473e+01 6.970336e+01 4.052691e+01 3.306448e+01 9.697684e+01 4.809097e+01 1.956546e+01 3.565445e+01 1.640006e+01 2.018378e+00 1.762872e+00 3.441711e+00 3.552633e+00 3.406048e+00 4.775941e+00 5.457077e+00 2.898772e+00 4.672172e+00 4.408790e+00 1.776519e+00 4.626886e+00 2.015225e+00 3.082275e-01 2.377783e-01 4.018122e-01 5.778722e-01 7.228099e-01 8.792199e-01 7.389208e-01 7.244180e-01 9.309991e-01 6.241567e-01 4.080994e-01 5.324306e-01 3.029764e-01
<GCONST> 1.231971e+02
<STATE> 3
<MEAN> 39
 3.263012e+00 -3.786193e+00 1.484464e+00 -1.457161e+01 -8.784143e+00 4.713198e+00 -1.505241e+01 -2.737827e+00 -1.325802e+00 4.030962e+00 4.954317e+00 -6.989575e+00 6.860111e+01 3.620294e-01 1.023914e+00 3.575127e-01 5.942661e-01 -4.354886e-01 6.602187e-01 -9.264686e-02 -2.526425e-01 -8.385620e-01 -9.039298e-01 -4.834327e-01 1.498510e+00 -1.000481e+00 -1.229158e-01 3.203214e-01 -1.245496e-01 7.623003e-01 4.587549e-01 -2.920439e-01 4.032354e-01 -1.476400e-01 2.547689e-01 -1.832460e-01 -5.936180e-01 1.271961e-01 -4.831094e-01
<VARIANCE> 39
 7.635329e+00 2.103049e+01 1.931795e+01 4.350411e+01 4.800717e+01 9.386655e+01 7.573042e+01 4.042242e+01 1.184233e+02 3.396162e+01 3.253645e+01 4.955953e+01 1.284500e+01 4.886508e-01 9.634342e-01 1.089499e+00 3.457819e+00 2.467231e+00 2.484309e+00 2.784610e+00 2.884037e+00 1.740382e+00 3.163242e+00 1.886008e+00 2.059337e+00 7.283533e-01 1.752334e-01 2.083834e-01 2.461765e-01 4.119000e-01 3.133436e-01 4.174614e-01 6.026803e-01 4.424134e-01 7.104875e-01 5.105758e-01 4.414778e-01 4.690062e-01 1.142537e-01
<GCONST> 1.116699e+02
<STATE> 4
<MEAN> 39
 5.110497e+00 1.397013e+00 -2.385667e-01 -8.371944e+00 -1.223544e+01 9.051274e+00 -9.608994e+00 -6.655774e+00 -4.120776e+00 1.456087e+00 2.693723e+00 -1.988990e+00 6.095806e+01 -1.955997e-01 6.591020e-01 -3.025129e-01 1.308796e+00 5.018212e-01 -4.719743e-01 5.607385e-01 1.960036e-01 -1.136430e-01 -2.621297e-01 -6.400881e-01 -7.723777e-02 -1.119520e+00 -1.668965e-01 -1.579293e-01 3.941706e-02 -2.595976e-02 1.722906e-01 -3.437053e-01 2.344196e-02 1.684626e-01 -3.991553e-03 1.134452e-01 1.145375e-01 -2.363709e-01 1.917488e-01
<VARIANCE> 39
 5.412844e+00 2.828642e+01 2.917704e+01 5.184816e+01 3.257942e+01 6.808729e+01 5.006161e+01 4.044898e+01 5.217898e+01 5.020249e+01 3.206693e+01 2.231922e+01 2.024569e+01 3.753758e-01 1.048476e+00 1.775466e+00 2.441537e+00 2.149786e+00 3.148570e+00 2.112310e+00 2.890208e+00 3.312685e+00 2.203931e+00 2.374310e+00 2.767335e+00 1.048414e+00 7.877731e-02 1.357801e-01 3.068596e-01 3.163939e-01 3.117982e-01 5.279132e-01 4.741020e-01 6.506917e-01 6.268651e-01 4.337902e-01 4.315186e-01 6.031175e-01 1.105500e-01
<GCONST> 1.102724e+02
<TRANSP> 5
 0.000000e+00 1.000000e+00 0.000000e+00 0.000000e+00 0.000000e+00
 0.000000e+00 4.600542e-01 5.399458e-01 0.000000e+00 0.000000e+00
 0.000000e+00 0.000000e+00 6.207911e-01 3.792089e-01 0.000000e+00
 0.000000e+00 0.000000e+00 0.000000e+00 7.854861e-01 2.145139e-01
 0.000000e+00 0.000000e+00 0.000000e+00 0.000000e+00 0.000000e+00
<ENDHMM>
~h "ay"
<BEGINHMM>
<NUMSTATES> 5
<STATE> 2
<MEAN> 39
 4.834343e-01 -1.405008e+01 2.185287e+00 -5.895244e+00 -9.991311e+00 -6.425543e+00 -8.173884e+00 9.586258e+00 2.842530e+00 -5.031254e+00 -1.213632e+00 -1.160523e+01 7.221383e+01 -3.410252e-01 -2.028757e-01 1.247930e+00 2.159671e-01 -1.347620e+00 -1.159714e+00 2.365489e-01 1.416824e+00 -5.556346e-01 -5.536851e-01 6.865938e-01 6.223690e-01 1.422304e-01 -9.850877e-03 4.923164e-01 2.159634e-01 7.987968e-02 -6.118290e-02 1.172730e-01 -3.683189e-02 -4.442174e-01 -4.493087e-01 2.216331e-01 3.360303e-01 2.930778e-01 -3.302973e-01
<VARIANCE> 39
 6.360061e+00 1.917955e+01 4.279570e+01 1.812098e+01 4.302641e+01 5.816928e+01 5.402300e+01 5.617044e+01 5.782821e+01 6.524214e+01 4.321419e+01 3.120764e+01 5.561556e+00 3.749483e-01 1.138080e+00 1.926351e+00 1.171855e+00 1.996216e+00 2.223084e+00 1.739305e+00 2.591282e+00 2.074231e+00 2.065856e+00 2.991143e+00 1.852142e+00 3.159605e-01 1.014180e-01 1.814372e-01 2.882006e-01 2.457425e-01 4.899954e-01 4.280522e-01 3.783179e-01 5.397317e-01 4.407759e-01 3.549427e-01 5.099133e-01 3.760162e-01 1.098630e-01
<GCONST> 1.056006e+02
<STATE> 3
<MEAN> 39
 -1.422985e+00 -9.024217e+00 1.446730e+01 -5.605549e+00 -1.982936e+01 -1.034551e+01 -1.222248e+01 1.103385e+01 -5.314202e+00 -5.746430e+00 8.061232e+00 -6.876404e+00 7.026759e+01 5.138782e-02 1.009365e+00 7.225511e-01 3.209840e-01 -1.116517e-01 4.270958e-01 -3.804274e-01 -9.624063e-01 -9.616263e-01 9.467717e-02 2.283974e-01 1.517029e-01 -6.788692e-01 1.791376e-01 9.272435e-02 -5.177076e-01 2.314619e-01 5.864052e-01 2.782694e-01 1.263650e-01 -2.516017e-01 1.477242e-01 1.295665e-01 -5.300627e-01 -2.666012e-01 -2.400014e-01
<VARIANCE> 39
 4.242403e+00 1.675027e+01 3.515047e+01 2.069494e+01 3.398201e+01 3.323556e+01 5.841525e+01 3.818704e+01 5.804970e+01 5.424920e+01 4.004184e+01 2.775409e+01 5.596377e+00 4.346021e-01 9.419603e-01 2.370827e+00 1.228092e+00 2.200301e+00 1.212562e+00 2.043181e+00 2.355940e+00 2.327701e+00 1.751642e+00 2.824808e+00 1.956659e+00 4.882044e-01 6.432259e-02 1.778215e-01 2.075698e-01 1.970346e-01 2.471212e-01 3.082064e-01 3.767631e-01 6.126111e-01 3.752743e-01 3.625709e-01 3.909972e-01 2.990029e-01 1.001805e-01
<GCONST> 1.010363e+02
<STATE> 4
<MEAN> 39
 4.766621e-01 -3.777399e+00 1.018689e+01 -1.625872e+00 -1.343358e+01 -6.252004e+00 -9.748934e+00 5.495183e+00 -5.811236e+00 -3.517011e+00 3.530126e+00 -7.049820e+00 6.426314e+01 5.409812e-01 8.197945e-01 -1.382432e+00 1.077207e+00 1.324242e+00 1.196715e+00 8.565474e-01 -9.261391e-01 -4.004398e-01 6.564884e-01 -9.398090e-01 -1.417940e-01 -1.401895e+00 -1.027759e-01 -6.061690e-02 -1.017717e-01 -8.765133e-02 -5.054157e-02 5.397122e-02 1.376777e-01 -1.679088e-01 -5.150655e-02 -1.973350e-02 3.471449e-02 1.734690e-01 6.198098e-02
<VARIANCE> 39
 8.953651e+00 2.020372e+01 3.744495e+01 3.689928e+01 4.074674e+01 4.147733e+01 6.298908e+01 5.454060e+01 5.001278e+01 4.524807e+01 3.374744e+01 4.539928e+01 1.707672e+01 5.753706e-01 1.386957e+00 2.250109e+00 1.770420e+00 2.586498e+00 2.935357e+00 2.966564e+00 4.283921e+00 3.514448e+00 2.788180e+00 3.019181e+00 2.726733e+00 9.372708e-01 1.085377e-01 2.174116e-01 3.598941e-01 3.295403e-01 4.729151e-01 5.198035e-01 5.560327e-01 5.569298e-01 5.477579e-01 4.667406e-01 3.718905e-01 5.163239e-01 1.455190e-01
<GCONST> 1.142332e+02
<TRANSP> 5
 0.000000e+00 1.000000e+00 0.000000e+00 0.000000e+00 0.000000e+00
 0.000000e+00 7.605311e-01 2.394689e-01 0.000000e+00 0.000000e+00
 0.000000e+00 0.000000e+00 7.501644e-01 2.498356e-01 0.000000e+00
 0.000000e+00 0.000000e+00 0.000000e+00 6.808198e-01 3.191802e-01
