~o
<STREAMINFO> 1 39
<VECSIZE> 39<NULLD><MFCC_D_A_0><DIAGC>
~s "silst"
<MEAN> 39
 -1.874534e+00 3.792256e+00 -2.584225e+00 4.840666e+00 -3.106063e+00 2.345711e+00 -3.326761e+00 1.725528e+00 -2.802028e+00 -1.546193e+00 -2.348663e+00 -1.295390e+00 5.044205e+01 -7.374584e-02 6.233868e-02 -1.479250e-02 4.203987e-02 6.030275e-02 3.659157e-02 3.370665e-02 1.013251e-03 8.552046e-04 4.811128e-03 4.541830e-02 3.171666e-02 -9.932087e-02 1.193267e-02 -3.687768e-02 4.387956e-02 -4.758538e-02 7.115247e-03 -2.899867e-02 -2.720748e-02 -2.428063e-02 -2.826538e-02 6.758282e-03 -7.862479e-04 -3.203816e-02 8.009613e-02
<VARIANCE> 39
 1.044600e+01 1.936839e+01 1.658403e+01 1.602759e+01 2.225207e+01 2.500789e+01 2.237959e+01 2.669948e+01 2.227841e+01 2.276578e+01 2.184393e+01 2.023298e+01 1.095796e+01 3.364851e-01 7.771668e-01 9.453468e-01 1.100642e+00 1.409133e+00 1.538722e+00 1.649357e+00 1.901003e+00 1.810923e+00 1.782920e+00 1.678365e+00 1.534648e+00 3.032396e-01 6.540048e-02 1.407688e-01 1.820560e-01 2.236432e-01 2.807379e-01 3.038931e-01 3.320354e-01 3.756576e-01 3.641337e-01 3.577774e-01 3.318703e-01 3.033779e-01 6.012095e-02
<GCONST> 9.196121e+01
~h "@"
<BEGINHMM>
<NUMSTATES> 5
<STATE> 2
<MEAN> 39
 1.270704e+00 -4.160295e+00 1.999016e+00 -2.464889e+00 -6.419730e+00 -5.481813e+00 -1.026475e+01 1.484570e-01 -1.833685e+00 1.586141e+00 7.541821e-01 -8.053231e+00 6.508041e+01 8.770198e-01 -1.055398e+00 3.776824e-01 -5.313238e-01 -1.040090e+00 -1.898680e-01 -7.366774e-01 7.015749e-01 2.835164e-01 2.468031e-01 3.622511e-01 -7.105456e-01 1.104431e+00 -1.351668e-01 5.301292e-01 8.285282e-03 4.736245e-01 1.790424e-01 4.747705e-01 3.876046e-01 -1.775920e-01 -2.659809e-01 -2.006268e-01 -2.621664e-01 2.874779e-01 -6.177521e-01
<VARIANCE> 39
 2.147533e+01 4.314032e+01 5.047699e+01 4.933584e+01 6.767825e+01 7.338319e+01 7.315864e+01 7.808885e+01 6.574936e+01 5.189754e+01 4.721012e+01 5.174960e+01 2.990899e+01 2.683599e+00 2.987941e+00 3.418325e+00 4.079130e+00 4.225177e+00 5.525334e+00 4.871034e+00 7.567143e+00 6.032969e+00 4.595048e+00 4.693370e+00 3.700267e+00 2.930088e+00 3.646286e-01 4.656869e-01 5.293288e-01 6.948032e-01 7.662538e-01 7.408278e-01 9.131402e-01 9.616319e-01 8.261191e-01 7.676611e-01 6.975353e-01 5.892865e-01 4.469146e-01
<GCONST> 1.359307e+02
<STATE> 3
<MEAN> 39
 1.948153e+00 -5.364937e+00 2.390526e+00 -3.012263e+00 -7.629936e+00 -4.906447e+00 -1.097598e+01 1.243961e+00 -1.264952e+00 1.187492e+00 1.413088e+00 -8.796451e+00 6.618800e+01 4.300238e-01 1.083291e-01 3.066258e-01 4.953642e-01 -3.259812e-01 4.391019e-01 -1.517116e-02 -7.930600e-02 -2.344062e-01 -1.847249e-02 -1.446869e-01 1.082202e-01 -2.200314e-01 -2.672468e-01 6.078016e-01 -4.429897e-02 5.204417e-01 3.904323e-01 2.890943e-01 4.579031e-01 -4.089234e-01 -3.001255e-01 -1.619720e-01 -3.521811e-01 4.018320e-01 -6.791499e-01
<VARIANCE> 39
 1.631988e+01 4.693332e+01 5.165000e+01 5.359875e+01 6.682998e+01 7.196873e+01 7.259594e+01 9.638330e+01 7.519292e+01 5.836096e+01 5.480694e+01 5.988546e+01 2.992412e+01 1.465972e+00 1.897121e+00 2.184874e+00 3.206690e+00 2.843274e+00 3.856408e+00 3.988342e+00 4.154147e+00 4.025479e+00 3.156396e+00 3.458492e+00 2.592517e+00 1.688759e+00 3.567300e-01 4.382660e-01 5.694001e-01 6.487394e-01 7.500196e-01 7.391110e-01 8.767025e-01 1.239598e+00 9.397380e-01 8.833981e-01 8.034499e-01 7.169178e-01 3.880475e-01
<GCONST> 1.318461e+02
<STATE> 4
<MEAN> 39
 1.831360e+00 -4.633981e+00 3.402073e+00 -1.415298e+00 -7.914661e+00 -5.151397e+00 -1.023497e+01 2.037901e+00 -2.498672e+00 6.892161e-01 4.565362e-01 -7.833097e+00 6.452353e+01 1.064480e-01 8.953488e-01 -5.722274e-02 1.032930e+00 2.572047e-01 6.306678e-01 5.244790e-01 -6.982517e-01 -4.210694e-01 -1.110747e-01 -5.730770e-01 4.559693e-01 -1.099769e+00 -1.615316e-01 1.505598e-01 -7.942870e-02 9.017793e-02 1.304324e-01 5.021774e-02 1.678040e-01 -8.889017e-02 -3.972705e-02 -7.672422e-02 -9.329325e-02 7.182513e-02 -1.675433e-01
<VARIANCE> 39
 1.480159e+01 5.065301e+01 4.848725e+01 4.913919e+01 6.508392e+01 6.638532e+01 6.095835e+01 9.086735e+01 6.594445e+01 5.067250e+01 4.800093e+01 5.542241e+01 3.153305e+01 1.012722e+00 1.941376e+00 2.060518e+00 2.574394e+00 2.782295e+00 2.872033e+00 3.478199e+00 3.549088e+00 3.202942e+00 2.923768e+00 2.759307e+00 2.358689e+00 1.820171e+00 2.287802e-01 3.109241e-01 3.697740e-01 4.376073e-01 4.786935e-01 5.032588e-01 6.141117e-01 7.410745e-01 6.430133e-01 5.420803e-01 5.911169e-01 4.251556e-01 2.610767e-01
<GCONST> 1.237072e+02
<TRANSP> 5
 0.000000e+00 1.000000e+00 0.000000e+00 0.000000e+00 0.000000e+00
 0.000000e+00 1.120814e-01 8.879187e-01 0.000000e+00 0.000000e+00
 0.000000e+00 0.000000e+00 1.614414e-01 8.385587e-01 0.000000e+00
 0.000000e+00 0.000000e+00 0.000000e+00 4.314539e-01 5.685461e-01
 0.000000e+00 0.000000e+00 0.000000e+00 0.000000e+00 0.000000e+00
<ENDHMM>
~h "a"
<BEGINHMM>
<NUMSTATES> 5
<STATE> 2
<MEAN> 39
 2.275621e+00 -1.023444e+01 -9.678786e-01 -7.559612e+00 -4.364077e+00 -1.134920e+00 -9.837212e+00 5.455073e+00 -6.642433e-01 4.919746e-01 -2.056388e+00 -1.194808e+01 6.897916e+01 1.526245e-01 -1.076251e+00 -1.663921e-01 -6.192795e-01 3.364120e-01 3.730185e-01 8.704985e-02 9.058920e-01 9.579220e-02 -2.116988e-01 -5.491092e-01 -7.011321e-01 8.288702e-01 -1.388875e-01 7.923453e-01 2.022634e-01 6.640146e-01 2.090529e-02 -7.396592e-02 2.017774e-01 -5.836930e-01 -3.692734e-01 -2.098509e-02 1.042609e-01 5.803566e-01 -6.979902e-01
<VARIANCE> 39
 9.777832e+00 2.590309e+01 4.260176e+01 4.383577e+01 5.776727e+01 8.033610e+01 6.043316e+01 6.120985e+01 6.931585e+01 6.757085e+01 4.808139e+01 5.134522e+01 2.056361e+01 1.029841e+00 2.524924e+00 2.513774e+00 3.120936e+00 3.389022e+00 4.030333e+00 3.572981e+00 4.941987e+00 3.584999e+00 3.735682e+00 3.410544e+00 3.344462e+00 1.941619e+00 1.958275e-01 3.668152e-01 3.620654e-01 5.056197e-01 5.684577e-01 6.233249e-01 6.303259e-01 7.976416e-01 7.001736e-01 7.144160e-01 6.018225e-01 5.508980e-01 2.837298e-01
<GCONST> 1.257699e+02
<STATE> 3
<MEAN> 39
 2.106283e+00 -1.080713e+01 -3.670847e-01 -7.819557e+00 -4.136871e+00 -1.497608e+00 -9.512856e+00 6.328847e+00 -1.330006e+00 4.087764e-02 -2.396104e+00 -1.191574e+01 6.955521e+01 1.634374e-01 9.066067e-01 1.596794e-01 9.113437e-01 -4.919956e-02 -8.962853e-02 2.028396e-01 -5.870047e-01 -5.026238e-01 2.332014e-01 2.790576e-02 5.969707e-01 -8.574164e-01 1.224846e-02 5.210941e-01 9.510890e-02 4.085698e-01 -1.203723e-01 3.766609e-02 7.037446e-02 -4.299729e-01 -1.263328e-01 5.416480e-02 7.230367e-02 2.345207e-01 -4.643950e-01
<VARIANCE> 39
 8.750552e+00 2.406290e+01 4.167225e+01 3.949299e+01 5.394557e+01 7.781055e+01 5.727470e+01 6.335624e+01 7.465461e+01 6.920722e+01 4.848396e+01 5.258266e+01 1.479724e+01 4.554390e-01 1.482479e+00 1.503443e+00 1.760754e+00 2.098148e+00 2.767309e+00 2.414693e+00 3.094266e+00 2.393188e+00 2.512118e+00 2.317793e+00 2.052332e+00 9.990671e-01 1.103470e-01 2.078526e-01 3.039937e-01 3.034838e-01 4.016494e-01 5.140322e-01 5.129610e-01 6.509370e-01 4.816546e-01 5.368175e-01 5.014269e-01 4.136599e-01 1.287405e-01
<GCONST> 1.139547e+02
<STATE> 4
<MEAN> 39
 2.943264e+00 -4.185474e+00 -1.330348e+00 -1.980997e+00 -3.767479e+00 -6.689352e-01 -7.561138e+00 2.992196e+00 -3.125659e+00 9.563043e-01 -3.175703e+00 -7.976101e+00 6.219778e+01 7.377233e-03 1.342211e+00 -5.151357e-02 1.312410e+00 -1.355048e-01 4.074437e-01 5.577391e-01 -8.142452e-01 -2.983243e-01 -1.265036e-01 -2.043557e-01 5.656082e-01 -1.480044e+00 -1.030015e-01 -8.406791e-02 2.772592e-02 -1.190709e-01 -2.642212e-02 -5.300837e-04 9.319184e-03 2.095599e-02 4.777184e-02 -7.633721e-02 -8.265716e-03 -6.144378e-02 1.078855e-01
<VARIANCE> 39
 9.116617e+00 2.688386e+01 4.743591e+01 4.179462e+01 4.505752e+01 5.939612e+01 5.185437e+01 4.941465e+01 5.103404e+01 5.048166e+01 4.487907e+01 4.405030e+01 2.650302e+01 6.060035e-01 1.308264e+00 1.704083e+00 1.996009e+00 2.198636e+00 2.585434e+00 2.563463e+00 3.318519e+00 2.743213e+00 2.710719e+00 2.421819e+00 2.167341e+00 1.011490e+00 1.102445e-01 2.003606e-01 2.414786e-01 3.082638e-01 3.356792e-01 4.251272e-01 4.308375e-01 5.225807e-01 4.314389e-01 4.288176e-01 4.269065e-01 3.795766e-01 1.365223e-01
<GCONST> 1.124320e+02
<TRANSP> 5
 0.000000e+00 1.000000e+00 0.000000e+00 0.000000e+00 0.000000e+00
 0.000000e+00 4.716315e-01 5.283685e-01 0.000000e+00 0.000000e+00
 0.000000e+00 0.000000e+00 5.940343e-01 4.059657e-01 0.000000e+00
 0.000000e+00 0.000000e+00 0.000000e+00 6.068265e-01 3.931735e-01
 0.000000e+00 0.000000e+00 0.000000e+00 0.000000e+00 0.000000e+00
<ENDHMM>
~h "b"
<BEGINHMM>
<NUMSTATES> 5
<STATE> 2
<MEAN> 39
 5.144182e+00 7.527513e+00 1.851200e+00 5.303973e+00 -3.848039e+00 2.340528e+00 -6.847286e+00 -3.484827e+00 -7.747913e+00 -2.434314e+00 -2.462710e+00 -4.893748e+00 5.548375e+01 2.771829e-01 -1.394859e-01 -3.365946e-01 -7.337880e-01 8.646413e-02 -3.233247e-01 -6.251673e-01 -3.865216e-01 4.553710e-02 1.153564e-01 5.692827e-01 2.895210e-01 5.153565e-01 -1.057699e-01 -7.644508e-01 5.355626e-02 -9.143171e-01 -2.829579e-01 -2.704653e-01 -6.885269e-01 -1.521188e-02 2.143264e-01 5.176366e-01 5.194186e-01 -1.388206e-01 6.851032e-01
<VARIANCE> 39
 6.902963e+00 2.145719e+01 1.840996e+01 2.177057e+01 2.669709e+01 2.908385e+01 3.032598e+01 2.696559e+01 2.567358e+01 2.300085e+01 2.320380e+01 2.405228e+01 1.155478e+01 7.401968e-01 2.627813e+00 1.604430e+00 5.175086e+00 2.449089e+00 2.916044e+00 4.206105e+00 3.123168e+00 3.383718e+00 3.298684e+00 3.471597e+00 2.244489e+00 2.044400e+00 1.288588e-01 4.085345e-01 3.619678e-01 5.345046e-01 4.648657e-01 5.975441e-01 5.749944e-01 6.538427e-01 7.365849e-01 6.599029e-01 5.758289e-01 5.555841e-01 2.151983e-01
<GCONST> 1.134433e+02
<STATE> 3
<MEAN> 39
 5.970672e+00 3.013717e+00 2.289860e-01 -3.920651e+00 -4.687237e+00 1.129423e+00 -1.286197e+01 -6.892391e+00 -8.214743e+00 1.691181e+00 3.491365e+00 -3.550585e+00 6.104424e+01 -1.451927e-01 -2.560409e+00 6.410454e-02 -3.099652e+00 -6.876690e-01 -6.013921e-01 -2.689276e+00 2.547502e-01 1.355469e+00 2.378803e+00 1.711256e+00 -1.272890e+00 2.448442e+00 -3.107423e-01 -2.723154e-01 3.440699e-01 3.959371e-01 -1.805049e-01 -1.074255e-01 2.276062e-01 7.257522e-01 4.809734e-01 -6.477928e-02 -5.462408e-01 -5.697914e-01 4.469526e-02
<VARIANCE> 39
 7.043974e+00 3.153403e+01 2.128608e+01 8.078391e+01 4.268251e+01 4.687008e+01 4.943259e+01 3.465186e+01 4.717746e+01 5.437067e+01 4.602311e+01 3.010816e+01 2.101942e+01 9.970199e-01 3.957592e+00 3.327653e+00 6.785324e+00 4.006942e+00 6.036524e+00 4.593003e+00 5.297040e+00 7.737701e+00 6.810709e+00 5.503012e+00 5.276370e+00 1.801180e+00 1.290495e-01 3.773585e-01 3.720050e-01 1.084564e+00 6.514674e-01 6.884859e-01 7.931966e-01 8.010433e-01 1.035698e+00 1.074472e+00 1.016971e+00 6.598132e-01 2.861185e-01
<GCONST> 1.297668e+02
<STATE> 4
<MEAN> 39
 4.821348e+00 -2.849879e+00 1.594674e+00 -6.125473e+00 -6.242752e+00 -7.479993e-01 -1.678668e+01 -2.655119e+00 -2.289088e+00 5.478499e+00 3.489912e+00 -9.504848e+00 6.496339e+01 -6.811684e-01 -2.035651e+00 8.406729e-01 -9.786015e-01 -9.353814e-01 -1.159854e+00 -9.335977e-01 1.888791e+00 1.596888e+00 3.349901e-01 -3.203556e-01 -1.403064e+00 1.698436e+00 -1.602070e-01 6.493689e-01 1.819549e-01 8.918522e-01 9.213624e-02 6.630177e-02 9.223018e-01 1.507116e-01 -4.217338e-01 -8.432243e-01 -6.076648e-01 4.239496e-01 -5.935110e-01
<VARIANCE> 39
 7.028630e+00 4.598015e+01 3.384063e+01 9.186730e+01 5.672789e+01 6.982217e+01 5.951015e+01 4.779697e+01 6.966847e+01 7.589159e+01 7.123451e+01 6.176793e+01 2.478609e+01 9.681013e-01 2.843607e+00 3.974092e+00 5.462294e+00 3.685974e+00 4.988983e+00 4.662671e+00 6.363554e+00 6.846368e+00 5.756586e+00 6.870339e+00 5.355583e+00 1.620198e+00 1.170532e-01 4.637321e-01 3.482999e-01 1.147979e+00 7.488081e-01 7.728536e-01 8.443394e-01 7.553552e-01 9.629617e-01 1.202477e+00 1.197623e+00 8.563195e-01 2.773101e-01
<GCONST> 1.341240e+02
<TRANSP> 5
 0.000000e+00 1.000000e+00 0.000000e+00 0.000000e+00 0.000000e+00
 0.000000e+00 6.945919e-01 3.054080e-01 0.000000e+00 0.000000e+00
 0.000000e+00 0.000000e+00 3.489681e-01 6.510319e-01 0.000000e+00
 0.000000e+00 0.000000e+00 0.000000e+00 2.364566e-01 7.635434e-01
 0.000000e+00 0.000000e+00 0.000000e+00 0.000000e+00 0.000000e+00
<ENDHMM>
~h "c"
<BEGINHMM>
<NUMSTATES> 5
<STATE> 2
<MEAN> 39
 -2.120769e+00 3.920838e+00 8.538639e-02 1.047895e+00 -3.435683e+00 -2.349236e+00 -5.390612e+00 2.389369e-01 -3.093272e+00 -1.257653e+00 -1.967037e+00 -2.927266e+00 5.511311e+01 -2.592597e+00 2.645284e-01 4.204395e-01 -1.279532e+00 1.255087e+00 -7.332126e-01 7.983879e-01 -3.264219e-01 2.367569e-01 -2.188322e-01 4.699323e-01 2.206599e-01 1.123702e+00 -4.563806e-01 -2.299743e-01 5.588681e-01 -3.695962e-01 -3.513096e-02 -5.646723e-01 -1.761115e-01 -3.955200e-02 2.120545e-01 -1.071788e-01 1.950272e-01 5.180817e-02 8.615229e-01
<VARIANCE> 39
 2.223055e+01 2.079261e+01 2.949330e+01 2.634827e+01 3.688515e+01 4.906411e+01 3.459305e+01 4.341421e+01 3.180375e+01 2.480348e+01 2.791885e+01 2.512441e+01 2.137269e+01 3.354363e+00 2.671309e+00 2.904537e+00 3.482164e+00 3.379193e+00 4.061346e+00 2.632836e+00 3.385578e+00 2.747450e+00 2.571304e+00 2.669233e+00 2.138205e+00 2.890279e+00 7.794801e-01 4.148321e-01 4.104073e-01 5.909958e-01 6.933712e-01 6.155868e-01 5.364780e-01 6.825572e-01 5.796289e-01 5.463985e-01 4.873617e-01 4.275891e-01 2.917458e-01
<GCONST> 1.212902e+02
<STATE> 3
<MEAN> 39
 -1.404269e+01 4.700231e+00 4.845728e+00 -4.554439e+00 2.584275e-01 -7.191166e+00 -2.854830e+00 -1.021718e+00 -7.526808e-01 -3.778491e+00 6.687902e-01 -1.428089e+00 6.279198e+01 3.450654e-01 -1.258439e+00 1.371459e+00 -3.305238e-01 -1.217206e+00 -1.473142e+00 -1.119664e+00 3.424843e-01 6.446217e-01 -4.057211e-01 3.192595e-01 2.065458e-01 2.006841e+00 1.921236e+00 -6.899191e-01 -2.785761e-01 4.409971e-01 -8.767216e-01 4.115720e-01 -8.157082e-01 2.165547e-01 -1.482454e-01 2.795792e-01 -8.563446e-02 -2.892165e-01 -2.459276e-01
<VARIANCE> 39
 1.679416e+01 2.865002e+01 2.828005e+01 2.842492e+01 4.109953e+01 5.028314e+01 3.365484e+01 3.696258e+01 2.974267e+01 2.820645e+01 2.502881e+01 1.906389e+01 1.523611e+01 9.966817e+00 3.633257e+00 3.204280e+00 3.805541e+00 5.197200e+00 4.082965e+00 4.406758e+00 4.136275e+00 3.609370e+00 3.182503e+00 2.615760e+00 2.374197e+00 2.123238e+00 5.499206e-01 7.222143e-01 6.134772e-01 8.454167e-01 8.775296e-01 7.270189e-01 6.153113e-01 7.820640e-01 9.173585e-01 6.319979e-01 6.674018e-01 5.561829e-01 2.718238e-01
<GCONST> 1.263952e+02
<STATE> 4
<MEAN> 39
 -1.953738e+00 -4.039238e+00 6.149579e+00 -3.161824e+00 -7.588305e+00 -1.010553e+01 -1.150825e+01 2.025542e+00 1.143490e+00 -3.273609e+00 1.905604e-02 -2.914266e+00 6.790950e+01 3.622539e+00 -2.592198e+00 -5.113349e-01 -4.073517e-01 -1.715595e+00 6.653298e-01 -2.119741e+00 5.167487e-01 -3.430068e-02 9.017626e-01 6.544666e-01 -1.340334e+00 1.298642e+00 -2.795092e-01 5.790265e-01 -5.594397e-01 -6.654184e-02 5.939614e-01 9.343221e-01 6.673055e-01 -3.127721e-01 -5.001605e-01 2.057093e-01 7.698268e-02 -2.443886e-01 -7.335449e-01
<VARIANCE> 39
 1.472858e+01 3.415654e+01 4.532797e+01 2.836753e+01 2.778652e+01 3.755244e+01 5.441302e+01 6.478727e+01 3.961568e+01 3.748786e+01 2.033127e+01 1.811568e+01 2.009042e+01 2.501461e+00 3.937755e+00 3.585484e+00 2.838058e+00 4.203986e+00 3.404052e+00 4.052580e+00 6.254985e+00 5.316928e+00 3.762800e+00 3.664351e+00 3.268270e+00 1.212095e+00 8.573114e-01 5.524321e-01 4.726554e-01 5.375797e-01 6.321765e-01 6.377593e-01 7.540269e-01 6.412238e-01 6.522724e-01 6.374113e-01 5.159173e-01 5.711346e-01 2.945935e-01
<GCONST> 1.254858e+02
<TRANSP> 5
 0.000000e+00 1.000000e+00 0.000000e+00 0.000000e+00 0.000000e+00
 0.000000e+00 6.823292e-01 3.176707e-01 0.000000e+00 0.000000e+00
 0.000000e+00 0.000000e+00 6.432288e-01 3.567712e-01 0.000000e+00
 0.000000e+00 0.000000e+00 0.000000e+00 4.448977e-01 5.551024e-01
 0.000000e+00 0.000000e+00 0.000000e+00 0.000000e+00 0.000000e+00
<ENDHMM>
~h "d"
<BEGINHMM>
<NUMSTATES> 5
<STATE> 2
<MEAN> 39
 4.071481e+00 5.396945e+00 5.074101e+00 7.660407e+00 -7.075787e+00 -1.978439e+00 -7.718669e+00 7.583784e-01 -4.464103e+00 -2.535634e+00 -4.269691e+00 -5.285925e+00 5.590065e+01 -7.410198e-02 -2.795447e-01 3.375458e-01 4.236342e-02 9.629712e-03 -2.987105e-01 -2.448978e-01 -1.632569e-02 5.038502e-02 -3.938001e-01 2.859250e-01 3.437117e-01 2.767231e-01 -3.686521e-01 -9.688482e-01 5.645639e-01 -8.927957e-01 -5.342318e-01 -5.659562e-01 -6.615841e-01 5.926635e-02 1.193379e-02 5.959827e-02 7.746698e-01 6.381579e-02 9.705452e-01
<VARIANCE> 39
 6.897805e+00 2.958348e+01 3.059522e+01 2.071447e+01 3.644683e+01 2.685319e+01 3.594176e+01 4.969067e+01 3.151556e+01 2.764622e+01 3.581829e+01 2.851864e+01 1.398540e+01 9.226285e-01 3.181040e+00 2.925717e+00 2.651658e+00 3.110869e+00 3.545977e+00 4.066055e+00 4.196306e+00 3.314626e+00 2.489739e+00 3.451252e+00 2.429589e+00 2.219891e+00 1.453145e-01 3.107474e-01 5.627212e-01 4.310945e-01 5.820104e-01 6.312839e-01 7.732680e-01 1.109224e+00 7.183535e-01 5.649991e-01 6.055667e-01 5.119672e-01 2.096070e-01
<GCONST> 1.182516e+02
<STATE> 3
<MEAN> 39
 2.404397e+00 6.737864e-02 6.932203e+00 5.476434e+00 -7.235751e+00 -3.910220e+00 -9.712939e+00 -5.828072e-01 -4.075077e+00 -3.622830e+00 -1.879422e+00 -2.845411e+00 5.981195e+01 -8.400461e-01 -2.581363e+00 2.038057e+00 -2.382039e+00 -1.790579e+00 -1.946804e+00 -2.351039e+00 5.891060e-01 9.590946e-02 1.818092e-02 2.392076e+00 6.892709e-02 2.839625e+00 -1.086698e-01 -8.257932e-02 1.369573e-01 -6.674318e-01 -3.631667e-01 -1.017274e-01 -3.019411e-01 3.542050e-01 -9.163337e-02 3.863504e-01 3.426346e-01 -5.404000e-01 4.021049e-01
<VARIANCE> 39
 1.034816e+01 3.182981e+01 3.910990e+01 3.429076e+01 4.005991e+01 4.815769e+01 5.886200e+01 6.419119e+01 4.512485e+01 3.431444e+01 3.079230e+01 3.357977e+01 2.016020e+01 1.191316e+00 2.637510e+00 5.520692e+00 3.408728e+00 3.741203e+00 4.529089e+00 5.421672e+00 1.035032e+01 6.741999e+00 4.745492e+00 5.218441e+00 3.522247e+00 1.379411e+00 1.402930e-01 4.337511e-01 4.857048e-01 5.426292e-01 8.198450e-01 8.901880e-01 8.738943e-01 9.807084e-01 7.607790e-01 7.364063e-01 7.135134e-01 6.057402e-01 2.564733e-01
<GCONST> 1.280221e+02
<STATE> 4
<MEAN> 39
 1.314538e+00 -5.130331e+00 1.090434e+01 -1.273633e+00 -1.248301e+01 -9.041457e+00 -1.633356e+01 4.214331e+00 -3.192222e+00 -1.908131e+00 3.628063e+00 -5.297284e+00 6.633678e+01 -6.828075e-01 -1.530944e+00 9.862358e-01 -2.553959e+00 -1.384077e+00 -1.009397e+00 -1.481348e+00 1.262644e+00 1.309807e-01 7.528296e-01 1.653747e+00 -1.312665e+00 2.269948e+00 1.460266e-01 7.492921e-01 -5.972895e-01 4.084814e-01 5.043622e-01 6.762332e-01 7.235081e-01 -2.849568e-01 -1.392897e-01 1.397196e-01 -6.453444e-01 -2.504993e-01 -6.536092e-01
<VARIANCE> 39
 1.008070e+01 3.205582e+01 5.484964e+01 3.860806e+01 4.035259e+01 5.075541e+01 8.236145e+01 1.148754e+02 7.999969e+01 5.391024e+01 4.597274e+01 5.426552e+01 1.830198e+01 1.055689e+00 2.472193e+00 5.695129e+00 3.247016e+00 4.206933e+00 5.077162e+00 5.086311e+00 8.335142e+00 5.826651e+00 5.409599e+00 6.156789e+00 3.800121e+00 1.677827e+00 1.159107e-01 3.376024e-01 4.564105e-01 5.669453e-01 7.377729e-01 7.929325e-01 1.053719e+00 1.260321e+00 9.246435e-01 6.392845e-01 7.152280e-01 6.643293e-01 2.279885e-01
<GCONST> 1.312037e+02
<TRANSP> 5
 0.000000e+00 1.000000e+00 0.000000e+00 0.000000e+00 0.000000e+00
 0.000000e+00 6.193416e-01 3.806584e-01 0.000000e+00 0.000000e+00
 0.000000e+00 0.000000e+00 1.915818e-01 8.084183e-01 0.000000e+00
 0.000000e+00 0.000000e+00 0.000000e+00 3.458330e-01 6.541670e-01
 0.000000e+00 0.000000e+00 0.000000e+00 0.000000e+00 0.000000e+00
<ENDHMM>
~h "e"
<BEGINHMM>
<NUMSTATES> 5
<STATE> 2
<MEAN> 39
 2.688645e-01 -6.628680e+00 6.710196e+00 -1.749593e+00 -1.044408e+01 -8.551223e+00 -6.559225e+00 5.611658e+00 -4.610087e+00 -5.794351e-01 1.467970e+00 -6.455093e+00 6.603482e+01 1.616274e-01 -1.347388e+00 1.374959e+00 -1.111404e+00 -1.345071e+00 -6.557641e-01 -2.204517e-01 1.582865e+00 -2.129444e-01 -2.468758e-01 7.085424e-01 -4.159831e-01 1.463941e+00 -1.417372e-01 4.937828e-01 -3.250667e-01 2.292284e-01 4.553980e-01 3.591220e-01 2.758029e-01 -4.098178e-01 -4.689422e-02 5.755737e-02 -2.166384e-01 2.163108e-01 -4.769607e-01
<VARIANCE> 39
 1.405704e+01 3.518502e+01 5.648845e+01 3.390373e+01 4.605271e+01 7.303487e+01 9.756285e+01 6.041910e+01 8.439997e+01 8.083082e+01 5.055248e+01 3.939074e+01 3.407528e+01 1.403789e+00 2.103611e+00 3.968495e+00 2.324461e+00 4.233192e+00 4.061650e+00 5.194250e+00 5.108695e+00 4.154640e+00 4.778456e+00 4.001117e+00 2.779436e+00 1.921933e+00 2.642920e-01 5.175453e-01 7.640575e-01 4.656818e-01 7.318778e-01 7.112198e-01 9.369430e-01 9.166911e-01 8.227659e-01 8.314891e-01 6.647304e-01 5.178925e-01 3.966017e-01
<GCONST> 1.314737e+02
<STATE> 3
<MEAN> 39
 2.086702e-01 -9.058750e+00 7.798249e+00 -4.488067e+00 -1.211787e+01 -9.034200e+00 -8.103960e+00 8.086141e+00 -4.049711e+00 -1.747882e+00 2.816683e+00 -8.348766e+00 6.889407e+01 1.623176e-01 6.551478e-01 -3.504248e-01 6.214188e-01 3.751543e-01 3.473804e-01 2.632578e-01 -4.501362e-01 -8.452198e-02 8.194278e-02 -4.489666e-01 1.817622e-01 -6.527498e-01 3.133028e-03 5.154713e-01 -2.575424e-01 4.678924e-01 2.998719e-01 2.129716e-01 1.562717e-01 -5.213321e-01 -2.865148e-03 6.902178e-02 -1.872390e-01 1.509980e-01 -4.692619e-01
<VARIANCE> 39
 7.855191e+00 2.547260e+01 4.422052e+01 3.137848e+01 4.065031e+01 8.785438e+01 7.086163e+01 7.184899e+01 7.710209e+01 6.991115e+01 5.658011e+01 4.057241e+01 1.567240e+01 5.260920e-01 1.518816e+00 1.483719e+00 2.113534e+00 2.099289e+00 2.094266e+00 2.912320e+00 2.791065e+00 2.527145e+00 2.780122e+00 2.048329e+00 1.583117e+00 1.258166e+00 1.472382e-01 2.837513e-01 3.528448e-01 3.303423e-01 4.104405e-01 4.292468e-01 5.969088e-01 6.295698e-01 5.100726e-01 6.070690e-01 4.506772e-01 3.466856e-01 1.582532e-01
<GCONST> 1.149488e+02
<STATE> 4
<MEAN> 39
 -2.798335e-01 -3.350033e+00 9.632282e+00 -1.505091e+00 -1.094876e+01 -7.805868e+00 -4.563247e+00 4.135098e+00 -8.049697e+00 2.876894e+00 2.345008e+00 -4.516284e+00 6.292189e+01 1.975553e-02 7.381694e-01 -4.718440e-01 7.209321e-01 4.076166e-01 5.469708e-01 4.356402e-01 -4.741368e-01 5.920760e-02 -4.553732e-02 -3.490489e-01 2.267300e-01 -8.611122e-01 -5.742686e-02 1.129311e-02 -1.560833e-02 -5.645869e-02 3.388308e-02 3.608721e-02 -3.948784e-03 -3.502564e-02 1.291990e-02 -3.587845e-02 9.989031e-03 7.228671e-03 2.330771e-02
<VARIANCE> 39
 8.889050e+00 2.196921e+01 6.981966e+01 5.106174e+01 4.428429e+01 5.488205e+01 4.871043e+01 4.884593e+01 4.792321e+01 5.690076e+01 6.857690e+01 3.023421e+01 2.860037e+01 4.414723e-01 1.368704e+00 1.441890e+00 1.600953e+00 1.814429e+00 1.675805e+00 2.080121e+00 2.493059e+00 2.073568e+00 2.064106e+00 1.805383e+00 1.603919e+00 7.642000e-01 9.307525e-02 1.636589e-01 2.268824e-01 2.277345e-01 2.971773e-01 2.683696e-01 3.438277e-01 3.801518e-01 3.715357e-01 3.456020e-01 2.738177e-01 2.773552e-01 9.237036e-02
<GCONST> 1.062182e+02
<TRANSP> 5
 0.000000e+00 1.000000e+00 0.000000e+00 0.000000e+00 0.000000e+00
 0.000000e+00 5.611776e-01 4.388225e-01 0.000000e+00 0.000000e+00
 0.000000e+00 0.000000e+00 6.720314e-01 3.279686e-01 0.000000e+00
 0.000000e+00 0.000000e+00 0.000000e+00 7.633159e-01 2.366842e-01
 0.000000e+00 0.000000e+00 0.000000e+00 0.000000e+00 0.000000e+00
<ENDHMM>
~h "f"
<BEGINHMM>
<NUMSTATES> 5
<STATE> 2
<MEAN> 39
 -6.800326e+00 1.253501e+00 1.574504e+00 6.810400e-01 -3.747919e+00 -4.069334e+00 -2.873060e+00 -2.194512e+00 -1.127733e+00 -1.852162e+00 -1.388439e+00 -4.282598e+00 5.984677e+01 -1.294760e+00 1.136749e-01 -4.955914e-02 1.903347e-01 4.310182e-01 -5.007896e-01 2.548751e-01 4.749913e-02 6.698565e-01 -2.023173e-01 -3.535744e-01 3.010446e-01 -1.172354e-01 3.662045e-01 -3.475517e-01 2.290265e-01 7.516742e-02 -2.791525e-01 -4.919792e-02 -2.877569e-01 1.083192e-01 -8.476530e-02 -2.275673e-02 1.803153e-01 -7.199930e-02 2.516067e-01
<VARIANCE> 39
 1.885600e+01 1.084067e+01 3.802907e+01 2.375076e+01 2.611596e+01 4.600437e+01 2.811706e+01 3.088607e+01 3.576319e+01 2.903142e+01 2.176566e+01 2.126173e+01 1.085936e+01 1.631264e+00 1.347691e+00 1.560559e+00 1.786485e+00 1.927868e+00 2.762074e+00 2.086556e+00 2.686842e+00 2.604872e+00 2.291125e+00 1.861243e+00 1.786902e+00 6.368832e-01 3.294922e-01 2.082370e-01 3.105088e-01 3.227480e-01 5.099307e-01 5.517240e-01 5.519001e-01 5.184475e-01 6.143954e-01 4.177619e-01 4.336548e-01 3.649999e-01 1.259217e-01
<GCONST> 1.081005e+02
<STATE> 3
<MEAN> 39
 -9.545946e+00 -8.297492e-01 3.060169e+00 4.002611e+00 -1.726326e+00 -6.898615e+00 -3.412179e+00 -1.509083e+00 1.924320e+00 -1.479553e+00 -2.369627e+00 -3.166025e+00 6.030246e+01 1.899774e+00 -1.067201e+00 1.898989e+00 4.299807e-01 -1.586626e+00 -1.468777e+00 -2.177977e+00 8.479208e-02 -8.179000e-01 -6.029388e-01 1.155415e+00 1.688736e-01 8.441893e-01 8.775285e-01 -1.569369e-01 7.137025e-01 -4.592959e-01 -1.188319e+00 -3.605400e-02 -8.232991e-01 1.282658e-01 -7.078722e-01 -2.944855e-01 8.437009e-01 -2.584666e-01 4.351940e-01
<VARIANCE> 39
 1.711915e+01 9.616134e+00 3.456277e+01 2.283450e+01 2.139622e+01 4.088676e+01 2.669391e+01 2.019259e+01 3.502088e+01 1.800096e+01 1.883708e+01 1.939809e+01 8.845025e+00 2.089646e+00 1.239447e+00 3.762948e+00 1.775672e+00 3.308748e+00 3.354195e+00 3.743297e+00 2.640406e+00 3.803926e+00 3.179942e+00 2.910228e+00 2.173286e+00 1.044518e+00 2.510543e-01 3.317868e-01 5.697769e-01 3.348469e-01 4.108299e-01 5.322247e-01 6.220049e-01 5.080982e-01 7.016144e-01 6.075324e-01 5.105631e-01 4.353189e-01 1.195732e-01
<GCONST> 1.116780e+02
<STATE> 4
<MEAN> 39
 -1.294096e+00 -2.024820e+00 9.379601e+00 4.082110e+00 -9.118239e+00 -1.054136e+01 -1.106932e+01 -9.482541e-01 -3.777132e+00 -5.022611e+00 2.436062e+00 -3.640890e+00 6.266225e+01 2.583514e+00 -1.400773e+00 2.661470e+00 -9.773879e-01 -3.739049e+00 -6.654962e-01 -2.996095e+00 6.666312e-01 -1.605486e+00 -1.083965e+00 2.781639e+00 -8.421923e-01 1.820891e+00 -4.762033e-01 -3.782051e-02 -1.806077e-01 -5.452582e-01 -6.604172e-03 4.540945e-01 2.839927e-01 1.412418e-01 2.848121e-01 2.631034e-01 5.793229e-02 -4.000627e-01 1.645729e-01
<VARIANCE> 39
 1.215112e+01 1.326735e+01 8.638346e+01 3.054097e+01 3.682061e+01 4.552972e+01 5.396001e+01 2.289276e+01 2.754665e+01 3.845275e+01 2.772330e+01 2.070585e+01 1.298043e+01 1.146927e+00 2.181883e+00 7.496405e+00 2.189399e+00 3.347058e+00 4.063255e+00 5.145912e+00 3.642228e+00 6.170556e+00 4.867528e+00 4.214343e+00 2.917104e+00 1.325247e+00 2.624394e-01 1.639064e-01 4.816509e-01 3.176504e-01 5.607501e-01 5.126046e-01 4.930110e-01 4.074364e-01 5.002061e-01 4.306977e-01 6.043228e-01 3.238184e-01 1.257385e-01
<GCONST> 1.173968e+02
<TRANSP> 5
 0.000000e+00 1.000000e+00 0.000000e+00 0.000000e+00 0.000000e+00
 0.000000e+00 8.208925e-01 1.791075e-01 0.000000e+00 0.000000e+00
 0.000000e+00 0.000000e+00 5.011416e-01 4.988584e-01 0.000000e+00
 0.000000e+00 0.000000e+00 0.000000e+00 2.951463e-01 7.048537e-01
 0.000000e+00 0.000000e+00 0.000000e+00 0.000000e+00 0.000000e+00
<ENDHMM>
~h "g"
<BEGINHMM>
<NUMSTATES> 5
<STATE> 2
<MEAN> 39
 3.435905e+00 5.411431e+00 3.991431e+00 4.061805e+00 -5.296617e+00 -2.237228e-01 -8.598759e+00 -1.922420e+00 -7.857077e+00 -2.661499e-01 -1.540649e+00 -6.587691e+00 5.659620e+01 -6.143690e-01 -6.922421e-01 2.963399e-01 -9.495283e-01 8.562587e-01 -9.913689e-01 -9.185987e-01 1.145939e-01 1.952828e-01 2.636366e-01 3.887278e-01 -1.708876e-01 9.162094e-01 -3.033104e-01 -5.737831e-01 5.857964e-01 -7.702694e-01 -4.365412e-01 -4.356009e-01 -6.038919e-01 8.233053e-02 1.198773e-01 1.000518e-01 6.792706e-01 -3.024912e-01 8.210076e-01
<VARIANCE> 39
 7.984091e+00 2.780302e+01 3.349786e+01 3.076804e+01 5.946694e+01 3.932595e+01 4.654106e+01 4.118856e+01 3.609290e+01 3.349836e+01 3.778394e+01 3.110237e+01 1.580678e+01 1.169531e+00 2.771775e+00 4.107279e+00 3.701801e+00 4.884329e+00 4.586337e+00 5.202510e+00 4.236731e+00 4.258671e+00 3.605614e+00 4.311215e+00 3.064894e+00 2.144981e+00 1.974447e-01 4.155999e-01 6.105747e-01 5.220693e-01 1.067358e+00 6.259700e-01 6.952549e-01 8.278204e-01 7.767681e-01 6.423696e-01 8.024043e-01 4.887075e-01 2.251039e-01
<GCONST> 1.247144e+02
<STATE> 3
<MEAN> 39
 6.015958e-01 2.688226e-01 7.692046e+00 -1.748241e+00 -6.413646e+00 -5.988211e+00 -1.485628e+01 -1.463593e+00 -6.764636e+00 1.150612e+00 4.733105e+00 -9.496185e+00 6.366735e+01 -7.254182e-01 -1.601760e+00 1.283569e+00 -2.246467e+00 -1.799734e+00 -1.480692e+00 -1.544536e+00 9.346772e-01 1.268694e+00 3.620094e-01 1.983169e+00 -1.113524e+00 2.463145e+00 1.757189e-01 -2.035814e-02 -1.951660e-01 8.848103e-02 -4.508740e-01 4.882969e-01 5.071966e-01 2.375793e-01 2.011321e-01 -3.102897e-02 -3.474562e-01 2.105591e-02 -1.006532e-01
<VARIANCE> 39
 1.168246e+01 3.095929e+01 4.647882e+01 3.308660e+01 6.202922e+01 6.361365e+01 7.262511e+01 4.704815e+01 5.447453e+01 5.434111e+01 8.628265e+01 4.610738e+01 1.981779e+01 1.414878e+00 2.481621e+00 5.372773e+00 3.143622e+00 6.767797e+00 4.002804e+00 4.590666e+00 7.003091e+00 5.765872e+00 4.829625e+00 5.733808e+00 3.433222e+00 1.446837e+00 1.360901e-01 3.300117e-01 5.895690e-01 4.867368e-01 1.224950e+00 9.842120e-01 1.064389e+00 8.453212e-01 8.645017e-01 6.660755e-01 1.414642e+00 6.387344e-01 2.411845e-01
<GCONST> 1.317738e+02
<STATE> 4
<MEAN> 39
 -1.374724e-01 -2.510609e+00 8.127007e+00 -5.564507e+00 -1.043052e+01 -6.329426e+00 -1.467211e+01 1.733090e+00 -3.170012e+00 2.076210e+00 5.494403e+00 -1.148830e+01 6.733359e+01 -3.928937e-01 -1.243417e+00 3.025692e-01 -1.369735e+00 -8.882427e-01 -1.546443e-02 1.388838e-01 1.021437e+00 8.073829e-01 8.052169e-02 -8.969361e-02 -5.096616e-01 1.375321e+00 2.584578e-01 2.272869e-01 -3.313714e-01 6.326043e-01 3.393386e-01 3.632911e-01 3.501158e-01 -1.901850e-01 -4.275016e-01 -1.718242e-01 -5.175213e-01 3.196415e-01 -5.413963e-01
<VARIANCE> 39
 1.364821e+01 4.318112e+01 5.368487e+01 3.165990e+01 6.377958e+01 5.114436e+01 7.787978e+01 6.536621e+01 7.938002e+01 6.662659e+01 7.928792e+01 5.887710e+01 2.594604e+01 1.013391e+00 1.518528e+00 5.869661e+00 2.656322e+00 4.022128e+00 3.710356e+00 3.837306e+00 5.416890e+00 4.949709e+00 3.502976e+00 6.589783e+00 2.809055e+00 1.026816e+00 1.747137e-01 2.761938e-01 5.288231e-01 3.930258e-01 1.109882e+00 6.381892e-01 9.752184e-01 8.231407e-01 7.550442e-01 6.653427e-01 1.152262e+00 5.969130e-01 1.773754e-01
<GCONST> 1.291513e+02
<TRANSP> 5
 0.000000e+00 1.000000e+00 0.000000e+00 0.000000e+00 0.000000e+00
 0.000000e+00 6.283589e-01 3.716412e-01 0.000000e+00 0.000000e+00
 0.000000e+00 0.000000e+00 3.943856e-01 6.056144e-01 0.000000e+00
 0.000000e+00 0.000000e+00 0.000000e+00 3.005641e-01 6.994359e-01
 0.000000e+00 0.000000e+00 0.000000e+00 0.000000e+00 0.000000e+00
<ENDHMM>
~h "h"
<BEGINHMM>
<NUMSTATES> 5
<STATE> 2
<MEAN> 39
 -1.450385e-01 -6.153188e+00 1.891868e+00 -4.046953e+00 -2.455369e+00 -2.051484e+00 -4.395010e+00 3.840246e+00 -2.611751e+00 -1.328425e+00 -4.484581e+00 -6.601106e+00 6.636421e+01 -2.522597e-01 1.527387e-01 -1.059888e-01 5.319991e-01 5.198670e-01 1.485958e-01 6.024679e-01 -1.623567e-01 9.538466e-02 -2.382525e-01 -2.799942e-01 3.245701e-01 -4.101658e-01 5.403059e-02 -2.584947e-02 -1.242408e-02 -4.969873e-02 -1.967681e-01 -3.293909e-02 -1.893375e-01 -5.317691e-02 -1.355588e-02 1.654588e-02 1.693084e-01 -6.569961e-02 -3.059405e-02
<VARIANCE> 39
 1.240258e+01 4.051763e+01 4.920442e+01 4.970994e+01 6.435879e+01 8.892153e+01 6.442151e+01 6.385101e+01 7.293753e+01 4.903348e+01 5.828193e+01 4.235267e+01 3.292133e+01 7.569616e-01 1.517565e+00 1.710950e+00 1.757941e+00 2.210101e+00 2.280144e+00 2.126796e+00 2.463114e+00 2.265870e+00 1.670215e+00 1.901993e+00 1.609672e+00 9.892280e-01 9.599406e-02 2.746638e-01 2.396611e-01 3.111763e-01 3.821097e-01 3.878540e-01 4.097364e-01 4.065138e-01 3.877398e-01 3.096718e-01 3.535555e-01 3.161324e-01 1.223548e-01
<GCONST> 1.127681e+02
<STATE> 3
<MEAN> 39
 -1.174209e+00 -5.304189e+00 -2.485613e-01 -3.357345e-01 1.523535e-01 -2.133139e+00 -1.442249e+00 1.500771e+00 -1.796740e+00 -1.796605e+00 -5.312304e+00 -4.798624e+00 6.337327e+01 1.156740e-01 2.798922e-01 -1.764860e-01 3.283571e-01 -2.500205e-01 4.213664e-02 -7.972215e-02 -1.340671e-01 -7.278260e-02 4.555014e-02 1.225970e-01 3.543390e-02 -6.191126e-01 8.890948e-02 2.270181e-02 -3.759016e-04 -7.577930e-02 -1.753654e-01 -2.069494e-02 -1.429539e-01 2.044295e-02 -4.924292e-02 1.919942e-02 6.720886e-02 -7.006761e-02 3.281187e-02
<VARIANCE> 39
 1.974275e+01 3.004630e+01 4.334942e+01 2.922135e+01 5.266795e+01 5.342799e+01 6.955323e+01 5.228331e+01 6.878291e+01 4.478757e+01 5.210181e+01 2.982775e+01 2.671181e+01 6.227262e-01 1.055802e+00 1.398733e+00 1.416383e+00 1.712258e+00 2.105953e+00 1.946448e+00 2.184085e+00 2.013790e+00 1.990034e+00 1.796797e+00 1.600426e+00 8.191931e-01 9.937032e-02 1.869555e-01 2.134434e-01 2.468623e-01 3.269718e-01 3.569604e-01 3.864272e-01 4.103997e-01 3.934687e-01 3.515629e-01 3.543847e-01 3.044759e-01 7.612464e-02
<GCONST> 1.075552e+02
<STATE> 4
<MEAN> 39
 -4.363339e-01 1.202166e-01 -4.294682e-01 2.488965e+00 -4.130570e+00 -9.372796e-01 -3.172760e+00 8.858638e-01 -5.403912e+00 -7.206607e-01 -2.218684e+00 -2.522442e+00 5.605046e+01 5.999635e-02 3.248310e-01 -3.015721e-01 2.451599e-01 -1.688314e-01 9.954216e-02 -8.868694e-02 -1.986486e-02 1.964156e-02 -1.383658e-01 1.463023e-01 5.431951e-02 -4.144576e-01 -3.238969e-02 -5.663626e-02 7.890714e-02 -1.058831e-01 6.952218e-03 -2.178835e-02 -3.591045e-02 1.845347e-02 2.475117e-02 1.517923e-02 4.195027e-02 -4.690348e-02 1.290883e-01
<VARIANCE> 39
 1.189201e+01 2.715969e+01 4.542193e+01 2.845160e+01 4.208126e+01 4.542756e+01 3.996264e+01 3.710300e+01 4.220383e+01 3.356725e+01 3.155050e+01 2.834276e+01 2.969210e+01 5.453280e-01 1.032752e+00 1.419089e+00 1.502772e+00 1.751262e+00 2.049575e+00 2.199118e+00 2.322777e+00 2.219962e+00 1.995817e+00 1.984337e+00 1.842188e+00 6.257272e-01 7.654475e-02 1.489346e-01 2.200650e-01 2.610840e-01 3.052186e-01 3.530810e-01 4.055103e-01 4.346400e-01 4.082143e-01 3.777626e-01 3.710175e-01 3.276857e-01 8.726396e-02
<GCONST> 1.046172e+02
<TRANSP> 5
 0.000000e+00 1.000000e+00 0.000000e+00 0.000000e+00 0.000000e+00
 0.000000e+00 5.611879e-01 4.388122e-01 0.000000e+00 0.000000e+00
 0.000000e+00 0.000000e+00 6.767537e-01 3.232463e-01 0.000000e+00
 0.000000e+00 0.000000e+00 0.000000e+00 6.939941e-01 3.060059e-01
 0.000000e+00 0.000000e+00 0.000000e+00 0.000000e+00 0.000000e+00
<ENDHMM>
~h "i"
<BEGINHMM>
<NUMSTATES> 5
<STATE> 2
<MEAN> 39
 -1.790538e+00 -8.045349e-01 1.670426e+01 -1.395460e+00 -1.480874e+01 -8.277304e+00 -1.124210e+01 -1.310705e+00 -1.040708e+01 -3.195890e+00 5.897365e+00 -6.440031e+00 6.499451e+01 -1.031522e-01 -5.053855e-01 2.632245e+00 -1.075136e+00 -2.275306e+00 -3.712928e-01 -1.491272e+00 4.839223e-01 -1.154045e+00 -3.128031e-01 1.893894e+00 -6.031350e-01 1.186165e+00 2.153434e-02 2.977795e-01 -9.183365e-01 1.646814e-01 6.415745e-01 4.797781e-01 3.719543e-01 4.682780e-02 3.698035e-01 2.559701e-01 -5.177214e-01 2.816089e-02 -4.426936e-01
<VARIANCE> 39
 1.165556e+01 3.208035e+01 4.647254e+01 4.229715e+01 4.628551e+01 5.480202e+01 5.665766e+01 6.087807e+01 5.463763e+01 5.717229e+01 4.718253e+01 3.244981e+01 1.682603e+01 2.244038e+00 2.060463e+00 4.795815e+00 3.802742e+00 4.103940e+00 4.193393e+00 5.158366e+00 5.065339e+00 5.257370e+00 4.640512e+00 3.969512e+00 2.878592e+00 1.417290e+00 3.159468e-01 3.413640e-01 9.212365e-01 6.650816e-01 8.591293e-01 7.255269e-01 8.387497e-01 8.582616e-01 8.087228e-01 6.750891e-01 7.279432e-01 5.197785e-01 2.821503e-01
<GCONST> 1.295344e+02
<STATE> 3
<MEAN> 39
 -2.857136e+00 -1.157466e+00 2.008471e+01 -3.595379e+00 -1.837762e+01 -7.526817e+00 -1.344224e+01 1.853022e-01 -1.144789e+01 -3.894473e+00 9.211435e+00 -8.633388e+00 6.668966e+01 1.965654e-01 1.860282e-01 -6.358117e-01 1.452270e-01 4.607417e-01 1.264762e-01 2.768137e-01 1.783253e-01 1.488947e-01 3.809722e-01 -4.872735e-01 6.676774e-02 -3.203282e-01 1.449755e-01 1.831940e-01 -7.970257e-01 3.941326e-01 6.815935e-01 1.775832e-01 4.376792e-01 -1.313984e-01 2.637650e-01 1.129605e-01 -6.218137e-01 1.685861e-01 -4.367799e-01
<VARIANCE> 39
 8.083772e+00 3.036726e+01 3.503604e+01 3.888417e+01 3.795632e+01 5.375386e+01 5.606167e+01 6.952701e+01 5.885115e+01 6.547538e+01 4.603835e+01 3.504395e+01 1.109177e+01 7.990767e-01 1.589517e+00 2.779303e+00 2.359701e+00 2.513705e+00 2.872334e+00 2.831170e+00 3.345180e+00 2.716912e+00 2.214686e+00 2.352339e+00 2.002614e+00 1.052827e+00 1.565716e-01 2.473732e-01 5.604818e-01 4.146439e-01 5.518833e-01 5.840074e-01 6.343068e-01 7.018061e-01 6.370206e-01 5.428408e-01 5.509284e-01 4.114531e-01 1.811146e-01
<GCONST> 1.171696e+02
<STATE> 4
<MEAN> 39
 -8.182625e-01 2.451532e+00 1.330120e+01 -8.299038e-01 -1.135703e+01 -3.917350e+00 -9.641032e+00 -2.153309e+00 -1.060355e+01 -2.032936e-01 1.771947e+00 -5.318160e+00 6.002955e+01 2.761881e-01 4.779184e-01 -1.527581e+00 8.363391e-01 9.421791e-01 6.555089e-01 7.645118e-01 -1.405874e-01 3.894270e-01 1.388810e-01 -8.675049e-01 2.857560e-01 -1.074275e+00 -8.879521e-02 -5.421322e-02 -2.953232e-02 -3.950918e-02 -2.997089e-02 3.473222e-02 1.389972e-02 -3.794099e-02 6.221446e-02 -5.897737e-02 5.918103e-02 -1.849993e-02 6.134337e-02
<VARIANCE> 39
 9.299019e+00 2.913741e+01 4.522099e+01 4.402560e+01 4.031397e+01 5.681609e+01 4.593777e+01 5.298029e+01 4.752976e+01 4.853359e+01 4.311866e+01 3.209601e+01 2.603428e+01 7.499626e-01 1.324823e+00 2.355389e+00 2.124900e+00 2.552375e+00 2.729892e+00 2.872263e+00 2.951030e+00 2.959979e+00 2.574269e+00 2.596375e+00 2.048636e+00 1.119004e+00 1.095778e-01 1.935808e-01 3.907238e-01 3.555668e-01 4.394882e-01 5.091846e-01 4.834147e-01 4.936008e-01 4.743747e-01 4.183736e-01 3.897739e-01 3.364100e-01 1.500865e-01
<GCONST> 1.138396e+02
<TRANSP> 5
 0.000000e+00 1.000000e+00 0.000000e+00 0.000000e+00 0.000000e+00
 0.000000e+00 4.671200e-01 5.328800e-01 0.000000e+00 0.000000e+00
 0.000000e+00 0.000000e+00 6.630858e-01 3.369141e-01 0.000000e+00
 0.000000e+00 0.000000e+00 0.000000e+00 7.132219e-01 2.867780e-01
 0.000000e+00 0.000000e+00 0.000000e+00 0.000000e+00 0.000000e+00
<ENDHMM>
~h "j"
<BEGINHMM>
<NUMSTATES> 5
<STATE> 2
<MEAN> 39
 1.412155e+00 6.418178e+00 5.647159e+00 4.383216e+00 -3.743322e+00 -1.512909e+00 -6.038626e+00 4.475153e-01 -4.419501e+00 -2.072331e+00 -2.661898e+00 -3.479962e+00 5.634872e+01 -1.344416e+00 3.682233e-01 8.765905e-01 -9.546378e-01 8.675423e-01 -8.489718e-01 1.179984e-01 -6.823885e-01 -4.539873e-03 -4.556448e-01 4.362433e-01 4.876052e-01 6.552223e-01 -3.998668e-01 -4.880860e-01 7.577134e-01 -5.692537e-01 -5.004011e-01 -7.445453e-01 -6.198509e-01 -8.428480e-02 -2.293251e-01 -7.436524e-02 4.932375e-01 1.703792e-01 8.088603e-01
<VARIANCE> 39
 1.584927e+01 2.551495e+01 2.882197e+01 2.706045e+01 4.173330e+01 3.359190e+01 3.456655e+01 3.939386e+01 2.821318e+01 2.469786e+01 2.588814e+01 2.437082e+01 1.688468e+01 2.482626e+00 2.041407e+00 3.958336e+00 3.377345e+00 3.610122e+00 4.997723e+00 3.302611e+00 3.427814e+00 2.700269e+00 2.735572e+00 2.457902e+00 2.124776e+00 2.161522e+00 4.203714e-01 3.466668e-01 4.039128e-01 5.146386e-01 9.211409e-01 6.463331e-01 6.504900e-01 6.157343e-01 5.326917e-01 5.889123e-01 4.769500e-01 4.191715e-01 1.944044e-01
<GCONST> 1.192423e+02
<STATE> 3
<MEAN> 39
 -5.493374e+00 5.779356e+00 1.347284e+01 -1.153371e+00 -4.634834e+00 -7.748899e+00 -7.943635e+00 -3.574104e+00 -6.222933e+00 -4.761483e+00 1.189312e+00 -7.479135e-01 6.260378e+01 -2.324132e-01 -1.676116e+00 2.562376e+00 -8.593645e-01 -2.732105e+00 -2.211676e+00 -2.524515e+00 2.934501e-01 -8.360405e-01 -7.265261e-02 1.780115e+00 3.855342e-01 2.243899e+00 8.787457e-01 -5.424076e-01 -6.479615e-01 2.591313e-01 -5.130056e-01 3.312086e-01 -5.132745e-01 7.233248e-01 9.130632e-02 5.286676e-01 1.655122e-02 -4.162255e-01 -1.015856e-01
<VARIANCE> 39
 1.938588e+01 3.282255e+01 4.305775e+01 2.925486e+01 5.244723e+01 4.952765e+01 5.370784e+01 3.954137e+01 3.164648e+01 3.239927e+01 2.680791e+01 2.398329e+01 1.472436e+01 2.822544e+00 2.643222e+00 3.263159e+00 3.718721e+00 4.062953e+00 4.006774e+00 4.137908e+00 4.742880e+00 3.511027e+00 3.593938e+00 3.105540e+00 2.666324e+00 1.348392e+00 3.460112e-01 5.219349e-01 7.100067e-01 6.105201e-01 1.195683e+00 1.004224e+00 8.307062e-01 7.446856e-01 6.984716e-01 6.290670e-01 6.966594e-01 5.938620e-01 2.071078e-01
<GCONST> 1.259792e+02
<STATE> 4
<MEAN> 39
 -1.470831e+00 -2.373822e+00 1.570415e+01 -2.675543e+00 -1.312326e+01 -1.201195e+01 -1.682681e+01 3.756025e+00 -6.693311e+00 -1.984126e+00 5.139551e+00 -2.068943e+00 6.767605e+01 9.249316e-01 -1.691585e+00 -1.124027e+00 -7.519754e-01 -6.101975e-01 -6.290393e-02 -1.348115e+00 1.617321e+00 6.018805e-01 1.204388e+00 2.798099e-01 -1.159934e+00 9.401312e-01 9.916484e-02 5.233034e-01 -9.293802e-01 1.120752e-01 1.043333e+00 8.593927e-01 8.468612e-01 -2.568406e-01 1.904466e-01 8.244109e-02 -6.225043e-01 -3.101650e-01 -6.538206e-01
<VARIANCE> 39
 6.280575e+00 2.446715e+01 3.423787e+01 3.833206e+01 3.204879e+01 2.667033e+01 5.704400e+01 6.267003e+01 4.701921e+01 6.522696e+01 3.709805e+01 2.977267e+01 1.709654e+01 8.310989e-01 2.127736e+00 3.281014e+00 2.096983e+00 4.645726e+00 3.202547e+00 5.202451e+00 4.068616e+00 3.804672e+00 3.338052e+00 4.382460e+00 2.946351e+00 1.116043e+00 2.104997e-01 2.356974e-01 6.244221e-01 5.765003e-01 5.399182e-01 6.065966e-01 6.687179e-01 7.436348e-01 6.683580e-01 6.538394e-01 6.403496e-01 4.942612e-01 1.587558e-01
<GCONST> 1.205006e+02
<TRANSP> 5
 0.000000e+00 1.000000e+00 0.000000e+00 0.000000e+00 0.000000e+00
 0.000000e+00 6.822993e-01 3.177008e-01 0.000000e+00 0.000000e+00
 0.000000e+00 0.000000e+00 5.608775e-01 4.391225e-01 0.000000e+00
 0.000000e+00 0.000000e+00 0.000000e+00 6.022514e-01 3.977486e-01
 0.000000e+00 0.000000e+00 0.000000e+00 0.000000e+00 0.000000e+00
<ENDHMM>
~h "k"
<BEGINHMM>
<NUMSTATES> 5
<STATE> 2
<MEAN> 39
 5.990953e-01 2.409665e+00 -3.517089e+00 1.727237e+00 -4.662194e+00 1.182032e+00 -4.942419e+00 -1.976277e-01 -4.897138e+00 -9.277897e-02 -1.156638e+00 -3.742489e+00 5.383203e+01 -5.844078e-01 -4.478278e-01 -8.180311e-01 -2.247980e-01 1.230859e+00 -4.767695e-01 -1.442220e-01 -2.547085e-02 3.586565e-01 1.729790e-01 -1.552223e-01 1.390259e-01 3.315628e-01 -1.953308e-02 -4.427869e-01 1.867455e-01 -5.956469e-01 2.450579e-01 -3.480082e-01 -2.737015e-01 -3.798402e-02 -3.678848e-02 2.334981e-01 9.491176e-02 -2.070681e-01 8.040637e-01
<VARIANCE> 39
 8.886374e+00 2.160137e+01 3.313206e+01 2.890200e+01 3.513805e+01 4.067735e+01 3.109648e+01 3.317156e+01 3.087319e+01 2.718200e+01 2.652592e+01 2.613792e+01 1.562957e+01 1.223453e+00 2.874436e+00 2.950892e+00 3.247867e+00 4.972599e+00 4.005893e+00 3.518133e+00 3.788887e+00 3.562023e+00 3.225472e+00 2.682095e+00 2.535185e+00 2.387905e+00 2.243783e-01 3.515993e-01 4.670349e-01 4.854299e-01 7.468694e-01 6.329755e-01 5.716022e-01 6.271162e-01 6.339574e-01 5.540186e-01 4.771701e-01 4.813462e-01 2.370588e-01
<GCONST> 1.185981e+02
<STATE> 3
<MEAN> 39
 -2.801748e+00 -1.994222e+00 -5.724516e+00 -9.386851e-01 3.018758e+00 -2.460753e+00 -6.440780e+00 -9.805279e-01 -3.206084e+00 2.330909e+00 -1.516593e+00 -4.057081e+00 5.890576e+01 9.239168e-02 -8.646323e-01 3.764743e-01 -1.626299e+00 2.257070e-01 -9.873804e-01 -6.028094e-01 -4.079957e-03 -6.697910e-02 4.919769e-01 2.052858e-01 -6.856413e-01 1.912986e+00 5.907294e-01 2.486039e-02 7.134415e-01 -3.476650e-01 -1.221993e+00 2.553354e-01 -1.277284e-01 2.063241e-01 -2.996714e-01 -1.511621e-01 2.449498e-01 -3.338963e-01 2.572741e-01
<VARIANCE> 39
 2.204083e+01 3.070554e+01 5.515778e+01 4.056436e+01 6.343843e+01 6.861044e+01 6.105294e+01 5.934695e+01 4.573872e+01 4.242584e+01 4.113212e+01 3.396043e+01 2.318106e+01 2.287882e+00 3.462533e+00 4.520001e+00 4.458586e+00 6.505185e+00 4.875337e+00 4.305078e+00 4.875152e+00 4.782626e+00 3.615045e+00 3.248744e+00 3.565672e+00 2.814038e+00 3.676646e-01 6.334033e-01 6.971886e-01 7.395882e-01 1.144036e+00 9.255329e-01 1.122959e+00 1.211374e+00 1.066967e+00 8.970140e-01 7.991768e-01 7.451732e-01 3.384077e-01
<GCONST> 1.349450e+02
<STATE> 4
<MEAN> 39
 6.817454e-01 -9.750626e-01 -2.766815e+00 -4.248363e+00 -2.926195e+00 -2.941101e+00 -6.969146e+00 -1.630744e-01 -5.210618e+00 1.755414e+00 -5.336657e-01 -6.263867e+00 6.094639e+01 1.231861e+00 -8.052394e-01 1.529035e+00 -1.912317e+00 -2.157636e+00 6.777067e-04 -9.309394e-01 4.058067e-01 -5.818691e-01 -2.404909e-02 7.425108e-01 -1.065218e+00 1.979093e+00 1.054935e-01 -6.874427e-02 1.735778e-01 2.124222e-01 -3.371751e-01 3.857137e-01 -5.889398e-02 6.293079e-02 2.886102e-02 -1.580375e-01 8.251513e-02 2.035251e-02 -1.266969e-01
<VARIANCE> 39
 2.187088e+01 3.691713e+01 5.351549e+01 5.257615e+01 4.479917e+01 6.325350e+01 4.675323e+01 4.261172e+01 4.559997e+01 3.864897e+01 3.766417e+01 3.577264e+01 3.052694e+01 2.385072e+00 3.953915e+00 4.564538e+00 5.496772e+00 6.426027e+00 5.054063e+00 6.029624e+00 6.662588e+00 6.410506e+00 4.871410e+00 4.815358e+00 4.763965e+00 2.333223e+00 3.023384e-01 4.587067e-01 5.341400e-01 6.519210e-01 7.848514e-01 7.513413e-01 7.396303e-01 7.573037e-01 7.522587e-01 7.089723e-01 5.939803e-01 5.250428e-01 3.978943e-01
<GCONST> 1.331666e+02
<TRANSP> 5
 0.000000e+00 1.000000e+00 0.000000e+00 0.000000e+00 0.000000e+00
 0.000000e+00 5.845305e-01 4.154695e-01 0.000000e+00 0.000000e+00
 0.000000e+00 0.000000e+00 4.286810e-01 5.713190e-01 0.000000e+00
 0.000000e+00 0.000000e+00 0.000000e+00 1.708975e-01 8.291025e-01
 0.000000e+00 0.000000e+00 0.000000e+00 0.000000e+00 0.000000e+00
<ENDHMM>
~h "l"
<BEGINHMM>
<NUMSTATES> 5
<STATE> 2
<MEAN> 39
 3.076997e+00 -3.545340e+00 3.505280e+00 -6.336833e+00 -6.546347e+00 -2.542731e+00 -1.611787e+01 -5.942573e+00 -8.007233e-01 5.182384e+00 2.589438e+00 -9.670852e+00 6.576414e+01 1.044056e-01 -7.909073e-02 7.552239e-02 -3.512104e-01 -1.903615e-02 3.231771e-01 -7.208861e-01 -3.856350e-01 2.897019e-01 6.119567e-01 2.401166e-01 -5.522948e-01 9.505361e-02 -1.269757e-01 -1.623492e-01 -9.226589e-02 -1.298592e-01 -4.700356e-02 1.427694e-01 4.000968e-01 5.759001e-01 1.422344e-02 -4.159426e-01 -1.326299e-01 4.480556e-03 1.057494e-01
<VARIANCE> 39
 1.004707e+01 3.654837e+01 6.889132e+01 5.989949e+01 5.252394e+01 6.039489e+01 8.907702e+01 9.701466e+01 8.466108e+01 4.686069e+01 5.856710e+01 6.352735e+01 2.008836e+01 4.436707e-01 1.427526e+00 2.142447e+00 2.985070e+00 2.267959e+00 3.510312e+00 3.751705e+00 4.301756e+00 3.410156e+00 3.130000e+00 2.989119e+00 2.458484e+00 9.805876e-01 9.341563e-02 2.626096e-01 3.032912e-01 5.018599e-01 4.827098e-01 5.856347e-01 7.696735e-01 7.301989e-01 6.156588e-01 5.482104e-01 6.900721e-01 4.874349e-01 1.191170e-01
<GCONST> 1.214066e+02
<STATE> 3
<MEAN> 39
 2.833130e+00 -5.313470e+00 3.655424e+00 -8.681654e+00 -7.434885e+00 -1.407902e+00 -1.670104e+01 -3.382470e+00 3.685620e-01 6.096023e+00 2.950149e+00 -1.242864e+01 6.706531e+01 -1.745110e-01 -6.414852e-01 -2.530276e-01 -5.175277e-01 -5.907917e-03 4.447068e-01 5.606477e-01 1.201570e+00 3.996559e-01 -6.354020e-01 -6.033295e-01 -3.183125e-01 4.399258e-01 -8.875983e-02 -9.619991e-02 -8.783546e-02 9.608809e-02 7.291985e-02 3.106769e-02 4.591787e-01 3.935324e-01 -1.700815e-01 -4.930206e-01 -2.574105e-01 2.497817e-01 3.070099e-02
<VARIANCE> 39
 8.726312e+00 3.517927e+01 6.579494e+01 5.785823e+01 5.137568e+01 5.389169e+01 8.424036e+01 7.484451e+01 8.635747e+01 4.520389e+01 5.385456e+01 6.880193e+01 1.929719e+01 4.350921e-01 1.626562e+00 2.287063e+00 2.426318e+00 2.041129e+00 3.106985e+00 3.588447e+00 3.792941e+00 3.433854e+00 2.823795e+00 3.620615e+00 2.208791e+00 8.640617e-01 6.485124e-02 2.414734e-01 2.537042e-01 4.334874e-01 3.491258e-01 5.218180e-01 5.545712e-01 5.959637e-01 5.412582e-01 4.838814e-01 6.035717e-01 4.091499e-01 1.109890e-01
<GCONST> 1.176909e+02
<STATE> 4
<MEAN> 39
 2.247177e+00 -6.510803e+00 2.039859e+00 -8.740150e+00 -7.084543e+00 -9.559765e-02 -1.361598e+01 -6.303819e-01 1.311944e+00 2.372199e+00 7.257562e-01 -1.194558e+01 6.792625e+01 -1.656036e-01 -2.925434e-01 -1.092316e-01 1.262520e-01 2.031138e-01 4.351024e-01 1.021574e+00 9.838787e-01 -6.295066e-01 -1.031572e+00 -5.164785e-01 2.896155e-01 6.512603e-02 6.604303e-03 2.594510e-01 1.440165e-01 2.456347e-01 1.581948e-02 -1.230442e-01 6.850120e-02 -2.343658e-01 -4.447817e-01 3.326769e-02 1.394213e-01 2.333307e-01 -2.111918e-01
<VARIANCE> 39
 1.134376e+01 3.722443e+01 5.975420e+01 6.330735e+01 4.556366e+01 6.291125e+01 7.257986e+01 7.800792e+01 9.554480e+01 5.347718e+01 5.495915e+01 6.540057e+01 2.325614e+01 5.458306e-01 1.902974e+00 2.224022e+00 2.778969e+00 2.483167e+00 3.791641e+00 3.647426e+00 4.330912e+00 4.174879e+00 3.136495e+00 4.251425e+00 2.264450e+00 1.197352e+00 8.439957e-02 2.277984e-01 3.835720e-01 4.200742e-01 4.097771e-01 5.398631e-01 5.597918e-01 7.072705e-01 6.594340e-01 4.989590e-01 5.719929e-01 4.145646e-01 1.439323e-01
<GCONST> 1.216130e+02
<TRANSP> 5
 0.000000e+00 1.000000e+00 0.000000e+00 0.000000e+00 0.000000e+00
 0.000000e+00 4.163359e-01 5.836641e-01 0.000000e+00 0.000000e+00
 0.000000e+00 0.000000e+00 3.728715e-01 6.271285e-01 0.000000e+00
 0.000000e+00 0.000000e+00 0.000000e+00 3.540787e-01 6.459213e-01
 0.000000e+00 0.000000e+00 0.000000e+00 0.000000e+00 0.000000e+00
<ENDHMM>
~h "m"
<BEGINHMM>
<NUMSTATES> 5
<STATE> 2
<MEAN> 39
 4.682830e+00 -1.395739e+00 3.652456e+00 6.958701e-01 -7.400528e+00 6.231349e+00 -6.277184e+00 -6.673679e+00 -1.172956e+01 5.099583e-01 -4.344402e-01 -8.410342e+00 6.153672e+01 5.627851e-04 3.329725e-01 9.721066e-01 1.143649e+00 -1.001976e-02 9.153364e-01 4.970241e-01 -1.280060e+00 -1.423373e+00 -5.535074e-01 -8.124909e-01 -1.502682e-01 -3.977436e-01 -7.864989e-02 -2.658163e-01 -1.979565e-01 -4.709843e-01 3.935863e-02 -3.080017e-01 -2.780157e-01 4.944396e-01 5.547740e-01 1.415080e-03 9.526120e-02 -5.155730e-02 2.819981e-01
<VARIANCE> 39
 6.801711e+00 2.857637e+01 3.145593e+01 3.492321e+01 5.190400e+01 4.124982e+01 4.468407e+01 3.596496e+01 4.207219e+01 3.395973e+01 4.253045e+01 4.123554e+01 1.788087e+01 4.999638e-01 1.280292e+00 2.000566e+00 1.946119e+00 2.163083e+00 2.354058e+00 2.426497e+00 2.531198e+00 4.020512e+00 2.208275e+00 2.878850e+00 2.072981e+00 9.330041e-01 8.851004e-02 1.490279e-01 2.654558e-01 2.936958e-01 3.636743e-01 3.684250e-01 4.073815e-01 4.048843e-01 5.166702e-01 4.247372e-01 5.152123e-01 3.591315e-01 8.561137e-02
<GCONST> 1.085206e+02
<STATE> 3
<MEAN> 39
 4.163751e+00 -1.849889e+00 6.491539e+00 6.387240e-01 -8.505681e+00 7.713011e+00 -6.530908e+00 -8.102376e+00 -1.395117e+01 -1.404011e+00 -1.059753e+00 -9.384587e+00 6.217259e+01 1.713935e-01 -1.513365e-01 -3.545185e-01 -4.687641e-01 -2.832470e-01 -2.525057e-01 -2.412424e-01 2.888255e-01 5.819002e-01 1.462760e-01 3.789998e-01 4.771722e-03 2.010730e-01 4.347901e-02 -1.605982e-01 -4.804704e-01 -4.473485e-01 -5.204058e-02 -3.230138e-01 -1.545821e-01 5.664638e-01 7.246862e-01 2.263919e-01 2.265913e-01 -1.871345e-02 1.594070e-01
<VARIANCE> 39
 5.603334e+00 2.634515e+01 3.669540e+01 3.143739e+01 5.406781e+01 4.520623e+01 3.912859e+01 4.034496e+01 5.570678e+01 3.399009e+01 4.640735e+01 4.376580e+01 1.531970e+01 3.521461e-01 1.046536e+00 1.569425e+00 1.690503e+00 1.539014e+00 2.016687e+00 1.808135e+00 1.863636e+00 2.803823e+00 1.786430e+00 2.116279e+00 1.805106e+00 7.071991e-01 7.172039e-02 1.765736e-01 2.645834e-01 2.967893e-01 3.247516e-01 4.033240e-01 3.453046e-01 4.521604e-01 6.706249e-01 4.097488e-01 4.814241e-01 3.989940e-01 8.230554e-02
<GCONST> 1.054679e+02
<STATE> 4
<MEAN> 39
 5.659632e+00 -2.418004e+00 8.430429e-01 -3.103545e+00 -8.761701e+00 5.716057e+00 -7.694305e+00 -4.206597e+00 -8.040058e+00 7.451946e-01 6.661615e-01 -8.445814e+00 6.302557e+01 5.060010e-02 -8.836054e-01 -1.129913e+00 -1.262272e+00 3.243588e-01 -3.403544e-01 -4.926758e-01 1.652046e+00 1.707696e+00 1.764733e-01 2.291052e-01 -4.806250e-01 6.921874e-01 -2.068224e-01 -9.961392e-02 2.408271e-01 1.222842e-01 2.380989e-01 -8.628131e-02 -1.396020e-02 1.556906e-01 -6.351022e-02 -1.450890e-01 -2.163382e-01 -2.530138e-02 3.384834e-02
<VARIANCE> 39
 6.902167e+00 4.016329e+01 3.828915e+01 4.865229e+01 8.681930e+01 4.410746e+01 5.210829e+01 4.333491e+01 4.141252e+01 3.763957e+01 4.114140e+01 4.549833e+01 2.275033e+01 5.241799e-01 2.010685e+00 2.537647e+00 2.907892e+00 3.436267e+00 3.132746e+00 2.961457e+00 3.057584e+00 5.356468e+00 2.937121e+00 3.140975e+00 3.078120e+00 1.029900e+00 9.127949e-02 1.952506e-01 3.430195e-01 4.812672e-01 5.485452e-01 4.579866e-01 4.539281e-01 5.237141e-01 6.003083e-01 4.320035e-01 5.150523e-01 4.032942e-01 1.116051e-01
<GCONST> 1.167397e+02
<TRANSP> 5
 0.000000e+00 1.000000e+00 0.000000e+00 0.000000e+00 0.000000e+00
 0.000000e+00 5.053113e-01 4.946887e-01 0.000000e+00 0.000000e+00
 0.000000e+00 0.000000e+00 6.077570e-01 3.922430e-01 0.000000e+00
 0.000000e+00 0.000000e+00 0.000000e+00 4.917156e-01 5.082844e-01
 0.000000e+00 0.000000e+00 0.000000e+00 0.000000e+00 0.000000e+00
<ENDHMM>
~h "n"
<BEGINHMM>
<NUMSTATES> 5
<STATE> 2
<MEAN> 39
 3.663431e+00 -3.241023e+00 6.999404e+00 3.054002e+00 -9.821293e+00 -1.495653e+00 -9.592839e+00 -2.507129e+00 -5.936526e+00 2.783205e+00 -5.007313e+00 -9.628197e+00 6.269209e+01 3.491960e-01 1.376907e+00 8.538013e-01 1.334003e+00 -5.310513e-01 9.088185e-01 3.765965e-01 -2.564210e+00 -9.668882e-01 9.788809e-01 -1.074357e+00 5.934230e-01 -1.184237e+00 -1.304246e-01 -2.461540e-01 -2.623343e-01 -4.635400e-01 1.424929e-01 -2.874525e-02 7.442448e-02 5.043377e-01 1.680586e-01 -2.951157e-01 2.903565e-01 -2.229103e-02 2.545056e-01
<VARIANCE> 39
 5.173915e+00 2.926141e+01 3.205087e+01 2.480343e+01 4.814340e+01 3.634576e+01 4.630900e+01 6.261145e+01 4.908703e+01 4.506821e+01 3.804365e+01 4.417601e+01 1.467705e+01 4.287154e-01 1.286525e+00 2.635907e+00 1.723617e+00 2.221789e+00 2.767665e+00 3.235924e+00 4.787931e+00 2.809600e+00 3.336674e+00 3.068276e+00 2.570693e+00 7.183228e-01 7.534262e-02 2.262908e-01 3.086099e-01 2.759952e-01 3.314578e-01 3.713485e-01 4.044509e-01 7.322151e-01 4.304305e-01 4.609422e-01 4.322155e-01 3.438008e-01 1.131415e-01
<GCONST> 1.105282e+02
<STATE> 3
<MEAN> 39
 4.329471e+00 -1.701405e+00 8.055408e+00 4.960520e+00 -1.198476e+01 4.026671e-01 -8.180019e+00 -6.817723e+00 -7.724341e+00 4.374138e+00 -5.706481e+00 -8.739963e+00 6.129906e+01 7.290483e-02 5.229111e-01 -2.228788e-01 2.802116e-01 1.178290e-01 3.107735e-01 3.832426e-01 -3.222724e-01 -1.746816e-01 -1.467501e-01 -1.313444e-01 2.090670e-01 -4.554509e-01 -1.768198e-01 -2.901945e-01 -3.396282e-01 -4.353053e-01 3.030874e-01 -2.441142e-01 -2.810685e-02 8.644273e-01 2.940197e-01 -4.959787e-01 3.713638e-01 -1.187919e-01 2.580642e-01
<VARIANCE> 39
 3.974750e+00 2.276304e+01 2.687939e+01 2.394599e+01 4.153187e+01 3.651589e+01 3.822888e+01 5.523125e+01 5.160169e+01 4.111540e+01 3.940384e+01 3.724646e+01 1.027640e+01 2.674348e-01 1.284442e+00 1.441695e+00 1.304208e+00 1.608410e+00 1.866917e+00 2.034785e+00 2.895833e+00 2.341477e+00 2.227760e+00 1.992910e+00 1.685609e+00 7.227869e-01 9.228976e-02 2.810042e-01 3.901978e-01 3.621825e-01 3.833938e-01 4.251073e-01 4.607461e-01 8.202534e-01 4.971383e-01 5.352862e-01 5.419863e-01 3.807291e-01 1.467440e-01
<GCONST> 1.066678e+02
<STATE> 4
<MEAN> 39
 3.210586e+00 1.506957e+00 4.469828e+00 5.178470e+00 -6.666410e+00 4.657224e-01 -7.141187e+00 -3.311876e+00 -5.690506e+00 3.726880e-01 -6.405495e+00 -6.632610e+00 5.819472e+01 -3.406537e-01 6.753469e-02 -5.562100e-01 -3.951625e-01 4.559899e-01 3.069904e-02 2.435899e-01 8.210343e-01 2.332395e-01 -7.734870e-01 4.336318e-01 4.258980e-02 -1.955479e-01 -1.572016e-01 -2.713662e-01 2.165651e-02 -3.550820e-01 1.560441e-02 -9.203752e-02 -1.043585e-01 3.097769e-01 8.235367e-02 -7.285359e-02 2.188947e-01 -3.242131e-02 2.333720e-01
<VARIANCE> 39
 7.113392e+00 3.106014e+01 2.782573e+01 2.514282e+01 4.485668e+01 3.427516e+01 4.784912e+01 5.341768e+01 3.967906e+01 4.218416e+01 3.902085e+01 3.334615e+01 1.774704e+01 5.718848e-01 2.031019e+00 2.000425e+00 2.188612e+00 2.444806e+00 2.324228e+00 2.487963e+00 4.501987e+00 2.537063e+00 2.828224e+00 2.798743e+00 2.154905e+00 1.303253e+00 1.342303e-01 2.376061e-01 3.150624e-01 3.753746e-01 4.117652e-01 4.605546e-01 4.542260e-01 6.986247e-01 4.657868e-01 4.912387e-01 4.821267e-01 3.634494e-01 1.293446e-01
<GCONST> 1.124396e+02
<TRANSP> 5
 0.000000e+00 1.000000e+00 0.000000e+00 0.000000e+00 0.000000e+00
 0.000000e+00 3.309361e-01 6.690639e-01 0.000000e+00 0.000000e+00
 0.000000e+00 0.000000e+00 5.533365e-01 4.466635e-01 0.000000e+00
 0.000000e+00 0.000000e+00 0.000000e+00 5.966627e-01 4.033373e-01
 0.000000e+00 0.000000e+00 0.000000e+00 0.000000e+00 0.000000e+00
<ENDHMM>
~h "o"
<BEGINHMM>
<NUMSTATES> 5
<STATE> 2
<MEAN> 39
 4.261254e+00 -1.909865e+00 -3.668446e+00 -1.238359e+01 -7.264893e+00 4.320387e+00 -8.416180e+00 -1.937209e+00 -4.130590e+00 2.620508e+00 3.094300e+00 -6.036651e+00 6.480053e+01 8.333078e-01 -8.037223e-01 -8.038685e-02 -1.805212e+00 -6.254914e-01 1.114522e+00 -4.925519e-01 1.126555e-02 -2.704990e-01 5.895340e-01 7.291884e-01 -5.285183e-01 1.183340e+00 -3.095734e-01 2.555491e-01 2.186690e-01 8.216838e-01 2.258465e-01 -2.049749e-01 2.112056e-01 2.978380e-02 -5.912439e-02 -1.617628e-01 -3.020273e-01 9.598001e-02 -4.832647e-01
<VARIANCE> 39
 1.139005e+01 3.400999e+01 2.949541e+01 7.517934e+01 5.315368e+01 7.171886e+01 7.191794e+01 4.830980e+01 6.476478e+01 4.687326e+01 4.090100e+01 4.376806e+01 3.234902e+01 1.933447e+00 2.346046e+00 2.700244e+00 7.235183e+00 4.277347e+00 5.337776e+00 4.713618e+00 4.402413e+00 4.431716e+00 4.051300e+00 3.258664e+00 2.716296e+00 2.717275e+00 3.106034e-01 3.796695e-01 4.388064e-01 1.008025e+00 6.849135e-01 8.993556e-01 9.548337e-01 7.276323e-01 7.775605e-01 7.196712e-01 6.066400e-01 5.533071e-01 3.771357e-01
<GCONST> 1.309883e+02
<STATE> 3
<MEAN> 39
 5.071698e+00 -4.808016e+00 -3.137116e+00 -1.308909e+01 -9.275291e+00 6.625140e+00 -9.565318e+00 -2.157756e+00 -3.761558e+00 3.197376e+00 5.740293e+00 -9.182220e+00 6.682410e+01 -8.791890e-04 2.744363e-01 6.041354e-03 9.311513e-01 3.464266e-01 -3.061906e-01 2.320482e-01 -4.743757e-02 -1.092345e-01 2.049696e-03 -4.369386e-01 2.403386e-03 -4.540345e-01 -1.589881e-01 2.983598e-01 1.080886e-01 6.697782e-01 1.674409e-01 -3.190199e-01 1.249065e-01 -1.361305e-01 4.307306e-02 -1.312989e-01 -3.552900e-01 1.586041e-01 -3.687199e-01
<VARIANCE> 39
 6.795737e+00 2.961536e+01 2.297704e+01 6.282519e+01 4.798437e+01 6.380137e+01 5.640171e+01 6.084777e+01 6.590997e+01 5.345102e+01 4.864145e+01 4.909885e+01 1.494101e+01 4.812433e-01 1.590182e+00 1.371721e+00 3.526865e+00 2.241976e+00 3.017639e+00 2.989443e+00 2.527796e+00 2.909549e+00 2.753628e+00 2.638531e+00 2.131466e+00 1.161241e+00 1.159185e-01 2.095086e-01 2.949682e-01 4.566477e-01 5.035524e-01 5.972219e-01 5.240856e-01 5.923895e-01 5.789300e-01 5.477578e-01 4.907421e-01 4.314803e-01 1.372221e-01
<GCONST> 1.154935e+02
<STATE> 4
<MEAN> 39
 4.593436e+00 1.926515e+00 -3.556821e+00 -7.209295e+00 -5.739696e+00 3.139990e+00 -7.313613e+00 -9.890598e-01 -5.818808e+00 2.071381e+00 -1.069144e-01 -4.161496e+00 5.962132e+01 -2.576972e-01 5.149853e-01 1.792187e-01 1.625732e+00 1.493704e-01 -2.907878e-01 3.404424e-01 -2.486767e-01 1.172928e-01 -2.965207e-01 -5.955176e-01 2.037022e-01 -8.908332e-01 -4.898616e-02 -7.445933e-02 8.608147e-02 -4.893011e-02 -2.647289e-02 2.101183e-02 -2.232404e-02 -1.565467e-03 -1.413954e-02 6.866441e-04 4.226672e-02 -1.229555e-02 7.691216e-02
<VARIANCE> 39
 9.183929e+00 3.775433e+01 2.809839e+01 7.965114e+01 4.087961e+01 4.599762e+01 6.605536e+01 4.131784e+01 5.994064e+01 4.803023e+01 3.841888e+01 4.246439e+01 3.074961e+01 4.977503e-01 1.117300e+00 1.532279e+00 2.697569e+00 2.048425e+00 2.301721e+00 2.376704e+00 2.477381e+00 2.485007e+00 2.708257e+00 2.310898e+00 1.813404e+00 8.661599e-01 9.575904e-02 1.900275e-01 2.092788e-01 3.894476e-01 3.215801e-01 3.889326e-01 4.224840e-01 4.386399e-01 4.372199e-01 4.956367e-01 3.353234e-01 3.124869e-01 1.003549e-01
<GCONST> 1.104679e+02
<TRANSP> 5
 0.000000e+00 1.000000e+00 0.000000e+00 0.000000e+00 0.000000e+00
 0.000000e+00 5.648323e-01 4.351677e-01 0.000000e+00 0.000000e+00
 0.000000e+00 0.000000e+00 6.751555e-01 3.248445e-01 0.000000e+00
 0.000000e+00 0.000000e+00 0.000000e+00 6.748437e-01 3.251563e-01
 0.000000e+00 0.000000e+00 0.000000e+00 0.000000e+00 0.000000e+00
<ENDHMM>
~h "p"
<BEGINHMM>
<NUMSTATES> 5
<STATE> 2
<MEAN> 39
 1.417760e+00 3.168473e+00 -4.219371e+00 2.377198e+00 -3.852938e+00 2.504063e+00 -5.368321e+00 -3.753402e-01 -3.990927e+00 -5.271494e-01 -2.117939e+00 -4.605884e+00 5.327940e+01 -4.176164e-01 9.395830e-02 -1.732972e-01 2.461415e-01 1.820798e-01 -3.771994e-01 3.177440e-01 2.306267e-02 4.205301e-01 -1.116576e-01 -3.005896e-02 3.513412e-01 -2.994721e-01 7.708829e-02 -4.882971e-01 2.323596e-01 -5.003500e-01 -5.174652e-02 -2.115876e-01 -2.675986e-01 -1.497693e-01 5.104393e-02 1.051830e-01 2.218907e-01 -1.050186e-01 7.202719e-01
<VARIANCE> 39
 9.478441e+00 1.582637e+01 2.409747e+01 1.925704e+01 2.600156e+01 3.659275e+01 2.630464e+01 2.538797e+01 2.882939e+01 2.337183e+01 2.278231e+01 2.395709e+01 9.250880e+00 7.513543e-01 1.226639e+00 1.209646e+00 1.695771e+00 1.738182e+00 2.321269e+00 2.045857e+00 2.343707e+00 2.049873e+00 1.860045e+00 1.858709e+00 1.679345e+00 1.176347e+00 1.516806e-01 2.505073e-01 3.827445e-01 4.513322e-01 4.112538e-01 5.729789e-01 4.978620e-01 5.048063e-01 4.998717e-01 4.617167e-01 4.562806e-01 4.162632e-01 2.365491e-01
<GCONST> 1.050467e+02
<STATE> 3
<MEAN> 39
 -5.366796e-01 1.764908e+00 -2.779931e+00 1.697970e+00 -2.693065e+00 -3.944584e-01 -4.472335e+00 -1.305292e+00 -2.727822e+00 -7.626178e-01 -1.850034e+00 -3.149923e+00 5.497429e+01 5.264584e-01 -1.737943e+00 5.061390e-01 -1.964085e+00 -5.404015e-01 -8.902911e-01 -1.117805e+00 -6.618912e-01 2.464177e-01 3.946347e-01 9.277635e-01 -2.912545e-01 2.507767e+00 4.165971e-01 -5.123538e-01 2.918382e-01 -6.643683e-01 -5.451347e-01 1.225568e-01 -6.042398e-01 9.882573e-02 -2.407442e-01 1.900910e-01 3.421210e-01 -4.783285e-01 7.869604e-01
<VARIANCE> 39
 1.523984e+01 2.029365e+01 2.317323e+01 2.507603e+01 2.666923e+01 4.195004e+01 2.509553e+01 3.075198e+01 3.245619e+01 1.986061e+01 2.047527e+01 2.394344e+01 1.649093e+01 2.387499e+00 3.170774e+00 5.053710e+00 5.494720e+00 4.223464e+00 6.000380e+00 4.963478e+00 3.945394e+00 4.725147e+00 3.629971e+00 3.444800e+00 3.851837e+00 2.355318e+00 2.578717e-01 5.259784e-01 7.315120e-01 7.398926e-01 6.959192e-01 8.914732e-01 6.539033e-01 8.524265e-01 7.963338e-01 6.106854e-01 6.580657e-01 5.675704e-01 3.072385e-01
<GCONST> 1.241914e+02
<STATE> 4
<MEAN> 39
 2.972159e+00 -3.119869e+00 -3.208515e+00 -5.490989e+00 -5.251221e+00 -1.710209e-01 -8.196554e+00 -2.860135e+00 -3.292503e+00 1.120705e+00 1.594194e+00 -5.643585e+00 6.217995e+01 9.585652e-01 -2.286400e+00 7.684913e-01 -2.373665e+00 -1.174777e+00 -2.138836e-01 -1.625244e+00 1.639760e-01 -1.344478e-01 6.592981e-01 1.068174e+00 -1.358343e+00 3.087894e+00 -1.433720e-01 2.607533e-01 3.079717e-01 5.374257e-01 -5.195341e-02 3.125615e-02 -1.313290e-03 4.187381e-01 -1.089203e-01 -8.940350e-02 -2.962520e-01 -1.312518e-01 -3.609919e-01
<VARIANCE> 39
 2.103511e+01 3.340147e+01 3.379039e+01 6.460577e+01 3.264796e+01 7.868938e+01 4.552557e+01 3.361036e+01 4.629130e+01 3.255133e+01 3.094941e+01 3.177111e+01 2.614314e+01 1.969561e+00 4.221133e+00 7.310894e+00 6.557901e+00 5.531741e+00 7.517815e+00 5.475058e+00 5.830914e+00 6.116162e+00 4.901473e+00 5.200113e+00 5.077969e+00 2.470407e+00 3.713962e-01 4.644577e-01 4.939758e-01 1.044622e+00 6.725084e-01 9.234929e-01 7.387550e-01 7.137657e-01 7.617897e-01 6.473595e-01 7.786611e-01 6.344944e-01 4.043053e-01
<GCONST> 1.334818e+02
<TRANSP> 5
 0.000000e+00 1.000000e+00 0.000000e+00 0.000000e+00 0.000000e+00
 0.000000e+00 6.604193e-01 3.395807e-01 0.000000e+00 0.000000e+00
 0.000000e+00 0.000000e+00 3.951585e-01 6.048415e-01 0.000000e+00
 0.000000e+00 0.000000e+00 0.000000e+00 2.446347e-01 7.553653e-01
 0.000000e+00 0.000000e+00 0.000000e+00 0.000000e+00 0.000000e+00
<ENDHMM>
~h "r"
<BEGINHMM>
<NUMSTATES> 5
<STATE> 2
<MEAN> 39
 3.350418e+00 -4.500728e+00 -1.260365e+00 3.227779e+00 -5.906428e+00 -4.265381e+00 -1.108406e+01 -1.505817e+00 1.685341e+00 1.092619e+00 -6.019335e-01 -6.881590e+00 6.271124e+01 1.843002e-01 3.392210e-01 -3.321180e-02 1.181036e+00 1.124867e-01 -3.152258e-01 -4.998957e-02 -2.967501e-01 -2.831123e-02 -3.824005e-01 -3.564919e-01 7.231285e-01 -7.429113e-01 -7.760190e-02 -1.139488e-01 1.175712e-01 -6.020247e-01 -1.812825e-01 1.047592e-01 1.200812e-01 2.581711e-01 -3.462161e-01 3.765146e-02 2.284591e-01 -2.295794e-01 3.167185e-01
<VARIANCE> 39
 1.165399e+01 2.223819e+01 3.826017e+01 3.499851e+01 3.479785e+01 4.572597e+01 5.814214e+01 6.017780e+01 4.981463e+01 4.128143e+01 4.256311e+01 5.224405e+01 1.899694e+01 1.185351e+00 1.676266e+00 2.179156e+00 2.192807e+00 3.088716e+00 3.454921e+00 3.436846e+00 3.828392e+00 3.497278e+00 3.368426e+00 3.687001e+00 3.025641e+00 1.419054e+00 1.783537e-01 3.679018e-01 3.838200e-01 5.281170e-01 6.232381e-01 5.901780e-01 6.531166e-01 7.071884e-01 6.687523e-01 6.825333e-01 6.966069e-01 5.912344e-01 3.458249e-01
<GCONST> 1.218446e+02
<STATE> 3
<MEAN> 39
 3.576014e+00 -4.241272e+00 -1.344533e+00 4.159252e+00 -6.191260e+00 -5.087594e+00 -1.070227e+01 -1.833046e+00 7.925354e-01 4.561297e-01 -4.950444e-01 -5.605804e+00 6.227496e+01 5.196833e-02 -1.235105e-01 2.344355e-01 -1.475889e-01 -5.213488e-01 -7.535010e-02 2.894682e-01 4.393587e-01 -5.939288e-01 -3.354685e-01 2.112209e-01 -7.627660e-02 1.474241e-01 -1.303512e-01 -1.812243e-01 2.143562e-01 -7.364990e-01 -2.026888e-01 2.433489e-01 1.194038e-01 3.333536e-01 -3.559538e-01 1.181866e-01 2.652166e-01 -4.305031e-01 4.141807e-01
<VARIANCE> 39
 1.531119e+01 2.434475e+01 4.411662e+01 3.433518e+01 3.534391e+01 4.829945e+01 6.453423e+01 6.234182e+01 5.345539e+01 3.920842e+01 4.065291e+01 4.235723e+01 1.739964e+01 1.271510e+00 2.585501e+00 2.631751e+00 2.135646e+00 3.522415e+00 3.696449e+00 3.568290e+00 4.376990e+00 3.857926e+00 3.203011e+00 3.448029e+00 3.174486e+00 1.830023e+00 2.146624e-01 4.224558e-01 4.579402e-01 4.836367e-01 7.665664e-01 6.417494e-01 7.337618e-01 8.073130e-01 7.506766e-01 7.395089e-01 8.193263e-01 5.949610e-01 3.495679e-01
<GCONST> 1.248630e+02
<STATE> 4
<MEAN> 39
 3.140826e+00 -3.950161e+00 -9.410596e-01 3.139452e+00 -7.007646e+00 -4.192926e+00 -8.867636e+00 -1.069636e+00 -3.291755e-01 2.677361e-01 -4.307451e-01 -6.119767e+00 6.250854e+01 -1.809109e-01 1.430679e-02 5.136938e-01 -7.432568e-01 -4.449862e-01 4.545794e-01 3.418247e-01 5.852116e-01 -8.156499e-01 -7.076275e-02 2.936741e-01 -4.634311e-01 2.411528e-01 -8.464889e-02 -3.170222e-06 9.828752e-02 -2.666033e-01 5.400005e-02 1.510457e-01 -4.825618e-02 3.716701e-02 -1.323303e-01 1.097917e-01 5.617982e-02 -1.385787e-01 8.634788e-02
<VARIANCE> 39
 2.144224e+01 3.842585e+01 5.157533e+01 3.742364e+01 4.434708e+01 5.757645e+01 6.919136e+01 6.765323e+01 5.660154e+01 4.264357e+01 4.537622e+01 4.811521e+01 2.732402e+01 1.463744e+00 3.281470e+00 3.381686e+00 2.497201e+00 4.279467e+00 3.890648e+00 3.750289e+00 4.904033e+00 4.137881e+00 3.590726e+00 3.728508e+00 3.238447e+00 2.438208e+00 2.565399e-01 2.822432e-01 4.243789e-01 4.109288e-01 5.706468e-01 5.792964e-01 6.544539e-01 6.419291e-01 6.473994e-01 5.983307e-01 6.344357e-01 4.703363e-01 2.174114e-01
<GCONST> 1.265166e+02
<TRANSP> 5
 0.000000e+00 1.000000e+00 0.000000e+00 0.000000e+00 0.000000e+00
 0.000000e+00 3.147114e-01 6.852885e-01 0.000000e+00 0.000000e+00
 0.000000e+00 0.000000e+00 1.413606e-01 8.586395e-01 0.000000e+00
 0.000000e+00 0.000000e+00 0.000000e+00 3.503147e-01 6.496852e-01
 0.000000e+00 0.000000e+00 0.000000e+00 0.000000e+00 0.000000e+00
<ENDHMM>
~h "s"
<BEGINHMM>
<NUMSTATES> 5
<STATE> 2
<MEAN> 39
 -7.584043e+00 5.534453e+00 1.692666e+00 -1.096813e+00 2.459296e+00 -7.983901e+00 -1.604441e+00 -5.874593e-01 -1.256045e+00 -2.123141e+00 -1.597289e+00 -3.296835e+00 6.261903e+01 -3.457290e+00 2.382038e+00 -8.276374e-01 -6.945788e-01 1.957152e+00 -1.055867e+00 1.395758e+00 -3.158969e-01 5.381928e-01 -1.090272e+00 3.115333e-01 4.403409e-01 3.761289e-02 1.040995e-01 -4.431403e-01 -3.510270e-02 -1.558206e-01 -5.285769e-01 2.656027e-01 -5.398183e-01 1.527238e-01 -1.973288e-01 2.996978e-02 1.044899e-01 -2.742495e-01 1.322381e-01
<VARIANCE> 39
 3.817470e+01 3.305467e+01 4.161903e+01 2.640169e+01 4.268486e+01 5.473264e+01 5.145998e+01 4.807635e+01 4.504361e+01 3.473743e+01 3.186651e+01 2.978762e+01 2.157791e+01 1.640622e+00 2.448179e+00 2.921079e+00 2.604402e+00 3.402973e+00 3.520066e+00 4.685804e+00 4.206059e+00 3.495837e+00 3.271678e+00 2.601163e+00 2.599767e+00 9.511226e-01 7.631615e-01 5.179187e-01 3.813394e-01 4.913255e-01 5.761219e-01 5.901166e-01 6.895913e-01 6.506316e-01 5.498388e-01 6.028606e-01 4.635493e-01 4.860878e-01 1.099078e-01
<GCONST> 1.225683e+02
<STATE> 3
<MEAN> 39
 -1.609863e+01 8.359191e+00 1.020643e-01 -2.585573e+00 3.958034e+00 -8.852154e+00 -1.788793e+00 -1.899492e-01 -7.356911e-01 -4.977794e+00 -5.004554e-01 -2.689706e+00 6.276366e+01 3.265864e-01 -5.804678e-01 1.622165e-01 1.218535e-01 -2.835159e-01 1.044661e-01 -2.766026e-01 9.323983e-02 6.156421e-03 3.806925e-02 -7.080115e-02 3.351446e-03 -2.240100e-01 9.720430e-01 -5.039421e-01 2.231608e-01 1.327201e-01 -4.373547e-01 1.050738e-01 -2.951434e-01 -6.414972e-02 -7.595713e-02 2.623337e-01 -5.462181e-02 -1.003330e-01 -4.824566e-03
<VARIANCE> 39
 1.387247e+01 2.701884e+01 2.730969e+01 2.856113e+01 3.546082e+01 3.641101e+01 3.982717e+01 3.293896e+01 3.154497e+01 2.541944e+01 2.444827e+01 2.307794e+01 1.107888e+01 3.210217e+00 1.668138e+00 1.864123e+00 1.506049e+00 1.949923e+00 2.233839e+00 2.436419e+00 2.256907e+00 2.177202e+00 2.057694e+00 1.843877e+00 1.730288e+00 6.055921e-01 4.063032e-01 3.850914e-01 3.635747e-01 3.611605e-01 4.451074e-01 5.051196e-01 5.772657e-01 5.538117e-01 5.032622e-01 4.885046e-01 4.027238e-01 3.931656e-01 1.288262e-01
<GCONST> 1.102641e+02
<STATE> 4
<MEAN> 39
 -6.242108e+00 3.033144e+00 4.654849e-01 -1.575301e+00 1.055765e+00 -8.026337e+00 -4.314033e+00 -8.290502e-01 -5.205470e-01 -2.160176e+00 -2.107137e+00 -3.885637e+00 6.188307e+01 3.486641e+00 -2.041273e+00 2.743449e-01 -1.343678e-01 -2.125020e+00 6.337863e-01 -1.626895e+00 -3.418356e-01 -3.296213e-01 1.053227e+00 7.625420e-02 -8.069585e-01 7.038243e-01 -1.790737e-01 -2.010689e-02 7.865200e-02 -2.045403e-01 -1.907292e-01 2.662549e-01 -4.390476e-02 3.973014e-02 -1.582955e-01 -4.953868e-02 2.862513e-01 -1.435043e-01 2.367430e-01
<VARIANCE> 39
 3.386232e+01 2.964127e+01 4.135133e+01 2.171005e+01 3.966864e+01 4.483097e+01 4.932465e+01 3.070995e+01 3.830981e+01 3.115569e+01 2.503984e+01 2.492601e+01 2.718243e+01 2.290570e+00 3.710324e+00 4.676303e+00 3.058556e+00 3.651606e+00 3.955405e+00 4.515121e+00 4.882662e+00 4.599440e+00 3.519150e+00 3.040640e+00 3.028949e+00 2.498518e+00 5.895478e-01 4.016321e-01 3.582872e-01 3.372773e-01 4.469946e-01 4.977997e-01 6.483520e-01 6.023664e-01 5.424482e-01 4.876942e-01 4.089143e-01 4.452648e-01 2.345707e-01
<GCONST> 1.230227e+02
<TRANSP> 5
 0.000000e+00 1.000000e+00 0.000000e+00 0.000000e+00 0.000000e+00
 0.000000e+00 6.634071e-01 3.365929e-01 0.000000e+00 0.000000e+00
 0.000000e+00 0.000000e+00 8.000096e-01 1.999903e-01 0.000000e+00
 0.000000e+00 0.000000e+00 0.000000e+00 5.066559e-01 4.933442e-01
 0.000000e+00 0.000000e+00 0.000000e+00 0.000000e+00 0.000000e+00
<ENDHMM>
~h "t"
<BEGINHMM>
<NUMSTATES> 5
<STATE> 2
<MEAN> 39
 9.017661e-01 2.760495e+00 -1.872409e+00 2.757118e+00 -5.628555e+00 -6.036845e-01 -6.569493e+00 1.272873e-01 -4.160346e+00 4.717228e-01 -1.916070e+00 -4.663445e+00 5.380845e+01 -4.657224e-01 2.627798e-01 -5.590770e-01 1.028143e-01 3.602858e-01 1.471192e-01 5.901046e-01 -2.111815e-02 2.985051e-01 -3.573214e-01 -8.368030e-02 5.140396e-01 -5.988950e-01 -3.054974e-01 -3.950043e-01 3.368865e-01 -5.698051e-01 3.050743e-01 -5.782829e-01 -9.103133e-02 -1.275697e-01 3.013484e-01 -3.729241e-02 1.336301e-01 -1.081612e-01 8.342606e-01
<VARIANCE> 39
 8.103340e+00 1.741814e+01 3.540276e+01 2.038859e+01 2.945616e+01 3.356464e+01 3.036749e+01 3.228207e+01 3.894429e+01 2.604745e+01 3.068231e+01 2.941308e+01 1.216771e+01 7.686393e-01 8.710931e-01 1.439745e+00 1.621187e+00 2.294524e+00 2.793933e+00 2.519148e+00 2.422631e+00 2.405209e+00 2.296845e+00 1.863853e+00 1.817932e+00 1.193075e+00 1.559812e-01 2.234809e-01 3.228853e-01 3.636201e-01 4.552360e-01 5.606421e-01 5.380681e-01 5.480887e-01 5.870138e-01 4.892125e-01 4.284505e-01 4.302412e-01 2.468459e-01
<GCONST> 1.080154e+02
<STATE> 3
<MEAN> 39
 -1.348235e+00 3.132556e+00 -1.770708e+00 1.912035e+00 -2.922657e+00 -1.913980e+00 -4.599257e+00 -5.395080e-01 -3.245368e+00 -7.270253e-01 -2.011387e+00 -3.132664e+00 5.413506e+01 -1.456820e+00 -1.031380e+00 4.600607e-01 -1.701660e+00 1.514088e+00 -1.947852e+00 2.457402e-01 -6.422558e-01 1.438991e+00 -4.411729e-01 2.290672e-01 -5.967884e-02 2.132010e+00 2.912013e-01 -5.144063e-01 4.040505e-01 -6.289855e-01 -3.205298e-01 -1.808005e-01 -7.570426e-01 -5.191340e-02 7.996880e-02 2.418912e-01 2.142192e-01 -5.511744e-01 9.839062e-01
<VARIANCE> 39
 1.491632e+01 1.828349e+01 2.790447e+01 2.356141e+01 3.385207e+01 4.698726e+01 3.464969e+01 3.493393e+01 3.705501e+01 2.642550e+01 2.839285e+01 2.602865e+01 1.786901e+01 1.706578e+00 2.345011e+00 3.280814e+00 3.241254e+00 3.739620e+00 4.377511e+00 4.600886e+00 4.355397e+00 4.598356e+00 3.705997e+00 3.353377e+00 3.091117e+00 2.120433e+00 2.894356e-01 3.544059e-01 5.695856e-01 4.774767e-01 6.466147e-01 8.666381e-01 6.972945e-01 9.177897e-01 8.469088e-01 6.321064e-01 5.992101e-01 5.324123e-01 2.757217e-01
<GCONST> 1.224292e+02
<STATE> 4
<MEAN> 39
 -5.219547e+00 -5.972373e-02 -2.525365e-02 -2.833008e+00 4.250843e-01 -7.194571e+00 -4.599223e+00 -2.723310e+00 7.960551e-01 -1.576015e+00 -1.065009e+00 -4.117801e+00 6.093566e+01 5.338222e-01 -1.446129e+00 9.205858e-01 -2.090500e+00 -4.517592e-01 -6.964881e-01 -1.959348e+00 -3.572094e-01 6.116675e-01 4.785510e-01 6.828058e-01 -1.341956e+00 2.856893e+00 8.279494e-01 -5.706311e-02 8.464848e-02 1.087436e-01 -8.551611e-01 8.331808e-01 -6.382146e-01 2.429169e-01 -6.168103e-01 3.344577e-01 1.559481e-01 -2.915133e-01 -1.297404e-01
<VARIANCE> 39
 2.081240e+01 2.132231e+01 2.750452e+01 2.724251e+01 3.013297e+01 4.812566e+01 4.932066e+01 3.902785e+01 3.943340e+01 3.353617e+01 2.699381e+01 2.936918e+01 1.815618e+01 2.621698e+00 3.531621e+00 5.554288e+00 4.260234e+00 4.305281e+00 5.680111e+00 5.737341e+00 6.608600e+00 6.649167e+00 4.157699e+00 4.489497e+00 4.160299e+00 3.211236e+00 3.826403e-01 4.525101e-01 5.635414e-01 5.478880e-01 6.755596e-01 9.921626e-01 9.613785e-01 9.072080e-01 8.027635e-01 8.037084e-01 6.969764e-01 6.130027e-01 3.656050e-01
<GCONST> 1.298701e+02
<TRANSP> 5
 0.000000e+00 1.000000e+00 0.000000e+00 0.000000e+00 0.000000e+00
 0.000000e+00 5.857863e-01 4.142137e-01 0.000000e+00 0.000000e+00
 0.000000e+00 0.000000e+00 3.237277e-01 6.762723e-01 0.000000e+00
 0.000000e+00 0.000000e+00 0.000000e+00 3.919976e-01 6.080024e-01
 0.000000e+00 0.000000e+00 0.000000e+00 0.000000e+00 0.000000e+00
<ENDHMM>
~h "u"
<BEGINHMM>
<NUMSTATES> 5
<STATE> 2
<MEAN> 39
 4.160579e+00 9.631218e-01 1.788990e+00 -7.755434e+00 -7.985977e+00 8.585303e-01 -1.663482e+01 -6.650183e+00 -6.613557e+00 1.828836e+00 4.727956e+00 -6.440965e+00 6.389063e+01 7.398248e-01 -1.794979e-01 3.791869e-01 -8.544225e-01 -8.597376e-01 1.056931e+00 -1.327515e+00 -6.818826e-01 -5.856189e-01 5.610023e-01 1.112077e+00 -2.895942e-01 5.670182e-01 -3.124058e-01 1.464017e-01 -1.034431e-01 6.702476e-01 2.920406e-01 6.489441e-02 8.785942e-01 3.385248e-01 9.129678e-02 -2.778776e-01 -5.284799e-01 2.144857e-01 -5.380175e-01
<VARIANCE> 39
 1.247069e+01 2.824233e+01 4.034875e+01 6.947527e+01 6.654552e+01 6.219634e+01 7.614461e+01 5.863477e+01 6.441673e+01 5.537890e+01 5.868356e+01 4.795969e+01 1.673606e+01 2.048883e+00 2.615922e+00 3.253740e+00 5.813388e+00 4.957067e+00 5.588319e+00 6.216729e+00 5.120971e+00 5.968616e+00 4.726511e+00 4.631401e+00 3.703484e+00 1.796620e+00 2.838599e-01 4.391435e-01 4.456411e-01 9.315105e-01 8.776579e-01 9.499122e-01 1.105132e+00 1.013625e+00 1.029666e+00 8.744313e-01 8.587741e-01 7.579386e-01 2.994862e-01
<GCONST> 1.345506e+02
<STATE> 3
<MEAN> 39
 4.588990e+00 6.399571e-01 2.250055e+00 -8.309917e+00 -9.726715e+00 3.895386e+00 -1.707487e+01 -7.412450e+00 -7.301613e+00 1.329173e+00 6.811012e+00 -6.936565e+00 6.391222e+01 7.648952e-05 3.837898e-01 -1.001245e-01 6.788033e-01 2.980600e-01 1.708286e-01 9.080960e-01 3.274297e-01 -1.373306e-01 -2.569366e-01 -7.788901e-01 3.732519e-01 -6.492922e-01 -2.453926e-01 1.409953e-01 -6.269231e-02 5.378689e-01 3.252198e-01 -3.444045e-01 5.714093e-01 2.724540e-01 2.212136e-01 -2.051586e-01 -5.793414e-01 8.677608e-02 -3.182932e-01
<VARIANCE> 39
 8.919412e+00 2.830837e+01 3.754256e+01 7.545116e+01 5.531940e+01 6.130153e+01 6.162591e+01 6.040988e+01 6.022661e+01 5.778962e+01 6.560265e+01 5.134010e+01 1.441646e+01 7.264779e-01 2.127461e+00 1.817028e+00 4.403644e+00 2.962948e+00 3.514468e+00 3.607654e+00 3.390146e+00 4.125309e+00 3.359300e+00 3.214334e+00 3.000888e+00 1.520252e+00 2.063759e-01 3.208910e-01 3.514819e-01 6.220551e-01 5.999215e-01 7.060909e-01 7.388772e-01 7.585196e-01 7.707530e-01 7.077504e-01 6.816547e-01 6.229484e-01 1.603256e-01
<GCONST> 1.241642e+02
<STATE> 4
<MEAN> 39
 4.955208e+00 5.124252e+00 -3.869188e-01 -4.891910e+00 -7.126521e+00 2.768068e+00 -1.141965e+01 -4.513644e+00 -8.288461e+00 -4.637585e-01 1.234752e+00 -3.293545e+00 5.841856e+01 -2.862715e-01 2.671480e-01 -9.000067e-02 1.082718e+00 3.865899e-01 -1.266900e-01 8.287970e-01 2.916426e-01 2.742493e-01 -1.737382e-01 -6.810495e-01 1.986086e-01 -7.152802e-01 -1.117665e-01 -1.122976e-01 3.229208e-02 -3.018117e-02 3.315696e-02 -4.362696e-02 -5.060524e-02 -1.119651e-02 7.995129e-02 2.033611e-02 6.928231e-02 -6.641583e-02 9.502794e-02
<VARIANCE> 39
 1.015256e+01 3.146515e+01 2.808562e+01 7.238383e+01 5.132347e+01 4.871100e+01 4.539134e+01 4.254043e+01 4.243864e+01 4.682571e+01 4.801080e+01 3.791447e+01 2.297902e+01 6.650420e-01 1.351949e+00 1.382310e+00 2.466463e+00 2.343208e+00 2.604987e+00 2.768269e+00 2.769052e+00 2.637107e+00 2.621024e+00 2.583921e+00 2.281969e+00 9.064726e-01 1.118747e-01 2.043395e-01 2.057054e-01 4.217490e-01 3.738798e-01 4.324458e-01 4.752721e-01 4.711567e-01 4.609667e-01 4.603618e-01 4.149515e-01 3.824989e-01 1.153782e-01
<GCONST> 1.121701e+02
<TRANSP> 5
 0.000000e+00 1.000000e+00 0.000000e+00 0.000000e+00 0.000000e+00
 0.000000e+00 4.112267e-01 5.887733e-01 0.000000e+00 0.000000e+00
 0.000000e+00 0.000000e+00 4.639039e-01 5.360962e-01 0.000000e+00
 0.000000e+00 0.000000e+00 0.000000e+00 7.061474e-01 2.938526e-01
 0.000000e+00 0.000000e+00 0.000000e+00 0.000000e+00 0.000000e+00
<ENDHMM>
~h "v"
<BEGINHMM>
<NUMSTATES> 5
<STATE> 2
<MEAN> 39
 7.903662e-04 -6.079456e-01 1.670089e+00 -6.705837e-01 -5.929818e+00 -8.820225e-01 -6.906881e+00 5.931143e-01 -4.574426e+00 -3.940755e-01 -3.854154e-01 -5.847453e+00 5.993814e+01 5.024984e-04 -6.478592e-05 9.522401e-04 -6.048587e-04 -1.305029e-03 -9.148303e-04 -9.999124e-04 -6.995694e-04 3.150678e-04 8.832195e-04 -1.229102e-04 -1.829845e-05 4.304752e-04 -1.024714e-04 5.090495e-05 -4.314321e-05 5.499199e-04 2.475645e-04 2.544455e-04 -3.161734e-04 -1.009587e-04 -7.179174e-05 -5.594532e-04 -1.336834e-04 -6.698545e-06 -3.952787e-04
<VARIANCE> 39
 2.681136e+01 5.325134e+01 6.824250e+01 5.887592e+01 6.062508e+01 6.608533e+01 5.928268e+01 6.068991e+01 5.916120e+01 4.597362e+01 4.705821e+01 4.804106e+01 6.619385e+01 1.372020e+00 2.288023e+00 2.566274e+00 2.987463e+00 3.078158e+00 3.116328e+00 3.250192e+00 3.738113e+00 3.266875e+00 2.829993e+00 2.967949e+00 2.476121e+00 2.021681e+00 2.264445e-01 3.584008e-01 4.122588e-01 5.086471e-01 5.519696e-01 5.562619e-01 5.942494e-01 6.847889e-01 5.904057e-01 5.307208e-01 5.528100e-01 4.553457e-01 3.018115e-01
<GCONST> 1.265182e+02
<STATE> 3
<MEAN> 39
 7.903662e-04 -6.079456e-01 1.670089e+00 -6.705837e-01 -5.929818e+00 -8.820225e-01 -6.906881e+00 5.931143e-01 -4.574426e+00 -3.940755e-01 -3.854154e-01 -5.847453e+00 5.993814e+01 5.024984e-04 -6.478592e-05 9.522401e-04 -6.048587e-04 -1.305029e-03 -9.148303e-04 -9.999124e-04 -6.995694e-04 3.150678e-04 8.832195e-04 -1.229102e-04 -1.829845e-05 4.304752e-04 -1.024714e-04 5.090495e-05 -4.314321e-05 5.499199e-04 2.475645e-04 2.544455e-04 -3.161734e-04 -1.009587e-04 -7.179174e-05 -5.594532e-04 -1.336834e-04 -6.698545e-06 -3.952787e-04
<VARIANCE> 39
 2.681136e+01 5.325134e+01 6.824250e+01 5.887592e+01 6.062508e+01 6.608533e+01 5.928268e+01 6.068991e+01 5.916120e+01 4.597362e+01 4.705821e+01 4.804106e+01 6.619385e+01 1.372020e+00 2.288023e+00 2.566274e+00 2.987463e+00 3.078158e+00 3.116328e+00 3.250192e+00 3.738113e+00 3.266875e+00 2.829993e+00 2.967949e+00 2.476121e+00 2.021681e+00 2.264445e-01 3.584008e-01 4.122588e-01 5.086471e-01 5.519696e-01 5.562619e-01 5.942494e-01 6.847889e-01 5.904057e-01 5.307208e-01 5.528100e-01 4.553457e-01 3.018115e-01
<GCONST> 1.265182e+02
<STATE> 4
<MEAN> 39
 7.903662e-04 -6.079456e-01 1.670089e+00 -6.705837e-01 -5.929818e+00 -8.820225e-01 -6.906881e+00 5.931143e-01 -4.574426e+00 -3.940755e-01 -3.854154e-01 -5.847453e+00 5.993814e+01 5.024984e-04 -6.478592e-05 9.522401e-04 -6.048587e-04 -1.305029e-03 -9.148303e-04 -9.999124e-04 -6.995694e-04 3.150678e-04 8.832195e-04 -1.229102e-04 -1.829845e-05 4.304752e-04 -1.024714e-04 5.090495e-05 -4.314321e-05 5.499199e-04 2.475645e-04 2.544455e-04 -3.161734e-04 -1.009587e-04 -7.179174e-05 -5.594532e-04 -1.336834e-04 -6.698545e-06 -3.952787e-04
<VARIANCE> 39
 2.681136e+01 5.325134e+01 6.824250e+01 5.887592e+01 6.062508e+01 6.608533e+01 5.928268e+01 6.068991e+01 5.916120e+01 4.597362e+01 4.705821e+01 4.804106e+01 6.619385e+01 1.372020e+00 2.288023e+00 2.566274e+00 2.987463e+00 3.078158e+00 3.116328e+00 3.250192e+00 3.738113e+00 3.266875e+00 2.829993e+00 2.967949e+00 2.476121e+00 2.021681e+00 2.264445e-01 3.584008e-01 4.122588e-01 5.086471e-01 5.519696e-01 5.562619e-01 5.942494e-01 6.847889e-01 5.904057e-01 5.307208e-01 5.528100e-01 4.553457e-01 3.018115e-01
<GCONST> 1.265182e+02
<TRANSP> 5
 0.000000e+00 1.000000e+00 0.000000e+00 0.000000e+00 0.000000e+00
 0.000000e+00 6.000000e-01 4.000000e-01 0.000000e+00 0.000000e+00
 0.000000e+00 0.000000e+00 6.000000e-01 4.000000e-01 0.000000e+00
 0.000000e+00 0.000000e+00 0.000000e+00 7.000000e-01 3.000000e-01
 0.000000e+00 0.000000e+00 0.000000e+00 0.000000e+00 0.000000e+00
<ENDHMM>
~h "w"
<BEGINHMM>
<NUMSTATES> 5
<STATE> 2
<MEAN> 39
 -4.881596e-01 -2.814248e-01 -3.211046e+00 1.386768e+00 -4.936508e+00 2.763656e+00 -4.454391e+00 -9.079632e-01 -3.823117e+00 3.135517e-01 -4.073417e-02 -1.656298e+00 5.540810e+01 2.430788e-01 2.314173e-01 -1.222861e-01 -1.127908e-01 -2.011482e-01 1.642271e-01 -6.206144e-03 -4.957333e-02 -2.735642e-01 1.858210e-02 2.041857e-01 2.500056e-01 -1.467585e-01 5.977219e-02 -3.903532e-02 2.196047e-02 -1.582174e-01 -4.092229e-02 -2.802113e-02 -7.288533e-02 1.548432e-02 1.715510e-02 1.366143e-02 3.159162e-02 -5.412649e-02 1.077643e-01
<VARIANCE> 39
 2.624568e+01 5.155733e+01 2.234628e+01 5.679866e+01 2.970383e+01 3.352462e+01 3.864555e+01 3.254886e+01 2.539733e+01 3.447068e+01 3.267289e+01 3.049244e+01 5.421220e+01 4.037153e-01 6.360351e-01 9.233408e-01 1.360296e+00 1.189923e+00 1.415758e+00 1.531164e+00 1.751970e+00 2.114687e+00 1.802330e+00 1.845549e+00 1.825918e+00 3.382798e-01 8.317896e-02 1.172548e-01 1.300304e-01 3.261892e-01 2.127107e-01 3.051058e-01 3.105975e-01 3.656283e-01 3.879327e-01 3.493248e-01 3.510625e-01 3.656711e-01 6.642424e-02
<GCONST> 1.001277e+02
<STATE> 3
<MEAN> 39
 6.037444e+00 2.103103e+00 -4.279844e+00 -9.012488e+00 -9.268274e+00 6.518545e+00 -7.889364e+00 -2.719019e+00 -7.770346e+00 5.417500e-01 4.983369e+00 -3.156641e+00 5.973506e+01 6.088167e-01 -8.476752e-01 -1.418334e-01 -2.299123e+00 -1.905052e-01 9.611107e-01 -9.107515e-01 -1.343538e-01 5.758796e-03 5.924301e-01 1.008071e+00 -6.938375e-01 1.487996e+00 -2.329272e-01 -4.597027e-01 3.581523e-02 8.372420e-02 3.085716e-01 3.743145e-02 -5.429434e-02 1.801861e-01 4.297782e-01 2.089127e-01 -1.184686e-01 -4.328305e-01 2.160423e-01
<VARIANCE> 39
 1.491418e+01 3.447561e+01 2.508351e+01 8.552448e+01 5.878175e+01 5.019971e+01 4.881335e+01 3.003625e+01 3.350694e+01 3.941246e+01 4.034537e+01 4.196569e+01 3.445396e+01 1.455129e+00 3.139112e+00 1.069352e+00 4.658229e+00 3.111777e+00 2.865947e+00 3.646825e+00 2.477053e+00 3.303836e+00 2.918351e+00 3.059180e+00 3.960114e+00 2.332816e+00 2.240335e-01 2.912262e-01 1.677697e-01 9.815375e-01 4.933027e-01 5.821869e-01 5.512305e-01 4.634042e-01 4.937107e-01 4.610901e-01 6.735582e-01 6.250544e-01 2.324624e-01
<GCONST> 1.212023e+02
<STATE> 4
<MEAN> 39
 5.545301e+00 -4.448520e+00 -3.374660e+00 -1.711674e+01 -5.385787e+00 1.012633e+01 -1.440391e+01 -1.343687e+00 -3.255626e+00 6.185870e+00 4.330656e+00 -9.885412e+00 6.625426e+01 -2.991133e-01 -8.587748e-01 -3.988107e-02 8.474828e-02 6.044767e-01 -1.967864e-01 8.365592e-02 3.971390e-01 7.057955e-01 3.190767e-03 -5.372943e-01 -9.241198e-01 4.995715e-01 -6.394038e-02 1.124307e-01 4.388026e-02 3.354355e-01 6.244288e-02 -2.759067e-01 1.580844e-01 3.831045e-02 -5.872300e-03 -1.972810e-01 -2.107220e-01 9.611848e-02 -1.389090e-01
<VARIANCE> 39
 5.738941e+00 3.488602e+01 1.953845e+01 4.195484e+01 8.532044e+01 4.984636e+01 3.389444e+01 3.546272e+01 3.474280e+01 6.000589e+01 6.724863e+01 5.724214e+01 1.702230e+01 3.969136e-01 1.939324e+00 7.978283e-01 1.840266e+00 1.622586e+00 1.668171e+00 1.693606e+00 1.748564e+00 2.353370e+00 1.925308e+00 2.191527e+00 3.227264e+00 9.507298e-01 5.141380e-02 2.446284e-01 1.305363e-01 3.451379e-01 2.538724e-01 2.838440e-01 2.644940e-01 2.555236e-01 3.248224e-01 3.083716e-01 4.200404e-01 4.671879e-01 1.498691e-01
<GCONST> 1.048579e+02
<TRANSP> 5
 0.000000e+00 1.000000e+00 0.000000e+00 0.000000e+00 0.000000e+00
 0.000000e+00 6.947103e-01 3.052897e-01 0.000000e+00 0.000000e+00
 0.000000e+00 0.000000e+00 7.227240e-01 2.772760e-01 0.000000e+00
 0.000000e+00 0.000000e+00 0.000000e+00 7.888436e-01 2.111564e-01
 0.000000e+00 0.000000e+00 0.000000e+00 0.000000e+00 0.000000e+00
<ENDHMM>
~h "y"
<BEGINHMM>
<NUMSTATES> 5
<STATE> 2
<MEAN> 39
 -2.562289e+00 -2.016964e+00 1.772331e+01 -5.906075e+00 -1.557100e+01 -7.704484e+00 -1.181458e+01 2.134462e+00 -9.401675e+00 -2.116765e+00 6.045395e+00 -5.537379e+00 6.694463e+01 -5.649303e-02 -7.828820e-01 5.321448e-01 -4.665907e-01 -9.664380e-01 -8.690546e-01 -1.154429e-01 9.788964e-01 3.757711e-03 2.137377e-01 8.013303e-01 2.154420e-01 7.746186e-01 1.395345e-01 -1.787529e-01 -6.739513e-01 1.030842e-01 3.570402e-01 8.484498e-02 1.897458e-01 2.175133e-01 3.558583e-01 6.475942e-02 -3.749809e-01 -1.613318e-01 -4.030460e-02
<VARIANCE> 39
 8.792368e+00 4.395947e+01 5.109378e+01 3.215342e+01 4.386382e+01 4.678014e+01 5.330120e+01 6.498490e+01 5.799621e+01 7.611047e+01 4.760257e+01 3.800664e+01 2.307562e+01 6.880332e-01 2.213894e+00 4.734505e+00 1.805973e+00 2.396127e+00 2.908086e+00 3.031811e+00 4.758734e+00 3.011341e+00 2.739854e+00 2.429674e+00 2.297589e+00 1.335808e+00 7.734042e-02 2.010625e-01 5.261784e-01 2.901835e-01 4.950708e-01 5.032668e-01 4.406977e-01 6.543487e-01 4.867477e-01 4.497167e-01 4.571505e-01 3.595295e-01 1.082276e-01
<GCONST> 1.169193e+02
<STATE> 3
<MEAN> 39
 -1.330337e+00 -8.693588e+00 1.191161e+01 -6.852339e+00 -1.654291e+01 -1.116520e+01 -8.651305e+00 1.121849e+01 -4.053178e+00 -2.155943e+00 5.815912e+00 -6.694308e+00 7.050558e+01 3.489113e-01 -8.726943e-01 -1.684849e+00 9.551808e-03 1.119083e+00 3.250000e-01 7.138855e-01 1.272754e+00 1.028551e+00 -3.272194e-01 -1.460081e+00 -8.734841e-01 2.651130e-01 6.632064e-02 2.113985e-01 -1.801357e-01 1.833460e-01 4.278172e-01 3.786008e-01 -9.441482e-02 -5.516856e-01 -9.784009e-02 4.482867e-02 -3.610507e-01 -1.570261e-01 -2.267778e-01
<VARIANCE> 39
 5.201859e+00 1.851048e+01 2.330189e+01 2.120145e+01 3.676885e+01 3.797649e+01 5.113640e+01 5.164723e+01 4.443819e+01 6.195093e+01 4.394861e+01 3.713264e+01 1.113321e+01 2.656178e-01 1.021741e+00 2.307311e+00 1.135846e+00 1.741614e+00 1.719086e+00 1.680752e+00 2.974870e+00 2.520726e+00 1.752134e+00 2.276217e+00 1.635483e+00 4.095309e-01 5.906791e-02 1.545073e-01 3.052972e-01 1.811018e-01 3.010675e-01 3.341143e-01 3.066781e-01 6.339784e-01 3.144599e-01 3.823165e-01 3.642609e-01 3.043921e-01 9.026848e-02
<GCONST> 1.013192e+02
<STATE> 4
<MEAN> 39
 2.328943e-01 -9.639808e+00 4.871897e+00 -6.481116e+00 -9.003216e+00 -7.372272e+00 -6.274904e+00 1.086077e+01 -1.258914e+00 -2.690071e+00 -2.489204e+00 -9.068386e+00 6.944335e+01 3.626356e-01 -7.757866e-02 -1.071174e+00 2.987567e-01 1.167886e+00 8.227090e-01 -1.476827e-01 -5.097220e-01 1.815797e-01 1.975383e-01 -9.769741e-01 -4.449050e-01 -3.083789e-01 2.069508e-03 2.668505e-01 1.603675e-01 1.145790e-01 -8.012059e-02 6.973116e-02 -8.722914e-02 -3.945116e-01 -2.275959e-01 2.165066e-01 2.331370e-01 1.764780e-01 -2.157563e-01
<VARIANCE> 39
 6.775813e+00 2.531334e+01 3.066796e+01 2.494865e+01 3.654147e+01 4.922099e+01 4.493897e+01 3.919894e+01 4.503419e+01 7.260864e+01 4.107895e+01 4.566608e+01 2.144414e+01 3.002874e-01 6.719229e-01 1.662050e+00 1.029293e+00 1.829810e+00 1.428574e+00 1.591709e+00 2.348055e+00 1.764154e+00 1.869535e+00 2.084003e+00 1.478667e+00 3.396484e-01 5.794506e-02 1.917365e-01 2.527010e-01 2.096579e-01 2.323176e-01 3.231943e-01 2.883241e-01 6.192822e-01 3.437704e-01 3.775444e-01 3.137022e-01 2.579550e-01 1.174237e-01
<GCONST> 1.011321e+02
<TRANSP> 5
 0.000000e+00 1.000000e+00 0.000000e+00 0.000000e+00 0.000000e+00
 0.000000e+00 7.410886e-01 2.589115e-01 0.000000e+00 0.000000e+00
 0.000000e+00 0.000000e+00 6.661567e-01 3.338433e-01 0.000000e+00
 0.000000e+00 0.000000e+00 0.000000e+00 6.236819e-01 3.763181e-01
 0.000000e+00 0.000000e+00 0.000000e+00 0.000000e+00 0.000000e+00
<ENDHMM>
~h "z"
<BEGINHMM>
<NUMSTATES> 5
<STATE> 2
<MEAN> 39
 -3.195654e-01 1.075059e+01 1.027469e+01 5.444748e+00 -5.826310e+00 -9.148573e+00 -3.625387e+00 -3.419890e+00 -9.709502e+00 -2.940950e+00 -6.218108e-01 -2.147356e+00 5.765441e+01 1.599785e-01 -4.573394e-01 5.032797e-01 -6.523332e-01 -4.697940e-02 6.162949e-01 -8.667625e-01 -1.622326e-01 -3.108479e-01 1.511890e-01 6.290961e-01 -4.160999e-01 3.753359e-01 1.590410e-02 -2.457158e-01 1.779477e-01 -4.295468e-01 -2.167009e-01 4.125580e-01 -1.162548e-01 -2.614414e-02 -1.882124e-02 2.288678e-01 -9.483695e-03 -6.149364e-02 4.066212e-02
<VARIANCE> 39
 2.279807e+01 1.985778e+01 2.358506e+01 1.841899e+01 1.659053e+01 2.453917e+01 6.167677e+01 3.110562e+01 3.187482e+01 2.062533e+01 1.604963e+01 1.870567e+01 1.888566e+01 1.120628e+00 3.349512e+00 4.482528e+00 3.122446e+00 1.340565e+00 1.956219e+00 3.311611e+00 3.186768e+00 2.708799e+00 2.352598e+00 2.156058e+00 1.547847e+00 1.403448e+00 1.745924e-01 4.277504e-01 3.208160e-01 1.618967e-01 3.680235e-01 2.393153e-01 3.262597e-01 2.445169e-01 4.990668e-01 1.715153e-01 5.470476e-01 2.416994e-01 9.096804e-02
<GCONST> 1.058554e+02
<STATE> 3
<MEAN> 39
 -2.136484e+00 1.705531e+00 1.963553e+01 -9.522717e+00 -8.034598e+00 -2.047298e+00 -1.822531e+01 -6.796894e+00 -1.146973e+01 6.003235e+00 4.298913e-01 -5.519840e+00 6.530313e+01 1.055743e-01 -1.050729e+00 5.669431e-01 -1.606501e+00 -6.567820e-01 1.636885e+00 -1.232005e+00 -5.968354e-01 -5.654232e-02 5.655895e-01 1.206468e-01 -1.790506e-01 5.683068e-01 1.171454e-01 2.215311e-01 -6.172259e-01 2.445721e-01 1.407304e-01 -1.193534e-01 3.337190e-01 4.383509e-01 1.541913e-01 -8.316225e-02 -8.768013e-02 3.088464e-02 -2.007412e-01
<VARIANCE> 39
 1.257404e+01 3.554180e+00 6.619265e+01 5.183481e+01 1.910124e+01 1.085069e+02 3.862835e+01 3.998982e+01 6.510031e+01 1.399826e+01 6.415254e+00 1.855066e+01 5.468880e+00 9.361353e-01 1.707458e+00 2.684542e+00 1.503944e+00 2.273548e+00 2.210308e+00 3.703080e+00 1.573404e+00 3.763909e+00 2.189494e+00 1.517978e+00 1.886228e+00 7.404054e-01 4.913797e-02 3.097689e-01 1.095470e-01 2.308122e-01 3.539482e-01 5.393880e-01 5.575434e-01 3.225862e-01 3.956193e-01 4.762301e-01 1.596126e-01 1.890130e-01 6.645122e-02
<GCONST> 1.008764e+02
<STATE> 4
<MEAN> 39
 -1.456076e+00 5.019459e+00 8.313575e+00 -5.212150e+00 -5.821155e+00 9.450910e+00 -9.232193e+00 -1.695202e+00 -5.509164e+00 -2.666218e+00 -6.151276e+00 -6.311274e+00 5.519025e+01 1.474010e-01 3.009978e-01 -6.025438e-01 5.947978e-01 1.966149e-02 -5.248814e-02 4.363756e-01 1.046124e-02 2.553593e-03 -2.149172e-01 4.813440e-02 6.003278e-02 -3.950145e-01 1.976045e-02 1.333713e-01 3.010264e-02 7.714051e-02 -1.400635e-03 -7.844909e-02 5.428654e-02 -2.185404e-02 -2.977664e-02 -4.122579e-02 -2.444437e-03 3.300035e-02 -5.088746e-02
<VARIANCE> 39
 4.681808e+00 2.676821e+01 7.017886e+01 9.379086e+01 9.163697e+00 5.070165e+01 6.697267e+01 1.794372e+01 2.231550e+01 2.955280e+01 2.235051e+01 2.522882e+01 5.784277e+01 3.314562e-01 1.171285e+00 1.061560e+00 1.253922e+00 6.087937e-01 1.289330e+00 1.094725e+00 1.413587e+00 1.360786e+00 1.261100e+00 1.976782e+00 1.908529e+00 4.982821e-01 4.542799e-02 1.430078e-01 1.713339e-01 1.694996e-01 9.819017e-02 2.190417e-01 4.007019e-01 2.839892e-01 2.030201e-01 2.159792e-01 3.387714e-01 2.139688e-01 5.660018e-02
<GCONST> 9.291122e+01
<TRANSP> 5
 0.000000e+00 1.000000e+00 0.000000e+00 0.000000e+00 0.000000e+00
 0.000000e+00 7.986433e-01 2.013566e-01 0.000000e+00 0.000000e+00
 0.000000e+00 0.000000e+00 7.612559e-01 2.387441e-01 0.000000e+00
 0.000000e+00 0.000000e+00 0.000000e+00 8.751275e-01 1.248725e-01
 0.000000e+00 0.000000e+00 0.000000e+00 0.000000e+00 0.000000e+00
<ENDHMM>
~h "aw"
<BEGINHMM>
<NUMSTATES> 5
<STATE> 2
<MEAN> 39
 2.478494e+00 -4.205631e+00 -4.996077e-01 -1.145181e+01 -4.865317e+00 4.720735e-01 -1.255923e+01 -3.308820e+00 8.356655e-01 5.450960e+00 4.067294e+00 -8.734394e+00 6.767682e+01 1.267601e+00 -4.619795e-01 2.750942e-01 -2.160795e+00 -1.774945e+00 2.090831e+00 -2.246600e+00 4.743154e-01 -4.028235e-01 9.597106e-01 1.687123e+00 -1.128391e+00 1.287096e+00 -2.137148e-02 4.231506e-01 4.782379e-02 6.144568e-01 -2.490333e-01 4.749459e-01 3.498874e-01 1.554374e-01 -2.031172e-01 -5.143850e-01 -4.500990e-01 5.363956e-01 -7.462105e-01
<VARIANCE> 39
 1.025449e+01 2.409126e+01 1.932115e+01 3.816710e+01 5.765743e+01 6.913790e+01 4.175824e+01 3.334848e+01 8.974315e+01 5.016042e+01 1.977285e+01 3.450262e+01 1.675173e+01 2.071223e+00 1.956996e+00 3.272166e+00 3.835345e+00 3.700613e+00 5.524662e+00 5.590669e+00 2.911644e+00 6.049982e+00 4.357269e+00 1.564107e+00 4.323420e+00 2.644441e+00 3.493590e-01 2.515340e-01 4.302004e-01 6.133211e-01 7.527264e-01 8.706980e-01 7.109091e-01 7.012447e-01 8.020970e-01 5.940188e-01 4.424120e-01 5.443153e-01 3.137067e-01
<GCONST> 1.247608e+02
<STATE> 3
<MEAN> 39
 3.134114e+00 -4.063575e+00 1.331339e+00 -1.425876e+01 -8.497028e+00 4.043660e+00 -1.479196e+01 -2.474873e+00 -1.251667e+00 4.361777e+00 4.728240e+00 -7.519020e+00 6.891356e+01 4.257521e-01 8.803992e-01 4.389400e-01 4.615474e-01 -6.512800e-01 8.440174e-01 -2.275505e-01 -2.304111e-01 -7.965087e-01 -8.668987e-01 -3.082349e-01 1.391309e+00 -8.543662e-01 -1.391489e-01 3.705244e-01 -9.499228e-02 7.683044e-01 4.286019e-01 -2.718704e-01 4.490030e-01 -1.666682e-01 2.006983e-01 -2.644623e-01 -6.132551e-01 2.433353e-01 -5.507320e-01
<VARIANCE> 39
 7.047822e+00 2.167001e+01 1.950934e+01 4.138641e+01 4.392504e+01 8.857563e+01 7.210464e+01 4.024653e+01 1.203432e+02 3.447745e+01 2.986323e+01 5.057785e+01 1.215155e+01 5.681534e-01 1.077764e+00 1.424529e+00 3.115623e+00 2.606137e+00 2.775645e+00 2.860355e+00 2.918687e+00 1.918850e+00 3.191427e+00 2.096625e+00 2.271652e+00 8.079358e-01 1.928309e-01 2.153998e-01 2.588945e-01 4.121768e-01 3.369820e-01 4.861066e-01 6.527386e-01 4.953399e-01 8.043578e-01 5.750130e-01 4.175471e-01 5.347558e-01 1.494216e-01
<GCONST> 1.135195e+02
<STATE> 4
<MEAN> 39
 5.099243e+00 1.352922e+00 -2.393234e-01 -8.325149e+00 -1.210136e+01 9.125476e+00 -9.797092e+00 -6.689715e+00 -3.938440e+00 1.516111e+00 2.759119e+00 -2.067377e+00 6.095183e+01 -1.991703e-01 6.635801e-01 -3.299274e-01 1.300073e+00 5.138251e-01 -4.836169e-01 5.837566e-01 2.126977e-01 -1.381122e-01 -2.512856e-01 -6.473566e-01 -5.596359e-02 -1.124422e+00 -1.670287e-01 -1.595680e-01 3.795544e-02 -3.043427e-02 1.659797e-01 -3.429356e-01 4.034854e-02 1.707925e-01 -7.896627e-03 1.151210e-01 1.124438e-01 -2.331275e-01 1.932741e-01
<VARIANCE> 39
 5.346349e+00 2.802740e+01 2.876887e+01 5.168306e+01 3.476372e+01 7.034631e+01 5.082309e+01 4.035713e+01 5.121178e+01 4.989022e+01 3.320142e+01 2.249399e+01 2.005516e+01 3.619159e-01 1.055658e+00 1.698079e+00 2.554467e+00 2.066871e+00 3.095434e+00 2.091007e+00 2.840883e+00 3.261860e+00 2.181330e+00 2.387082e+00 2.789931e+00 1.053668e+00 7.827606e-02 1.361108e-01 3.103254e-01 3.224038e-01 3.222761e-01 5.329266e-01 4.707734e-01 6.460374e-01 6.455883e-01 4.355170e-01 4.426142e-01 6.092269e-01 1.128166e-01
<GCONST> 1.103757e+02
<TRANSP> 5
 0.000000e+00 1.000000e+00 0.000000e+00 0.000000e+00 0.000000e+00
 0.000000e+00 3.800280e-01 6.199721e-01 0.000000e+00 0.000000e+00
 0.000000e+00 0.000000e+00 6.672302e-01 3.327698e-01 0.000000e+00
 0.000000e+00 0.000000e+00 0.000000e+00 7.871560e-01 2.128440e-01
 0.000000e+00 0.000000e+00 0.000000e+00 0.000000e+00 0.000000e+00
<ENDHMM>
~h "ay"
<BEGINHMM>
<NUMSTATES> 5
<STATE> 2
<MEAN> 39
 4.682855e-01 -1.403633e+01 2.334908e+00 -5.799873e+00 -1.020787e+01 -6.620818e+00 -8.288939e+00 9.722454e+00 2.786167e+00 -5.001375e+00 -1.066166e+00 -1.155517e+01 7.219696e+01 -3.451791e-01 -1.761879e-01 1.298715e+00 1.959991e-01 -1.379213e+00 -1.158673e+00 2.143340e-01 1.408346e+00 -5.869780e-01 -5.413248e-01 7.266948e-01 6.269369e-01 1.432732e-01 -5.915732e-03 4.922079e-01 2.017383e-01 7.674597e-02 -4.389255e-02 1.395539e-01 -2.704035e-02 -4.622806e-01 -4.536127e-01 2.245583e-01 3.189345e-01 2.875440e-01 -3.361516e-01
<VARIANCE> 39
 6.314657e+00 1.910314e+01 4.324361e+01 1.804788e+01 4.195621e+01 5.894188e+01 5.430451e+01 5.553334e+01 5.839422e+01 6.481229e+01 4.353614e+01 3.110509e+01 5.599997e+00 3.781247e-01 1.143655e+00 1.868637e+00 1.184487e+00 1.986909e+00 2.273590e+00 1.782824e+00 2.615400e+00 2.107981e+00 2.071315e+00 3.056758e+00 2.007696e+00 3.571540e-01 9.564847e-02 1.820410e-01 2.956244e-01 2.518411e-01 4.996474e-01 4.328168e-01 3.738889e-01 5.437578e-01 4.491139e-01 3.607942e-01 5.206117e-01 3.749009e-01 1.139646e-01
<GCONST> 1.059912e+02
<STATE> 3
<MEAN> 39
 -1.469473e+00 -8.810776e+00 1.461256e+01 -5.675266e+00 -1.993842e+01 -1.024906e+01 -1.239924e+01 1.092398e+01 -5.321605e+00 -5.832061e+00 8.269020e+00 -7.014458e+00 7.018208e+01 7.635109e-02 9.771296e-01 6.009109e-01 3.493434e-01 -1.286963e-02 4.159205e-01 -3.632286e-01 -9.427368e-01 -8.766743e-01 1.477750e-01 1.343810e-01 7.684039e-02 -6.909907e-01 1.792506e-01 8.723862e-02 -5.249030e-01 2.300934e-01 5.906534e-01 2.767490e-01 1.374878e-01 -2.442096e-01 1.437570e-01 1.360504e-01 -5.276658e-01 -2.573973e-01 -2.391215e-01
<VARIANCE> 39
 4.131855e+00 1.687879e+01 3.465283e+01 2.155368e+01 3.349848e+01 3.412240e+01 5.914708e+01 3.812555e+01 5.761862e+01 5.396473e+01 3.921432e+01 2.769481e+01 5.732217e+00 4.457783e-01 1.008991e+00 2.674573e+00 1.256530e+00 2.317521e+00 1.262234e+00 2.094461e+00 2.442971e+00 2.484701e+00 1.874564e+00 2.902247e+00 2.094381e+00 5.216923e-01 6.491730e-02 1.775532e-01 2.155336e-01 1.954906e-01 2.503528e-01 3.132153e-01 3.861866e-01 6.142920e-01 3.866509e-01 3.658163e-01 3.981845e-01 3.119465e-01 1.010836e-01
<GCONST> 1.019426e+02
<STATE> 4
<MEAN> 39
 6.692453e-01 -3.535534e+00 9.900233e+00 -8.718326e-01 -1.323740e+01 -6.068012e+00 -9.151324e+00 5.185230e+00 -6.586447e+00 -3.331348e+00 2.876122e+00 -6.700379e+00 6.366901e+01 5.079508e-01 8.464651e-01 -1.269635e+00 1.010076e+00 1.184976e+00 1.191793e+00 7.687066e-01 -9.285898e-01 -4.248658e-01 5.554209e-01 -8.738559e-01 -2.795769e-02 -1.384259e+00 -1.114437e-01 -6.967086e-02 -7.510221e-02 -1.134701e-01 -6.815958e-02 2.634248e-03 1.009224e-01 -1.092304e-01 -1.993289e-02 -1.697706e-02 3.978614e-02 1.497774e-01 9.035739e-02
<VARIANCE> 39
 8.766878e+00 1.910803e+01 3.616521e+01 3.456183e+01 3.833191e+01 3.918775e+01 6.000768e+01 5.186843e+01 4.962809e+01 4.117298e+01 3.181706e+01 4.447508e+01 1.844238e+01 5.549289e-01 1.166100e+00 2.033846e+00 1.709556e+00 2.529313e+00 2.716510e+00 2.930390e+00 4.013562e+00 3.230500e+00 2.582497e+00 2.813300e+00 2.490360e+00 8.147313e-01 1.024341e-01 1.969212e-01 3.199942e-01 3.172682e-01 4.352457e-01 4.989425e-01 5.530873e-01 5.391656e-01 5.357076e-01 4.389079e-01 3.566842e-01 4.910207e-01 1.288845e-01
<GCONST> 1.119785e+02
<TRANSP> 5
 0.000000e+00 1.000000e+00 0.000000e+00 0.000000e+00 0.000000e+00
 0.000000e+00 7.618557e-01 2.381443e-01 0.000000e+00 0.000000e+00
 0.000000e+00 0.000000e+00 7.523262e-01 2.476738e-01 0.000000e+00
 0.000000e+00 0.000000e+00 0.000000e+00 7.009553e-01 2.990447e-01
