~o
<STREAMINFO> 1 39
<VECSIZE> 39<NULLD><MFCC_D_A_0><DIAGC>
~h "@"
<BEGINHMM>
<NUMSTATES> 5
<STATE> 2
<MEAN> 39
 1.886507e-01 -1.061275e+00 1.827425e+00 -4.874703e-01 -5.722575e+00 -1.594723e+00 -7.664755e+00 3.620804e-01 -3.645151e+00 -2.949702e-01 -8.170769e-01 -6.247753e+00 6.062413e+01 9.992623e-03 -8.847400e-03 1.773093e-02 -9.230290e-03 -7.919479e-03 -4.899759e-03 -1.446705e-03 -3.956765e-04 -1.087643e-02 6.997711e-03 -5.205697e-03 -1.288461e-02 1.459491e-02 -2.252717e-04 1.005547e-03 -4.458727e-04 -1.506509e-03 1.452463e-03 5.556263e-04 6.929683e-05 2.406874e-04 6.814413e-05 -7.782013e-04 4.743741e-05 -7.727131e-05 -1.145433e-03
<VARIANCE> 39
 2.899578e+01 5.465461e+01 6.392516e+01 5.430642e+01 6.307060e+01 6.855068e+01 6.264316e+01 6.459858e+01 5.880489e+01 4.607892e+01 4.667012e+01 5.072177e+01 5.672430e+01 1.512071e+00 2.533186e+00 2.554279e+00 3.123769e+00 3.138310e+00 3.255169e+00 3.445253e+00 4.052845e+00 3.450930e+00 2.960914e+00 3.073884e+00 2.633347e+00 2.178867e+00 2.470386e-01 3.991138e-01 4.162045e-01 5.422801e-01 5.686452e-01 5.780778e-01 6.252455e-01 7.363824e-01 6.216083e-01 5.586246e-01 5.738637e-01 4.837665e-01 3.329492e-01
<GCONST> 1.280293e+02
<STATE> 3
<MEAN> 39
 2.093299e-01 -1.077029e+00 1.867026e+00 -5.105989e-01 -5.733433e+00 -1.606483e+00 -7.663997e+00 3.597092e-01 -3.672206e+00 -2.800531e-01 -8.259571e-01 -6.279204e+00 6.065432e+01 8.549082e-03 -5.331390e-03 1.555348e-02 -1.186386e-02 -4.010001e-03 -3.810650e-03 -1.678269e-04 -1.598473e-04 -1.092583e-02 4.143969e-03 -4.202037e-03 -1.252441e-02 1.132246e-02 -8.874406e-04 1.476660e-03 -1.087234e-03 -1.034596e-03 1.968055e-03 3.249537e-04 8.490202e-04 1.366058e-04 9.212612e-05 -1.433326e-03 1.963445e-04 5.676777e-04 -1.258401e-03
<VARIANCE> 39
 2.894942e+01 5.468565e+01 6.452718e+01 5.439009e+01 6.293872e+01 6.854643e+01 6.273273e+01 6.461826e+01 5.886271e+01 4.614350e+01 4.687216e+01 5.040155e+01 5.623843e+01 1.511809e+00 2.539453e+00 2.564631e+00 3.142502e+00 3.145926e+00 3.253812e+00 3.444107e+00 4.050953e+00 3.432514e+00 2.954698e+00 3.079302e+00 2.630104e+00 2.182098e+00 2.471430e-01 3.996756e-01 4.179229e-01 5.445801e-01 5.700344e-01 5.770761e-01 6.243476e-01 7.363002e-01 6.180372e-01 5.569018e-01 5.737648e-01 4.833116e-01 3.329712e-01
<GCONST> 1.280380e+02
<STATE> 4
<MEAN> 39
 1.391686e-01 -1.003015e+00 1.852013e+00 -5.438378e-01 -5.593174e+00 -1.557844e+00 -7.457059e+00 4.901089e-01 -4.001681e+00 -2.565601e-01 -8.209732e-01 -6.197136e+00 6.055356e+01 4.782114e-03 5.682717e-04 1.023897e-02 -1.036334e-02 -1.113083e-03 1.225689e-03 4.977223e-03 -1.187299e-03 -9.686549e-03 -3.266282e-04 -1.339801e-03 -8.933604e-03 4.672987e-03 -1.002559e-03 1.588564e-03 -1.428832e-03 -7.700897e-05 1.002764e-03 1.355512e-03 1.563840e-03 1.072721e-04 2.100836e-04 -1.347793e-03 5.878729e-04 1.100929e-03 -1.661905e-03
<VARIANCE> 39
 2.873908e+01 5.501015e+01 6.575108e+01 5.601743e+01 6.281160e+01 6.873525e+01 6.218686e+01 6.421091e+01 6.109340e+01 4.576318e+01 4.667485e+01 4.932737e+01 5.884747e+01 1.492920e+00 2.497129e+00 2.561227e+00 3.131909e+00 3.131736e+00 3.229920e+00 3.370837e+00 3.963150e+00 3.379038e+00 2.892218e+00 3.041915e+00 2.574081e+00 2.167407e+00 2.442508e-01 3.905419e-01 4.156728e-01 5.404514e-01 5.651280e-01 5.727836e-01 6.118135e-01 7.223373e-01 6.088958e-01 5.439756e-01 5.671617e-01 4.735903e-01 3.279765e-01
<GCONST> 1.277633e+02
<TRANSP> 5
 0.000000e+00 1.000000e+00 0.000000e+00 0.000000e+00 0.000000e+00
 0.000000e+00 5.946800e-01 4.053201e-01 0.000000e+00 0.000000e+00
 0.000000e+00 0.000000e+00 5.946760e-01 4.053241e-01 0.000000e+00
 0.000000e+00 0.000000e+00 0.000000e+00 7.158777e-01 2.841223e-01
 0.000000e+00 0.000000e+00 0.000000e+00 0.000000e+00 0.000000e+00
<ENDHMM>
~h "a"
<BEGINHMM>
<NUMSTATES> 5
<STATE> 2
<MEAN> 39
 4.841808e-01 -1.443025e+00 1.152168e+00 -1.186472e+00 -5.261214e+00 -8.559809e-01 -7.126565e+00 1.009915e+00 -4.054244e+00 -3.344253e-01 -1.110179e+00 -6.183516e+00 6.065641e+01 2.844976e-03 8.199388e-03 6.667397e-03 9.969324e-04 -1.248766e-02 3.695045e-03 -4.789303e-03 -9.302791e-03 -4.941712e-03 -5.352908e-03 8.524852e-03 3.030373e-03 -4.627832e-03 -1.004652e-03 2.992864e-03 6.644496e-04 3.214184e-03 -1.347658e-03 1.414213e-03 -9.480157e-04 -1.188224e-03 -2.615870e-04 -9.843573e-04 5.765121e-04 1.872545e-03 -4.224186e-03
<VARIANCE> 39
 2.575083e+01 5.572118e+01 6.658004e+01 5.948423e+01 6.126729e+01 6.568874e+01 5.992883e+01 6.210833e+01 5.749392e+01 4.796894e+01 4.800157e+01 4.951322e+01 6.211937e+01 1.347514e+00 2.521917e+00 2.562103e+00 3.124164e+00 3.066160e+00 3.128704e+00 3.304772e+00 3.829029e+00 3.282910e+00 2.872482e+00 2.940933e+00 2.521378e+00 2.105667e+00 2.230341e-01 3.935398e-01 4.151292e-01 5.282162e-01 5.527281e-01 5.598195e-01 6.062157e-01 7.037521e-01 5.914283e-01 5.389360e-01 5.506719e-01 4.648563e-01 3.156898e-01
<GCONST> 1.270372e+02
<STATE> 3
<MEAN> 39
 4.868732e-01 -1.411704e+00 1.166139e+00 -1.169448e+00 -5.296159e+00 -8.440926e-01 -7.138641e+00 9.828197e-01 -4.067029e+00 -3.509818e-01 -1.088061e+00 -6.169713e+00 6.062823e+01 1.546040e-04 1.460047e-02 7.393113e-03 8.226671e-03 -1.422886e-02 5.976270e-03 -6.051167e-03 -1.198272e-02 -5.229441e-03 -6.815149e-03 9.313814e-03 7.430280e-03 -1.369695e-02 -1.040557e-03 2.282476e-03 1.782268e-04 2.484048e-03 -4.255467e-04 8.263298e-04 -6.166822e-04 -9.072579e-04 2.228817e-04 -2.245868e-04 3.935624e-05 1.610449e-03 -3.210791e-03
<VARIANCE> 39
 2.575342e+01 5.550231e+01 6.671697e+01 5.930408e+01 6.105630e+01 6.551880e+01 5.986243e+01 6.203016e+01 5.749080e+01 4.785127e+01 4.797923e+01 4.951051e+01 6.182428e+01 1.342863e+00 2.500516e+00 2.560998e+00 3.106660e+00 3.055128e+00 3.117675e+00 3.301507e+00 3.820454e+00 3.280190e+00 2.869252e+00 2.943749e+00 2.516595e+00 2.079634e+00 2.222127e-01 3.904570e-01 4.151786e-01 5.260140e-01 5.503393e-01 5.582317e-01 6.051596e-01 7.018046e-01 5.913557e-01 5.378487e-01 5.514554e-01 4.642707e-01 3.129697e-01
<GCONST> 1.269345e+02
<STATE> 4
<MEAN> 39
 2.850758e-01 -1.022015e+00 9.983219e-01 -1.027712e+00 -5.212317e+00 -6.106806e-01 -6.757874e+00 1.166520e+00 -4.704956e+00 -1.785145e-01 -8.596771e-01 -5.995137e+00 6.017123e+01 -3.081969e-03 1.730960e-02 5.400157e-03 1.292879e-02 -1.090175e-02 5.680181e-03 -4.587700e-03 -1.129759e-02 -3.564921e-03 -5.259659e-03 7.532944e-03 1.058456e-02 -1.907609e-02 -8.800952e-04 1.274165e-03 -1.453725e-04 1.156379e-03 6.870134e-04 2.236320e-04 -1.936960e-04 -1.371638e-04 5.538746e-04 4.126038e-04 -2.046164e-04 1.232374e-03 -1.860153e-03
<VARIANCE> 39
 2.610685e+01 5.592281e+01 6.564565e+01 6.229560e+01 6.054309e+01 6.577475e+01 5.851241e+01 6.029188e+01 6.041140e+01 4.663460e+01 4.680794e+01 4.820735e+01 6.942348e+01 1.326766e+00 2.364133e+00 2.506768e+00 3.029830e+00 3.033225e+00 3.100176e+00 3.180174e+00 3.754401e+00 3.254090e+00 2.828366e+00 2.884512e+00 2.429578e+00 2.030147e+00 2.211018e-01 3.682895e-01 4.068045e-01 5.141144e-01 5.454289e-01 5.569364e-01 5.840970e-01 6.917745e-01 5.911188e-01 5.316325e-01 5.425128e-01 4.494259e-01 3.047407e-01
<GCONST> 1.264817e+02
<TRANSP> 5
 0.000000e+00 1.000000e+00 0.000000e+00 0.000000e+00 0.000000e+00
 0.000000e+00 6.004623e-01 3.995377e-01 0.000000e+00 0.000000e+00
 0.000000e+00 0.000000e+00 6.004679e-01 3.995321e-01 0.000000e+00
 0.000000e+00 0.000000e+00 0.000000e+00 7.502661e-01 2.497340e-01
 0.000000e+00 0.000000e+00 0.000000e+00 0.000000e+00 0.000000e+00
<ENDHMM>
~h "b"
<BEGINHMM>
<NUMSTATES> 5
<STATE> 2
<MEAN> 39
 9.649081e-01 -1.157163e-01 2.088725e+00 -7.144282e-01 -5.735796e+00 -9.617578e-01 -8.640738e+00 -3.939271e-01 -4.480398e+00 -4.035488e-02 -4.773661e-01 -6.077719e+00 6.041644e+01 9.492626e-03 -1.461975e-02 2.477172e-02 -1.814073e-02 -9.741976e-03 -2.477216e-02 -1.697922e-02 1.523700e-02 1.535393e-03 7.819282e-03 -1.050613e-02 -3.034288e-02 3.640734e-02 -1.785329e-03 -3.650937e-03 3.581628e-04 1.887361e-03 -6.290631e-04 1.344864e-03 -1.135240e-03 1.936114e-03 1.923295e-03 8.721443e-04 -3.062573e-03 6.715932e-04 -8.158793e-06
<VARIANCE> 39
 2.747593e+01 5.491784e+01 6.763052e+01 6.019255e+01 6.081901e+01 6.413990e+01 6.431593e+01 5.950818e+01 6.004659e+01 4.970505e+01 4.906072e+01 5.043725e+01 5.673485e+01 1.302534e+00 2.659481e+00 2.611943e+00 3.645550e+00 3.134738e+00 3.207573e+00 3.763575e+00 3.934713e+00 3.663539e+00 3.282876e+00 3.215443e+00 2.719358e+00 2.167357e+00 2.068972e-01 4.105433e-01 4.218377e-01 6.246256e-01 5.741826e-01 5.688462e-01 6.930535e-01 7.231187e-01 6.542174e-01 6.234727e-01 6.134698e-01 5.074723e-01 3.237959e-01
<GCONST> 1.288079e+02
<STATE> 3
<MEAN> 39
 9.894270e-01 -1.663397e-01 2.154862e+00 -7.620789e-01 -5.761065e+00 -1.013937e+00 -8.684990e+00 -3.551391e-01 -4.475058e+00 -9.685129e-03 -5.224403e-01 -6.153247e+00 6.051490e+01 4.844480e-03 -2.080404e-02 2.649017e-02 -1.187131e-02 -1.139399e-02 -2.048422e-02 -1.456432e-02 1.896228e-02 3.513797e-03 1.171517e-02 -1.994979e-02 -2.863301e-02 3.442577e-02 -1.535280e-03 -1.753101e-03 7.554866e-04 3.119519e-03 -1.410917e-03 1.407662e-03 1.717850e-03 1.652438e-03 -2.199302e-04 1.079897e-03 -4.123474e-03 1.271231e-03 -1.562298e-03
<VARIANCE> 39
 2.724960e+01 5.522301e+01 6.721357e+01 6.039306e+01 6.063650e+01 6.374587e+01 6.416231e+01 6.050281e+01 6.019908e+01 5.001284e+01 4.936128e+01 5.059730e+01 5.631489e+01 1.297013e+00 2.671457e+00 2.623222e+00 3.657828e+00 3.119469e+00 3.189873e+00 3.758752e+00 3.987286e+00 3.683362e+00 3.311301e+00 3.210201e+00 2.718294e+00 2.174901e+00 2.063640e-01 4.109885e-01 4.240866e-01 6.262789e-01 5.698847e-01 5.648489e-01 6.906933e-01 7.326686e-01 6.570528e-01 6.286473e-01 6.120079e-01 5.082350e-01 3.242685e-01
<GCONST> 1.288576e+02
<STATE> 4
<MEAN> 39
 7.665468e-01 -1.960537e-01 2.039679e+00 -8.127269e-01 -5.656711e+00 -1.078695e+00 -8.186212e+00 3.198522e-02 -5.010042e+00 1.632900e-01 -5.373546e-01 -6.021883e+00 6.036758e+01 9.233017e-04 -1.984952e-02 2.302537e-02 -5.159521e-03 -1.170346e-02 -1.621910e-02 -5.532799e-03 1.895468e-02 1.207255e-03 1.410344e-02 -2.626936e-02 -1.837857e-02 2.463341e-02 -1.091416e-03 1.821213e-04 -5.429543e-04 2.311324e-03 -8.597543e-04 2.605945e-04 2.748359e-03 9.735696e-04 -1.288722e-03 4.240533e-04 -2.154070e-03 2.744035e-03 -2.832577e-03
<VARIANCE> 39
 2.725693e+01 5.533319e+01 6.636091e+01 6.400444e+01 6.058821e+01 6.510881e+01 6.479762e+01 6.089142e+01 6.318433e+01 4.904574e+01 4.853714e+01 4.924681e+01 6.345250e+01 1.267884e+00 2.552437e+00 2.577657e+00 3.576932e+00 3.073157e+00 3.187265e+00 3.598486e+00 3.984240e+00 3.636969e+00 3.220560e+00 3.135216e+00 2.610401e+00 2.155311e+00 2.038732e-01 3.937787e-01 4.175246e-01 6.085677e-01 5.585842e-01 5.654401e-01 6.611623e-01 7.357786e-01 6.537658e-01 6.088287e-01 5.973100e-01 4.902119e-01 3.203310e-01
<GCONST> 1.284969e+02
<TRANSP> 5
 0.000000e+00 1.000000e+00 0.000000e+00 0.000000e+00 0.000000e+00
 0.000000e+00 5.988221e-01 4.011779e-01 0.000000e+00 0.000000e+00
 0.000000e+00 0.000000e+00 5.988204e-01 4.011796e-01 0.000000e+00
 0.000000e+00 0.000000e+00 0.000000e+00 7.386348e-01 2.613652e-01
 0.000000e+00 0.000000e+00 0.000000e+00 0.000000e+00 0.000000e+00
<ENDHMM>
~h "c"
<BEGINHMM>
<NUMSTATES> 5
<STATE> 2
<MEAN> 39
 -3.734254e-01 -8.137900e-01 2.558911e+00 -8.857050e-01 -6.111948e+00 -2.105659e+00 -7.726988e+00 1.516022e-01 -3.500677e+00 -1.165838e+00 -1.075079e-01 -5.160562e+00 6.078320e+01 3.287069e-02 -4.526168e-02 1.552446e-02 -2.729112e-02 -4.071271e-02 1.674744e-02 -9.520680e-03 1.330548e-02 -2.209641e-02 7.679476e-03 1.754531e-02 -2.125134e-02 4.365965e-02 1.711667e-03 -5.067768e-03 -2.597326e-03 -1.004800e-03 4.086227e-04 -5.032847e-03 -3.580716e-03 3.923503e-03 4.155413e-03 -1.493912e-03 -2.803361e-03 -3.080355e-04 3.675017e-03
<VARIANCE> 39
 3.137274e+01 5.187531e+01 5.860270e+01 4.875076e+01 4.999079e+01 7.454510e+01 5.601234e+01 6.522470e+01 5.480343e+01 4.699197e+01 4.373451e+01 4.368649e+01 5.756990e+01 2.577583e+00 2.971418e+00 2.618201e+00 3.371521e+00 3.294243e+00 3.354427e+00 3.723916e+00 3.912511e+00 3.282961e+00 2.976281e+00 3.047095e+00 2.685075e+00 2.626844e+00 4.928491e-01 4.975457e-01 4.392706e-01 6.098050e-01 6.174788e-01 6.133511e-01 7.059249e-01 7.333600e-01 5.984120e-01 5.810636e-01 5.978328e-01 5.045444e-01 4.129899e-01
<GCONST> 1.300689e+02
<STATE> 3
<MEAN> 39
 -2.849822e-01 -9.378314e-01 2.584462e+00 -9.526615e-01 -6.209571e+00 -2.071980e+00 -7.763991e+00 1.867453e-01 -3.524306e+00 -1.162474e+00 -8.072445e-02 -5.209080e+00 6.090229e+01 4.046293e-02 -5.000037e-02 6.212926e-03 -2.441675e-02 -3.489208e-02 9.282436e-03 -1.357542e-02 2.115490e-02 -1.370787e-02 2.226637e-03 6.446539e-03 -2.269352e-02 4.420158e-02 2.832450e-03 -6.756154e-04 -4.332507e-03 2.342608e-03 3.523659e-03 -2.693236e-03 -1.181789e-03 2.312674e-03 2.240546e-03 -1.806533e-03 -4.436859e-03 -5.556121e-04 -1.522667e-03
<VARIANCE> 39
 3.115021e+01 5.254741e+01 5.907711e+01 4.924213e+01 5.029035e+01 7.461788e+01 5.539538e+01 6.551567e+01 5.512841e+01 4.701909e+01 4.410545e+01 4.398087e+01 5.685105e+01 2.561952e+00 3.000753e+00 2.666092e+00 3.424809e+00 3.292495e+00 3.383307e+00 3.713920e+00 3.906029e+00 3.321081e+00 2.988583e+00 3.094505e+00 2.700187e+00 2.642488e+00 4.896598e-01 5.007887e-01 4.415122e-01 6.173249e-01 6.182357e-01 6.158084e-01 7.050886e-01 7.328025e-01 6.056252e-01 5.857679e-01 6.041422e-01 5.075927e-01 4.133335e-01
<GCONST> 1.302441e+02
<STATE> 4
<MEAN> 39
 -2.077585e-01 -1.032182e+00 2.576585e+00 -9.991074e-01 -6.260440e+00 -2.021206e+00 -7.779269e+00 2.852544e-01 -3.423650e+00 -1.261554e+00 -1.050602e-01 -5.213681e+00 6.095148e+01 4.820824e-02 -3.719305e-02 -1.120666e-02 -1.264149e-02 -2.314624e-02 1.407602e-02 -6.896246e-03 1.560925e-02 -9.236529e-03 4.238638e-03 -5.832601e-03 -2.775566e-02 2.778656e-02 1.931603e-03 4.231971e-03 -5.212414e-03 3.700878e-03 4.110931e-03 1.452029e-03 2.158605e-03 -1.689763e-03 -6.855991e-04 9.599374e-04 -3.201708e-03 -1.854046e-03 -5.714983e-03
<VARIANCE> 39
 3.032770e+01 5.300389e+01 5.974431e+01 4.920994e+01 5.080469e+01 7.435969e+01 5.454659e+01 6.556475e+01 5.543792e+01 4.648379e+01 4.451919e+01 4.439829e+01 5.605371e+01 2.489072e+00 2.989646e+00 2.687784e+00 3.434106e+00 3.267463e+00 3.412000e+00 3.659355e+00 3.861848e+00 3.385746e+00 2.982552e+00 3.104641e+00 2.712041e+00 2.622619e+00 4.769572e-01 4.967109e-01 4.399154e-01 6.181409e-01 6.161819e-01 6.178973e-01 6.949478e-01 7.230510e-01 6.159378e-01 5.876969e-01 6.022193e-01 5.073423e-01 4.101782e-01
<GCONST> 1.301419e+02
<TRANSP> 5
 0.000000e+00 1.000000e+00 0.000000e+00 0.000000e+00 0.000000e+00
 0.000000e+00 5.927042e-01 4.072957e-01 0.000000e+00 0.000000e+00
 0.000000e+00 0.000000e+00 5.927039e-01 4.072961e-01 0.000000e+00
 0.000000e+00 0.000000e+00 0.000000e+00 6.960229e-01 3.039771e-01
 0.000000e+00 0.000000e+00 0.000000e+00 0.000000e+00 0.000000e+00
<ENDHMM>
~h "d"
<BEGINHMM>
<NUMSTATES> 5
<STATE> 2
<MEAN> 39
 3.770763e-01 -6.199907e-01 3.930363e+00 1.750906e-01 -7.229567e+00 -2.290674e+00 -8.672634e+00 9.736925e-01 -4.190742e+00 -1.063294e+00 -3.286267e-01 -5.701758e+00 6.046542e+01 5.852473e-03 -1.132278e-03 7.872244e-03 -1.929894e-02 -7.786156e-03 1.450330e-02 9.180357e-03 -9.491357e-03 -1.415684e-02 2.481805e-03 2.403839e-04 -1.522655e-02 1.368605e-02 -1.457004e-03 9.641137e-04 -1.867250e-03 -7.484192e-04 3.407733e-04 2.600260e-03 2.706918e-05 -4.877999e-03 7.035154e-04 1.841548e-03 4.343789e-04 -1.223059e-03 -2.273221e-04
<VARIANCE> 39
 2.396180e+01 5.435961e+01 7.574579e+01 5.494092e+01 6.489773e+01 6.510493e+01 6.419334e+01 6.974577e+01 5.701781e+01 4.805080e+01 5.668562e+01 4.891286e+01 5.930804e+01 1.246807e+00 2.597781e+00 2.898844e+00 3.279273e+00 3.253498e+00 3.180249e+00 3.713929e+00 4.126540e+00 3.344874e+00 2.925535e+00 3.416642e+00 2.559298e+00 2.303401e+00 2.026228e-01 4.269593e-01 4.725538e-01 5.595888e-01 6.009536e-01 5.740620e-01 6.909106e-01 7.509157e-01 6.002823e-01 5.411369e-01 6.307817e-01 4.802287e-01 3.572264e-01
<GCONST> 1.287953e+02
<STATE> 3
<MEAN> 39
 3.877195e-01 -6.118817e-01 3.943941e+00 1.270368e-01 -7.249379e+00 -2.247761e+00 -8.650856e+00 9.275892e-01 -4.228678e+00 -1.048786e+00 -3.162379e-01 -5.741712e+00 6.049340e+01 3.434354e-03 1.011240e-03 2.579108e-03 -2.103156e-02 -6.915313e-03 1.930434e-02 1.061853e-02 -2.100535e-02 -1.269525e-02 7.672801e-03 2.310412e-03 -1.825743e-02 1.314371e-02 -7.014848e-04 2.658097e-04 -2.034142e-03 -8.702211e-04 6.602696e-04 7.623726e-04 2.949162e-04 -4.175492e-03 8.131705e-04 1.869960e-03 5.002960e-04 -1.140607e-03 4.784977e-04
<VARIANCE> 39
 2.402485e+01 5.440097e+01 7.569779e+01 5.522758e+01 6.526667e+01 6.520430e+01 6.388824e+01 6.931335e+01 5.696445e+01 4.853799e+01 5.690536e+01 4.916485e+01 5.870587e+01 1.261493e+00 2.588857e+00 2.918689e+00 3.292151e+00 3.274760e+00 3.182061e+00 3.703757e+00 4.128768e+00 3.352616e+00 2.948378e+00 3.425972e+00 2.580472e+00 2.291717e+00 2.054030e-01 4.245322e-01 4.737379e-01 5.622034e-01 6.037424e-01 5.734954e-01 6.887548e-01 7.522690e-01 6.012916e-01 5.429723e-01 6.314794e-01 4.836149e-01 3.541510e-01
<GCONST> 1.288693e+02
<STATE> 4
<MEAN> 39
 3.524678e-01 -5.461426e-01 3.903830e+00 7.024771e-02 -7.214098e+00 -2.133395e+00 -8.552725e+00 8.239453e-01 -4.229235e+00 -1.060216e+00 -3.141542e-01 -5.721323e+00 6.042708e+01 1.180904e-03 1.212850e-03 -7.075668e-03 -2.169434e-02 -1.913872e-03 1.933604e-02 1.553008e-02 -2.729678e-02 -1.096511e-02 7.911201e-03 5.512818e-03 -1.783369e-02 1.076972e-02 -3.112018e-04 -7.926627e-04 -2.983170e-03 -5.353604e-04 1.884074e-03 -3.284262e-04 1.231786e-03 -1.555478e-03 8.872484e-04 -2.433655e-04 4.594055e-04 -9.306548e-05 1.341153e-04
<VARIANCE> 39
 2.399739e+01 5.420152e+01 7.603163e+01 5.559182e+01 6.580743e+01 6.561835e+01 6.326767e+01 6.866594e+01 5.668114e+01 4.880914e+01 5.741810e+01 4.957759e+01 5.827195e+01 1.260834e+00 2.551734e+00 2.903519e+00 3.286436e+00 3.276244e+00 3.170316e+00 3.660189e+00 4.101439e+00 3.331606e+00 2.941325e+00 3.432961e+00 2.600768e+00 2.252767e+00 2.050240e-01 4.159858e-01 4.689310e-01 5.600480e-01 6.023293e-01 5.681816e-01 6.800730e-01 7.477553e-01 5.965056e-01 5.384379e-01 6.302329e-01 4.860284e-01 3.453977e-01
<GCONST> 1.287168e+02
<TRANSP> 5
 0.000000e+00 1.000000e+00 0.000000e+00 0.000000e+00 0.000000e+00
 0.000000e+00 5.991398e-01 4.008602e-01 0.000000e+00 0.000000e+00
 0.000000e+00 0.000000e+00 5.991414e-01 4.008586e-01 0.000000e+00
 0.000000e+00 0.000000e+00 0.000000e+00 7.053427e-01 2.946574e-01
 0.000000e+00 0.000000e+00 0.000000e+00 0.000000e+00 0.000000e+00
<ENDHMM>
~h "e"
<BEGINHMM>
<NUMSTATES> 5
<STATE> 2
<MEAN> 39
 -4.395160e-01 -6.323016e-01 2.672390e+00 -1.162676e-01 -6.195822e+00 -2.459278e+00 -5.991210e+00 1.022926e+00 -4.538665e+00 -3.197141e-01 -4.289118e-01 -4.788438e+00 5.969153e+01 -3.950502e-03 -1.445655e-02 2.152811e-02 1.227347e-02 -2.716979e-02 -3.353388e-02 -6.989232e-03 7.077717e-03 5.145656e-04 -1.744467e-02 -4.325388e-03 -9.570316e-04 6.370246e-03 -5.189031e-04 1.493274e-03 -3.241847e-03 4.459440e-05 3.260387e-03 5.834434e-03 2.917161e-03 -1.300941e-03 3.636068e-03 -1.146325e-04 -1.333267e-03 3.067442e-03 -1.398579e-03
<VARIANCE> 39
 2.465526e+01 5.034150e+01 7.302620e+01 5.368955e+01 5.666730e+01 7.569089e+01 5.307589e+01 6.202855e+01 5.616867e+01 4.860482e+01 4.921688e+01 3.962231e+01 5.750020e+01 1.414744e+00 2.433433e+00 2.508922e+00 2.727443e+00 2.967760e+00 3.236734e+00 2.961882e+00 3.630256e+00 2.860750e+00 2.858460e+00 2.662771e+00 2.309032e+00 2.074566e+00 2.322525e-01 3.816397e-01 3.941078e-01 4.686531e-01 5.347281e-01 5.423704e-01 5.440138e-01 6.476797e-01 5.098061e-01 5.385622e-01 4.764182e-01 4.207632e-01 3.027772e-01
<GCONST> 1.250344e+02
<STATE> 3
<MEAN> 39
 -4.447627e-01 -6.509811e-01 2.703853e+00 -7.535464e-02 -6.241918e+00 -2.525817e+00 -6.003653e+00 1.041616e+00 -4.519489e+00 -3.669547e-01 -4.520422e-01 -4.776274e+00 5.969085e+01 -4.205592e-03 -7.116760e-03 7.217315e-03 1.253333e-02 -1.207656e-02 -1.109080e-02 1.947861e-03 3.821105e-03 1.008954e-02 -1.703656e-02 -8.964160e-03 7.855842e-03 -4.017727e-03 -3.495763e-05 2.802021e-03 -5.346500e-03 1.663796e-04 5.621977e-03 8.782627e-03 3.568793e-03 -7.014583e-04 2.697237e-03 2.227607e-06 -1.489581e-03 3.825230e-03 -4.616890e-03
<VARIANCE> 39
 2.458030e+01 5.011769e+01 7.191983e+01 5.292455e+01 5.669145e+01 7.525703e+01 5.243199e+01 6.148880e+01 5.611259e+01 4.817512e+01 4.981357e+01 3.972582e+01 5.752988e+01 1.395016e+00 2.413261e+00 2.460778e+00 2.720096e+00 2.971119e+00 3.151282e+00 2.955598e+00 3.626569e+00 2.864627e+00 2.861045e+00 2.652993e+00 2.309866e+00 2.020421e+00 2.292257e-01 3.770998e-01 3.865915e-01 4.699360e-01 5.362960e-01 5.315749e-01 5.437067e-01 6.474019e-01 5.104646e-01 5.382866e-01 4.759340e-01 4.214626e-01 2.951445e-01
<GCONST> 1.247917e+02
<STATE> 4
<MEAN> 39
 -5.220215e-01 -4.965746e-01 2.779096e+00 -7.166928e-02 -6.257529e+00 -2.499776e+00 -5.899907e+00 1.096612e+00 -4.518484e+00 -3.504111e-01 -4.877481e-01 -4.580374e+00 5.947052e+01 -1.448561e-03 6.548036e-03 -2.288780e-02 1.890612e-02 1.490071e-02 2.183585e-02 1.250981e-02 3.994850e-03 2.070213e-02 -1.815090e-02 -1.662312e-02 1.782867e-02 -2.863967e-02 4.850933e-04 2.759899e-03 -6.666736e-03 1.571056e-03 5.654651e-03 8.375637e-03 2.910364e-03 -1.535655e-04 1.102294e-03 -3.062938e-04 -1.919183e-03 2.642952e-03 -6.352701e-03
<VARIANCE> 39
 2.377006e+01 4.916026e+01 7.137565e+01 5.180129e+01 5.591821e+01 7.351375e+01 5.140501e+01 5.907065e+01 5.496453e+01 4.721328e+01 5.004411e+01 3.912046e+01 5.787602e+01 1.324923e+00 2.316049e+00 2.363892e+00 2.639074e+00 2.893976e+00 2.954127e+00 2.873216e+00 3.509862e+00 2.833312e+00 2.831847e+00 2.585769e+00 2.245993e+00 1.898207e+00 2.186534e-01 3.607778e-01 3.717314e-01 4.543565e-01 5.226792e-01 5.041994e-01 5.302844e-01 6.296490e-01 5.060185e-01 5.306935e-01 4.655570e-01 4.103588e-01 2.758071e-01
<GCONST> 1.236796e+02
<TRANSP> 5
 0.000000e+00 1.000000e+00 0.000000e+00 0.000000e+00 0.000000e+00
 0.000000e+00 6.165237e-01 3.834763e-01 0.000000e+00 0.000000e+00
 0.000000e+00 0.000000e+00 6.165248e-01 3.834753e-01 0.000000e+00
 0.000000e+00 0.000000e+00 0.000000e+00 7.320035e-01 2.679965e-01
 0.000000e+00 0.000000e+00 0.000000e+00 0.000000e+00 0.000000e+00
<ENDHMM>
~h "f"
<BEGINHMM>
<NUMSTATES> 5
<STATE> 2
<MEAN> 39
 -8.289798e-01 -1.040259e+00 4.384233e+00 -4.193431e-01 -8.330117e+00 -1.557067e+00 -7.659902e+00 -4.949265e-01 -3.990676e+00 -1.911551e+00 1.412986e+00 -7.026963e+00 6.113956e+01 4.392282e-03 7.668091e-03 3.350059e-02 -6.977187e-03 -2.899702e-02 2.703645e-02 1.978003e-02 3.693565e-02 -4.985201e-02 -3.485870e-02 1.146799e-02 1.486130e-02 -1.087797e-02 -2.103375e-03 1.711063e-03 -2.307970e-03 3.410566e-03 6.719587e-03 -1.688967e-03 3.108758e-03 -1.921583e-03 -1.787639e-04 1.729071e-04 -1.469745e-03 -1.153006e-03 -4.169715e-04
<VARIANCE> 39
 3.100888e+01 4.964918e+01 9.746503e+01 4.828484e+01 6.674007e+01 6.396341e+01 6.517022e+01 6.152122e+01 7.014284e+01 4.348724e+01 4.804258e+01 4.198298e+01 5.873190e+01 1.667210e+00 2.090344e+00 2.819223e+00 2.535115e+00 3.362565e+00 2.893807e+00 3.299445e+00 3.581126e+00 3.532393e+00 2.867460e+00 2.909491e+00 2.311815e+00 1.661674e+00 2.594208e-01 3.161156e-01 4.273854e-01 4.079555e-01 5.791348e-01 4.972637e-01 5.589747e-01 6.425502e-01 6.260251e-01 5.246798e-01 5.159193e-01 4.032810e-01 2.408928e-01
<GCONST> 1.259000e+02
<STATE> 3
<MEAN> 39
 -8.374459e-01 -1.014081e+00 4.454756e+00 -4.233371e-01 -8.381691e+00 -1.511368e+00 -7.583621e+00 -3.910683e-01 -4.100058e+00 -2.006124e+00 1.423639e+00 -6.991231e+00 6.111267e+01 -1.180634e-04 1.304584e-02 2.720428e-02 2.242688e-03 -1.441917e-02 2.482613e-02 2.920626e-02 3.144957e-02 -5.121951e-02 -3.468302e-02 7.431497e-03 1.262685e-02 -1.477539e-02 -1.751482e-03 1.780388e-03 -1.115956e-03 4.244926e-03 4.979132e-03 -2.413080e-03 3.228230e-03 -2.005970e-03 -5.276443e-04 2.021671e-03 -1.224625e-03 -2.149736e-04 -1.462371e-03
<VARIANCE> 39
 3.124803e+01 5.032202e+01 9.589047e+01 4.810123e+01 6.770685e+01 6.241990e+01 6.500088e+01 6.102647e+01 6.908717e+01 4.359489e+01 4.892902e+01 4.182566e+01 5.896808e+01 1.632070e+00 2.078362e+00 2.748564e+00 2.522151e+00 3.315394e+00 2.861428e+00 3.246720e+00 3.568089e+00 3.516093e+00 2.871375e+00 2.954945e+00 2.299263e+00 1.662719e+00 2.528181e-01 3.147068e-01 4.155514e-01 4.056390e-01 5.695358e-01 4.925888e-01 5.484492e-01 6.386035e-01 6.276535e-01 5.272893e-01 5.244872e-01 4.013311e-01 2.393233e-01
<GCONST> 1.256881e+02
<STATE> 4
<MEAN> 39
 -9.416929e-01 -9.519591e-01 4.412920e+00 -4.233387e-01 -8.340124e+00 -1.426259e+00 -7.384067e+00 -2.789065e-01 -4.165835e+00 -2.168908e+00 1.416202e+00 -6.946238e+00 6.102745e+01 -3.845062e-03 1.967234e-02 2.132024e-02 1.540778e-02 -5.377356e-03 1.864756e-02 4.220786e-02 2.807380e-02 -5.038546e-02 -2.993570e-02 1.893510e-04 1.367341e-02 -2.369880e-02 -3.308958e-04 1.169119e-03 -2.393710e-04 4.389365e-03 1.781352e-03 -2.126795e-03 2.326345e-03 -1.144221e-03 5.899747e-04 3.931736e-03 -1.283397e-03 1.050016e-03 -2.584017e-03
<VARIANCE> 39
 3.192607e+01 5.114811e+01 9.351881e+01 4.764022e+01 6.872359e+01 6.085340e+01 6.507615e+01 6.089694e+01 6.791118e+01 4.402046e+01 5.018253e+01 4.184880e+01 5.938528e+01 1.589625e+00 2.063071e+00 2.653548e+00 2.500774e+00 3.250253e+00 2.820529e+00 3.172056e+00 3.547139e+00 3.484200e+00 2.876284e+00 3.019106e+00 2.278774e+00 1.676497e+00 2.445074e-01 3.123774e-01 4.000191e-01 4.018722e-01 5.559704e-01 4.854042e-01 5.363281e-01 6.341725e-01 6.267323e-01 5.294850e-01 5.391212e-01 3.971626e-01 2.377048e-01
<GCONST> 1.254343e+02
<TRANSP> 5
 0.000000e+00 1.000000e+00 0.000000e+00 0.000000e+00 0.000000e+00
 0.000000e+00 6.082216e-01 3.917784e-01 0.000000e+00 0.000000e+00
 0.000000e+00 0.000000e+00 6.082219e-01 3.917782e-01 0.000000e+00
 0.000000e+00 0.000000e+00 0.000000e+00 7.128804e-01 2.871196e-01
 0.000000e+00 0.000000e+00 0.000000e+00 0.000000e+00 0.000000e+00
<ENDHMM>
~h "g"
<BEGINHMM>
<NUMSTATES> 5
<STATE> 2
<MEAN> 39
 3.782885e-01 3.839482e-01 3.505457e+00 -6.898773e-01 -6.951305e+00 -1.796596e+00 -8.918640e+00 -5.002266e-02 -4.683028e+00 -2.904205e-01 5.832514e-01 -6.569510e+00 6.044982e+01 -8.191186e-03 -1.301682e-02 -2.086890e-02 2.305954e-03 2.344229e-02 -1.073800e-02 6.125705e-03 1.191603e-02 -2.609134e-03 1.861438e-02 -7.225006e-03 4.450033e-03 -1.735892e-03 -1.499530e-03 -2.541603e-03 -4.618981e-03 1.167710e-03 4.124318e-03 4.114214e-03 5.034033e-03 6.594768e-04 3.720694e-03 -1.728046e-03 -3.812375e-03 4.622001e-03 -3.736674e-03
<VARIANCE> 39
 2.597517e+01 5.330707e+01 6.902046e+01 5.761174e+01 6.250218e+01 6.322322e+01 6.410135e+01 6.220139e+01 5.999089e+01 5.077200e+01 5.511353e+01 5.269761e+01 5.709478e+01 1.329219e+00 2.351593e+00 2.884371e+00 3.148019e+00 3.386995e+00 3.259895e+00 3.636956e+00 3.805855e+00 3.559661e+00 2.951599e+00 3.553532e+00 2.675350e+00 2.185626e+00 2.174287e-01 3.563223e-01 4.650738e-01 5.291161e-01 6.245392e-01 5.862671e-01 6.758440e-01 6.947089e-01 6.410948e-01 5.513513e-01 6.663035e-01 4.908990e-01 3.255303e-01
<GCONST> 1.285721e+02
<STATE> 3
<MEAN> 39
 3.632673e-01 3.297144e-01 3.429700e+00 -6.955662e-01 -6.891023e+00 -1.786236e+00 -8.891586e+00 -7.124066e-03 -4.673649e+00 -2.458898e-01 5.624202e-01 -6.558280e+00 6.043748e+01 -1.217552e-02 -1.640061e-02 -3.139345e-02 3.385155e-03 3.019948e-02 -9.001348e-04 1.846354e-02 1.302988e-02 9.002960e-03 1.305148e-02 -1.547704e-02 1.472334e-02 -1.192828e-02 -1.408687e-03 -9.582472e-04 -3.938118e-03 3.597764e-04 1.724121e-03 3.467424e-03 3.897583e-03 -5.080898e-04 5.225760e-03 -3.502019e-03 -3.173530e-03 3.867281e-03 -4.129074e-03
<VARIANCE> 39
 2.624307e+01 5.341206e+01 6.851396e+01 5.717655e+01 6.233987e+01 6.351206e+01 6.399461e+01 6.242588e+01 5.970393e+01 5.053553e+01 5.488572e+01 5.230091e+01 5.757715e+01 1.324729e+00 2.348778e+00 2.808861e+00 3.119186e+00 3.349480e+00 3.215098e+00 3.615407e+00 3.808386e+00 3.530768e+00 2.940553e+00 3.523073e+00 2.652432e+00 2.143324e+00 2.156565e-01 3.559660e-01 4.534109e-01 5.235518e-01 6.186104e-01 5.762974e-01 6.695409e-01 6.974648e-01 6.361992e-01 5.488638e-01 6.600058e-01 4.871493e-01 3.198972e-01
<GCONST> 1.283172e+02
<STATE> 4
<MEAN> 39
 3.004858e-01 3.304396e-01 3.250093e+00 -6.904843e-01 -6.703217e+00 -1.606259e+00 -8.792479e+00 7.183260e-02 -4.587345e+00 -3.403244e-01 5.040886e-01 -6.418354e+00 6.023474e+01 -1.563304e-02 -1.699111e-02 -3.881657e-02 3.299282e-03 2.517322e-02 9.476234e-03 2.720201e-02 1.488159e-02 1.824903e-02 1.578211e-03 -1.706595e-02 1.845051e-02 -2.275410e-02 -1.066709e-03 4.154015e-04 -1.944235e-03 1.151077e-03 -1.609468e-03 1.377324e-03 1.871136e-03 -1.714448e-04 3.466107e-03 -4.799668e-03 -1.009986e-03 2.197730e-03 -3.443009e-03
<VARIANCE> 39
 2.648474e+01 5.340615e+01 6.751614e+01 5.716367e+01 6.158661e+01 6.363767e+01 6.362236e+01 6.234183e+01 5.883705e+01 4.982781e+01 5.536828e+01 5.169900e+01 5.869991e+01 1.299623e+00 2.307454e+00 2.692637e+00 3.049088e+00 3.267596e+00 3.113341e+00 3.537922e+00 3.743760e+00 3.436454e+00 2.887051e+00 3.436631e+00 2.603624e+00 2.061415e+00 2.114099e-01 3.503846e-01 4.321952e-01 5.115666e-01 6.026772e-01 5.531285e-01 6.519127e-01 6.856607e-01 6.180477e-01 5.374957e-01 6.419716e-01 4.790018e-01 3.058877e-01
<GCONST> 1.275995e+02
<TRANSP> 5
 0.000000e+00 1.000000e+00 0.000000e+00 0.000000e+00 0.000000e+00
 0.000000e+00 6.020362e-01 3.979638e-01 0.000000e+00 0.000000e+00
 0.000000e+00 0.000000e+00 6.020337e-01 3.979663e-01 0.000000e+00
 0.000000e+00 0.000000e+00 0.000000e+00 7.111894e-01 2.888106e-01
 0.000000e+00 0.000000e+00 0.000000e+00 0.000000e+00 0.000000e+00
<ENDHMM>
~h "h"
<BEGINHMM>
<NUMSTATES> 5
<STATE> 2
<MEAN> 39
 -3.910602e-01 -9.053802e-01 1.392160e+00 -6.698904e-01 -4.959487e+00 -1.094353e+00 -5.832722e+00 1.260250e+00 -3.961027e+00 -6.110717e-01 -1.510294e+00 -4.832448e+00 5.980667e+01 7.522613e-05 -9.342981e-03 -4.531771e-03 2.588888e-02 2.278351e-03 1.103781e-02 9.669561e-03 1.125218e-03 3.427487e-03 2.883626e-03 8.630418e-04 -3.051904e-03 -1.729020e-02 -5.388670e-04 4.739536e-03 8.516932e-04 4.109768e-03 -1.126242e-03 -2.153930e-03 -1.496932e-03 -2.511571e-03 -2.297327e-03 2.961234e-04 3.011774e-03 4.011442e-04 -3.950289e-03
<VARIANCE> 39
 2.389824e+01 5.329703e+01 7.047173e+01 5.979323e+01 5.955009e+01 6.554501e+01 5.842948e+01 5.658276e+01 5.921365e+01 4.227446e+01 5.090384e+01 4.429466e+01 6.915387e+01 1.072512e+00 2.000616e+00 2.275325e+00 2.791631e+00 2.707379e+00 2.797960e+00 2.968969e+00 3.098530e+00 2.885780e+00 2.504326e+00 2.674962e+00 2.282572e+00 1.777037e+00 1.698821e-01 3.143654e-01 3.563603e-01 4.631132e-01 4.765614e-01 4.943351e-01 5.324687e-01 5.654554e-01 5.190551e-01 4.635320e-01 4.955988e-01 4.166321e-01 2.427953e-01
<GCONST> 1.227516e+02
<STATE> 3
<MEAN> 39
 -3.928786e-01 -9.158572e-01 1.393933e+00 -5.766699e-01 -4.963077e+00 -1.070010e+00 -5.819044e+00 1.258413e+00 -3.961916e+00 -6.075499e-01 -1.494601e+00 -4.842109e+00 5.974193e+01 -7.226171e-04 1.619276e-03 -1.436244e-03 3.405021e-02 -8.535895e-04 5.569285e-03 4.989166e-03 -5.629742e-03 -1.246495e-03 3.489146e-03 7.629046e-03 -2.648948e-03 -2.585534e-02 -6.986177e-04 4.450238e-03 1.834814e-03 2.442984e-03 -1.308199e-03 -2.489089e-03 -2.475766e-03 -2.310024e-03 -4.765935e-04 -1.720794e-04 2.264950e-03 -4.953434e-04 -2.603604e-03
<VARIANCE> 39
 2.358798e+01 5.270229e+01 7.002088e+01 5.904343e+01 5.941760e+01 6.467180e+01 5.789228e+01 5.631794e+01 5.851697e+01 4.197229e+01 5.027494e+01 4.484694e+01 6.877016e+01 1.069911e+00 1.984689e+00 2.279193e+00 2.758861e+00 2.681397e+00 2.793030e+00 2.949095e+00 3.102627e+00 2.894956e+00 2.507888e+00 2.657477e+00 2.296777e+00 1.757071e+00 1.698558e-01 3.111138e-01 3.580847e-01 4.597648e-01 4.722147e-01 4.933321e-01 5.307592e-01 5.679073e-01 5.203006e-01 4.654760e-01 4.942233e-01 4.196789e-01 2.417790e-01
<GCONST> 1.225935e+02
<STATE> 4
<MEAN> 39
 -4.222773e-01 -7.732805e-01 1.227678e+00 -4.804211e-01 -4.902582e+00 -9.658732e-01 -5.667481e+00 1.433226e+00 -4.429465e+00 -4.599615e-01 -1.299841e+00 -4.841331e+00 5.943867e+01 -3.268237e-03 1.301513e-02 3.315885e-03 3.613723e-02 -7.149278e-03 -1.032513e-03 2.068800e-04 -8.735059e-03 9.973861e-05 5.634819e-04 1.482539e-02 -1.512966e-03 -3.159280e-02 -1.228829e-03 2.948363e-03 1.200122e-03 4.194233e-04 -1.682475e-03 -1.830030e-03 -2.236686e-03 -1.148987e-03 2.470555e-03 -8.798167e-04 1.777632e-03 -8.396586e-04 -1.239427e-03
<VARIANCE> 39
 2.313727e+01 5.271092e+01 6.907607e+01 6.094268e+01 5.934881e+01 6.373527e+01 5.661369e+01 5.503230e+01 6.001363e+01 4.112344e+01 4.986583e+01 4.418634e+01 7.392083e+01 1.045730e+00 1.909308e+00 2.224964e+00 2.692599e+00 2.639400e+00 2.767335e+00 2.840835e+00 3.113786e+00 2.872838e+00 2.473807e+00 2.610677e+00 2.234113e+00 1.742570e+00 1.678213e-01 2.967550e-01 3.516575e-01 4.477895e-01 4.658583e-01 4.903435e-01 5.140928e-01 5.752236e-01 5.196987e-01 4.614600e-01 4.883212e-01 4.106394e-01 2.413735e-01
<GCONST> 1.221536e+02
<TRANSP> 5
 0.000000e+00 1.000000e+00 0.000000e+00 0.000000e+00 0.000000e+00
 0.000000e+00 6.108333e-01 3.891666e-01 0.000000e+00 0.000000e+00
 0.000000e+00 0.000000e+00 6.108332e-01 3.891668e-01 0.000000e+00
 0.000000e+00 0.000000e+00 0.000000e+00 7.494373e-01 2.505627e-01
 0.000000e+00 0.000000e+00 0.000000e+00 0.000000e+00 0.000000e+00
<ENDHMM>
~h "i"
<BEGINHMM>
<NUMSTATES> 5
<STATE> 2
<MEAN> 39
 -5.926958e-01 1.394575e-01 4.532765e+00 -2.704706e-01 -7.298227e+00 -2.031193e+00 -7.605278e+00 1.770579e-01 -5.389176e+00 -1.110416e+00 2.624815e-01 -5.514487e+00 6.003471e+01 5.442826e-03 -4.712843e-03 -2.322813e-02 6.543975e-04 1.440537e-02 1.525796e-02 -1.232243e-03 -5.605559e-03 1.389087e-02 2.930943e-03 -8.645114e-03 1.111100e-03 -8.650308e-03 6.885426e-04 -8.969709e-04 -5.328412e-03 2.081647e-04 1.862261e-03 1.640268e-03 7.254776e-04 2.087449e-03 3.329864e-03 3.036241e-04 -1.529040e-03 1.157214e-03 -2.041911e-03
<VARIANCE> 39
 2.832743e+01 5.048208e+01 8.441032e+01 5.427645e+01 6.637216e+01 6.585240e+01 6.096986e+01 6.008754e+01 6.110204e+01 4.823389e+01 5.151490e+01 4.523545e+01 5.928930e+01 1.435890e+00 2.254271e+00 3.202259e+00 2.979362e+00 3.370923e+00 3.148431e+00 3.446538e+00 3.711833e+00 3.431961e+00 2.851218e+00 3.120554e+00 2.476384e+00 1.952406e+00 2.319446e-01 3.546219e-01 4.921058e-01 5.040442e-01 6.033685e-01 5.585483e-01 6.269562e-01 6.791437e-01 6.217016e-01 5.285035e-01 5.787597e-01 4.578669e-01 2.926165e-01
<GCONST> 1.276185e+02
<STATE> 3
<MEAN> 39
 -5.761010e-01 1.268232e-01 4.462825e+00 -2.699122e-01 -7.257370e+00 -1.988162e+00 -7.607797e+00 1.718474e-01 -5.347764e+00 -1.101752e+00 2.420426e-01 -5.510444e+00 6.000924e+01 6.755278e-03 -6.936605e-03 -3.631143e-02 1.643625e-03 1.942470e-02 1.903357e-02 9.819476e-04 4.583269e-04 2.119415e-02 4.483534e-03 -1.222497e-02 4.227827e-03 -1.404562e-02 6.812243e-04 -9.629927e-04 -5.018365e-03 4.407721e-04 1.572072e-03 1.345973e-03 8.156406e-04 2.010666e-03 2.551649e-03 8.807986e-04 -1.212183e-03 9.165907e-04 -2.234508e-03
<VARIANCE> 39
 2.806950e+01 5.056763e+01 8.392415e+01 5.425197e+01 6.618903e+01 6.566991e+01 6.085886e+01 5.994839e+01 6.092777e+01 4.827236e+01 5.153424e+01 4.546699e+01 5.964416e+01 1.418518e+00 2.242285e+00 3.149107e+00 2.967976e+00 3.337199e+00 3.133979e+00 3.435038e+00 3.704856e+00 3.423085e+00 2.846651e+00 3.108618e+00 2.471951e+00 1.936597e+00 2.295051e-01 3.525504e-01 4.850394e-01 5.025151e-01 5.981806e-01 5.553303e-01 6.252269e-01 6.786047e-01 6.198915e-01 5.278469e-01 5.769993e-01 4.564742e-01 2.900835e-01
<GCONST> 1.274578e+02
<STATE> 4
<MEAN> 39
 -5.938181e-01 1.744410e-01 4.100858e+00 -3.812569e-01 -7.008121e+00 -1.801672e+00 -7.429487e+00 2.833548e-01 -5.469903e+00 -9.858944e-01 2.610165e-01 -5.483956e+00 5.984240e+01 8.212710e-03 -8.794689e-03 -4.641709e-02 2.742316e-03 2.169964e-02 2.088581e-02 3.475310e-03 6.489913e-03 2.460434e-02 7.716147e-03 -1.359064e-02 5.880601e-03 -1.841417e-02 3.784474e-04 -6.954708e-04 -3.780942e-03 6.590932e-04 1.057743e-03 1.029069e-03 1.106598e-03 1.431764e-03 1.440071e-03 1.073368e-03 -5.353357e-04 3.284719e-04 -1.913355e-03
<VARIANCE> 39
 2.774411e+01 5.116166e+01 8.380938e+01 5.638331e+01 6.640779e+01 6.575638e+01 6.053401e+01 5.950407e+01 6.159233e+01 4.810679e+01 5.151731e+01 4.577700e+01 6.242562e+01 1.389284e+00 2.204687e+00 3.037161e+00 2.927715e+00 3.279559e+00 3.108493e+00 3.369455e+00 3.664585e+00 3.375586e+00 2.823257e+00 3.060601e+00 2.434946e+00 1.920402e+00 2.263821e-01 3.454770e-01 4.692205e-01 4.954780e-01 5.867152e-01 5.507388e-01 6.140769e-01 6.715880e-01 6.101742e-01 5.243808e-01 5.685220e-01 4.487213e-01 2.858055e-01
<GCONST> 1.271352e+02
<TRANSP> 5
 0.000000e+00 1.000000e+00 0.000000e+00 0.000000e+00 0.000000e+00
 0.000000e+00 6.011028e-01 3.988972e-01 0.000000e+00 0.000000e+00
 0.000000e+00 0.000000e+00 6.011009e-01 3.988990e-01 0.000000e+00
 0.000000e+00 0.000000e+00 0.000000e+00 7.230609e-01 2.769391e-01
 0.000000e+00 0.000000e+00 0.000000e+00 0.000000e+00 0.000000e+00
<ENDHMM>
~h "j"
<BEGINHMM>
<NUMSTATES> 5
<STATE> 2
<MEAN> 39
 1.786480e-01 4.024922e-01 3.740247e+00 1.455255e-01 -5.856618e+00 -2.252499e+00 -8.813560e+00 1.248137e+00 -4.863891e+00 -5.840134e-01 -1.210882e-01 -4.717973e+00 5.983683e+01 8.545214e-03 1.844815e-02 2.306600e-03 1.970623e-02 -7.619468e-04 2.490266e-02 -4.899136e-03 -1.135152e-02 1.136677e-02 2.201570e-02 2.235734e-02 -2.533593e-03 -1.738565e-02 -5.172378e-04 -1.650774e-03 -2.013642e-03 -3.945278e-03 -1.081171e-03 -1.574222e-03 1.957822e-03 8.587150e-04 -2.937633e-03 5.056091e-03 4.049151e-03 -3.281421e-03 1.915615e-03
<VARIANCE> 39
 2.118228e+01 5.010289e+01 7.116984e+01 5.305753e+01 5.631355e+01 6.185766e+01 6.885786e+01 6.061049e+01 5.481936e+01 5.203059e+01 4.877678e+01 4.459758e+01 6.301683e+01 1.256516e+00 2.269263e+00 2.979598e+00 2.928777e+00 3.186111e+00 3.382517e+00 3.874408e+00 3.603026e+00 2.965921e+00 2.822757e+00 3.118812e+00 2.520230e+00 2.134805e+00 2.241583e-01 3.559201e-01 5.097297e-01 4.960677e-01 6.083332e-01 6.162723e-01 7.129903e-01 6.606038e-01 5.463722e-01 5.302820e-01 5.970004e-01 4.769245e-01 3.237546e-01
<GCONST> 1.270700e+02
<STATE> 3
<MEAN> 39
 1.956400e-01 4.422814e-01 3.730979e+00 1.803938e-01 -5.871309e+00 -2.208190e+00 -8.823987e+00 1.227036e+00 -4.834561e+00 -5.146651e-01 -6.264296e-02 -4.735875e+00 5.979689e+01 4.513691e-03 1.458340e-02 -3.962950e-03 1.115601e-02 -4.773752e-03 2.113771e-02 1.079371e-03 -9.184573e-03 6.212590e-03 2.935300e-02 3.010484e-02 -8.000464e-03 -1.567216e-02 -2.128827e-03 -2.603387e-03 -2.796881e-03 -3.416941e-03 -8.395497e-04 -1.801420e-03 3.382554e-03 1.529848e-03 -2.535727e-03 2.347222e-03 2.539292e-03 -2.268587e-03 8.234973e-04
<VARIANCE> 39
 2.096872e+01 5.000454e+01 7.144386e+01 5.282145e+01 5.639349e+01 6.143026e+01 6.846210e+01 6.009793e+01 5.460954e+01 5.248630e+01 4.874087e+01 4.438877e+01 6.284961e+01 1.246544e+00 2.267517e+00 2.975985e+00 2.932833e+00 3.222706e+00 3.396152e+00 3.866868e+00 3.609394e+00 2.966212e+00 2.806276e+00 3.098980e+00 2.500317e+00 2.150915e+00 2.216926e-01 3.546312e-01 5.085747e-01 4.963286e-01 6.154766e-01 6.172625e-01 7.127979e-01 6.616355e-01 5.472516e-01 5.268904e-01 5.927520e-01 4.724773e-01 3.254924e-01
<GCONST> 1.270107e+02
<STATE> 4
<MEAN> 39
 -5.614891e-02 5.533728e-01 2.878916e+00 -1.956456e-01 -5.604068e+00 -1.842290e+00 -7.723172e+00 1.360711e+00 -6.095207e+00 5.254298e-02 4.580851e-01 -5.134830e+00 5.958010e+01 -1.694494e-03 7.668616e-03 -8.273775e-03 6.170109e-03 -9.142268e-03 1.563761e-02 8.747386e-03 -7.156040e-03 -3.507832e-04 1.948541e-02 2.549417e-02 -9.197198e-03 -1.361919e-02 -1.862547e-03 -1.778283e-03 -1.830874e-03 -8.188987e-04 -9.387363e-04 1.363618e-04 3.205319e-03 1.738013e-04 -2.504078e-03 -9.148999e-04 2.691646e-04 -1.001744e-03 -7.701307e-04
<VARIANCE> 39
 2.426891e+01 5.306885e+01 7.379340e+01 6.069456e+01 5.993399e+01 6.426604e+01 6.624087e+01 5.722537e+01 6.199227e+01 5.071402e+01 4.712838e+01 4.504798e+01 7.192590e+01 1.362449e+00 2.267749e+00 2.875587e+00 2.878085e+00 3.365285e+00 3.433587e+00 3.609408e+00 3.644073e+00 3.136278e+00 2.827668e+00 3.024312e+00 2.421188e+00 2.163218e+00 2.409787e-01 3.549203e-01 4.880839e-01 4.858923e-01 6.266655e-01 6.253631e-01 6.686879e-01 6.708490e-01 5.813309e-01 5.334691e-01 5.781357e-01 4.549344e-01 3.270918e-01
<GCONST> 1.276812e+02
<TRANSP> 5
 0.000000e+00 1.000000e+00 0.000000e+00 0.000000e+00 0.000000e+00
 0.000000e+00 6.036758e-01 3.963242e-01 0.000000e+00 0.000000e+00
 0.000000e+00 0.000000e+00 6.036770e-01 3.963230e-01 0.000000e+00
 0.000000e+00 0.000000e+00 0.000000e+00 7.775688e-01 2.224313e-01
 0.000000e+00 0.000000e+00 0.000000e+00 0.000000e+00 0.000000e+00
<ENDHMM>
~h "k"
<BEGINHMM>
<NUMSTATES> 5
<STATE> 2
<MEAN> 39
 5.429097e-01 -8.892810e-01 2.396563e-01 -1.501160e+00 -5.130992e+00 -4.139554e-01 -6.938565e+00 4.476171e-01 -4.606819e+00 1.733044e-01 -7.069359e-01 -5.546583e+00 5.975816e+01 9.819069e-03 4.430607e-03 -2.737363e-03 -1.392667e-02 -1.350036e-02 1.206230e-03 -8.867486e-03 -1.895030e-02 2.567539e-04 -1.021318e-02 3.009286e-03 -7.991110e-04 2.758596e-02 -1.266555e-03 -4.067483e-04 4.923483e-03 1.378941e-04 1.995772e-04 -8.701192e-04 -7.884095e-05 -1.064138e-04 -2.783101e-03 6.570760e-05 -1.314719e-03 1.142237e-04 1.207574e-03
<VARIANCE> 39
 2.493222e+01 5.087119e+01 6.611186e+01 6.601048e+01 6.401653e+01 6.653642e+01 5.864219e+01 5.732759e+01 5.396593e+01 4.565537e+01 4.557448e+01 4.629082e+01 5.728855e+01 1.377947e+00 2.440569e+00 2.711341e+00 3.501382e+00 3.405188e+00 3.137962e+00 3.367392e+00 3.689719e+00 3.306331e+00 2.981128e+00 2.951287e+00 2.594655e+00 2.319923e+00 2.353740e-01 3.887943e-01 4.442810e-01 5.909413e-01 6.299717e-01 5.633941e-01 6.181883e-01 6.870008e-01 6.094139e-01 5.627916e-01 5.540941e-01 4.826162e-01 3.509272e-01
<GCONST> 1.276531e+02
<STATE> 3
<MEAN> 39
 5.614457e-01 -8.751755e-01 2.519199e-01 -1.526495e+00 -5.157959e+00 -4.235118e-01 -6.962833e+00 4.065522e-01 -4.615942e+00 1.531261e-01 -7.090700e-01 -5.546209e+00 5.982047e+01 5.867081e-03 4.981935e-03 1.016023e-02 -1.264141e-02 -1.302158e-02 -2.734445e-03 -1.053766e-02 -1.703947e-02 -5.075484e-03 -9.125985e-03 3.256038e-04 -1.054301e-03 2.763006e-02 -1.531786e-03 3.396091e-04 5.615469e-03 5.400020e-04 5.901619e-04 -1.513845e-03 -1.156643e-03 1.336709e-03 -2.092516e-03 1.080978e-03 -1.011783e-03 -3.166668e-04 -3.919381e-04
<VARIANCE> 39
 2.514065e+01 5.098611e+01 6.614970e+01 6.601237e+01 6.401126e+01 6.681660e+01 5.890779e+01 5.763761e+01 5.423536e+01 4.576915e+01 4.568583e+01 4.631114e+01 5.720963e+01 1.391983e+00 2.438707e+00 2.713063e+00 3.481671e+00 3.429777e+00 3.154932e+00 3.385093e+00 3.694951e+00 3.308561e+00 2.988117e+00 2.958262e+00 2.591445e+00 2.294133e+00 2.370855e-01 3.884943e-01 4.442102e-01 5.900967e-01 6.332342e-01 5.677432e-01 6.205973e-01 6.878794e-01 6.091231e-01 5.647490e-01 5.540650e-01 4.811218e-01 3.490718e-01
<GCONST> 1.277213e+02
<STATE> 4
<MEAN> 39
 3.379975e-01 -4.693952e-01 3.390440e-01 -1.215488e+00 -5.128408e+00 -1.927291e-01 -6.710943e+00 5.571129e-01 -4.739855e+00 7.406294e-02 -7.583629e-01 -5.374599e+00 5.931487e+01 5.218586e-04 7.224147e-03 2.132472e-02 -4.411431e-03 -1.111803e-02 -8.191613e-03 -1.387115e-02 -1.021036e-02 -4.310789e-03 -8.507773e-03 -1.526844e-03 -8.177958e-04 1.993267e-02 -1.477090e-03 6.463545e-04 4.112843e-03 1.350055e-03 1.380887e-04 -1.319760e-03 -1.795823e-03 1.640580e-03 8.129230e-05 5.519278e-04 -2.015205e-04 -4.330188e-04 -1.186322e-03
<VARIANCE> 39
 2.512995e+01 5.164656e+01 6.410497e+01 6.704575e+01 6.235017e+01 6.628066e+01 5.942329e+01 5.711313e+01 5.458286e+01 4.532295e+01 4.516143e+01 4.541088e+01 6.276456e+01 1.335488e+00 2.323048e+00 2.612102e+00 3.331198e+00 3.305778e+00 3.074688e+00 3.267429e+00 3.591772e+00 3.226742e+00 2.928197e+00 2.892769e+00 2.511803e+00 2.162965e+00 2.271948e-01 3.694138e-01 4.262751e-01 5.666584e-01 6.081204e-01 5.540953e-01 5.994501e-01 6.693403e-01 5.945848e-01 5.530082e-01 5.420306e-01 4.655446e-01 3.267991e-01
<GCONST> 1.268175e+02
<TRANSP> 5
 0.000000e+00 1.000000e+00 0.000000e+00 0.000000e+00 0.000000e+00
 0.000000e+00 5.993068e-01 4.006933e-01 0.000000e+00 0.000000e+00
 0.000000e+00 0.000000e+00 5.993052e-01 4.006948e-01 0.000000e+00
 0.000000e+00 0.000000e+00 0.000000e+00 7.301343e-01 2.698658e-01
 0.000000e+00 0.000000e+00 0.000000e+00 0.000000e+00 0.000000e+00
<ENDHMM>
~h "l"
<BEGINHMM>
<NUMSTATES> 5
<STATE> 2
<MEAN> 39
 5.729083e-01 -1.185611e+00 1.969390e+00 -1.969652e+00 -6.060447e+00 -7.590365e-01 -8.301422e+00 -6.337065e-02 -3.666434e+00 -1.936704e-02 -5.292057e-01 -6.466888e+00 6.110112e+01 -1.049306e-02 4.075922e-03 6.391678e-03 1.286274e-02 1.247147e-02 -1.171392e-02 1.468800e-03 -5.924912e-03 -4.488076e-03 6.283290e-05 -4.879697e-03 -3.784946e-03 4.782766e-03 -2.197530e-03 3.175833e-03 -3.952454e-04 1.937546e-03 1.430592e-03 1.816469e-04 2.752180e-03 1.475395e-03 6.025228e-06 -2.151816e-03 -1.656230e-03 1.586375e-03 -3.287338e-03
<VARIANCE> 39
 2.574978e+01 5.326516e+01 6.866146e+01 6.486879e+01 6.171806e+01 6.748194e+01 6.786754e+01 6.612399e+01 6.450795e+01 4.862959e+01 5.298615e+01 5.347486e+01 6.060604e+01 1.302447e+00 2.218900e+00 2.479017e+00 3.156704e+00 3.076221e+00 3.238424e+00 3.462855e+00 3.955362e+00 3.446757e+00 3.004821e+00 3.235166e+00 2.548725e+00 1.840606e+00 2.137680e-01 3.390209e-01 3.966370e-01 5.199426e-01 5.517487e-01 5.737209e-01 6.109514e-01 7.181944e-01 6.094245e-01 5.559866e-01 6.006768e-01 4.594470e-01 2.615418e-01
<GCONST> 1.273545e+02
<STATE> 3
<MEAN> 39
 5.447196e-01 -1.176667e+00 1.987673e+00 -1.930079e+00 -6.033853e+00 -7.907286e-01 -8.282841e+00 -6.671834e-02 -3.679827e+00 -2.871117e-02 -5.519906e-01 -6.471870e+00 6.110708e+01 -1.493584e-02 1.184054e-02 5.066804e-03 2.006011e-02 1.530302e-02 -9.456135e-03 8.897405e-03 -2.874983e-03 -5.818191e-03 -5.639101e-03 -9.374342e-03 6.957250e-04 -5.230061e-03 -1.712276e-03 3.186840e-03 -8.959371e-04 2.555338e-03 9.470006e-04 2.999938e-04 2.558925e-03 1.689643e-03 -7.144046e-04 -2.708457e-03 -1.118936e-03 2.037487e-03 -3.959435e-03
<VARIANCE> 39
 2.593192e+01 5.313831e+01 6.801025e+01 6.437314e+01 6.138532e+01 6.774586e+01 6.803779e+01 6.593116e+01 6.454404e+01 4.830284e+01 5.332691e+01 5.316148e+01 6.024263e+01 1.319511e+00 2.221671e+00 2.476447e+00 3.146122e+00 3.067613e+00 3.221344e+00 3.468721e+00 3.918368e+00 3.428782e+00 2.985662e+00 3.235674e+00 2.536799e+00 1.836919e+00 2.165230e-01 3.395910e-01 3.965498e-01 5.206479e-01 5.513445e-01 5.705134e-01 6.136577e-01 7.111724e-01 6.067966e-01 5.522374e-01 6.025590e-01 4.573331e-01 2.616533e-01
<GCONST> 1.272960e+02
<STATE> 4
<MEAN> 39
 4.503831e-01 -1.068661e+00 1.947376e+00 -1.831588e+00 -5.919556e+00 -7.515784e-01 -8.202711e+00 -5.242550e-02 -3.610847e+00 -1.377140e-01 -6.506480e-01 -6.411872e+00 6.093866e+01 -1.683348e-02 1.975062e-02 2.425189e-03 3.043298e-02 1.570820e-02 -4.770175e-03 1.720446e-02 2.217674e-03 -1.038719e-02 -1.324919e-02 -1.196811e-02 6.477086e-03 -1.976437e-02 -1.047540e-03 3.002669e-03 -1.178069e-03 2.920161e-03 7.470256e-04 8.302444e-04 1.895795e-03 1.485632e-03 -1.388679e-03 -2.393240e-03 1.634362e-04 1.985752e-03 -4.648984e-03
<VARIANCE> 39
 2.583929e+01 5.274664e+01 6.746624e+01 6.400830e+01 6.075838e+01 6.736438e+01 6.768623e+01 6.545894e+01 6.419688e+01 4.766616e+01 5.382185e+01 5.276672e+01 6.058429e+01 1.312853e+00 2.196069e+00 2.444860e+00 3.104382e+00 3.017073e+00 3.157587e+00 3.423628e+00 3.842585e+00 3.370418e+00 2.936223e+00 3.210857e+00 2.510368e+00 1.805882e+00 2.150546e-01 3.355993e-01 3.909435e-01 5.150030e-01 5.432523e-01 5.589502e-01 6.058496e-01 6.951681e-01 5.970123e-01 5.421713e-01 5.987595e-01 4.528872e-01 2.570485e-01
<GCONST> 1.268675e+02
<TRANSP> 5
 0.000000e+00 1.000000e+00 0.000000e+00 0.000000e+00 0.000000e+00
 0.000000e+00 5.976152e-01 4.023848e-01 0.000000e+00 0.000000e+00
 0.000000e+00 0.000000e+00 5.976141e-01 4.023858e-01 0.000000e+00
 0.000000e+00 0.000000e+00 0.000000e+00 7.038927e-01 2.961073e-01
 0.000000e+00 0.000000e+00 0.000000e+00 0.000000e+00 0.000000e+00
<ENDHMM>
~h "m"
<BEGINHMM>
<NUMSTATES> 5
<STATE> 2
<MEAN> 39
 1.005635e+00 -8.682405e-01 1.972678e+00 -1.039035e+00 -5.848754e+00 6.353035e-01 -7.411787e+00 -5.379453e-01 -5.303658e+00 -5.102809e-01 -7.804666e-01 -6.340664e+00 6.055843e+01 1.126407e-02 -1.331428e-02 6.994099e-03 -1.771006e-02 -1.188590e-02 -1.105186e-02 -5.542760e-03 1.182254e-02 -4.042226e-03 1.962965e-02 -6.909730e-04 -1.907847e-02 1.188944e-02 -2.497463e-03 3.421878e-04 -1.945066e-03 1.083125e-03 2.064794e-03 -1.365130e-03 1.486231e-04 2.464870e-03 2.077658e-03 -3.546892e-04 3.787316e-04 1.506358e-04 -1.912747e-03
<VARIANCE> 39
 2.721509e+01 5.317613e+01 6.600199e+01 5.839274e+01 6.878069e+01 6.779259e+01 5.946696e+01 6.053771e+01 5.989568e+01 4.625557e+01 4.622725e+01 4.769752e+01 5.537415e+01 1.362434e+00 2.256174e+00 2.595201e+00 3.102345e+00 3.134671e+00 3.230750e+00 3.237035e+00 3.913677e+00 3.620193e+00 2.906556e+00 2.932921e+00 2.413690e+00 1.832770e+00 2.237408e-01 3.562273e-01 4.263003e-01 5.297109e-01 5.615941e-01 5.588936e-01 5.853617e-01 7.093318e-01 6.462365e-01 5.448591e-01 5.512952e-01 4.480626e-01 2.752682e-01
<GCONST> 1.266791e+02
<STATE> 3
<MEAN> 39
 1.023850e+00 -8.947827e-01 1.989895e+00 -1.078444e+00 -5.878794e+00 6.080192e-01 -7.429247e+00 -5.126632e-01 -5.306695e+00 -4.626861e-01 -7.788092e-01 -6.380497e+00 6.057863e+01 4.167471e-03 -1.158950e-02 3.169521e-03 -1.282972e-02 -8.991658e-03 -1.308093e-02 -5.463511e-03 1.671708e-02 2.303663e-03 1.740548e-02 1.416814e-03 -1.602464e-02 4.344354e-03 -3.294023e-03 8.420943e-04 -9.211261e-04 2.637131e-03 9.986737e-04 -1.112946e-03 9.440361e-04 1.951559e-03 2.267212e-03 -1.338879e-03 1.168279e-03 1.566829e-03 -2.937471e-03
<VARIANCE> 39
 2.703608e+01 5.332250e+01 6.598960e+01 5.854868e+01 6.852579e+01 6.785223e+01 5.950772e+01 6.108392e+01 5.964399e+01 4.653696e+01 4.638876e+01 4.776105e+01 5.529710e+01 1.352167e+00 2.258760e+00 2.590120e+00 3.107472e+00 3.145347e+00 3.223354e+00 3.227796e+00 3.920532e+00 3.611030e+00 2.912952e+00 2.940317e+00 2.409107e+00 1.826025e+00 2.216694e-01 3.563813e-01 4.246101e-01 5.301979e-01 5.636190e-01 5.596443e-01 5.845850e-01 7.102742e-01 6.442322e-01 5.456889e-01 5.523236e-01 4.482901e-01 2.750899e-01
<GCONST> 1.266729e+02
<STATE> 4
<MEAN> 39
 9.336302e-01 -8.167177e-01 1.953784e+00 -1.021672e+00 -5.771003e+00 6.243773e-01 -7.423386e+00 -4.089475e-01 -5.221386e+00 -5.007233e-01 -8.114727e-01 -6.313570e+00 6.038117e+01 -5.937986e-03 -7.151407e-03 1.414854e-03 -2.972953e-03 -8.553943e-03 -1.672029e-02 -1.336571e-03 1.973374e-02 9.877956e-03 1.360813e-02 5.558419e-03 -7.675361e-03 -6.447528e-03 -3.498024e-03 1.106214e-03 -3.214942e-04 3.485136e-03 5.137553e-04 -1.790452e-03 1.754056e-03 1.833922e-03 2.198151e-03 -1.463875e-03 1.179531e-03 2.420653e-03 -2.817903e-03
<VARIANCE> 39
 2.666742e+01 5.309703e+01 6.581777e+01 5.852868e+01 6.754414e+01 6.732492e+01 5.969688e+01 6.125489e+01 5.902317e+01 4.658092e+01 4.657108e+01 4.800458e+01 5.626780e+01 1.309815e+00 2.222804e+00 2.545153e+00 3.069045e+00 3.099707e+00 3.166953e+00 3.190135e+00 3.856625e+00 3.547126e+00 2.888795e+00 2.927390e+00 2.383602e+00 1.786648e+00 2.147294e-01 3.492789e-01 4.154185e-01 5.236340e-01 5.549271e-01 5.517522e-01 5.789154e-01 6.985600e-01 6.317815e-01 5.396107e-01 5.494167e-01 4.443783e-01 2.686303e-01
<GCONST> 1.262404e+02
<TRANSP> 5
 0.000000e+00 1.000000e+00 0.000000e+00 0.000000e+00 0.000000e+00
 0.000000e+00 5.980046e-01 4.019954e-01 0.000000e+00 0.000000e+00
 0.000000e+00 0.000000e+00 5.980039e-01 4.019962e-01 0.000000e+00
 0.000000e+00 0.000000e+00 0.000000e+00 7.058058e-01 2.941941e-01
 0.000000e+00 0.000000e+00 0.000000e+00 0.000000e+00 0.000000e+00
<ENDHMM>
~h "n"
<BEGINHMM>
<NUMSTATES> 5
<STATE> 2
<MEAN> 39
 5.541314e-01 -1.148253e+00 2.697211e+00 1.248015e-01 -6.270280e+00 -8.526433e-01 -7.536212e+00 5.546109e-01 -4.519958e+00 -4.568381e-01 -1.305575e+00 -6.340678e+00 6.020760e+01 -1.871855e-02 3.091885e-02 -1.687507e-02 1.781785e-02 1.421136e-02 6.084429e-03 8.090662e-03 7.670010e-03 1.304604e-02 -1.445580e-02 4.882979e-03 3.006567e-02 -4.167732e-02 -1.423187e-04 7.122030e-04 -3.064179e-03 -1.654811e-03 7.765241e-04 1.262998e-03 2.407237e-04 4.431374e-04 2.622847e-03 -1.248254e-04 1.910764e-03 1.268580e-03 -8.594049e-04
<VARIANCE> 39
 2.452215e+01 5.518258e+01 6.741066e+01 5.308730e+01 6.077079e+01 5.993231e+01 5.978202e+01 6.752551e+01 5.601941e+01 4.886856e+01 4.925613e+01 4.937085e+01 5.777820e+01 1.255723e+00 2.421829e+00 2.612795e+00 3.035386e+00 2.973577e+00 2.997751e+00 3.223236e+00 4.285684e+00 3.282224e+00 2.934321e+00 3.044845e+00 2.464076e+00 1.940936e+00 2.086461e-01 3.812169e-01 4.219706e-01 5.195702e-01 5.365224e-01 5.428197e-01 5.920208e-01 7.816162e-01 5.880060e-01 5.485489e-01 5.588022e-01 4.522658e-01 2.926437e-01
<GCONST> 1.264922e+02
<STATE> 3
<MEAN> 39
 5.085074e-01 -1.072996e+00 2.644028e+00 1.636453e-01 -6.236373e+00 -8.297601e-01 -7.510166e+00 5.756777e-01 -4.480086e+00 -4.894033e-01 -1.288202e+00 -6.262705e+00 6.010187e+01 -1.922914e-02 3.217113e-02 -2.474669e-02 1.426129e-02 1.571403e-02 8.486919e-03 1.035199e-02 8.028249e-03 1.863870e-02 -1.449882e-02 9.665356e-03 3.344984e-02 -4.406311e-02 2.251293e-05 2.123065e-04 -3.069401e-03 -1.395508e-03 5.750665e-04 5.315990e-04 8.780691e-04 -1.441073e-04 1.532721e-03 5.600815e-04 1.547728e-03 9.038901e-04 -8.745246e-04
<VARIANCE> 39
 2.456576e+01 5.509869e+01 6.752794e+01 5.285413e+01 6.041052e+01 5.970809e+01 5.977271e+01 6.716555e+01 5.571492e+01 4.848618e+01 4.881542e+01 4.937772e+01 5.846478e+01 1.249615e+00 2.399330e+00 2.593075e+00 3.003039e+00 2.952947e+00 2.973816e+00 3.220017e+00 4.245385e+00 3.258389e+00 2.913815e+00 3.020132e+00 2.456698e+00 1.921475e+00 2.077206e-01 3.779662e-01 4.179143e-01 5.151863e-01 5.320730e-01 5.388224e-01 5.916107e-01 7.751015e-01 5.832621e-01 5.453019e-01 5.550301e-01 4.509626e-01 2.900169e-01
<GCONST> 1.262822e+02
<STATE> 4
<MEAN> 39
 3.277656e-01 -8.757707e-01 2.335932e+00 1.356288e-01 -5.995589e+00 -7.183048e-01 -7.205774e+00 6.910024e-01 -4.732100e+00 -4.766153e-01 -1.127116e+00 -6.072616e+00 5.981549e+01 -1.823013e-02 3.056863e-02 -3.229310e-02 1.086549e-02 1.458678e-02 9.899434e-03 1.497143e-02 6.216865e-03 1.927030e-02 -1.146597e-02 1.314658e-02 3.262072e-02 -4.443777e-02 3.358575e-06 -2.018852e-04 -2.070259e-03 -9.030642e-04 2.489928e-04 -7.855950e-05 9.060201e-04 -3.059822e-04 -6.963450e-05 9.553854e-04 8.103530e-04 2.322187e-05 -6.021667e-04
<VARIANCE> 39
 2.508523e+01 5.520197e+01 6.758631e+01 5.430046e+01 6.075843e+01 5.966963e+01 5.968595e+01 6.591767e+01 5.739019e+01 4.778814e+01 4.817687e+01 4.919399e+01 6.247287e+01 1.242242e+00 2.321593e+00 2.537461e+00 2.929579e+00 2.928962e+00 2.956129e+00 3.165413e+00 4.109029e+00 3.224015e+00 2.863878e+00 2.963971e+00 2.413260e+00 1.899529e+00 2.070934e-01 3.649423e-01 4.089292e-01 5.021043e-01 5.255561e-01 5.352490e-01 5.823742e-01 7.505150e-01 5.784466e-01 5.358723e-01 5.467155e-01 4.435502e-01 2.849416e-01
<GCONST> 1.259296e+02
<TRANSP> 5
 0.000000e+00 1.000000e+00 0.000000e+00 0.000000e+00 0.000000e+00
 0.000000e+00 5.961207e-01 4.038793e-01 0.000000e+00 0.000000e+00
 0.000000e+00 0.000000e+00 5.961205e-01 4.038794e-01 0.000000e+00
 0.000000e+00 0.000000e+00 0.000000e+00 7.204263e-01 2.795737e-01
 0.000000e+00 0.000000e+00 0.000000e+00 0.000000e+00 0.000000e+00
<ENDHMM>
~h "o"
<BEGINHMM>
<NUMSTATES> 5
<STATE> 2
<MEAN> 39
 9.289519e-01 1.825777e-01 -3.928728e-01 -2.386683e+00 -5.898149e+00 1.354864e+00 -6.523220e+00 -1.191729e-02 -4.121368e+00 3.845989e-01 -1.860513e-01 -5.019501e+00 5.916125e+01 1.167357e-02 -2.101212e-02 4.004465e-02 -5.204051e-02 -2.878203e-02 -1.961234e-02 -1.872693e-02 -6.483244e-03 -1.063470e-02 -4.475492e-03 -1.750942e-04 -9.745544e-03 6.058114e-02 -6.041304e-03 1.465801e-05 5.322237e-03 8.626176e-03 2.166186e-03 -4.288999e-03 -2.728585e-03 1.594384e-03 2.976001e-03 -4.066175e-03 6.647347e-04 -1.529097e-03 -2.758119e-03
<VARIANCE> 39
 2.633517e+01 4.909805e+01 5.491695e+01 8.206720e+01 5.400838e+01 6.534740e+01 5.508894e+01 5.422049e+01 5.397692e+01 4.567680e+01 4.365773e+01 4.590440e+01 6.555963e+01 1.299777e+00 1.934278e+00 2.217076e+00 3.879568e+00 2.978607e+00 2.984243e+00 3.076470e+00 3.385864e+00 3.001225e+00 2.874106e+00 2.744557e+00 2.179789e+00 1.845214e+00 2.126673e-01 3.018323e-01 3.591199e-01 6.138948e-01 5.265009e-01 5.318530e-01 5.509205e-01 6.260201e-01 5.395344e-01 5.306043e-01 5.079401e-01 4.002485e-01 2.587840e-01
<GCONST> 1.243895e+02
<STATE> 3
<MEAN> 39
 9.343841e-01 1.177680e-01 -2.584721e-01 -2.502327e+00 -5.965636e+00 1.281224e+00 -6.594074e+00 -2.283669e-02 -4.146576e+00 3.639532e-01 -1.818997e-01 -5.067242e+00 5.932115e+01 -4.356867e-03 -2.391198e-02 5.041359e-02 -2.689049e-02 -2.189030e-02 -3.611327e-02 -2.474491e-02 2.769630e-03 -3.047133e-03 -1.157639e-02 3.425282e-04 -1.567381e-02 5.296479e-02 -5.882567e-03 -5.151045e-04 3.250918e-03 9.958761e-03 2.718408e-03 -5.852265e-03 -1.353982e-03 3.493414e-03 2.176342e-03 -3.433005e-03 1.807863e-04 -9.482049e-04 -3.527932e-03
<VARIANCE> 39
 2.642554e+01 4.954573e+01 5.657188e+01 8.228806e+01 5.433964e+01 6.714778e+01 5.599372e+01 5.486673e+01 5.422612e+01 4.600262e+01 4.411265e+01 4.608608e+01 6.510502e+01 1.297681e+00 1.950135e+00 2.272847e+00 3.816079e+00 2.988222e+00 3.016536e+00 3.089997e+00 3.395318e+00 3.013083e+00 2.889753e+00 2.764093e+00 2.192591e+00 1.834824e+00 2.115601e-01 3.034711e-01 3.657994e-01 5.992352e-01 5.273407e-01 5.331840e-01 5.521217e-01 6.255057e-01 5.407191e-01 5.326807e-01 5.099239e-01 4.014470e-01 2.559274e-01
<GCONST> 1.245693e+02
<STATE> 4
<MEAN> 39
 5.608782e-01 3.715458e-01 2.888043e-01 -2.131828e+00 -6.019814e+00 1.005092e+00 -6.415009e+00 6.883500e-01 -5.571717e+00 6.862957e-01 1.109201e-01 -5.334121e+00 5.930968e+01 -1.589918e-02 -2.234634e-02 4.330190e-02 8.014571e-03 -8.573540e-03 -4.231071e-02 -1.897577e-02 1.153817e-02 -1.693554e-04 -1.127458e-02 6.734466e-05 -1.219159e-02 2.852279e-02 -2.952507e-03 -6.622433e-04 1.344001e-03 7.596008e-03 1.558049e-03 -4.373134e-03 9.642704e-05 2.256699e-03 1.251770e-04 -1.824199e-03 -4.948531e-04 2.751508e-04 -2.630818e-03
<VARIANCE> 39
 2.718645e+01 5.206635e+01 6.175328e+01 8.333774e+01 5.702537e+01 7.048361e+01 5.471716e+01 5.581516e+01 5.892939e+01 4.546036e+01 4.262493e+01 4.481593e+01 7.661990e+01 1.306292e+00 1.895760e+00 2.421609e+00 3.392844e+00 3.092261e+00 3.182019e+00 2.970922e+00 3.531039e+00 3.114035e+00 2.878435e+00 2.743904e+00 2.183934e+00 1.852573e+00 2.170483e-01 2.935248e-01 3.874447e-01 5.493875e-01 5.558774e-01 5.664351e-01 5.361878e-01 6.532680e-01 5.732371e-01 5.402030e-01 5.100883e-01 4.018787e-01 2.669385e-01
<GCONST> 1.252557e+02
<TRANSP> 5
 0.000000e+00 1.000000e+00 0.000000e+00 0.000000e+00 0.000000e+00
 0.000000e+00 6.112127e-01 3.887873e-01 0.000000e+00 0.000000e+00
 0.000000e+00 0.000000e+00 6.112115e-01 3.887885e-01 0.000000e+00
 0.000000e+00 0.000000e+00 0.000000e+00 8.084803e-01 1.915198e-01
 0.000000e+00 0.000000e+00 0.000000e+00 0.000000e+00 0.000000e+00
<ENDHMM>
~h "p"
<BEGINHMM>
<NUMSTATES> 5
<STATE> 2
<MEAN> 39
 4.161306e-01 -6.807378e-01 6.072944e-01 -1.363051e+00 -5.177105e+00 -4.494958e-01 -7.285381e+00 2.922645e-01 -4.176825e+00 -3.385848e-02 -7.354549e-01 -5.833912e+00 5.964377e+01 -1.576176e-03 3.163216e-03 7.021715e-02 -1.618120e-02 -3.931896e-02 -2.633307e-02 -1.999467e-02 -7.849781e-03 -3.222634e-02 4.566442e-03 9.359649e-03 -4.960852e-03 3.236738e-02 -3.386718e-03 2.265238e-03 3.857340e-03 3.020821e-03 -4.494770e-04 -1.668232e-03 2.549170e-03 4.247306e-04 -1.338044e-03 -2.478402e-03 8.255761e-04 3.964639e-03 -3.732882e-04
<VARIANCE> 39
 2.555314e+01 5.023325e+01 7.003096e+01 5.976040e+01 5.719705e+01 6.592235e+01 5.617334e+01 5.676402e+01 5.761304e+01 4.476519e+01 4.315035e+01 4.512431e+01 5.834786e+01 1.360725e+00 2.565117e+00 2.890409e+00 3.413336e+00 3.066440e+00 3.404032e+00 3.447750e+00 3.529030e+00 3.186153e+00 2.928810e+00 2.937666e+00 2.580355e+00 2.447439e+00 2.310291e-01 4.111989e-01 4.651872e-01 5.984277e-01 5.519163e-01 6.161417e-01 6.256830e-01 6.553784e-01 5.802365e-01 5.535293e-01 5.484238e-01 4.807561e-01 3.768067e-01
<GCONST> 1.274616e+02
<STATE> 3
<MEAN> 39
 4.045189e-01 -6.643227e-01 7.834217e-01 -1.390050e+00 -5.275916e+00 -5.148678e-01 -7.333798e+00 2.731996e-01 -4.250022e+00 -3.317264e-02 -7.073970e-01 -5.832125e+00 5.971622e+01 -7.331935e-03 6.634876e-03 7.636127e-02 -1.019902e-02 -4.215237e-02 -2.537965e-02 -1.504908e-02 -6.537098e-03 -3.249820e-02 -4.489757e-03 1.285255e-02 3.487111e-03 3.143216e-02 -1.932701e-03 4.153680e-04 2.041483e-03 2.096456e-03 -6.425207e-04 8.202571e-04 1.517646e-03 7.389620e-04 5.868365e-04 -3.931256e-03 1.449282e-03 3.578549e-03 2.242770e-05
<VARIANCE> 39
 2.571199e+01 5.024065e+01 7.161526e+01 5.980968e+01 5.770429e+01 6.596156e+01 5.640369e+01 5.721841e+01 5.849648e+01 4.541634e+01 4.336946e+01 4.512110e+01 5.812303e+01 1.373175e+00 2.553097e+00 2.931410e+00 3.405598e+00 3.087049e+00 3.394705e+00 3.450076e+00 3.542359e+00 3.200572e+00 2.948119e+00 2.954527e+00 2.577454e+00 2.413733e+00 2.331541e-01 4.090598e-01 4.710160e-01 5.986474e-01 5.548695e-01 6.161153e-01 6.259706e-01 6.569895e-01 5.819386e-01 5.574759e-01 5.522299e-01 4.804206e-01 3.729294e-01
<GCONST> 1.276008e+02
<STATE> 4
<MEAN> 39
 3.241437e-01 -5.529494e-01 9.792137e-01 -1.393779e+00 -5.350088e+00 -4.984028e-01 -7.361128e+00 2.804065e-01 -4.244659e+00 -1.244388e-01 -7.038336e-01 -5.716150e+00 5.964343e+01 -9.506098e-03 3.118206e-03 7.370465e-02 -2.319979e-03 -4.285839e-02 -1.866971e-02 -1.280024e-02 -3.132727e-03 -2.404108e-02 -1.829129e-02 1.521587e-02 1.049010e-02 2.832526e-02 -1.083592e-04 -2.357463e-03 -5.830385e-05 1.977507e-03 -1.020424e-04 1.597549e-03 -4.939634e-04 8.200703e-04 2.359935e-03 -4.248146e-03 5.993287e-04 1.877867e-03 1.823987e-04
<VARIANCE> 39
 2.573587e+01 5.035993e+01 7.353319e+01 5.967395e+01 5.784836e+01 6.574068e+01 5.673953e+01 5.710673e+01 5.860531e+01 4.597813e+01 4.370829e+01 4.560585e+01 5.874469e+01 1.354982e+00 2.499733e+00 2.910025e+00 3.354027e+00 3.065716e+00 3.324440e+00 3.412304e+00 3.502547e+00 3.161573e+00 2.931740e+00 2.950469e+00 2.560597e+00 2.343637e+00 2.299252e-01 3.983079e-01 4.655029e-01 5.900050e-01 5.501433e-01 6.042615e-01 6.191638e-01 6.479099e-01 5.736041e-01 5.542740e-01 5.517200e-01 4.762805e-01 3.611178e-01
<GCONST> 1.273305e+02
<TRANSP> 5
 0.000000e+00 1.000000e+00 0.000000e+00 0.000000e+00 0.000000e+00
 0.000000e+00 5.973707e-01 4.026293e-01 0.000000e+00 0.000000e+00
 0.000000e+00 0.000000e+00 5.973704e-01 4.026296e-01 0.000000e+00
 0.000000e+00 0.000000e+00 0.000000e+00 7.050263e-01 2.949737e-01
 0.000000e+00 0.000000e+00 0.000000e+00 0.000000e+00 0.000000e+00
<ENDHMM>
~h "r"
<BEGINHMM>
<NUMSTATES> 5
<STATE> 2
<MEAN> 39
 6.398456e-01 -1.551988e+00 1.316598e+00 -3.425231e-01 -5.683223e+00 -1.359725e+00 -7.612598e+00 5.288920e-01 -3.729727e+00 -1.856787e-01 -6.170692e-01 -6.435621e+00 6.084319e+01 -1.019600e-02 1.587921e-02 1.034443e-02 -3.666052e-03 6.164269e-03 2.341561e-02 1.581635e-02 1.616734e-03 -9.836483e-03 -1.550221e-02 -8.205009e-03 1.440721e-02 -1.824544e-02 -2.247502e-03 2.850997e-03 -1.361431e-03 -4.385982e-04 1.446263e-03 2.163650e-03 1.941633e-03 3.274263e-04 -5.176954e-04 -1.380880e-03 7.805825e-04 1.795521e-03 -3.547691e-03
<VARIANCE> 39
 2.742540e+01 5.535294e+01 6.821397e+01 5.427615e+01 5.988545e+01 6.406153e+01 5.839168e+01 6.471329e+01 6.234020e+01 4.826311e+01 4.805383e+01 4.890204e+01 5.741402e+01 1.458575e+00 2.531312e+00 2.583049e+00 3.171093e+00 3.162691e+00 3.167209e+00 3.244616e+00 3.950792e+00 3.465629e+00 2.931154e+00 3.113894e+00 2.608323e+00 2.099924e+00 2.407151e-01 3.927308e-01 4.087739e-01 5.544701e-01 5.695950e-01 5.686785e-01 5.850769e-01 7.158262e-01 6.167488e-01 5.497015e-01 5.841686e-01 4.853504e-01 3.203395e-01
<GCONST> 1.276283e+02
<STATE> 3
<MEAN> 39
 6.111831e-01 -1.509787e+00 1.338729e+00 -3.540230e-01 -5.670874e+00 -1.297726e+00 -7.574625e+00 5.322635e-01 -3.754984e+00 -2.269305e-01 -6.339727e-01 -6.398421e+00 6.079425e+01 -1.417479e-02 2.252978e-02 6.838656e-03 -3.121040e-03 8.375794e-03 2.687432e-02 1.931244e-02 2.026381e-03 -1.261839e-02 -1.922262e-02 -6.358979e-03 1.711889e-02 -2.646106e-02 -1.397714e-03 2.863623e-03 -1.762184e-03 3.024633e-04 5.634690e-04 6.843194e-04 1.032820e-03 1.431903e-04 -1.099455e-03 -1.681140e-03 9.748596e-04 8.246116e-04 -3.165897e-03
<VARIANCE> 39
 2.761169e+01 5.532494e+01 6.808133e+01 5.447456e+01 5.979034e+01 6.395274e+01 5.845721e+01 6.414737e+01 6.251771e+01 4.821451e+01 4.807968e+01 4.875034e+01 5.738314e+01 1.451222e+00 2.516727e+00 2.568380e+00 3.145848e+00 3.150123e+00 3.162000e+00 3.238944e+00 3.921922e+00 3.454137e+00 2.926006e+00 3.099084e+00 2.590222e+00 2.075471e+00 2.394047e-01 3.902445e-01 4.061837e-01 5.485614e-01 5.671730e-01 5.667609e-01 5.842574e-01 7.103242e-01 6.149135e-01 5.487188e-01 5.811642e-01 4.812517e-01 3.164694e-01
<GCONST> 1.274800e+02
<STATE> 4
<MEAN> 39
 3.890989e-01 -1.010417e+00 1.255966e+00 -4.706696e-01 -5.689014e+00 -7.722092e-01 -7.171727e+00 8.118693e-01 -4.681007e+00 1.309556e-02 -3.608963e-01 -6.285846e+00 6.037169e+01 -1.222274e-02 2.262839e-02 1.460841e-03 -1.817702e-04 6.000639e-03 2.138158e-02 1.666253e-02 1.062513e-03 -1.310400e-02 -1.747488e-02 -3.802749e-03 1.415924e-02 -2.672001e-02 -3.765112e-04 1.781075e-03 -1.457167e-03 9.370346e-04 -2.054358e-04 -3.017492e-04 8.427296e-05 -1.232861e-04 -6.108172e-04 -6.974663e-04 3.983054e-04 5.739976e-04 -2.163761e-03
<VARIANCE> 39
 2.788364e+01 5.618689e+01 6.672919e+01 6.002294e+01 6.035411e+01 6.625695e+01 5.740335e+01 6.217230e+01 6.525246e+01 4.759983e+01 4.624858e+01 4.791614e+01 6.694157e+01 1.436718e+00 2.366109e+00 2.566523e+00 3.061416e+00 3.191142e+00 3.236226e+00 3.157250e+00 3.874040e+00 3.426507e+00 2.922463e+00 3.002432e+00 2.498214e+00 2.050326e+00 2.394789e-01 3.662973e-01 4.092568e-01 5.321698e-01 5.791928e-01 5.842716e-01 5.735416e-01 7.070618e-01 6.192676e-01 5.530893e-01 5.640041e-01 4.640172e-01 3.129914e-01
<GCONST> 1.273948e+02
<TRANSP> 5
 0.000000e+00 1.000000e+00 0.000000e+00 0.000000e+00 0.000000e+00
 0.000000e+00 5.950384e-01 4.049617e-01 0.000000e+00 0.000000e+00
 0.000000e+00 0.000000e+00 5.950359e-01 4.049641e-01 0.000000e+00
 0.000000e+00 0.000000e+00 0.000000e+00 7.550862e-01 2.449137e-01
 0.000000e+00 0.000000e+00 0.000000e+00 0.000000e+00 0.000000e+00
<ENDHMM>
~h "s"
<BEGINHMM>
<NUMSTATES> 5
<STATE> 2
<MEAN> 39
 -1.908385e+00 2.829787e-01 2.075480e+00 -1.024199e+00 -4.396262e+00 -2.880435e+00 -6.734312e+00 1.598661e-01 -3.750613e+00 -1.124099e+00 -5.152898e-01 -5.317096e+00 6.087564e+01 1.991575e-02 -2.228976e-02 1.154615e-02 5.665232e-03 -2.317991e-02 -3.901149e-03 -1.028139e-02 7.996509e-03 -4.229544e-03 5.076216e-04 -1.584230e-03 -2.495977e-03 2.368129e-03 7.845073e-03 -4.546967e-03 -5.662203e-04 1.822446e-03 -5.872893e-03 5.684275e-03 -2.936718e-04 1.048972e-03 -1.009829e-03 1.692413e-03 -5.468104e-04 -1.203085e-03 -2.108705e-03
<VARIANCE> 39
 4.599623e+01 5.589584e+01 7.168435e+01 4.855812e+01 6.967764e+01 6.898036e+01 6.366908e+01 5.900286e+01 5.938295e+01 4.464156e+01 4.477156e+01 4.439153e+01 5.556918e+01 2.555244e+00 2.782574e+00 2.728653e+00 2.760373e+00 3.573666e+00 3.221226e+00 3.667107e+00 3.638443e+00 3.199844e+00 2.815218e+00 2.892470e+00 2.514962e+00 1.833870e+00 3.862964e-01 4.262329e-01 4.301801e-01 4.826289e-01 6.041215e-01 5.648710e-01 6.538405e-01 6.670610e-01 5.707832e-01 5.270163e-01 5.399234e-01 4.630122e-01 2.741420e-01
<GCONST> 1.285295e+02
<STATE> 3
<MEAN> 39
 -1.835151e+00 2.119875e-01 2.104260e+00 -1.007807e+00 -4.467437e+00 -2.875640e+00 -6.759470e+00 1.898836e-01 -3.765680e+00 -1.119009e+00 -5.220017e-01 -5.325820e+00 6.087739e+01 3.799320e-02 -3.008386e-02 8.337194e-03 1.073558e-02 -3.463795e-02 1.035202e-02 -1.033146e-02 1.097434e-02 -6.549281e-03 5.283166e-03 -3.566907e-03 -3.690207e-03 -4.793948e-03 7.018854e-03 -2.834872e-03 -1.704121e-03 2.153395e-03 -4.167384e-03 5.681170e-03 2.377934e-05 9.496671e-04 -8.404349e-04 2.325138e-03 -9.703300e-04 -3.900364e-04 -2.980995e-03
<VARIANCE> 39
 4.528865e+01 5.565466e+01 7.177017e+01 4.839465e+01 6.941323e+01 6.885793e+01 6.341587e+01 5.935466e+01 5.956516e+01 4.456121e+01 4.497289e+01 4.416301e+01 5.561675e+01 2.516147e+00 2.767222e+00 2.721932e+00 2.744419e+00 3.541952e+00 3.219542e+00 3.637815e+00 3.637075e+00 3.191477e+00 2.789963e+00 2.883658e+00 2.498809e+00 1.836230e+00 3.809035e-01 4.247632e-01 4.290282e-01 4.788627e-01 5.989650e-01 5.654004e-01 6.497604e-01 6.641816e-01 5.699580e-01 5.225604e-01 5.378970e-01 4.599715e-01 2.744210e-01
<GCONST> 1.283730e+02
<STATE> 4
<MEAN> 39
 -1.511307e+00 8.087808e-02 1.735016e+00 -1.012390e+00 -4.536848e+00 -2.426695e+00 -6.443057e+00 5.291512e-01 -4.575134e+00 -7.451779e-01 -3.334437e-01 -5.393289e+00 6.053949e+01 4.488318e-02 -2.766845e-02 1.298331e-03 1.431049e-02 -3.526102e-02 2.237150e-02 -8.573535e-03 1.115647e-02 -8.788469e-03 1.033163e-02 -3.530242e-03 -4.167864e-03 -1.323038e-02 3.758235e-03 -5.384588e-04 -1.995451e-03 1.604355e-03 -1.639349e-03 4.365411e-03 -2.402067e-04 4.918585e-04 -6.796067e-04 1.979484e-03 -3.042823e-04 -2.485474e-04 -2.896414e-03
<VARIANCE> 39
 4.177330e+01 5.586388e+01 7.025984e+01 5.348979e+01 6.755268e+01 6.969445e+01 6.114538e+01 5.857710e+01 6.379352e+01 4.428221e+01 4.441272e+01 4.363328e+01 6.554701e+01 2.249680e+00 2.607980e+00 2.630208e+00 2.778737e+00 3.410974e+00 3.210233e+00 3.429006e+00 3.629136e+00 3.180791e+00 2.747754e+00 2.849399e+00 2.403114e+00 1.893992e+00 3.448410e-01 4.016483e-01 4.176173e-01 4.758733e-01 5.812343e-01 5.649173e-01 6.171543e-01 6.640018e-01 5.742857e-01 5.162718e-01 5.341245e-01 4.436324e-01 2.816481e-01
<GCONST> 1.278854e+02
<TRANSP> 5
 0.000000e+00 1.000000e+00 0.000000e+00 0.000000e+00 0.000000e+00
 0.000000e+00 5.992202e-01 4.007799e-01 0.000000e+00 0.000000e+00
 0.000000e+00 0.000000e+00 5.992148e-01 4.007851e-01 0.000000e+00
 0.000000e+00 0.000000e+00 0.000000e+00 7.482221e-01 2.517779e-01
 0.000000e+00 0.000000e+00 0.000000e+00 0.000000e+00 0.000000e+00
<ENDHMM>
~h "t"
<BEGINHMM>
<NUMSTATES> 5
<STATE> 2
<MEAN> 39
 6.349815e-02 -3.182192e-01 1.236047e+00 -1.148256e+00 -5.351572e+00 -8.376500e-01 -7.387156e+00 2.907660e-01 -4.014775e+00 -9.758255e-02 -5.683367e-01 -5.537467e+00 5.955984e+01 3.587582e-03 -1.786694e-02 -3.142860e-03 1.099420e-03 7.588228e-04 5.368885e-03 -2.704709e-03 1.207788e-02 6.571283e-03 1.905838e-03 -5.093539e-03 5.300042e-03 6.807440e-03 9.537094e-04 2.042183e-05 -1.458486e-03 1.235061e-03 1.213902e-04 2.120396e-03 1.177359e-04 -2.049326e-04 5.703517e-04 -7.110868e-04 9.134092e-06 -1.078016e-03 -8.555494e-04
<VARIANCE> 39
 2.464364e+01 5.008123e+01 6.481940e+01 5.931172e+01 5.413069e+01 6.460158e+01 5.758894e+01 6.011000e+01 5.865270e+01 4.553363e+01 4.545306e+01 4.575163e+01 6.028878e+01 1.360514e+00 2.372036e+00 2.594022e+00 3.233892e+00 3.010535e+00 3.304662e+00 3.482936e+00 3.600972e+00 3.267194e+00 2.845449e+00 2.894615e+00 2.571432e+00 2.409460e+00 2.323428e-01 3.759237e-01 4.115047e-01 5.473670e-01 5.493693e-01 6.038679e-01 6.421079e-01 6.654393e-01 5.963093e-01 5.402971e-01 5.399939e-01 4.791940e-01 3.684628e-01
<GCONST> 1.268644e+02
<STATE> 3
<MEAN> 39
 7.297950e-02 -3.537456e-01 1.219509e+00 -1.132156e+00 -5.347544e+00 -8.154559e-01 -7.387950e+00 3.214407e-01 -3.995586e+00 -1.031941e-01 -5.894837e-01 -5.522145e+00 5.956093e+01 3.403844e-03 -1.621035e-02 -6.896422e-03 5.837984e-03 2.731994e-03 9.094504e-03 -5.461192e-04 1.006587e-02 9.279602e-03 -2.203424e-03 -5.657303e-03 5.823181e-03 2.320428e-03 -1.766618e-04 8.356851e-04 -1.097368e-03 1.858842e-03 2.684462e-04 1.685381e-03 1.780498e-04 -1.102304e-03 1.354934e-03 -1.632839e-03 2.213637e-07 2.883170e-04 -2.070989e-03
<VARIANCE> 39
 2.447295e+01 5.056530e+01 6.466743e+01 5.938003e+01 5.391737e+01 6.424220e+01 5.732252e+01 6.010513e+01 5.875688e+01 4.545436e+01 4.528482e+01 4.559048e+01 6.081783e+01 1.349203e+00 2.360814e+00 2.577835e+00 3.217143e+00 2.990317e+00 3.281863e+00 3.462168e+00 3.582563e+00 3.267148e+00 2.833955e+00 2.890995e+00 2.551471e+00 2.388656e+00 2.301479e-01 3.744706e-01 4.091304e-01 5.433924e-01 5.462373e-01 5.996010e-01 6.377760e-01 6.613219e-01 5.964857e-01 5.372223e-01 5.392420e-01 4.746403e-01 3.659107e-01
<GCONST> 1.267066e+02
<STATE> 4
<MEAN> 39
 -2.554082e-02 -2.004648e-01 1.093149e+00 -9.841760e-01 -5.208643e+00 -5.444967e-01 -7.030042e+00 7.271022e-01 -4.495138e+00 -5.106854e-02 -6.135497e-01 -5.405026e+00 5.934846e+01 -1.656404e-04 -9.759317e-03 -8.735721e-03 1.223257e-02 5.229844e-03 9.073747e-03 2.516819e-03 6.628543e-03 1.365296e-02 -5.467280e-03 -7.111446e-03 8.394356e-03 -5.802375e-03 -6.132507e-04 1.317649e-03 8.167716e-05 1.877001e-03 -3.923234e-05 6.278172e-04 -1.724916e-04 -6.988581e-04 1.553834e-03 -9.371751e-04 -3.924628e-04 6.402946e-04 -2.074050e-03
<VARIANCE> 39
 2.473468e+01 5.241873e+01 6.364067e+01 6.293765e+01 5.445374e+01 6.455341e+01 5.553223e+01 5.989858e+01 6.108943e+01 4.432191e+01 4.400872e+01 4.413546e+01 6.821202e+01 1.332909e+00 2.263538e+00 2.531462e+00 3.132855e+00 2.977983e+00 3.212363e+00 3.290941e+00 3.536253e+00 3.235475e+00 2.777664e+00 2.819258e+00 2.442459e+00 2.277304e+00 2.277348e-01 3.556430e-01 4.026906e-01 5.292890e-01 5.420295e-01 5.843276e-01 6.064363e-01 6.532230e-01 5.931852e-01 5.262457e-01 5.284170e-01 4.535545e-01 3.449926e-01
<GCONST> 1.261565e+02
<TRANSP> 5
 0.000000e+00 1.000000e+00 0.000000e+00 0.000000e+00 0.000000e+00
 0.000000e+00 5.984462e-01 4.015538e-01 0.000000e+00 0.000000e+00
 0.000000e+00 0.000000e+00 5.984472e-01 4.015527e-01 0.000000e+00
 0.000000e+00 0.000000e+00 0.000000e+00 7.436759e-01 2.563241e-01
 0.000000e+00 0.000000e+00 0.000000e+00 0.000000e+00 0.000000e+00
<ENDHMM>
~h "u"
<BEGINHMM>
<NUMSTATES> 5
<STATE> 2
<MEAN> 39
 8.058306e-01 4.759089e-01 1.435560e+00 -1.490610e+00 -5.578990e+00 8.092308e-02 -8.659971e+00 -8.711943e-01 -4.975167e+00 -1.356962e-01 -3.124157e-02 -5.286836e+00 5.971631e+01 -1.040658e-02 -1.574722e-02 -8.375217e-03 2.325105e-02 3.152368e-03 -1.030418e-02 1.172047e-02 1.710404e-02 1.467999e-02 1.662293e-03 -8.104960e-03 -5.684784e-03 -1.292645e-03 -1.283434e-03 3.150401e-04 1.230758e-03 3.142721e-03 -6.231404e-05 -1.085695e-03 3.685104e-03 1.869852e-03 5.553224e-04 -1.870489e-03 -2.234572e-03 -2.818022e-04 -1.976747e-03
<VARIANCE> 39
 2.710170e+01 4.887844e+01 6.384034e+01 6.438304e+01 6.275130e+01 6.341019e+01 6.679075e+01 6.195990e+01 5.686637e+01 4.729533e+01 4.961441e+01 4.563369e+01 5.547624e+01 1.439337e+00 2.247521e+00 2.496106e+00 3.413693e+00 3.257614e+00 3.224432e+00 3.706052e+00 3.703035e+00 3.347810e+00 3.057703e+00 3.166664e+00 2.537337e+00 1.943991e+00 2.385402e-01 3.571793e-01 4.088617e-01 5.800744e-01 5.884571e-01 5.808481e-01 6.726024e-01 6.780013e-01 6.134614e-01 5.749838e-01 5.947789e-01 4.702151e-01 2.922057e-01
<GCONST> 1.274973e+02
<STATE> 3
<MEAN> 39
 7.741640e-01 4.334489e-01 1.415083e+00 -1.417163e+00 -5.576780e+00 5.565059e-02 -8.612192e+00 -8.222811e-01 -4.931266e+00 -1.404497e-01 -5.836666e-02 -5.297108e+00 5.970272e+01 -1.304234e-02 -1.534351e-02 -5.480021e-03 2.874998e-02 2.215683e-03 -1.137687e-02 1.978528e-02 2.062955e-02 1.611150e-02 -2.807857e-03 -1.245747e-02 -6.591011e-03 -5.181056e-03 -9.865712e-04 3.142912e-04 1.463831e-03 1.949621e-03 -5.204059e-04 -3.965852e-04 3.066406e-03 1.754793e-03 3.815510e-04 -1.500114e-03 -1.812130e-03 -4.382520e-04 -1.576354e-03
<VARIANCE> 39
 2.715761e+01 4.896865e+01 6.340607e+01 6.373042e+01 6.255188e+01 6.357663e+01 6.658907e+01 6.225291e+01 5.651667e+01 4.717632e+01 4.944968e+01 4.588908e+01 5.583781e+01 1.430673e+00 2.253694e+00 2.485690e+00 3.359121e+00 3.241421e+00 3.209699e+00 3.684078e+00 3.705959e+00 3.329918e+00 3.037494e+00 3.154500e+00 2.537459e+00 1.933350e+00 2.370282e-01 3.576384e-01 4.071232e-01 5.710567e-01 5.858825e-01 5.779949e-01 6.696551e-01 6.775284e-01 6.096321e-01 5.722881e-01 5.917643e-01 4.705546e-01 2.909239e-01
<GCONST> 1.273666e+02
<STATE> 4
<MEAN> 39
 5.087889e-01 4.338108e-01 1.182827e+00 -1.244617e+00 -5.395986e+00 2.007937e-02 -7.919302e+00 -4.204691e-01 -5.401632e+00 2.295926e-02 -2.638432e-02 -5.265139e+00 5.940877e+01 -1.404830e-02 -1.275701e-02 -3.405831e-03 2.810323e-02 6.285099e-04 -8.030563e-03 2.609006e-02 2.128247e-02 1.587657e-02 -7.054848e-03 -1.386699e-02 -5.314946e-03 -8.909008e-03 -5.252228e-04 2.049025e-04 7.442895e-04 6.341441e-04 -2.795143e-04 -8.082984e-05 2.251000e-03 1.315026e-03 2.224497e-05 -7.326632e-04 -9.517554e-04 9.228910e-06 -1.134193e-03
<VARIANCE> 39
 2.757322e+01 4.991550e+01 6.220710e+01 6.509182e+01 6.192907e+01 6.450134e+01 6.745454e+01 6.193707e+01 5.911633e+01 4.657779e+01 4.842198e+01 4.623339e+01 6.254931e+01 1.400730e+00 2.201552e+00 2.432103e+00 3.214706e+00 3.191699e+00 3.175529e+00 3.516743e+00 3.662623e+00 3.284604e+00 2.971116e+00 3.068570e+00 2.466000e+00 1.920608e+00 2.338454e-01 3.476902e-01 3.993620e-01 5.448791e-01 5.756649e-01 5.722327e-01 6.425628e-01 6.709865e-01 6.025792e-01 5.611612e-01 5.767593e-01 4.577546e-01 2.883201e-01
<GCONST> 1.269741e+02
<TRANSP> 5
 0.000000e+00 1.000000e+00 0.000000e+00 0.000000e+00 0.000000e+00
 0.000000e+00 6.020709e-01 3.979291e-01 0.000000e+00 0.000000e+00
 0.000000e+00 0.000000e+00 6.020735e-01 3.979265e-01 0.000000e+00
 0.000000e+00 0.000000e+00 0.000000e+00 7.440363e-01 2.559637e-01
 0.000000e+00 0.000000e+00 0.000000e+00 0.000000e+00 0.000000e+00
<ENDHMM>
~h "v"
<BEGINHMM>
<NUMSTATES> 5
<STATE> 2
<MEAN> 39
 7.903662e-04 -6.079456e-01 1.670089e+00 -6.705837e-01 -5.929818e+00 -8.820225e-01 -6.906881e+00 5.931143e-01 -4.574426e+00 -3.940755e-01 -3.854154e-01 -5.847453e+00 5.993814e+01 5.024984e-04 -6.478592e-05 9.522401e-04 -6.048587e-04 -1.305029e-03 -9.148303e-04 -9.999124e-04 -6.995694e-04 3.150678e-04 8.832195e-04 -1.229102e-04 -1.829845e-05 4.304752e-04 -1.024714e-04 5.090495e-05 -4.314321e-05 5.499199e-04 2.475645e-04 2.544455e-04 -3.161734e-04 -1.009587e-04 -7.179174e-05 -5.594532e-04 -1.336834e-04 -6.698545e-06 -3.952787e-04
<VARIANCE> 39
 2.681136e+01 5.325134e+01 6.824250e+01 5.887592e+01 6.062508e+01 6.608533e+01 5.928268e+01 6.068991e+01 5.916120e+01 4.597362e+01 4.705821e+01 4.804106e+01 6.619385e+01 1.372020e+00 2.288023e+00 2.566274e+00 2.987463e+00 3.078158e+00 3.116328e+00 3.250192e+00 3.738113e+00 3.266875e+00 2.829993e+00 2.967949e+00 2.476121e+00 2.021681e+00 2.264445e-01 3.584008e-01 4.122588e-01 5.086471e-01 5.519696e-01 5.562619e-01 5.942494e-01 6.847889e-01 5.904057e-01 5.307208e-01 5.528100e-01 4.553457e-01 3.018115e-01
<GCONST> 1.265182e+02
<STATE> 3
<MEAN> 39
 7.903662e-04 -6.079456e-01 1.670089e+00 -6.705837e-01 -5.929818e+00 -8.820225e-01 -6.906881e+00 5.931143e-01 -4.574426e+00 -3.940755e-01 -3.854154e-01 -5.847453e+00 5.993814e+01 5.024984e-04 -6.478592e-05 9.522401e-04 -6.048587e-04 -1.305029e-03 -9.148303e-04 -9.999124e-04 -6.995694e-04 3.150678e-04 8.832195e-04 -1.229102e-04 -1.829845e-05 4.304752e-04 -1.024714e-04 5.090495e-05 -4.314321e-05 5.499199e-04 2.475645e-04 2.544455e-04 -3.161734e-04 -1.009587e-04 -7.179174e-05 -5.594532e-04 -1.336834e-04 -6.698545e-06 -3.952787e-04
<VARIANCE> 39
 2.681136e+01 5.325134e+01 6.824250e+01 5.887592e+01 6.062508e+01 6.608533e+01 5.928268e+01 6.068991e+01 5.916120e+01 4.597362e+01 4.705821e+01 4.804106e+01 6.619385e+01 1.372020e+00 2.288023e+00 2.566274e+00 2.987463e+00 3.078158e+00 3.116328e+00 3.250192e+00 3.738113e+00 3.266875e+00 2.829993e+00 2.967949e+00 2.476121e+00 2.021681e+00 2.264445e-01 3.584008e-01 4.122588e-01 5.086471e-01 5.519696e-01 5.562619e-01 5.942494e-01 6.847889e-01 5.904057e-01 5.307208e-01 5.528100e-01 4.553457e-01 3.018115e-01
<GCONST> 1.265182e+02
<STATE> 4
<MEAN> 39
 7.903662e-04 -6.079456e-01 1.670089e+00 -6.705837e-01 -5.929818e+00 -8.820225e-01 -6.906881e+00 5.931143e-01 -4.574426e+00 -3.940755e-01 -3.854154e-01 -5.847453e+00 5.993814e+01 5.024984e-04 -6.478592e-05 9.522401e-04 -6.048587e-04 -1.305029e-03 -9.148303e-04 -9.999124e-04 -6.995694e-04 3.150678e-04 8.832195e-04 -1.229102e-04 -1.829845e-05 4.304752e-04 -1.024714e-04 5.090495e-05 -4.314321e-05 5.499199e-04 2.475645e-04 2.544455e-04 -3.161734e-04 -1.009587e-04 -7.179174e-05 -5.594532e-04 -1.336834e-04 -6.698545e-06 -3.952787e-04
<VARIANCE> 39
 2.681136e+01 5.325134e+01 6.824250e+01 5.887592e+01 6.062508e+01 6.608533e+01 5.928268e+01 6.068991e+01 5.916120e+01 4.597362e+01 4.705821e+01 4.804106e+01 6.619385e+01 1.372020e+00 2.288023e+00 2.566274e+00 2.987463e+00 3.078158e+00 3.116328e+00 3.250192e+00 3.738113e+00 3.266875e+00 2.829993e+00 2.967949e+00 2.476121e+00 2.021681e+00 2.264445e-01 3.584008e-01 4.122588e-01 5.086471e-01 5.519696e-01 5.562619e-01 5.942494e-01 6.847889e-01 5.904057e-01 5.307208e-01 5.528100e-01 4.553457e-01 3.018115e-01
<GCONST> 1.265182e+02
<TRANSP> 5
 0.000000e+00 1.000000e+00 0.000000e+00 0.000000e+00 0.000000e+00
 0.000000e+00 6.000000e-01 4.000000e-01 0.000000e+00 0.000000e+00
 0.000000e+00 0.000000e+00 6.000000e-01 4.000000e-01 0.000000e+00
 0.000000e+00 0.000000e+00 0.000000e+00 7.000000e-01 3.000000e-01
 0.000000e+00 0.000000e+00 0.000000e+00 0.000000e+00 0.000000e+00
<ENDHMM>
~h "w"
<BEGINHMM>
<NUMSTATES> 5
<STATE> 2
<MEAN> 39
 5.463723e-01 5.300714e-01 -1.273253e+00 -1.684348e+00 -4.801565e+00 2.488012e+00 -7.073690e+00 -1.290001e-01 -2.609150e+00 -4.255448e-01 3.112255e-01 -4.658159e+00 5.786724e+01 4.493358e-02 -3.981306e-02 -2.042013e-02 -1.054758e-01 -1.832778e-02 5.135176e-02 -5.544026e-02 -2.451601e-03 -1.014505e-02 1.687968e-02 1.989800e-02 -1.976075e-03 5.485461e-02 4.563875e-03 -1.650621e-03 1.728783e-03 1.907226e-03 -5.458346e-03 -7.121855e-04 -6.161380e-03 2.555846e-03 7.350181e-04 1.458508e-03 -8.641079e-03 -3.116751e-03 1.458559e-03
<VARIANCE> 39
 2.776879e+01 4.776389e+01 5.304090e+01 8.443227e+01 5.730317e+01 5.723402e+01 5.759217e+01 5.470878e+01 4.371853e+01 4.572875e+01 4.519208e+01 4.658008e+01 6.730742e+01 1.113161e+00 2.100155e+00 1.985920e+00 3.050918e+00 2.484308e+00 2.736748e+00 2.931397e+00 3.040730e+00 2.868378e+00 2.630358e+00 2.683367e+00 2.508391e+00 1.735897e+00 1.754454e-01 3.233123e-01 3.158377e-01 4.582016e-01 4.421426e-01 4.684220e-01 5.213937e-01 5.513427e-01 5.061015e-01 4.569969e-01 4.843282e-01 4.621713e-01 2.436150e-01
<GCONST> 1.221246e+02
<STATE> 3
<MEAN> 39
 6.890321e-01 3.750491e-01 -1.305551e+00 -2.022189e+00 -4.862448e+00 2.601238e+00 -7.259303e+00 -1.378425e-01 -2.627759e+00 -3.294005e-01 3.244843e-01 -4.709039e+00 5.809549e+01 5.790430e-02 -4.817982e-02 -2.173909e-02 -1.001025e-01 -3.040144e-02 4.898427e-02 -6.344767e-02 9.140124e-03 -8.385953e-03 2.904997e-02 -3.208121e-03 -1.746084e-02 6.120366e-02 2.558764e-03 -1.144266e-03 -4.949929e-04 4.508523e-03 -4.007841e-03 -2.335927e-03 8.266058e-04 2.971676e-03 -6.092730e-04 3.745502e-03 -6.888205e-03 -5.579375e-03 1.999871e-04
<VARIANCE> 39
 2.771786e+01 4.949794e+01 5.198928e+01 8.728669e+01 5.689350e+01 5.676707e+01 5.749585e+01 5.550587e+01 4.422016e+01 4.651445e+01 4.640209e+01 4.701864e+01 6.730788e+01 1.068892e+00 2.120923e+00 1.950744e+00 3.239050e+00 2.443215e+00 2.723134e+00 3.025481e+00 3.061860e+00 2.886790e+00 2.655547e+00 2.719411e+00 2.528473e+00 1.772134e+00 1.685940e-01 3.243676e-01 3.100211e-01 4.796747e-01 4.363614e-01 4.691700e-01 5.376291e-01 5.523969e-01 5.085016e-01 4.590882e-01 4.907740e-01 4.608006e-01 2.401979e-01
<GCONST> 1.223364e+02
<STATE> 4
<MEAN> 39
 7.894737e-01 1.837263e-01 -1.516896e+00 -2.500785e+00 -4.674172e+00 2.914653e+00 -7.314949e+00 -3.072476e-02 -2.627474e+00 7.892758e-03 2.357346e-01 -4.768049e+00 5.828855e+01 7.646126e-02 -6.894129e-02 -3.293755e-02 -1.033975e-01 -2.804743e-02 4.752469e-02 -6.510790e-02 1.312797e-02 -1.160483e-02 5.168069e-02 -2.340736e-02 -4.094543e-02 7.773446e-02 1.867522e-04 1.315407e-03 -2.076271e-03 7.143589e-03 -2.576968e-04 -3.542161e-03 6.252487e-03 -3.836722e-04 -2.348713e-03 1.479086e-03 -3.486561e-03 -4.305983e-03 -2.655019e-03
<VARIANCE> 39
 2.900637e+01 5.314670e+01 4.898052e+01 9.065385e+01 5.627340e+01 5.583582e+01 5.881549e+01 5.582029e+01 4.438315e+01 4.813340e+01 4.870223e+01 4.731546e+01 6.794142e+01 1.034576e+00 2.146808e+00 1.869838e+00 3.369955e+00 2.410191e+00 2.657634e+00 3.076261e+00 3.027522e+00 2.881746e+00 2.662080e+00 2.734172e+00 2.525135e+00 1.778973e+00 1.591573e-01 3.247969e-01 2.958729e-01 4.901357e-01 4.305294e-01 4.623133e-01 5.432233e-01 5.433124e-01 5.037256e-01 4.589864e-01 4.896670e-01 4.515610e-01 2.312091e-01
<GCONST> 1.223006e+02
<TRANSP> 5
 0.000000e+00 1.000000e+00 0.000000e+00 0.000000e+00 0.000000e+00
 0.000000e+00 6.165707e-01 3.834293e-01 0.000000e+00 0.000000e+00
 0.000000e+00 0.000000e+00 6.165704e-01 3.834296e-01 0.000000e+00
 0.000000e+00 0.000000e+00 0.000000e+00 7.301978e-01 2.698022e-01
 0.000000e+00 0.000000e+00 0.000000e+00 0.000000e+00 0.000000e+00
<ENDHMM>
~h "y"
<BEGINHMM>
<NUMSTATES> 5
<STATE> 2
<MEAN> 39
 -4.941488e-01 -1.241461e+00 3.673064e+00 -7.694513e-01 -7.341693e+00 -2.497388e+00 -6.795366e+00 2.231369e+00 -4.661666e+00 -9.792967e-01 -1.078008e-01 -5.380237e+00 6.059711e+01 4.850120e-03 1.346423e-02 -1.301935e-02 1.402249e-03 8.751331e-03 -2.534633e-02 -2.897401e-02 2.392296e-03 2.717488e-02 -3.951438e-03 -9.489463e-03 -1.849695e-02 1.182376e-02 3.199519e-03 -2.011352e-03 -8.297176e-03 1.652819e-03 1.674231e-03 3.722107e-03 2.197240e-03 -1.390485e-03 1.669243e-03 4.003155e-03 3.695203e-04 2.423389e-03 -2.995069e-03
<VARIANCE> 39
 2.055651e+01 5.626171e+01 8.661188e+01 5.611519e+01 6.013123e+01 6.521474e+01 6.147580e+01 6.366281e+01 5.590830e+01 4.947396e+01 4.717085e+01 4.639672e+01 7.598305e+01 9.973428e-01 2.035897e+00 2.951133e+00 2.459366e+00 2.963410e+00 3.041075e+00 2.897464e+00 3.630461e+00 3.005095e+00 2.694603e+00 2.752625e+00 2.404838e+00 1.722816e+00 1.628965e-01 2.996848e-01 4.204029e-01 4.062265e-01 5.179741e-01 5.148875e-01 5.215116e-01 6.380202e-01 5.325851e-01 4.935200e-01 4.968531e-01 4.335603e-01 2.252968e-01
<GCONST> 1.239092e+02
<STATE> 3
<MEAN> 39
 -4.642599e-01 -1.208098e+00 3.593931e+00 -7.622524e-01 -7.313688e+00 -2.547025e+00 -6.869855e+00 2.238640e+00 -4.572797e+00 -9.798591e-01 -1.355440e-01 -5.416947e+00 6.062053e+01 1.180241e-02 9.768083e-03 -3.437304e-02 8.661581e-03 9.540602e-03 -1.390640e-02 -2.010535e-02 -2.420436e-03 3.041875e-02 4.344934e-03 -1.036500e-02 -1.372580e-02 1.959690e-03 3.549807e-03 -1.805641e-03 -6.172815e-03 2.510183e-03 -1.399457e-03 5.178671e-03 2.667864e-03 -2.574543e-03 -3.991176e-04 3.565180e-03 4.698591e-04 1.226070e-03 -3.304006e-03
<VARIANCE> 39
 2.099973e+01 5.704807e+01 8.577676e+01 5.580661e+01 6.085418e+01 6.466152e+01 6.167499e+01 6.338949e+01 5.587628e+01 4.931642e+01 4.837563e+01 4.644724e+01 7.555318e+01 1.015564e+00 2.048311e+00 2.899149e+00 2.446993e+00 2.992613e+00 3.018205e+00 2.907762e+00 3.627388e+00 2.983975e+00 2.700117e+00 2.787387e+00 2.408088e+00 1.722430e+00 1.649414e-01 3.029379e-01 4.181093e-01 4.040463e-01 5.228958e-01 5.089029e-01 5.237799e-01 6.408799e-01 5.302824e-01 4.930892e-01 5.036106e-01 4.335889e-01 2.265634e-01
<GCONST> 1.239965e+02
<STATE> 4
<MEAN> 39
 -6.125860e-01 -1.024983e+00 2.725134e+00 -7.451060e-01 -6.387568e+00 -2.107817e+00 -6.095021e+00 2.205398e+00 -5.148605e+00 -4.676580e-01 -4.681346e-01 -4.990000e+00 6.009032e+01 1.388382e-02 6.889399e-03 -4.456033e-02 1.880313e-02 1.010855e-02 5.486377e-03 -4.456920e-03 -1.077522e-02 2.476982e-02 4.614721e-03 -1.033932e-02 -8.097644e-03 -1.010616e-02 1.769623e-03 -7.842279e-04 -2.795837e-03 2.372592e-03 -4.059071e-04 4.517096e-03 2.356661e-03 -2.990600e-03 -1.779049e-03 1.039441e-03 5.277640e-04 1.296556e-04 -2.413284e-03
<VARIANCE> 39
 2.183428e+01 5.655449e+01 7.952867e+01 5.771952e+01 6.100891e+01 6.510597e+01 6.190537e+01 6.159491e+01 5.735685e+01 4.690434e+01 4.804176e+01 4.487529e+01 7.938232e+01 1.061179e+00 1.959739e+00 2.664081e+00 2.352456e+00 2.839683e+00 2.921255e+00 2.769243e+00 3.455019e+00 2.890356e+00 2.570907e+00 2.663519e+00 2.273876e+00 1.675528e+00 1.717843e-01 2.909455e-01 3.926055e-01 3.903616e-01 4.906791e-01 4.988511e-01 5.033466e-01 6.171831e-01 5.174273e-01 4.739791e-01 4.893232e-01 4.134667e-01 2.237982e-01
<GCONST> 1.230243e+02
<TRANSP> 5
 0.000000e+00 1.000000e+00 0.000000e+00 0.000000e+00 0.000000e+00
 0.000000e+00 6.115375e-01 3.884626e-01 0.000000e+00 0.000000e+00
 0.000000e+00 0.000000e+00 6.115370e-01 3.884630e-01 0.000000e+00
 0.000000e+00 0.000000e+00 0.000000e+00 7.788678e-01 2.211322e-01
 0.000000e+00 0.000000e+00 0.000000e+00 0.000000e+00 0.000000e+00
<ENDHMM>
~h "z"
<BEGINHMM>
<NUMSTATES> 5
<STATE> 2
<MEAN> 39
 -1.823570e+00 1.564919e+00 3.636736e+00 8.150122e-01 -4.176215e+00 7.456681e-01 -8.142159e+00 2.291857e+00 -3.780449e+00 -5.936467e-01 -6.446756e-01 -3.245341e+00 5.577890e+01 3.012104e-02 -1.341995e-01 2.282248e-02 -1.297210e-01 2.501204e-02 1.457226e-01 -6.341990e-02 7.031479e-02 6.480898e-03 2.808599e-02 -5.483639e-03 -2.799109e-02 4.848989e-02 1.747225e-03 -2.199082e-03 -7.553258e-03 -2.484716e-03 8.331465e-04 -3.919620e-03 8.201381e-03 2.243574e-02 3.726635e-03 -5.659649e-03 -1.940814e-02 7.584020e-03 -3.661570e-03
<VARIANCE> 39
 1.909692e+01 3.937503e+01 7.366871e+01 6.851714e+01 3.072744e+01 4.964747e+01 6.551269e+01 4.591283e+01 4.317921e+01 4.912647e+01 2.801879e+01 4.520017e+01 5.974266e+01 7.328387e-01 1.625479e+00 1.893990e+00 2.164486e+00 1.460876e+00 2.087884e+00 2.900614e+00 2.855022e+00 2.522929e+00 2.558828e+00 2.732806e+00 2.089854e+00 7.426444e-01 1.188262e-01 2.308692e-01 3.151223e-01 2.775868e-01 2.847496e-01 3.500698e-01 4.859511e-01 5.004091e-01 4.604915e-01 4.748817e-01 5.749723e-01 4.035838e-01 9.085055e-02
<GCONST> 1.140527e+02
<STATE> 3
<MEAN> 39
 -1.751037e+00 1.123335e+00 3.710463e+00 5.456003e-01 -4.107797e+00 1.017452e+00 -8.317997e+00 2.574638e+00 -3.765479e+00 -6.238309e-01 -7.280853e-01 -3.213655e+00 5.593550e+01 4.060722e-02 -1.309054e-01 -5.892094e-03 -1.201115e-01 1.819787e-02 1.353444e-01 -3.827278e-02 1.241388e-01 1.386225e-02 7.467812e-03 -6.120095e-02 -1.139449e-02 3.103345e-02 2.060189e-03 2.247623e-03 -1.206423e-02 6.914478e-03 1.662658e-04 -3.744143e-03 9.804090e-03 1.582779e-02 1.556039e-03 -1.175999e-02 -1.892383e-02 6.975398e-03 -6.308734e-03
<VARIANCE> 39
 1.835442e+01 3.889759e+01 7.310317e+01 7.007327e+01 3.135304e+01 4.958191e+01 6.457184e+01 4.839648e+01 4.117176e+01 5.058531e+01 2.860005e+01 4.851266e+01 6.002588e+01 6.971878e-01 1.601276e+00 1.864585e+00 2.101008e+00 1.444523e+00 2.046037e+00 2.940341e+00 2.923719e+00 2.539017e+00 2.570305e+00 2.641982e+00 2.069467e+00 7.333010e-01 1.140605e-01 2.283341e-01 3.129218e-01 2.700318e-01 2.838898e-01 3.454567e-01 4.976988e-01 5.027579e-01 4.594958e-01 4.673819e-01 5.497707e-01 3.979074e-01 8.794186e-02
<GCONST> 1.138165e+02
<STATE> 4
<MEAN> 39
 -2.742467e+00 1.925059e+00 5.789207e-01 3.001479e+00 -3.064217e+00 2.030060e+00 -5.730652e+00 4.506079e+00 -2.564266e+00 -2.524759e+00 -1.852454e+00 -6.285696e-01 5.233443e+01 4.235769e-02 -4.717472e-02 -3.189576e-02 -3.186193e-02 -1.295200e-02 5.684095e-02 -8.640507e-03 4.982138e-02 -5.409232e-03 -7.914498e-03 -7.789607e-02 -3.278993e-02 1.920398e-02 6.715805e-04 4.487479e-03 -6.289187e-03 6.732509e-03 2.914614e-04 -2.091229e-03 4.180945e-03 6.726263e-04 -8.895447e-04 -5.364578e-03 -7.861495e-03 8.608866e-04 -2.858775e-03
<VARIANCE> 39
 1.143235e+01 2.473766e+01 5.944360e+01 5.003979e+01 2.203514e+01 3.618372e+01 4.892874e+01 4.120161e+01 2.867524e+01 3.866258e+01 2.387142e+01 3.926564e+01 4.848898e+01 4.185085e-01 1.061503e+00 1.400355e+00 1.533782e+00 1.292584e+00 1.839512e+00 2.482774e+00 2.690557e+00 1.885179e+00 2.168170e+00 2.140887e+00 1.655490e+00 4.871828e-01 7.055122e-02 1.576041e-01 2.260615e-01 2.347017e-01 2.641375e-01 3.228300e-01 4.541460e-01 5.013987e-01 3.473127e-01 4.099276e-01 4.302896e-01 3.354405e-01 5.521955e-02
<GCONST> 1.038592e+02
<TRANSP> 5
 0.000000e+00 1.000000e+00 0.000000e+00 0.000000e+00 0.000000e+00
 0.000000e+00 6.888765e-01 3.111235e-01 0.000000e+00 0.000000e+00
 0.000000e+00 0.000000e+00 6.888766e-01 3.111233e-01 0.000000e+00
 0.000000e+00 0.000000e+00 0.000000e+00 8.825406e-01 1.174595e-01
 0.000000e+00 0.000000e+00 0.000000e+00 0.000000e+00 0.000000e+00
<ENDHMM>
~h "aw"
<BEGINHMM>
<NUMSTATES> 5
<STATE> 2
<MEAN> 39
 1.359988e+00 -1.164310e+00 2.420371e+00 -4.443258e+00 -7.509180e+00 1.267192e+00 -9.377843e+00 -2.619882e+00 -3.474133e+00 1.830574e+00 9.479522e-01 -6.918821e+00 6.236031e+01 2.790131e-02 -2.664075e-02 9.016454e-02 -4.086216e-02 -1.159072e-02 5.699269e-02 -5.577273e-02 1.454276e-02 -5.508358e-02 2.492066e-03 8.298566e-02 -6.274847e-02 9.292646e-02 -8.470735e-03 9.404678e-03 2.330301e-03 2.991529e-02 8.604418e-03 -3.365862e-03 1.199263e-02 1.383515e-02 -1.317130e-02 -1.061040e-02 -5.007152e-03 9.883619e-03 -1.940635e-02
<VARIANCE> 39
 2.997853e+01 5.047677e+01 6.314878e+01 7.843477e+01 6.853669e+01 6.288040e+01 5.964821e+01 8.436459e+01 6.074334e+01 5.016024e+01 4.555925e+01 4.818217e+01 5.200134e+01 1.642852e+00 2.366398e+00 2.344974e+00 4.139239e+00 3.745725e+00 3.441136e+00 3.803606e+00 4.089854e+00 3.643133e+00 2.868544e+00 3.369280e+00 3.383939e+00 2.613368e+00 2.551340e-01 3.563181e-01 3.499927e-01 6.304156e-01 7.102980e-01 6.236211e-01 6.813501e-01 7.285682e-01 6.405808e-01 5.155038e-01 6.624725e-01 6.245531e-01 3.546920e-01
<GCONST> 1.302881e+02
<STATE> 3
<MEAN> 39
 1.387586e+00 -1.160856e+00 2.624948e+00 -4.401589e+00 -7.480615e+00 1.389444e+00 -9.496036e+00 -2.527719e+00 -3.655209e+00 1.771354e+00 1.140687e+00 -7.032490e+00 6.247670e+01 6.534450e-03 3.756784e-03 9.063719e-02 3.596445e-02 8.780207e-03 4.058067e-02 -2.837953e-02 3.980580e-02 -8.756095e-02 -2.630363e-02 6.801821e-02 -3.762091e-02 3.632120e-02 -8.930739e-03 1.189163e-02 1.446908e-03 3.243582e-02 6.875102e-03 -8.339521e-03 1.092790e-02 7.187493e-03 -1.083476e-02 -1.113649e-02 -7.301198e-03 8.372347e-03 -2.278863e-02
<VARIANCE> 39
 2.943732e+01 5.130930e+01 6.211062e+01 7.496603e+01 6.672211e+01 6.439870e+01 6.094010e+01 8.355616e+01 6.213469e+01 5.075087e+01 4.515744e+01 4.869118e+01 5.222550e+01 1.653360e+00 2.342607e+00 2.429288e+00 3.990463e+00 3.662757e+00 3.451525e+00 3.990175e+00 4.105258e+00 3.667989e+00 2.879874e+00 3.456108e+00 3.384206e+00 2.507094e+00 2.549007e-01 3.593691e-01 3.664341e-01 6.160174e-01 6.868051e-01 6.186660e-01 7.156551e-01 7.348064e-01 6.378965e-01 5.243580e-01 6.842054e-01 6.260374e-01 3.488791e-01
<GCONST> 1.303729e+02
<STATE> 4
<MEAN> 39
 1.277236e+00 -9.400226e-01 2.957839e+00 -4.186855e+00 -7.426853e+00 1.536267e+00 -9.518806e+00 -2.278152e+00 -3.963872e+00 1.504032e+00 1.331328e+00 -7.071255e+00 6.236692e+01 -9.902306e-03 3.296369e-02 8.054711e-02 1.120601e-01 2.391092e-02 8.839998e-03 -6.444535e-03 5.551858e-02 -1.047307e-01 -5.370251e-02 4.566487e-02 -1.675425e-02 -2.554771e-02 -5.401350e-03 6.946410e-03 2.862884e-04 2.363127e-02 1.923958e-03 -1.129218e-02 7.811510e-03 1.817323e-03 -3.208357e-03 -6.975696e-03 -8.712963e-03 3.965067e-03 -1.643530e-02
<VARIANCE> 39
 2.939269e+01 5.224302e+01 6.378886e+01 7.193241e+01 6.508576e+01 6.782220e+01 6.193779e+01 8.257608e+01 6.258895e+01 5.095829e+01 4.503082e+01 4.893495e+01 5.399959e+01 1.671551e+00 2.288758e+00 2.515233e+00 3.782144e+00 3.548126e+00 3.486874e+00 4.097942e+00 4.093647e+00 3.587023e+00 2.905737e+00 3.492748e+00 3.357624e+00 2.348543e+00 2.545451e-01 3.570703e-01 3.800316e-01 5.942106e-01 6.550316e-01 6.136908e-01 7.365173e-01 7.320091e-01 6.155333e-01 5.340061e-01 6.953177e-01 6.235974e-01 3.376194e-01
<GCONST> 1.302722e+02
<TRANSP> 5
 0.000000e+00 1.000000e+00 0.000000e+00 0.000000e+00 0.000000e+00
 0.000000e+00 6.072236e-01 3.927764e-01 0.000000e+00 0.000000e+00
 0.000000e+00 0.000000e+00 6.072239e-01 3.927761e-01 0.000000e+00
 0.000000e+00 0.000000e+00 0.000000e+00 7.121553e-01 2.878447e-01
 0.000000e+00 0.000000e+00 0.000000e+00 0.000000e+00 0.000000e+00
<ENDHMM>
~h "ay"
<BEGINHMM>
<NUMSTATES> 5
<STATE> 2
<MEAN> 39
 -3.147502e-02 -2.276459e+00 3.161150e+00 -5.636065e-01 -7.820468e+00 -2.861022e+00 -8.272109e+00 1.843062e+00 -3.493887e+00 -1.572095e+00 2.734236e-01 -6.784909e+00 6.192012e+01 -1.834995e-02 3.707907e-02 -2.957704e-02 2.415724e-02 1.435344e-02 2.291182e-02 -4.612088e-03 2.875522e-02 -6.386705e-05 5.226686e-03 -4.257413e-02 1.172868e-03 -6.706750e-02 -3.935647e-03 9.373062e-04 -2.525904e-03 -1.554930e-03 2.828224e-03 1.620364e-03 4.220420e-03 4.397518e-03 4.905764e-03 -2.179003e-03 -2.094484e-03 5.717914e-03 6.360867e-04
<VARIANCE> 39
 2.802493e+01 5.625822e+01 7.737508e+01 5.006726e+01 6.778889e+01 6.545934e+01 6.620127e+01 7.277196e+01 6.967673e+01 5.009074e+01 5.273577e+01 4.853437e+01 6.011096e+01 1.387995e+00 2.454462e+00 2.586851e+00 2.436291e+00 3.432269e+00 3.014233e+00 3.046304e+00 4.361688e+00 3.362997e+00 2.670215e+00 3.156230e+00 2.548412e+00 1.807781e+00 2.227407e-01 3.669355e-01 3.868557e-01 4.093688e-01 5.834531e-01 5.142022e-01 5.524966e-01 7.615922e-01 5.826381e-01 4.732828e-01 5.782046e-01 4.663793e-01 2.554202e-01
<GCONST> 1.267631e+02
<STATE> 3
<MEAN> 39
 -9.576934e-02 -2.189128e+00 3.060110e+00 -5.073067e-01 -7.753160e+00 -2.782451e+00 -8.237877e+00 1.953876e+00 -3.499634e+00 -1.557888e+00 1.610909e-01 -6.763901e+00 6.173846e+01 -2.804299e-02 4.025505e-02 -3.357058e-02 2.086197e-02 1.928398e-02 2.507152e-02 9.660094e-03 4.217746e-02 1.218362e-02 -2.723280e-03 -4.543915e-02 1.633778e-02 -6.522925e-02 -3.635794e-03 7.301147e-04 -2.089729e-03 -1.237073e-03 3.300281e-03 2.355099e-03 6.336669e-03 3.747904e-03 3.416864e-03 -3.035478e-03 -3.346995e-04 7.137881e-03 3.832014e-04
<VARIANCE> 39
 2.773967e+01 5.561370e+01 7.828030e+01 5.007387e+01 6.819167e+01 6.546252e+01 6.761253e+01 7.137023e+01 7.018220e+01 5.037384e+01 5.317151e+01 4.851583e+01 6.082024e+01 1.375169e+00 2.440914e+00 2.573973e+00 2.428735e+00 3.413899e+00 2.993907e+00 3.025733e+00 4.306231e+00 3.317814e+00 2.666605e+00 3.120864e+00 2.537950e+00 1.768290e+00 2.212331e-01 3.653847e-01 3.889605e-01 4.093970e-01 5.824797e-01 5.130597e-01 5.483566e-01 7.558668e-01 5.755762e-01 4.743713e-01 5.700063e-01 4.614629e-01 2.491892e-01
<GCONST> 1.266023e+02
<STATE> 4
<MEAN> 39
 -3.231125e-01 -1.956103e+00 2.740673e+00 -3.272663e-01 -7.444300e+00 -2.444586e+00 -7.913811e+00 2.162215e+00 -3.324101e+00 -1.781441e+00 -6.041306e-02 -6.502121e+00 6.123720e+01 -3.500278e-02 4.406163e-02 -3.701499e-02 1.618820e-02 2.380294e-02 3.036427e-02 3.455919e-02 5.562722e-02 1.518533e-02 -1.420985e-02 -3.856600e-02 3.564690e-02 -6.648734e-02 -1.200999e-03 1.141172e-03 -2.524121e-03 -4.236773e-04 2.219395e-03 3.374225e-03 6.522637e-03 -5.518794e-04 -1.508243e-03 -4.108017e-03 1.724427e-03 5.812096e-03 -1.092810e-03
<VARIANCE> 39
 2.712102e+01 5.442392e+01 7.746954e+01 5.057461e+01 6.839548e+01 6.527811e+01 6.760733e+01 6.858797e+01 6.875737e+01 4.945455e+01 5.313779e+01 4.818771e+01 6.387157e+01 1.327886e+00 2.366109e+00 2.485204e+00 2.345291e+00 3.291403e+00 2.878587e+00 2.895400e+00 4.104874e+00 3.179597e+00 2.610908e+00 3.022059e+00 2.506191e+00 1.686909e+00 2.143466e-01 3.543521e-01 3.789397e-01 3.948746e-01 5.611572e-01 4.951885e-01 5.256189e-01 7.269445e-01 5.531271e-01 4.649763e-01 5.483881e-01 4.539726e-01 2.345957e-01
<GCONST> 1.256074e+02
<TRANSP> 5
 0.000000e+00 1.000000e+00 0.000000e+00 0.000000e+00 0.000000e+00
 0.000000e+00 6.201975e-01 3.798025e-01 0.000000e+00 0.000000e+00
 0.000000e+00 0.000000e+00 6.201980e-01 3.798020e-01 0.000000e+00
 0.000000e+00 0.000000e+00 0.000000e+00 7.331054e-01 2.668945e-01
 0.000000e+00 0.000000e+00 0.000000e+00 0.000000e+00 0.000000e+00
<ENDHMM>
~h "kh"
<BEGINHMM>
<NUMSTATES> 5
<STATE> 2
<MEAN> 39
 1.006546e-01 -1.448991e-01 3.618916e-01 -4.064806e-01 -4.959495e+00 -2.120861e+00 -5.540507e+00 -6.265680e-01 -1.973297e+00 -9.075654e-01 -2.464134e+00 -4.245901e+00 5.942184e+01 2.440119e-02 -2.082295e-02 1.130235e-01 3.987347e-02 -5.514681e-02 -2.532690e-02 -1.553761e-01 4.477794e-02 4.347873e-02 3.849873e-02 1.007635e-02 6.059635e-02 -1.327725e-02 -6.092788e-03 -9.868160e-03 2.730886e-03 6.702776e-03 1.062944e-02 5.895097e-03 -1.077060e-02 -1.208573e-03 9.018779e-03 -3.225420e-03 -1.450401e-02 4.387079e-03 -3.566768e-03
<VARIANCE> 39
