~o
<STREAMINFO> 1 39
<VECSIZE> 39<NULLD><MFCC_D_A_0><DIAGC>
~h "@"
<BEGINHMM>
<NUMSTATES> 5
<STATE> 2
<MEAN> 39
 1.886514e-01 -1.061278e+00 1.827425e+00 -4.874698e-01 -5.722574e+00 -1.594724e+00 -7.664753e+00 3.620828e-01 -3.645150e+00 -2.949693e-01 -8.170747e-01 -6.247752e+00 6.062413e+01 9.992753e-03 -8.847419e-03 1.773097e-02 -9.230306e-03 -7.919552e-03 -4.899626e-03 -1.446753e-03 -3.957106e-04 -1.087652e-02 6.997784e-03 -5.205774e-03 -1.288458e-02 1.459488e-02 -2.252539e-04 1.005553e-03 -4.458645e-04 -1.506511e-03 1.452472e-03 5.556215e-04 6.932736e-05 2.406938e-04 6.813269e-05 -7.781904e-04 4.742482e-05 -7.728524e-05 -1.145439e-03
<VARIANCE> 39
 2.899579e+01 5.465461e+01 6.392502e+01 5.430646e+01 6.307057e+01 6.855067e+01 6.264305e+01 6.459858e+01 5.880486e+01 4.607886e+01 4.666999e+01 5.072171e+01 5.672436e+01 1.512072e+00 2.533188e+00 2.554278e+00 3.123770e+00 3.138312e+00 3.255169e+00 3.445237e+00 4.052845e+00 3.450935e+00 2.960912e+00 3.073884e+00 2.633352e+00 2.178866e+00 2.470383e-01 3.991135e-01 4.162043e-01 5.422793e-01 5.686470e-01 5.780784e-01 6.252453e-01 7.363840e-01 6.216089e-01 5.586253e-01 5.738634e-01 4.837659e-01 3.329493e-01
<GCONST> 1.280293e+02
<STATE> 3
<MEAN> 39
 2.093307e-01 -1.077031e+00 1.867026e+00 -5.105994e-01 -5.733434e+00 -1.606484e+00 -7.663999e+00 3.597127e-01 -3.672205e+00 -2.800502e-01 -8.259526e-01 -6.279204e+00 6.065432e+01 8.549188e-03 -5.331446e-03 1.555349e-02 -1.186390e-02 -4.009999e-03 -3.810526e-03 -1.677946e-04 -1.598890e-04 -1.092599e-02 4.143996e-03 -4.202000e-03 -1.252430e-02 1.132235e-02 -8.874335e-04 1.476639e-03 -1.087231e-03 -1.034598e-03 1.968036e-03 3.249489e-04 8.490505e-04 1.366047e-04 9.213483e-05 -1.433328e-03 1.963502e-04 5.676645e-04 -1.258403e-03
<VARIANCE> 39
 2.894942e+01 5.468566e+01 6.452716e+01 5.439001e+01 6.293870e+01 6.854649e+01 6.273268e+01 6.461843e+01 5.886272e+01 4.614353e+01 4.687215e+01 5.040154e+01 5.623840e+01 1.511810e+00 2.539454e+00 2.564632e+00 3.142503e+00 3.145925e+00 3.253812e+00 3.444107e+00 4.050953e+00 3.432518e+00 2.954706e+00 3.079296e+00 2.630101e+00 2.182099e+00 2.471429e-01 3.996758e-01 4.179237e-01 5.445803e-01 5.700358e-01 5.770758e-01 6.243471e-01 7.362996e-01 6.180373e-01 5.569010e-01 5.737644e-01 4.833123e-01 3.329706e-01
<GCONST> 1.280380e+02
<STATE> 4
<MEAN> 39
 1.391693e-01 -1.003010e+00 1.852010e+00 -5.438391e-01 -5.593174e+00 -1.557846e+00 -7.457059e+00 4.901119e-01 -4.001681e+00 -2.565585e-01 -8.209735e-01 -6.197131e+00 6.055356e+01 4.782157e-03 5.682858e-04 1.023901e-02 -1.036332e-02 -1.113129e-03 1.225745e-03 4.977363e-03 -1.187347e-03 -9.686508e-03 -3.265984e-04 -1.339825e-03 -8.933607e-03 4.673010e-03 -1.002564e-03 1.588562e-03 -1.428826e-03 -7.700891e-05 1.002745e-03 1.355503e-03 1.563852e-03 1.072898e-04 2.101067e-04 -1.347807e-03 5.878794e-04 1.100921e-03 -1.661884e-03
<VARIANCE> 39
 2.873913e+01 5.501014e+01 6.575118e+01 5.601737e+01 6.281162e+01 6.873515e+01 6.218680e+01 6.421093e+01 6.109333e+01 4.576324e+01 4.667485e+01 4.932730e+01 5.884746e+01 1.492919e+00 2.497129e+00 2.561229e+00 3.131910e+00 3.131738e+00 3.229924e+00 3.370834e+00 3.963143e+00 3.379034e+00 2.892210e+00 3.041914e+00 2.574083e+00 2.167405e+00 2.442506e-01 3.905420e-01 4.156720e-01 5.404512e-01 5.651296e-01 5.727820e-01 6.118146e-01 7.223374e-01 6.088952e-01 5.439756e-01 5.671625e-01 4.735911e-01 3.279762e-01
<GCONST> 1.277633e+02
<TRANSP> 5
 0.000000e+00 1.000000e+00 0.000000e+00 0.000000e+00 0.000000e+00
 0.000000e+00 5.946800e-01 4.053201e-01 0.000000e+00 0.000000e+00
 0.000000e+00 0.000000e+00 5.946760e-01 4.053241e-01 0.000000e+00
 0.000000e+00 0.000000e+00 0.000000e+00 7.158777e-01 2.841223e-01
 0.000000e+00 0.000000e+00 0.000000e+00 0.000000e+00 0.000000e+00
<ENDHMM>
~h "a"
<BEGINHMM>
<NUMSTATES> 5
<STATE> 2
<MEAN> 39
 4.841822e-01 -1.443024e+00 1.152168e+00 -1.186474e+00 -5.261214e+00 -8.559796e-01 -7.126563e+00 1.009918e+00 -4.054244e+00 -3.344252e-01 -1.110183e+00 -6.183518e+00 6.065641e+01 2.844957e-03 8.199421e-03 6.667406e-03 9.968530e-04 -1.248779e-02 3.695010e-03 -4.789210e-03 -9.302700e-03 -4.941620e-03 -5.352941e-03 8.524803e-03 3.030281e-03 -4.627805e-03 -1.004639e-03 2.992854e-03 6.644638e-04 3.214187e-03 -1.347646e-03 1.414197e-03 -9.480062e-04 -1.188219e-03 -2.615802e-04 -9.843541e-04 5.764983e-04 1.872536e-03 -4.224217e-03
<VARIANCE> 39
 2.575083e+01 5.572129e+01 6.658012e+01 5.948424e+01 6.126743e+01 6.568874e+01 5.992879e+01 6.210834e+01 5.749379e+01 4.796907e+01 4.800158e+01 4.951326e+01 6.211930e+01 1.347513e+00 2.521917e+00 2.562104e+00 3.124168e+00 3.066160e+00 3.128706e+00 3.304766e+00 3.829022e+00 3.282911e+00 2.872482e+00 2.940934e+00 2.521382e+00 2.105662e+00 2.230342e-01 3.935415e-01 4.151299e-01 5.282163e-01 5.527270e-01 5.598190e-01 6.062146e-01 7.037513e-01 5.914287e-01 5.389360e-01 5.506712e-01 4.648570e-01 3.156895e-01
<GCONST> 1.270372e+02
<STATE> 3
<MEAN> 39
 4.868729e-01 -1.411704e+00 1.166137e+00 -1.169450e+00 -5.296162e+00 -8.440911e-01 -7.138639e+00 9.828188e-01 -4.067028e+00 -3.509817e-01 -1.088062e+00 -6.169713e+00 6.062822e+01 1.545581e-04 1.460034e-02 7.393255e-03 8.226576e-03 -1.422870e-02 5.976148e-03 -6.051132e-03 -1.198271e-02 -5.229683e-03 -6.815332e-03 9.313823e-03 7.430300e-03 -1.369718e-02 -1.040551e-03 2.282459e-03 1.782349e-04 2.484079e-03 -4.255600e-04 8.263252e-04 -6.166946e-04 -9.072690e-04 2.228838e-04 -2.245803e-04 3.935817e-05 1.610431e-03 -3.210822e-03
<VARIANCE> 39
 2.575342e+01 5.550236e+01 6.671707e+01 5.930423e+01 6.105627e+01 6.551886e+01 5.986240e+01 6.203013e+01 5.749083e+01 4.785122e+01 4.797926e+01 4.951040e+01 6.182430e+01 1.342863e+00 2.500515e+00 2.560991e+00 3.106658e+00 3.055128e+00 3.117670e+00 3.301505e+00 3.820458e+00 3.280195e+00 2.869250e+00 2.943746e+00 2.516591e+00 2.079636e+00 2.222123e-01 3.904571e-01 4.151784e-01 5.260140e-01 5.503384e-01 5.582301e-01 6.051595e-01 7.018044e-01 5.913548e-01 5.378488e-01 5.514548e-01 4.642703e-01 3.129692e-01
<GCONST> 1.269345e+02
<STATE> 4
<MEAN> 39
 2.850729e-01 -1.022014e+00 9.983220e-01 -1.027713e+00 -5.212317e+00 -6.106812e-01 -6.757875e+00 1.166522e+00 -4.704956e+00 -1.785168e-01 -8.596712e-01 -5.995136e+00 6.017123e+01 -3.081952e-03 1.730966e-02 5.400226e-03 1.292861e-02 -1.090177e-02 5.680081e-03 -4.587685e-03 -1.129763e-02 -3.564939e-03 -5.259555e-03 7.532936e-03 1.058454e-02 -1.907618e-02 -8.800935e-04 1.274146e-03 -1.453820e-04 1.156401e-03 6.870002e-04 2.236384e-04 -1.937069e-04 -1.371671e-04 5.538722e-04 4.126168e-04 -2.046144e-04 1.232381e-03 -1.860121e-03
<VARIANCE> 39
 2.610687e+01 5.592297e+01 6.564558e+01 6.229556e+01 6.054314e+01 6.577482e+01 5.851250e+01 6.029187e+01 6.041145e+01 4.663467e+01 4.680797e+01 4.820732e+01 6.942356e+01 1.326768e+00 2.364131e+00 2.506768e+00 3.029838e+00 3.033226e+00 3.100173e+00 3.180171e+00 3.754402e+00 3.254080e+00 2.828368e+00 2.884510e+00 2.429574e+00 2.030143e+00 2.211017e-01 3.682894e-01 4.068054e-01 5.141149e-01 5.454289e-01 5.569370e-01 5.840970e-01 6.917740e-01 5.911176e-01 5.316321e-01 5.425135e-01 4.494265e-01 3.047405e-01
<GCONST> 1.264817e+02
<TRANSP> 5
 0.000000e+00 1.000000e+00 0.000000e+00 0.000000e+00 0.000000e+00
 0.000000e+00 6.004623e-01 3.995377e-01 0.000000e+00 0.000000e+00
 0.000000e+00 0.000000e+00 6.004679e-01 3.995321e-01 0.000000e+00
 0.000000e+00 0.000000e+00 0.000000e+00 7.502661e-01 2.497340e-01
 0.000000e+00 0.000000e+00 0.000000e+00 0.000000e+00 0.000000e+00
<ENDHMM>
~h "b"
<BEGINHMM>
<NUMSTATES> 5
<STATE> 2
<MEAN> 39
 9.649094e-01 -1.157160e-01 2.088728e+00 -7.144290e-01 -5.735793e+00 -9.617590e-01 -8.640747e+00 -3.939270e-01 -4.480397e+00 -4.035658e-02 -4.773663e-01 -6.077720e+00 6.041644e+01 9.492739e-03 -1.461984e-02 2.477125e-02 -1.814084e-02 -9.741965e-03 -2.477228e-02 -1.697934e-02 1.523724e-02 1.535446e-03 7.819217e-03 -1.050600e-02 -3.034293e-02 3.640753e-02 -1.785323e-03 -3.650940e-03 3.582058e-04 1.887346e-03 -6.290817e-04 1.344822e-03 -1.135183e-03 1.936118e-03 1.923342e-03 8.721552e-04 -3.062641e-03 6.715773e-04 -8.145114e-06
<VARIANCE> 39
 2.747588e+01 5.491785e+01 6.763042e+01 6.019255e+01 6.081914e+01 6.413992e+01 6.431595e+01 5.950814e+01 6.004657e+01 4.970507e+01 4.906073e+01 5.043731e+01 5.673478e+01 1.302535e+00 2.659477e+00 2.611934e+00 3.645552e+00 3.134737e+00 3.207570e+00 3.763574e+00 3.934710e+00 3.663537e+00 3.282871e+00 3.215436e+00 2.719358e+00 2.167355e+00 2.068973e-01 4.105434e-01 4.218371e-01 6.246254e-01 5.741826e-01 5.688457e-01 6.930523e-01 7.231197e-01 6.542169e-01 6.234720e-01 6.134698e-01 5.074725e-01 3.237954e-01
<GCONST> 1.288079e+02
<STATE> 3
<MEAN> 39
 9.894255e-01 -1.663368e-01 2.154862e+00 -7.620769e-01 -5.761063e+00 -1.013939e+00 -8.684992e+00 -3.551382e-01 -4.475062e+00 -9.683669e-03 -5.224411e-01 -6.153246e+00 6.051490e+01 4.844683e-03 -2.080417e-02 2.649019e-02 -1.187138e-02 -1.139401e-02 -2.048445e-02 -1.456444e-02 1.896241e-02 3.514015e-03 1.171526e-02 -1.994967e-02 -2.863319e-02 3.442612e-02 -1.535308e-03 -1.753083e-03 7.555752e-04 3.119479e-03 -1.410937e-03 1.407679e-03 1.717875e-03 1.652414e-03 -2.198963e-04 1.079960e-03 -4.123539e-03 1.271207e-03 -1.562339e-03
<VARIANCE> 39
 2.724956e+01 5.522299e+01 6.721346e+01 6.039309e+01 6.063653e+01 6.374575e+01 6.416225e+01 6.050269e+01 6.019903e+01 5.001286e+01 4.936129e+01 5.059743e+01 5.631481e+01 1.297012e+00 2.671455e+00 2.623222e+00 3.657825e+00 3.119469e+00 3.189876e+00 3.758752e+00 3.987284e+00 3.683359e+00 3.311300e+00 3.210196e+00 2.718292e+00 2.174897e+00 2.063645e-01 4.109889e-01 4.240862e-01 6.262783e-01 5.698854e-01 5.648472e-01 6.906939e-01 7.326694e-01 6.570527e-01 6.286464e-01 6.120069e-01 5.082358e-01 3.242673e-01
<GCONST> 1.288576e+02
<STATE> 4
<MEAN> 39
 7.665470e-01 -1.960559e-01 2.039678e+00 -8.127296e-01 -5.656709e+00 -1.078698e+00 -8.186215e+00 3.198791e-02 -5.010043e+00 1.632910e-01 -5.373545e-01 -6.021883e+00 6.036758e+01 9.233938e-04 -1.984956e-02 2.302540e-02 -5.159688e-03 -1.170348e-02 -1.621928e-02 -5.532871e-03 1.895468e-02 1.207470e-03 1.410357e-02 -2.626918e-02 -1.837861e-02 2.463359e-02 -1.091438e-03 1.821498e-04 -5.428887e-04 2.311308e-03 -8.597416e-04 2.606242e-04 2.748402e-03 9.735400e-04 -1.288721e-03 4.240609e-04 -2.154065e-03 2.744033e-03 -2.832597e-03
<VARIANCE> 39
 2.725688e+01 5.533307e+01 6.636085e+01 6.400449e+01 6.058802e+01 6.510879e+01 6.479761e+01 6.089140e+01 6.318434e+01 4.904576e+01 4.853718e+01 4.924683e+01 6.345237e+01 1.267885e+00 2.552441e+00 2.577654e+00 3.576932e+00 3.073162e+00 3.187261e+00 3.598478e+00 3.984233e+00 3.636977e+00 3.220558e+00 3.135214e+00 2.610396e+00 2.155306e+00 2.038733e-01 3.937793e-01 4.175249e-01 6.085682e-01 5.585849e-01 5.654389e-01 6.611624e-01 7.357782e-01 6.537651e-01 6.088279e-01 5.973092e-01 4.902107e-01 3.203304e-01
<GCONST> 1.284969e+02
<TRANSP> 5
 0.000000e+00 1.000000e+00 0.000000e+00 0.000000e+00 0.000000e+00
 0.000000e+00 5.988221e-01 4.011779e-01 0.000000e+00 0.000000e+00
 0.000000e+00 0.000000e+00 5.988204e-01 4.011796e-01 0.000000e+00
 0.000000e+00 0.000000e+00 0.000000e+00 7.386348e-01 2.613652e-01
 0.000000e+00 0.000000e+00 0.000000e+00 0.000000e+00 0.000000e+00
<ENDHMM>
~h "c"
<BEGINHMM>
<NUMSTATES> 5
<STATE> 2
<MEAN> 39
 -3.734260e-01 -8.137866e-01 2.558909e+00 -8.857033e-01 -6.111946e+00 -2.105652e+00 -7.726987e+00 1.516049e-01 -3.500676e+00 -1.165843e+00 -1.075059e-01 -5.160562e+00 6.078319e+01 3.287058e-02 -4.526202e-02 1.552410e-02 -2.729136e-02 -4.071252e-02 1.674726e-02 -9.521065e-03 1.330588e-02 -2.209647e-02 7.679588e-03 1.754552e-02 -2.125141e-02 4.365984e-02 1.711706e-03 -5.067700e-03 -2.597357e-03 -1.004759e-03 4.085853e-04 -5.032840e-03 -3.580790e-03 3.923520e-03 4.155518e-03 -1.493891e-03 -2.803345e-03 -3.080527e-04 3.675091e-03
<VARIANCE> 39
 3.137267e+01 5.187537e+01 5.860271e+01 4.875069e+01 4.999087e+01 7.454512e+01 5.601245e+01 6.522482e+01 5.480340e+01 4.699196e+01 4.373441e+01 4.368658e+01 5.756989e+01 2.577584e+00 2.971425e+00 2.618194e+00 3.371522e+00 3.294242e+00 3.354429e+00 3.723922e+00 3.912513e+00 3.282961e+00 2.976272e+00 3.047091e+00 2.685079e+00 2.626840e+00 4.928489e-01 4.975449e-01 4.392694e-01 6.098039e-01 6.174793e-01 6.133513e-01 7.059255e-01 7.333612e-01 5.984119e-01 5.810623e-01 5.978319e-01 5.045452e-01 4.129883e-01
<GCONST> 1.300689e+02
<STATE> 3
<MEAN> 39
 -2.849825e-01 -9.378314e-01 2.584463e+00 -9.526609e-01 -6.209569e+00 -2.071973e+00 -7.763992e+00 1.867449e-01 -3.524311e+00 -1.162476e+00 -8.072215e-02 -5.209080e+00 6.090229e+01 4.046289e-02 -5.000046e-02 6.212444e-03 -2.441692e-02 -3.489210e-02 9.282401e-03 -1.357583e-02 2.115517e-02 -1.370768e-02 2.226836e-03 6.446774e-03 -2.269353e-02 4.420197e-02 2.832512e-03 -6.755489e-04 -4.332491e-03 2.342674e-03 3.523601e-03 -2.693198e-03 -1.181761e-03 2.312607e-03 2.240603e-03 -1.806500e-03 -4.436901e-03 -5.556197e-04 -1.522652e-03
<VARIANCE> 39
 3.115022e+01 5.254741e+01 5.907721e+01 4.924213e+01 5.029034e+01 7.461787e+01 5.539534e+01 6.551569e+01 5.512843e+01 4.701911e+01 4.410545e+01 4.398090e+01 5.685110e+01 2.561952e+00 3.000756e+00 2.666087e+00 3.424802e+00 3.292498e+00 3.383309e+00 3.713924e+00 3.906026e+00 3.321076e+00 2.988574e+00 3.094499e+00 2.700192e+00 2.642483e+00 4.896591e-01 5.007893e-01 4.415117e-01 6.173237e-01 6.182353e-01 6.158088e-01 7.050900e-01 7.328038e-01 6.056244e-01 5.857659e-01 6.041428e-01 5.075936e-01 4.133324e-01
<GCONST> 1.302441e+02
<STATE> 4
<MEAN> 39
 -2.077587e-01 -1.032181e+00 2.576584e+00 -9.991076e-01 -6.260437e+00 -2.021201e+00 -7.779276e+00 2.852576e-01 -3.423648e+00 -1.261557e+00 -1.050576e-01 -5.213683e+00 6.095148e+01 4.820845e-02 -3.719297e-02 -1.120696e-02 -1.264152e-02 -2.314649e-02 1.407606e-02 -6.896432e-03 1.560932e-02 -9.236353e-03 4.238953e-03 -5.832506e-03 -2.775574e-02 2.778675e-02 1.931622e-03 4.231998e-03 -5.212371e-03 3.700921e-03 4.110895e-03 1.452051e-03 2.158701e-03 -1.689813e-03 -6.856162e-04 9.599494e-04 -3.201750e-03 -1.854037e-03 -5.715048e-03
<VARIANCE> 39
 3.032767e+01 5.300388e+01 5.974454e+01 4.920993e+01 5.080476e+01 7.435963e+01 5.454652e+01 6.556471e+01 5.543796e+01 4.648378e+01 4.451915e+01 4.439831e+01 5.605367e+01 2.489068e+00 2.989646e+00 2.687779e+00 3.434106e+00 3.267466e+00 3.412003e+00 3.659359e+00 3.861853e+00 3.385745e+00 2.982542e+00 3.104637e+00 2.712049e+00 2.622614e+00 4.769562e-01 4.967124e-01 4.399143e-01 6.181408e-01 6.161813e-01 6.178986e-01 6.949477e-01 7.230530e-01 6.159388e-01 5.876946e-01 6.022195e-01 5.073426e-01 4.101766e-01
<GCONST> 1.301419e+02
<TRANSP> 5
 0.000000e+00 1.000000e+00 0.000000e+00 0.000000e+00 0.000000e+00
 0.000000e+00 5.927042e-01 4.072957e-01 0.000000e+00 0.000000e+00
 0.000000e+00 0.000000e+00 5.927039e-01 4.072961e-01 0.000000e+00
 0.000000e+00 0.000000e+00 0.000000e+00 6.960229e-01 3.039771e-01
 0.000000e+00 0.000000e+00 0.000000e+00 0.000000e+00 0.000000e+00
<ENDHMM>
~h "d"
<BEGINHMM>
<NUMSTATES> 5
<STATE> 2
<MEAN> 39
 3.770783e-01 -6.199917e-01 3.930359e+00 1.750926e-01 -7.229573e+00 -2.290673e+00 -8.672633e+00 9.736927e-01 -4.190740e+00 -1.063291e+00 -3.286248e-01 -5.701755e+00 6.046541e+01 5.852546e-03 -1.132208e-03 7.872231e-03 -1.929867e-02 -7.785947e-03 1.450324e-02 9.180579e-03 -9.491349e-03 -1.415689e-02 2.481731e-03 2.405029e-04 -1.522651e-02 1.368602e-02 -1.457010e-03 9.641357e-04 -1.867251e-03 -7.484766e-04 3.408209e-04 2.600285e-03 2.704925e-05 -4.877976e-03 7.035125e-04 1.841515e-03 4.343805e-04 -1.223057e-03 -2.272933e-04
<VARIANCE> 39
 2.396176e+01 5.435959e+01 7.574574e+01 5.494084e+01 6.489774e+01 6.510487e+01 6.419343e+01 6.974584e+01 5.701777e+01 4.805076e+01 5.668563e+01 4.891284e+01 5.930797e+01 1.246804e+00 2.597780e+00 2.898847e+00 3.279275e+00 3.253494e+00 3.180244e+00 3.713922e+00 4.126536e+00 3.344873e+00 2.925537e+00 3.416641e+00 2.559296e+00 2.303400e+00 2.026223e-01 4.269593e-01 4.725529e-01 5.595877e-01 6.009527e-01 5.740627e-01 6.909114e-01 7.509171e-01 6.002808e-01 5.411375e-01 6.307803e-01 4.802292e-01 3.572264e-01
<GCONST> 1.287953e+02
<STATE> 3
<MEAN> 39
 3.877192e-01 -6.118864e-01 3.943938e+00 1.270387e-01 -7.249377e+00 -2.247758e+00 -8.650857e+00 9.275887e-01 -4.228679e+00 -1.048783e+00 -3.162387e-01 -5.741712e+00 6.049339e+01 3.434335e-03 1.011426e-03 2.579019e-03 -2.103139e-02 -6.915146e-03 1.930450e-02 1.061874e-02 -2.100530e-02 -1.269546e-02 7.672721e-03 2.310484e-03 -1.825733e-02 1.314368e-02 -7.015109e-04 2.658290e-04 -2.034127e-03 -8.702688e-04 6.602764e-04 7.623995e-04 2.948672e-04 -4.175471e-03 8.131922e-04 1.869926e-03 5.002770e-04 -1.140590e-03 4.785265e-04
<VARIANCE> 39
 2.402483e+01 5.440096e+01 7.569781e+01 5.522766e+01 6.526665e+01 6.520428e+01 6.388825e+01 6.931341e+01 5.696442e+01 4.853807e+01 5.690545e+01 4.916488e+01 5.870581e+01 1.261493e+00 2.588856e+00 2.918690e+00 3.292143e+00 3.274756e+00 3.182059e+00 3.703749e+00 4.128763e+00 3.352611e+00 2.948375e+00 3.425981e+00 2.580473e+00 2.291716e+00 2.054027e-01 4.245334e-01 4.737379e-01 5.622027e-01 6.037434e-01 5.734945e-01 6.887544e-01 7.522692e-01 6.012890e-01 5.429733e-01 6.314795e-01 4.836137e-01 3.541501e-01
<GCONST> 1.288692e+02
<STATE> 4
<MEAN> 39
 3.524691e-01 -5.461410e-01 3.903832e+00 7.025224e-02 -7.214097e+00 -2.133397e+00 -8.552725e+00 8.239392e-01 -4.229235e+00 -1.060217e+00 -3.141557e-01 -5.721325e+00 6.042708e+01 1.180812e-03 1.213001e-03 -7.075684e-03 -2.169422e-02 -1.913725e-03 1.933622e-02 1.552998e-02 -2.729657e-02 -1.096525e-02 7.911107e-03 5.512795e-03 -1.783347e-02 1.076982e-02 -3.112265e-04 -7.926681e-04 -2.983160e-03 -5.353993e-04 1.884059e-03 -3.284373e-04 1.231751e-03 -1.555474e-03 8.872441e-04 -2.433756e-04 4.593554e-04 -9.306244e-05 1.341364e-04
<VARIANCE> 39
 2.399738e+01 5.420148e+01 7.603161e+01 5.559185e+01 6.580751e+01 6.561836e+01 6.326758e+01 6.866605e+01 5.668105e+01 4.880902e+01 5.741815e+01 4.957762e+01 5.827184e+01 1.260834e+00 2.551732e+00 2.903518e+00 3.286433e+00 3.276250e+00 3.170308e+00 3.660187e+00 4.101436e+00 3.331598e+00 2.941327e+00 3.432964e+00 2.600770e+00 2.252763e+00 2.050241e-01 4.159864e-01 4.689305e-01 5.600472e-01 6.023287e-01 5.681816e-01 6.800729e-01 7.477537e-01 5.965051e-01 5.384377e-01 6.302315e-01 4.860286e-01 3.453971e-01
<GCONST> 1.287168e+02
<TRANSP> 5
 0.000000e+00 1.000000e+00 0.000000e+00 0.000000e+00 0.000000e+00
 0.000000e+00 5.991398e-01 4.008602e-01 0.000000e+00 0.000000e+00
 0.000000e+00 0.000000e+00 5.991414e-01 4.008586e-01 0.000000e+00
 0.000000e+00 0.000000e+00 0.000000e+00 7.053427e-01 2.946574e-01
 0.000000e+00 0.000000e+00 0.000000e+00 0.000000e+00 0.000000e+00
<ENDHMM>
~h "e"
<BEGINHMM>
<NUMSTATES> 5
<STATE> 2
<MEAN> 39
 -4.395161e-01 -6.323017e-01 2.672395e+00 -1.162668e-01 -6.195820e+00 -2.459281e+00 -5.991206e+00 1.022926e+00 -4.538666e+00 -3.197163e-01 -4.289116e-01 -4.788433e+00 5.969153e+01 -3.950357e-03 -1.445659e-02 2.152812e-02 1.227330e-02 -2.716979e-02 -3.353398e-02 -6.989188e-03 7.077754e-03 5.146386e-04 -1.744466e-02 -4.325109e-03 -9.571555e-04 6.370251e-03 -5.188718e-04 1.493311e-03 -3.241876e-03 4.463008e-05 3.260371e-03 5.834384e-03 2.917159e-03 -1.300983e-03 3.636026e-03 -1.146579e-04 -1.333299e-03 3.067391e-03 -1.398559e-03
<VARIANCE> 39
 2.465528e+01 5.034148e+01 7.302602e+01 5.368950e+01 5.666749e+01 7.569083e+01 5.307590e+01 6.202851e+01 5.616878e+01 4.860482e+01 4.921688e+01 3.962232e+01 5.750009e+01 1.414744e+00 2.433440e+00 2.508919e+00 2.727443e+00 2.967763e+00 3.236729e+00 2.961884e+00 3.630257e+00 2.860749e+00 2.858459e+00 2.662767e+00 2.309036e+00 2.074564e+00 2.322526e-01 3.816400e-01 3.941075e-01 4.686528e-01 5.347292e-01 5.423700e-01 5.440139e-01 6.476801e-01 5.098047e-01 5.385613e-01 4.764177e-01 4.207636e-01 3.027765e-01
<GCONST> 1.250344e+02
<STATE> 3
<MEAN> 39
 -4.447619e-01 -6.509802e-01 2.703856e+00 -7.535470e-02 -6.241919e+00 -2.525821e+00 -6.003653e+00 1.041621e+00 -4.519487e+00 -3.669518e-01 -4.520426e-01 -4.776275e+00 5.969085e+01 -4.205405e-03 -7.116580e-03 7.217133e-03 1.253328e-02 -1.207668e-02 -1.109096e-02 1.947803e-03 3.821112e-03 1.008950e-02 -1.703665e-02 -8.963986e-03 7.855667e-03 -4.017615e-03 -3.494732e-05 2.802049e-03 -5.346553e-03 1.664273e-04 5.621925e-03 8.782656e-03 3.568766e-03 -7.014491e-04 2.697190e-03 2.204091e-06 -1.489621e-03 3.825217e-03 -4.616869e-03
<VARIANCE> 39
 2.458027e+01 5.011768e+01 7.191983e+01 5.292447e+01 5.669154e+01 7.525709e+01 5.243195e+01 6.148882e+01 5.611264e+01 4.817507e+01 4.981356e+01 3.972576e+01 5.752974e+01 1.395017e+00 2.413262e+00 2.460779e+00 2.720089e+00 2.971124e+00 3.151285e+00 2.955594e+00 3.626571e+00 2.864625e+00 2.861047e+00 2.652991e+00 2.309868e+00 2.020419e+00 2.292255e-01 3.771007e-01 3.865911e-01 4.699351e-01 5.362965e-01 5.315745e-01 5.437074e-01 6.474011e-01 5.104646e-01 5.382869e-01 4.759347e-01 4.214632e-01 2.951441e-01
<GCONST> 1.247917e+02
<STATE> 4
<MEAN> 39
 -5.220188e-01 -4.965730e-01 2.779094e+00 -7.166916e-02 -6.257531e+00 -2.499783e+00 -5.899906e+00 1.096612e+00 -4.518483e+00 -3.504099e-01 -4.877478e-01 -4.580372e+00 5.947052e+01 -1.448445e-03 6.548260e-03 -2.288804e-02 1.890616e-02 1.490053e-02 2.183597e-02 1.250970e-02 3.994960e-03 2.070198e-02 -1.815113e-02 -1.662308e-02 1.782856e-02 -2.863965e-02 4.850663e-04 2.759902e-03 -6.666777e-03 1.571073e-03 5.654669e-03 8.375735e-03 2.910299e-03 -1.534982e-04 1.102270e-03 -3.063058e-04 -1.919220e-03 2.643000e-03 -6.352711e-03
<VARIANCE> 39
 2.377011e+01 4.916025e+01 7.137553e+01 5.180115e+01 5.591832e+01 7.351377e+01 5.140500e+01 5.907074e+01 5.496456e+01 4.721339e+01 5.004405e+01 3.912044e+01 5.787597e+01 1.324923e+00 2.316055e+00 2.363892e+00 2.639076e+00 2.893978e+00 2.954125e+00 2.873215e+00 3.509858e+00 2.833308e+00 2.831838e+00 2.585764e+00 2.245997e+00 1.898205e+00 2.186533e-01 3.607780e-01 3.717317e-01 4.543565e-01 5.226790e-01 5.041987e-01 5.302846e-01 6.296509e-01 5.060183e-01 5.306916e-01 4.655565e-01 4.103587e-01 2.758065e-01
<GCONST> 1.236796e+02
<TRANSP> 5
 0.000000e+00 1.000000e+00 0.000000e+00 0.000000e+00 0.000000e+00
 0.000000e+00 6.165237e-01 3.834763e-01 0.000000e+00 0.000000e+00
 0.000000e+00 0.000000e+00 6.165248e-01 3.834753e-01 0.000000e+00
 0.000000e+00 0.000000e+00 0.000000e+00 7.320035e-01 2.679965e-01
 0.000000e+00 0.000000e+00 0.000000e+00 0.000000e+00 0.000000e+00
<ENDHMM>
~h "f"
<BEGINHMM>
<NUMSTATES> 5
<STATE> 2
<MEAN> 39
 -8.289795e-01 -1.040258e+00 4.384235e+00 -4.193403e-01 -8.330112e+00 -1.557066e+00 -7.659894e+00 -4.949242e-01 -3.990680e+00 -1.911552e+00 1.412993e+00 -7.026965e+00 6.113956e+01 4.392117e-03 7.667923e-03 3.350076e-02 -6.977363e-03 -2.899650e-02 2.703709e-02 1.978027e-02 3.693585e-02 -4.985177e-02 -3.485894e-02 1.146822e-02 1.486106e-02 -1.087797e-02 -2.103355e-03 1.711054e-03 -2.307944e-03 3.410591e-03 6.719595e-03 -1.688948e-03 3.108732e-03 -1.921524e-03 -1.786952e-04 1.728846e-04 -1.469773e-03 -1.152984e-03 -4.169575e-04
<VARIANCE> 39
 3.100896e+01 4.964909e+01 9.746491e+01 4.828484e+01 6.673995e+01 6.396346e+01 6.517027e+01 6.152131e+01 7.014290e+01 4.348725e+01 4.804247e+01 4.198303e+01 5.873192e+01 1.667209e+00 2.090344e+00 2.819220e+00 2.535114e+00 3.362559e+00 2.893819e+00 3.299442e+00 3.581129e+00 3.532390e+00 2.867462e+00 2.909484e+00 2.311824e+00 1.661674e+00 2.594200e-01 3.161154e-01 4.273852e-01 4.079548e-01 5.791336e-01 4.972652e-01 5.589746e-01 6.425501e-01 6.260241e-01 5.246800e-01 5.159181e-01 4.032820e-01 2.408930e-01
<GCONST> 1.259000e+02
<STATE> 3
<MEAN> 39
 -8.374460e-01 -1.014080e+00 4.454760e+00 -4.233336e-01 -8.381680e+00 -1.511369e+00 -7.583616e+00 -3.910642e-01 -4.100061e+00 -2.006125e+00 1.423645e+00 -6.991237e+00 6.111267e+01 -1.181539e-04 1.304570e-02 2.720458e-02 2.242556e-03 -1.441868e-02 2.482691e-02 2.920649e-02 3.144982e-02 -5.121903e-02 -3.468323e-02 7.431679e-03 1.262668e-02 -1.477535e-02 -1.751461e-03 1.780393e-03 -1.115923e-03 4.244971e-03 4.979128e-03 -2.413103e-03 3.228197e-03 -2.005921e-03 -5.276013e-04 2.021657e-03 -1.224670e-03 -2.149424e-04 -1.462367e-03
<VARIANCE> 39
 3.124807e+01 5.032209e+01 9.589026e+01 4.810138e+01 6.770685e+01 6.242018e+01 6.500089e+01 6.102654e+01 6.908720e+01 4.359492e+01 4.892903e+01 4.182566e+01 5.896813e+01 1.632067e+00 2.078364e+00 2.748563e+00 2.522150e+00 3.315393e+00 2.861438e+00 3.246720e+00 3.568088e+00 3.516091e+00 2.871374e+00 2.954937e+00 2.299268e+00 1.662718e+00 2.528175e-01 3.147068e-01 4.155509e-01 4.056389e-01 5.695349e-01 4.925901e-01 5.484492e-01 6.386024e-01 6.276531e-01 5.272896e-01 5.244864e-01 4.013322e-01 2.393233e-01
<GCONST> 1.256881e+02
<STATE> 4
<MEAN> 39
 -9.416927e-01 -9.519567e-01 4.412915e+00 -4.233364e-01 -8.340118e+00 -1.426257e+00 -7.384062e+00 -2.789028e-01 -4.165835e+00 -2.168909e+00 1.416208e+00 -6.946239e+00 6.102745e+01 -3.845135e-03 1.967224e-02 2.132054e-02 1.540780e-02 -5.377013e-03 1.864805e-02 4.220787e-02 2.807407e-02 -5.038506e-02 -2.993586e-02 1.894022e-04 1.367338e-02 -2.369872e-02 -3.308579e-04 1.169137e-03 -2.393410e-04 4.389400e-03 1.781299e-03 -2.126849e-03 2.326295e-03 -1.144211e-03 5.899765e-04 3.931724e-03 -1.283436e-03 1.050068e-03 -2.584001e-03
<VARIANCE> 39
 3.192612e+01 5.114814e+01 9.351881e+01 4.764017e+01 6.872356e+01 6.085356e+01 6.507601e+01 6.089685e+01 6.791119e+01 4.402038e+01 5.018239e+01 4.184885e+01 5.938523e+01 1.589624e+00 2.063072e+00 2.653543e+00 2.500769e+00 3.250249e+00 2.820540e+00 3.172065e+00 3.547137e+00 3.484199e+00 2.876285e+00 3.019098e+00 2.278780e+00 1.676500e+00 2.445070e-01 3.123772e-01 4.000182e-01 4.018722e-01 5.559706e-01 4.854061e-01 5.363285e-01 6.341718e-01 6.267313e-01 5.294848e-01 5.391203e-01 3.971635e-01 2.377051e-01
<GCONST> 1.254344e+02
<TRANSP> 5
 0.000000e+00 1.000000e+00 0.000000e+00 0.000000e+00 0.000000e+00
 0.000000e+00 6.082216e-01 3.917784e-01 0.000000e+00 0.000000e+00
 0.000000e+00 0.000000e+00 6.082219e-01 3.917782e-01 0.000000e+00
 0.000000e+00 0.000000e+00 0.000000e+00 7.128804e-01 2.871196e-01
 0.000000e+00 0.000000e+00 0.000000e+00 0.000000e+00 0.000000e+00
<ENDHMM>
~h "g"
<BEGINHMM>
<NUMSTATES> 5
<STATE> 2
<MEAN> 39
 3.782873e-01 3.839468e-01 3.505458e+00 -6.898770e-01 -6.951307e+00 -1.796593e+00 -8.918644e+00 -5.002201e-02 -4.683029e+00 -2.904234e-01 5.832498e-01 -6.569510e+00 6.044982e+01 -8.191178e-03 -1.301659e-02 -2.086879e-02 2.305831e-03 2.344211e-02 -1.073819e-02 6.125754e-03 1.191607e-02 -2.609197e-03 1.861432e-02 -7.224942e-03 4.449978e-03 -1.736062e-03 -1.499547e-03 -2.541615e-03 -4.618973e-03 1.167681e-03 4.124434e-03 4.114273e-03 5.034035e-03 6.594851e-04 3.720611e-03 -1.728027e-03 -3.812390e-03 4.622009e-03 -3.736652e-03
<VARIANCE> 39
 2.597521e+01 5.330712e+01 6.902054e+01 5.761166e+01 6.250218e+01 6.322330e+01 6.410127e+01 6.220140e+01 5.999085e+01 5.077201e+01 5.511348e+01 5.269769e+01 5.709465e+01 1.329217e+00 2.351594e+00 2.884374e+00 3.148018e+00 3.386988e+00 3.259897e+00 3.636962e+00 3.805855e+00 3.559657e+00 2.951601e+00 3.553535e+00 2.675349e+00 2.185625e+00 2.174288e-01 3.563229e-01 4.650741e-01 5.291156e-01 6.245406e-01 5.862679e-01 6.758438e-01 6.947082e-01 6.410944e-01 5.513512e-01 6.663030e-01 4.908990e-01 3.255300e-01
<GCONST> 1.285721e+02
<STATE> 3
<MEAN> 39
 3.632668e-01 3.297144e-01 3.429695e+00 -6.955651e-01 -6.891026e+00 -1.786236e+00 -8.891581e+00 -7.123947e-03 -4.673648e+00 -2.458871e-01 5.624210e-01 -6.558284e+00 6.043748e+01 -1.217558e-02 -1.640058e-02 -3.139315e-02 3.384900e-03 3.019965e-02 -9.001804e-04 1.846351e-02 1.303001e-02 9.002821e-03 1.305148e-02 -1.547702e-02 1.472330e-02 -1.192837e-02 -1.408710e-03 -9.582343e-04 -3.938145e-03 3.597515e-04 1.724171e-03 3.467442e-03 3.897575e-03 -5.081077e-04 5.225759e-03 -3.501994e-03 -3.173541e-03 3.867293e-03 -4.129050e-03
<VARIANCE> 39
 2.624304e+01 5.341214e+01 6.851394e+01 5.717651e+01 6.233993e+01 6.351208e+01 6.399450e+01 6.242588e+01 5.970398e+01 5.053556e+01 5.488570e+01 5.230100e+01 5.757713e+01 1.324732e+00 2.348774e+00 2.808866e+00 3.119190e+00 3.349474e+00 3.215101e+00 3.615396e+00 3.808381e+00 3.530766e+00 2.940551e+00 3.523075e+00 2.652433e+00 2.143323e+00 2.156565e-01 3.559662e-01 4.534108e-01 5.235517e-01 6.186092e-01 5.762982e-01 6.695400e-01 6.974648e-01 6.361997e-01 5.488633e-01 6.600076e-01 4.871498e-01 3.198971e-01
<GCONST> 1.283172e+02
<STATE> 4
<MEAN> 39
 3.004844e-01 3.304375e-01 3.250095e+00 -6.904854e-01 -6.703218e+00 -1.606257e+00 -8.792476e+00 7.183355e-02 -4.587345e+00 -3.403225e-01 5.040860e-01 -6.418354e+00 6.023474e+01 -1.563307e-02 -1.699091e-02 -3.881639e-02 3.299061e-03 2.517340e-02 9.476223e-03 2.720189e-02 1.488158e-02 1.824887e-02 1.578271e-03 -1.706605e-02 1.845056e-02 -2.275412e-02 -1.066693e-03 4.154150e-04 -1.944254e-03 1.151086e-03 -1.609431e-03 1.377322e-03 1.871117e-03 -1.714677e-04 3.466104e-03 -4.799676e-03 -1.009988e-03 2.197713e-03 -3.443031e-03
<VARIANCE> 39
 2.648477e+01 5.340617e+01 6.751617e+01 5.716352e+01 6.158667e+01 6.363772e+01 6.362226e+01 6.234180e+01 5.883710e+01 4.982792e+01 5.536818e+01 5.169904e+01 5.869979e+01 1.299621e+00 2.307456e+00 2.692635e+00 3.049094e+00 3.267596e+00 3.113344e+00 3.537922e+00 3.743748e+00 3.436451e+00 2.887053e+00 3.436634e+00 2.603626e+00 2.061411e+00 2.114099e-01 3.503842e-01 4.321953e-01 5.115669e-01 6.026777e-01 5.531306e-01 6.519122e-01 6.856613e-01 6.180478e-01 5.374964e-01 6.419723e-01 4.790026e-01 3.058886e-01
<GCONST> 1.275995e+02
<TRANSP> 5
 0.000000e+00 1.000000e+00 0.000000e+00 0.000000e+00 0.000000e+00
 0.000000e+00 6.020362e-01 3.979638e-01 0.000000e+00 0.000000e+00
 0.000000e+00 0.000000e+00 6.020337e-01 3.979663e-01 0.000000e+00
 0.000000e+00 0.000000e+00 0.000000e+00 7.111894e-01 2.888106e-01
 0.000000e+00 0.000000e+00 0.000000e+00 0.000000e+00 0.000000e+00
<ENDHMM>
~h "h"
<BEGINHMM>
<NUMSTATES> 5
<STATE> 2
<MEAN> 39
 -3.910611e-01 -9.053816e-01 1.392161e+00 -6.698904e-01 -4.959492e+00 -1.094357e+00 -5.832723e+00 1.260254e+00 -3.961026e+00 -6.110708e-01 -1.510303e+00 -4.832449e+00 5.980667e+01 7.522522e-05 -9.343207e-03 -4.531830e-03 2.588886e-02 2.278218e-03 1.103799e-02 9.669691e-03 1.125270e-03 3.427691e-03 2.883824e-03 8.631149e-04 -3.052005e-03 -1.728989e-02 -5.388675e-04 4.739529e-03 8.516673e-04 4.109799e-03 -1.126226e-03 -2.153909e-03 -1.496962e-03 -2.511568e-03 -2.297298e-03 2.961057e-04 3.011736e-03 4.011624e-04 -3.950275e-03
<VARIANCE> 39
 2.389828e+01 5.329710e+01 7.047155e+01 5.979318e+01 5.954998e+01 6.554506e+01 5.842947e+01 5.658278e+01 5.921369e+01 4.227445e+01 5.090381e+01 4.429469e+01 6.915385e+01 1.072514e+00 2.000618e+00 2.275321e+00 2.791631e+00 2.707382e+00 2.797957e+00 2.968968e+00 3.098527e+00 2.885776e+00 2.504327e+00 2.674962e+00 2.282570e+00 1.777038e+00 1.698824e-01 3.143654e-01 3.563610e-01 4.631131e-01 4.765621e-01 4.943345e-01 5.324690e-01 5.654539e-01 5.190556e-01 4.635327e-01 4.955995e-01 4.166323e-01 2.427954e-01
<GCONST> 1.227516e+02
<STATE> 3
<MEAN> 39
 -3.928783e-01 -9.158567e-01 1.393933e+00 -5.766702e-01 -4.963078e+00 -1.070012e+00 -5.819042e+00 1.258412e+00 -3.961914e+00 -6.075485e-01 -1.494603e+00 -4.842109e+00 5.974193e+01 -7.226205e-04 1.619176e-03 -1.436260e-03 3.405018e-02 -8.536599e-04 5.569370e-03 4.989026e-03 -5.629691e-03 -1.246392e-03 3.489248e-03 7.628980e-03 -2.648982e-03 -2.585509e-02 -6.986193e-04 4.450281e-03 1.834820e-03 2.442965e-03 -1.308167e-03 -2.489032e-03 -2.475775e-03 -2.310046e-03 -4.766192e-04 -1.720941e-04 2.264915e-03 -4.953152e-04 -2.603629e-03
<VARIANCE> 39
 2.358799e+01 5.270230e+01 7.002083e+01 5.904338e+01 5.941748e+01 6.467178e+01 5.789233e+01 5.631797e+01 5.851693e+01 4.197227e+01 5.027497e+01 4.484695e+01 6.877013e+01 1.069910e+00 1.984687e+00 2.279201e+00 2.758863e+00 2.681397e+00 2.793030e+00 2.949095e+00 3.102627e+00 2.894960e+00 2.507896e+00 2.657475e+00 2.296776e+00 1.757069e+00 1.698557e-01 3.111139e-01 3.580852e-01 4.597651e-01 4.722151e-01 4.933309e-01 5.307592e-01 5.679055e-01 5.203000e-01 4.654760e-01 4.942235e-01 4.196784e-01 2.417783e-01
<GCONST> 1.225935e+02
<STATE> 4
<MEAN> 39
 -4.222787e-01 -7.732843e-01 1.227677e+00 -4.804214e-01 -4.902580e+00 -9.658737e-01 -5.667480e+00 1.433228e+00 -4.429467e+00 -4.599615e-01 -1.299837e+00 -4.841331e+00 5.943867e+01 -3.268247e-03 1.301515e-02 3.315923e-03 3.613729e-02 -7.149154e-03 -1.032375e-03 2.068230e-04 -8.734972e-03 9.976291e-05 5.635152e-04 1.482517e-02 -1.512992e-03 -3.159255e-02 -1.228820e-03 2.948383e-03 1.200147e-03 4.194238e-04 -1.682410e-03 -1.830004e-03 -2.236603e-03 -1.149020e-03 2.470513e-03 -8.798229e-04 1.777613e-03 -8.396129e-04 -1.239477e-03
<VARIANCE> 39
 2.313724e+01 5.271100e+01 6.907605e+01 6.094267e+01 5.934886e+01 6.373530e+01 5.661350e+01 5.503238e+01 6.001360e+01 4.112346e+01 4.986584e+01 4.418638e+01 7.392083e+01 1.045732e+00 1.909307e+00 2.224966e+00 2.692601e+00 2.639396e+00 2.767332e+00 2.840833e+00 3.113782e+00 2.872841e+00 2.473802e+00 2.610682e+00 2.234109e+00 1.742567e+00 1.678215e-01 2.967547e-01 3.516572e-01 4.477892e-01 4.658580e-01 4.903429e-01 5.140929e-01 5.752231e-01 5.196975e-01 4.614590e-01 4.883197e-01 4.106393e-01 2.413727e-01
<GCONST> 1.221536e+02
<TRANSP> 5
 0.000000e+00 1.000000e+00 0.000000e+00 0.000000e+00 0.000000e+00
 0.000000e+00 6.108333e-01 3.891666e-01 0.000000e+00 0.000000e+00
 0.000000e+00 0.000000e+00 6.108332e-01 3.891668e-01 0.000000e+00
 0.000000e+00 0.000000e+00 0.000000e+00 7.494373e-01 2.505627e-01
 0.000000e+00 0.000000e+00 0.000000e+00 0.000000e+00 0.000000e+00
<ENDHMM>
~h "i"
<BEGINHMM>
<NUMSTATES> 5
<STATE> 2
<MEAN> 39
 -5.926954e-01 1.394603e-01 4.532764e+00 -2.704708e-01 -7.298225e+00 -2.031193e+00 -7.605283e+00 1.770597e-01 -5.389174e+00 -1.110417e+00 2.624784e-01 -5.514488e+00 6.003471e+01 5.442819e-03 -4.712864e-03 -2.322814e-02 6.545033e-04 1.440574e-02 1.525797e-02 -1.232188e-03 -5.605535e-03 1.389081e-02 2.931005e-03 -8.645054e-03 1.111046e-03 -8.650286e-03 6.885419e-04 -8.969738e-04 -5.328389e-03 2.081637e-04 1.862242e-03 1.640278e-03 7.254585e-04 2.087415e-03 3.329928e-03 3.036234e-04 -1.529033e-03 1.157203e-03 -2.041900e-03
<VARIANCE> 39
 2.832746e+01 5.048213e+01 8.441038e+01 5.427645e+01 6.637232e+01 6.585240e+01 6.096984e+01 6.008755e+01 6.110195e+01 4.823387e+01 5.151487e+01 4.523535e+01 5.928930e+01 1.435888e+00 2.254269e+00 3.202254e+00 2.979355e+00 3.370924e+00 3.148434e+00 3.446533e+00 3.711834e+00 3.431950e+00 2.851221e+00 3.120563e+00 2.476389e+00 1.952404e+00 2.319442e-01 3.546217e-01 4.921063e-01 5.040444e-01 6.033686e-01 5.585492e-01 6.269563e-01 6.791431e-01 6.217006e-01 5.285044e-01 5.787605e-01 4.578660e-01 2.926166e-01
<GCONST> 1.276185e+02
<STATE> 3
<MEAN> 39
 -5.761027e-01 1.268243e-01 4.462823e+00 -2.699128e-01 -7.257372e+00 -1.988162e+00 -7.607799e+00 1.718470e-01 -5.347766e+00 -1.101755e+00 2.420446e-01 -5.510445e+00 6.000924e+01 6.755282e-03 -6.936619e-03 -3.631135e-02 1.643653e-03 1.942468e-02 1.903324e-02 9.819507e-04 4.583332e-04 2.119419e-02 4.483597e-03 -1.222487e-02 4.227705e-03 -1.404556e-02 6.812254e-04 -9.629825e-04 -5.018346e-03 4.407512e-04 1.572069e-03 1.345963e-03 8.156536e-04 2.010664e-03 2.551696e-03 8.808033e-04 -1.212196e-03 9.165862e-04 -2.234501e-03
<VARIANCE> 39
 2.806948e+01 5.056765e+01 8.392416e+01 5.425198e+01 6.618893e+01 6.566980e+01 6.085888e+01 5.994846e+01 6.092774e+01 4.827239e+01 5.153437e+01 4.546703e+01 5.964412e+01 1.418518e+00 2.242285e+00 3.149104e+00 2.967976e+00 3.337200e+00 3.133980e+00 3.435031e+00 3.704860e+00 3.423083e+00 2.846655e+00 3.108623e+00 2.471954e+00 1.936592e+00 2.295048e-01 3.525505e-01 4.850397e-01 5.025155e-01 5.981815e-01 5.553310e-01 6.252272e-01 6.786041e-01 6.198915e-01 5.278475e-01 5.769998e-01 4.564734e-01 2.900832e-01
<GCONST> 1.274578e+02
<STATE> 4
<MEAN> 39
 -5.938167e-01 1.744432e-01 4.100858e+00 -3.812568e-01 -7.008119e+00 -1.801671e+00 -7.429490e+00 2.833534e-01 -5.469896e+00 -9.858946e-01 2.610164e-01 -5.483957e+00 5.984240e+01 8.212700e-03 -8.794713e-03 -4.641715e-02 2.742230e-03 2.169957e-02 2.088590e-02 3.475379e-03 6.489983e-03 2.460442e-02 7.716275e-03 -1.359070e-02 5.880623e-03 -1.841423e-02 3.784592e-04 -6.954571e-04 -3.780981e-03 6.590593e-04 1.057746e-03 1.029062e-03 1.106616e-03 1.431766e-03 1.440047e-03 1.073359e-03 -5.353296e-04 3.284819e-04 -1.913355e-03
<VARIANCE> 39
 2.774413e+01 5.116160e+01 8.380941e+01 5.638333e+01 6.640768e+01 6.575635e+01 6.053388e+01 5.950407e+01 6.159229e+01 4.810684e+01 5.151731e+01 4.577709e+01 6.242568e+01 1.389283e+00 2.204686e+00 3.037161e+00 2.927706e+00 3.279562e+00 3.108495e+00 3.369448e+00 3.664582e+00 3.375578e+00 2.823259e+00 3.060604e+00 2.434943e+00 1.920403e+00 2.263821e-01 3.454775e-01 4.692210e-01 4.954784e-01 5.867158e-01 5.507389e-01 6.140772e-01 6.715862e-01 6.101740e-01 5.243810e-01 5.685219e-01 4.487211e-01 2.858049e-01
<GCONST> 1.271352e+02
<TRANSP> 5
 0.000000e+00 1.000000e+00 0.000000e+00 0.000000e+00 0.000000e+00
 0.000000e+00 6.011028e-01 3.988972e-01 0.000000e+00 0.000000e+00
 0.000000e+00 0.000000e+00 6.011009e-01 3.988990e-01 0.000000e+00
 0.000000e+00 0.000000e+00 0.000000e+00 7.230609e-01 2.769391e-01
 0.000000e+00 0.000000e+00 0.000000e+00 0.000000e+00 0.000000e+00
<ENDHMM>
~h "j"
<BEGINHMM>
<NUMSTATES> 5
<STATE> 2
<MEAN> 39
 1.786471e-01 4.024923e-01 3.740252e+00 1.455234e-01 -5.856620e+00 -2.252491e+00 -8.813563e+00 1.248137e+00 -4.863886e+00 -5.840121e-01 -1.210871e-01 -4.717970e+00 5.983683e+01 8.545171e-03 1.844788e-02 2.306433e-03 1.970608e-02 -7.619433e-04 2.490272e-02 -4.899215e-03 -1.135155e-02 1.136684e-02 2.201523e-02 2.235748e-02 -2.533392e-03 -1.738561e-02 -5.172123e-04 -1.650721e-03 -2.013639e-03 -3.945283e-03 -1.081090e-03 -1.574245e-03 1.957921e-03 8.587731e-04 -2.937765e-03 5.056077e-03 4.049116e-03 -3.281422e-03 1.915612e-03
<VARIANCE> 39
 2.118230e+01 5.010288e+01 7.116978e+01 5.305764e+01 5.631358e+01 6.185777e+01 6.885796e+01 6.061055e+01 5.481946e+01 5.203060e+01 4.877676e+01 4.459761e+01 6.301683e+01 1.256517e+00 2.269262e+00 2.979602e+00 2.928778e+00 3.186121e+00 3.382510e+00 3.874403e+00 3.603021e+00 2.965919e+00 2.822756e+00 3.118810e+00 2.520228e+00 2.134804e+00 2.241585e-01 3.559208e-01 5.097306e-01 4.960679e-01 6.083331e-01 6.162732e-01 7.129914e-01 6.606005e-01 5.463727e-01 5.302817e-01 5.970001e-01 4.769260e-01 3.237540e-01
<GCONST> 1.270701e+02
<STATE> 3
<MEAN> 39
 1.956380e-01 4.422861e-01 3.730974e+00 1.803918e-01 -5.871312e+00 -2.208190e+00 -8.823988e+00 1.227037e+00 -4.834556e+00 -5.146655e-01 -6.263781e-02 -4.735877e+00 5.979689e+01 4.513678e-03 1.458328e-02 -3.963101e-03 1.115592e-02 -4.773661e-03 2.113770e-02 1.079474e-03 -9.184492e-03 6.212501e-03 2.935280e-02 3.010480e-02 -8.000175e-03 -1.567211e-02 -2.128808e-03 -2.603318e-03 -2.796875e-03 -3.416936e-03 -8.395154e-04 -1.801459e-03 3.382609e-03 1.529872e-03 -2.535791e-03 2.347223e-03 2.539255e-03 -2.268606e-03 8.234960e-04
<VARIANCE> 39
 2.096875e+01 5.000450e+01 7.144382e+01 5.282140e+01 5.639363e+01 6.143032e+01 6.846210e+01 6.009804e+01 5.460960e+01 5.248635e+01 4.874088e+01 4.438871e+01 6.284950e+01 1.246545e+00 2.267513e+00 2.975992e+00 2.932827e+00 3.222702e+00 3.396154e+00 3.866863e+00 3.609391e+00 2.966218e+00 2.806270e+00 3.098978e+00 2.500317e+00 2.150920e+00 2.216931e-01 3.546307e-01 5.085740e-01 4.963283e-01 6.154752e-01 6.172628e-01 7.127977e-01 6.616348e-01 5.472524e-01 5.268894e-01 5.927513e-01 4.724770e-01 3.254919e-01
<GCONST> 1.270107e+02
<STATE> 4
<MEAN> 39
 -5.615123e-02 5.533772e-01 2.878917e+00 -1.956475e-01 -5.604069e+00 -1.842290e+00 -7.723170e+00 1.360716e+00 -6.095205e+00 5.254403e-02 4.580868e-01 -5.134833e+00 5.958010e+01 -1.694458e-03 7.668599e-03 -8.273850e-03 6.170086e-03 -9.142200e-03 1.563758e-02 8.747511e-03 -7.155994e-03 -3.508716e-04 1.948531e-02 2.549405e-02 -9.197098e-03 -1.361912e-02 -1.862541e-03 -1.778262e-03 -1.830855e-03 -8.189030e-04 -9.387260e-04 1.363229e-04 3.205317e-03 1.737987e-04 -2.504097e-03 -9.148835e-04 2.691377e-04 -1.001765e-03 -7.701513e-04
<VARIANCE> 39
 2.426889e+01 5.306875e+01 7.379345e+01 6.069453e+01 5.993407e+01 6.426601e+01 6.624084e+01 5.722532e+01 6.199241e+01 5.071405e+01 4.712840e+01 4.504791e+01 7.192581e+01 1.362449e+00 2.267751e+00 2.875588e+00 2.878083e+00 3.365282e+00 3.433584e+00 3.609408e+00 3.644073e+00 3.136276e+00 2.827668e+00 3.024305e+00 2.421187e+00 2.163218e+00 2.409791e-01 3.549213e-01 4.880844e-01 4.858924e-01 6.266658e-01 6.253626e-01 6.686873e-01 6.708480e-01 5.813316e-01 5.334690e-01 5.781359e-01 4.549342e-01 3.270922e-01
<GCONST> 1.276812e+02
<TRANSP> 5
 0.000000e+00 1.000000e+00 0.000000e+00 0.000000e+00 0.000000e+00
 0.000000e+00 6.036758e-01 3.963242e-01 0.000000e+00 0.000000e+00
 0.000000e+00 0.000000e+00 6.036770e-01 3.963230e-01 0.000000e+00
 0.000000e+00 0.000000e+00 0.000000e+00 7.775688e-01 2.224313e-01
 0.000000e+00 0.000000e+00 0.000000e+00 0.000000e+00 0.000000e+00
<ENDHMM>
~h "k"
<BEGINHMM>
<NUMSTATES> 5
<STATE> 2
<MEAN> 39
 5.429105e-01 -8.892808e-01 2.396578e-01 -1.501159e+00 -5.130993e+00 -4.139535e-01 -6.938562e+00 4.476163e-01 -4.606819e+00 1.733043e-01 -7.069346e-01 -5.546586e+00 5.975816e+01 9.819269e-03 4.430527e-03 -2.737449e-03 -1.392689e-02 -1.350047e-02 1.206255e-03 -8.867542e-03 -1.895020e-02 2.567788e-04 -1.021316e-02 3.009253e-03 -7.990578e-04 2.758579e-02 -1.266538e-03 -4.067420e-04 4.923456e-03 1.378653e-04 1.996147e-04 -8.700764e-04 -7.882882e-05 -1.064231e-04 -2.783086e-03 6.571214e-05 -1.314721e-03 1.142318e-04 1.207565e-03
<VARIANCE> 39
 2.493225e+01 5.087120e+01 6.611181e+01 6.601056e+01 6.401663e+01 6.653626e+01 5.864211e+01 5.732747e+01 5.396598e+01 4.565528e+01 4.557444e+01 4.629084e+01 5.728850e+01 1.377945e+00 2.440569e+00 2.711339e+00 3.501385e+00 3.405194e+00 3.137958e+00 3.367395e+00 3.689712e+00 3.306328e+00 2.981128e+00 2.951291e+00 2.594655e+00 2.319922e+00 2.353743e-01 3.887944e-01 4.442801e-01 5.909411e-01 6.299710e-01 5.633944e-01 6.181871e-01 6.869999e-01 6.094145e-01 5.627909e-01 5.540930e-01 4.826168e-01 3.509270e-01
<GCONST> 1.276531e+02
<STATE> 3
<MEAN> 39
 5.614418e-01 -8.751765e-01 2.519213e-01 -1.526496e+00 -5.157959e+00 -4.235117e-01 -6.962832e+00 4.065481e-01 -4.615943e+00 1.531240e-01 -7.090707e-01 -5.546209e+00 5.982047e+01 5.867231e-03 4.981913e-03 1.016008e-02 -1.264141e-02 -1.302143e-02 -2.734365e-03 -1.053757e-02 -1.703952e-02 -5.075483e-03 -9.126033e-03 3.255768e-04 -1.054216e-03 2.762997e-02 -1.531780e-03 3.396027e-04 5.615478e-03 5.400191e-04 5.901688e-04 -1.513822e-03 -1.156630e-03 1.336671e-03 -2.092495e-03 1.081001e-03 -1.011805e-03 -3.166709e-04 -3.919316e-04
<VARIANCE> 39
 2.514071e+01 5.098612e+01 6.614966e+01 6.601231e+01 6.401122e+01 6.681662e+01 5.890779e+01 5.763766e+01 5.423549e+01 4.576918e+01 4.568585e+01 4.631111e+01 5.720968e+01 1.391982e+00 2.438709e+00 2.713064e+00 3.481667e+00 3.429772e+00 3.154926e+00 3.385089e+00 3.694955e+00 3.308560e+00 2.988115e+00 2.958265e+00 2.591446e+00 2.294133e+00 2.370850e-01 3.884945e-01 4.442116e-01 5.900970e-01 6.332342e-01 5.677425e-01 6.205971e-01 6.878793e-01 6.091232e-01 5.647490e-01 5.540648e-01 4.811224e-01 3.490712e-01
<GCONST> 1.277213e+02
<STATE> 4
<MEAN> 39
 3.379969e-01 -4.693960e-01 3.390476e-01 -1.215489e+00 -5.128407e+00 -1.927305e-01 -6.710946e+00 5.571133e-01 -4.739852e+00 7.406193e-02 -7.583622e-01 -5.374599e+00 5.931487e+01 5.218849e-04 7.224187e-03 2.132470e-02 -4.411463e-03 -1.111787e-02 -8.191519e-03 -1.387107e-02 -1.021046e-02 -4.310717e-03 -8.507670e-03 -1.526924e-03 -8.178288e-04 1.993266e-02 -1.477112e-03 6.463642e-04 4.112817e-03 1.350068e-03 1.380872e-04 -1.319761e-03 -1.795821e-03 1.640579e-03 8.129493e-05 5.519407e-04 -2.015245e-04 -4.330351e-04 -1.186325e-03
<VARIANCE> 39
 2.512997e+01 5.164652e+01 6.410509e+01 6.704568e+01 6.235021e+01 6.628056e+01 5.942322e+01 5.711320e+01 5.458289e+01 4.532293e+01 4.516140e+01 4.541090e+01 6.276456e+01 1.335486e+00 2.323052e+00 2.612105e+00 3.331197e+00 3.305777e+00 3.074691e+00 3.267431e+00 3.591776e+00 3.226746e+00 2.928200e+00 2.892762e+00 2.511804e+00 2.162964e+00 2.271954e-01 3.694143e-01 4.262751e-01 5.666583e-01 6.081201e-01 5.540950e-01 5.994505e-01 6.693406e-01 5.945834e-01 5.530083e-01 5.420303e-01 4.655447e-01 3.267992e-01
<GCONST> 1.268175e+02
<TRANSP> 5
 0.000000e+00 1.000000e+00 0.000000e+00 0.000000e+00 0.000000e+00
 0.000000e+00 5.993068e-01 4.006933e-01 0.000000e+00 0.000000e+00
 0.000000e+00 0.000000e+00 5.993052e-01 4.006948e-01 0.000000e+00
 0.000000e+00 0.000000e+00 0.000000e+00 7.301343e-01 2.698658e-01
 0.000000e+00 0.000000e+00 0.000000e+00 0.000000e+00 0.000000e+00
<ENDHMM>
~h "l"
<BEGINHMM>
<NUMSTATES> 5
<STATE> 2
<MEAN> 39
 5.729052e-01 -1.185610e+00 1.969387e+00 -1.969659e+00 -6.060448e+00 -7.590350e-01 -8.301423e+00 -6.337172e-02 -3.666432e+00 -1.936805e-02 -5.292036e-01 -6.466889e+00 6.110112e+01 -1.049294e-02 4.076101e-03 6.391625e-03 1.286268e-02 1.247155e-02 -1.171400e-02 1.468707e-03 -5.924908e-03 -4.488024e-03 6.283243e-05 -4.879566e-03 -3.784908e-03 4.782748e-03 -2.197531e-03 3.175832e-03 -3.952652e-04 1.937542e-03 1.430567e-03 1.816276e-04 2.752181e-03 1.475424e-03 5.993752e-06 -2.151790e-03 -1.656222e-03 1.586371e-03 -3.287363e-03
<VARIANCE> 39
 2.574979e+01 5.326514e+01 6.866150e+01 6.486877e+01 6.171824e+01 6.748197e+01 6.786758e+01 6.612399e+01 6.450798e+01 4.862963e+01 5.298618e+01 5.347494e+01 6.060599e+01 1.302450e+00 2.218902e+00 2.479019e+00 3.156706e+00 3.076216e+00 3.238418e+00 3.462857e+00 3.955359e+00 3.446753e+00 3.004822e+00 3.235166e+00 2.548721e+00 1.840603e+00 2.137676e-01 3.390215e-01 3.966382e-01 5.199415e-01 5.517476e-01 5.737200e-01 6.109514e-01 7.181950e-01 6.094241e-01 5.559865e-01 6.006774e-01 4.594468e-01 2.615413e-01
<GCONST> 1.273545e+02
<STATE> 3
<MEAN> 39
 5.447202e-01 -1.176666e+00 1.987675e+00 -1.930082e+00 -6.033852e+00 -7.907275e-01 -8.282839e+00 -6.671816e-02 -3.679825e+00 -2.871206e-02 -5.519868e-01 -6.471868e+00 6.110708e+01 -1.493587e-02 1.184073e-02 5.066741e-03 2.006000e-02 1.530297e-02 -9.456319e-03 8.897373e-03 -2.874893e-03 -5.818291e-03 -5.639055e-03 -9.374194e-03 6.956735e-04 -5.230139e-03 -1.712280e-03 3.186821e-03 -8.959315e-04 2.555349e-03 9.469887e-04 2.999898e-04 2.558923e-03 1.689691e-03 -7.144148e-04 -2.708440e-03 -1.118940e-03 2.037475e-03 -3.959429e-03
<VARIANCE> 39
 2.593194e+01 5.313833e+01 6.801024e+01 6.437308e+01 6.138531e+01 6.774589e+01 6.803769e+01 6.593119e+01 6.454405e+01 4.830280e+01 5.332686e+01 5.316153e+01 6.024255e+01 1.319511e+00 2.221671e+00 2.476449e+00 3.146116e+00 3.067605e+00 3.221347e+00 3.468715e+00 3.918365e+00 3.428774e+00 2.985662e+00 3.235681e+00 2.536793e+00 1.836920e+00 2.165230e-01 3.395920e-01 3.965504e-01 5.206470e-01 5.513437e-01 5.705127e-01 6.136577e-01 7.111726e-01 6.067955e-01 5.522372e-01 6.025586e-01 4.573331e-01 2.616529e-01
<GCONST> 1.272960e+02
<STATE> 4
<MEAN> 39
 4.503815e-01 -1.068664e+00 1.947379e+00 -1.831594e+00 -5.919554e+00 -7.515794e-01 -8.202717e+00 -5.242622e-02 -3.610845e+00 -1.377171e-01 -6.506499e-01 -6.411873e+00 6.093866e+01 -1.683347e-02 1.975081e-02 2.425183e-03 3.043302e-02 1.570823e-02 -4.770220e-03 1.720442e-02 2.217898e-03 -1.038730e-02 -1.324915e-02 -1.196809e-02 6.477073e-03 -1.976433e-02 -1.047542e-03 3.002650e-03 -1.178081e-03 2.920158e-03 7.470235e-04 8.302592e-04 1.895806e-03 1.485649e-03 -1.388674e-03 -2.393253e-03 1.634249e-04 1.985734e-03 -4.649009e-03
<VARIANCE> 39
 2.583930e+01 5.274667e+01 6.746612e+01 6.400837e+01 6.075833e+01 6.736454e+01 6.768627e+01 6.545901e+01 6.419682e+01 4.766620e+01 5.382190e+01 5.276675e+01 6.058437e+01 1.312852e+00 2.196069e+00 2.444861e+00 3.104382e+00 3.017066e+00 3.157591e+00 3.423622e+00 3.842589e+00 3.370411e+00 2.936225e+00 3.210860e+00 2.510372e+00 1.805881e+00 2.150550e-01 3.355998e-01 3.909446e-01 5.150046e-01 5.432522e-01 5.589495e-01 6.058493e-01 6.951669e-01 5.970101e-01 5.421715e-01 5.987592e-01 4.528884e-01 2.570485e-01
<GCONST> 1.268676e+02
<TRANSP> 5
 0.000000e+00 1.000000e+00 0.000000e+00 0.000000e+00 0.000000e+00
 0.000000e+00 5.976152e-01 4.023848e-01 0.000000e+00 0.000000e+00
 0.000000e+00 0.000000e+00 5.976141e-01 4.023858e-01 0.000000e+00
 0.000000e+00 0.000000e+00 0.000000e+00 7.038927e-01 2.961073e-01
 0.000000e+00 0.000000e+00 0.000000e+00 0.000000e+00 0.000000e+00
<ENDHMM>
~h "m"
<BEGINHMM>
<NUMSTATES> 5
<STATE> 2
<MEAN> 39
 1.005639e+00 -8.682431e-01 1.972678e+00 -1.039035e+00 -5.848755e+00 6.353054e-01 -7.411791e+00 -5.379459e-01 -5.303656e+00 -5.102806e-01 -7.804689e-01 -6.340664e+00 6.055843e+01 1.126409e-02 -1.331447e-02 6.994099e-03 -1.771001e-02 -1.188586e-02 -1.105177e-02 -5.542882e-03 1.182254e-02 -4.042267e-03 1.962975e-02 -6.910320e-04 -1.907819e-02 1.188947e-02 -2.497475e-03 3.421615e-04 -1.945095e-03 1.083110e-03 2.064812e-03 -1.365154e-03 1.486564e-04 2.464856e-03 2.077657e-03 -3.546761e-04 3.787220e-04 1.506342e-04 -1.912764e-03
<VARIANCE> 39
 2.721510e+01 5.317611e+01 6.600199e+01 5.839274e+01 6.878075e+01 6.779260e+01 5.946711e+01 6.053772e+01 5.989575e+01 4.625558e+01 4.622720e+01 4.769756e+01 5.537409e+01 1.362433e+00 2.256179e+00 2.595198e+00 3.102342e+00 3.134663e+00 3.230752e+00 3.237036e+00 3.913685e+00 3.620190e+00 2.906553e+00 2.932922e+00 2.413688e+00 1.832770e+00 2.237410e-01 3.562265e-01 4.263012e-01 5.297109e-01 5.615943e-01 5.588941e-01 5.853631e-01 7.093323e-01 6.462365e-01 5.448588e-01 5.512937e-01 4.480611e-01 2.752680e-01
<GCONST> 1.266792e+02
<STATE> 3
<MEAN> 39
 1.023846e+00 -8.947836e-01 1.989893e+00 -1.078446e+00 -5.878797e+00 6.080250e-01 -7.429245e+00 -5.126626e-01 -5.306694e+00 -4.626843e-01 -7.788095e-01 -6.380498e+00 6.057863e+01 4.167542e-03 -1.158953e-02 3.169498e-03 -1.282972e-02 -8.991681e-03 -1.308090e-02 -5.463623e-03 1.671707e-02 2.303617e-03 1.740571e-02 1.416749e-03 -1.602452e-02 4.344285e-03 -3.294068e-03 8.420690e-04 -9.211691e-04 2.637111e-03 9.986692e-04 -1.112957e-03 9.440490e-04 1.951562e-03 2.267192e-03 -1.338886e-03 1.168281e-03 1.566812e-03 -2.937451e-03
<VARIANCE> 39
 2.703610e+01 5.332245e+01 6.598969e+01 5.854869e+01 6.852584e+01 6.785228e+01 5.950785e+01 6.108396e+01 5.964406e+01 4.653682e+01 4.638868e+01 4.776112e+01 5.529704e+01 1.352168e+00 2.258756e+00 2.590120e+00 3.107471e+00 3.145342e+00 3.223356e+00 3.227792e+00 3.920539e+00 3.611031e+00 2.912950e+00 2.940312e+00 2.409104e+00 1.826020e+00 2.216698e-01 3.563823e-01 4.246100e-01 5.301970e-01 5.636179e-01 5.596442e-01 5.845870e-01 7.102740e-01 6.442312e-01 5.456896e-01 5.523219e-01 4.482895e-01 2.750895e-01
<GCONST> 1.266729e+02
<STATE> 4
<MEAN> 39
 9.336311e-01 -8.167156e-01 1.953784e+00 -1.021671e+00 -5.771003e+00 6.243764e-01 -7.423389e+00 -4.089480e-01 -5.221382e+00 -5.007221e-01 -8.114694e-01 -6.313570e+00 6.038116e+01 -5.938013e-03 -7.151552e-03 1.414741e-03 -2.972926e-03 -8.553997e-03 -1.672025e-02 -1.336631e-03 1.973410e-02 9.877935e-03 1.360804e-02 5.558455e-03 -7.675305e-03 -6.447527e-03 -3.498061e-03 1.106205e-03 -3.215107e-04 3.485142e-03 5.137522e-04 -1.790481e-03 1.754063e-03 1.833923e-03 2.198168e-03 -1.463871e-03 1.179541e-03 2.420642e-03 -2.817912e-03
<VARIANCE> 39
 2.666741e+01 5.309708e+01 6.581777e+01 5.852869e+01 6.754411e+01 6.732490e+01 5.969690e+01 6.125494e+01 5.902317e+01 4.658099e+01 4.657106e+01 4.800449e+01 5.626768e+01 1.309812e+00 2.222798e+00 2.545158e+00 3.069044e+00 3.099706e+00 3.166953e+00 3.190137e+00 3.856627e+00 3.547124e+00 2.888793e+00 2.927384e+00 2.383603e+00 1.786649e+00 2.147291e-01 3.492780e-01 4.154186e-01 5.236327e-01 5.549259e-01 5.517530e-01 5.789151e-01 6.985581e-01 6.317813e-01 5.396101e-01 5.494160e-01 4.443786e-01 2.686300e-01
<GCONST> 1.262404e+02
<TRANSP> 5
 0.000000e+00 1.000000e+00 0.000000e+00 0.000000e+00 0.000000e+00
 0.000000e+00 5.980046e-01 4.019954e-01 0.000000e+00 0.000000e+00
 0.000000e+00 0.000000e+00 5.980039e-01 4.019962e-01 0.000000e+00
 0.000000e+00 0.000000e+00 0.000000e+00 7.058058e-01 2.941941e-01
 0.000000e+00 0.000000e+00 0.000000e+00 0.000000e+00 0.000000e+00
<ENDHMM>
~h "n"
<BEGINHMM>
<NUMSTATES> 5
<STATE> 2
<MEAN> 39
 5.541288e-01 -1.148259e+00 2.697212e+00 1.247995e-01 -6.270279e+00 -8.526394e-01 -7.536206e+00 5.546113e-01 -4.519956e+00 -4.568415e-01 -1.305571e+00 -6.340681e+00 6.020760e+01 -1.871868e-02 3.091871e-02 -1.687498e-02 1.781779e-02 1.421126e-02 6.084417e-03 8.090628e-03 7.669938e-03 1.304599e-02 -1.445579e-02 4.882969e-03 3.006554e-02 -4.167723e-02 -1.423267e-04 7.121929e-04 -3.064157e-03 -1.654807e-03 7.765185e-04 1.263008e-03 2.407033e-04 4.431454e-04 2.622852e-03 -1.248477e-04 1.910807e-03 1.268549e-03 -8.594038e-04
<VARIANCE> 39
 2.452214e+01 5.518260e+01 6.741061e+01 5.308731e+01 6.077079e+01 5.993224e+01 5.978197e+01 6.752557e+01 5.601941e+01 4.886855e+01 4.925607e+01 4.937091e+01 5.777814e+01 1.255721e+00 2.421830e+00 2.612795e+00 3.035379e+00 2.973580e+00 2.997755e+00 3.223233e+00 4.285680e+00 3.282227e+00 2.934321e+00 3.044836e+00 2.464072e+00 1.940932e+00 2.086461e-01 3.812170e-01 4.219715e-01 5.195711e-01 5.365235e-01 5.428197e-01 5.920211e-01 7.816148e-01 5.880059e-01 5.485491e-01 5.588021e-01 4.522651e-01 2.926432e-01
<GCONST> 1.264922e+02
<STATE> 3
<MEAN> 39
 5.085077e-01 -1.072998e+00 2.644026e+00 1.636421e-01 -6.236375e+00 -8.297583e-01 -7.510163e+00 5.756766e-01 -4.480084e+00 -4.894043e-01 -1.288200e+00 -6.262706e+00 6.010187e+01 -1.922928e-02 3.217113e-02 -2.474662e-02 1.426126e-02 1.571410e-02 8.486905e-03 1.035180e-02 8.028163e-03 1.863877e-02 -1.449890e-02 9.665306e-03 3.345003e-02 -4.406297e-02 2.249812e-05 2.123115e-04 -3.069433e-03 -1.395533e-03 5.750726e-04 5.315936e-04 8.780373e-04 -1.440774e-04 1.532720e-03 5.600737e-04 1.547746e-03 9.038766e-04 -8.745204e-04
<VARIANCE> 39
 2.456574e+01 5.509874e+01 6.752808e+01 5.285404e+01 6.041055e+01 5.970806e+01 5.977264e+01 6.716563e+01 5.571487e+01 4.848619e+01 4.881548e+01 4.937783e+01 5.846471e+01 1.249614e+00 2.399328e+00 2.593068e+00 3.003036e+00 2.952953e+00 2.973814e+00 3.220019e+00 4.245379e+00 3.258385e+00 2.913815e+00 3.020134e+00 2.456701e+00 1.921472e+00 2.077207e-01 3.779655e-01 4.179152e-01 5.151874e-01 5.320737e-01 5.388235e-01 5.916096e-01 7.750992e-01 5.832615e-01 5.453020e-01 5.550295e-01 4.509636e-01 2.900169e-01
<GCONST> 1.262822e+02
<STATE> 4
<MEAN> 39
 3.277647e-01 -8.757712e-01 2.335926e+00 1.356255e-01 -5.995584e+00 -7.183018e-01 -7.205774e+00 6.910013e-01 -4.732097e+00 -4.766194e-01 -1.127116e+00 -6.072616e+00 5.981548e+01 -1.823032e-02 3.056891e-02 -3.229271e-02 1.086544e-02 1.458670e-02 9.899399e-03 1.497137e-02 6.216940e-03 1.927043e-02 -1.146599e-02 1.314665e-02 3.262069e-02 -4.443744e-02 3.351692e-06 -2.018757e-04 -2.070253e-03 -9.030683e-04 2.489857e-04 -7.856591e-05 9.060065e-04 -3.059633e-04 -6.966350e-05 9.553772e-04 8.103380e-04 2.322157e-05 -6.021583e-04
<VARIANCE> 39
 2.508520e+01 5.520205e+01 6.758625e+01 5.430039e+01 6.075859e+01 5.966963e+01 5.968586e+01 6.591759e+01 5.739031e+01 4.778817e+01 4.817692e+01 4.919394e+01 6.247293e+01 1.242240e+00 2.321590e+00 2.537462e+00 2.929574e+00 2.928964e+00 2.956132e+00 3.165410e+00 4.109035e+00 3.224017e+00 2.863877e+00 2.963975e+00 2.413259e+00 1.899524e+00 2.070936e-01 3.649416e-01 4.089296e-01 5.021049e-01 5.255564e-01 5.352495e-01 5.823745e-01 7.505125e-01 5.784473e-01 5.358737e-01 5.467161e-01 4.435492e-01 2.849413e-01
<GCONST> 1.259296e+02
<TRANSP> 5
 0.000000e+00 1.000000e+00 0.000000e+00 0.000000e+00 0.000000e+00
 0.000000e+00 5.961207e-01 4.038793e-01 0.000000e+00 0.000000e+00
 0.000000e+00 0.000000e+00 5.961205e-01 4.038794e-01 0.000000e+00
 0.000000e+00 0.000000e+00 0.000000e+00 7.204263e-01 2.795737e-01
 0.000000e+00 0.000000e+00 0.000000e+00 0.000000e+00 0.000000e+00
<ENDHMM>
~h "o"
<BEGINHMM>
<NUMSTATES> 5
<STATE> 2
<MEAN> 39
 9.289513e-01 1.825818e-01 -3.928714e-01 -2.386686e+00 -5.898152e+00 1.354871e+00 -6.523219e+00 -1.191813e-02 -4.121371e+00 3.846011e-01 -1.860522e-01 -5.019502e+00 5.916125e+01 1.167368e-02 -2.101215e-02 4.004478e-02 -5.204086e-02 -2.878222e-02 -1.961235e-02 -1.872686e-02 -6.483080e-03 -1.063469e-02 -4.475440e-03 -1.749335e-04 -9.745524e-03 6.058085e-02 -6.041354e-03 1.464513e-05 5.322215e-03 8.626184e-03 2.166189e-03 -4.289007e-03 -2.728630e-03 1.594375e-03 2.976042e-03 -4.066180e-03 6.647641e-04 -1.529074e-03 -2.758075e-03
<VARIANCE> 39
 2.633518e+01 4.909806e+01 5.491689e+01 8.206725e+01 5.400841e+01 6.534736e+01 5.508889e+01 5.422045e+01 5.397695e+01 4.567680e+01 4.365763e+01 4.590441e+01 6.555949e+01 1.299780e+00 1.934278e+00 2.217080e+00 3.879566e+00 2.978612e+00 2.984241e+00 3.076465e+00 3.385867e+00 3.001228e+00 2.874104e+00 2.744550e+00 2.179789e+00 1.845213e+00 2.126674e-01 3.018322e-01 3.591197e-01 6.138960e-01 5.264991e-01 5.318539e-01 5.509202e-01 6.260196e-01 5.395349e-01 5.306042e-01 5.079405e-01 4.002487e-01 2.587840e-01
<GCONST> 1.243895e+02
<STATE> 3
<MEAN> 39
 9.343821e-01 1.177679e-01 -2.584748e-01 -2.502329e+00 -5.965640e+00 1.281227e+00 -6.594076e+00 -2.283627e-02 -4.146579e+00 3.639548e-01 -1.819005e-01 -5.067243e+00 5.932115e+01 -4.356953e-03 -2.391221e-02 5.041372e-02 -2.689064e-02 -2.189031e-02 -3.611333e-02 -2.474497e-02 2.769710e-03 -3.047104e-03 -1.157634e-02 3.426614e-04 -1.567379e-02 5.296506e-02 -5.882531e-03 -5.151402e-04 3.250886e-03 9.958823e-03 2.718416e-03 -5.852225e-03 -1.353975e-03 3.493374e-03 2.176358e-03 -3.432993e-03 1.807708e-04 -9.481994e-04 -3.527936e-03
<VARIANCE> 39
 2.642554e+01 4.954577e+01 5.657193e+01 8.228818e+01 5.433968e+01 6.714787e+01 5.599377e+01 5.486669e+01 5.422615e+01 4.600270e+01 4.411262e+01 4.608613e+01 6.510511e+01 1.297680e+00 1.950133e+00 2.272849e+00 3.816079e+00 2.988216e+00 3.016531e+00 3.089999e+00 3.395319e+00 3.013087e+00 2.889758e+00 2.764093e+00 2.192594e+00 1.834821e+00 2.115599e-01 3.034712e-01 3.658003e-01 5.992367e-01 5.273415e-01 5.331829e-01 5.521213e-01 6.255047e-01 5.407192e-01 5.326801e-01 5.099239e-01 4.014460e-01 2.559271e-01
<GCONST> 1.245694e+02
<STATE> 4
<MEAN> 39
 5.608772e-01 3.715475e-01 2.888048e-01 -2.131830e+00 -6.019814e+00 1.005090e+00 -6.415011e+00 6.883501e-01 -5.571718e+00 6.862997e-01 1.109230e-01 -5.334121e+00 5.930969e+01 -1.589922e-02 -2.234651e-02 4.330202e-02 8.014602e-03 -8.573554e-03 -4.231068e-02 -1.897567e-02 1.153825e-02 -1.693294e-04 -1.127455e-02 6.740449e-05 -1.219153e-02 2.852279e-02 -2.952489e-03 -6.622549e-04 1.343972e-03 7.596046e-03 1.558061e-03 -4.373159e-03 9.646436e-05 2.256672e-03 1.251754e-04 -1.824187e-03 -4.948621e-04 2.751470e-04 -2.630835e-03
<VARIANCE> 39
 2.718648e+01 5.206640e+01 6.175320e+01 8.333768e+01 5.702553e+01 7.048375e+01 5.471710e+01 5.581516e+01 5.892935e+01 4.546027e+01 4.262498e+01 4.481601e+01 7.661979e+01 1.306293e+00 1.895756e+00 2.421614e+00 3.392845e+00 3.092265e+00 3.182013e+00 2.970926e+00 3.531037e+00 3.114033e+00 2.878443e+00 2.743914e+00 2.183941e+00 1.852568e+00 2.170487e-01 2.935248e-01 3.874454e-01 5.493889e-01 5.558765e-01 5.664351e-01 5.361881e-01 6.532665e-01 5.732350e-01 5.402027e-01 5.100895e-01 4.018803e-01 2.669380e-01
<GCONST> 1.252557e+02
<TRANSP> 5
 0.000000e+00 1.000000e+00 0.000000e+00 0.000000e+00 0.000000e+00
 0.000000e+00 6.112127e-01 3.887873e-01 0.000000e+00 0.000000e+00
 0.000000e+00 0.000000e+00 6.112115e-01 3.887885e-01 0.000000e+00
 0.000000e+00 0.000000e+00 0.000000e+00 8.084803e-01 1.915198e-01
 0.000000e+00 0.000000e+00 0.000000e+00 0.000000e+00 0.000000e+00
<ENDHMM>
~h "p"
<BEGINHMM>
<NUMSTATES> 5
<STATE> 2
<MEAN> 39
 4.161293e-01 -6.807391e-01 6.072979e-01 -1.363052e+00 -5.177104e+00 -4.494971e-01 -7.285377e+00 2.922603e-01 -4.176825e+00 -3.386065e-02 -7.354586e-01 -5.833914e+00 5.964377e+01 -1.576170e-03 3.163229e-03 7.021677e-02 -1.618096e-02 -3.931906e-02 -2.633316e-02 -1.999492e-02 -7.849781e-03 -3.222619e-02 4.566412e-03 9.359672e-03 -4.960776e-03 3.236721e-02 -3.386744e-03 2.265255e-03 3.857383e-03 3.020794e-03 -4.494442e-04 -1.668226e-03 2.549179e-03 4.247297e-04 -1.338086e-03 -2.478430e-03 8.255711e-04 3.964738e-03 -3.733023e-04
<VARIANCE> 39
 2.555319e+01 5.023313e+01 7.003103e+01 5.976028e+01 5.719712e+01 6.592223e+01 5.617328e+01 5.676399e+01 5.761303e+01 4.476521e+01 4.315022e+01 4.512428e+01 5.834792e+01 1.360723e+00 2.565109e+00 2.890404e+00 3.413334e+00 3.066444e+00 3.404027e+00 3.447751e+00 3.529027e+00 3.186150e+00 2.928808e+00 2.937659e+00 2.580355e+00 2.447433e+00 2.310285e-01 4.111990e-01 4.651875e-01 5.984278e-01 5.519164e-01 6.161405e-01 6.256816e-01 6.553790e-01 5.802376e-01 5.535277e-01 5.484245e-01 4.807557e-01 3.768065e-01
<GCONST> 1.274616e+02
<STATE> 3
<MEAN> 39
 4.045181e-01 -6.643239e-01 7.834223e-01 -1.390050e+00 -5.275918e+00 -5.148691e-01 -7.333806e+00 2.732008e-01 -4.250023e+00 -3.317231e-02 -7.073978e-01 -5.832123e+00 5.971622e+01 -7.331993e-03 6.634928e-03 7.636139e-02 -1.019881e-02 -4.215218e-02 -2.537991e-02 -1.504915e-02 -6.537119e-03 -3.249810e-02 -4.489882e-03 1.285247e-02 3.487230e-03 3.143215e-02 -1.932721e-03 4.153999e-04 2.041530e-03 2.096450e-03 -6.424942e-04 8.202938e-04 1.517677e-03 7.389791e-04 5.868194e-04 -3.931248e-03 1.449275e-03 3.578556e-03 2.245011e-05
<VARIANCE> 39
 2.571198e+01 5.024063e+01 7.161533e+01 5.980959e+01 5.770445e+01 6.596155e+01 5.640355e+01 5.721824e+01 5.849646e+01 4.541629e+01 4.336945e+01 4.512113e+01 5.812299e+01 1.373173e+00 2.553099e+00 2.931405e+00 3.405603e+00 3.087050e+00 3.394706e+00 3.450073e+00 3.542357e+00 3.200573e+00 2.948118e+00 2.954523e+00 2.577456e+00 2.413732e+00 2.331543e-01 4.090601e-01 4.710161e-01 5.986479e-01 5.548685e-01 6.161144e-01 6.259707e-01 6.569875e-01 5.819374e-01 5.574744e-01 5.522298e-01 4.804220e-01 3.729287e-01
<GCONST> 1.276008e+02
<STATE> 4
<MEAN> 39
 3.241432e-01 -5.529499e-01 9.792146e-01 -1.393781e+00 -5.350084e+00 -4.984029e-01 -7.361131e+00 2.804051e-01 -4.244662e+00 -1.244391e-01 -7.038363e-01 -5.716148e+00 5.964343e+01 -9.506116e-03 3.118268e-03 7.370476e-02 -2.319897e-03 -4.285866e-02 -1.866961e-02 -1.280022e-02 -3.132743e-03 -2.404120e-02 -1.829128e-02 1.521589e-02 1.049012e-02 2.832538e-02 -1.083685e-04 -2.357460e-03 -5.827445e-05 1.977486e-03 -1.020365e-04 1.597578e-03 -4.939449e-04 8.201002e-04 2.359961e-03 -4.248143e-03 5.993464e-04 1.877830e-03 1.824220e-04
<VARIANCE> 39
 2.573592e+01 5.035987e+01 7.353322e+01 5.967389e+01 5.784842e+01 6.574060e+01 5.673947e+01 5.710674e+01 5.860535e+01 4.597803e+01 4.370824e+01 4.560593e+01 5.874461e+01 1.354980e+00 2.499730e+00 2.910024e+00 3.354030e+00 3.065717e+00 3.324435e+00 3.412308e+00 3.502543e+00 3.161569e+00 2.931740e+00 2.950463e+00 2.560599e+00 2.343636e+00 2.299249e-01 3.983077e-01 4.655023e-01 5.900055e-01 5.501432e-01 6.042606e-01 6.191629e-01 6.479086e-01 5.736026e-01 5.542735e-01 5.517194e-01 4.762800e-01 3.611166e-01
<GCONST> 1.273305e+02
<TRANSP> 5
 0.000000e+00 1.000000e+00 0.000000e+00 0.000000e+00 0.000000e+00
 0.000000e+00 5.973707e-01 4.026293e-01 0.000000e+00 0.000000e+00
 0.000000e+00 0.000000e+00 5.973704e-01 4.026296e-01 0.000000e+00
 0.000000e+00 0.000000e+00 0.000000e+00 7.050263e-01 2.949737e-01
 0.000000e+00 0.000000e+00 0.000000e+00 0.000000e+00 0.000000e+00
<ENDHMM>
~h "r"
<BEGINHMM>
<NUMSTATES> 5
<STATE> 2
<MEAN> 39
 6.398466e-01 -1.551986e+00 1.316598e+00 -3.425219e-01 -5.683223e+00 -1.359723e+00 -7.612601e+00 5.288928e-01 -3.729727e+00 -1.856764e-01 -6.170685e-01 -6.435622e+00 6.084319e+01 -1.019602e-02 1.587913e-02 1.034446e-02 -3.666070e-03 6.164254e-03 2.341592e-02 1.581633e-02 1.616686e-03 -9.836578e-03 -1.550218e-02 -8.204984e-03 1.440722e-02 -1.824547e-02 -2.247487e-03 2.850994e-03 -1.361467e-03 -4.385920e-04 1.446283e-03 2.163649e-03 1.941619e-03 3.274273e-04 -5.177354e-04 -1.380882e-03 7.806084e-04 1.795492e-03 -3.547692e-03
<VARIANCE> 39
 2.742542e+01 5.535289e+01 6.821390e+01 5.427613e+01 5.988531e+01 6.406158e+01 5.839157e+01 6.471342e+01 6.234018e+01 4.826317e+01 4.805386e+01 4.890203e+01 5.741392e+01 1.458575e+00 2.531312e+00 2.583049e+00 3.171093e+00 3.162694e+00 3.167203e+00 3.244615e+00 3.950788e+00 3.465623e+00 2.931164e+00 3.113893e+00 2.608322e+00 2.099923e+00 2.407148e-01 3.927304e-01 4.087739e-01 5.544702e-01 5.695952e-01 5.686776e-01 5.850762e-01 7.158256e-01 6.167493e-01 5.497022e-01 5.841675e-01 4.853502e-01 3.203399e-01
<GCONST> 1.276282e+02
<STATE> 3
<MEAN> 39
 6.111852e-01 -1.509791e+00 1.338729e+00 -3.540221e-01 -5.670873e+00 -1.297722e+00 -7.574624e+00 5.322639e-01 -3.754983e+00 -2.269317e-01 -6.339737e-01 -6.398421e+00 6.079425e+01 -1.417473e-02 2.252988e-02 6.838513e-03 -3.121047e-03 8.375761e-03 2.687455e-02 1.931258e-02 2.026382e-03 -1.261820e-02 -1.922243e-02 -6.358937e-03 1.711889e-02 -2.646086e-02 -1.397714e-03 2.863662e-03 -1.762186e-03 3.024737e-04 5.634902e-04 6.842719e-04 1.032816e-03 1.431969e-04 -1.099461e-03 -1.681165e-03 9.748702e-04 8.245957e-04 -3.165851e-03
<VARIANCE> 39
 2.761175e+01 5.532491e+01 6.808126e+01 5.447462e+01 5.979038e+01 6.395266e+01 5.845716e+01 6.414735e+01 6.251765e+01 4.821447e+01 4.807971e+01 4.875035e+01 5.738303e+01 1.451223e+00 2.516718e+00 2.568375e+00 3.145849e+00 3.150125e+00 3.162000e+00 3.238944e+00 3.921926e+00 3.454134e+00 2.926013e+00 3.099080e+00 2.590224e+00 2.075470e+00 2.394049e-01 3.902444e-01 4.061837e-01 5.485606e-01 5.671726e-01 5.667611e-01 5.842565e-01 7.103246e-01 6.149138e-01 5.487191e-01 5.811649e-01 4.812520e-01 3.164694e-01
<GCONST> 1.274801e+02
<STATE> 4
<MEAN> 39
 3.890975e-01 -1.010417e+00 1.255968e+00 -4.706680e-01 -5.689017e+00 -7.722089e-01 -7.171729e+00 8.118685e-01 -4.681005e+00 1.309571e-02 -3.608956e-01 -6.285848e+00 6.037169e+01 -1.222268e-02 2.262840e-02 1.460762e-03 -1.817471e-04 6.000699e-03 2.138161e-02 1.666244e-02 1.062496e-03 -1.310418e-02 -1.747479e-02 -3.802626e-03 1.415924e-02 -2.672004e-02 -3.765162e-04 1.781094e-03 -1.457153e-03 9.370360e-04 -2.054409e-04 -3.017859e-04 8.427107e-05 -1.232718e-04 -6.108094e-04 -6.974833e-04 3.983172e-04 5.739963e-04 -2.163763e-03
<VARIANCE> 39
 2.788371e+01 5.618687e+01 6.672938e+01 6.002301e+01 6.035412e+01 6.625700e+01 5.740341e+01 6.217222e+01 6.525244e+01 4.759985e+01 4.624860e+01 4.791613e+01 6.694148e+01 1.436720e+00 2.366108e+00 2.566529e+00 3.061415e+00 3.191138e+00 3.236225e+00 3.157252e+00 3.874045e+00 3.426508e+00 2.922466e+00 3.002441e+00 2.498212e+00 2.050322e+00 2.394794e-01 3.662976e-01 4.092575e-01 5.321695e-01 5.791932e-01 5.842701e-01 5.735422e-01 7.070619e-01 6.192671e-01 5.530896e-01 5.640048e-01 4.640183e-01 3.129914e-01
<GCONST> 1.273948e+02
<TRANSP> 5
 0.000000e+00 1.000000e+00 0.000000e+00 0.000000e+00 0.000000e+00
 0.000000e+00 5.950384e-01 4.049617e-01 0.000000e+00 0.000000e+00
 0.000000e+00 0.000000e+00 5.950359e-01 4.049641e-01 0.000000e+00
 0.000000e+00 0.000000e+00 0.000000e+00 7.550862e-01 2.449137e-01
 0.000000e+00 0.000000e+00 0.000000e+00 0.000000e+00 0.000000e+00
<ENDHMM>
~h "s"
<BEGINHMM>
<NUMSTATES> 5
<STATE> 2
<MEAN> 39
 -1.908386e+00 2.829785e-01 2.075478e+00 -1.024200e+00 -4.396261e+00 -2.880428e+00 -6.734312e+00 1.598635e-01 -3.750616e+00 -1.124098e+00 -5.152884e-01 -5.317097e+00 6.087564e+01 1.991586e-02 -2.229004e-02 1.154599e-02 5.665410e-03 -2.317985e-02 -3.901097e-03 -1.028134e-02 7.996561e-03 -4.229506e-03 5.074805e-04 -1.584238e-03 -2.495992e-03 2.368147e-03 7.844999e-03 -4.546946e-03 -5.662251e-04 1.822464e-03 -5.872923e-03 5.684265e-03 -2.936292e-04 1.048942e-03 -1.009830e-03 1.692430e-03 -5.467962e-04 -1.203062e-03 -2.108719e-03
<VARIANCE> 39
 4.599621e+01 5.589578e+01 7.168436e+01 4.855807e+01 6.967760e+01 6.898028e+01 6.366905e+01 5.900287e+01 5.938294e+01 4.464151e+01 4.477153e+01 4.439159e+01 5.556903e+01 2.555248e+00 2.782580e+00 2.728651e+00 2.760364e+00 3.573669e+00 3.221229e+00 3.667110e+00 3.638443e+00 3.199835e+00 2.815222e+00 2.892471e+00 2.514959e+00 1.833872e+00 3.862967e-01 4.262336e-01 4.301797e-01 4.826288e-01 6.041206e-01 5.648716e-01 6.538405e-01 6.670612e-01 5.707830e-01 5.270156e-01 5.399231e-01 4.630113e-01 2.741415e-01
<GCONST> 1.285296e+02
<STATE> 3
<MEAN> 39
 -1.835156e+00 2.119862e-01 2.104259e+00 -1.007808e+00 -4.467437e+00 -2.875642e+00 -6.759473e+00 1.898848e-01 -3.765677e+00 -1.119011e+00 -5.220019e-01 -5.325820e+00 6.087738e+01 3.799322e-02 -3.008392e-02 8.337274e-03 1.073553e-02 -3.463812e-02 1.035216e-02 -1.033137e-02 1.097441e-02 -6.549295e-03 5.283099e-03 -3.566860e-03 -3.690234e-03 -4.793929e-03 7.018885e-03 -2.834827e-03 -1.704087e-03 2.153384e-03 -4.167430e-03 5.681177e-03 2.383487e-05 9.496456e-04 -8.404113e-04 2.325165e-03 -9.703165e-04 -3.900183e-04 -2.981004e-03
<VARIANCE> 39
 4.528865e+01 5.565461e+01 7.177034e+01 4.839460e+01 6.941313e+01 6.885786e+01 6.341587e+01 5.935464e+01 5.956519e+01 4.456120e+01 4.497291e+01 4.416294e+01 5.561679e+01 2.516141e+00 2.767225e+00 2.721923e+00 2.744420e+00 3.541953e+00 3.219544e+00 3.637805e+00 3.637077e+00 3.191474e+00 2.789961e+00 2.883653e+00 2.498809e+00 1.836231e+00 3.809032e-01 4.247638e-01 4.290274e-01 4.788628e-01 5.989652e-01 5.654002e-01 6.497610e-01 6.641818e-01 5.699573e-01 5.225599e-01 5.378973e-01 4.599716e-01 2.744209e-01
<GCONST> 1.283729e+02
<STATE> 4
<MEAN> 39
 -1.511307e+00 8.087403e-02 1.735013e+00 -1.012391e+00 -4.536848e+00 -2.426691e+00 -6.443058e+00 5.291500e-01 -4.575134e+00 -7.451789e-01 -3.334444e-01 -5.393290e+00 6.053949e+01 4.488350e-02 -2.766843e-02 1.298335e-03 1.431048e-02 -3.526102e-02 2.237152e-02 -8.573457e-03 1.115643e-02 -8.788203e-03 1.033167e-02 -3.530159e-03 -4.167764e-03 -1.323033e-02 3.758237e-03 -5.384592e-04 -1.995438e-03 1.604337e-03 -1.639368e-03 4.365362e-03 -2.402047e-04 4.918516e-04 -6.795947e-04 1.979504e-03 -3.042754e-04 -2.485284e-04 -2.896423e-03
<VARIANCE> 39
 4.177336e+01 5.586379e+01 7.025985e+01 5.348990e+01 6.755267e+01 6.969440e+01 6.114537e+01 5.857729e+01 6.379357e+01 4.428223e+01 4.441275e+01 4.363332e+01 6.554712e+01 2.249680e+00 2.607981e+00 2.630198e+00 2.778738e+00 3.410973e+00 3.210235e+00 3.429006e+00 3.629142e+00 3.180790e+00 2.747758e+00 2.849397e+00 2.403116e+00 1.893994e+00 3.448407e-01 4.016494e-01 4.176174e-01 4.758730e-01 5.812338e-01 5.649180e-01 6.171545e-01 6.640018e-01 5.742860e-01 5.162716e-01 5.341244e-01 4.436320e-01 2.816478e-01
<GCONST> 1.278855e+02
<TRANSP> 5
 0.000000e+00 1.000000e+00 0.000000e+00 0.000000e+00 0.000000e+00
 0.000000e+00 5.992202e-01 4.007799e-01 0.000000e+00 0.000000e+00
 0.000000e+00 0.000000e+00 5.992148e-01 4.007851e-01 0.000000e+00
 0.000000e+00 0.000000e+00 0.000000e+00 7.482221e-01 2.517779e-01
 0.000000e+00 0.000000e+00 0.000000e+00 0.000000e+00 0.000000e+00
<ENDHMM>
~h "t"
<BEGINHMM>
<NUMSTATES> 5
<STATE> 2
<MEAN> 39
 6.349742e-02 -3.182200e-01 1.236049e+00 -1.148257e+00 -5.351574e+00 -8.376495e-01 -7.387156e+00 2.907656e-01 -4.014776e+00 -9.758106e-02 -5.683337e-01 -5.537465e+00 5.955983e+01 3.587681e-03 -1.786703e-02 -3.142752e-03 1.099280e-03 7.587122e-04 5.368976e-03 -2.704604e-03 1.207777e-02 6.571123e-03 1.905812e-03 -5.093524e-03 5.299977e-03 6.807297e-03 9.537064e-04 2.041450e-05 -1.458524e-03 1.235050e-03 1.213751e-04 2.120398e-03 1.177186e-04 -2.049148e-04 5.703949e-04 -7.111168e-04 9.115975e-06 -1.078054e-03 -8.555499e-04
<VARIANCE> 39
 2.464366e+01 5.008118e+01 6.481943e+01 5.931158e+01 5.413068e+01 6.460155e+01 5.758896e+01 6.011006e+01 5.865266e+01 4.553366e+01 4.545294e+01 4.575161e+01 6.028874e+01 1.360512e+00 2.372033e+00 2.594023e+00 3.233889e+00 3.010542e+00 3.304657e+00 3.482927e+00 3.600976e+00 3.267195e+00 2.845450e+00 2.894610e+00 2.571441e+00 2.409457e+00 2.323429e-01 3.759237e-01 4.115045e-01 5.473667e-01 5.493693e-01 6.038674e-01 6.421072e-01 6.654388e-01 5.963103e-01 5.402972e-01 5.399930e-01 4.791947e-01 3.684635e-01
<GCONST> 1.268644e+02
<STATE> 3
<MEAN> 39
 7.297908e-02 -3.537451e-01 1.219509e+00 -1.132158e+00 -5.347539e+00 -8.154536e-01 -7.387949e+00 3.214420e-01 -3.995587e+00 -1.031924e-01 -5.894805e-01 -5.522142e+00 5.956093e+01 3.403969e-03 -1.621041e-02 -6.896415e-03 5.837838e-03 2.731941e-03 9.094726e-03 -5.460277e-04 1.006576e-02 9.279592e-03 -2.203526e-03 -5.657329e-03 5.823147e-03 2.320351e-03 -1.766563e-04 8.357135e-04 -1.097382e-03 1.858868e-03 2.684499e-04 1.685351e-03 1.780025e-04 -1.102261e-03 1.354980e-03 -1.632873e-03 2.250163e-07 2.882826e-04 -2.070991e-03
<VARIANCE> 39
 2.447300e+01 5.056533e+01 6.466754e+01 5.937994e+01 5.391725e+01 6.424226e+01 5.732237e+01 6.010506e+01 5.875680e+01 4.545432e+01 4.528471e+01 4.559043e+01 6.081778e+01 1.349202e+00 2.360816e+00 2.577840e+00 3.217138e+00 2.990324e+00 3.281854e+00 3.462164e+00 3.582560e+00 3.267144e+00 2.833950e+00 2.890986e+00 2.551472e+00 2.388650e+00 2.301480e-01 3.744701e-01 4.091307e-01 5.433919e-01 5.462375e-01 5.996000e-01 6.377755e-01 6.613224e-01 5.964842e-01 5.372226e-01 5.392411e-01 4.746400e-01 3.659101e-01
<GCONST> 1.267065e+02
<STATE> 4
<MEAN> 39
 -2.554178e-02 -2.004648e-01 1.093149e+00 -9.841749e-01 -5.208644e+00 -5.444989e-01 -7.030037e+00 7.270986e-01 -4.495139e+00 -5.107000e-02 -6.135496e-01 -5.405029e+00 5.934846e+01 -1.656145e-04 -9.759245e-03 -8.735815e-03 1.223248e-02 5.229827e-03 9.073761e-03 2.516763e-03 6.628630e-03 1.365299e-02 -5.467397e-03 -7.111517e-03 8.394185e-03 -5.802408e-03 -6.132567e-04 1.317668e-03 8.167989e-05 1.877026e-03 -3.922248e-05 6.277919e-04 -1.725305e-04 -6.988166e-04 1.553848e-03 -9.371889e-04 -3.924613e-04 6.402900e-04 -2.074038e-03
<VARIANCE> 39
 2.473468e+01 5.241872e+01 6.364072e+01 6.293759e+01 5.445377e+01 6.455339e+01 5.553220e+01 5.989846e+01 6.108930e+01 4.432187e+01 4.400871e+01 4.413548e+01 6.821198e+01 1.332912e+00 2.263540e+00 2.531459e+00 3.132859e+00 2.977985e+00 3.212353e+00 3.290939e+00 3.536258e+00 3.235470e+00 2.777661e+00 2.819259e+00 2.442457e+00 2.277302e+00 2.277344e-01 3.556425e-01 4.026906e-01 5.292877e-01 5.420295e-01 5.843264e-01 6.064350e-01 6.532224e-01 5.931852e-01 5.262465e-01 5.284157e-01 4.535549e-01 3.449926e-01
<GCONST> 1.261565e+02
<TRANSP> 5
 0.000000e+00 1.000000e+00 0.000000e+00 0.000000e+00 0.000000e+00
 0.000000e+00 5.984462e-01 4.015538e-01 0.000000e+00 0.000000e+00
 0.000000e+00 0.000000e+00 5.984472e-01 4.015527e-01 0.000000e+00
 0.000000e+00 0.000000e+00 0.000000e+00 7.436759e-01 2.563241e-01
 0.000000e+00 0.000000e+00 0.000000e+00 0.000000e+00 0.000000e+00
<ENDHMM>
~h "u"
<BEGINHMM>
<NUMSTATES> 5
<STATE> 2
<MEAN> 39
 8.058307e-01 4.759091e-01 1.435560e+00 -1.490609e+00 -5.578988e+00 8.092302e-02 -8.659971e+00 -8.711945e-01 -4.975171e+00 -1.356958e-01 -3.123972e-02 -5.286838e+00 5.971631e+01 -1.040664e-02 -1.574716e-02 -8.375168e-03 2.325108e-02 3.152427e-03 -1.030420e-02 1.172040e-02 1.710419e-02 1.468009e-02 1.662356e-03 -8.104997e-03 -5.684741e-03 -1.292662e-03 -1.283445e-03 3.150268e-04 1.230767e-03 3.142750e-03 -6.234128e-05 -1.085671e-03 3.685080e-03 1.869806e-03 5.552982e-04 -1.870490e-03 -2.234574e-03 -2.818165e-04 -1.976734e-03
<VARIANCE> 39
 2.710170e+01 4.887851e+01 6.384033e+01 6.438319e+01 6.275127e+01 6.341032e+01 6.679071e+01 6.195992e+01 5.686647e+01 4.729533e+01 4.961436e+01 4.563373e+01 5.547616e+01 1.439334e+00 2.247522e+00 2.496108e+00 3.413685e+00 3.257615e+00 3.224433e+00 3.706055e+00 3.703037e+00 3.347812e+00 3.057701e+00 3.166657e+00 2.537335e+00 1.943988e+00 2.385395e-01 3.571786e-01 4.088613e-01 5.800752e-01 5.884558e-01 5.808474e-01 6.726026e-01 6.780010e-01 6.134607e-01 5.749848e-01 5.947773e-01 4.702154e-01 2.922048e-01
<GCONST> 1.274972e+02
<STATE> 3
<MEAN> 39
 7.741621e-01 4.334502e-01 1.415084e+00 -1.417166e+00 -5.576778e+00 5.565089e-02 -8.612194e+00 -8.222784e-01 -4.931263e+00 -1.404468e-01 -5.836216e-02 -5.297114e+00 5.970272e+01 -1.304237e-02 -1.534355e-02 -5.480045e-03 2.874984e-02 2.215656e-03 -1.137682e-02 1.978512e-02 2.062981e-02 1.611129e-02 -2.807832e-03 -1.245749e-02 -6.590992e-03 -5.180982e-03 -9.865651e-04 3.142711e-04 1.463825e-03 1.949629e-03 -5.204441e-04 -3.965529e-04 3.066401e-03 1.754834e-03 3.815322e-04 -1.500121e-03 -1.812136e-03 -4.382553e-04 -1.576337e-03
<VARIANCE> 39
 2.715765e+01 4.896861e+01 6.340605e+01 6.373041e+01 6.255183e+01 6.357658e+01 6.658907e+01 6.225290e+01 5.651668e+01 4.717631e+01 4.944959e+01 4.588908e+01 5.583776e+01 1.430672e+00 2.253695e+00 2.485691e+00 3.359117e+00 3.241423e+00 3.209694e+00 3.684081e+00 3.705966e+00 3.329912e+00 3.037497e+00 3.154500e+00 2.537460e+00 1.933350e+00 2.370281e-01 3.576379e-01 4.071232e-01 5.710566e-01 5.858813e-01 5.779943e-01 6.696554e-01 6.775306e-01 6.096325e-01 5.722874e-01 5.917634e-01 4.705546e-01 2.909237e-01
<GCONST> 1.273666e+02
<STATE> 4
<MEAN> 39
 5.087874e-01 4.338092e-01 1.182828e+00 -1.244614e+00 -5.395988e+00 2.007723e-02 -7.919301e+00 -4.204710e-01 -5.401629e+00 2.295753e-02 -2.638438e-02 -5.265137e+00 5.940877e+01 -1.404826e-02 -1.275700e-02 -3.405880e-03 2.810345e-02 6.284411e-04 -8.030503e-03 2.609023e-02 2.128273e-02 1.587649e-02 -7.054928e-03 -1.386691e-02 -5.314899e-03 -8.908996e-03 -5.252238e-04 2.048923e-04 7.442779e-04 6.341542e-04 -2.795319e-04 -8.079794e-05 2.250981e-03 1.315007e-03 2.225189e-05 -7.326560e-04 -9.517299e-04 9.234045e-06 -1.134178e-03
<VARIANCE> 39
 2.757321e+01 4.991552e+01 6.220711e+01 6.509193e+01 6.192902e+01 6.450140e+01 6.745457e+01 6.193704e+01 5.911634e+01 4.657767e+01 4.842202e+01 4.623338e+01 6.254924e+01 1.400729e+00 2.201552e+00 2.432103e+00 3.214702e+00 3.191702e+00 3.175524e+00 3.516746e+00 3.662628e+00 3.284609e+00 2.971113e+00 3.068572e+00 2.465998e+00 1.920609e+00 2.338453e-01 3.476907e-01 3.993621e-01 5.448795e-01 5.756643e-01 5.722330e-01 6.425620e-01 6.709884e-01 6.025798e-01 5.611618e-01 5.767578e-01 4.577544e-01 2.883195e-01
<GCONST> 1.269741e+02
<TRANSP> 5
 0.000000e+00 1.000000e+00 0.000000e+00 0.000000e+00 0.000000e+00
 0.000000e+00 6.020709e-01 3.979291e-01 0.000000e+00 0.000000e+00
 0.000000e+00 0.000000e+00 6.020735e-01 3.979265e-01 0.000000e+00
 0.000000e+00 0.000000e+00 0.000000e+00 7.440363e-01 2.559637e-01
 0.000000e+00 0.000000e+00 0.000000e+00 0.000000e+00 0.000000e+00
<ENDHMM>
~h "v"
<BEGINHMM>
<NUMSTATES> 5
<STATE> 2
<MEAN> 39
 7.903662e-04 -6.079456e-01 1.670089e+00 -6.705837e-01 -5.929818e+00 -8.820225e-01 -6.906881e+00 5.931143e-01 -4.574426e+00 -3.940755e-01 -3.854154e-01 -5.847453e+00 5.993814e+01 5.024984e-04 -6.478592e-05 9.522401e-04 -6.048587e-04 -1.305029e-03 -9.148303e-04 -9.999124e-04 -6.995694e-04 3.150678e-04 8.832195e-04 -1.229102e-04 -1.829845e-05 4.304752e-04 -1.024714e-04 5.090495e-05 -4.314321e-05 5.499199e-04 2.475645e-04 2.544455e-04 -3.161734e-04 -1.009587e-04 -7.179174e-05 -5.594532e-04 -1.336834e-04 -6.698545e-06 -3.952787e-04
<VARIANCE> 39
 2.681136e+01 5.325134e+01 6.824250e+01 5.887592e+01 6.062508e+01 6.608533e+01 5.928268e+01 6.068991e+01 5.916120e+01 4.597362e+01 4.705821e+01 4.804106e+01 6.619385e+01 1.372020e+00 2.288023e+00 2.566274e+00 2.987463e+00 3.078158e+00 3.116328e+00 3.250192e+00 3.738113e+00 3.266875e+00 2.829993e+00 2.967949e+00 2.476121e+00 2.021681e+00 2.264445e-01 3.584008e-01 4.122588e-01 5.086471e-01 5.519696e-01 5.562619e-01 5.942494e-01 6.847889e-01 5.904057e-01 5.307208e-01 5.528100e-01 4.553457e-01 3.018115e-01
<GCONST> 1.265182e+02
<STATE> 3
<MEAN> 39
 7.903662e-04 -6.079456e-01 1.670089e+00 -6.705837e-01 -5.929818e+00 -8.820225e-01 -6.906881e+00 5.931143e-01 -4.574426e+00 -3.940755e-01 -3.854154e-01 -5.847453e+00 5.993814e+01 5.024984e-04 -6.478592e-05 9.522401e-04 -6.048587e-04 -1.305029e-03 -9.148303e-04 -9.999124e-04 -6.995694e-04 3.150678e-04 8.832195e-04 -1.229102e-04 -1.829845e-05 4.304752e-04 -1.024714e-04 5.090495e-05 -4.314321e-05 5.499199e-04 2.475645e-04 2.544455e-04 -3.161734e-04 -1.009587e-04 -7.179174e-05 -5.594532e-04 -1.336834e-04 -6.698545e-06 -3.952787e-04
<VARIANCE> 39
 2.681136e+01 5.325134e+01 6.824250e+01 5.887592e+01 6.062508e+01 6.608533e+01 5.928268e+01 6.068991e+01 5.916120e+01 4.597362e+01 4.705821e+01 4.804106e+01 6.619385e+01 1.372020e+00 2.288023e+00 2.566274e+00 2.987463e+00 3.078158e+00 3.116328e+00 3.250192e+00 3.738113e+00 3.266875e+00 2.829993e+00 2.967949e+00 2.476121e+00 2.021681e+00 2.264445e-01 3.584008e-01 4.122588e-01 5.086471e-01 5.519696e-01 5.562619e-01 5.942494e-01 6.847889e-01 5.904057e-01 5.307208e-01 5.528100e-01 4.553457e-01 3.018115e-01
<GCONST> 1.265182e+02
<STATE> 4
<MEAN> 39
 7.903662e-04 -6.079456e-01 1.670089e+00 -6.705837e-01 -5.929818e+00 -8.820225e-01 -6.906881e+00 5.931143e-01 -4.574426e+00 -3.940755e-01 -3.854154e-01 -5.847453e+00 5.993814e+01 5.024984e-04 -6.478592e-05 9.522401e-04 -6.048587e-04 -1.305029e-03 -9.148303e-04 -9.999124e-04 -6.995694e-04 3.150678e-04 8.832195e-04 -1.229102e-04 -1.829845e-05 4.304752e-04 -1.024714e-04 5.090495e-05 -4.314321e-05 5.499199e-04 2.475645e-04 2.544455e-04 -3.161734e-04 -1.009587e-04 -7.179174e-05 -5.594532e-04 -1.336834e-04 -6.698545e-06 -3.952787e-04
<VARIANCE> 39
 2.681136e+01 5.325134e+01 6.824250e+01 5.887592e+01 6.062508e+01 6.608533e+01 5.928268e+01 6.068991e+01 5.916120e+01 4.597362e+01 4.705821e+01 4.804106e+01 6.619385e+01 1.372020e+00 2.288023e+00 2.566274e+00 2.987463e+00 3.078158e+00 3.116328e+00 3.250192e+00 3.738113e+00 3.266875e+00 2.829993e+00 2.967949e+00 2.476121e+00 2.021681e+00 2.264445e-01 3.584008e-01 4.122588e-01 5.086471e-01 5.519696e-01 5.562619e-01 5.942494e-01 6.847889e-01 5.904057e-01 5.307208e-01 5.528100e-01 4.553457e-01 3.018115e-01
<GCONST> 1.265182e+02
<TRANSP> 5
 0.000000e+00 1.000000e+00 0.000000e+00 0.000000e+00 0.000000e+00
 0.000000e+00 6.000000e-01 4.000000e-01 0.000000e+00 0.000000e+00
 0.000000e+00 0.000000e+00 6.000000e-01 4.000000e-01 0.000000e+00
 0.000000e+00 0.000000e+00 0.000000e+00 7.000000e-01 3.000000e-01
 0.000000e+00 0.000000e+00 0.000000e+00 0.000000e+00 0.000000e+00
<ENDHMM>
~h "w"
<BEGINHMM>
<NUMSTATES> 5
<STATE> 2
<MEAN> 39
 5.463720e-01 5.300695e-01 -1.273253e+00 -1.684353e+00 -4.801564e+00 2.488015e+00 -7.073690e+00 -1.289963e-01 -2.609149e+00 -4.255417e-01 3.112250e-01 -4.658161e+00 5.786724e+01 4.493370e-02 -3.981286e-02 -2.042009e-02 -1.054763e-01 -1.832773e-02 5.135196e-02 -5.544037e-02 -2.451557e-03 -1.014443e-02 1.687993e-02 1.989811e-02 -1.976101e-03 5.485402e-02 4.563725e-03 -1.650658e-03 1.728736e-03 1.907248e-03 -5.458422e-03 -7.122847e-04 -6.161410e-03 2.555937e-03 7.348813e-04 1.458418e-03 -8.641188e-03 -3.116692e-03 1.458689e-03
<VARIANCE> 39
 2.776873e+01 4.776392e+01 5.304087e+01 8.443218e+01 5.730326e+01 5.723401e+01 5.759208e+01 5.470874e+01 4.371843e+01 4.572876e+01 4.519200e+01 4.658007e+01 6.730737e+01 1.113160e+00 2.100156e+00 1.985922e+00 3.050912e+00 2.484311e+00 2.736746e+00 2.931392e+00 3.040729e+00 2.868376e+00 2.630353e+00 2.683363e+00 2.508393e+00 1.735897e+00 1.754457e-01 3.233119e-01 3.158388e-01 4.582005e-01 4.421427e-01 4.684223e-01 5.213928e-01 5.513422e-01 5.061018e-01 4.569962e-01 4.843275e-01 4.621728e-01 2.436147e-01
<GCONST> 1.221246e+02
<STATE> 3
<MEAN> 39
 6.890358e-01 3.750480e-01 -1.305557e+00 -2.022195e+00 -4.862446e+00 2.601239e+00 -7.259303e+00 -1.378381e-01 -2.627750e+00 -3.293998e-01 3.244840e-01 -4.709041e+00 5.809549e+01 5.790400e-02 -4.817963e-02 -2.173912e-02 -1.001027e-01 -3.040151e-02 4.898422e-02 -6.344790e-02 9.140255e-03 -8.385914e-03 2.904995e-02 -3.208110e-03 -1.746074e-02 6.120356e-02 2.558613e-03 -1.144258e-03 -4.949722e-04 4.508583e-03 -4.007865e-03 -2.335940e-03 8.265352e-04 2.971709e-03 -6.095001e-04 3.745436e-03 -6.888221e-03 -5.579312e-03 2.001126e-04
<VARIANCE> 39
 2.771782e+01 4.949787e+01 5.198931e+01 8.728665e+01 5.689348e+01 5.676714e+01 5.749591e+01 5.550589e+01 4.422011e+01 4.651440e+01 4.640209e+01 4.701854e+01 6.730784e+01 1.068892e+00 2.120918e+00 1.950750e+00 3.239049e+00 2.443214e+00 2.723135e+00 3.025480e+00 3.061858e+00 2.886788e+00 2.655548e+00 2.719404e+00 2.528478e+00 1.772133e+00 1.685939e-01 3.243670e-01 3.100218e-01 4.796738e-01 4.363621e-01 4.691711e-01 5.376279e-01 5.523964e-01 5.085015e-01 4.590864e-01 4.907728e-01 4.608011e-01 2.401978e-01
<GCONST> 1.223363e+02
<STATE> 4
<MEAN> 39
 7.894750e-01 1.837267e-01 -1.516897e+00 -2.500790e+00 -4.674170e+00 2.914655e+00 -7.314949e+00 -3.072083e-02 -2.627464e+00 7.892638e-03 2.357344e-01 -4.768049e+00 5.828854e+01 7.646074e-02 -6.894124e-02 -3.293740e-02 -1.033974e-01 -2.804739e-02 4.752459e-02 -6.510825e-02 1.312820e-02 -1.160519e-02 5.168053e-02 -2.340721e-02 -4.094534e-02 7.773449e-02 1.867443e-04 1.315397e-03 -2.076212e-03 7.143638e-03 -2.576702e-04 -3.542193e-03 6.252450e-03 -3.836792e-04 -2.348791e-03 1.479067e-03 -3.486556e-03 -4.305902e-03 -2.654976e-03
<VARIANCE> 39
 2.900635e+01 5.314672e+01 4.898063e+01 9.065388e+01 5.627335e+01 5.583586e+01 5.881545e+01 5.582026e+01 4.438305e+01 4.813333e+01 4.870226e+01 4.731543e+01 6.794141e+01 1.034577e+00 2.146802e+00 1.869843e+00 3.369954e+00 2.410192e+00 2.657638e+00 3.076267e+00 3.027527e+00 2.881746e+00 2.662078e+00 2.734164e+00 2.525135e+00 1.778968e+00 1.591574e-01 3.247956e-01 2.958730e-01 4.901350e-01 4.305282e-01 4.623149e-01 5.432233e-01 5.433125e-01 5.037249e-01 4.589850e-01 4.896654e-01 4.515614e-01 2.312089e-01
<GCONST> 1.223006e+02
<TRANSP> 5
 0.000000e+00 1.000000e+00 0.000000e+00 0.000000e+00 0.000000e+00
 0.000000e+00 6.165707e-01 3.834293e-01 0.000000e+00 0.000000e+00
 0.000000e+00 0.000000e+00 6.165704e-01 3.834296e-01 0.000000e+00
 0.000000e+00 0.000000e+00 0.000000e+00 7.301978e-01 2.698022e-01
 0.000000e+00 0.000000e+00 0.000000e+00 0.000000e+00 0.000000e+00
<ENDHMM>
~h "y"
<BEGINHMM>
<NUMSTATES> 5
<STATE> 2
<MEAN> 39
 -4.941508e-01 -1.241462e+00 3.673063e+00 -7.694526e-01 -7.341695e+00 -2.497384e+00 -6.795369e+00 2.231372e+00 -4.661670e+00 -9.792974e-01 -1.077996e-01 -5.380239e+00 6.059710e+01 4.850153e-03 1.346427e-02 -1.301953e-02 1.402233e-03 8.751418e-03 -2.534657e-02 -2.897443e-02 2.392247e-03 2.717485e-02 -3.951450e-03 -9.489562e-03 -1.849662e-02 1.182376e-02 3.199538e-03 -2.011299e-03 -8.297152e-03 1.652867e-03 1.674136e-03 3.722070e-03 2.197294e-03 -1.390483e-03 1.669269e-03 4.003140e-03 3.694788e-04 2.423350e-03 -2.995039e-03
<VARIANCE> 39
 2.055649e+01 5.626178e+01 8.661192e+01 5.611515e+01 6.013133e+01 6.521477e+01 6.147575e+01 6.366269e+01 5.590836e+01 4.947392e+01 4.717084e+01 4.639676e+01 7.598300e+01 9.973409e-01 2.035901e+00 2.951134e+00 2.459362e+00 2.963416e+00 3.041075e+00 2.897456e+00 3.630455e+00 3.005093e+00 2.694603e+00 2.752621e+00 2.404835e+00 1.722818e+00 1.628964e-01 2.996852e-01 4.204025e-01 4.062261e-01 5.179744e-01 5.148886e-01 5.215105e-01 6.380183e-01 5.325850e-01 4.935201e-01 4.968531e-01 4.335596e-01 2.252970e-01
<GCONST> 1.239092e+02
<STATE> 3
<MEAN> 39
 -4.642608e-01 -1.208100e+00 3.593932e+00 -7.622527e-01 -7.313689e+00 -2.547022e+00 -6.869853e+00 2.238638e+00 -4.572804e+00 -9.798614e-01 -1.355474e-01 -5.416950e+00 6.062053e+01 1.180245e-02 9.768176e-03 -3.437320e-02 8.661568e-03 9.540563e-03 -1.390655e-02 -2.010551e-02 -2.420437e-03 3.041874e-02 4.344930e-03 -1.036491e-02 -1.372570e-02 1.959603e-03 3.549816e-03 -1.805609e-03 -6.172800e-03 2.510160e-03 -1.399525e-03 5.178651e-03 2.667936e-03 -2.574526e-03 -3.990906e-04 3.565144e-03 4.698557e-04 1.225972e-03 -3.303978e-03
<VARIANCE> 39
 2.099976e+01 5.704797e+01 8.577667e+01 5.580662e+01 6.085424e+01 6.466152e+01 6.167488e+01 6.338935e+01 5.587621e+01 4.931638e+01 4.837561e+01 4.644724e+01 7.555322e+01 1.015561e+00 2.048311e+00 2.899150e+00 2.446990e+00 2.992611e+00 3.018210e+00 2.907763e+00 3.627386e+00 2.983973e+00 2.700115e+00 2.787384e+00 2.408092e+00 1.722429e+00 1.649412e-01 3.029375e-01 4.181097e-01 4.040456e-01 5.228963e-01 5.089045e-01 5.237789e-01 6.408790e-01 5.302816e-01 4.930884e-01 5.036110e-01 4.335884e-01 2.265632e-01
<GCONST> 1.239964e+02
<STATE> 4
<MEAN> 39
 -6.125886e-01 -1.024984e+00 2.725138e+00 -7.451075e-01 -6.387568e+00 -2.107821e+00 -6.095020e+00 2.205396e+00 -5.148607e+00 -4.676594e-01 -4.681343e-01 -4.990000e+00 6.009032e+01 1.388400e-02 6.889440e-03 -4.456036e-02 1.880297e-02 1.010835e-02 5.486200e-03 -4.456909e-03 -1.077509e-02 2.476997e-02 4.614615e-03 -1.033934e-02 -8.097676e-03 -1.010608e-02 1.769613e-03 -7.842216e-04 -2.795815e-03 2.372548e-03 -4.059130e-04 4.517136e-03 2.356684e-03 -2.990572e-03 -1.779037e-03 1.039439e-03 5.277626e-04 1.296282e-04 -2.413267e-03
<VARIANCE> 39
 2.183425e+01 5.655445e+01 7.952867e+01 5.771957e+01 6.100896e+01 6.510593e+01 6.190544e+01 6.159493e+01 5.735680e+01 4.690434e+01 4.804187e+01 4.487527e+01 7.938223e+01 1.061177e+00 1.959748e+00 2.664083e+00 2.352454e+00 2.839696e+00 2.921253e+00 2.769243e+00 3.455016e+00 2.890361e+00 2.570912e+00 2.663523e+00 2.273876e+00 1.675529e+00 1.717840e-01 2.909462e-01 3.926042e-01 3.903609e-01 4.906803e-01 4.988517e-01 5.033455e-01 6.171811e-01 5.174279e-01 4.739806e-01 4.893240e-01 4.134661e-01 2.237979e-01
<GCONST> 1.230243e+02
<TRANSP> 5
 0.000000e+00 1.000000e+00 0.000000e+00 0.000000e+00 0.000000e+00
 0.000000e+00 6.115375e-01 3.884626e-01 0.000000e+00 0.000000e+00
 0.000000e+00 0.000000e+00 6.115370e-01 3.884630e-01 0.000000e+00
 0.000000e+00 0.000000e+00 0.000000e+00 7.788678e-01 2.211322e-01
 0.000000e+00 0.000000e+00 0.000000e+00 0.000000e+00 0.000000e+00
<ENDHMM>
~h "z"
<BEGINHMM>
<NUMSTATES> 5
<STATE> 2
<MEAN> 39
 -1.823581e+00 1.564906e+00 3.636751e+00 8.150091e-01 -4.176188e+00 7.456751e-01 -8.142138e+00 2.291843e+00 -3.780457e+00 -5.936363e-01 -6.446745e-01 -3.245344e+00 5.577889e+01 3.012077e-02 -1.341997e-01 2.282193e-02 -1.297209e-01 2.501302e-02 1.457228e-01 -6.341895e-02 7.031529e-02 6.481094e-03 2.808582e-02 -5.483406e-03 -2.799089e-02 4.848999e-02 1.747267e-03 -2.199140e-03 -7.553364e-03 -2.484867e-03 8.329235e-04 -3.919922e-03 8.201490e-03 2.243568e-02 3.726705e-03 -5.659705e-03 -1.940820e-02 7.584025e-03 -3.661571e-03
<VARIANCE> 39
 1.909687e+01 3.937497e+01 7.366920e+01 6.851713e+01 3.072757e+01 4.964738e+01 6.551243e+01 4.591254e+01 4.317926e+01 4.912658e+01 2.801885e+01 4.520021e+01 5.974251e+01 7.328381e-01 1.625494e+00 1.893992e+00 2.164485e+00 1.460880e+00 2.087877e+00 2.900598e+00 2.855003e+00 2.522913e+00 2.558826e+00 2.732814e+00 2.089837e+00 7.426358e-01 1.188262e-01 2.308731e-01 3.151210e-01 2.775856e-01 2.847511e-01 3.500680e-01 4.859477e-01 5.004055e-01 4.604887e-01 4.748814e-01 5.749728e-01 4.035793e-01 9.084901e-02
<GCONST> 1.140525e+02
<STATE> 3
<MEAN> 39
 -1.751046e+00 1.123323e+00 3.710477e+00 5.455968e-01 -4.107765e+00 1.017458e+00 -8.317975e+00 2.574625e+00 -3.765487e+00 -6.238214e-01 -7.280833e-01 -3.213660e+00 5.593549e+01 4.060706e-02 -1.309057e-01 -5.892831e-03 -1.201121e-01 1.819814e-02 1.353439e-01 -3.827147e-02 1.241392e-01 1.386262e-02 7.467543e-03 -6.120092e-02 -1.139432e-02 3.103347e-02 2.060291e-03 2.247523e-03 -1.206427e-02 6.914254e-03 1.659808e-04 -3.744414e-03 9.804137e-03 1.582781e-02 1.556136e-03 -1.176000e-02 -1.892393e-02 6.975370e-03 -6.308794e-03
<VARIANCE> 39
 1.835439e+01 3.889750e+01 7.310365e+01 7.007330e+01 3.135317e+01 4.958175e+01 6.457152e+01 4.839624e+01 4.117180e+01 5.058543e+01 2.860008e+01 4.851269e+01 6.002570e+01 6.971869e-01 1.601289e+00 1.864587e+00 2.101006e+00 1.444525e+00 2.046026e+00 2.940325e+00 2.923704e+00 2.538999e+00 2.570305e+00 2.641985e+00 2.069449e+00 7.332927e-01 1.140606e-01 2.283376e-01 3.129203e-01 2.700309e-01 2.838911e-01 3.454539e-01 4.976959e-01 5.027552e-01 4.594917e-01 4.673820e-01 5.497707e-01 3.979029e-01 8.794020e-02
<GCONST> 1.138164e+02
<STATE> 4
<MEAN> 39
 -2.742473e+00 1.925052e+00 5.789424e-01 3.001467e+00 -3.064197e+00 2.030047e+00 -5.730637e+00 4.506079e+00 -2.564271e+00 -2.524755e+00 -1.852452e+00 -6.285763e-01 5.233443e+01 4.235780e-02 -4.717489e-02 -3.189616e-02 -3.186291e-02 -1.295256e-02 5.684048e-02 -8.640183e-03 4.982209e-02 -5.408990e-03 -7.914756e-03 -7.789648e-02 -3.278987e-02 1.920407e-02 6.716673e-04 4.487426e-03 -6.289208e-03 6.732428e-03 2.912768e-04 -2.091276e-03 4.180904e-03 6.726013e-04 -8.895065e-04 -5.364569e-03 -7.861569e-03 8.608270e-04 -2.858819e-03
<VARIANCE> 39
 1.143233e+01 2.473769e+01 5.944373e+01 5.003976e+01 2.203522e+01 3.618363e+01 4.892853e+01 4.120145e+01 2.867528e+01 3.866263e+01 2.387147e+01 3.926574e+01 4.848895e+01 4.185071e-01 1.061510e+00 1.400352e+00 1.533785e+00 1.292590e+00 1.839504e+00 2.482778e+00 2.690545e+00 1.885168e+00 2.168167e+00 2.140884e+00 1.655484e+00 4.871801e-01 7.055083e-02 1.576062e-01 2.260601e-01 2.347016e-01 2.641395e-01 3.228291e-01 4.541475e-01 5.013952e-01 3.473106e-01 4.099276e-01 4.302884e-01 3.354389e-01 5.521908e-02
<GCONST> 1.038592e+02
<TRANSP> 5
 0.000000e+00 1.000000e+00 0.000000e+00 0.000000e+00 0.000000e+00
 0.000000e+00 6.888765e-01 3.111235e-01 0.000000e+00 0.000000e+00
 0.000000e+00 0.000000e+00 6.888766e-01 3.111233e-01 0.000000e+00
 0.000000e+00 0.000000e+00 0.000000e+00 8.825406e-01 1.174595e-01
 0.000000e+00 0.000000e+00 0.000000e+00 0.000000e+00 0.000000e+00
<ENDHMM>
~h "aw"
<BEGINHMM>
<NUMSTATES> 5
<STATE> 2
<MEAN> 39
 1.359992e+00 -1.164306e+00 2.420369e+00 -4.443246e+00 -7.509177e+00 1.267187e+00 -9.377828e+00 -2.619873e+00 -3.474140e+00 1.830566e+00 9.479467e-01 -6.918818e+00 6.236031e+01 2.790178e-02 -2.664134e-02 9.016389e-02 -4.086275e-02 -1.159006e-02 5.699310e-02 -5.577280e-02 1.454283e-02 -5.508344e-02 2.492165e-03 8.298560e-02 -6.274763e-02 9.292619e-02 -8.470834e-03 9.404738e-03 2.330307e-03 2.991521e-02 8.604397e-03 -3.365785e-03 1.199254e-02 1.383505e-02 -1.317126e-02 -1.061041e-02 -5.007113e-03 9.883625e-03 -1.940635e-02
<VARIANCE> 39
 2.997845e+01 5.047685e+01 6.314885e+01 7.843477e+01 6.853677e+01 6.288020e+01 5.964810e+01 8.436475e+01 6.074318e+01 5.016028e+01 4.555913e+01 4.818212e+01 5.200129e+01 1.642844e+00 2.366407e+00 2.344972e+00 4.139264e+00 3.745723e+00 3.441154e+00 3.803602e+00 4.089864e+00 3.643107e+00 2.868545e+00 3.369279e+00 3.383945e+00 2.613366e+00 2.551330e-01 3.563203e-01 3.499926e-01 6.304206e-01 7.102969e-01 6.236262e-01 6.813500e-01 7.285704e-01 6.405757e-01 5.155049e-01 6.624734e-01 6.245549e-01 3.546913e-01
<GCONST> 1.302881e+02
<STATE> 3
<MEAN> 39
 1.387591e+00 -1.160853e+00 2.624947e+00 -4.401578e+00 -7.480612e+00 1.389446e+00 -9.496027e+00 -2.527709e+00 -3.655212e+00 1.771349e+00 1.140683e+00 -7.032487e+00 6.247670e+01 6.534645e-03 3.756340e-03 9.063642e-02 3.596359e-02 8.780791e-03 4.058110e-02 -2.837979e-02 3.980554e-02 -8.756079e-02 -2.630350e-02 6.801821e-02 -3.762007e-02 3.632110e-02 -8.930859e-03 1.189169e-02 1.446994e-03 3.243580e-02 6.875052e-03 -8.339505e-03 1.092783e-02 7.187351e-03 -1.083473e-02 -1.113649e-02 -7.301130e-03 8.372354e-03 -2.278861e-02
<VARIANCE> 39
 2.943727e+01 5.130939e+01 6.211071e+01 7.496598e+01 6.672222e+01 6.439851e+01 6.093990e+01 8.355620e+01 6.213443e+01 5.075085e+01 4.515741e+01 4.869111e+01 5.222540e+01 1.653354e+00 2.342615e+00 2.429291e+00 3.990487e+00 3.662755e+00 3.451538e+00 3.990167e+00 4.105267e+00 3.667959e+00 2.879874e+00 3.456109e+00 3.384211e+00 2.507093e+00 2.548998e-01 3.593712e-01 3.664344e-01 6.160219e-01 6.868035e-01 6.186709e-01 7.156535e-01 7.348091e-01 6.378919e-01 5.243586e-01 6.842052e-01 6.260394e-01 3.488785e-01
<GCONST> 1.303730e+02
<STATE> 4
<MEAN> 39
 1.277241e+00 -9.400210e-01 2.957839e+00 -4.186848e+00 -7.426847e+00 1.536268e+00 -9.518799e+00 -2.278143e+00 -3.963876e+00 1.504028e+00 1.331324e+00 -7.071249e+00 6.236691e+01 -9.902422e-03 3.296343e-02 8.054696e-02 1.120590e-01 2.391141e-02 8.840290e-03 -6.444952e-03 5.551788e-02 -1.047305e-01 -5.370237e-02 4.566511e-02 -1.675350e-02 -2.554785e-02 -5.401463e-03 6.946456e-03 2.863995e-04 2.363125e-02 1.923910e-03 -1.129222e-02 7.811471e-03 1.817197e-03 -3.208400e-03 -6.975723e-03 -8.712870e-03 3.965041e-03 -1.643532e-02
<VARIANCE> 39
 2.939263e+01 5.224311e+01 6.378890e+01 7.193243e+01 6.508594e+01 6.782197e+01 6.193758e+01 8.257619e+01 6.258874e+01 5.095830e+01 4.503075e+01 4.893482e+01 5.399965e+01 1.671545e+00 2.288767e+00 2.515233e+00 3.782160e+00 3.548119e+00 3.486884e+00 4.097936e+00 4.093662e+00 3.586995e+00 2.905738e+00 3.492749e+00 3.357626e+00 2.348548e+00 2.545443e-01 3.570722e-01 3.800325e-01 5.942147e-01 6.550287e-01 6.136947e-01 7.365174e-01 7.320121e-01 6.155288e-01 5.340072e-01 6.953163e-01 6.235986e-01 3.376200e-01
<GCONST> 1.302722e+02
<TRANSP> 5
 0.000000e+00 1.000000e+00 0.000000e+00 0.000000e+00 0.000000e+00
 0.000000e+00 6.072236e-01 3.927764e-01 0.000000e+00 0.000000e+00
 0.000000e+00 0.000000e+00 6.072239e-01 3.927761e-01 0.000000e+00
 0.000000e+00 0.000000e+00 0.000000e+00 7.121553e-01 2.878447e-01
 0.000000e+00 0.000000e+00 0.000000e+00 0.000000e+00 0.000000e+00
<ENDHMM>
~h "ay"
<BEGINHMM>
<NUMSTATES> 5
<STATE> 2
<MEAN> 39
 -3.147467e-02 -2.276456e+00 3.161147e+00 -5.636041e-01 -7.820470e+00 -2.861022e+00 -8.272110e+00 1.843062e+00 -3.493888e+00 -1.572096e+00 2.734292e-01 -6.784911e+00 6.192012e+01 -1.834989e-02 3.707922e-02 -2.957713e-02 2.415711e-02 1.435365e-02 2.291131e-02 -4.612101e-03 2.875509e-02 -6.367217e-05 5.226666e-03 -4.257441e-02 1.172868e-03 -6.706726e-02 -3.935627e-03 9.373031e-04 -2.525886e-03 -1.554904e-03 2.828286e-03 1.620364e-03 4.220443e-03 4.397423e-03 4.905822e-03 -2.179129e-03 -2.094497e-03 5.717928e-03 6.360143e-04
<VARIANCE> 39
 2.802493e+01 5.625824e+01 7.737514e+01 5.006728e+01 6.778891e+01 6.545940e+01 6.620123e+01 7.277202e+01 6.967672e+01 5.009071e+01 5.273570e+01 4.853421e+01 6.011093e+01 1.387993e+00 2.454457e+00 2.586853e+00 2.436291e+00 3.432272e+00 3.014238e+00 3.046315e+00 4.361695e+00 3.362992e+00 2.670212e+00 3.156219e+00 2.548406e+00 1.807784e+00 2.227407e-01 3.669347e-01 3.868554e-01 4.093693e-01 5.834533e-01 5.142038e-01 5.524989e-01 7.615921e-01 5.826366e-01 4.732829e-01 5.782028e-01 4.663775e-01 2.554208e-01
<GCONST> 1.267631e+02
<STATE> 3
<MEAN> 39
 -9.576958e-02 -2.189127e+00 3.060108e+00 -5.073054e-01 -7.753159e+00 -2.782451e+00 -8.237877e+00 1.953879e+00 -3.499638e+00 -1.557885e+00 1.610940e-01 -6.763902e+00 6.173846e+01 -2.804291e-02 4.025512e-02 -3.357069e-02 2.086188e-02 1.928427e-02 2.507103e-02 9.660119e-03 4.217703e-02 1.218389e-02 -2.723561e-03 -4.543930e-02 1.633784e-02 -6.522914e-02 -3.635800e-03 7.300930e-04 -2.089731e-03 -1.237029e-03 3.300335e-03 2.355150e-03 6.336698e-03 3.747855e-03 3.416843e-03 -3.035569e-03 -3.347154e-04 7.137910e-03 3.830871e-04
<VARIANCE> 39
 2.773968e+01 5.561373e+01 7.828046e+01 5.007385e+01 6.819163e+01 6.546251e+01 6.761263e+01 7.137028e+01 7.018219e+01 5.037388e+01 5.317154e+01 4.851573e+01 6.082021e+01 1.375170e+00 2.440908e+00 2.573970e+00 2.428735e+00 3.413898e+00 2.993908e+00 3.025743e+00 4.306232e+00 3.317810e+00 2.666604e+00 3.120863e+00 2.537944e+00 1.768294e+00 2.212332e-01 3.653840e-01 3.889610e-01 4.093981e-01 5.824801e-01 5.130611e-01 5.483584e-01 7.558661e-01 5.755759e-01 4.743710e-01 5.700064e-01 4.614620e-01 2.491896e-01
<GCONST> 1.266023e+02
<STATE> 4
<MEAN> 39
 -3.231123e-01 -1.956100e+00 2.740678e+00 -3.272645e-01 -7.444298e+00 -2.444589e+00 -7.913819e+00 2.162218e+00 -3.324101e+00 -1.781442e+00 -6.041074e-02 -6.502123e+00 6.123720e+01 -3.500273e-02 4.406163e-02 -3.701512e-02 1.618833e-02 2.380330e-02 3.036386e-02 3.455922e-02 5.562685e-02 1.518544e-02 -1.421030e-02 -3.856596e-02 3.564696e-02 -6.648763e-02 -1.201036e-03 1.141145e-03 -2.524096e-03 -4.236160e-04 2.219414e-03 3.374296e-03 6.522686e-03 -5.518333e-04 -1.508289e-03 -4.108034e-03 1.724400e-03 5.812122e-03 -1.092886e-03
<VARIANCE> 39
 2.712105e+01 5.442379e+01 7.746943e+01 5.057454e+01 6.839552e+01 6.527813e+01 6.760733e+01 6.858811e+01 6.875732e+01 4.945453e+01 5.313770e+01 4.818766e+01 6.387160e+01 1.327886e+00 2.366104e+00 2.485201e+00 2.345291e+00 3.291409e+00 2.878590e+00 2.895404e+00 4.104874e+00 3.179593e+00 2.610906e+00 3.022061e+00 2.506186e+00 1.686910e+00 2.143465e-01 3.543514e-01 3.789396e-01 3.948744e-01 5.611578e-01 4.951909e-01 5.256196e-01 7.269444e-01 5.531250e-01 4.649774e-01 5.483869e-01 4.539722e-01 2.345965e-01
<GCONST> 1.256074e+02
<TRANSP> 5
 0.000000e+00 1.000000e+00 0.000000e+00 0.000000e+00 0.000000e+00
 0.000000e+00 6.201975e-01 3.798025e-01 0.000000e+00 0.000000e+00
 0.000000e+00 0.000000e+00 6.201980e-01 3.798020e-01 0.000000e+00
 0.000000e+00 0.000000e+00 0.000000e+00 7.331054e-01 2.668945e-01
 0.000000e+00 0.000000e+00 0.000000e+00 0.000000e+00 0.000000e+00
<ENDHMM>
~h "kh"
<BEGINHMM>
<NUMSTATES> 5
<STATE> 2
<MEAN> 39
 1.006541e-01 -1.448976e-01 3.618857e-01 -4.064757e-01 -4.959489e+00 -2.120867e+00 -5.540511e+00 -6.265664e-01 -1.973285e+00 -9.075651e-01 -2.464143e+00 -4.245909e+00 5.942184e+01 2.440035e-02 -2.082177e-02 1.130233e-01 3.987352e-02 -5.514641e-02 -2.532694e-02 -1.553755e-01 4.477724e-02 4.347860e-02 3.849814e-02 1.007717e-02 6.059661e-02 -1.327704e-02 -6.092731e-03 -9.867984e-03 2.730883e-03 6.702534e-03 1.062937e-02 5.895115e-03 -1.077047e-02 -1.208427e-03 9.018723e-03 -3.225214e-03 -1.450410e-02 4.387260e-03 -3.566650e-03
<VARIANCE> 39
