~o
<STREAMINFO> 1 39
<VECSIZE> 39<NULLD><MFCC_D_A_0><DIAGC>
~h "proto"
<BEGINHMM>
<NUMSTATES> 5
<STATE> 2
<MEAN> 39
 4.708084e-02 -4.185686e-01 1.543635e+00 -5.785530e-01 -5.551047e+00 -7.427263e-01 -7.033545e+00 6.461377e-01 -4.494528e+00 -3.902169e-01 -6.508140e-01 -5.542572e+00 5.961794e+01 5.231873e-04 3.952425e-05 8.259650e-04 -7.065663e-04 -1.435058e-03 -8.848339e-04 -9.601546e-04 -8.567526e-04 2.172469e-04 6.978322e-04 5.531641e-05 1.311254e-04 3.129609e-04 -1.265449e-04 7.172361e-05 5.088626e-05 4.779135e-04 1.530513e-04 9.512403e-05 -2.702825e-04 -4.835214e-05 -5.747278e-05 -6.235079e-04 -1.919883e-04 -1.494304e-05 -3.609624e-04
<VARIANCE> 39
 2.679921e+01 5.303580e+01 6.800148e+01 5.944727e+01 6.090043e+01 6.499795e+01 5.966571e+01 5.983296e+01 5.796822e+01 4.597444e+01 4.662604e+01 4.743382e+01 6.530322e+01 1.341980e+00 2.278205e+00 2.530186e+00 3.007696e+00 3.044527e+00 3.071455e+00 3.239964e+00 3.674485e+00 3.223224e+00 2.820910e+00 2.908668e+00 2.432503e+00 1.966230e+00 2.209929e-01 3.563737e-01 4.063205e-01 5.103858e-01 5.471874e-01 5.480260e-01 5.908074e-01 6.728432e-01 5.822788e-01 5.278571e-01 5.425461e-01 4.486358e-01 2.929288e-01
<GCONST> 1.261111e+02
<STATE> 3
<MEAN> 39
 4.708084e-02 -4.185686e-01 1.543635e+00 -5.785530e-01 -5.551047e+00 -7.427263e-01 -7.033545e+00 6.461377e-01 -4.494528e+00 -3.902169e-01 -6.508140e-01 -5.542572e+00 5.961794e+01 5.231873e-04 3.952425e-05 8.259650e-04 -7.065663e-04 -1.435058e-03 -8.848339e-04 -9.601546e-04 -8.567526e-04 2.172469e-04 6.978322e-04 5.531641e-05 1.311254e-04 3.129609e-04 -1.265449e-04 7.172361e-05 5.088626e-05 4.779135e-04 1.530513e-04 9.512403e-05 -2.702825e-04 -4.835214e-05 -5.747278e-05 -6.235079e-04 -1.919883e-04 -1.494304e-05 -3.609624e-04
<VARIANCE> 39
 2.679921e+01 5.303580e+01 6.800148e+01 5.944727e+01 6.090043e+01 6.499795e+01 5.966571e+01 5.983296e+01 5.796822e+01 4.597444e+01 4.662604e+01 4.743382e+01 6.530322e+01 1.341980e+00 2.278205e+00 2.530186e+00 3.007696e+00 3.044527e+00 3.071455e+00 3.239964e+00 3.674485e+00 3.223224e+00 2.820910e+00 2.908668e+00 2.432503e+00 1.966230e+00 2.209929e-01 3.563737e-01 4.063205e-01 5.103858e-01 5.471874e-01 5.480260e-01 5.908074e-01 6.728432e-01 5.822788e-01 5.278571e-01 5.425461e-01 4.486358e-01 2.929288e-01
<GCONST> 1.261111e+02
<STATE> 4
<MEAN> 39
 4.708084e-02 -4.185686e-01 1.543635e+00 -5.785530e-01 -5.551047e+00 -7.427263e-01 -7.033545e+00 6.461377e-01 -4.494528e+00 -3.902169e-01 -6.508140e-01 -5.542572e+00 5.961794e+01 5.231873e-04 3.952425e-05 8.259650e-04 -7.065663e-04 -1.435058e-03 -8.848339e-04 -9.601546e-04 -8.567526e-04 2.172469e-04 6.978322e-04 5.531641e-05 1.311254e-04 3.129609e-04 -1.265449e-04 7.172361e-05 5.088626e-05 4.779135e-04 1.530513e-04 9.512403e-05 -2.702825e-04 -4.835214e-05 -5.747278e-05 -6.235079e-04 -1.919883e-04 -1.494304e-05 -3.609624e-04
<VARIANCE> 39
 2.679921e+01 5.303580e+01 6.800148e+01 5.944727e+01 6.090043e+01 6.499795e+01 5.966571e+01 5.983296e+01 5.796822e+01 4.597444e+01 4.662604e+01 4.743382e+01 6.530322e+01 1.341980e+00 2.278205e+00 2.530186e+00 3.007696e+00 3.044527e+00 3.071455e+00 3.239964e+00 3.674485e+00 3.223224e+00 2.820910e+00 2.908668e+00 2.432503e+00 1.966230e+00 2.209929e-01 3.563737e-01 4.063205e-01 5.103858e-01 5.471874e-01 5.480260e-01 5.908074e-01 6.728432e-01 5.822788e-01 5.278571e-01 5.425461e-01 4.486358e-01 2.929288e-01
<GCONST> 1.261111e+02
<TRANSP> 5
 0.000000e+00 1.000000e+00 0.000000e+00 0.000000e+00 0.000000e+00
 0.000000e+00 6.000000e-01 4.000000e-01 0.000000e+00 0.000000e+00
 0.000000e+00 0.000000e+00 6.000000e-01 4.000000e-01 0.000000e+00
 0.000000e+00 0.000000e+00 0.000000e+00 7.000000e-01 3.000000e-01
 0.000000e+00 0.000000e+00 0.000000e+00 0.000000e+00 0.000000e+00
<ENDHMM>
