~o
<STREAMINFO> 1 39
<VECSIZE> 39<NULLD><MFCC_D_A_0><DIAGC>
~h "proto"
<BEGINHMM>
<NUMSTATES> 5
<STATE> 2
<MEAN> 39
 4.708110e-02 -4.185729e-01 1.543635e+00 -5.785503e-01 -5.551036e+00 -7.427260e-01 -7.033552e+00 6.461345e-01 -4.494528e+00 -3.902190e-01 -6.508161e-01 -5.542570e+00 5.961793e+01 5.231948e-04 3.950650e-05 8.259538e-04 -7.065539e-04 -1.435049e-03 -8.848105e-04 -9.601503e-04 -8.567516e-04 2.172663e-04 6.978379e-04 5.533005e-05 1.311499e-04 3.129429e-04 -1.265397e-04 7.172386e-05 5.086426e-05 4.779146e-04 1.530551e-04 9.511110e-05 -2.702785e-04 -4.833952e-05 -5.747658e-05 -6.235184e-04 -1.920160e-04 -1.493933e-05 -3.609591e-04
<VARIANCE> 39
 2.679926e+01 5.303582e+01 6.800162e+01 5.944723e+01 6.090049e+01 6.499800e+01 5.966579e+01 5.983305e+01 5.796815e+01 4.597449e+01 4.662596e+01 4.743385e+01 6.530420e+01 1.341979e+00 2.278205e+00 2.530186e+00 3.007700e+00 3.044530e+00 3.071459e+00 3.239963e+00 3.674478e+00 3.223224e+00 2.820913e+00 2.908665e+00 2.432501e+00 1.966233e+00 2.209932e-01 3.563750e-01 4.063214e-01 5.103849e-01 5.471872e-01 5.480251e-01 5.908071e-01 6.728424e-01 5.822788e-01 5.278566e-01 5.425451e-01 4.486354e-01 2.929286e-01
<GCONST> 1.261112e+02
<STATE> 3
<MEAN> 39
 4.708110e-02 -4.185729e-01 1.543635e+00 -5.785503e-01 -5.551036e+00 -7.427260e-01 -7.033552e+00 6.461345e-01 -4.494528e+00 -3.902190e-01 -6.508161e-01 -5.542570e+00 5.961793e+01 5.231948e-04 3.950650e-05 8.259538e-04 -7.065539e-04 -1.435049e-03 -8.848105e-04 -9.601503e-04 -8.567516e-04 2.172663e-04 6.978379e-04 5.533005e-05 1.311499e-04 3.129429e-04 -1.265397e-04 7.172386e-05 5.086426e-05 4.779146e-04 1.530551e-04 9.511110e-05 -2.702785e-04 -4.833952e-05 -5.747658e-05 -6.235184e-04 -1.920160e-04 -1.493933e-05 -3.609591e-04
<VARIANCE> 39
 2.679926e+01 5.303582e+01 6.800162e+01 5.944723e+01 6.090049e+01 6.499800e+01 5.966579e+01 5.983305e+01 5.796815e+01 4.597449e+01 4.662596e+01 4.743385e+01 6.530420e+01 1.341979e+00 2.278205e+00 2.530186e+00 3.007700e+00 3.044530e+00 3.071459e+00 3.239963e+00 3.674478e+00 3.223224e+00 2.820913e+00 2.908665e+00 2.432501e+00 1.966233e+00 2.209932e-01 3.563750e-01 4.063214e-01 5.103849e-01 5.471872e-01 5.480251e-01 5.908071e-01 6.728424e-01 5.822788e-01 5.278566e-01 5.425451e-01 4.486354e-01 2.929286e-01
<GCONST> 1.261112e+02
<STATE> 4
<MEAN> 39
 4.708110e-02 -4.185729e-01 1.543635e+00 -5.785503e-01 -5.551036e+00 -7.427260e-01 -7.033552e+00 6.461345e-01 -4.494528e+00 -3.902190e-01 -6.508161e-01 -5.542570e+00 5.961793e+01 5.231948e-04 3.950650e-05 8.259538e-04 -7.065539e-04 -1.435049e-03 -8.848105e-04 -9.601503e-04 -8.567516e-04 2.172663e-04 6.978379e-04 5.533005e-05 1.311499e-04 3.129429e-04 -1.265397e-04 7.172386e-05 5.086426e-05 4.779146e-04 1.530551e-04 9.511110e-05 -2.702785e-04 -4.833952e-05 -5.747658e-05 -6.235184e-04 -1.920160e-04 -1.493933e-05 -3.609591e-04
<VARIANCE> 39
 2.679926e+01 5.303582e+01 6.800162e+01 5.944723e+01 6.090049e+01 6.499800e+01 5.966579e+01 5.983305e+01 5.796815e+01 4.597449e+01 4.662596e+01 4.743385e+01 6.530420e+01 1.341979e+00 2.278205e+00 2.530186e+00 3.007700e+00 3.044530e+00 3.071459e+00 3.239963e+00 3.674478e+00 3.223224e+00 2.820913e+00 2.908665e+00 2.432501e+00 1.966233e+00 2.209932e-01 3.563750e-01 4.063214e-01 5.103849e-01 5.471872e-01 5.480251e-01 5.908071e-01 6.728424e-01 5.822788e-01 5.278566e-01 5.425451e-01 4.486354e-01 2.929286e-01
<GCONST> 1.261112e+02
<TRANSP> 5
 0.000000e+00 1.000000e+00 0.000000e+00 0.000000e+00 0.000000e+00
 0.000000e+00 6.000000e-01 4.000000e-01 0.000000e+00 0.000000e+00
 0.000000e+00 0.000000e+00 6.000000e-01 4.000000e-01 0.000000e+00
 0.000000e+00 0.000000e+00 0.000000e+00 7.000000e-01 3.000000e-01
 0.000000e+00 0.000000e+00 0.000000e+00 0.000000e+00 0.000000e+00
<ENDHMM>
