~o
<STREAMINFO> 1 39
<VECSIZE> 39<NULLD><MFCC_D_A_0><DIAGC>
~h "@"
<BEGINHMM>
<NUMSTATES> 5
<STATE> 2
<MEAN> 39
 1.174330e+00 -2.396455e+00 1.377152e+00 -2.557330e-01 -5.777842e+00 -3.650995e+00 -9.023864e+00 -5.386822e-01 -1.998585e+00 7.451752e-01 -4.811476e-01 -6.835238e+00 6.221173e+01 2.130674e-01 -4.874278e-01 1.690036e-01 -1.150843e-01 -2.410018e-01 -2.853273e-01 -1.739205e-01 7.308275e-02 1.696230e-01 6.681170e-02 2.797529e-02 -2.854434e-01 5.465201e-01 -2.186325e-02 1.000304e-01 4.944283e-02 1.423882e-02 -5.255188e-03 1.433413e-01 6.799316e-02 7.259306e-03 -1.520104e-01 -5.483293e-02 -1.703591e-02 1.445967e-02 -8.039773e-02
<VARIANCE> 39
 2.050825e+01 4.984811e+01 4.942425e+01 4.640621e+01 6.274961e+01 6.989104e+01 6.556927e+01 7.634949e+01 6.044459e+01 4.195550e+01 4.351494e+01 5.356915e+01 4.374400e+01 1.786763e+00 3.363283e+00 2.861333e+00 3.878948e+00 4.112224e+00 4.931793e+00 4.613757e+00 5.938599e+00 4.851439e+00 3.679558e+00 3.730483e+00 3.580831e+00 3.679874e+00 3.563949e-01 5.832797e-01 4.780395e-01 6.625559e-01 7.609792e-01 8.162969e-01 8.321292e-01 1.023808e+00 8.254821e-01 6.829858e-01 7.117562e-01 6.509126e-01 5.742770e-01
<GCONST> 1.346636e+02
<STATE> 3
<MEAN> 39
 1.537743e+00 -3.096437e+00 1.796079e+00 -5.020952e-01 -6.195649e+00 -4.001787e+00 -9.281990e+00 -2.965449e-01 -2.023635e+00 7.732443e-01 -4.523195e-01 -7.317071e+00 6.304430e+01 2.262151e-01 -2.227124e-01 2.125540e-01 -3.033802e-02 -2.220237e-01 5.742073e-02 -5.166604e-02 1.351340e-02 -1.332153e-01 4.763897e-03 -1.291212e-02 -1.781366e-01 2.747853e-01 -4.525393e-02 1.600180e-01 -6.346931e-04 4.330070e-02 3.935156e-02 1.851372e-01 8.256500e-02 -3.322043e-02 -1.352889e-01 -5.454766e-02 -1.770444e-02 7.289498e-02 -1.617640e-01
<VARIANCE> 39
 1.863984e+01 5.066749e+01 4.914428e+01 4.937635e+01 6.142049e+01 7.186751e+01 6.548063e+01 8.297989e+01 6.498610e+01 4.429183e+01 4.487498e+01 5.428734e+01 3.906143e+01 1.623366e+00 3.383765e+00 2.756674e+00 3.892735e+00 3.805669e+00 4.610286e+00 4.463334e+00 5.670764e+00 4.575141e+00 3.563387e+00 3.810344e+00 3.480210e+00 3.487498e+00 3.131758e-01 5.645847e-01 4.758366e-01 6.880158e-01 7.424293e-01 7.656524e-01 7.909555e-01 1.050512e+00 8.051359e-01 6.807153e-01 7.093195e-01 6.540369e-01 5.357432e-01
<GCONST> 1.339483e+02
<STATE> 4
<MEAN> 39
 1.801921e+00 -3.114807e+00 2.118285e+00 -3.727784e-01 -6.434573e+00 -3.791307e+00 -8.933455e+00 -1.313355e-01 -2.609240e+00 6.026381e-01 -6.289067e-01 -7.289005e+00 6.306460e+01 1.343010e-01 8.327123e-02 1.308790e-01 9.549174e-02 -1.062781e-01 3.658276e-01 9.271544e-02 -1.302473e-01 -2.791675e-01 -5.174340e-02 -6.152037e-02 -2.007149e-02 -5.901895e-02 -7.662852e-02 9.280613e-02 -3.405176e-02 -5.974378e-03 4.948373e-02 9.386469e-02 4.260520e-02 -1.823089e-02 -3.985694e-02 -3.916660e-02 1.044589e-03 4.829914e-02 -9.299070e-02
<VARIANCE> 39
 1.699880e+01 5.006803e+01 4.918396e+01 5.179638e+01 5.722882e+01 7.547445e+01 6.506588e+01 8.253486e+01 6.652734e+01 4.480611e+01 4.536085e+01 5.149615e+01 3.901795e+01 1.446486e+00 3.000876e+00 2.524341e+00 3.538518e+00 3.494548e+00 3.788053e+00 3.872671e+00 5.020848e+00 3.955332e+00 3.180029e+00 3.534119e+00 3.020566e+00 2.688555e+00 2.545195e-01 4.996313e-01 4.380029e-01 6.479931e-01 6.430635e-01 6.806847e-01 7.069705e-01 9.382510e-01 7.427357e-01 6.306206e-01 6.651196e-01 5.838795e-01 4.733350e-01
<GCONST> 1.307328e+02
<TRANSP> 5
 0.000000e+00 1.000000e+00 0.000000e+00 0.000000e+00 0.000000e+00
 0.000000e+00 3.108862e-01 6.891138e-01 0.000000e+00 0.000000e+00
 0.000000e+00 0.000000e+00 3.112848e-01 6.887152e-01 0.000000e+00
 0.000000e+00 0.000000e+00 0.000000e+00 3.551799e-01 6.448201e-01
 0.000000e+00 0.000000e+00 0.000000e+00 0.000000e+00 0.000000e+00
<ENDHMM>
~h "a"
<BEGINHMM>
<NUMSTATES> 5
<STATE> 2
<MEAN> 39
 2.035654e+00 -7.503860e+00 -5.111718e-01 -5.144127e+00 -4.412696e+00 -1.271488e+00 -8.712579e+00 4.050246e+00 -1.786336e+00 4.667411e-01 -2.393967e+00 -9.763308e+00 6.615876e+01 1.283741e-01 -2.369616e-01 -1.364529e-01 2.395415e-02 1.591063e-01 1.608914e-01 1.844030e-01 2.107213e-01 -3.820238e-03 -4.536970e-02 -3.442394e-01 -1.921525e-01 9.953253e-02 -4.977024e-02 3.657162e-01 1.194332e-01 2.841998e-01 -4.104366e-02 -6.635213e-03 4.697255e-02 -2.552152e-01 -1.697506e-01 -1.835985e-02 8.194944e-02 2.213319e-01 -3.172912e-01
<VARIANCE> 39
 1.250583e+01 4.625257e+01 4.521021e+01 5.378662e+01 5.424280e+01 7.179407e+01 5.788703e+01 6.416732e+01 6.355987e+01 5.885619e+01 4.649108e+01 5.598465e+01 4.279562e+01 8.920812e-01 3.283944e+00 2.258829e+00 3.434104e+00 3.002350e+00 3.486154e+00 3.203236e+00 4.583043e+00 3.367011e+00 3.111223e+00 2.975612e+00 3.233830e+00 2.699825e+00 1.704013e-01 4.986276e-01 3.558969e-01 5.528882e-01 5.271627e-01 5.745556e-01 5.684850e-01 8.045517e-01 6.090797e-01 5.875853e-01 5.452146e-01 5.644277e-01 3.681647e-01
<GCONST> 1.266604e+02
<STATE> 3
<MEAN> 39
 2.225123e+00 -7.089476e+00 -5.563402e-01 -4.504362e+00 -4.270903e+00 -1.045390e+00 -8.359982e+00 3.879473e+00 -2.108782e+00 4.045573e-01 -2.763304e+00 -9.573965e+00 6.562201e+01 5.972067e-02 4.482152e-01 5.588987e-02 5.216616e-01 1.102716e-02 1.117942e-01 2.337501e-01 -2.359444e-01 -2.428048e-01 -5.391459e-03 -1.417139e-01 2.177021e-01 -4.866833e-01 -4.984540e-02 2.894854e-01 9.856745e-02 1.939687e-01 -6.868679e-02 -1.685506e-02 1.959459e-02 -2.203419e-01 -9.920190e-02 7.094450e-03 9.531559e-02 1.580765e-01 -2.364496e-01
<VARIANCE> 39
 1.165052e+01 4.613913e+01 4.427431e+01 5.275464e+01 5.194944e+01 6.809557e+01 5.611809e+01 6.270546e+01 6.290189e+01 5.696126e+01 4.527592e+01 5.446496e+01 4.213161e+01 7.535427e-01 2.648858e+00 2.053359e+00 2.961946e+00 2.678148e+00 3.196407e+00 2.937462e+00 4.128170e+00 3.027676e+00 2.898944e+00 2.715190e+00 2.731579e+00 2.232448e+00 1.442564e-01 4.590355e-01 3.348135e-01 5.081711e-01 4.783114e-01 5.446329e-01 5.447620e-01 7.733182e-01 5.687699e-01 5.552016e-01 5.157627e-01 5.139760e-01 3.351274e-01
<GCONST> 1.236413e+02
<STATE> 4
<MEAN> 39
 2.093583e+00 -4.897482e+00 -1.068753e+00 -2.529027e+00 -3.960134e+00 -3.218717e-01 -7.049236e+00 3.046208e+00 -3.096904e+00 4.759658e-01 -2.860610e+00 -8.335292e+00 6.297189e+01 -2.042310e-02 7.087243e-01 1.419851e-01 6.434531e-01 -1.202537e-01 9.955803e-02 2.110245e-01 -4.572667e-01 -2.320386e-01 3.042834e-03 -2.556961e-03 3.327966e-01 -6.970946e-01 -4.947444e-02 7.675111e-02 5.042118e-02 2.693879e-03 -3.423124e-02 -2.679869e-02 -2.161398e-02 -1.061984e-01 -7.880627e-03 1.140269e-03 5.323700e-02 3.117566e-02 -2.724840e-02
<VARIANCE> 39
 1.265461e+01 4.965769e+01 4.397700e+01 5.710788e+01 4.861411e+01 6.082684e+01 5.121149e+01 5.712589e+01 6.033452e+01 5.028665e+01 4.094844e+01 4.944519e+01 5.641909e+01 7.216635e-01 1.956833e+00 1.884149e+00 2.436085e+00 2.466969e+00 2.742836e+00 2.646659e+00 3.556257e+00 2.808085e+00 2.622368e+00 2.435114e+00 2.239318e+00 1.610915e+00 1.374594e-01 3.602420e-01 3.007880e-01 4.449451e-01 4.237217e-01 4.899963e-01 4.885490e-01 6.730325e-01 5.078412e-01 4.877856e-01 4.596059e-01 4.223123e-01 2.834966e-01
<GCONST> 1.197821e+02
<TRANSP> 5
 0.000000e+00 1.000000e+00 0.000000e+00 0.000000e+00 0.000000e+00
 0.000000e+00 4.014342e-01 5.985658e-01 0.000000e+00 0.000000e+00
 0.000000e+00 0.000000e+00 3.921285e-01 6.078715e-01 0.000000e+00
 0.000000e+00 0.000000e+00 0.000000e+00 5.062555e-01 4.937445e-01
 0.000000e+00 0.000000e+00 0.000000e+00 0.000000e+00 0.000000e+00
<ENDHMM>
~h "b"
<BEGINHMM>
<NUMSTATES> 5
<STATE> 2
<MEAN> 39
 4.642209e+00 4.074930e+00 1.940046e+00 1.724980e+00 -4.863158e+00 1.405007e+00 -9.231117e+00 -3.982543e+00 -7.283908e+00 9.961934e-02 -5.208168e-01 -5.650499e+00 5.825729e+01 2.889266e-01 -4.700714e-01 -2.017534e-01 -9.060163e-01 -1.470050e-02 -2.682815e-01 -9.585023e-01 -3.033732e-01 3.117479e-01 5.105329e-01 6.595153e-01 -1.259333e-01 7.457971e-01 -1.218346e-01 -4.907543e-01 5.456619e-02 -4.562285e-01 -1.603211e-01 -1.718612e-01 -3.135633e-01 2.205804e-01 2.861861e-01 2.323105e-01 1.236610e-01 -1.731905e-01 3.975426e-01
<VARIANCE> 39
 1.084825e+01 4.197929e+01 2.923411e+01 5.945802e+01 4.378762e+01 4.463142e+01 5.740369e+01 3.904667e+01 4.368455e+01 4.383641e+01 4.250656e+01 3.555441e+01 3.002663e+01 9.185005e-01 4.440372e+00 2.279566e+00 7.274142e+00 3.452162e+00 3.927782e+00 5.822472e+00 4.161242e+00 5.068483e+00 5.211853e+00 4.821863e+00 3.664258e+00 3.366992e+00 1.569770e-01 6.505294e-01 3.974409e-01 1.179163e+00 5.988069e-01 6.776506e-01 1.087232e+00 8.174389e-01 8.832301e-01 1.005272e+00 1.002845e+00 7.080479e-01 4.894459e-01
<GCONST> 1.309651e+02
<STATE> 3
<MEAN> 39
 4.880008e+00 1.146381e+00 1.575016e+00 -2.039294e+00 -5.276877e+00 3.344158e-01 -1.270440e+01 -3.858092e+00 -5.358440e+00 2.541299e+00 1.281085e+00 -6.698333e+00 6.130074e+01 -8.992510e-02 -1.346095e+00 2.694318e-02 -1.292389e+00 -3.382733e-01 -5.692231e-01 -1.118993e+00 5.780255e-01 9.842407e-01 7.605317e-01 3.982807e-01 -6.522531e-01 1.269295e+00 -1.602329e-01 -8.613256e-02 1.342744e-01 1.258718e-01 -7.132295e-02 -7.133859e-02 2.030996e-01 3.126128e-01 5.313484e-02 -1.534506e-01 -2.400959e-01 -5.538928e-02 3.809280e-03
<VARIANCE> 39
 9.287689e+00 5.169520e+01 2.981802e+01 8.327732e+01 5.052156e+01 5.347288e+01 6.971452e+01 4.512326e+01 6.032976e+01 6.273341e+01 5.916830e+01 4.799701e+01 3.411435e+01 9.481376e-01 5.206893e+00 2.646291e+00 8.690797e+00 3.626084e+00 4.761539e+00 6.610565e+00 5.700840e+00 6.498900e+00 6.883415e+00 6.163985e+00 5.045526e+00 3.577252e+00 1.497072e-01 8.276041e-01 4.348292e-01 1.489461e+00 6.821506e-01 7.499185e-01 1.248177e+00 9.664222e-01 1.105165e+00 1.311284e+00 1.229846e+00 8.983862e-01 6.028162e-01
<GCONST> 1.380257e+02
<STATE> 4
<MEAN> 39
 4.262430e+00 -8.264922e-01 1.867854e+00 -3.568360e+00 -5.527746e+00 -1.164182e+00 -1.349849e+01 -1.572953e+00 -4.204239e+00 3.604834e+00 5.069942e-01 -7.538392e+00 6.305152e+01 -3.066403e-01 -7.474403e-01 2.778925e-01 -3.154342e-01 -2.960461e-01 -4.842249e-01 -1.746215e-01 7.851838e-01 4.908997e-01 -8.706176e-02 -2.007408e-01 -2.841669e-01 6.258807e-01 -8.078443e-02 2.108348e-01 1.008301e-01 2.948260e-01 1.362552e-02 3.824991e-02 2.852950e-01 -4.693576e-02 -1.952216e-01 -2.553901e-01 -1.070753e-01 1.694356e-01 -2.149181e-01
<VARIANCE> 39
 9.033622e+00 6.002177e+01 3.679582e+01 8.713677e+01 5.038510e+01 6.122135e+01 6.464081e+01 5.427825e+01 7.281647e+01 6.743289e+01 5.798233e+01 5.603591e+01 3.762084e+01 8.809316e-01 3.889235e+00 2.964997e+00 6.754882e+00 3.303154e+00 4.311083e+00 5.398770e+00 5.629842e+00 5.529219e+00 5.849808e+00 5.209732e+00 4.037733e+00 2.902070e+00 1.391080e-01 6.726761e-01 4.528078e-01 1.196720e+00 6.470237e-01 7.622014e-01 9.855810e-01 9.224476e-01 1.026938e+00 1.117316e+00 9.876489e-01 7.846034e-01 4.885744e-01
<GCONST> 1.357250e+02
<TRANSP> 5
 0.000000e+00 1.000000e+00 0.000000e+00 0.000000e+00 0.000000e+00
 0.000000e+00 5.317890e-01 4.682111e-01 0.000000e+00 0.000000e+00
 0.000000e+00 0.000000e+00 5.452108e-01 4.547892e-01 0.000000e+00
 0.000000e+00 0.000000e+00 0.000000e+00 5.056342e-01 4.943658e-01
 0.000000e+00 0.000000e+00 0.000000e+00 0.000000e+00 0.000000e+00
<ENDHMM>
~h "c"
<BEGINHMM>
<NUMSTATES> 5
<STATE> 2
<MEAN> 39
 -4.406144e+00 3.147367e+00 1.438262e+00 -8.329027e-01 -2.974859e+00 -3.853966e+00 -5.592436e+00 -2.326583e-01 -2.277169e+00 -1.771822e+00 -8.849457e-01 -2.987122e+00 5.846242e+01 -1.503926e+00 -9.092779e-02 4.720019e-01 -9.324605e-01 5.503103e-01 -9.239823e-01 1.792055e-01 -8.984981e-02 2.475258e-01 -2.440711e-01 3.929803e-01 1.992131e-01 1.152941e+00 1.190070e-01 -2.786264e-01 2.502396e-01 -1.094634e-01 -2.020496e-01 -2.396876e-01 -2.279232e-01 4.235264e-02 5.023617e-02 -1.364207e-02 7.405515e-02 -5.756051e-02 4.357195e-01
<VARIANCE> 39
 5.201107e+01 3.115887e+01 3.575009e+01 3.901055e+01 4.374578e+01 6.047585e+01 4.296557e+01 4.704915e+01 3.708158e+01 3.274544e+01 3.120929e+01 2.533111e+01 3.792482e+01 7.059451e+00 3.526766e+00 3.247954e+00 4.121904e+00 4.939208e+00 4.478427e+00 4.263879e+00 3.632021e+00 3.533297e+00 3.295128e+00 2.812640e+00 2.376680e+00 3.531213e+00 1.858865e+00 6.214603e-01 6.085454e-01 8.649187e-01 1.026634e+00 9.715183e-01 8.071847e-01 7.083175e-01 7.358783e-01 7.071325e-01 5.844764e-01 5.255182e-01 6.757228e-01
<GCONST> 1.331875e+02
<STATE> 3
<MEAN> 39
 -6.787249e+00 1.306684e+00 3.795303e+00 -3.213592e+00 -3.132886e+00 -6.922874e+00 -6.566428e+00 7.539639e-02 -1.334336e+00 -2.562928e+00 2.587069e-01 -2.776576e+00 6.311480e+01 5.406931e-01 -1.061790e+00 5.604122e-01 -4.259348e-01 -6.579289e-01 -7.040299e-01 -8.392409e-01 1.768757e-01 2.892458e-01 -5.163985e-02 3.468149e-01 -1.774516e-01 1.392716e+00 7.046015e-01 -2.029274e-01 -1.467783e-01 1.814108e-01 -2.828848e-01 3.474432e-01 -1.888683e-01 2.324717e-02 -1.053530e-01 1.180152e-01 -2.366891e-02 -1.732707e-01 -1.747914e-01
<VARIANCE> 39
 5.909939e+01 4.525328e+01 4.025359e+01 3.490808e+01 4.784977e+01 5.547730e+01 5.366457e+01 4.961871e+01 3.980658e+01 3.607885e+01 2.909590e+01 2.363366e+01 3.243682e+01 1.122727e+01 5.137655e+00 3.837341e+00 4.386421e+00 5.799335e+00 5.093062e+00 5.379329e+00 4.854315e+00 4.541251e+00 3.831638e+00 3.281770e+00 3.191774e+00 3.457147e+00 1.890774e+00 9.617674e-01 6.743793e-01 8.202652e-01 1.125446e+00 9.647381e-01 1.095980e+00 7.751709e-01 8.424627e-01 7.799151e-01 6.693485e-01 6.386329e-01 6.762034e-01
<GCONST> 1.381063e+02
<STATE> 4
<MEAN> 39
 -1.672903e+00 -2.803370e+00 4.396170e+00 -3.251314e+00 -6.311621e+00 -6.946925e+00 -1.029588e+01 1.008498e+00 -9.425676e-01 -1.932683e+00 1.249270e+00 -4.363367e+00 6.580609e+01 1.563243e+00 -8.669345e-01 -2.238882e-01 -3.959250e-02 -6.347082e-01 7.621449e-01 -6.188076e-01 -6.896763e-02 -2.928005e-01 3.111264e-01 2.105491e-01 -5.685709e-01 2.597950e-01 -1.659663e-01 3.024822e-01 -1.536082e-01 1.105806e-01 1.639649e-01 3.649460e-01 3.546666e-01 -1.040996e-01 -2.010126e-01 -2.831411e-02 -8.869318e-02 -2.286079e-02 -3.970136e-01
<VARIANCE> 39
 4.023359e+01 5.102575e+01 4.838554e+01 3.371228e+01 4.210166e+01 5.440553e+01 6.011042e+01 7.106831e+01 5.116289e+01 4.471804e+01 3.355265e+01 2.992464e+01 3.078518e+01 5.253359e+00 5.368186e+00 3.203411e+00 3.627476e+00 4.545131e+00 4.735965e+00 5.239656e+00 4.599591e+00 4.606781e+00 3.727656e+00 3.479013e+00 3.790536e+00 3.693134e+00 1.298648e+00 9.906874e-01 5.604166e-01 7.048175e-01 8.439860e-01 8.522306e-01 1.113645e+00 8.756831e-01 8.193367e-01 7.743617e-01 7.014195e-01 7.054641e-01 6.047198e-01
<GCONST> 1.369514e+02
<TRANSP> 5
 0.000000e+00 1.000000e+00 0.000000e+00 0.000000e+00 0.000000e+00
 0.000000e+00 6.951265e-01 3.048734e-01 0.000000e+00 0.000000e+00
 0.000000e+00 0.000000e+00 6.689047e-01 3.310952e-01 0.000000e+00
 0.000000e+00 0.000000e+00 0.000000e+00 6.942390e-01 3.057610e-01
 0.000000e+00 0.000000e+00 0.000000e+00 0.000000e+00 0.000000e+00
<ENDHMM>
~h "d"
<BEGINHMM>
<NUMSTATES> 5
<STATE> 2
<MEAN> 39
 2.450410e+00 4.191923e-02 7.205240e+00 3.593822e+00 -9.399864e+00 -4.589468e+00 -1.116501e+01 2.212091e+00 -4.203268e+00 -2.719243e+00 -9.063224e-01 -5.934933e+00 6.058828e+01 2.315165e-02 -3.968007e-01 5.656118e-01 -4.151923e-02 -3.435116e-01 -4.819126e-01 -6.295066e-01 4.093174e-01 5.617521e-02 -2.575349e-01 4.554232e-01 7.913299e-02 4.310479e-01 -1.106671e-01 -2.684809e-01 6.958065e-02 -3.737955e-01 -1.007778e-01 -7.602345e-02 -1.293650e-01 3.564838e-02 -4.098445e-03 1.058016e-01 1.981186e-01 -5.410032e-02 2.889425e-01
<VARIANCE> 39
 1.196014e+01 5.904623e+01 5.689619e+01 4.752617e+01 5.341119e+01 5.039639e+01 7.166294e+01 8.543023e+01 4.895272e+01 4.027441e+01 6.511471e+01 4.398358e+01 4.428068e+01 1.118163e+00 4.737601e+00 3.904054e+00 4.913732e+00 4.465155e+00 4.511572e+00 5.843567e+00 6.363723e+00 4.110173e+00 3.359826e+00 5.219460e+00 2.939411e+00 4.344518e+00 1.869814e-01 8.582618e-01 7.290494e-01 8.438222e-01 8.602893e-01 8.850315e-01 1.164464e+00 1.212081e+00 7.205198e-01 6.196223e-01 1.007564e+00 5.970073e-01 7.384689e-01
<GCONST> 1.362981e+02
<STATE> 3
<MEAN> 39
 2.133345e+00 -1.568200e+00 8.603824e+00 2.343388e+00 -1.055422e+01 -5.820046e+00 -1.274258e+01 3.063372e+00 -4.145468e+00 -2.886874e+00 7.934495e-01 -5.891555e+00 6.237098e+01 -2.066448e-01 -7.590715e-01 5.674834e-01 -8.365763e-01 -5.244875e-01 -4.894793e-01 -7.060629e-01 3.166170e-01 -3.805493e-03 1.242400e-01 7.465332e-01 -1.653917e-01 9.030804e-01 -6.281431e-02 3.272204e-03 -8.074111e-02 -2.015947e-01 3.227107e-02 6.965090e-02 7.852852e-02 -7.322711e-02 -5.767458e-02 1.442403e-01 -6.749813e-04 -8.565734e-02 5.377630e-02
<VARIANCE> 39
 1.169785e+01 5.116169e+01 5.944532e+01 5.115896e+01 5.347327e+01 5.334352e+01 8.007018e+01 9.783656e+01 5.503024e+01 4.682451e+01 6.661745e+01 4.675797e+01 3.935851e+01 1.101278e+00 4.606766e+00 4.713422e+00 5.571432e+00 4.523515e+00 4.965436e+00 6.380849e+00 7.420852e+00 4.564190e+00 4.025305e+00 6.096152e+00 3.498637e+00 4.446858e+00 1.917134e-01 8.320134e-01 8.061191e-01 9.567740e-01 9.213923e-01 9.535428e-01 1.255616e+00 1.282453e+00 8.051479e-01 6.949198e-01 1.120182e+00 6.763954e-01 7.834097e-01
<GCONST> 1.390585e+02
<STATE> 4
<MEAN> 39
 1.424440e+00 -2.722239e+00 9.686066e+00 2.032222e-01 -1.195004e+01 -6.475908e+00 -1.362729e+01 3.001525e+00 -4.437886e+00 -2.467339e+00 2.589747e+00 -6.561841e+00 6.410364e+01 -2.289685e-01 -3.161030e-01 1.497723e-01 -7.950249e-01 -1.589283e-01 -6.889834e-02 -1.560762e-01 -8.491264e-02 -1.580249e-01 3.304354e-01 3.411689e-01 -2.861398e-01 5.500084e-01 1.139169e-02 1.962143e-01 -1.683854e-01 1.041628e-01 1.698010e-01 1.600554e-01 2.339973e-01 -1.294024e-01 -7.099004e-02 3.518505e-02 -1.886039e-01 2.507341e-02 -1.931740e-01
<VARIANCE> 39
 1.187718e+01 4.460226e+01 6.549470e+01 5.206044e+01 5.324416e+01 5.904610e+01 7.338420e+01 1.078859e+02 6.116129e+01 5.661610e+01 7.068555e+01 5.114610e+01 3.478649e+01 1.038245e+00 3.292096e+00 4.796103e+00 4.873112e+00 4.416806e+00 4.770807e+00 5.755158e+00 6.640145e+00 4.393446e+00 3.863282e+00 6.012257e+00 3.546914e+00 3.732551e+00 1.787909e-01 5.935796e-01 7.814186e-01 8.204280e-01 8.427185e-01 8.493212e-01 1.109807e+00 1.242317e+00 7.779834e-01 6.892478e-01 1.067583e+00 6.931755e-01 6.415984e-01
<GCONST> 1.372172e+02
<TRANSP> 5
 0.000000e+00 1.000000e+00 0.000000e+00 0.000000e+00 0.000000e+00
 0.000000e+00 5.789377e-01 4.210623e-01 0.000000e+00 0.000000e+00
 0.000000e+00 0.000000e+00 5.687097e-01 4.312904e-01 0.000000e+00
 0.000000e+00 0.000000e+00 0.000000e+00 6.223037e-01 3.776963e-01
 0.000000e+00 0.000000e+00 0.000000e+00 0.000000e+00 0.000000e+00
<ENDHMM>
~h "e"
<BEGINHMM>
<NUMSTATES> 5
<STATE> 2
<MEAN> 39
 -2.767364e-01 -3.912081e+00 5.314765e+00 -9.136437e-01 -8.061256e+00 -7.259563e+00 -5.260608e+00 4.260243e+00 -5.985321e+00 8.794558e-02 5.582095e-01 -4.801503e+00 6.291658e+01 4.636754e-02 -2.229898e-01 5.171218e-01 -8.697155e-02 -4.347548e-01 -4.643737e-01 2.216626e-01 2.879001e-01 -1.119382e-01 -2.595335e-04 1.923919e-02 1.283496e-01 3.212937e-01 7.967153e-03 1.329559e-01 -1.591291e-01 6.654070e-02 9.240908e-02 1.844470e-01 8.553766e-03 -1.648635e-01 1.220487e-01 -2.425285e-02 -9.191466e-02 -2.653139e-02 -1.032524e-01
<VARIANCE> 39
 1.514652e+01 4.717237e+01 6.636192e+01 4.294753e+01 4.890015e+01 8.837583e+01 6.481853e+01 7.582855e+01 6.264645e+01 5.869455e+01 4.442190e+01 3.315338e+01 5.081531e+01 9.763493e-01 2.670675e+00 3.251859e+00 2.602390e+00 2.941171e+00 3.857032e+00 3.453915e+00 3.775493e+00 3.259681e+00 2.954266e+00 2.869477e+00 2.239918e+00 2.895287e+00 1.966405e-01 4.616946e-01 5.231838e-01 4.378077e-01 5.713808e-01 5.796057e-01 6.285210e-01 7.083361e-01 5.730360e-01 5.474090e-01 4.993064e-01 3.910307e-01 3.760371e-01
<GCONST> 1.262293e+02
<STATE> 3
<MEAN> 39
 -2.884835e-03 -4.280642e+00 6.286369e+00 -1.152142e+00 -8.923326e+00 -7.857591e+00 -5.248037e+00 4.531462e+00 -5.881419e+00 3.245226e-02 4.291212e-01 -4.862408e+00 6.375534e+01 8.303268e-02 1.725787e-01 7.424582e-02 1.696784e-01 -9.930202e-02 7.148178e-02 1.527964e-01 -9.511181e-02 1.009227e-01 -7.504920e-02 -1.797528e-01 7.948754e-02 -9.012018e-02 -1.912521e-02 1.437450e-01 -1.541209e-01 9.377545e-02 1.559528e-01 1.733491e-01 -1.680422e-02 -1.697701e-01 6.743636e-02 -2.252763e-03 -5.356523e-02 -3.798168e-02 -1.285527e-01
<VARIANCE> 39
 1.293718e+01 4.406716e+01 6.228790e+01 4.438760e+01 4.740819e+01 8.760828e+01 5.733618e+01 7.833756e+01 6.081781e+01 5.743554e+01 4.957301e+01 3.101254e+01 4.535259e+01 8.367495e-01 2.345304e+00 2.357743e+00 2.307722e+00 2.756061e+00 2.856526e+00 2.909357e+00 3.672889e+00 2.692841e+00 2.591297e+00 2.464888e+00 1.909903e+00 2.256287e+00 1.610536e-01 3.766792e-01 4.014784e-01 4.083599e-01 4.849956e-01 4.886984e-01 5.227963e-01 6.330855e-01 5.117608e-01 5.017257e-01 4.491439e-01 3.558291e-01 2.800983e-01
<GCONST> 1.214845e+02
<STATE> 4
<MEAN> 39
 -1.089137e+00 -9.469961e-01 5.913689e+00 4.060201e-01 -7.916147e+00 -5.297189e+00 -3.860309e+00 3.210129e+00 -6.189138e+00 1.123733e+00 6.191065e-01 -3.144184e+00 5.926538e+01 3.266529e-02 2.590621e-01 -2.305640e-01 2.716126e-01 1.833659e-01 2.885172e-01 6.388670e-02 -1.890038e-01 1.276047e-01 -3.914122e-02 -1.379455e-01 4.485299e-02 -2.970102e-01 -1.443287e-02 8.762063e-03 -3.043249e-02 -1.090018e-02 3.492592e-02 2.133498e-02 -2.319938e-02 -3.557516e-02 6.722257e-03 1.602157e-03 1.107251e-02 -2.080726e-02 4.562311e-03
<VARIANCE> 39
 1.124949e+01 4.287546e+01 7.604505e+01 4.693785e+01 4.891460e+01 7.519450e+01 3.780732e+01 5.174480e+01 4.521128e+01 4.780353e+01 5.373433e+01 2.547015e+01 6.685346e+01 5.132992e-01 1.268310e+00 1.443016e+00 1.494514e+00 1.875795e+00 1.833187e+00 2.041324e+00 2.327839e+00 2.013159e+00 1.994244e+00 1.779354e+00 1.507567e+00 9.016224e-01 9.542198e-02 2.146899e-01 2.398190e-01 2.685544e-01 3.161416e-01 3.261051e-01 3.780422e-01 4.219532e-01 3.801210e-01 3.801519e-01 3.229112e-01 2.846252e-01 1.398684e-01
<GCONST> 1.093068e+02
<TRANSP> 5
 0.000000e+00 1.000000e+00 0.000000e+00 0.000000e+00 0.000000e+00
 0.000000e+00 4.770609e-01 5.229391e-01 0.000000e+00 0.000000e+00
 0.000000e+00 0.000000e+00 4.679263e-01 5.320737e-01 0.000000e+00
 0.000000e+00 0.000000e+00 0.000000e+00 8.345988e-01 1.654012e-01
 0.000000e+00 0.000000e+00 0.000000e+00 0.000000e+00 0.000000e+00
<ENDHMM>
~h "f"
<BEGINHMM>
<NUMSTATES> 5
<STATE> 2
<MEAN> 39
 -4.171973e+00 -1.587674e+00 6.455486e+00 6.502553e-01 -8.606453e+00 -4.835828e+00 -8.239886e+00 -1.290862e+00 -1.475472e+00 -2.993380e+00 1.633432e+00 -6.107906e+00 6.246423e+01 -1.058813e-01 -2.638115e-01 6.097362e-01 1.539871e-01 -4.623351e-01 -3.766682e-01 -3.487416e-01 8.403178e-02 4.254555e-02 -4.263355e-01 3.664415e-01 -5.600362e-02 3.544900e-01 1.913010e-01 -7.735497e-02 8.226293e-02 -3.156671e-02 -1.303963e-01 -2.023761e-02 -1.065943e-01 3.857736e-02 -1.474778e-01 1.512778e-02 6.464695e-02 -4.587128e-02 6.169116e-02
<VARIANCE> 39
 4.051432e+01 2.799773e+01 1.028503e+02 3.886702e+01 7.462634e+01 5.889104e+01 7.073188e+01 4.780218e+01 6.022649e+01 4.503199e+01 4.972839e+01 3.854110e+01 2.313509e+01 3.671814e+00 1.887789e+00 4.694169e+00 2.272333e+00 4.767850e+00 2.966111e+00 5.096613e+00 3.276382e+00 4.147791e+00 2.785506e+00 3.417935e+00 2.377188e+00 1.428366e+00 5.394785e-01 2.638043e-01 6.524276e-01 3.718229e-01 8.651604e-01 4.861807e-01 8.136714e-01 5.702567e-01 6.871862e-01 5.130334e-01 6.098373e-01 4.116235e-01 1.971750e-01
<GCONST> 1.277415e+02
<STATE> 3
<MEAN> 39
 -3.078343e+00 -2.137132e+00 8.598561e+00 5.423135e-01 -1.060623e+01 -4.937411e+00 -9.298657e+00 -9.921732e-01 -3.545175e+00 -4.112353e+00 3.241618e+00 -6.846758e+00 6.330542e+01 8.569143e-02 -1.616825e-01 5.665135e-01 -2.743902e-02 -5.062925e-01 -2.950863e-01 -2.771977e-01 4.626750e-02 -3.279892e-01 -2.317595e-01 3.631697e-01 -1.340321e-01 2.759027e-01 1.085375e-01 -2.422880e-02 -5.173996e-03 -6.044420e-02 1.315542e-02 3.952349e-02 -4.643740e-02 -1.416116e-02 -5.350351e-02 1.118397e-01 6.680669e-03 -5.000184e-02 5.637377e-05
<VARIANCE> 39
 3.611306e+01 2.814189e+01 1.238954e+02 3.874406e+01 7.516795e+01 6.237225e+01 7.609872e+01 4.911430e+01 7.526878e+01 4.631818e+01 5.792149e+01 3.876888e+01 2.079881e+01 2.826507e+00 1.718445e+00 4.426513e+00 2.365912e+00 4.879509e+00 2.827350e+00 4.452989e+00 3.209200e+00 4.331657e+00 2.974682e+00 3.741828e+00 2.289464e+00 1.336502e+00 4.943761e-01 2.465684e-01 6.496648e-01 3.483659e-01 8.327340e-01 4.715715e-01 6.683242e-01 6.166742e-01 7.671238e-01 5.074750e-01 6.641636e-01 3.695992e-01 1.687073e-01
<GCONST> 1.273329e+02
<STATE> 4
<MEAN> 39
 -2.465419e+00 -1.253041e+00 1.209990e+01 -7.269095e-01 -1.371290e+01 -3.953013e+00 -9.666518e+00 -8.579077e-01 -7.585932e+00 -5.808572e+00 5.583480e+00 -7.826564e+00 6.371595e+01 1.184742e-01 -7.043312e-02 1.441546e-01 -6.800365e-02 -1.083193e-01 -1.118969e-01 -1.231029e-01 -3.625906e-02 -5.566678e-02 7.127773e-02 7.812116e-02 -3.463922e-02 9.012950e-02 8.095311e-02 -1.706504e-02 -2.212493e-02 -3.363507e-02 3.901373e-02 3.026614e-02 -5.494467e-02 -2.133588e-02 6.909568e-03 9.161598e-02 -2.174997e-02 -6.489393e-03 -8.917913e-03
<VARIANCE> 39
 2.781950e+01 2.399336e+01 1.187458e+02 3.717165e+01 9.075757e+01 5.773570e+01 7.617424e+01 4.733058e+01 1.016181e+02 4.740962e+01 7.068887e+01 3.155910e+01 1.900490e+01 1.769541e+00 1.352915e+00 3.143746e+00 2.286085e+00 3.850767e+00 2.439127e+00 3.186458e+00 2.753755e+00 3.333771e+00 2.775443e+00 3.391179e+00 1.976642e+00 1.095752e+00 3.109289e-01 2.065249e-01 4.882352e-01 3.157754e-01 6.857373e-01 3.834653e-01 5.058734e-01 5.264262e-01 6.246232e-01 4.467048e-01 6.126055e-01 3.387231e-01 1.463827e-01
<GCONST> 1.218937e+02
<TRANSP> 5
 0.000000e+00 1.000000e+00 0.000000e+00 0.000000e+00 0.000000e+00
 0.000000e+00 6.509917e-01 3.490083e-01 0.000000e+00 0.000000e+00
 0.000000e+00 0.000000e+00 5.981228e-01 4.018772e-01 0.000000e+00
 0.000000e+00 0.000000e+00 0.000000e+00 7.735810e-01 2.264190e-01
 0.000000e+00 0.000000e+00 0.000000e+00 0.000000e+00 0.000000e+00
<ENDHMM>
~h "g"
<BEGINHMM>
<NUMSTATES> 5
<STATE> 2
<MEAN> 39
 1.996801e+00 1.364280e+00 6.722676e+00 -2.225765e-01 -8.569236e+00 -2.660274e+00 -1.214361e+01 -1.465949e+00 -7.045480e+00 2.334826e-01 3.170249e+00 -9.148177e+00 6.155571e+01 -2.124150e-01 -5.031837e-01 4.032499e-01 -5.362187e-01 -2.335558e-01 -8.614348e-01 -9.245166e-01 2.736646e-01 2.641725e-01 9.621712e-02 8.860025e-01 -4.881376e-01 8.049856e-01 -1.122616e-02 -1.792425e-01 -5.010643e-02 -1.683141e-01 -1.163573e-01 4.229713e-02 2.161808e-02 1.381276e-01 1.969679e-01 2.854709e-02 -2.862255e-02 -5.417350e-02 1.591295e-01
<VARIANCE> 39
 1.326535e+01 4.215888e+01 5.441115e+01 4.769155e+01 6.973538e+01 6.598605e+01 7.026961e+01 6.112012e+01 5.533006e+01 4.987205e+01 7.887298e+01 4.862211e+01 3.388194e+01 1.121242e+00 3.435934e+00 4.409160e+00 4.402385e+00 6.406414e+00 5.111245e+00 5.333359e+00 4.470813e+00 5.671580e+00 3.683150e+00 6.806524e+00 3.339352e+00 3.660903e+00 1.944816e-01 4.608656e-01 7.859674e-01 7.273232e-01 1.196963e+00 9.333436e-01 1.060143e+00 7.715192e-01 8.994783e-01 6.347156e-01 1.454983e+00 6.197566e-01 5.387933e-01
<GCONST> 1.364536e+02
<STATE> 3
<MEAN> 39
 1.652507e+00 -3.813877e-01 6.935766e+00 -1.829385e+00 -9.260164e+00 -4.286256e+00 -1.378945e+01 -3.562274e-01 -5.647465e+00 1.029843e+00 4.545636e+00 -1.033484e+01 6.372027e+01 -1.603607e-01 -6.341755e-01 9.463662e-02 -6.571537e-01 -3.352728e-01 -3.807426e-01 -3.318123e-01 5.660756e-01 5.740265e-01 1.735585e-01 2.321243e-01 -3.403252e-01 7.427315e-01 1.313194e-02 -1.256181e-02 -9.929658e-02 2.054952e-02 3.339899e-02 2.124313e-01 2.919653e-01 4.896595e-02 9.270087e-04 -2.258517e-02 -2.926723e-01 1.373450e-01 -8.687764e-02
<VARIANCE> 39
 1.282434e+01 4.322065e+01 5.270766e+01 4.455272e+01 6.303241e+01 6.170694e+01 6.931454e+01 6.529559e+01 6.372563e+01 5.486483e+01 8.363613e+01 5.505069e+01 3.430474e+01 1.087985e+00 3.061927e+00 4.386262e+00 4.415310e+00 5.717075e+00 4.662095e+00 5.314203e+00 4.958596e+00 5.408225e+00 3.837764e+00 6.767430e+00 3.539881e+00 3.271587e+00 1.882759e-01 4.053852e-01 7.061854e-01 7.147532e-01 1.071379e+00 8.122385e-01 9.833068e-01 8.438703e-01 9.150823e-01 6.440418e-01 1.307810e+00 6.349876e-01 4.758604e-01
<GCONST> 1.356459e+02
<STATE> 4
<MEAN> 39
 1.507044e+00 -1.408559e+00 6.461459e+00 -3.015271e+00 -9.405956e+00 -4.129601e+00 -1.348593e+01 9.404117e-01 -4.333898e+00 1.507080e+00 3.563534e+00 -1.051078e+01 6.450121e+01 -1.546802e-01 -3.838137e-01 -2.199658e-02 -3.625846e-01 -1.388553e-02 7.258330e-02 3.952852e-01 4.150335e-01 2.360460e-01 -1.585621e-02 -4.951304e-01 1.198035e-01 2.738547e-01 -3.967952e-03 8.055210e-02 -4.844349e-04 1.367467e-01 9.370430e-02 9.942041e-02 1.647408e-01 -1.103180e-01 -1.540892e-01 -8.544324e-02 -1.294017e-01 1.574429e-01 -1.530436e-01
<VARIANCE> 39
 1.298760e+01 4.923961e+01 5.271379e+01 4.685177e+01 5.502368e+01 5.650404e+01 6.495879e+01 6.992173e+01 6.640581e+01 5.565788e+01 7.646121e+01 6.016620e+01 3.797519e+01 1.041005e+00 2.388063e+00 3.794679e+00 3.803390e+00 3.940256e+00 3.463488e+00 4.185472e+00 4.635303e+00 4.360868e+00 3.368870e+00 5.402766e+00 3.168523e+00 2.409014e+00 1.841152e-01 3.501194e-01 6.098874e-01 6.522265e-01 7.755095e-01 6.321155e-01 8.200695e-01 7.740669e-01 7.522989e-01 5.719087e-01 9.781821e-01 5.544372e-01 3.911185e-01
<GCONST> 1.310395e+02
<TRANSP> 5
 0.000000e+00 1.000000e+00 0.000000e+00 0.000000e+00 0.000000e+00
 0.000000e+00 5.715358e-01 4.284642e-01 0.000000e+00 0.000000e+00
 0.000000e+00 0.000000e+00 4.962077e-01 5.037923e-01 0.000000e+00
 0.000000e+00 0.000000e+00 0.000000e+00 4.904439e-01 5.095561e-01
 0.000000e+00 0.000000e+00 0.000000e+00 0.000000e+00 0.000000e+00
<ENDHMM>
~h "h"
<BEGINHMM>
<NUMSTATES> 5
<STATE> 2
<MEAN> 39
 -2.917599e-01 -3.960609e+00 1.728878e+00 -2.468194e+00 -2.986574e+00 -2.245186e+00 -4.408334e+00 1.984773e+00 -3.646882e+00 -8.637124e-01 -3.798051e+00 -5.466242e+00 6.384264e+01 -6.802495e-02 1.509189e-01 -2.368762e-01 4.261369e-01 2.135794e-01 1.498324e-01 4.339023e-01 -1.639501e-02 7.444800e-02 -1.396787e-01 -2.278508e-01 2.099859e-01 -4.530459e-01 3.294251e-02 1.549175e-03 1.084751e-02 -3.848124e-03 -1.100768e-01 -1.990294e-02 -1.117878e-01 -3.111627e-02 4.406698e-03 2.425269e-02 9.188402e-02 -3.237459e-02 -2.611255e-02
<VARIANCE> 39
 1.584823e+01 4.863628e+01 5.902382e+01 4.926291e+01 6.427111e+01 6.608276e+01 5.997881e+01 6.167961e+01 6.477811e+01 4.800375e+01 5.642157e+01 3.759402e+01 4.642459e+01 6.040519e-01 1.503993e+00 1.685230e+00 1.927381e+00 2.078586e+00 2.098147e+00 2.212620e+00 2.298598e+00 2.185791e+00 1.935364e+00 2.027249e+00 1.841053e+00 1.120700e+00 9.578835e-02 2.525345e-01 2.547736e-01 3.379317e-01 3.518218e-01 3.669208e-01 3.955027e-01 4.223546e-01 4.010070e-01 3.570441e-01 3.718757e-01 3.190950e-01 1.420553e-01
<GCONST> 1.134265e+02
<STATE> 3
<MEAN> 39
 -3.282748e-01 -3.400352e+00 1.162263e+00 -1.279918e+00 -2.893250e+00 -1.728413e+00 -3.793175e+00 1.752702e+00 -3.536324e+00 -1.004825e+00 -3.912586e+00 -4.997173e+00 6.233071e+01 2.082793e-02 1.916339e-01 -2.132057e-01 3.938279e-01 1.481637e-02 1.086030e-01 1.771929e-01 -3.396541e-02 3.081887e-02 -4.835224e-02 -3.706187e-02 1.443868e-01 -4.936585e-01 2.553726e-02 7.030782e-03 1.686764e-02 -3.584144e-02 -8.055834e-02 -4.039384e-02 -1.139832e-01 -2.270057e-02 -9.911776e-03 2.128931e-02 8.595917e-02 -3.377522e-02 2.206441e-02
<VARIANCE> 39
 1.535779e+01 4.829411e+01 5.563747e+01 4.544235e+01 5.677427e+01 5.941870e+01 5.501857e+01 5.609641e+01 6.087941e+01 4.446965e+01 5.103859e+01 3.766776e+01 4.881024e+01 5.696638e-01 1.341846e+00 1.585498e+00 1.832821e+00 1.914942e+00 2.061450e+00 2.131740e+00 2.222453e+00 2.159177e+00 1.952174e+00 1.867345e+00 1.802132e+00 1.026646e+00 8.944336e-02 2.310521e-01 2.430612e-01 3.060895e-01 3.329843e-01 3.522143e-01 3.734516e-01 4.095769e-01 3.917205e-01 3.690230e-01 3.541745e-01 3.149789e-01 1.263082e-01
<GCONST> 1.113434e+02
<STATE> 4
<MEAN> 39
 -7.616522e-01 -4.223462e-01 -1.499878e+00 1.836426e+00 -2.871169e+00 4.878299e-01 -3.387337e+00 2.000168e+00 -3.168862e+00 -1.296991e+00 -3.083375e+00 -3.361656e+00 5.627530e+01 1.535760e-02 1.840722e-01 -8.543374e-02 1.790271e-01 -5.933411e-02 6.121062e-02 -1.240915e-02 -2.813467e-02 1.842103e-02 -9.068099e-03 8.046328e-02 6.808168e-02 -2.720062e-01 2.405240e-03 -1.220206e-02 2.666651e-02 -3.333788e-02 -1.755739e-02 -2.559694e-02 -3.969920e-02 -1.587457e-02 -2.315003e-03 -3.346197e-04 2.474068e-02 -2.028751e-02 4.936936e-02
<VARIANCE> 39
 1.240129e+01 4.831007e+01 3.923472e+01 4.166122e+01 3.886105e+01 4.292751e+01 3.832847e+01 3.932996e+01 4.865479e+01 3.306245e+01 3.697974e+01 3.473906e+01 6.279842e+01 4.164270e-01 9.607417e-01 1.147347e+00 1.379165e+00 1.544984e+00 1.663506e+00 1.767460e+00 1.988318e+00 1.926104e+00 1.725366e+00 1.618426e+00 1.574310e+00 6.497475e-01 7.082044e-02 1.565605e-01 1.917712e-01 2.442404e-01 2.720458e-01 3.007401e-01 3.426480e-01 3.757299e-01 3.656175e-01 3.393812e-01 3.144145e-01 2.981340e-01 8.601402e-02
<GCONST> 1.033159e+02
<TRANSP> 5
 0.000000e+00 1.000000e+00 0.000000e+00 0.000000e+00 0.000000e+00
 0.000000e+00 5.358911e-01 4.641089e-01 0.000000e+00 0.000000e+00
 0.000000e+00 0.000000e+00 5.403646e-01 4.596354e-01 0.000000e+00
 0.000000e+00 0.000000e+00 0.000000e+00 8.658112e-01 1.341888e-01
 0.000000e+00 0.000000e+00 0.000000e+00 0.000000e+00 0.000000e+00
<ENDHMM>
~h "i"
<BEGINHMM>
<NUMSTATES> 5
<STATE> 2
<MEAN> 39
 -1.910870e+00 6.326298e-02 1.507624e+01 -1.060798e+00 -1.342248e+01 -6.514732e+00 -1.053814e+01 -1.414526e+00 -9.831306e+00 -2.683698e+00 4.832551e+00 -6.538461e+00 6.350147e+01 -1.333424e-01 -1.225725e-01 1.375300e+00 -4.881882e-01 -9.244322e-01 -2.264679e-01 -6.129596e-01 5.486565e-02 -6.968731e-01 -9.761023e-02 7.445658e-01 -1.880379e-01 5.004301e-01 8.423971e-02 1.017204e-01 -4.625007e-01 1.024161e-01 2.768582e-01 2.064838e-01 1.479135e-01 4.816530e-02 1.592826e-01 1.242200e-01 -2.561771e-01 2.143158e-02 -2.050834e-01
<VARIANCE> 39
 1.634736e+01 3.273850e+01 7.717514e+01 4.220746e+01 6.530544e+01 5.503969e+01 6.201390e+01 5.818201e+01 6.212989e+01 5.504094e+01 5.893667e+01 3.606502e+01 2.800819e+01 1.658373e+00 1.921854e+00 7.600111e+00 3.470479e+00 5.345537e+00 3.933984e+00 4.835064e+00 4.088468e+00 4.675775e+00 3.589214e+00 4.648049e+00 2.630264e+00 2.340035e+00 2.821280e-01 3.206460e-01 1.147752e+00 6.030195e-01 1.012280e+00 6.976699e-01 9.039268e-01 7.449421e-01 8.300495e-01 6.257061e-01 8.165749e-01 4.867540e-01 3.402580e-01
<GCONST> 1.320238e+02
<STATE> 3
<MEAN> 39
 -1.656518e+00 2.122997e-01 1.598139e+01 -1.599850e+00 -1.425268e+01 -6.136275e+00 -1.126833e+01 -1.134503e+00 -1.067588e+01 -2.257361e+00 5.269006e+00 -6.706082e+00 6.359018e+01 1.601082e-01 1.169328e-01 -3.754955e-01 8.648047e-02 1.685931e-01 2.033835e-01 1.244128e-01 1.167260e-01 -3.976090e-02 2.158262e-01 -2.059300e-01 4.400243e-02 -2.564651e-01 4.655471e-02 6.452951e-02 -4.996516e-01 1.572057e-01 3.472187e-01 1.331806e-01 2.295140e-01 -2.482472e-02 2.271711e-01 5.906780e-02 -2.865900e-01 5.263629e-02 -1.933520e-01
<VARIANCE> 39
 1.224546e+01 3.252425e+01 6.561273e+01 4.308815e+01 5.776828e+01 5.671091e+01 5.734687e+01 5.979352e+01 5.783366e+01 5.809111e+01 5.700313e+01 3.600364e+01 2.806594e+01 1.108006e+00 1.786609e+00 5.379317e+00 3.015358e+00 4.178858e+00 3.471692e+00 4.007252e+00 3.719065e+00 3.801907e+00 2.907508e+00 3.729884e+00 2.315099e+00 1.987523e+00 1.949620e-01 2.916176e-01 8.258993e-01 5.194538e-01 7.952584e-01 6.340332e-01 7.426370e-01 6.857795e-01 7.161125e-01 5.563368e-01 6.887506e-01 4.349203e-01 2.913109e-01
<GCONST> 1.265854e+02
<STATE> 4
<MEAN> 39
 -1.100468e+00 1.412573e+00 1.318824e+01 -8.517500e-01 -1.257681e+01 -4.193298e+00 -9.673776e+00 -1.201215e+00 -1.047782e+01 -1.108917e+00 3.341778e+00 -6.007103e+00 6.112878e+01 1.849477e-01 1.117996e-01 -1.126627e+00 3.877864e-01 6.587135e-01 3.334951e-01 4.810277e-01 7.907271e-02 4.177899e-01 1.701113e-01 -6.009039e-01 1.494849e-01 -4.978492e-01 -3.447790e-02 -2.337918e-02 -1.270278e-01 -4.008119e-03 1.168143e-01 1.446708e-02 2.812464e-02 -3.402042e-02 1.256935e-01 -2.488697e-02 -6.892872e-02 -5.891693e-03 2.138545e-02
<VARIANCE> 39
 1.197369e+01 3.562078e+01 6.869036e+01 4.738727e+01 5.426237e+01 5.827412e+01 5.201981e+01 5.986423e+01 5.838759e+01 5.153602e+01 5.346725e+01 3.618150e+01 4.054758e+01 8.710459e-01 1.700407e+00 3.117596e+00 2.462808e+00 3.087109e+00 3.034364e+00 3.181357e+00 3.403432e+00 3.177444e+00 2.580064e+00 2.846734e+00 2.122395e+00 1.460838e+00 1.463400e-01 2.566750e-01 5.419834e-01 4.395871e-01 5.792127e-01 5.437529e-01 5.817354e-01 6.108375e-01 5.818750e-01 4.629263e-01 5.228784e-01 3.749583e-01 2.412718e-01
<GCONST> 1.212660e+02
<TRANSP> 5
 0.000000e+00 1.000000e+00 0.000000e+00 0.000000e+00 0.000000e+00
 0.000000e+00 6.280454e-01 3.719545e-01 0.000000e+00 0.000000e+00
 0.000000e+00 0.000000e+00 5.836976e-01 4.163024e-01 0.000000e+00
 0.000000e+00 0.000000e+00 0.000000e+00 6.832012e-01 3.167988e-01
 0.000000e+00 0.000000e+00 0.000000e+00 0.000000e+00 0.000000e+00
<ENDHMM>
~h "j"
<BEGINHMM>
<NUMSTATES> 5
<STATE> 2
<MEAN> 39
 4.336734e-01 2.341086e+00 8.956341e+00 1.454889e+00 -6.501498e+00 -5.136076e+00 -1.090053e+01 1.493871e+00 -5.184122e+00 -2.677913e+00 -9.408098e-01 -2.803730e+00 6.045360e+01 -1.833086e-01 2.122209e-01 7.209091e-01 4.524969e-02 -1.129131e-01 -3.010543e-01 -4.357499e-01 -1.302431e-01 -1.566012e-01 -1.689365e-01 1.891072e-01 1.775654e-01 1.002736e-01 7.313536e-03 -1.760737e-01 -1.174655e-01 -1.643776e-01 -4.422546e-02 -3.304627e-02 -9.664525e-02 6.122678e-02 1.388465e-02 1.450435e-01 9.618103e-02 -1.383135e-01 1.530811e-01
<VARIANCE> 39
 1.425285e+01 3.810564e+01 5.844528e+01 3.860713e+01 4.365135e+01 5.517696e+01 6.800063e+01 5.744770e+01 3.645050e+01 4.292274e+01 3.854812e+01 3.303168e+01 3.790759e+01 1.862723e+00 3.063450e+00 4.881658e+00 3.544714e+00 4.476710e+00 5.467387e+00 5.972912e+00 3.583784e+00 2.940184e+00 3.401860e+00 3.365574e+00 2.904629e+00 3.100165e+00 3.872010e-01 4.374543e-01 1.032753e+00 5.769790e-01 9.474190e-01 1.090944e+00 1.168582e+00 6.549271e-01 6.009642e-01 6.684682e-01 6.912470e-01 6.213783e-01 4.709572e-01
<GCONST> 1.314233e+02
<STATE> 3
<MEAN> 39
 -2.324098e-02 2.147492e+00 1.038516e+01 9.664258e-01 -7.137297e+00 -5.945206e+00 -1.262476e+01 1.274865e+00 -5.515844e+00 -2.431972e+00 1.762220e-01 -2.772192e+00 6.129205e+01 -1.064076e-01 -2.818529e-01 2.261356e-01 -4.155208e-01 -2.749381e-01 -3.382115e-01 -5.827863e-01 1.304933e-01 -1.336538e-01 2.806133e-01 5.127584e-01 -1.789119e-01 4.979821e-01 4.434391e-02 -1.019379e-01 -2.608694e-01 -1.491049e-01 4.369207e-02 9.645263e-02 9.527047e-02 6.892776e-02 2.295538e-02 1.336859e-01 1.658911e-02 -1.273144e-01 5.826075e-02
<VARIANCE> 39
 1.337885e+01 3.725503e+01 5.717450e+01 3.780162e+01 4.785198e+01 5.168835e+01 7.880109e+01 5.565090e+01 3.696529e+01 4.518335e+01 4.062418e+01 3.507020e+01 3.738261e+01 1.903593e+00 3.379783e+00 5.736878e+00 3.505973e+00 5.372022e+00 5.543223e+00 6.800097e+00 3.937392e+00 3.215794e+00 3.669483e+00 3.770434e+00 3.154362e+00 3.245920e+00 3.830796e-01 4.786676e-01 1.071391e+00 5.762884e-01 1.103045e+00 1.104311e+00 1.282273e+00 6.953583e-01 5.880635e-01 6.997889e-01 7.642083e-01 6.416800e-01 4.804307e-01
<GCONST> 1.333064e+02
<STATE> 4
<MEAN> 39
 -1.257830e+00 2.027040e+00 1.020919e+01 -9.821916e-01 -7.142646e+00 -7.131791e+00 -1.103251e+01 1.127697e+00 -6.896747e+00 -2.698362e-01 1.872079e+00 -3.160085e+00 6.263456e+01 6.482749e-02 -6.033756e-01 -1.960218e-01 -6.939397e-01 -2.567899e-01 -2.223335e-01 -3.792241e-01 3.850620e-01 5.908348e-02 4.498663e-01 2.904253e-01 -3.005763e-01 6.692897e-01 1.273516e-01 -4.150884e-02 -2.210530e-01 3.112227e-02 1.139471e-01 2.380753e-01 1.114082e-01 2.041803e-02 9.426533e-02 -5.668738e-03 -1.787776e-01 -8.735178e-02 -9.533937e-02
<VARIANCE> 39
 2.040143e+01 4.891410e+01 5.687655e+01 4.559299e+01 5.805069e+01 5.805838e+01 7.617373e+01 5.998893e+01 4.844643e+01 4.799133e+01 4.007994e+01 3.385711e+01 4.587188e+01 2.357568e+00 3.356528e+00 5.541917e+00 3.131747e+00 6.063078e+00 5.505728e+00 5.397511e+00 4.465479e+00 3.663731e+00 3.659894e+00 4.071560e+00 2.928259e+00 2.614011e+00 4.474215e-01 5.109631e-01 9.164878e-01 5.726660e-01 1.274198e+00 1.042765e+00 1.091874e+00 8.342871e-01 6.465728e-01 6.796367e-01 7.337871e-01 5.438840e-01 4.231384e-01
<GCONST> 1.349015e+02
<TRANSP> 5
 0.000000e+00 1.000000e+00 0.000000e+00 0.000000e+00 0.000000e+00
 0.000000e+00 6.168798e-01 3.831201e-01 0.000000e+00 0.000000e+00
 0.000000e+00 0.000000e+00 6.126848e-01 3.873152e-01 0.000000e+00
 0.000000e+00 0.000000e+00 0.000000e+00 6.465088e-01 3.534912e-01
 0.000000e+00 0.000000e+00 0.000000e+00 0.000000e+00 0.000000e+00
<ENDHMM>
~h "k"
<BEGINHMM>
<NUMSTATES> 5
<STATE> 2
<MEAN> 39
 7.408667e-01 -3.990126e-01 -3.685516e+00 -9.625986e-01 -2.625728e+00 3.424683e-01 -6.211236e+00 -2.916780e-02 -4.691636e+00 1.606718e+00 -1.195680e+00 -5.151824e+00 5.748053e+01 -1.067311e-01 -3.134752e-01 -5.300068e-01 -4.306758e-01 6.317985e-01 -2.356126e-01 -1.999098e-01 -4.840550e-02 1.293408e-01 1.785658e-01 9.032265e-03 -8.354275e-02 4.087502e-01 4.134969e-02 -1.816862e-01 2.249598e-01 -2.568976e-01 -1.229729e-01 -1.116859e-01 -1.131952e-01 2.548552e-02 -2.685437e-02 7.275600e-03 4.885510e-02 -1.255562e-01 3.646481e-01
<VARIANCE> 39
 1.494512e+01 3.757190e+01 4.353379e+01 5.835776e+01 5.979737e+01 5.543534e+01 4.817163e+01 4.281151e+01 4.104111e+01 3.977815e+01 3.598155e+01 3.569455e+01 3.841578e+01 1.456833e+00 3.522209e+00 3.201315e+00 5.127926e+00 5.585477e+00 4.206374e+00 3.789637e+00 3.846315e+00 3.758569e+00 3.632723e+00 2.974132e+00 3.190891e+00 4.016980e+00 2.687765e-01 5.409178e-01 5.573483e-01 8.146280e-01 1.128889e+00 7.401275e-01 6.772024e-01 7.340885e-01 7.048200e-01 6.843938e-01 5.678146e-01 5.991704e-01 5.527451e-01
<GCONST> 1.303181e+02
<STATE> 3
<MEAN> 39
 6.429613e-01 -1.528812e+00 -4.138362e+00 -2.609200e+00 -1.620244e+00 -5.013919e-01 -6.976986e+00 -2.901140e-02 -4.557609e+00 2.061260e+00 -1.001430e+00 -5.670384e+00 5.932618e+01 9.235865e-02 -4.690037e-01 1.637194e-01 -7.908792e-01 -3.919886e-02 -2.960297e-01 -2.795383e-01 6.048895e-02 1.171907e-02 6.622310e-02 9.994150e-02 -3.056487e-01 9.078273e-01 1.084977e-01 -3.763008e-02 3.123292e-01 -6.566271e-02 -3.516798e-01 3.982878e-02 -2.480296e-02 4.418680e-02 -5.554535e-02 -8.975989e-02 6.034856e-02 -8.178731e-02 1.421849e-01
<VARIANCE> 39
 1.837742e+01 3.859676e+01 4.855802e+01 6.778629e+01 6.464365e+01 6.335581e+01 5.441156e+01 4.739542e+01 4.514542e+01 4.308964e+01 3.902705e+01 3.797367e+01 3.905006e+01 1.896394e+00 3.828956e+00 3.905650e+00 5.724741e+00 6.639649e+00 4.843917e+00 4.127466e+00 4.517704e+00 4.429022e+00 3.839675e+00 3.401361e+00 3.786957e+00 4.191890e+00 3.481044e-01 5.845975e-01 6.602967e-01 9.741712e-01 1.305131e+00 8.420300e-01 8.008482e-01 8.559521e-01 8.103861e-01 7.558321e-01 6.510657e-01 6.757149e-01 6.100526e-01
<GCONST> 1.352391e+02
<STATE> 4
<MEAN> 39
 9.193397e-01 -7.784866e-01 -3.357381e+00 -2.538621e+00 -2.886290e+00 1.072069e-02 -6.419265e+00 2.625614e-01 -4.630287e+00 1.365842e+00 -1.041342e+00 -5.455688e+00 5.895418e+01 1.924482e-01 -2.205830e-01 5.022911e-01 -5.281370e-01 -5.043699e-01 -1.114429e-01 -2.235892e-01 2.429346e-02 -4.424169e-02 -1.467096e-01 1.349673e-01 -2.260465e-01 6.654347e-01 5.126770e-02 -2.135581e-02 1.561168e-01 2.330437e-02 -1.471012e-01 2.624203e-02 -7.244718e-02 -1.419575e-02 -2.879418e-02 -3.444081e-02 5.851632e-02 -3.459100e-02 4.945603e-02
<VARIANCE> 39
 1.873923e+01 4.372729e+01 4.691790e+01 7.048988e+01 5.186576e+01 6.104757e+01 4.951651e+01 4.378580e+01 4.501938e+01 3.957599e+01 3.707217e+01 3.886866e+01 4.820177e+01 1.631709e+00 3.085156e+00 3.242200e+00 4.601425e+00 5.102767e+00 3.851274e+00 3.799732e+00 4.168668e+00 3.998314e+00 3.362079e+00 3.177352e+00 3.359588e+00 3.101123e+00 2.948627e-01 4.603485e-01 5.294508e-01 8.243926e-01 9.438042e-01 6.854805e-01 7.048079e-01 7.514949e-01 7.215289e-01 6.371721e-01 5.959067e-01 5.675333e-01 4.703660e-01
<GCONST> 1.305105e+02
<TRANSP> 5
 0.000000e+00 1.000000e+00 0.000000e+00 0.000000e+00 0.000000e+00
 0.000000e+00 4.655122e-01 5.344878e-01 0.000000e+00 0.000000e+00
 0.000000e+00 0.000000e+00 4.614692e-01 5.385308e-01 0.000000e+00
 0.000000e+00 0.000000e+00 0.000000e+00 4.924133e-01 5.075867e-01
 0.000000e+00 0.000000e+00 0.000000e+00 0.000000e+00 0.000000e+00
<ENDHMM>
~h "l"
<BEGINHMM>
<NUMSTATES> 5
<STATE> 2
<MEAN> 39
 2.544116e+00 -5.086496e+00 2.890564e+00 -7.424346e+00 -6.960072e+00 -1.237333e+00 -1.419177e+01 -2.692670e+00 -2.674432e-01 3.739936e+00 1.629127e+00 -1.054663e+01 6.649343e+01 7.231157e-02 -1.356680e-01 7.642836e-02 -2.471402e-01 -3.554994e-02 1.300915e-01 -4.334210e-01 -1.297596e-01 2.258943e-01 3.518073e-01 8.212783e-02 -2.948072e-01 1.340126e-01 -5.802266e-02 5.242716e-02 -4.041146e-02 9.823604e-02 1.956946e-02 2.713485e-02 2.386542e-01 1.724231e-01 -1.442988e-01 -2.174312e-01 -7.923450e-02 1.001351e-01 -7.213675e-02
<VARIANCE> 39
 1.152903e+01 4.261501e+01 5.810798e+01 6.662463e+01 5.491311e+01 6.501909e+01 8.676422e+01 8.976313e+01 8.367862e+01 5.313795e+01 5.920311e+01 7.056553e+01 2.888099e+01 6.371837e-01 1.913760e+00 2.283939e+00 3.170554e+00 2.592477e+00 3.809633e+00 4.158446e+00 5.061424e+00 3.858222e+00 3.603670e+00 3.598080e+00 2.798529e+00 1.186302e+00 1.143871e-01 2.837301e-01 3.058055e-01 4.902213e-01 4.689133e-01 5.997668e-01 6.922001e-01 8.708699e-01 6.667921e-01 6.091920e-01 6.846169e-01 4.956464e-01 1.599219e-01
<GCONST> 1.250896e+02
<STATE> 3
<MEAN> 39
 2.565131e+00 -5.309500e+00 2.778826e+00 -7.645886e+00 -6.885615e+00 -8.720002e-01 -1.442546e+01 -2.294641e+00 -1.632714e-01 3.710395e+00 1.501107e+00 -1.090682e+01 6.662959e+01 -2.758270e-02 -8.078275e-02 -1.922400e-02 -3.773830e-02 1.731822e-02 2.411446e-01 1.772784e-01 2.899759e-01 -1.205553e-01 -2.070184e-01 -2.006930e-01 -5.964057e-02 8.940411e-03 -4.328005e-02 6.306062e-02 -2.343539e-02 1.184453e-01 2.367407e-02 1.379665e-02 2.635224e-01 1.329960e-01 -1.761746e-01 -2.029309e-01 -1.020096e-01 1.287396e-01 -7.557049e-02
<VARIANCE> 39
 1.126987e+01 4.106577e+01 5.557916e+01 6.463211e+01 5.329231e+01 6.328454e+01 8.562872e+01 8.744564e+01 8.807225e+01 5.393747e+01 6.344619e+01 7.225665e+01 2.779877e+01 5.736542e-01 1.898621e+00 2.125647e+00 2.927748e+00 2.335358e+00 3.544321e+00 3.831661e+00 4.636611e+00 3.797498e+00 3.306348e+00 3.707428e+00 2.553731e+00 1.139717e+00 9.838746e-02 2.842080e-01 3.027646e-01 4.757635e-01 4.248620e-01 5.679540e-01 6.714168e-01 8.045523e-01 6.596290e-01 5.946984e-01 7.005967e-01 4.845981e-01 1.545280e-01
<GCONST> 1.236448e+02
<STATE> 4
<MEAN> 39
 2.407329e+00 -5.258449e+00 2.290223e+00 -7.389542e+00 -6.451531e+00 -8.239400e-02 -1.345579e+01 -1.376783e+00 -3.549068e-01 2.439646e+00 5.225719e-01 -1.075961e+01 6.629665e+01 -6.269768e-02 9.176181e-02 -1.078947e-03 2.682496e-01 5.330588e-02 1.782552e-01 5.922530e-01 4.082964e-01 -4.905917e-01 -4.487413e-01 -3.676968e-01 2.443229e-01 -2.054916e-01 -1.312094e-02 1.033471e-01 1.021079e-02 1.203195e-01 -3.445060e-03 -6.673436e-02 1.189088e-01 2.541564e-03 -1.373263e-01 -3.265503e-02 -3.328394e-03 1.175397e-01 -9.064393e-02
<VARIANCE> 39
 1.169365e+01 4.213531e+01 5.690159e+01 6.516547e+01 4.994379e+01 6.481181e+01 7.893105e+01 8.631221e+01 8.692254e+01 5.338015e+01 6.716575e+01 6.862057e+01 3.116007e+01 5.534268e-01 1.795385e+00 1.884128e+00 2.724494e+00 2.309089e+00 3.212759e+00 3.293446e+00 3.977498e+00 3.631665e+00 2.990808e+00 3.766553e+00 2.384457e+00 1.202852e+00 9.084681e-02 2.736207e-01 2.927696e-01 4.584955e-01 4.059618e-01 5.225605e-01 5.912498e-01 7.127351e-01 6.042183e-01 5.511764e-01 6.786968e-01 4.396047e-01 1.643458e-01
<GCONST> 1.220604e+02
<TRANSP> 5
 0.000000e+00 1.000000e+00 0.000000e+00 0.000000e+00 0.000000e+00
 0.000000e+00 4.950444e-01 5.049556e-01 0.000000e+00 0.000000e+00
 0.000000e+00 0.000000e+00 4.774834e-01 5.225166e-01 0.000000e+00
 0.000000e+00 0.000000e+00 0.000000e+00 5.563808e-01 4.436192e-01
 0.000000e+00 0.000000e+00 0.000000e+00 0.000000e+00 0.000000e+00
<ENDHMM>
~h "m"
<BEGINHMM>
<NUMSTATES> 5
<STATE> 2
<MEAN> 39
 4.225258e+00 -2.167145e+00 3.099886e+00 -8.329171e-01 -7.612576e+00 5.882239e+00 -6.983185e+00 -5.176595e+00 -1.012456e+01 -2.473700e-01 -6.122662e-01 -8.426517e+00 6.210949e+01 1.389139e-01 5.617829e-02 3.306738e-01 2.729275e-01 -1.471681e-01 4.536166e-01 1.371472e-01 -4.461173e-01 -5.036527e-01 -1.298357e-01 -2.000563e-01 -7.306352e-02 -9.718785e-02 -6.216202e-02 -9.973878e-02 -1.371287e-01 -2.275040e-01 5.228748e-02 -2.300824e-01 -1.162867e-01 2.770429e-01 3.447774e-01 4.756371e-02 5.495864e-02 -2.386486e-02 1.230835e-01
<VARIANCE> 39
 1.089547e+01 3.591901e+01 4.294357e+01 4.468185e+01 6.337519e+01 5.079079e+01 4.753006e+01 4.927425e+01 6.246063e+01 3.732051e+01 4.300489e+01 4.473954e+01 2.589154e+01 6.641014e-01 1.675147e+00 2.560245e+00 3.003413e+00 2.388241e+00 2.849242e+00 2.506560e+00 3.789976e+00 4.952055e+00 2.515068e+00 2.922918e+00 2.100290e+00 1.234139e+00 1.234842e-01 2.093745e-01 3.902469e-01 4.728177e-01 4.158161e-01 4.743138e-01 4.469179e-01 6.168493e-01 7.821247e-01 4.791923e-01 5.436984e-01 3.864350e-01 1.437731e-01
<GCONST> 1.177362e+02
<STATE> 3
<MEAN> 39
 4.389297e+00 -2.317002e+00 3.355841e+00 -1.036465e+00 -7.923189e+00 6.295135e+00 -7.057457e+00 -5.333069e+00 -1.014600e+01 -3.413284e-01 -7.896698e-01 -8.683456e+00 6.225392e+01 3.822654e-02 -1.238517e-01 -1.282342e-01 -1.998336e-01 -1.452843e-02 -3.051788e-02 -7.655019e-02 2.101296e-01 3.400730e-01 8.913663e-03 -2.511823e-02 -8.916400e-02 1.125247e-01 -5.730896e-02 -7.355320e-02 -1.599487e-01 -1.622106e-01 6.690025e-02 -2.253278e-01 -7.605080e-02 2.769077e-01 3.164026e-01 4.514259e-02 5.323420e-02 -2.017743e-03 8.447662e-02
<VARIANCE> 39
 9.828216e+00 3.721093e+01 4.509716e+01 4.481017e+01 6.850713e+01 5.151350e+01 4.637741e+01 5.054471e+01 6.213789e+01 3.878405e+01 4.208240e+01 4.615555e+01 2.465549e+01 5.672008e-01 1.722096e+00 2.496733e+00 2.936819e+00 2.431568e+00 2.677963e+00 2.407457e+00 3.697997e+00 4.794384e+00 2.461516e+00 2.819649e+00 2.184930e+00 1.135181e+00 1.094966e-01 2.151382e-01 3.949145e-01 4.800300e-01 4.311802e-01 4.709313e-01 4.311738e-01 6.106983e-01 7.964050e-01 4.718739e-01 5.256886e-01 3.945221e-01 1.370999e-01
<GCONST> 1.172459e+02
<STATE> 4
<MEAN> 39
 4.252262e+00 -2.488842e+00 2.411999e+00 -2.022423e+00 -7.718400e+00 6.425006e+00 -7.584672e+00 -4.017622e+00 -8.108563e+00 -7.183337e-01 -1.044303e+00 -9.082949e+00 6.234777e+01 -6.648465e-02 -1.472680e-01 -3.447546e-01 -2.629198e-01 1.212017e-01 -3.824663e-01 -1.332202e-01 5.898159e-01 7.207626e-01 2.876287e-02 1.698446e-02 -1.704095e-02 1.131655e-01 -5.617155e-02 -2.360464e-02 -6.426574e-03 -1.634740e-02 4.149103e-02 -1.419572e-01 -3.168277e-02 1.203088e-01 9.185264e-02 2.863121e-03 6.643563e-03 2.041925e-02 2.431116e-02
<VARIANCE> 39
 9.860716e+00 4.615301e+01 4.519146e+01 4.897611e+01 7.963094e+01 5.231622e+01 4.772782e+01 5.395005e+01 6.216717e+01 4.237859e+01 4.304507e+01 4.930887e+01 2.978125e+01 5.588390e-01 1.678316e+00 2.143765e+00 2.626230e+00 2.430207e+00 2.498480e+00 2.358388e+00 3.466637e+00 4.209734e+00 2.420728e+00 2.665524e+00 2.195632e+00 1.050289e+00 1.049920e-01 2.441577e-01 3.711088e-01 4.797657e-01 4.253322e-01 4.342418e-01 4.308436e-01 5.985924e-01 7.157172e-01 4.514443e-01 4.907680e-01 3.868863e-01 1.425223e-01
<GCONST> 1.171520e+02
<TRANSP> 5
 0.000000e+00 1.000000e+00 0.000000e+00 0.000000e+00 0.000000e+00
 0.000000e+00 4.872999e-01 5.127000e-01 0.000000e+00 0.000000e+00
 0.000000e+00 0.000000e+00 4.900405e-01 5.099595e-01 0.000000e+00
 0.000000e+00 0.000000e+00 0.000000e+00 6.224445e-01 3.775556e-01
 0.000000e+00 0.000000e+00 0.000000e+00 0.000000e+00 0.000000e+00
<ENDHMM>
~h "n"
<BEGINHMM>
<NUMSTATES> 5
<STATE> 2
<MEAN> 39
 3.134969e+00 -3.957148e+00 5.700787e+00 1.779242e+00 -8.832697e+00 -1.371808e+00 -9.415809e+00 -4.235789e-01 -5.232742e+00 1.591645e+00 -4.562335e+00 -9.720606e+00 6.290403e+01 1.417013e-01 6.520166e-01 3.045261e-01 6.642361e-01 -1.608733e-01 3.325236e-01 1.614331e-01 -8.927063e-01 -3.510974e-01 2.224786e-01 -4.351903e-01 2.062423e-01 -5.876614e-01 -7.894174e-02 -5.947789e-02 -1.452963e-01 -2.046557e-01 8.146621e-02 -8.115415e-03 6.549825e-02 1.782429e-01 7.929087e-02 -1.603503e-01 1.511019e-01 4.665603e-02 7.643872e-02
<VARIANCE> 39
 8.172138e+00 4.621515e+01 4.103056e+01 3.631158e+01 5.419295e+01 4.083590e+01 5.163209e+01 9.716782e+01 4.974396e+01 5.643629e+01 4.603918e+01 4.975906e+01 2.823920e+01 5.298854e-01 2.361174e+00 2.551336e+00 2.727403e+00 2.339236e+00 2.541271e+00 2.646974e+00 7.397771e+00 3.019756e+00 3.756726e+00 3.038758e+00 2.320485e+00 1.439841e+00 1.004619e-01 3.898203e-01 3.969827e-01 4.365799e-01 3.969153e-01 4.580893e-01 5.007186e-01 1.411234e+00 5.298936e-01 6.924192e-01 5.388540e-01 4.185066e-01 2.202438e-01
<GCONST> 1.207757e+02
<STATE> 3
<MEAN> 39
 3.196572e+00 -2.622379e+00 5.706988e+00 2.646843e+00 -8.695852e+00 -6.400632e-01 -8.794559e+00 -1.645788e+00 -5.639100e+00 1.493468e+00 -5.112667e+00 -8.960147e+00 6.173514e+01 -3.162033e-02 4.159253e-01 -1.461333e-01 1.999913e-01 9.330358e-02 2.498753e-01 2.907688e-01 -1.697473e-01 -1.248089e-01 -2.426642e-01 -2.351344e-02 2.261963e-01 -3.865449e-01 -1.000225e-01 -1.185879e-01 -1.478707e-01 -2.359246e-01 1.078354e-01 -7.375868e-02 2.738023e-02 3.128310e-01 8.306614e-02 -1.718612e-01 1.996346e-01 9.180826e-03 1.120494e-01
<VARIANCE> 39
 8.354906e+00 4.385513e+01 3.901214e+01 3.431750e+01 5.404686e+01 3.904348e+01 4.929614e+01 8.685006e+01 4.715692e+01 5.698684e+01 4.522555e+01 4.530589e+01 2.762639e+01 5.651662e-01 2.265189e+00 2.269650e+00 2.616811e+00 2.257531e+00 2.275029e+00 2.529470e+00 6.843517e+00 2.780155e+00 3.522442e+00 2.864853e+00 2.207983e+00 1.442500e+00 1.045694e-01 3.517515e-01 3.891741e-01 4.369834e-01 4.056328e-01 4.370359e-01 4.812427e-01 1.191429e+00 5.011066e-01 6.537391e-01 5.421406e-01 4.019473e-01 1.988980e-01
<GCONST> 1.190308e+02
<STATE> 4
<MEAN> 39
 2.241923e+00 -7.451381e-01 3.561724e+00 3.673745e+00 -7.148487e+00 3.321904e-01 -7.099631e+00 -9.743141e-01 -5.226338e+00 3.068650e-01 -4.965143e+00 -7.353540e+00 5.891035e+01 -1.984752e-01 2.274986e-01 -3.338527e-01 -1.111718e-01 2.530884e-01 8.126143e-02 2.433090e-01 2.666023e-01 3.157990e-02 -3.867355e-01 2.912380e-01 2.227762e-01 -2.553321e-01 -8.751629e-02 -9.834638e-02 -8.899399e-03 -1.757812e-01 5.668185e-02 -1.004139e-01 -3.990653e-02 1.407322e-01 5.566503e-02 -3.708353e-02 1.218305e-01 -4.205307e-03 1.174744e-01
<VARIANCE> 39
 1.189590e+01 4.503854e+01 4.300494e+01 3.581590e+01 5.015921e+01 3.698520e+01 4.467821e+01 7.390955e+01 4.501742e+01 4.949445e+01 4.357205e+01 4.220137e+01 4.205951e+01 6.126503e-01 1.782711e+00 2.001412e+00 2.253867e+00 2.182358e+00 2.122816e+00 2.331370e+00 4.669210e+00 2.535130e+00 2.936526e+00 2.642751e+00 2.042086e+00 1.205245e+00 1.200884e-01 2.978085e-01 3.372605e-01 4.088153e-01 3.980826e-01 4.260768e-01 4.526025e-01 8.685203e-01 4.687670e-01 5.611026e-01 5.137126e-01 3.849580e-01 1.829853e-01
<GCONST> 1.166140e+02
<TRANSP> 5
 0.000000e+00 1.000000e+00 0.000000e+00 0.000000e+00 0.000000e+00
 0.000000e+00 4.875666e-01 5.124335e-01 0.000000e+00 0.000000e+00
 0.000000e+00 0.000000e+00 4.707484e-01 5.292516e-01 0.000000e+00
 0.000000e+00 0.000000e+00 0.000000e+00 6.004257e-01 3.995744e-01
 0.000000e+00 0.000000e+00 0.000000e+00 0.000000e+00 0.000000e+00
<ENDHMM>
~h "o"
<BEGINHMM>
<NUMSTATES> 5
<STATE> 2
<MEAN> 39
 3.929213e+00 9.466877e-02 -3.749958e+00 -7.794201e+00 -6.828793e+00 5.108730e+00 -7.090939e+00 -1.738760e+00 -4.163283e+00 1.806473e+00 8.551172e-01 -4.994936e+00 6.047268e+01 2.727466e-01 4.147825e-02 -1.357528e-01 -6.443455e-01 -1.632859e-01 4.404871e-01 7.801084e-02 7.705628e-02 -1.737300e-01 8.130237e-02 9.528707e-02 2.576837e-03 1.345576e-01 -1.007550e-01 1.709219e-02 1.017119e-01 2.889706e-01 1.056174e-01 -1.282938e-01 -2.124244e-02 -1.167572e-02 2.497812e-03 -4.038460e-02 -7.669070e-02 -3.141541e-02 -8.298761e-02
<VARIANCE> 39
 1.379187e+01 4.140156e+01 2.700990e+01 1.096090e+02 4.420464e+01 5.255555e+01 5.139528e+01 4.600029e+01 4.704149e+01 4.458121e+01 4.299022e+01 3.984708e+01 4.948223e+01 1.004285e+00 1.609557e+00 1.486118e+00 7.000256e+00 2.732738e+00 3.023257e+00 2.977860e+00 2.775280e+00 2.753741e+00 2.764621e+00 2.545755e+00 1.883096e+00 2.147325e+00 1.650301e-01 2.433911e-01 2.689624e-01 1.004826e+00 4.701767e-01 5.524899e-01 5.237556e-01 4.941464e-01 4.792532e-01 4.998905e-01 4.561741e-01 3.641151e-01 2.606092e-01
<GCONST> 1.201485e+02
<STATE> 3
<MEAN> 39
 4.241965e+00 -1.436149e-01 -3.516757e+00 -8.768728e+00 -7.027900e+00 5.763494e+00 -7.304650e+00 -2.025748e+00 -4.339853e+00 1.834996e+00 1.290034e+00 -5.342896e+00 6.130190e+01 -6.836537e-03 4.724145e-02 6.084376e-02 3.454449e-01 1.230027e-01 -3.260762e-02 1.941915e-02 -2.953720e-02 -1.084641e-01 4.088806e-02 -1.041188e-01 -8.615525e-02 -1.036631e-01 -9.594251e-02 2.113914e-02 8.192790e-02 3.211033e-01 8.467920e-02 -1.728836e-01 -2.282354e-02 -1.986895e-02 2.530189e-02 -2.309828e-02 -7.456010e-02 -2.139779e-02 -9.247528e-02
<VARIANCE> 39
 1.218699e+01 4.277951e+01 2.803702e+01 1.105934e+02 4.566273e+01 5.424399e+01 5.353491e+01 4.719150e+01 4.845925e+01 4.726826e+01 4.332364e+01 4.192858e+01 4.675039e+01 7.374154e-01 1.505607e+00 1.497118e+00 5.220160e+00 2.394866e+00 2.716807e+00 2.850492e+00 2.664656e+00 2.520755e+00 2.851710e+00 2.365403e+00 1.907149e+00 1.759176e+00 1.304650e-01 2.253063e-01 2.762066e-01 8.069490e-01 4.481817e-01 5.111156e-01 4.814543e-01 5.005758e-01 4.690979e-01 5.009774e-01 4.226160e-01 3.483768e-01 2.155929e-01
<GCONST> 1.179903e+02
<STATE> 4
<MEAN> 39
 3.127268e+00 1.021580e+00 -3.113485e+00 -6.442380e+00 -6.456864e+00 4.311039e+00 -5.883122e+00 -8.335274e-01 -6.057416e+00 1.819936e+00 6.221615e-01 -5.139640e+00 5.951982e+01 -1.554028e-01 5.395122e-02 1.655339e-01 8.004550e-01 1.946166e-01 -2.927791e-01 -1.287367e-02 -8.049618e-02 8.398187e-02 -5.703786e-02 -1.884634e-01 -5.970615e-02 -2.658860e-01 -4.094037e-02 2.471688e-03 6.034424e-02 8.291137e-02 1.325392e-02 -7.985932e-02 -1.226400e-02 -5.878109e-03 5.077207e-02 -5.082636e-02 -3.384890e-02 2.443761e-02 -1.050120e-02
<VARIANCE> 39
 1.603889e+01 4.779630e+01 3.152087e+01 9.923498e+01 4.209716e+01 4.870673e+01 5.120999e+01 4.252165e+01 5.062411e+01 4.482113e+01 3.696511e+01 3.770058e+01 6.390795e+01 6.745319e-01 1.303155e+00 1.717791e+00 3.383998e+00 2.332587e+00 2.949440e+00 2.573442e+00 2.682302e+00 2.708062e+00 2.769433e+00 2.192675e+00 1.854379e+00 1.318100e+00 1.271103e-01 2.356425e-01 2.796598e-01 5.623649e-01 4.446434e-01 5.684501e-01 4.648882e-01 5.136471e-01 5.258958e-01 5.353407e-01 4.117503e-01 3.380129e-01 2.093579e-01
<GCONST> 1.170200e+02
<TRANSP> 5
 0.000000e+00 1.000000e+00 0.000000e+00 0.000000e+00 0.000000e+00
 0.000000e+00 6.609440e-01 3.390560e-01 0.000000e+00 0.000000e+00
 0.000000e+00 0.000000e+00 6.160396e-01 3.839604e-01 0.000000e+00
 0.000000e+00 0.000000e+00 0.000000e+00 7.098683e-01 2.901317e-01
 0.000000e+00 0.000000e+00 0.000000e+00 0.000000e+00 0.000000e+00
<ENDHMM>
~h "p"
<BEGINHMM>
<NUMSTATES> 5
<STATE> 2
<MEAN> 39
 1.589965e+00 7.930813e-01 -3.720140e+00 7.265270e-02 -3.970057e+00 1.777903e+00 -6.047523e+00 -4.636598e-01 -3.570505e+00 1.058826e-01 -1.510988e+00 -5.378635e+00 5.605330e+01 1.131319e-02 -4.287762e-01 -1.380683e-01 -4.502205e-01 1.626776e-02 -2.873647e-01 -1.284635e-01 -1.499894e-01 3.025155e-01 1.565111e-01 1.914972e-01 2.578561e-03 4.491727e-01 5.298862e-02 -3.431885e-01 2.144308e-01 -3.376187e-01 -7.081734e-02 -1.431885e-01 -1.944896e-01 -1.108971e-02 -1.267592e-02 6.275704e-02 1.064531e-01 -1.367238e-01 5.125436e-01
<VARIANCE> 39
 1.288401e+01 3.425775e+01 3.114705e+01 4.143629e+01 3.195946e+01 4.828846e+01 3.510038e+01 3.297046e+01 3.823560e+01 2.937046e+01 2.766361e+01 3.352474e+01 3.475235e+01 1.337729e+00 3.646456e+00 2.316001e+00 4.983814e+00 2.628793e+00 3.863800e+00 3.523351e+00 2.972206e+00 3.078367e+00 3.003353e+00 2.539724e+00 3.042927e+00 4.510061e+00 2.424310e-01 5.533611e-01 4.524094e-01 8.456432e-01 5.279952e-01 7.230952e-01 6.331145e-01 6.185129e-01 5.781939e-01 5.770072e-01 5.372814e-01 5.596238e-01 6.117108e-01
<GCONST> 1.235418e+02
<STATE> 3
<MEAN> 39
 1.759365e+00 -7.746541e-01 -3.488964e+00 -1.677538e+00 -4.124218e+00 7.909260e-01 -6.669817e+00 -8.238232e-01 -3.146297e+00 6.546455e-01 -8.896107e-01 -5.663268e+00 5.811715e+01 1.453389e-01 -9.584625e-01 3.725427e-01 -9.358238e-01 -2.122498e-01 -5.002148e-01 -4.943259e-01 -7.463151e-02 1.811996e-01 2.228599e-01 3.199669e-01 -2.598386e-01 1.292142e+00 3.969416e-02 -1.412453e-01 2.748842e-01 -8.278694e-02 -1.455165e-01 -6.080879e-02 -1.600073e-01 8.208825e-02 -8.815657e-02 -1.881517e-02 3.329055e-02 -1.126663e-01 2.566807e-01
<VARIANCE> 39
 1.543825e+01 3.965884e+01 3.692171e+01 5.445343e+01 3.373307e+01 5.958498e+01 4.123280e+01 3.658435e+01 4.237065e+01 3.293583e+01 2.825468e+01 3.571627e+01 4.184033e+01 1.763982e+00 4.405108e+00 3.821872e+00 6.273788e+00 3.512966e+00 5.056128e+00 4.376320e+00 3.805354e+00 3.826375e+00 3.532500e+00 3.293499e+00 3.832262e+00 5.042991e+00 3.002445e-01 6.930093e-01 5.974225e-01 1.139275e+00 6.642936e-01 8.835213e-01 7.863141e-01 7.229742e-01 6.784549e-01 6.512703e-01 6.620008e-01 6.595981e-01 8.296397e-01
<GCONST> 1.313070e+02
<STATE> 4
<MEAN> 39
 2.010256e+00 -2.215709e+00 -2.509636e+00 -3.111778e+00 -4.643606e+00 -9.257853e-03 -7.638316e+00 -7.368143e-01 -2.966180e+00 9.039506e-01 -5.111459e-01 -6.133434e+00 6.026440e+01 1.503307e-01 -8.740274e-01 8.338257e-01 -6.744660e-01 -4.937854e-01 -5.483758e-01 -6.615387e-01 1.126105e-01 -1.563266e-02 4.651635e-02 2.666618e-01 -3.336192e-01 1.303618e+00 -1.537631e-02 9.894178e-02 1.833907e-01 1.698752e-01 -1.235299e-01 1.840359e-02 -4.271885e-02 7.245471e-02 -9.770984e-02 -7.063085e-02 2.139026e-03 -3.187472e-02 -7.239074e-02
<VARIANCE> 39
 1.713678e+01 4.620100e+01 4.919209e+01 6.400002e+01 3.931189e+01 7.015653e+01 4.925499e+01 4.325731e+01 5.085901e+01 3.783714e+01 3.298787e+01 3.962505e+01 4.779471e+01 1.712897e+00 3.952242e+00 4.994992e+00 5.982554e+00 4.229228e+00 5.317036e+00 4.751371e+00 4.409216e+00 4.254878e+00 3.596243e+00 4.165427e+00 3.963519e+00 4.379567e+00 3.201065e-01 7.097920e-01 6.772856e-01 1.196207e+00 7.436292e-01 9.404324e-01 8.603578e-01 7.722849e-01 7.280831e-01 6.871628e-01 7.183368e-01 7.175117e-01 8.362910e-01
<GCONST> 1.350781e+02
<TRANSP> 5
 0.000000e+00 1.000000e+00 0.000000e+00 0.000000e+00 0.000000e+00
 0.000000e+00 4.821716e-01 5.178284e-01 0.000000e+00 0.000000e+00
 0.000000e+00 0.000000e+00 4.470800e-01 5.529200e-01 0.000000e+00
 0.000000e+00 0.000000e+00 0.000000e+00 4.578788e-01 5.421212e-01
 0.000000e+00 0.000000e+00 0.000000e+00 0.000000e+00 0.000000e+00
<ENDHMM>
~h "r"
<BEGINHMM>
<NUMSTATES> 5
<STATE> 2
<MEAN> 39
 3.016114e+00 -5.668175e+00 -8.962351e-01 6.528344e-01 -6.721400e+00 -3.845677e+00 -1.016176e+01 4.778291e-01 4.330158e-03 1.046998e+00 2.304578e-01 -8.424384e+00 6.411081e+01 1.581916e-01 3.221229e-02 -2.300886e-02 4.163174e-01 -4.651835e-02 -4.586987e-03 -2.288392e-02 1.276340e-01 -1.497789e-01 -9.271628e-02 -2.135287e-02 -1.699251e-02 -2.332445e-01 -6.669268e-02 7.200955e-02 1.078529e-01 -1.745652e-01 2.307020e-02 9.616392e-02 9.735470e-02 7.456417e-03 -2.376209e-01 1.339809e-02 -1.310503e-02 2.937805e-02 -3.086846e-03
<VARIANCE> 39
 1.548906e+01 4.235822e+01 4.661493e+01 4.788700e+01 4.538873e+01 5.522439e+01 6.299081e+01 8.264944e+01 6.416093e+01 4.517400e+01 5.168386e+01 6.010482e+01 3.484775e+01 1.129184e+00 2.624570e+00 2.357612e+00 3.681364e+00 3.288787e+00 3.798966e+00 3.336063e+00 4.886312e+00 4.243864e+00 3.225014e+00 3.619053e+00 3.627981e+00 2.377101e+00 2.081431e-01 4.255209e-01 3.846004e-01 6.319617e-01 6.063988e-01 5.971059e-01 6.089633e-01 8.643230e-01 7.349809e-01 6.187670e-01 6.989776e-01 6.822727e-01 4.183281e-01
<GCONST> 1.285477e+02
<STATE> 3
<MEAN> 39
 3.165778e+00 -5.384884e+00 -8.335298e-01 1.100668e+00 -6.666922e+00 -3.575026e+00 -9.898952e+00 6.681902e-01 -6.605432e-01 9.678203e-01 -1.709378e-02 -8.249454e+00 6.361637e+01 3.643179e-03 1.525182e-01 1.922937e-01 5.402966e-02 -2.943126e-02 1.766770e-01 2.023920e-01 1.000237e-01 -5.552019e-01 -4.597955e-02 -7.621700e-02 6.270894e-02 -1.935115e-01 -8.962937e-02 6.375866e-02 1.130481e-01 -1.812672e-01 1.951465e-02 5.367072e-02 8.356046e-02 -3.296948e-02 -1.669007e-01 8.726792e-03 6.047035e-03 4.177744e-02 3.015170e-02
<VARIANCE> 39
 1.574680e+01 4.668920e+01 4.934710e+01 4.649357e+01 4.654703e+01 5.687284e+01 6.122008e+01 8.167684e+01 6.476591e+01 4.543789e+01 5.059104e+01 5.913772e+01 3.542572e+01 1.093245e+00 2.552460e+00 2.506613e+00 3.357492e+00 3.326684e+00 3.600174e+00 3.335178e+00 4.760147e+00 3.990625e+00 3.232701e+00 3.617990e+00 3.445033e+00 2.205510e+00 2.076254e-01 4.211438e-01 3.842916e-01 5.772794e-01 6.180645e-01 6.050835e-01 5.950027e-01 8.214047e-01 7.281735e-01 6.051415e-01 7.098545e-01 6.393591e-01 3.764637e-01
<GCONST> 1.280190e+02
<STATE> 4
<MEAN> 39
 2.936068e+00 -4.504683e+00 -4.800262e-01 1.032011e+00 -6.439280e+00 -2.904518e+00 -8.889843e+00 5.752381e-01 -2.304260e+00 1.156788e+00 -3.793396e-01 -7.706511e+00 6.287403e+01 -1.391263e-01 2.646407e-01 3.598371e-01 -1.743758e-01 -6.306863e-03 1.970257e-01 2.478616e-01 -1.293670e-02 -6.581563e-01 -6.931147e-02 -3.730201e-02 1.569219e-01 -1.608647e-01 -7.257713e-02 4.129102e-02 6.560531e-02 -1.025164e-01 1.633308e-02 -2.362218e-02 3.743932e-03 -4.967208e-02 -8.505608e-03 -1.935613e-02 4.277663e-02 3.063589e-02 3.658973e-02
<VARIANCE> 39
 1.689245e+01 5.221267e+01 5.504442e+01 4.979098e+01 5.119335e+01 6.193520e+01 5.582473e+01 7.937735e+01 6.604754e+01 4.630998e+01 4.632007e+01 5.354618e+01 4.176715e+01 1.099196e+00 2.210446e+00 2.666959e+00 2.893509e+00 3.502409e+00 3.470129e+00 3.245640e+00 4.362602e+00 3.766227e+00 3.154312e+00 3.535558e+00 2.836298e+00 1.885462e+00 2.082201e-01 4.228536e-01 4.058952e-01 5.565764e-01 6.438127e-01 6.347020e-01 5.753168e-01 7.812462e-01 7.093772e-01 6.110896e-01 6.498539e-01 5.711396e-01 3.584419e-01
<GCONST> 1.274359e+02
<TRANSP> 5
 0.000000e+00 1.000000e+00 0.000000e+00 0.000000e+00 0.000000e+00
 0.000000e+00 3.798741e-01 6.201259e-01 0.000000e+00 0.000000e+00
 0.000000e+00 0.000000e+00 3.652389e-01 6.347611e-01 0.000000e+00
 0.000000e+00 0.000000e+00 0.000000e+00 3.834299e-01 6.165702e-01
 0.000000e+00 0.000000e+00 0.000000e+00 0.000000e+00 0.000000e+00
<ENDHMM>
~h "s"
<BEGINHMM>
<NUMSTATES> 5
<STATE> 2
<MEAN> 39
 -1.010866e+01 5.920636e+00 1.057873e+00 -1.605069e+00 2.185128e+00 -7.911989e+00 -2.641599e+00 -6.966124e-01 -1.309771e+00 -3.046402e+00 -1.036615e+00 -3.316377e+00 6.268259e+01 -1.690661e+00 1.012524e+00 -3.578876e-01 -2.707815e-01 1.003478e+00 -5.662065e-01 6.030219e-01 -1.453024e-01 3.551515e-01 -4.719972e-01 8.164027e-02 2.763298e-01 1.097083e-02 3.220661e-01 -3.329958e-01 6.010483e-02 -4.044325e-02 -3.434237e-01 1.642720e-01 -2.754147e-01 5.866696e-02 -1.094744e-01 8.505516e-02 4.552403e-02 -1.535686e-01 4.680256e-02
<VARIANCE> 39
 6.105230e+01 4.268440e+01 3.952364e+01 2.905436e+01 5.030063e+01 5.298446e+01 5.476645e+01 4.402104e+01 4.320293e+01 3.682441e+01 3.078022e+01 2.899158e+01 2.019087e+01 5.823639e+00 4.511585e+00 2.674988e+00 2.388532e+00 4.443652e+00 3.465168e+00 4.730052e+00 3.463093e+00 2.997521e+00 3.258551e+00 2.400459e+00 2.528887e+00 1.029762e+00 9.991989e-01 6.073315e-01 4.156178e-01 4.765679e-01 6.694303e-01 5.937058e-01 7.717169e-01 6.350017e-01 5.407258e-01 6.190417e-01 4.540887e-01 4.756444e-01 1.602341e-01
<GCONST> 1.259884e+02
<STATE> 3
<MEAN> 39
 -1.193743e+01 5.939326e+00 5.515505e-01 -2.100974e+00 2.550258e+00 -8.517662e+00 -2.881416e+00 -5.242889e-01 -6.837816e-01 -3.609781e+00 -9.367529e-01 -3.327644e+00 6.273853e+01 1.079059e+00 -8.137027e-01 1.534491e-01 -5.450208e-02 -6.769593e-01 1.214043e-01 -5.701183e-01 -6.804847e-02 -6.242471e-02 2.787141e-01 3.185316e-02 -2.225048e-01 1.078215e-01 5.763268e-01 -3.303015e-01 1.297528e-01 -1.834961e-03 -3.692662e-01 1.679458e-01 -2.289063e-01 -1.216758e-02 -1.245826e-01 1.544614e-01 4.260003e-02 -1.238751e-01 7.231013e-02
<VARIANCE> 39
 4.623359e+01 3.576560e+01 3.598605e+01 2.629848e+01 4.372890e+01 4.363346e+01 4.943015e+01 3.516724e+01 3.701018e+01 3.150759e+01 2.674125e+01 2.640294e+01 1.774967e+01 7.025709e+00 3.888501e+00 2.888572e+00 2.158950e+00 4.062079e+00 3.225287e+00 4.166527e+00 3.305595e+00 3.074146e+00 2.997262e+00 2.400687e+00 2.442250e+00 1.454499e+00 8.377345e-01 5.197982e-01 4.129518e-01 4.035735e-01 5.627216e-01 5.740866e-01 7.334676e-01 6.155762e-01 5.486991e-01 5.463782e-01 4.499618e-01 4.423010e-01 2.074989e-01
<GCONST> 1.232100e+02
<STATE> 4
<MEAN> 39
 -5.231584e+00 2.342648e+00 7.795188e-01 -1.942389e+00 -5.727525e-01 -6.620450e+00 -4.891723e+00 -5.753033e-01 -1.635286e+00 -1.621404e+00 -8.189463e-01 -4.272730e+00 6.200505e+01 1.879800e+00 -1.182735e+00 4.116245e-01 -6.751061e-02 -1.337032e+00 6.216365e-01 -8.227106e-01 -1.060147e-01 -4.200207e-01 4.604567e-01 2.141726e-01 -4.180737e-01 2.241424e-01 -2.375879e-01 9.771299e-02 6.987820e-02 -1.725389e-02 2.579580e-03 1.092483e-01 4.789724e-02 2.346027e-02 -7.136498e-02 -9.692531e-02 6.716103e-02 -1.841129e-02 3.607662e-03
<VARIANCE> 39
 4.389991e+01 4.560654e+01 5.065243e+01 3.327106e+01 5.420287e+01 5.216618e+01 5.298034e+01 3.998521e+01 4.689555e+01 3.522533e+01 2.936227e+01 2.971741e+01 4.244576e+01 3.129402e+00 3.162036e+00 3.517893e+00 2.722186e+00 3.818579e+00 3.465177e+00 4.098630e+00 3.865334e+00 3.521047e+00 2.901000e+00 2.756886e+00 2.582792e+00 2.260398e+00 6.905025e-01 4.977040e-01 4.401832e-01 4.132385e-01 6.223361e-01 5.606586e-01 7.111906e-01 6.184013e-01 6.070095e-01 5.111225e-01 4.710587e-01 4.398153e-01 3.314971e-01
<GCONST> 1.267474e+02
<TRANSP> 5
 0.000000e+00 1.000000e+00 0.000000e+00 0.000000e+00 0.000000e+00
 0.000000e+00 8.109255e-01 1.890745e-01 0.000000e+00 0.000000e+00
 0.000000e+00 0.000000e+00 7.406116e-01 2.593884e-01 0.000000e+00
 0.000000e+00 0.000000e+00 0.000000e+00 5.737613e-01 4.262388e-01
 0.000000e+00 0.000000e+00 0.000000e+00 0.000000e+00 0.000000e+00
<ENDHMM>
~h "t"
<BEGINHMM>
<NUMSTATES> 5
<STATE> 2
<MEAN> 39
 2.269994e-01 1.082324e+00 -8.093110e-01 3.064100e-01 -4.321078e+00 -1.787654e+00 -6.948192e+00 -4.764647e-01 -3.211296e+00 5.002979e-01 -1.730537e+00 -5.165299e+00 5.710233e+01 -2.581358e-01 -8.251203e-02 -3.521720e-01 -2.365746e-01 3.823090e-01 -1.235735e-01 1.484617e-01 -1.222501e-01 5.120668e-01 -1.593929e-01 -8.065997e-02 8.400378e-02 1.695727e-02 -2.320808e-02 -2.657143e-01 1.397693e-01 -2.937064e-01 -6.573086e-03 -1.349182e-01 -1.362399e-01 2.790469e-03 8.186947e-02 6.671566e-03 7.614917e-02 -1.321137e-01 4.395809e-01
<VARIANCE> 39
 1.482402e+01 2.981437e+01 3.964762e+01 4.076375e+01 3.493745e+01 5.145035e+01 4.303376e+01 4.293037e+01 5.057541e+01 3.452531e+01 3.311284e+01 3.625221e+01 3.899644e+01 1.455734e+00 2.668193e+00 2.242415e+00 3.955466e+00 3.005491e+00 4.626072e+00 3.897847e+00 3.386393e+00 3.828027e+00 2.989450e+00 2.623092e+00 2.859836e+00 4.665953e+00 2.941886e-01 4.053020e-01 3.924918e-01 6.322834e-01 5.909226e-01 9.318518e-01 7.594665e-01 6.881959e-01 7.024513e-01 5.782571e-01 4.918054e-01 5.541855e-01 6.616784e-01
<GCONST> 1.257562e+02
<STATE> 3
<MEAN> 39
 -1.877184e-01 3.429010e-01 -1.160374e+00 -7.063856e-01 -3.711995e+00 -2.267816e+00 -7.023300e+00 -5.473227e-01 -2.059650e+00 2.399552e-01 -1.772955e+00 -5.373873e+00 5.805965e+01 -1.849692e-01 -4.815774e-01 -8.612946e-02 -6.741328e-01 2.654247e-01 -2.392410e-01 -1.293917e-01 -7.978618e-02 5.200542e-01 -1.361621e-01 8.699924e-02 -1.727845e-01 7.237520e-01 6.537011e-02 -1.680469e-01 1.706555e-01 -1.769467e-01 -1.103746e-01 -3.392436e-02 -1.727843e-01 6.479522e-03 -8.114059e-02 4.467045e-02 1.150257e-01 -1.172409e-01 3.164016e-01
<VARIANCE> 39
 1.654263e+01 3.152843e+01 3.615615e+01 4.464001e+01 3.452385e+01 5.112695e+01 4.399026e+01 4.159762e+01 5.206170e+01 3.403155e+01 3.263516e+01 3.729905e+01 4.324470e+01 1.800647e+00 3.113349e+00 2.491710e+00 4.487026e+00 3.166983e+00 5.054445e+00 4.503262e+00 3.989749e+00 4.314462e+00 3.197751e+00 2.852886e+00 3.436127e+00 5.159206e+00 3.574657e-01 4.608081e-01 4.452572e-01 6.865661e-01 6.418456e-01 1.016773e+00 8.591897e-01 7.428821e-01 7.869969e-01 6.121437e-01 5.257355e-01 6.146798e-01 7.412454e-01
<GCONST> 1.289831e+02
<STATE> 4
<MEAN> 39
 -7.012886e-01 9.874273e-01 -1.390982e+00 -3.451892e-01 -3.608958e+00 -1.186070e+00 -6.469930e+00 -2.125912e-01 -1.925566e+00 -2.653059e-01 -1.614974e+00 -4.699538e+00 5.699521e+01 -7.369623e-02 -3.966910e-01 1.953957e-01 -5.476814e-01 5.719610e-02 -1.981018e-01 -2.327128e-01 -1.245300e-01 1.958399e-01 -5.897168e-02 2.230859e-01 -1.744640e-01 7.307913e-01 8.666003e-02 -5.002938e-02 1.617254e-01 -5.119530e-02 -1.375551e-01 9.187782e-03 -1.535329e-01 -3.658158e-02 -1.346303e-01 6.704307e-02 9.535416e-02 -7.144393e-02 1.356682e-01
<VARIANCE> 39
 1.697254e+01 3.828533e+01 3.971913e+01 4.951482e+01 3.238137e+01 5.264351e+01 3.977777e+01 4.214838e+01 4.681688e+01 3.241782e+01 3.091360e+01 3.742160e+01 5.812929e+01 1.633014e+00 2.507092e+00 2.646963e+00 3.596955e+00 2.955605e+00 4.332024e+00 4.123765e+00 3.902241e+00 3.714525e+00 2.903393e+00 2.760341e+00 3.037394e+00 3.568603e+00 3.033263e-01 3.839930e-01 4.428179e-01 5.976193e-01 5.864506e-01 7.991945e-01 7.462371e-01 6.730708e-01 7.064845e-01 5.585580e-01 5.036350e-01 5.254922e-01 5.817803e-01
<GCONST> 1.260857e+02
<TRANSP> 5
 0.000000e+00 1.000000e+00 0.000000e+00 0.000000e+00 0.000000e+00
 0.000000e+00 4.284026e-01 5.715974e-01 0.000000e+00 0.000000e+00
 0.000000e+00 0.000000e+00 4.104684e-01 5.895315e-01 0.000000e+00
 0.000000e+00 0.000000e+00 0.000000e+00 5.544512e-01 4.455488e-01
 0.000000e+00 0.000000e+00 0.000000e+00 0.000000e+00 0.000000e+00
<ENDHMM>
~h "u"
<BEGINHMM>
<NUMSTATES> 5
<STATE> 2
<MEAN> 39
 3.872571e+00 2.177127e+00 6.828708e-01 -5.911295e+00 -6.889782e+00 2.103892e+00 -1.349416e+01 -5.757368e+00 -6.733469e+00 8.110309e-01 2.735810e+00 -5.098787e+00 6.123893e+01 3.450480e-01 1.129571e-01 7.445040e-02 -3.605830e-01 -2.385725e-01 3.849450e-01 -5.386934e-01 -3.557402e-01 -3.150574e-01 1.487056e-01 3.484349e-01 2.605649e-02 1.455279e-01 -1.229418e-01 -3.261688e-02 1.596715e-02 2.904100e-01 7.870416e-02 -6.165274e-02 2.511791e-01 1.680032e-01 8.609959e-02 -4.150913e-02 -1.847001e-01 -2.067569e-02 -1.305031e-01
<VARIANCE> 39
 1.777327e+01 3.217653e+01 3.806301e+01 7.924490e+01 6.324225e+01 5.792762e+01 7.430688e+01 5.878497e+01 5.832038e+01 5.174239e+01 6.120730e+01 4.119083e+01 2.560659e+01 1.411864e+00 2.105491e+00 2.386527e+00 5.689482e+00 4.051381e+00 4.299661e+00 6.300136e+00 4.268008e+00 4.734436e+00 4.042288e+00 4.624393e+00 3.151046e+00 2.287551e+00 2.764941e-01 3.432763e-01 3.802071e-01 8.984179e-01 7.722934e-01 8.140018e-01 1.085851e+00 7.722150e-01 8.799650e-01 7.557298e-01 8.164083e-01 5.772648e-01 3.212053e-01
<GCONST> 1.316540e+02
<STATE> 3
<MEAN> 39
 4.305083e+00 2.329339e+00 7.433034e-01 -5.467318e+00 -7.271833e+00 2.660668e+00 -1.354765e+01 -5.838760e+00 -7.028399e+00 9.978311e-01 2.737338e+00 -4.986459e+00 6.099031e+01 -2.337473e-02 4.346091e-02 6.260829e-02 4.369079e-01 5.146032e-02 3.265096e-02 2.321734e-01 1.004128e-01 -1.546292e-03 2.200690e-02 -2.423800e-01 9.481974e-03 -1.987672e-01 -1.581454e-01 -4.115242e-02 2.159342e-02 2.088413e-01 1.084044e-01 -1.527753e-01 2.374703e-01 1.670697e-01 1.156171e-01 -7.156804e-02 -1.770930e-01 -2.004813e-02 -6.183176e-02
<VARIANCE> 39
 1.370625e+01 3.452147e+01 3.585377e+01 7.809761e+01 5.981780e+01 5.634489e+01 7.080265e+01 5.678703e+01 5.466473e+01 5.226918e+01 6.210069e+01 4.275743e+01 2.734389e+01 1.040042e+00 2.035776e+00 2.153151e+00 4.642387e+00 3.589800e+00 3.779561e+00 5.076576e+00 3.842329e+00 4.101098e+00 3.782534e+00 3.926161e+00 2.999490e+00 1.866371e+00 1.908313e-01 3.265538e-01 3.421828e-01 7.935075e-01 6.725433e-01 6.841845e-01 9.548723e-01 7.200640e-01 7.324610e-01 7.132885e-01 7.706301e-01 5.557936e-01 2.785403e-01
<GCONST> 1.278036e+02
<STATE> 4
<MEAN> 39
 3.834208e+00 3.475439e+00 1.689762e-01 -3.658868e+00 -6.513669e+00 2.446445e+00 -1.112961e+01 -4.338891e+00 -7.504352e+00 7.465099e-01 1.402895e+00 -4.025804e+00 5.890088e+01 -2.811443e-01 -4.124767e-02 6.120342e-02 6.613566e-01 2.229244e-01 -1.956841e-01 4.856156e-01 2.824563e-01 2.447748e-01 -8.142579e-02 -3.974930e-01 1.529429e-03 -2.509891e-01 -8.828768e-02 -6.978177e-02 2.826918e-02 -3.894633e-02 3.450093e-02 -9.102777e-02 1.497335e-03 6.570164e-02 7.373455e-02 -3.837087e-02 3.673181e-03 -2.236032e-02 7.233013e-02
<VARIANCE> 39
 1.444980e+01 3.921428e+01 3.359593e+01 7.893407e+01 5.400163e+01 5.278392e+01 6.110830e+01 4.962083e+01 5.298063e+01 4.895016e+01 5.382259e+01 4.197805e+01 3.689006e+01 8.097296e-01 1.698175e+00 1.864719e+00 3.280486e+00 3.009586e+00 3.049881e+00 3.573035e+00 3.264958e+00 3.169107e+00 3.045351e+00 3.025612e+00 2.459853e+00 1.349036e+00 1.660619e-01 2.953668e-01 2.983422e-01 6.017713e-01 5.580810e-01 5.578045e-01 7.082901e-01 6.305921e-01 5.957543e-01 6.013216e-01 5.918971e-01 4.604986e-01 2.356408e-01
<GCONST> 1.219634e+02
<TRANSP> 5
 0.000000e+00 1.000000e+00 0.000000e+00 0.000000e+00 0.000000e+00
 0.000000e+00 5.262054e-01 4.737946e-01 0.000000e+00 0.000000e+00
 0.000000e+00 0.000000e+00 4.915608e-01 5.084392e-01 0.000000e+00
 0.000000e+00 0.000000e+00 0.000000e+00 5.993160e-01 4.006840e-01
 0.000000e+00 0.000000e+00 0.000000e+00 0.000000e+00 0.000000e+00
<ENDHMM>
~h "v"
<BEGINHMM>
<NUMSTATES> 5
<STATE> 2
<MEAN> 39
 7.903662e-04 -6.079456e-01 1.670089e+00 -6.705837e-01 -5.929818e+00 -8.820225e-01 -6.906881e+00 5.931143e-01 -4.574426e+00 -3.940755e-01 -3.854154e-01 -5.847453e+00 5.993814e+01 5.024984e-04 -6.478592e-05 9.522401e-04 -6.048587e-04 -1.305029e-03 -9.148303e-04 -9.999124e-04 -6.995694e-04 3.150678e-04 8.832195e-04 -1.229102e-04 -1.829845e-05 4.304752e-04 -1.024714e-04 5.090495e-05 -4.314321e-05 5.499199e-04 2.475645e-04 2.544455e-04 -3.161734e-04 -1.009587e-04 -7.179174e-05 -5.594532e-04 -1.336834e-04 -6.698545e-06 -3.952787e-04
<VARIANCE> 39
 2.681136e+01 5.325134e+01 6.824250e+01 5.887592e+01 6.062508e+01 6.608533e+01 5.928268e+01 6.068991e+01 5.916120e+01 4.597362e+01 4.705821e+01 4.804106e+01 6.619385e+01 1.372020e+00 2.288023e+00 2.566274e+00 2.987463e+00 3.078158e+00 3.116328e+00 3.250192e+00 3.738113e+00 3.266875e+00 2.829993e+00 2.967949e+00 2.476121e+00 2.021681e+00 2.264445e-01 3.584008e-01 4.122588e-01 5.086471e-01 5.519696e-01 5.562619e-01 5.942494e-01 6.847889e-01 5.904057e-01 5.307208e-01 5.528100e-01 4.553457e-01 3.018115e-01
<GCONST> 1.265182e+02
<STATE> 3
<MEAN> 39
 7.903662e-04 -6.079456e-01 1.670089e+00 -6.705837e-01 -5.929818e+00 -8.820225e-01 -6.906881e+00 5.931143e-01 -4.574426e+00 -3.940755e-01 -3.854154e-01 -5.847453e+00 5.993814e+01 5.024984e-04 -6.478592e-05 9.522401e-04 -6.048587e-04 -1.305029e-03 -9.148303e-04 -9.999124e-04 -6.995694e-04 3.150678e-04 8.832195e-04 -1.229102e-04 -1.829845e-05 4.304752e-04 -1.024714e-04 5.090495e-05 -4.314321e-05 5.499199e-04 2.475645e-04 2.544455e-04 -3.161734e-04 -1.009587e-04 -7.179174e-05 -5.594532e-04 -1.336834e-04 -6.698545e-06 -3.952787e-04
<VARIANCE> 39
 2.681136e+01 5.325134e+01 6.824250e+01 5.887592e+01 6.062508e+01 6.608533e+01 5.928268e+01 6.068991e+01 5.916120e+01 4.597362e+01 4.705821e+01 4.804106e+01 6.619385e+01 1.372020e+00 2.288023e+00 2.566274e+00 2.987463e+00 3.078158e+00 3.116328e+00 3.250192e+00 3.738113e+00 3.266875e+00 2.829993e+00 2.967949e+00 2.476121e+00 2.021681e+00 2.264445e-01 3.584008e-01 4.122588e-01 5.086471e-01 5.519696e-01 5.562619e-01 5.942494e-01 6.847889e-01 5.904057e-01 5.307208e-01 5.528100e-01 4.553457e-01 3.018115e-01
<GCONST> 1.265182e+02
<STATE> 4
<MEAN> 39
 7.903662e-04 -6.079456e-01 1.670089e+00 -6.705837e-01 -5.929818e+00 -8.820225e-01 -6.906881e+00 5.931143e-01 -4.574426e+00 -3.940755e-01 -3.854154e-01 -5.847453e+00 5.993814e+01 5.024984e-04 -6.478592e-05 9.522401e-04 -6.048587e-04 -1.305029e-03 -9.148303e-04 -9.999124e-04 -6.995694e-04 3.150678e-04 8.832195e-04 -1.229102e-04 -1.829845e-05 4.304752e-04 -1.024714e-04 5.090495e-05 -4.314321e-05 5.499199e-04 2.475645e-04 2.544455e-04 -3.161734e-04 -1.009587e-04 -7.179174e-05 -5.594532e-04 -1.336834e-04 -6.698545e-06 -3.952787e-04
<VARIANCE> 39
 2.681136e+01 5.325134e+01 6.824250e+01 5.887592e+01 6.062508e+01 6.608533e+01 5.928268e+01 6.068991e+01 5.916120e+01 4.597362e+01 4.705821e+01 4.804106e+01 6.619385e+01 1.372020e+00 2.288023e+00 2.566274e+00 2.987463e+00 3.078158e+00 3.116328e+00 3.250192e+00 3.738113e+00 3.266875e+00 2.829993e+00 2.967949e+00 2.476121e+00 2.021681e+00 2.264445e-01 3.584008e-01 4.122588e-01 5.086471e-01 5.519696e-01 5.562619e-01 5.942494e-01 6.847889e-01 5.904057e-01 5.307208e-01 5.528100e-01 4.553457e-01 3.018115e-01
<GCONST> 1.265182e+02
<TRANSP> 5
 0.000000e+00 1.000000e+00 0.000000e+00 0.000000e+00 0.000000e+00
 0.000000e+00 6.000000e-01 4.000000e-01 0.000000e+00 0.000000e+00
 0.000000e+00 0.000000e+00 6.000000e-01 4.000000e-01 0.000000e+00
 0.000000e+00 0.000000e+00 0.000000e+00 7.000000e-01 3.000000e-01
 0.000000e+00 0.000000e+00 0.000000e+00 0.000000e+00 0.000000e+00
<ENDHMM>
~h "w"
<BEGINHMM>
<NUMSTATES> 5
<STATE> 2
<MEAN> 39
 -4.797674e-01 3.015235e+00 -2.316730e+00 1.509800e+00 -4.272015e+00 4.043634e+00 -4.724757e+00 2.567152e-01 -3.594898e+00 -1.151590e+00 1.964399e-01 -2.595253e+00 5.360555e+01 9.914237e-02 2.031187e-01 -1.420320e-01 -4.412662e-01 -6.783524e-02 2.423286e-01 5.661321e-02 -4.703318e-02 -2.727199e-01 6.001995e-03 3.407098e-01 2.361150e-01 -1.626617e-02 1.059613e-02 -4.801146e-02 1.788690e-02 -7.421961e-02 8.199491e-03 -4.438837e-02 -6.741742e-02 3.579512e-02 8.093329e-03 1.557241e-02 4.126956e-03 -3.673119e-02 5.829693e-02
<VARIANCE> 39
 3.263664e+01 4.027283e+01 2.899957e+01 7.302892e+01 4.214834e+01 2.918551e+01 4.448845e+01 4.167050e+01 2.963335e+01 3.404919e+01 3.767211e+01 3.702147e+01 5.901866e+01 9.631634e-01 1.401935e+00 1.243107e+00 2.635913e+00 1.750986e+00 1.536614e+00 1.915196e+00 1.960182e+00 2.451864e+00 2.176672e+00 2.089501e+00 2.061548e+00 1.207721e+00 1.228753e-01 2.508120e-01 1.921006e-01 3.779371e-01 2.786514e-01 3.021531e-01 3.434420e-01 3.610898e-01 4.325573e-01 4.180152e-01 3.697605e-01 3.561465e-01 1.647448e-01
<GCONST> 1.103095e+02
<STATE> 3
<MEAN> 39
 3.078917e+00 1.648973e+00 -3.494740e+00 -5.387585e+00 -6.581483e+00 5.921426e+00 -7.483823e+00 -2.039189e+00 -4.859814e+00 1.750426e-01 3.096068e+00 -4.100983e+00 5.807473e+01 2.952487e-01 -3.936365e-04 -1.470428e-01 -1.022034e+00 -1.335967e-01 3.577482e-01 -3.387560e-01 -2.077163e-02 -2.955795e-01 2.332187e-01 4.931252e-01 4.075012e-02 3.565773e-01 -7.785521e-02 -1.743523e-01 4.080266e-02 5.620229e-02 1.161801e-01 -4.533473e-02 -8.000307e-02 8.985956e-02 1.438024e-01 8.088462e-02 -9.218813e-02 -1.654076e-01 8.032146e-02
<VARIANCE> 39
 2.670839e+01 4.192775e+01 2.747290e+01 1.003377e+02 5.210085e+01 3.845952e+01 5.389162e+01 3.915482e+01 3.285598e+01 3.949205e+01 4.536644e+01 4.643888e+01 5.953167e+01 8.765394e-01 2.033717e+00 1.082606e+00 4.713167e+00 1.779460e+00 1.986064e+00 2.750014e+00 2.067971e+00 2.554923e+00 2.424817e+00 2.710759e+00 3.386737e+00 1.905016e+00 1.273826e-01 3.058671e-01 1.863836e-01 5.143232e-01 3.212731e-01 3.655642e-01 4.393510e-01 3.889091e-01 4.629011e-01 4.283845e-01 4.767749e-01 5.251223e-01 1.588701e-01
<GCONST> 1.163375e+02
<STATE> 4
<MEAN> 39
 2.876344e+00 5.298897e-01 -3.937064e+00 -8.303888e+00 -4.034544e+00 6.849791e+00 -9.170471e+00 -7.019785e-01 -3.726949e+00 2.025545e+00 1.447267e+00 -5.589067e+00 5.906748e+01 -7.472437e-02 -1.745012e-01 -1.709490e-02 7.004234e-02 1.602438e-01 -4.506520e-02 9.051591e-03 1.103444e-01 1.322649e-01 5.351771e-02 -1.301406e-01 -1.691003e-01 7.212155e-02 -2.811962e-02 2.699206e-03 1.940126e-02 1.078521e-01 1.464588e-02 -5.693530e-02 3.598744e-02 6.724899e-03 3.124011e-02 -3.242075e-02 -5.156758e-02 1.453222e-04 -2.911155e-02
<VARIANCE> 39
 1.960567e+01 4.663500e+01 1.935878e+01 1.296388e+02 5.258638e+01 4.057534e+01 5.338886e+01 3.687749e+01 3.873354e+01 5.717736e+01 5.648523e+01 6.244217e+01 6.739781e+01 4.639584e-01 1.675223e+00 8.552414e-01 3.025991e+00 1.663641e+00 1.754100e+00 2.072449e+00 1.867010e+00 2.152453e+00 2.488969e+00 2.283499e+00 2.608125e+00 1.249612e+00 7.170834e-02 2.171127e-01 1.558333e-01 4.182547e-01 2.718729e-01 2.971709e-01 3.280156e-01 3.248987e-01 3.697987e-01 4.284546e-01 3.913144e-01 4.056617e-01 1.235047e-01
<GCONST> 1.110421e+02
<TRANSP> 5
 0.000000e+00 1.000000e+00 0.000000e+00 0.000000e+00 0.000000e+00
 0.000000e+00 7.901775e-01 2.098225e-01 0.000000e+00 0.000000e+00
 0.000000e+00 0.000000e+00 6.414034e-01 3.585966e-01 0.000000e+00
 0.000000e+00 0.000000e+00 0.000000e+00 9.347928e-01 6.520721e-02
 0.000000e+00 0.000000e+00 0.000000e+00 0.000000e+00 0.000000e+00
<ENDHMM>
~h "y"
<BEGINHMM>
<NUMSTATES> 5
<STATE> 2
<MEAN> 39
 -1.496857e+00 -5.369123e+00 1.255822e+01 -5.187274e+00 -1.420682e+01 -7.753841e+00 -9.652458e+00 5.739522e+00 -6.078919e+00 -2.842264e+00 4.212186e+00 -6.747976e+00 6.752036e+01 -3.156979e-03 -3.272909e-01 2.522650e-01 -2.023907e-01 -3.580140e-01 -3.705881e-01 1.232176e-01 6.029468e-01 1.332441e-02 2.523202e-02 1.893434e-01 9.890051e-02 2.926484e-01 6.838888e-02 1.219199e-02 -2.903452e-01 5.447201e-02 2.047631e-01 1.284776e-01 1.016686e-02 -9.058635e-02 1.000616e-01 6.093658e-02 -1.765472e-01 -9.519181e-02 -7.317150e-02
<VARIANCE> 39
 8.778386e+00 4.639993e+01 8.009137e+01 3.287346e+01 5.362101e+01 5.398210e+01 5.944636e+01 7.418243e+01 6.292670e+01 6.972533e+01 5.097445e+01 4.160014e+01 3.506970e+01 4.830955e-01 1.706114e+00 4.484553e+00 1.448830e+00 2.818154e+00 2.657609e+00 2.630674e+00 3.620044e+00 2.830511e+00 2.265243e+00 2.895425e+00 2.185002e+00 1.066749e+00 7.328889e-02 2.077882e-01 5.064459e-01 2.420411e-01 4.341468e-01 4.332169e-01 4.217955e-01 6.094574e-01 4.278612e-01 4.009637e-01 4.500036e-01 3.436825e-01 1.217938e-01
<GCONST> 1.161933e+02
<STATE> 3
<MEAN> 39
 -9.991416e-01 -6.826816e+00 1.073079e+01 -5.330158e+00 -1.418146e+01 -8.196990e+00 -9.135500e+00 7.815773e+00 -4.688772e+00 -2.669472e+00 3.772521e+00 -7.386740e+00 6.824928e+01 2.090309e-01 -2.999417e-01 -7.792118e-01 3.989729e-02 4.368976e-01 1.396347e-01 3.089383e-01 3.436261e-01 3.183501e-01 1.203510e-01 -5.333852e-01 -2.701021e-01 1.180615e-02 5.019926e-02 8.495866e-02 -1.888612e-01 8.994118e-02 1.982625e-01 1.598871e-01 5.073545e-03 -1.887653e-01 8.278009e-03 3.276399e-02 -1.559248e-01 -5.769012e-02 -1.179071e-01
<VARIANCE> 39
 8.005474e+00 3.841842e+01 6.439921e+01 3.210789e+01 5.284483e+01 5.268089e+01 5.659298e+01 7.319083e+01 5.478279e+01 6.610117e+01 5.361058e+01 4.477679e+01 3.195549e+01 3.408135e-01 1.518005e+00 3.267476e+00 1.275823e+00 2.633315e+00 2.418483e+00 2.134770e+00 3.756866e+00 2.642110e+00 2.129248e+00 2.846083e+00 2.033507e+00 9.885240e-01 5.876814e-02 1.847742e-01 4.268587e-01 2.003030e-01 3.951867e-01 3.808510e-01 3.612792e-01 6.286778e-01 3.971601e-01 3.751755e-01 4.367199e-01 3.362532e-01 1.043495e-01
<GCONST> 1.124763e+02
<STATE> 4
<MEAN> 39
 -3.317557e-01 -3.732195e+00 2.989328e+00 -1.696457e+00 -7.239529e+00 -3.733158e+00 -4.825238e+00 6.082976e+00 -3.827857e+00 -1.092201e+00 -1.930425e+00 -5.193300e+00 6.147699e+01 1.236609e-01 1.820729e-01 -5.042014e-01 2.924085e-01 4.296011e-01 3.451308e-01 9.597084e-02 -1.649748e-01 1.193438e-01 6.496870e-02 -3.511235e-01 -3.234871e-02 -3.939815e-01 1.114933e-03 6.448214e-02 2.948000e-02 4.488574e-02 -1.415886e-02 3.316229e-02 -4.117810e-02 -1.098854e-01 -3.367470e-02 2.657950e-02 3.188706e-02 2.504091e-02 -4.716328e-02
<VARIANCE> 39
 8.911318e+00 5.214776e+01 5.473016e+01 5.704720e+01 4.432456e+01 6.405151e+01 4.002270e+01 5.597680e+01 4.684977e+01 4.915519e+01 4.099429e+01 4.268266e+01 8.385220e+01 3.377609e-01 1.035699e+00 1.644300e+00 1.155791e+00 1.756400e+00 1.825814e+00 1.709435e+00 2.582060e+00 1.893498e+00 1.890522e+00 2.009035e+00 1.620436e+00 6.786557e-01 5.548455e-02 1.571280e-01 2.408419e-01 2.007910e-01 2.951022e-01 3.269724e-01 3.053552e-01 4.672795e-01 3.207331e-01 3.295878e-01 3.347747e-01 2.869816e-01 8.838703e-02
<GCONST> 1.064059e+02
<TRANSP> 5
 0.000000e+00 1.000000e+00 0.000000e+00 0.000000e+00 0.000000e+00
 0.000000e+00 7.064179e-01 2.935822e-01 0.000000e+00 0.000000e+00
 0.000000e+00 0.000000e+00 6.883834e-01 3.116166e-01 0.000000e+00
 0.000000e+00 0.000000e+00 0.000000e+00 8.218031e-01 1.781969e-01
 0.000000e+00 0.000000e+00 0.000000e+00 0.000000e+00 0.000000e+00
<ENDHMM>
~h "z"
<BEGINHMM>
<NUMSTATES> 5
<STATE> 2
<MEAN> 39
 9.110596e-01 6.908009e+00 9.492585e+00 -6.916764e-01 -6.985321e+00 -2.467215e+00 -6.227660e+00 -1.193085e+00 -7.810193e+00 -9.640605e-01 -3.551312e-01 -3.043457e+00 5.782466e+01 4.658653e-02 1.447256e-01 4.138091e-02 -6.406318e-01 1.123667e-01 5.945653e-01 -4.465321e-01 1.253854e-01 2.096909e-02 2.208891e-01 1.774493e-01 -2.641009e-02 -1.224187e-01 -8.540169e-03 -2.232619e-02 8.137845e-02 -6.222663e-02 -7.331133e-04 -1.138093e-01 -1.455989e-01 8.834894e-03 2.517914e-02 1.079423e-01 -1.226582e-01 2.232556e-02 1.092138e-02
<VARIANCE> 39
 9.087649e+00 3.660232e+01 1.190109e+02 1.027579e+02 1.504755e+01 7.477563e+01 7.154966e+01 3.501624e+01 5.677446e+01 2.247982e+01 1.251938e+01 1.540129e+01 2.454712e+01 6.224460e-01 2.088205e+00 3.098058e+00 3.135290e+00 1.164688e+00 1.465443e+00 2.302226e+00 1.873447e+00 2.692834e+00 1.636440e+00 2.022519e+00 1.480264e+00 9.536608e-01 9.626006e-02 2.855048e-01 3.872901e-01 4.002178e-01 2.605256e-01 3.047009e-01 2.673685e-01 3.804492e-01 4.016771e-01 2.433704e-01 4.707543e-01 2.443402e-01 1.082092e-01
<GCONST> 1.074369e+02
<STATE> 3
<MEAN> 39
 -3.447068e-02 1.504037e+00 1.332618e+01 -1.267101e+01 -6.986413e+00 9.494270e+00 -1.370864e+01 -8.063958e-01 -4.936610e+00 4.780860e-01 -5.555756e+00 -7.719460e+00 6.075173e+01 7.522712e-02 4.153880e-01 -7.303832e-01 6.163052e-01 8.109444e-02 2.424124e-01 4.292883e-01 -2.094863e-02 1.327929e-01 -3.125804e-01 -5.157927e-01 -7.138509e-02 -6.578311e-01 -4.464721e-02 5.655989e-02 -5.725141e-02 1.180024e-01 -3.315092e-02 -1.092292e-01 5.622041e-02 4.286443e-02 -9.339067e-03 3.411020e-02 -1.223871e-02 8.361777e-02 -6.013521e-02
<VARIANCE> 39
 4.802942e+00 1.341703e+01 1.275615e+02 8.063602e+01 9.314265e+00 9.973830e+01 4.310360e+01 2.053464e+01 2.521612e+01 2.287337e+01 2.906166e+01 2.462209e+01 2.456380e+01 2.134955e-01 1.251049e+00 9.713382e-01 2.035337e+00 7.181743e-01 9.829237e-01 1.116269e+00 1.817503e+00 1.684981e+00 1.155140e+00 1.761423e+00 1.109976e+00 6.619779e-01 4.288734e-02 1.563709e-01 1.624698e-01 2.969435e-01 1.641281e-01 1.418256e-01 1.447524e-01 3.817513e-01 2.498960e-01 2.065595e-01 4.179082e-01 1.704808e-01 5.238493e-02
<GCONST> 9.223086e+01
<STATE> 4
<MEAN> 39
 -1.567355e+00 4.594105e+00 -6.922858e-01 3.312544e+00 -1.891323e+00 1.753110e+00 -4.614408e+00 1.205384e+00 -3.837504e+00 -1.712290e+00 -3.961150e+00 -2.199003e+00 5.122093e+01 -8.605832e-02 1.463960e-01 3.723716e-02 3.388946e-01 5.468928e-02 -1.428602e-01 3.900299e-02 -2.298061e-02 -1.385063e-01 -6.667709e-02 7.659998e-02 5.400693e-02 -1.480691e-01 -2.381934e-02 -1.724846e-03 3.964232e-03 -2.465906e-02 2.480755e-02 -1.098820e-02 9.432651e-03 -1.344982e-02 4.003172e-04 -3.306498e-02 2.734017e-02 -1.598285e-02 5.224206e-02
<VARIANCE> 39
 7.858989e+00 2.123701e+01 2.824836e+01 2.033560e+01 2.348532e+01 3.711709e+01 1.679858e+01 2.513771e+01 1.832724e+01 2.290262e+01 1.696425e+01 1.774255e+01 6.843945e+00 2.754292e-01 6.083514e-01 9.674487e-01 9.033523e-01 1.921335e+00 1.853662e+00 1.433068e+00 1.730180e+00 1.359594e+00 1.282570e+00 1.945118e+00 1.744650e+00 2.703551e-01 4.820517e-02 1.106402e-01 1.648713e-01 1.608562e-01 3.441130e-01 3.798274e-01 2.717081e-01 3.024078e-01 2.505028e-01 2.491387e-01 3.695294e-01 3.385083e-01 2.710310e-02
<GCONST> 8.850290e+01
<TRANSP> 5
 0.000000e+00 1.000000e+00 0.000000e+00 0.000000e+00 0.000000e+00
 0.000000e+00 7.495521e-01 2.504479e-01 0.000000e+00 0.000000e+00
 0.000000e+00 0.000000e+00 7.819657e-01 2.180343e-01 0.000000e+00
 0.000000e+00 0.000000e+00 0.000000e+00 9.511700e-01 4.883000e-02
 0.000000e+00 0.000000e+00 0.000000e+00 0.000000e+00 0.000000e+00
<ENDHMM>
~h "aw"
<BEGINHMM>
<NUMSTATES> 5
<STATE> 2
<MEAN> 39
 1.932128e+00 -2.775463e+00 6.627604e-01 -1.020216e+01 -6.118680e+00 1.830945e+00 -1.088826e+01 -4.946729e+00 5.779555e-01 3.727983e+00 2.554371e+00 -8.359233e+00 6.529314e+01 3.877010e-01 -3.881068e-01 5.596051e-01 -8.739844e-01 -7.452543e-01 1.134396e-01 -8.886018e-01 -4.341238e-01 2.565179e-01 5.574753e-01 8.550394e-01 -3.317626e-01 1.027152e+00 9.926938e-02 9.826813e-02 -1.287188e-01 2.989534e-01 6.875251e-03 1.975730e-01 1.187658e-02 1.153422e-01 -2.526222e-01 -1.972243e-02 -1.797033e-01 9.545104e-02 -2.461928e-01
<VARIANCE> 39
 1.989973e+01 3.898378e+01 3.265868e+01 5.577988e+01 9.308036e+01 6.259601e+01 6.336437e+01 4.349715e+01 5.705506e+01 5.341132e+01 3.336863e+01 4.838316e+01 3.080513e+01 1.879972e+00 2.365211e+00 2.170827e+00 6.991432e+00 3.854839e+00 4.268659e+00 6.036338e+00 4.343162e+00 4.323701e+00 3.172649e+00 4.132148e+00 4.383935e+00 4.261692e+00 4.584190e-01 4.286294e-01 3.655088e-01 9.079549e-01 8.867235e-01 8.617662e-01 1.027504e+00 8.277928e-01 7.370507e-01 6.012497e-01 7.711585e-01 7.736803e-01 5.256259e-01
<GCONST> 1.333764e+02
<STATE> 3
<MEAN> 39
 3.484493e+00 -3.619674e+00 2.287135e+00 -9.671999e+00 -9.251281e+00 3.387081e+00 -1.300265e+01 -6.205577e+00 -8.041501e-02 5.199679e+00 3.629243e+00 -8.176508e+00 6.645821e+01 2.958729e-01 -3.640917e-02 2.102458e-01 3.595602e-01 -3.534705e-01 2.757746e-01 -3.730072e-01 1.620855e-02 -4.187591e-01 3.603905e-02 1.513140e-02 1.965747e-01 -1.180350e-02 -1.013057e-01 1.583017e-01 -4.630008e-02 3.157825e-01 1.671087e-01 -1.071755e-01 2.111003e-01 8.810261e-02 -1.111332e-01 -1.578397e-01 -2.430579e-01 1.283402e-01 -2.691148e-01
<VARIANCE> 39
 1.025862e+01 3.566782e+01 3.141925e+01 5.384824e+01 6.871806e+01 5.808917e+01 7.154147e+01 6.814442e+01 7.902914e+01 5.167546e+01 3.838851e+01 5.726523e+01 2.455705e+01 1.182695e+00 2.152395e+00 2.213739e+00 4.503498e+00 3.914606e+00 3.876444e+00 5.431251e+00 5.051447e+00 4.386792e+00 3.554819e+00 4.400201e+00 4.377871e+00 2.320641e+00 2.168689e-01 3.732615e-01 3.490407e-01 8.432516e-01 6.882608e-01 7.217492e-01 9.685552e-01 8.644255e-01 8.080131e-01 6.115574e-01 8.986844e-01 8.891373e-01 4.020642e-01
<GCONST> 1.303660e+02
<STATE> 4
<MEAN> 39
 3.699537e+00 -4.207767e+00 3.922411e+00 -6.856408e+00 -1.084189e+01 4.024419e+00 -1.404816e+01 -4.865263e+00 -1.085969e+00 3.260966e+00 3.645092e+00 -9.333569e+00 6.560757e+01 -2.866587e-02 7.204311e-02 1.963781e-01 8.202122e-01 2.048127e-02 -4.049324e-01 7.318465e-02 4.111516e-01 -2.303014e-01 -3.838198e-01 -2.532384e-01 -1.027403e-01 -2.739284e-01 -7.885057e-02 2.305337e-02 -1.222142e-03 6.111561e-02 7.082680e-02 -1.450503e-01 1.109464e-01 7.048117e-02 -2.833848e-03 1.717583e-02 -2.708957e-02 -2.376442e-02 -3.174160e-02
<VARIANCE> 39
 9.321140e+00 5.015027e+01 3.558194e+01 4.610749e+01 4.036832e+01 5.354212e+01 9.014870e+01 7.705117e+01 7.900615e+01 4.814801e+01 5.192917e+01 7.281543e+01 3.120422e+01 1.026656e+00 2.301581e+00 2.392502e+00 4.302003e+00 3.191130e+00 3.729431e+00 6.443707e+00 4.763106e+00 4.552897e+00 2.926675e+00 6.131903e+00 5.051294e+00 2.392760e+00 1.995259e-01 3.773014e-01 3.691221e-01 7.376089e-01 6.130367e-01 7.726740e-01 1.225841e+00 9.603721e-01 7.676626e-01 4.742450e-01 1.271000e+00 9.831334e-01 3.799455e-01
<GCONST> 1.314342e+02
<TRANSP> 5
 0.000000e+00 1.000000e+00 0.000000e+00 0.000000e+00 0.000000e+00
 0.000000e+00 7.140114e-01 2.859887e-01 0.000000e+00 0.000000e+00
 0.000000e+00 0.000000e+00 7.137864e-01 2.862137e-01 0.000000e+00
 0.000000e+00 0.000000e+00 0.000000e+00 8.343946e-01 1.656054e-01
 0.000000e+00 0.000000e+00 0.000000e+00 0.000000e+00 0.000000e+00
<ENDHMM>
~h "ay"
<BEGINHMM>
<NUMSTATES> 5
<STATE> 2
<MEAN> 39
 5.403482e-01 -1.078200e+01 8.209557e+00 -4.044467e+00 -1.514353e+01 -6.987152e+00 -1.162595e+01 1.067636e+01 -1.537971e+00 -5.301100e+00 3.235268e+00 -1.107861e+01 6.998301e+01 -2.054056e-01 1.811260e-02 8.290166e-01 1.317433e-01 -8.010066e-01 -4.363663e-01 2.695449e-02 6.924779e-01 -4.262392e-01 -4.215447e-01 4.987954e-01 1.704641e-01 3.909402e-03 6.818513e-03 2.739675e-01 -2.382595e-02 6.432697e-02 1.518774e-01 1.318247e-01 4.623085e-02 -2.924181e-01 -2.345432e-01 1.012196e-01 9.704115e-03 9.802844e-02 -2.080884e-01
<VARIANCE> 39
 8.176678e+00 3.476349e+01 6.157669e+01 2.323593e+01 5.888327e+01 5.124993e+01 4.498172e+01 6.743338e+01 7.310039e+01 5.022014e+01 6.426787e+01 4.454042e+01 1.736592e+01 6.016884e-01 2.034844e+00 2.795292e+00 1.310233e+00 3.089854e+00 3.137717e+00 2.422297e+00 6.114888e+00 3.501240e+00 2.433103e+00 3.930168e+00 2.808954e+00 1.208871e+00 1.174555e-01 2.925888e-01 4.065449e-01 2.177779e-01 4.990650e-01 4.876926e-01 4.508365e-01 9.173836e-01 6.071346e-01 4.482580e-01 7.736005e-01 5.240622e-01 1.845770e-01
<GCONST> 1.188611e+02
<STATE> 3
<MEAN> 39
 -1.881805e-01 -8.182513e+00 1.082053e+01 -3.812084e+00 -1.596763e+01 -7.605976e+00 -1.162379e+01 9.491711e+00 -4.153124e+00 -5.607098e+00 5.154306e+00 -9.280199e+00 6.860237e+01 3.506439e-03 5.035817e-01 2.669236e-01 2.794207e-01 -5.322511e-02 1.547329e-01 1.359322e-01 -3.130316e-01 -5.867547e-01 6.178848e-02 8.537157e-02 1.918838e-01 -4.736690e-01 6.191653e-02 1.220933e-01 -2.177373e-01 6.378964e-02 2.418885e-01 1.796938e-01 6.391968e-02 -2.613638e-01 -1.882316e-02 1.171327e-01 -1.684114e-01 -3.411357e-03 -1.463547e-01
<VARIANCE> 39
 8.277404e+00 3.592155e+01 6.746040e+01 2.996914e+01 5.694435e+01 4.871756e+01 5.713436e+01 6.487244e+01 7.953514e+01 5.841426e+01 6.302792e+01 3.990462e+01 2.025079e+01 6.170084e-01 1.619858e+00 3.418521e+00 1.421807e+00 3.323330e+00 2.861064e+00 2.788225e+00 5.138381e+00 3.248118e+00 2.501225e+00 3.915645e+00 2.645587e+00 1.236749e+00 9.876123e-02 2.548338e-01 4.201795e-01 2.470073e-01 5.268606e-01 4.252574e-01 4.872411e-01 8.761083e-01 5.352899e-01 4.258303e-01 7.254419e-01 4.925219e-01 1.802504e-01
<GCONST> 1.190359e+02
<STATE> 4
<MEAN> 39
 2.949086e-01 -6.241031e+00 9.161606e+00 -2.387325e+00 -1.386937e+01 -6.512093e+00 -9.967385e+00 7.109567e+00 -4.828696e+00 -4.434103e+00 2.802360e+00 -7.584819e+00 6.598060e+01 1.681401e-01 5.679213e-01 -4.175874e-01 5.015228e-01 4.624777e-01 5.193080e-01 3.561553e-01 -6.632149e-01 -3.808876e-01 3.007385e-01 -4.238508e-01 1.189079e-01 -7.425020e-01 1.990892e-03 8.504677e-03 -1.235283e-01 -6.714591e-04 1.059110e-01 6.717241e-02 4.226803e-02 -1.235430e-01 3.871032e-02 7.510223e-02 -7.826656e-02 1.116324e-02 -1.795760e-02
<VARIANCE> 39
 8.136377e+00 3.493211e+01 6.526358e+01 3.272028e+01 5.923969e+01 4.399072e+01 5.882706e+01 6.098332e+01 7.914876e+01 4.720397e+01 4.861083e+01 3.816962e+01 3.117556e+01 5.708504e-01 1.424928e+00 2.719855e+00 1.557658e+00 2.547383e+00 2.387964e+00 2.584066e+00 3.579473e+00 2.842089e+00 2.359304e+00 2.688895e+00 2.331403e+00 9.397301e-01 9.760135e-02 2.147701e-01 3.302082e-01 3.001454e-01 3.798141e-01 4.003335e-01 4.221597e-01 6.343261e-01 5.012074e-01 4.054595e-01 4.459803e-01 4.110001e-01 1.367353e-01
<GCONST> 1.145217e+02
<TRANSP> 5
 0.000000e+00 1.000000e+00 0.000000e+00 0.000000e+00 0.000000e+00
 0.000000e+00 7.924348e-01 2.075653e-01 0.000000e+00 0.000000e+00
 0.000000e+00 0.000000e+00 7.227603e-01 2.772397e-01 0.000000e+00
 0.000000e+00 0.000000e+00 0.000000e+00 7.578914e-01 2.421086e-01
 0.000000e+00 0.000000e+00 0.000000e+00 0.000000e+00 0.000000e+00
<ENDHMM>
~h "kh"
<BEGINHMM>
<NUMSTATES> 5
<STATE> 2
<MEAN> 39
 -7.976568e-02 -2.332694e+00 -1.918648e+00 1.841227e+00 -4.615052e+00 -3.700845e+00 -1.931805e+00 1.068311e+00 -1.852484e+00 -1.837758e+00 -3.548386e+00 -3.413589e+00 5.900307e+01 -2.844240e-01 2.240485e-01 3.578996e-01 -1.335307e-01 -9.934969e-02 1.071737e-01 -1.762643e-01 -4.140497e-01 -7.355841e-02 1.523677e-01 8.424208e-02 3.288893e-01 -1.585567e-01 3.950632e-02 -2.102756e-01 8.075543e-02 -1.007312e-01 4.448595e-02 -5.114338e-02 -9.838876e-02 -3.788048e-02 8.868054e-06 5.383899e-02 -3.398585e-02 -1.027931e-01 2.170683e-01
<VARIANCE> 39
